~o
<STREAMINFO> 1 25
<VECSIZE> 25<NULLD><MFCC_D_N_Z_0><DIAGC>
~s "silst"
<MEAN> 25
 -7.109972e+000 -4.605537e+000 -2.869018e+000 1.089107e+000 -4.283133e-001 1.770172e-001 2.500179e-001 -2.278961e-002 1.504553e+000 1.930473e+000 7.014634e-001 -2.830461e-001 -3.855652e-002 -3.707856e-002 -2.759963e-002 -1.520423e-002 -1.425045e-002 -1.527601e-002 -8.018455e-003 8.554852e-003 1.278731e-002 9.288576e-003 1.437131e-002 1.197192e-002 -1.942982e-002
<VARIANCE> 25
 1.376907e+000 1.758664e+000 2.664767e+000 3.838858e+000 4.362721e+000 5.086517e+000 5.966211e+000 6.686308e+000 7.173899e+000 6.499904e+000 6.290705e+000 5.962868e+000 6.916491e-002 1.217910e-001 2.214512e-001 3.174658e-001 4.040680e-001 5.009875e-001 6.004311e-001 6.607328e-001 7.093579e-001 6.952502e-001 6.720176e-001 6.111179e-001 2.028519e-002
<GCONST> 4.796115e+001
~h "b"
<BEGINHMM>
<NUMSTATES> 5
<STATE> 2
<MEAN> 25
 -3.927346e+000 -2.174201e+000 -1.875521e+000 5.826362e-001 -3.257076e-001 1.262445e+000 9.552236e-001 -5.250329e-001 -2.916363e-001 1.000661e-001 -3.411851e-001 -1.153143e+000 -3.162336e-001 -2.105549e-001 -3.570644e-002 1.910440e-001 1.794610e-001 5.556194e-002 3.193299e-002 -2.811506e-002 -2.641875e-002 4.425580e-002 5.250668e-002 9.394898e-002 -1.767612e-001
<VARIANCE> 25
 4.692866e+000 8.407487e+000 1.748471e+001 1.806661e+001 7.424085e+000 8.168585e+000 9.353581e+000 1.269622e+001 1.607426e+001 9.416588e+000 9.417810e+000 1.387271e+001 2.939164e-001 3.706648e-001 6.829948e-001 7.456754e-001 5.531623e-001 6.290844e-001 7.702423e-001 8.825010e-001 1.127048e+000 8.828239e-001 6.044888e-001 6.675215e-001 8.015032e-002
<GCONST> 6.638206e+001
<STATE> 3
<MEAN> 25
 -6.395599e+000 -3.959224e+000 -2.181721e+000 1.999027e+000 7.504385e-001 1.128979e+000 9.663974e-002 3.832099e-002 1.707109e+000 1.635978e+000 3.082885e-001 -6.943089e-001 -9.358453e-003 1.326659e-002 4.674080e-002 8.040323e-002 7.743668e-002 5.278815e-002 2.076620e-002 5.989789e-002 1.336706e-001 9.678842e-002 4.825577e-002 3.081452e-002 -6.736427e-003
<VARIANCE> 25
 1.783356e+000 2.828070e+000 3.551416e+000 4.578709e+000 5.019274e+000 5.412362e+000 5.946971e+000 7.017663e+000 7.672604e+000 7.516669e+000 7.069805e+000 6.692295e+000 8.883543e-002 1.730302e-001 2.676130e-001 4.255140e-001 5.279037e-001 6.126070e-001 6.841196e-001 7.524351e-001 7.863366e-001 7.629789e-001 7.438471e-001 7.806501e-001 2.061447e-002
<GCONST> 5.222156e+001
<STATE> 4
<MEAN> 25
 1.448544e-001 3.934992e+000 5.985430e+000 8.442871e+000 5.357935e+000 3.829036e+000 1.916201e+000 9.269398e-001 2.177200e+000 1.964196e+000 2.711084e-001 -1.391692e+000 1.122153e+000 6.916885e-001 3.797668e-001 1.170042e-001 1.124190e-001 7.150204e-002 1.597294e-002 -2.545762e-001 -3.916373e-001 -1.777745e-001 -3.370975e-002 -3.670888e-002 6.535370e-001
<VARIANCE> 25
 1.427581e+001 2.077554e+001 2.261077e+001 1.635380e+001 1.040413e+001 8.349987e+000 9.456985e+000 7.399472e+000 8.416715e+000 6.445441e+000 6.258975e+000 6.324950e+000 1.095041e+000 2.345886e+000 3.200709e+000 3.040087e+000 1.891266e+000 1.270557e+000 1.035885e+000 9.900066e-001 1.101996e+000 7.574986e-001 7.946535e-001 7.077719e-001 4.885839e-001
<GCONST> 7.658518e+001
<TRANSP> 5
 0.000000e+000 1.000000e+000 0.000000e+000 0.000000e+000 0.000000e+000
 0.000000e+000 7.912310e-001 2.087690e-001 0.000000e+000 0.000000e+000
 0.000000e+000 0.000000e+000 9.182191e-001 8.178080e-002 0.000000e+000
 0.000000e+000 0.000000e+000 0.000000e+000 8.905720e-001 1.094280e-001
 0.000000e+000 0.000000e+000 0.000000e+000 0.000000e+000 0.000000e+000
<ENDHMM>
~h "d"
<BEGINHMM>
<NUMSTATES> 5
<STATE> 2
<MEAN> 25
 1.451738e+000 1.226011e+000 9.164186e+000 5.530385e+000 6.345002e+000 3.586129e+000 -2.134694e+000 -1.937299e+000 -7.066944e-001 -9.597688e-001 -1.770691e+000 -2.172716e+000 7.601342e-001 2.687938e-002 6.135079e-001 3.772343e-002 5.678372e-001 -1.484125e-001 -1.418062e+000 -4.617897e-001 -3.562192e-001 -6.578299e-001 -1.835607e-001 -4.987514e-002 7.848394e-001
<VARIANCE> 25
 2.044436e+001 2.913670e+001 4.498816e+001 3.684490e+001 2.943545e+001 2.386614e+001 4.828399e+001 3.134443e+001 2.281862e+001 1.740215e+001 2.482043e+001 1.955358e+001 2.109599e+000 5.399150e+000 4.155515e+000 6.306436e+000 3.872664e+000 3.007504e+000 4.694980e+000 3.772123e+000 2.597199e+000 2.176673e+000 2.693755e+000 1.810205e+000 2.641077e+000
<GCONST> 1.011113e+002
<STATE> 3
<MEAN> 25
 3.392400e+000 6.271764e+000 1.175088e+001 9.932046e+000 7.893476e+000 2.364432e+000 -5.829041e+000 -7.260832e-001 1.551955e+000 -2.887311e+000 -3.159741e+000 -4.050865e+000 -4.673769e-002 4.447885e-001 -5.077951e-001 -1.099264e-001 -8.704650e-001 -4.440288e-002 1.290819e+000 4.341307e-001 4.850052e-001 7.584619e-001 4.990200e-001 2.317625e-001 -4.372030e-001
<VARIANCE> 25
 4.716624e+000 4.486886e+000 1.217334e+001 1.510767e+001 1.781754e+001 1.024873e+001 3.122081e+001 6.695450e+000 1.079066e+001 1.286462e+001 1.539108e+001 1.455707e+001 1.920124e-001 2.661802e-001 9.568524e-001 8.404805e-001 1.366997e+000 8.057690e-001 2.212443e+000 7.512877e-001 1.013861e+000 1.008459e+000 7.246442e-001 6.768262e-001 1.539128e-001
<GCONST> 6.996004e+001
<STATE> 4
<MEAN> 25
 3.814012e+000 6.873599e+000 7.348332e+000 7.592477e+000 3.873869e+000 1.835707e+000 -9.537704e-003 -4.200757e-001 1.166767e+000 1.298169e+000 8.171363e-001 -1.162675e+000 -1.660181e-001 -4.759869e-002 -2.744299e-001 6.643926e-002 1.125223e-001 3.596019e-001 9.110647e-001 4.744403e-001 1.841064e-001 1.118249e-001 -1.748594e-001 -2.236999e-001 -1.631398e-001
<VARIANCE> 25
 1.157408e+001 4.368316e+000 1.592145e+001 2.670689e+001 6.033252e+000 9.548521e+000 1.055517e+001 1.325370e+001 1.495514e+001 9.473855e+000 1.679021e+001 2.755680e+001 1.392795e-001 1.859409e-001 5.746158e-001 5.073925e-001 7.052399e-001 5.134068e-001 1.401314e+000 6.601233e-001 6.082645e-001 5.864131e-001 8.477313e-001 6.351072e-001 5.441613e-002
<GCONST> 6.546680e+001
<TRANSP> 5
 0.000000e+000 1.000000e+000 0.000000e+000 0.000000e+000 0.000000e+000
 0.000000e+000 8.472360e-001 1.527640e-001 0.000000e+000 0.000000e+000
 0.000000e+000 0.000000e+000 7.973963e-001 2.026037e-001 0.000000e+000
 0.000000e+000 0.000000e+000 0.000000e+000 5.801979e-001 4.198021e-001
 0.000000e+000 0.000000e+000 0.000000e+000 0.000000e+000 0.000000e+000
<ENDHMM>
~h "f"
<BEGINHMM>
<NUMSTATES> 5
<STATE> 2
<MEAN> 25
 -2.510233e+000 -1.080106e+001 -5.003537e+000 -4.387157e+000 3.678657e+000 3.206569e+000 9.412696e-001 -6.816664e+000 -4.363847e+000 -1.457041e+000 2.966531e+000 2.637164e+000 8.641984e-002 1.479015e-001 2.433620e-001 7.439018e-002 4.390585e-002 -1.722040e-001 -2.334812e-001 2.606853e-002 6.145251e-002 -1.652653e-001 -1.820063e-001 -9.883457e-002 8.187635e-002
<VARIANCE> 25
 9.428484e+000 1.482086e+001 1.212385e+001 2.285263e+001 1.533702e+001 1.381446e+001 2.083635e+001 1.598917e+001 1.482884e+001 1.964969e+001 1.196559e+001 1.129599e+001 1.714917e+000 4.549407e+000 2.697069e+000 6.839759e+000 2.580253e+000 1.494450e+000 3.125405e+000 1.548135e+000 2.234114e+000 2.452811e+000 1.533941e+000 2.158762e+000 4.081484e-001
<GCONST> 8.815453e+001
<STATE> 3
<MEAN> 25
 5.335365e+000 3.594541e+000 7.489847e+000 1.300330e+001 1.124562e+001 2.696083e-001 -1.098690e+001 -5.906647e+000 -1.439418e+000 -4.434502e+000 -6.106673e+000 -5.870418e+000 4.790889e-001 2.295862e+000 3.399305e+000 1.733131e+000 1.213029e-001 -9.436203e-001 -1.261067e+000 1.062901e+000 1.087580e-001 -2.351159e+000 -1.801549e+000 -6.098562e-001 -6.681792e-003
<VARIANCE> 25
 1.156592e+001 1.836514e+001 2.515717e+001 3.783438e+001 1.881183e+001 1.322150e+001 2.581066e+001 1.619133e+001 1.159709e+001 1.875226e+001 1.484045e+001 7.993383e+000 1.031496e+000 5.094168e+000 3.724866e+000 3.493723e+000 1.843828e+000 1.513089e+000 3.277221e+000 1.514570e+000 1.849789e+000 1.824389e+000 3.353660e+000 1.742885e+000 1.949299e-001
<GCONST> 8.807346e+001
<STATE> 4
<MEAN> 25
 3.542345e+000 5.681102e+000 1.254758e+001 1.269766e+001 8.695442e+000 1.730835e+000 -7.061093e+000 -5.588382e-001 -2.353005e+000 -8.654073e+000 -5.056674e+000 -4.327636e+000 -2.875606e-001 -1.449981e-001 -2.800153e-001 -3.227742e-001 -3.091617e-001 3.264445e-001 8.884201e-001 4.565207e-001 2.316864e-001 2.951925e-001 3.584912e-001 2.671781e-001 -2.147666e-001
<VARIANCE> 25
 4.560950e+000 7.448504e+000 1.018438e+001 1.351198e+001 8.120987e+000 1.024998e+001 2.045662e+001 7.805177e+000 8.305613e+000 1.235876e+001 8.166910e+000 6.573321e+000 1.364729e-001 4.685230e-001 6.087570e-001 3.363367e-001 3.591824e-001 5.418608e-001 8.500704e-001 7.487049e-001 8.175159e-001 8.858198e-001 6.464190e-001 7.212669e-001 8.330168e-002
<GCONST> 6.251077e+001
<TRANSP> 5
 0.000000e+000 1.000000e+000 0.000000e+000 0.000000e+000 0.000000e+000
 0.000000e+000 9.218921e-001 7.810794e-002 0.000000e+000 0.000000e+000
 0.000000e+000 0.000000e+000 6.847599e-001 3.152401e-001 0.000000e+000
 0.000000e+000 0.000000e+000 0.000000e+000 8.813249e-001 1.186751e-001
 0.000000e+000 0.000000e+000 0.000000e+000 0.000000e+000 0.000000e+000
<ENDHMM>
~h "g"
<BEGINHMM>
<NUMSTATES> 5
<STATE> 2
<MEAN> 25
 2.866646e+000 5.416152e+000 4.266315e+000 2.828100e+000 2.305871e+000 1.739266e+000 -1.015248e+000 -2.297579e+000 -1.753818e+000 8.098429e-002 5.040417e-001 1.973653e-001 -1.551137e+000 -2.529047e-001 4.179808e-001 1.078636e+000 -4.873890e-001 -2.129810e-001 1.336708e+000 1.896453e+000 1.865363e+000 8.814905e-001 -3.528150e-001 -5.208170e-001 -1.216366e+000
<VARIANCE> 25
 8.469167e+000 4.167105e+000 4.848369e+000 9.491313e+000 8.828863e+000 8.711985e+000 1.318685e+001 1.631776e+001 1.794022e+001 1.174440e+001 1.096138e+001 5.337541e+000 3.939093e-001 3.407816e-001 8.873481e-001 1.129568e+000 8.493701e-001 8.997157e-001 1.244063e+000 1.398664e+000 1.260128e+000 1.205243e+000 1.450954e+000 7.983078e-001 2.924001e-001
<GCONST> 7.008772e+001
<STATE> 3
<MEAN> 25
 -4.860235e-001 3.341151e+000 3.375708e+000 4.516070e+000 1.705027e+000 1.797840e+000 1.952749e+000 1.616274e+000 2.191883e+000 1.992312e+000 9.571223e-001 6.049037e-002 -5.495424e-001 -5.923579e-001 -3.168495e-001 1.401868e-001 7.374360e-002 1.298884e-001 1.566621e-001 2.052144e-001 3.452617e-001 1.982230e-001 5.815236e-002 -2.582719e-002 -2.761872e-001
<VARIANCE> 25
 5.088083e+000 6.412582e+000 6.466899e+000 8.744315e+000 7.839112e+000 8.010363e+000 1.011868e+001 7.809974e+000 8.138859e+000 6.858256e+000 6.559096e+000 6.274904e+000 1.797668e-001 4.425561e-001 5.516908e-001 7.549772e-001 7.326987e-001 6.913521e-001 8.700323e-001 7.295988e-001 7.672100e-001 7.793105e-001 6.670503e-001 6.094612e-001 6.183308e-002
<GCONST> 6.097689e+001
<STATE> 4
<MEAN> 25
 -1.209437e+000 -5.281911e+000 2.018887e+000 -1.619710e+000 1.182915e+000 -7.260790e-002 -5.016970e-001 2.739649e+000 -3.365435e-001 -3.272119e+000 2.291998e+000 -3.558902e-002 4.843153e-001 -1.036032e+000 6.320831e-001 -9.854246e-001 7.325999e-002 -2.091531e-001 -6.446133e-001 3.490538e-001 -8.084018e-001 -1.498715e+000 2.492194e-001 5.618699e-002 1.349232e+000
<VARIANCE> 25
 1.545274e+001 4.953456e+001 2.720179e+001 5.385876e+001 2.079783e+001 2.159758e+001 3.865433e+001 2.609199e+001 3.993002e+001 4.260173e+001 1.583248e+001 8.924966e+000 1.216801e+000 5.852503e+000 4.723594e+000 7.662352e+000 2.327547e+000 2.387665e+000 3.890652e+000 1.585948e+000 2.884092e+000 4.522357e+000 2.036891e+000 9.045061e-001 2.792290e+000
<GCONST> 9.858372e+001
<TRANSP> 5
 0.000000e+000 1.000000e+000 0.000000e+000 0.000000e+000 0.000000e+000
 0.000000e+000 6.619766e-001 3.380234e-001 0.000000e+000 0.000000e+000
 0.000000e+000 0.000000e+000 8.089663e-001 1.910337e-001 0.000000e+000
 0.000000e+000 0.000000e+000 0.000000e+000 8.369398e-001 1.630602e-001
 0.000000e+000 0.000000e+000 0.000000e+000 0.000000e+000 0.000000e+000
<ENDHMM>
~h "k"
<BEGINHMM>
<NUMSTATES> 5
<STATE> 2
<MEAN> 25
 -5.520077e+000 -3.051610e+000 -1.607361e+000 1.682162e+000 -2.777550e-001 2.478521e-001 5.374439e-001 8.785118e-001 2.307937e+000 2.330579e+000 7.167177e-001 -5.652891e-001 6.537639e-001 -3.440211e-001 -7.292917e-001 -1.490953e+000 -7.879537e-001 -9.541652e-002 5.745091e-001 -2.491415e-001 -7.891960e-001 -4.487601e-001 2.475919e-001 2.669488e-001 7.880979e-001
<VARIANCE> 25
 2.387658e+000 3.011678e+000 4.667234e+000 7.656848e+000 9.021070e+000 7.864908e+000 6.934634e+000 8.849038e+000 9.290223e+000 9.909353e+000 9.046112e+000 7.894281e+000 1.984585e+000 1.278506e+000 1.587000e+000 5.507832e+000 3.337049e+000 2.230158e+000 3.180989e+000 1.325529e+000 2.273365e+000 2.003743e+000 1.369294e+000 1.243149e+000 2.055944e+000
<GCONST> 7.797987e+001
<STATE> 3
<MEAN> 25
 2.511662e+000 -5.659441e+000 -7.632443e+000 -1.334985e+001 -6.619679e+000 2.784137e-001 6.085622e+000 -2.533428e+000 -6.053502e+000 -3.057973e+000 2.694207e+000 1.392276e+000 2.441980e+000 2.946726e-001 -5.840271e-001 -3.606103e+000 -1.732905e+000 -6.190079e-001 1.504895e+000 -2.132228e-001 -2.050103e+000 -1.185353e+000 9.852241e-001 1.172076e+000 2.561102e+000
<VARIANCE> 25
 1.384039e+001 2.910054e+001 2.110083e+001 4.464171e+001 6.801113e+001 5.867283e+001 7.824629e+001 2.766282e+001 2.650411e+001 2.966711e+001 1.966142e+001 1.722463e+001 1.311955e+000 2.674180e+000 2.339978e+000 5.083251e+000 4.653300e+000 4.916679e+000 5.341555e+000 2.003382e+000 2.404827e+000 2.272189e+000 1.636259e+000 1.638018e+000 1.708096e+000
<GCONST> 9.970851e+001
<STATE> 4
<MEAN> 25
 3.781660e+000 -7.079034e-001 -3.900884e+000 -9.084837e+000 -5.785140e+000 -1.809344e+000 3.332902e+000 -3.288113e-001 -4.355274e+000 -1.229588e+000 3.220881e+000 3.301649e+000 1.339195e+000 2.126086e+000 9.348425e-001 2.161395e+000 1.417003e+000 -1.635033e-001 -1.351094e+000 8.126476e-001 1.264401e+000 4.786345e-001 -8.844423e-001 2.874666e-001 -2.949419e-001
<VARIANCE> 25
 1.840879e+001 2.122960e+001 1.531718e+001 4.092146e+001 4.745260e+001 5.086748e+001 6.812521e+001 2.397157e+001 3.233636e+001 2.635377e+001 2.190935e+001 1.388506e+001 2.595309e+000 2.289316e+000 1.769020e+000 2.673408e+000 3.049060e+000 2.961003e+000 3.727037e+000 1.555140e+000 1.807222e+000 1.237096e+000 1.436650e+000 1.702628e+000 8.602337e-001
<GCONST> 9.485026e+001
<TRANSP> 5
 0.000000e+000 1.000000e+000 0.000000e+000 0.000000e+000 0.000000e+000
 0.000000e+000 7.866198e-001 2.133801e-001 0.000000e+000 0.000000e+000
 0.000000e+000 0.000000e+000 5.443805e-001 4.556195e-001 0.000000e+000
 0.000000e+000 0.000000e+000 0.000000e+000 6.806207e-001 3.193794e-001
 0.000000e+000 0.000000e+000 0.000000e+000 0.000000e+000 0.000000e+000
<ENDHMM>
~h "l"
<BEGINHMM>
<NUMSTATES> 5
<STATE> 2
<MEAN> 25
 -2.237434e+000 -2.737362e+000 -1.823758e+000 -2.607069e+000 -1.228487e+000 2.141801e+000 2.310445e+000 1.949855e-002 -1.194015e+000 1.696069e-001 6.732023e-001 1.206121e+000 -1.354055e-001 8.271572e-002 3.559100e-002 1.422714e-001 -3.351188e-001 -2.710175e-001 -2.367370e-001 -1.016951e-001 9.406867e-002 -3.581778e-002 -1.015438e-001 -2.305846e-001 -2.067577e-001
<VARIANCE> 25
 3.622155e+001 4.157488e+001 2.694804e+001 3.111205e+001 1.663376e+001 2.140367e+001 1.581043e+001 1.224023e+001 1.651362e+001 1.597885e+001 1.257049e+001 1.255491e+001 5.997255e-001 2.240475e+000 2.673359e+000 3.089457e+000 1.593005e+000 1.832851e+000 1.764300e+000 1.333820e+000 1.540283e+000 1.669731e+000 1.297822e+000 1.505282e+000 6.595181e-001
<GCONST> 8.730498e+001
<STATE> 3
<MEAN> 25
 3.634015e+000 4.750387e+000 1.249359e+000 -2.392477e+000 -3.410406e+000 -1.609813e+000 -5.717625e-002 -7.843344e-002 -2.181603e+000 -1.976863e+000 -2.101821e+000 -6.360558e-001 8.638345e-001 1.113142e+000 7.388806e-001 2.285725e-001 -6.135922e-001 -5.735047e-001 -4.692441e-001 -1.912250e-001 -2.524264e-001 -6.706792e-001 -6.195005e-001 -6.005951e-001 2.754476e-001
<VARIANCE> 25
 3.688434e+001 2.531532e+001 1.090977e+001 2.776783e+001 1.359830e+001 8.431182e+000 7.494215e+000 9.104400e+000 1.107338e+001 1.266614e+001 9.487690e+000 6.769192e+000 2.496772e+000 1.642119e+000 1.099781e+000 2.607941e+000 1.090219e+000 1.015331e+000 9.609587e-001 1.029095e+000 1.194128e+000 9.984446e-001 7.742327e-001 9.951317e-001 9.944943e-001
<GCONST> 7.903497e+001
<STATE> 4
<MEAN> 25
 7.605250e+000 8.757842e+000 3.100400e+000 -4.938983e+000 -6.571017e+000 -4.359758e+000 -1.022745e+000 1.199164e+000 -1.173737e+000 -2.059788e+000 -2.670222e+000 -1.278587e+000 -2.527403e-002 -1.946877e-001 -1.244093e-001 -4.688239e-001 -1.510566e-002 -3.942156e-003 1.919050e-001 3.209839e-001 2.484908e-001 -3.144738e-003 -1.144056e-002 6.231660e-002 1.760141e-001
<VARIANCE> 25
 1.572561e+001 1.322359e+001 1.066339e+001 2.484764e+001 1.301755e+001 1.027268e+001 9.791269e+000 8.839471e+000 1.089130e+001 1.098606e+001 6.547677e+000 6.430500e+000 3.775998e-001 5.165947e-001 1.189693e+000 2.198462e+000 7.811552e-001 8.386918e-001 1.105806e+000 1.022777e+000 7.378423e-001 7.124775e-001 7.259154e-001 8.849213e-001 3.650694e-001
<GCONST> 7.167902e+001
<TRANSP> 5
 0.000000e+000 1.000000e+000 0.000000e+000 0.000000e+000 0.000000e+000
 0.000000e+000 7.129580e-001 2.870420e-001 0.000000e+000 0.000000e+000
 0.000000e+000 0.000000e+000 4.283349e-001 5.716652e-001 0.000000e+000
 0.000000e+000 0.000000e+000 0.000000e+000 7.491027e-001 2.508973e-001
 0.000000e+000 0.000000e+000 0.000000e+000 0.000000e+000 0.000000e+000
<ENDHMM>
~h "m"
<BEGINHMM>
<NUMSTATES> 5
<STATE> 2
<MEAN> 25
 1.173923e+000 2.724976e+000 1.678415e+000 3.707628e+000 1.415109e+000 1.940610e+000 2.543922e+000 2.634659e+000 2.759298e+000 1.132949e+000 -1.244214e+000 -3.085165e+000 1.020370e+000 8.697004e-001 7.150567e-001 8.472131e-001 1.038164e+000 8.778532e-001 5.888734e-001 6.287572e-001 3.605448e-001 -4.135388e-001 -8.410698e-001 -9.444630e-001 5.107256e-001
<VARIANCE> 25
 2.696803e+001 2.213755e+001 1.452299e+001 8.484930e+000 7.957942e+000 9.132106e+000 8.029849e+000 7.226039e+000 7.607682e+000 8.768861e+000 1.026073e+001 8.492987e+000 2.716071e+000 1.183675e+000 8.587335e-001 1.279333e+000 1.127995e+000 8.848011e-001 7.660123e-001 1.097473e+000 1.353576e+000 9.061878e-001 8.538484e-001 6.782303e-001 8.135236e-001
<GCONST> 7.470558e+001
<STATE> 3
<MEAN> 25
 4.745535e+000 6.313769e+000 3.934934e+000 4.710449e+000 2.124527e+000 2.321556e+000 3.073492e+000 3.825608e+000 4.006932e+000 1.333680e+000 -1.651542e+000 -3.913591e+000 -1.715601e-001 -1.180419e-001 4.788694e-002 2.434367e-001 2.571787e-001 1.851237e-001 1.475659e-001 7.923998e-002 8.532926e-002 7.194550e-002 4.878848e-002 2.195461e-003 -9.772192e-002
<VARIANCE> 25
 4.816421e+000 3.635919e+000 7.746211e+000 6.771183e+000 6.564557e+000 7.068780e+000 5.679259e+000 7.007491e+000 9.867785e+000 8.541363e+000 8.544390e+000 9.474943e+000 4.464743e-001 2.863650e-001 4.199803e-001 4.349470e-001 4.518685e-001 4.940676e-001 5.536973e-001 6.402898e-001 7.547279e-001 7.083542e-001 7.009999e-001 6.369654e-001 1.354783e-001
<GCONST> 5.939420e+001
<STATE> 4
<MEAN> 25
 -2.743534e-001 1.637035e+000 1.383561e+000 4.284076e+000 2.386628e+000 2.891214e+000 3.092404e+000 2.807191e+000 3.049176e+000 1.838080e+000 6.188620e-002 -1.818071e+000 -1.224568e-001 -4.600486e-001 -6.961849e-001 -9.064127e-001 -7.543505e-001 -5.137430e-001 -4.299991e-001 -3.303403e-001 -2.958864e-001 -9.908932e-002 2.635791e-001 6.131474e-001 1.294588e-002
<VARIANCE> 25
 2.186687e+001 1.448058e+001 1.134244e+001 9.251411e+000 6.624289e+000 7.494915e+000 5.447484e+000 7.346206e+000 8.600710e+000 1.109139e+001 1.263934e+001 1.176041e+001 1.665194e+000 1.023990e+000 7.154227e-001 1.544364e+000 1.312504e+000 1.023445e+000 7.438377e-001 9.783410e-001 1.126092e+000 1.037548e+000 1.031927e+000 1.114386e+000 5.018839e-001
<GCONST> 7.372852e+001
<TRANSP> 5
 0.000000e+000 1.000000e+000 0.000000e+000 0.000000e+000 0.000000e+000
 0.000000e+000 5.698937e-001 4.301063e-001 0.000000e+000 0.000000e+000
 0.000000e+000 0.000000e+000 8.227201e-001 1.772800e-001 0.000000e+000
 0.000000e+000 0.000000e+000 0.000000e+000 7.058314e-001 2.941686e-001
 0.000000e+000 0.000000e+000 0.000000e+000 0.000000e+000 0.000000e+000
<ENDHMM>
~h "n"
<BEGINHMM>
<NUMSTATES> 5
<STATE> 2
<MEAN> 25
 7.200830e+000 6.829988e+000 4.131059e+000 3.464638e+000 2.794217e+000 1.648055e+000 -2.626091e+000 -5.635937e+000 -5.028725e+000 -1.723032e+000 1.249106e+000 2.023138e+000 -9.833992e-001 3.765509e-001 1.113147e+000 2.412973e+000 8.180025e-001 8.887386e-001 5.252832e-001 -2.809142e-001 4.942532e-002 -6.984390e-001 -7.319362e-001 -5.885004e-001 -1.044630e+000
<VARIANCE> 25
 4.821606e+000 3.875081e+000 1.334462e+001 2.130787e+001 1.169797e+001 8.355279e+000 1.801670e+001 1.173941e+001 1.099790e+001 1.181797e+001 1.019416e+001 1.116487e+001 4.171183e-001 4.808995e-001 1.587824e+000 2.924817e+000 1.751288e+000 1.242438e+000 3.965765e+000 1.634656e+000 1.321548e+000 1.207714e+000 1.026791e+000 1.179547e+000 2.766390e-001
<GCONST> 7.601299e+001
<STATE> 3
<MEAN> 25
 5.174354e+000 6.438879e+000 4.806711e+000 7.637492e+000 6.036502e+000 3.911850e+000 -9.584916e-001 -4.375880e+000 -3.607536e+000 -1.705618e+000 8.096991e-001 1.665823e+000 -4.275179e-001 -1.288558e-001 1.371055e-001 3.132269e-001 2.135487e-001 2.163641e-001 3.910778e-001 3.696648e-001 2.764064e-001 1.943627e-001 1.112748e-001 -4.232446e-003 -2.701922e-001
<VARIANCE> 25
 4.268913e+000 2.316427e+000 7.240013e+000 5.874713e+000 5.053166e+000 6.450920e+000 8.496007e+000 6.894862e+000 9.900769e+000 1.095183e+001 7.996655e+000 8.840199e+000 1.317374e-001 1.729662e-001 3.874027e-001 3.168109e-001 3.981171e-001 5.344887e-001 6.989217e-001 6.542257e-001 9.585055e-001 9.707920e-001 7.713229e-001 5.827867e-001 5.277746e-002
<GCONST> 5.646506e+001
<STATE> 4
<MEAN> 25
 -1.452422e+000 1.138890e+000 2.836306e+000 5.921559e+000 3.870322e+000 3.429547e+000 1.552347e+000 -8.531944e-001 -4.547293e-001 6.968382e-001 1.413486e+000 7.291641e-001 -8.532327e-001 -8.845667e-001 -5.632268e-001 -6.274838e-001 -5.154296e-001 -2.481660e-001 7.602691e-002 3.233518e-001 3.677625e-001 2.090231e-001 -1.202481e-001 -2.068149e-001 -3.375912e-001
<VARIANCE> 25
 9.942381e+000 1.470308e+001 1.142882e+001 9.970243e+000 1.065244e+001 9.414998e+000 8.464116e+000 9.599049e+000 1.068162e+001 9.156892e+000 8.868190e+000 8.141748e+000 3.934393e-001 8.611386e-001 1.243039e+000 8.173548e-001 9.901727e-001 1.085462e+000 1.079722e+000 1.268165e+000 1.298444e+000 1.048156e+000 1.007221e+000 8.518686e-001 2.182403e-001
<GCONST> 7.148850e+001
<TRANSP> 5
 0.000000e+000 1.000000e+000 0.000000e+000 0.000000e+000 0.000000e+000
 0.000000e+000 5.658511e-001 4.341489e-001 0.000000e+000 0.000000e+000
 0.000000e+000 0.000000e+000 8.853307e-001 1.146693e-001 0.000000e+000
 0.000000e+000 0.000000e+000 0.000000e+000 8.463582e-001 1.536418e-001
 0.000000e+000 0.000000e+000 0.000000e+000 0.000000e+000 0.000000e+000
<ENDHMM>
~h "p"
<BEGINHMM>
<NUMSTATES> 5
<STATE> 2
<MEAN> 25
 -4.977073e+000 -3.381677e+000 -1.238446e+000 1.618304e+000 4.099340e-001 2.353501e+000 1.787871e+000 5.620073e-001 1.283544e+000 1.312025e+000 8.529268e-001 3.673930e-001 -1.673211e-001 -1.602793e-001 -1.604993e-001 -1.191892e-001 -1.352936e-001 -1.949912e-001 -9.370212e-002 -4.333444e-002 1.935458e-002 1.441177e-001 5.860391e-002 -2.970544e-002 -8.184988e-002
<VARIANCE> 25
 4.505430e+000 8.452848e+000 2.114247e+001 1.309160e+001 1.056521e+001 1.408930e+001 1.378841e+001 1.766276e+001 1.280236e+001 1.323962e+001 9.438078e+000 1.047868e+001 6.050648e-001 1.274232e+000 2.523965e+000 1.488131e+000 1.551090e+000 1.703315e+000 1.712904e+000 1.845357e+000 1.382632e+000 1.342389e+000 8.421964e-001 1.188133e+000 3.113832e-001
<GCONST> 7.807320e+001
<STATE> 3
<MEAN> 25
 -4.821084e+000 -2.816896e+000 -2.142360e+000 8.381435e-001 -1.637143e+000 -1.752571e+000 -2.025224e+000 -1.753412e+000 4.542374e-001 1.573029e+000 1.111307e+000 2.425278e-001 3.487789e-001 -1.171035e-001 -3.034809e-001 -3.579748e-001 -2.590613e-001 -1.990200e-001 -2.126993e-001 -3.791083e-001 -4.090074e-001 -1.053654e-001 1.501287e-001 2.028566e-001 2.739625e-001
<VARIANCE> 25
 7.348910e+000 4.642291e+000 4.791383e+000 7.468556e+000 1.069197e+001 1.196414e+001 1.172962e+001 1.299846e+001 1.318933e+001 1.089512e+001 1.090331e+001 9.071793e+000 1.714310e+000 5.675565e-001 7.022694e-001 1.050033e+000 1.149541e+000 1.303752e+000 1.108036e+000 1.568830e+000 1.858701e+000 1.241284e+000 1.204983e+000 1.133261e+000 7.949310e-001
<GCONST> 7.403812e+001
<STATE> 4
<MEAN> 25
 -6.556409e+000 -4.089664e+000 -2.451585e+000 1.530284e+000 -8.654334e-002 2.188062e-001 3.394323e-001 1.408290e-001 1.531430e+000 2.119678e+000 8.506303e-001 -5.345492e-001 4.348948e-001 4.652483e-002 -1.138395e-001 -1.661105e-001 -8.754732e-003 8.808418e-002 1.710862e-002 -1.979143e-001 -3.097427e-001 -1.997313e-001 -4.797866e-002 2.135718e-003 3.154517e-001
<VARIANCE> 25
 2.306978e+000 2.485517e+000 3.323556e+000 4.200765e+000 4.527436e+000 5.319431e+000 5.344430e+000 6.431897e+000 8.093166e+000 7.653787e+000 6.979601e+000 6.275983e+000 1.874556e+000 4.953402e-001 3.998173e-001 6.243976e-001 8.831923e-001 8.893017e-001 6.682765e-001 1.297447e+000 1.713119e+000 1.082408e+000 8.590681e-001 8.619194e-001 8.680170e-001
<GCONST> 6.328386e+001
<TRANSP> 5
 0.000000e+000 1.000000e+000 0.000000e+000 0.000000e+000 0.000000e+000
 0.000000e+000 6.346025e-001 3.653975e-001 0.000000e+000 0.000000e+000
 0.000000e+000 0.000000e+000 3.791623e-001 6.208377e-001 0.000000e+000
 0.000000e+000 0.000000e+000 0.000000e+000 8.048059e-001 1.951941e-001
 0.000000e+000 0.000000e+000 0.000000e+000 0.000000e+000 0.000000e+000
<ENDHMM>
~h "r"
<BEGINHMM>
<NUMSTATES> 5
<STATE> 2
<MEAN> 25
 -1.338757e+000 -1.782013e+000 -3.606250e+000 -1.809380e+000 -1.634305e-001 2.589894e+000 1.673175e+000 -9.981922e-001 -2.210897e+000 -7.905714e-001 1.617831e+000 2.781840e+000 8.886651e-001 5.001255e-001 9.954791e-002 -5.020780e-002 2.665740e-001 2.342339e-001 -1.875308e-002 -1.911051e-001 -6.101519e-001 -5.423088e-001 6.446789e-003 3.121091e-001 5.058880e-001
<VARIANCE> 25
 2.147607e+001 1.436446e+001 1.483772e+001 1.465994e+001 1.040863e+001 1.024493e+001 1.174138e+001 1.183945e+001 1.418488e+001 1.239712e+001 9.422776e+000 1.114959e+001 2.041705e+000 1.432333e+000 1.632789e+000 1.781425e+000 1.211525e+000 1.327554e+000 1.521784e+000 1.340837e+000 1.603393e+000 1.553995e+000 1.027730e+000 1.243676e+000 6.765757e-001
<GCONST> 8.058591e+001
<STATE> 3
<MEAN> 25
 8.684575e+000 5.025250e+000 -1.308448e+000 -1.921702e+000 -4.729826e-001 1.043782e+000 5.825752e-001 -1.380398e+000 -5.801856e+000 -5.941300e+000 -1.906594e+000 2.051886e+000 6.506215e-001 5.407773e-001 2.739448e-002 -1.895996e-001 -6.161410e-001 -4.777164e-001 1.574220e-001 4.275340e-001 1.791059e-001 -2.983583e-001 -6.662865e-001 -5.469916e-001 2.491807e-001
<VARIANCE> 25
 1.609683e+001 7.872143e+000 1.038970e+001 1.085938e+001 9.405085e+000 8.676292e+000 1.006867e+001 9.743068e+000 1.255326e+001 1.154391e+001 8.440907e+000 7.115910e+000 2.801283e+000 1.410259e+000 1.495264e+000 1.562104e+000 9.744819e-001 1.142691e+000 1.322738e+000 1.214122e+000 2.025751e+000 1.913870e+000 1.291499e+000 1.281695e+000 1.089270e+000
<GCONST> 7.832212e+001
<STATE> 4
<MEAN> 25
 9.622693e+000 8.682892e+000 1.605097e+000 -3.698138e+000 -6.547465e+000 -4.376074e+000 8.982574e-001 3.280842e+000 -1.483538e+000 -4.002533e+000 -4.700643e+000 -3.870716e+000 -5.213013e-002 9.549543e-001 1.263046e+000 1.133031e-001 -8.215184e-001 -1.360428e+000 -1.096198e+000 -1.004097e-001 7.698215e-001 1.296237e+000 3.696722e-001 -9.035661e-001 -1.678025e-001
<VARIANCE> 25
 1.323532e+001 9.804762e+000 8.613321e+000 9.008489e+000 1.223325e+001 1.755307e+001 7.618185e+000 8.924105e+000 7.102740e+000 1.186070e+001 6.948407e+000 9.409821e+000 8.103510e-001 4.318677e-001 6.971965e-001 1.198912e+000 8.595669e-001 1.013863e+000 1.234722e+000 1.743445e+000 8.272163e-001 1.344530e+000 1.252179e+000 9.668489e-001 3.694351e-001
<GCONST> 7.206852e+001
<TRANSP> 5
 0.000000e+000 1.000000e+000 0.000000e+000 0.000000e+000 0.000000e+000
 0.000000e+000 8.556641e-001 1.443358e-001 0.000000e+000 0.000000e+000
 0.000000e+000 0.000000e+000 8.200197e-001 1.799803e-001 0.000000e+000
 0.000000e+000 0.000000e+000 0.000000e+000 7.107875e-001 2.892125e-001
 0.000000e+000 0.000000e+000 0.000000e+000 0.000000e+000 0.000000e+000
<ENDHMM>
~h "s"
<BEGINHMM>
<NUMSTATES> 5
<STATE> 2
<MEAN> 25
 -4.736032e+000 -8.778104e+000 4.675194e+000 -6.796271e+000 -1.685969e+000 2.712122e-001 3.944383e+000 -2.299312e+000 -5.009298e+000 3.521974e+000 2.412357e+000 2.267224e+000 -1.279042e+000 -1.833421e+000 2.090220e+000 -1.513151e+000 3.331503e-001 -5.392087e-001 7.788123e-001 -3.534065e-001 -8.059695e-001 4.326419e-001 1.341006e-002 -3.208325e-003 1.388414e+000
<VARIANCE> 25
 1.381780e+001 2.097194e+001 4.344081e+001 3.174061e+001 2.195537e+001 1.951223e+001 2.550398e+001 1.377471e+001 1.679383e+001 1.267875e+001 9.728526e+000 9.260999e+000 2.217361e+000 1.728521e+000 2.395434e+000 1.760934e+000 2.552635e+000 1.816777e+000 1.859095e+000 1.608201e+000 1.854719e+000 1.400983e+000 1.200512e+000 1.109936e+000 5.123973e-001
<GCONST> 8.661430e+001
<STATE> 3
<MEAN> 25
 -1.086656e+001 -1.422816e+001 1.207814e+001 -1.306179e+001 2.080279e+000 -4.521524e+000 8.914144e+000 -2.187494e+000 -6.227683e+000 3.417306e+000 2.464006e+000 1.099401e+000 -4.041656e-002 -1.150321e-001 3.292063e-002 3.278827e-002 8.134595e-002 1.258362e-003 5.919925e-003 2.788964e-002 -9.830778e-002 -5.087691e-002 1.151119e-001 -1.765520e-002 5.260196e-002
<VARIANCE> 25
 4.961001e+000 6.694441e+000 7.343575e+000 1.557606e+001 1.274278e+001 1.620643e+001 2.307622e+001 1.116704e+001 1.365790e+001 9.955879e+000 1.059695e+001 9.604098e+000 7.278820e-001 6.013672e-001 7.502711e-001 9.537251e-001 8.889995e-001 1.086604e+000 1.112232e+000 8.988342e-001 9.230310e-001 9.144632e-001 7.754991e-001 8.122895e-001 4.065107e-001
<GCONST> 7.187920e+001
<STATE> 4
<MEAN> 25
 -4.080117e+000 -8.242985e+000 4.163011e+000 -5.093275e+000 -3.411024e-001 7.430191e-001 3.482385e+000 -1.768370e+000 -4.852843e+000 3.057687e+000 3.331786e+000 2.292383e+000 1.231894e+000 1.590479e+000 -1.605218e+000 1.594775e+000 -8.306171e-002 5.793004e-001 -1.093347e+000 5.253860e-002 8.986102e-001 -2.212296e-001 -3.002376e-001 -3.771555e-001 -1.125695e+000
<VARIANCE> 25
 1.443233e+001 2.298635e+001 4.921332e+001 3.567124e+001 2.701907e+001 1.672267e+001 2.567359e+001 1.310906e+001 2.594101e+001 1.747779e+001 1.161979e+001 1.173712e+001 3.157298e+000 2.863438e+000 2.602543e+000 3.810488e+000 1.481856e+000 1.752895e+000 2.118612e+000 1.207550e+000 2.005816e+000 1.860201e+000 1.610255e+000 1.777874e+000 8.863285e-001
<GCONST> 9.082389e+001
<TRANSP> 5
 0.000000e+000 1.000000e+000 0.000000e+000 0.000000e+000 0.000000e+000
 0.000000e+000 8.256654e-001 1.743347e-001 0.000000e+000 0.000000e+000
 0.000000e+000 0.000000e+000 9.009495e-001 9.905045e-002 0.000000e+000
 0.000000e+000 0.000000e+000 0.000000e+000 8.282537e-001 1.717463e-001
 0.000000e+000 0.000000e+000 0.000000e+000 0.000000e+000 0.000000e+000
<ENDHMM>
~h "t"
<BEGINHMM>
<NUMSTATES> 5
<STATE> 2
<MEAN> 25
 -4.808350e+000 -2.199010e+000 -1.334281e+000 1.885214e+000 2.130532e-001 7.656356e-001 3.192877e-001 -2.074878e-001 1.069319e+000 1.385338e+000 4.993406e-001 -1.947592e-001 -3.076927e-001 -2.811016e-001 -1.744113e-001 -3.221018e-002 3.146507e-002 -1.597744e-002 2.612958e-002 9.019058e-002 1.603576e-001 1.468667e-001 4.452432e-002 2.453829e-003 -1.456813e-001
<VARIANCE> 25
 2.723244e+000 3.211878e+000 4.511596e+000 6.203489e+000 7.328516e+000 7.472338e+000 7.241515e+000 8.021678e+000 7.612357e+000 8.350726e+000 7.727805e+000 7.536267e+000 1.115173e-001 1.499590e-001 2.564726e-001 4.080611e-001 5.012965e-001 5.974405e-001 5.611546e-001 6.946212e-001 7.057144e-001 8.230737e-001 7.083698e-001 6.630454e-001 3.430241e-002
<GCONST> 5.456166e+001
<STATE> 3
<MEAN> 25
 -5.773178e+000 -3.574549e+000 -2.282039e+000 9.673849e-001 -6.278378e-001 1.784421e-003 -1.462480e-001 -3.500953e-001 1.225945e+000 1.478762e+000 7.707270e-001 -1.625338e-001 1.288529e+000 -9.055002e-001 -2.763816e-001 -5.367852e-001 -2.601472e-001 -5.458279e-001 -3.048382e-001 -6.242190e-001 -1.108114e+000 -5.160859e-001 4.321760e-001 3.212621e-001 1.514501e+000
<VARIANCE> 25
 4.609589e+000 4.374517e+000 5.671560e+000 6.803663e+000 8.305387e+000 7.351565e+000 8.083636e+000 8.796284e+000 8.286055e+000 7.207475e+000 7.226049e+000 7.535698e+000 2.431832e+000 1.339412e+000 1.343299e+000 1.271901e+000 1.588827e+000 1.711344e+000 1.903738e+000 2.179980e+000 2.129888e+000 1.692943e+000 1.312442e+000 1.876026e+000 2.161122e+000
<GCONST> 7.616095e+001
<STATE> 4
<MEAN> 25
 1.661819e+000 -7.009000e+000 -3.152651e+000 -5.516173e-001 -1.375338e+000 -9.187434e-001 1.765024e+000 -1.957266e+000 -5.996293e+000 -3.002948e+000 2.601312e+000 2.305313e+000 2.583660e+000 1.486689e+000 1.397416e+000 -3.621680e-001 -5.787303e-002 -7.162505e-002 7.487888e-002 -1.531573e-001 -1.541634e+000 -1.646766e+000 -7.294269e-001 -2.249894e-001 1.879979e+000
<VARIANCE> 25
 3.654891e+001 2.447748e+001 2.182927e+001 2.083562e+001 1.837226e+001 2.842961e+001 3.150549e+001 2.265319e+001 4.268769e+001 2.934389e+001 1.469524e+001 2.067631e+001 3.234839e+000 7.659475e+000 4.180977e+000 2.047820e+000 2.297390e+000 2.216403e+000 3.419002e+000 2.285342e+000 5.089966e+000 3.101540e+000 2.887791e+000 2.866186e+000 3.178379e+000
<GCONST> 9.961127e+001
<TRANSP> 5
 0.000000e+000 1.000000e+000 0.000000e+000 0.000000e+000 0.000000e+000
 0.000000e+000 8.516397e-001 1.483603e-001 0.000000e+000 0.000000e+000
 0.000000e+000 0.000000e+000 5.989633e-001 4.010366e-001 0.000000e+000
 0.000000e+000 0.000000e+000 0.000000e+000 6.156082e-001 3.843917e-001
 0.000000e+000 0.000000e+000 0.000000e+000 0.000000e+000 0.000000e+000
<ENDHMM>
~h "aa"
<BEGINHMM>
<NUMSTATES> 5
<STATE> 2
<MEAN> 25
 9.691409e+000 3.515488e+000 -4.510603e+000 -8.670609e+000 -2.241103e+000 -6.237527e-001 1.539713e+000 2.417384e+000 -6.315655e-001 -2.359524e+000 -6.738441e-002 3.729650e+000 1.728702e+000 6.743636e-001 -1.065628e+000 -1.749665e+000 -4.786781e-001 -1.353881e-001 4.830970e-001 8.105172e-001 1.203801e-001 -5.893787e-001 -2.380191e-001 9.984564e-001 1.037433e+000
<VARIANCE> 25
 2.617046e+001 2.139621e+001 2.510927e+001 2.885060e+001 2.111635e+001 1.679215e+001 1.660143e+001 1.681899e+001 1.768592e+001 1.222030e+001 1.557960e+001 1.493130e+001 1.900869e+000 2.173255e+000 2.533405e+000 3.072644e+000 2.179015e+000 2.010735e+000 2.826312e+000 1.686783e+000 1.891726e+000 1.511648e+000 1.202045e+000 1.378877e+000 1.050426e+000
<GCONST> 8.930338e+001
<STATE> 3
<MEAN> 25
 1.302668e+001 5.052135e+000 -6.717343e+000 -1.136889e+001 -2.319119e+000 -2.143341e-001 3.239819e+000 3.938595e+000 -8.182688e-001 -2.547110e+000 -8.972720e-001 5.333161e+000 -1.723119e-001 9.241492e-002 7.661940e-002 1.068194e-001 -2.558658e-002 3.065435e-001 2.660422e-001 2.406363e-002 -6.288892e-002 1.887417e-001 4.527353e-002 -9.737540e-002 -2.263010e-001
<VARIANCE> 25
 3.786045e+000 5.508283e+000 9.901041e+000 1.073729e+001 8.834815e+000 1.294342e+001 8.740521e+000 1.048199e+001 1.405816e+001 1.063307e+001 1.094827e+001 7.319869e+000 2.517048e-001 4.457061e-001 8.783459e-001 7.793497e-001 7.440766e-001 8.725853e-001 8.366243e-001 8.277714e-001 1.056342e+000 8.605558e-001 8.716285e-001 6.597109e-001 2.122717e-001
<GCONST> 6.673421e+001
<STATE> 4
<MEAN> 25
 5.966274e+000 3.288884e+000 -3.397545e+000 -6.271766e+000 -3.081123e+000 9.081488e-001 3.321730e+000 2.732959e+000 6.535272e-002 -6.242331e-001 3.700874e-001 2.658689e+000 -1.500978e+000 -3.393706e-001 1.015482e+000 1.590046e+000 1.622029e-001 -1.537182e-001 -4.464436e-001 -5.503848e-001 1.481903e-001 4.534714e-001 8.099347e-002 -7.006431e-001 -1.031775e+000
<VARIANCE> 25
 3.222793e+001 1.514500e+001 1.408571e+001 2.247900e+001 1.461513e+001 1.512239e+001 1.746354e+001 2.050566e+001 2.187710e+001 1.307939e+001 1.259925e+001 1.282649e+001 1.002203e+000 1.084353e+000 1.825209e+000 2.274499e+000 1.159779e+000 1.350802e+000 1.374242e+000 1.263379e+000 1.307398e+000 1.419523e+000 1.033332e+000 9.467688e-001 4.323870e-001
<GCONST> 8.218112e+001
<TRANSP> 5
 0.000000e+000 1.000000e+000 0.000000e+000 0.000000e+000 0.000000e+000
 0.000000e+000 6.592345e-001 3.407655e-001 0.000000e+000 0.000000e+000
 0.000000e+000 0.000000e+000 7.971504e-001 2.028496e-001 0.000000e+000
 0.000000e+000 0.000000e+000 0.000000e+000 7.521023e-001 2.478977e-001
 0.000000e+000 0.000000e+000 0.000000e+000 0.000000e+000 0.000000e+000
<ENDHMM>
~h "ao"
<BEGINHMM>
<NUMSTATES> 5
<STATE> 2
<MEAN> 25
 9.739923e+000 7.965823e+000 1.911511e+000 -4.085371e+000 -7.315777e+000 -6.691433e+000 5.322379e-001 2.415711e+000 -1.575168e+000 -3.851461e+000 -3.281622e+000 -5.718104e-001 9.871863e-001 1.676721e+000 6.902959e-001 3.398037e-001 -6.612661e-001 -9.860772e-001 -1.159923e+000 6.556615e-001 1.155417e+000 -1.110984e-001 -1.114600e+000 -9.915465e-001 -1.963624e-002
<VARIANCE> 25
 1.014462e+001 8.893803e+000 1.511566e+001 1.407801e+001 2.438622e+001 2.886544e+001 2.283560e+001 1.399140e+001 2.113252e+001 2.358077e+001 1.483586e+001 1.202168e+001 2.438900e+000 3.689665e+000 1.522766e+000 2.052296e+000 3.638044e+000 2.805117e+000 2.513063e+000 1.674328e+000 2.744294e+000 1.845426e+000 1.562569e+000 1.136185e+000 6.045570e-001
<GCONST> 8.831736e+001
<STATE> 3
<MEAN> 25
 8.451894e+000 9.986424e+000 5.963639e+000 1.047538e-001 -5.635992e+000 -5.325785e+000 -4.697354e-001 1.537407e+000 -1.888185e+000 -4.236775e+000 -5.728479e+000 -3.998566e+000 1.295652e-001 2.511337e-001 1.849629e-001 -7.237846e-004 -4.471989e-001 -5.999666e-001 -3.180253e-001 2.557992e-001 5.995364e-001 4.972568e-001 2.104370e-001 -1.467338e-001 3.952683e-003
<VARIANCE> 25
 7.243386e+000 4.497262e+000 6.475149e+000 1.463244e+001 2.437598e+001 2.423944e+001 1.169107e+001 1.709557e+001 1.669390e+001 1.176547e+001 7.983053e+000 8.846592e+000 4.800051e-001 4.443591e-001 5.855899e-001 9.957587e-001 1.247606e+000 1.163904e+000 1.121106e+000 1.236892e+000 9.714901e-001 1.096941e+000 6.318918e-001 7.917057e-001 2.752263e-001
<GCONST> 7.189478e+001
<STATE> 4
<MEAN> 25
 6.267968e+000 8.185017e+000 3.462058e+000 -1.540205e+000 -7.923143e+000 -7.386585e+000 -2.145623e+000 2.927078e+000 4.036566e+000 1.982924e+000 -1.435272e+000 -3.275298e+000 -6.580694e-001 -6.637438e-001 -4.143228e-001 1.444676e-001 5.180835e-001 6.509738e-001 2.706841e-001 -2.402221e-001 -1.874612e-001 -3.852322e-002 1.232457e-001 1.535691e-001 -3.225846e-001
<VARIANCE> 25
 2.721814e+001 2.372902e+001 1.803052e+001 1.504672e+001 1.311418e+001 1.935311e+001 1.615076e+001 1.338104e+001 1.094421e+001 1.582462e+001 9.161024e+000 9.815267e+000 6.103558e-001 6.095297e-001 7.223573e-001 9.263459e-001 7.847664e-001 7.970590e-001 8.897266e-001 1.280840e+000 1.132212e+000 9.925058e-001 7.428527e-001 6.606371e-001 1.778132e-001
<GCONST> 7.453514e+001
<TRANSP> 5
 0.000000e+000 1.000000e+000 0.000000e+000 0.000000e+000 0.000000e+000
 0.000000e+000 5.474727e-001 4.525273e-001 0.000000e+000 0.000000e+000
 0.000000e+000 0.000000e+000 8.769681e-001 1.230319e-001 0.000000e+000
 0.000000e+000 0.000000e+000 0.000000e+000 9.307063e-001 6.929377e-002
 0.000000e+000 0.000000e+000 0.000000e+000 0.000000e+000 0.000000e+000
<ENDHMM>
~h "eh"
<BEGINHMM>
<NUMSTATES> 5
<STATE> 2
<MEAN> 25
 4.086830e+000 -1.857671e-001 -3.521981e+000 -2.888442e+000 -2.934491e+000 -8.530516e-001 -5.442501e-002 -2.649707e+000 -4.209048e+000 -2.135217e+000 5.018587e-001 1.869251e+000 4.210812e+000 2.074578e+000 -9.490222e-002 -1.613551e+000 -8.406624e-001 -6.430776e-001 -2.771748e-001 -4.372526e-001 -1.540522e+000 -1.099453e+000 2.369979e-001 1.166818e+000 2.560618e+000
<VARIANCE> 25
 5.449572e+001 2.119132e+001 8.658568e+000 1.308811e+001 1.175298e+001 1.062169e+001 9.094206e+000 2.102116e+001 2.994750e+001 1.762456e+001 7.888755e+000 1.504389e+001 2.237269e+000 2.271149e+000 1.246567e+000 1.929405e+000 2.463486e+000 1.174911e+000 1.787270e+000 4.765510e+000 4.333959e+000 2.009893e+000 1.779759e+000 1.863303e+000 1.026161e+000
<GCONST> 8.795145e+001
<STATE> 3
<MEAN> 25
 1.282071e+001 6.205897e+000 -4.191966e+000 -5.102492e+000 -2.584177e+000 -2.154134e+000 -2.739203e+000 -3.089123e+000 -3.693535e+000 -1.517564e+000 1.648569e+000 2.904354e+000 1.629137e-001 5.561876e-001 6.515888e-001 1.136810e+000 8.884006e-001 -3.450885e-001 -1.462948e+000 -7.593369e-001 6.488936e-001 9.323363e-001 4.341070e-001 -2.415106e-001 -7.906447e-002
<VARIANCE> 25
 4.181984e+000 9.103319e+000 2.525054e+001 2.730892e+001 3.855866e+001 1.727191e+001 2.467978e+001 6.749568e+001 4.394716e+001 1.128713e+001 2.971568e+001 2.054603e+001 1.069620e+000 2.242550e+000 1.748223e+000 2.155323e+000 8.001863e-001 9.335833e-001 1.553542e+000 2.156802e+000 1.560782e+000 6.956256e-001 1.427739e+000 1.065179e+000 6.249837e-001
<GCONST> 8.581315e+001
<STATE> 4
<MEAN> 25
 6.445331e+000 2.061741e+000 -2.696997e+000 2.868311e+000 4.141171e+000 -1.355984e+000 -8.916735e+000 -8.535436e+000 -5.207826e-001 5.757893e+000 3.906924e+000 -1.251495e+000 -7.192934e-001 -1.321064e-001 3.484735e-001 2.939022e-001 -2.227386e-002 7.515906e-002 1.935775e-001 2.714928e-001 3.061804e-001 2.816531e-002 -1.967636e-001 -1.768999e-001 -4.537117e-001
<VARIANCE> 25
 3.536832e+001 1.487590e+001 1.919467e+001 1.726473e+001 1.484668e+001 9.286210e+000 1.811919e+001 2.081288e+001 2.088213e+001 1.514844e+001 1.185565e+001 1.464338e+001 3.403316e-001 6.631305e-001 1.197155e+000 1.371933e+000 8.018283e-001 7.102204e-001 9.341545e-001 9.438323e-001 1.078603e+000 8.623414e-001 7.481874e-001 8.496582e-001 1.616490e-001
<GCONST> 7.575902e+001
<TRANSP> 5
 0.000000e+000 1.000000e+000 0.000000e+000 0.000000e+000 0.000000e+000
 0.000000e+000 6.524646e-001 3.475355e-001 0.000000e+000 0.000000e+000
 0.000000e+000 0.000000e+000 6.475387e-001 3.524612e-001 0.000000e+000
 0.000000e+000 0.000000e+000 0.000000e+000 8.654336e-001 1.345665e-001
 0.000000e+000 0.000000e+000 0.000000e+000 0.000000e+000 0.000000e+000
<ENDHMM>
~h "hh"
<BEGINHMM>
<NUMSTATES> 5
<STATE> 2
<MEAN> 25
 6.189209e+000 7.057623e-001 -8.295545e+000 -9.922045e+000 -3.826470e+000 1.696170e+000 4.831393e+000 4.601073e+000 4.436312e-001 -4.026545e+000 -2.078224e+000 3.114590e+000 7.542672e-001 -5.066521e-001 -1.429223e+000 -1.295122e+000 3.381196e-001 4.424915e-001 2.249028e-001 8.225229e-002 -3.817787e-001 -3.504074e-001 -7.426307e-002 5.262286e-001 6.699571e-001
<VARIANCE> 25
 4.348042e+001 2.653513e+001 2.180491e+001 1.751756e+001 9.899546e+000 8.079606e+000 8.577134e+000 1.270618e+001 8.667751e+000 1.697288e+001 1.114346e+001 1.306683e+001 6.438094e-001 5.303107e-001 1.114404e+000 1.806096e+000 1.292400e+000 8.812354e-001 9.733134e-001 7.134287e-001 1.060989e+000 1.066934e+000 8.662282e-001 7.026251e-001 2.354816e-001
<GCONST> 7.555975e+001
<STATE> 3
<MEAN> 25
 7.097957e+000 -1.461511e+000 -9.549448e+000 -7.133589e+000 6.229601e-001 5.780641e+000 6.263539e+000 4.875681e+000 2.133275e-001 -4.074131e+000 1.977036e-001 6.889061e+000 -5.657965e-001 -3.421919e-001 -5.460811e-002 4.495454e-001 1.280643e-001 1.010133e-001 -9.120028e-002 -4.099866e-001 -1.931243e-001 2.969618e-001 3.898150e-001 -9.891866e-002 -3.873711e-001
<VARIANCE> 25
 1.025551e+001 1.010096e+001 9.088887e+000 1.348518e+001 1.175976e+001 1.304229e+001 9.217268e+000 1.453575e+001 1.185858e+001 9.310299e+000 9.814231e+000 9.530413e+000 4.610240e-001 1.020964e+000 8.867671e-001 7.690269e-001 9.353800e-001 1.003311e+000 8.322201e-001 1.051476e+000 1.007652e+000 8.053536e-001 8.194935e-001 7.874767e-001 1.675280e-001
<GCONST> 7.080231e+001
<STATE> 4
<MEAN> 25
 -9.076135e-001 -2.210883e+000 -5.201720e+000 -2.133912e+000 6.495266e-002 3.507029e+000 3.310888e+000 5.179779e-001 -6.644834e-001 5.854414e-002 2.012023e+000 2.796184e+000 -7.251064e-001 -8.542997e-002 5.395988e-001 4.420066e-001 -2.116806e-002 -3.487810e-001 -2.490771e-001 9.077051e-002 4.043404e-001 4.245377e-001 -1.476143e-001 -4.973248e-001 -4.298787e-001
<VARIANCE> 25
 2.042015e+001 8.108978e+000 1.612411e+001 1.912504e+001 9.508005e+000 1.237640e+001 9.910377e+000 1.373264e+001 1.514268e+001 1.198224e+001 1.109756e+001 1.128815e+001 5.146883e-001 5.285259e-001 1.054749e+000 9.871638e-001 9.134990e-001 1.027059e+000 9.481770e-001 1.142730e+000 1.274577e+000 1.038580e+000 8.109470e-001 7.783865e-001 1.968931e-001
<GCONST> 7.345069e+001
<TRANSP> 5
 0.000000e+000 1.000000e+000 0.000000e+000 0.000000e+000 0.000000e+000
 0.000000e+000 7.406973e-001 2.593027e-001 0.000000e+000 0.000000e+000
 0.000000e+000 0.000000e+000 8.612128e-001 1.387872e-001 0.000000e+000
 0.000000e+000 0.000000e+000 0.000000e+000 8.448815e-001 1.551185e-001
 0.000000e+000 0.000000e+000 0.000000e+000 0.000000e+000 0.000000e+000
<ENDHMM>
~h "ih"
<BEGINHMM>
<NUMSTATES> 5
<STATE> 2
<MEAN> 25
 3.773485e+000 4.754850e-002 8.336183e+000 6.700514e+000 7.828499e+000 2.077600e+000 -7.082810e+000 -2.956068e+000 -1.403677e+000 -3.066821e+000 -2.701185e+000 -3.153065e+000 1.078371e+000 1.493131e+000 2.148877e+000 2.427793e+000 1.590557e+000 -5.144691e-001 -2.239503e+000 7.276759e-002 2.462066e-001 -1.635653e+000 -1.633314e+000 -7.829145e-001 3.552779e-001
<VARIANCE> 25
 1.330608e+001 2.945487e+001 4.877121e+001 3.954390e+001 2.290614e+001 2.705583e+001 4.436966e+001 4.330853e+001 2.687193e+001 2.940893e+001 2.182580e+001 1.590563e+001 2.237643e+000 3.321469e+000 3.831761e+000 5.145215e+000 2.748298e+000 3.929452e+000 4.366108e+000 3.453269e+000 2.748761e+000 3.108172e+000 2.237145e+000 1.837562e+000 1.857667e+000
<GCONST> 1.002530e+002
<STATE> 3
<MEAN> 25
 3.428160e+000 3.595186e+000 1.328126e+001 1.194740e+001 9.934462e+000 1.994393e+000 -8.488859e+000 1.126003e+000 -2.155229e-001 -7.983400e+000 -5.159319e+000 -4.969349e+000 -1.559124e-001 3.218102e-002 -4.668871e-001 -4.065993e-002 -5.419143e-002 -4.211951e-002 3.194534e-001 -5.686399e-002 1.556248e-001 3.311988e-001 1.778517e-001 1.215559e-001 -2.308846e-001
<VARIANCE> 25
 4.345375e+000 6.944355e+000 1.308362e+001 7.230747e+000 9.276711e+000 1.572502e+001 3.009907e+001 1.645962e+001 1.487717e+001 1.854189e+001 1.054159e+001 1.060657e+001 2.900186e-001 6.560519e-001 8.410288e-001 6.152294e-001 8.055000e-001 1.153167e+000 2.022398e+000 1.412019e+000 9.461330e-001 1.352993e+000 8.827007e-001 6.383284e-001 2.391739e-001
<GCONST> 7.232852e+001
<STATE> 4
<MEAN> 25
 1.512877e+000 2.314139e-001 3.692689e+000 4.925788e+000 6.614391e+000 3.381235e-001 -6.134534e+000 -3.807577e+000 -4.058324e-001 -6.658329e-001 -1.259244e+000 -1.782182e+000 -1.339578e-001 -5.067415e-001 -1.439361e+000 -1.314908e+000 -7.842962e-001 2.111221e-001 6.597724e-001 -5.451896e-001 -4.959310e-001 9.033356e-001 1.058595e+000 5.673314e-001 -1.294115e-001
<VARIANCE> 25
 3.321062e+001 2.650019e+001 3.717303e+001 2.821590e+001 3.542853e+001 3.950302e+001 5.788966e+001 3.440787e+001 1.821361e+001 1.841145e+001 2.034333e+001 1.517939e+001 1.161462e+000 2.073200e+000 2.825457e+000 2.111810e+000 2.964597e+000 3.683036e+000 3.657976e+000 2.981602e+000 1.984234e+000 1.808068e+000 2.208521e+000 1.523774e+000 7.812967e-001
<GCONST> 9.576001e+001
<TRANSP> 5
 0.000000e+000 1.000000e+000 0.000000e+000 0.000000e+000 0.000000e+000
 0.000000e+000 6.742091e-001 3.257909e-001 0.000000e+000 0.000000e+000
 0.000000e+000 0.000000e+000 8.179766e-001 1.820234e-001 0.000000e+000
 0.000000e+000 0.000000e+000 0.000000e+000 8.134928e-001 1.865072e-001
 0.000000e+000 0.000000e+000 0.000000e+000 0.000000e+000 0.000000e+000
<ENDHMM>
~h "ng"
<BEGINHMM>
<NUMSTATES> 5
<STATE> 2
<MEAN> 25
 6.841193e+000 7.028944e+000 2.283685e+000 2.091989e+000 -1.681772e+000 -1.775234e+000 -3.735983e-001 1.964366e+000 3.162481e+000 1.292517e+000 5.146780e-001 5.446634e-001 -3.457257e-001 -6.227668e-002 3.499809e-001 5.972306e-001 2.471281e-001 8.615579e-003 -9.315928e-002 -7.275182e-002 5.448208e-002 2.348165e-001 3.644682e-001 1.782317e-001 -2.226582e-001
<VARIANCE> 25
 2.877973e+000 2.471387e+000 7.181525e+000 7.541300e+000 7.397932e+000 8.661140e+000 7.757067e+000 5.112721e+000 5.835631e+000 5.006388e+000 5.433365e+000 6.057413e+000 1.945064e-001 1.958942e-001 3.707477e-001 5.930217e-001 4.087602e-001 6.881664e-001 8.553163e-001 5.606773e-001 5.660653e-001 6.031567e-001 5.495355e-001 4.438965e-001 7.429910e-002
<GCONST> 5.473902e+001
<STATE> 3
<MEAN> 25
 2.643460e+000 5.056489e+000 3.814825e+000 5.050358e+000 1.801197e+000 1.582539e+000 1.654416e+000 1.778137e+000 2.479702e+000 1.660674e+000 1.232572e+000 4.369369e-001 -7.707241e-001 -6.918343e-001 -2.776544e-001 -7.369360e-002 2.484146e-001 4.906345e-001 3.332682e-001 1.544276e-001 5.392001e-002 -4.001081e-002 -9.902049e-002 -1.498483e-001 -3.492556e-001
<VARIANCE> 25
 7.494814e+000 5.895433e+000 7.858175e+000 6.960734e+000 7.292391e+000 8.198851e+000 9.477140e+000 8.355220e+000 7.993427e+000 7.643946e+000 8.939264e+000 1.054044e+001 5.565537e-001 5.967444e-001 7.669653e-001 7.314822e-001 5.666602e-001 6.236988e-001 8.586804e-001 9.811131e-001 9.544028e-001 1.256369e+000 9.552158e-001 7.778634e-001 1.720093e-001
<GCONST> 6.609052e+001
<STATE> 4
<MEAN> 25
 -2.131526e+000 2.965426e-001 4.185457e-002 2.961014e+000 1.044035e+000 2.215230e+000 2.643081e+000 2.325955e+000 3.144669e+000 2.719625e+000 1.466898e+000 1.595340e-001 -2.395198e-001 -5.529628e-001 -6.161839e-001 -6.639910e-001 -2.060028e-001 -2.733560e-002 4.815951e-002 1.817649e-003 -3.088295e-001 -4.810804e-001 -1.781683e-001 1.682036e-001 1.247435e-002
<VARIANCE> 25
 1.449496e+001 1.340819e+001 1.406710e+001 1.046723e+001 8.171830e+000 9.916552e+000 1.030189e+001 7.554596e+000 8.828075e+000 8.326298e+000 6.965192e+000 7.414832e+000 4.581469e-001 4.108169e-001 9.602759e-001 1.563802e+000 7.166189e-001 1.157823e+000 1.773456e+000 8.536753e-001 1.101022e+000 1.623393e+000 8.317572e-001 1.144256e+000 2.490822e-001
<GCONST> 7.130562e+001
<TRANSP> 5
 0.000000e+000 1.000000e+000 0.000000e+000 0.000000e+000 0.000000e+000
 0.000000e+000 8.287787e-001 1.712213e-001 0.000000e+000 0.000000e+000
 0.000000e+000 0.000000e+000 6.916386e-001 3.083614e-001 0.000000e+000
 0.000000e+000 0.000000e+000 0.000000e+000 7.150983e-001 2.849017e-001
 0.000000e+000 0.000000e+000 0.000000e+000 0.000000e+000 0.000000e+000
<ENDHMM>
~h "ny"
<BEGINHMM>
<NUMSTATES> 5
<STATE> 2
<MEAN> 25
 -5.039080e+000 -2.223805e+000 1.383742e-002 3.262064e+000 2.224580e+000 1.536323e+000 6.554023e-001 9.251174e-002 1.188128e+000 1.477550e+000 4.717231e-001 -1.669429e+000 7.754211e-001 1.106594e+000 1.381854e+000 6.395019e-001 6.312157e-001 -5.326998e-004 -1.640002e-001 8.048195e-002 -1.829653e-001 -5.022859e-001 1.363793e-002 -3.740196e-001 5.484650e-001
<VARIANCE> 25
 1.341779e+001 1.170211e+001 1.152785e+001 1.036547e+001 1.004596e+001 1.361208e+001 1.445122e+001 1.256664e+001 1.246843e+001 9.914692e+000 8.347223e+000 8.386878e+000 1.523329e+000 1.753843e+000 1.777463e+000 2.015259e+000 1.003079e+000 1.961048e+000 1.740278e+000 1.226048e+000 1.634358e+000 1.598068e+000 1.462522e+000 1.116770e+000 6.878440e-001
<GCONST> 7.974178e+001
<STATE> 3
<MEAN> 25
 3.186734e+000 6.760328e+000 1.000574e+001 7.216377e+000 3.836019e+000 -8.136568e-002 -1.589767e+000 -3.009821e-001 -4.793976e-001 -1.413884e+000 -4.223913e-002 -3.577142e+000 4.394621e-001 2.777103e-001 9.242092e-001 -1.890157e-001 9.919874e-002 -8.274413e-001 -9.772549e-001 6.974427e-002 1.719617e-001 -3.557615e-001 1.590527e-001 -1.371991e-002 7.353012e-001
<VARIANCE> 25
 7.682247e+000 8.574688e+000 1.515547e+001 1.838825e+001 1.322132e+001 1.333124e+001 2.020395e+001 1.059512e+001 9.840921e+000 9.424273e+000 1.109479e+001 9.642707e+000 1.621609e+000 1.566573e+000 1.607612e+000 1.734158e+000 1.613588e+000 1.926060e+000 4.398679e+000 1.245098e+000 1.631057e+000 1.148271e+000 1.316426e+000 1.168020e+000 8.923464e-001
<GCONST> 8.124131e+001
<STATE> 4
<MEAN> 25
 6.666371e+000 1.087561e+000 4.474340e+000 -1.282159e+000 7.542300e+000 -3.509022e+000 -1.181092e+001 -4.459177e+000 1.121776e+000 5.571328e-002 3.535182e+000 2.886434e+000 1.201708e+000 -6.230068e-001 -2.026667e+000 -1.742521e+000 -7.952013e-002 1.104934e+000 5.449545e-001 -4.654167e-001 -7.748575e-001 5.599952e-002 3.766183e-001 1.532455e+000 7.451922e-001
<VARIANCE> 25
 1.785310e+001 1.661553e+001 4.320708e+001 3.159525e+001 1.282028e+001 3.213701e+001 2.979303e+001 2.159631e+001 1.778633e+001 1.594627e+001 1.434049e+001 2.017740e+001 1.122690e+000 1.638212e+000 2.340431e+000 1.667194e+000 2.761414e+000 3.242415e+000 9.244059e+000 3.963101e+000 2.671893e+000 2.581678e+000 1.513142e+000 1.221554e+000 8.735288e-001
<GCONST> 9.283579e+001
<TRANSP> 5
 0.000000e+000 1.000000e+000 0.000000e+000 0.000000e+000 0.000000e+000
 0.000000e+000 7.360284e-001 2.639716e-001 0.000000e+000 0.000000e+000
 0.000000e+000 0.000000e+000 8.489648e-001 1.510352e-001 0.000000e+000
 0.000000e+000 0.000000e+000 0.000000e+000 8.339970e-001 1.660030e-001
 0.000000e+000 0.000000e+000 0.000000e+000 0.000000e+000 0.000000e+000
<ENDHMM>
~h "sp"
<BEGINHMM>
<NUMSTATES> 3
<STATE> 2
~s "silst"
<TRANSP> 3
 0.000000e+000 6.772526e-001 3.227474e-001
 0.000000e+000 9.362800e-001 6.371994e-002
 0.000000e+000 0.000000e+000 0.000000e+000
<ENDHMM>
~h "uw"
<BEGINHMM>
<NUMSTATES> 5
<STATE> 2
<MEAN> 25
 9.427393e+000 1.015115e+001 6.514503e+000 8.949249e-001 -4.096673e+000 -4.667846e+000 -2.838081e+000 2.973657e-001 -2.355685e+000 -4.017333e+000 -3.540802e+000 -3.709948e+000 7.947004e-001 2.291527e+000 1.781382e+000 4.447946e-001 -6.377296e-001 -1.227533e+000 -1.527765e+000 -8.805092e-002 6.966058e-001 1.740668e-001 -7.929882e-001 -1.089773e+000 -8.173215e-002
<VARIANCE> 25
 8.392331e+000 1.923816e+001 1.797770e+001 1.618751e+001 1.370621e+001 2.409888e+001 1.971995e+001 1.767317e+001 1.820545e+001 3.620883e+001 1.967373e+001 1.325771e+001 1.827857e+000 4.836898e+000 2.440257e+000 1.874953e+000 1.524885e+000 2.134853e+000 2.365189e+000 2.333176e+000 2.434679e+000 3.374352e+000 2.905287e+000 1.880628e+000 8.806003e-001
<GCONST> 9.067861e+001
<STATE> 3
<MEAN> 25
 7.578934e+000 1.165934e+001 9.273918e+000 3.955055e+000 -4.109169e+000 -6.732654e+000 -6.001324e+000 -1.877510e+000 6.346101e-001 6.357542e-001 -1.254189e+000 -3.857736e+000 -8.108638e-001 -7.602611e-001 -4.316914e-001 3.105240e-001 5.406479e-001 5.751936e-001 3.095430e-001 -1.714575e-001 1.587108e-001 3.602604e-001 4.003884e-001 3.788007e-001 -4.209652e-001
<VARIANCE> 25
 6.084968e+000 5.199731e+000 6.594913e+000 1.019685e+001 1.169712e+001 1.221914e+001 1.206052e+001 1.594002e+001 1.148601e+001 1.527463e+001 1.480295e+001 9.832938e+000 7.426288e-001 9.197513e-001 8.071947e-001 8.227816e-001 9.348660e-001 1.109159e+000 1.061213e+000 1.389555e+000 1.036291e+000 1.167842e+000 9.929814e-001 7.095386e-001 1.899734e-001
<GCONST> 7.179267e+001
<STATE> 4
<MEAN> 25
 -2.430447e+000 4.653727e-001 1.061190e+000 2.822465e+000 -3.430307e-001 -9.650856e-001 -1.915005e+000 -1.747773e+000 -2.498783e-001 -3.626510e-001 -1.533411e+000 -2.650272e+000 -7.078521e-001 -7.712914e-001 -5.528370e-001 -1.079703e-001 2.192182e-001 3.736453e-001 2.768063e-001 8.126269e-002 -2.445219e-002 -7.406442e-002 -9.006289e-002 -1.281491e-002 -3.294156e-001
<VARIANCE> 25
 7.624568e+000 8.379889e+000 7.646281e+000 9.877294e+000 9.083167e+000 1.005096e+001 1.046685e+001 1.121576e+001 1.292364e+001 1.078867e+001 9.427101e+000 8.698069e+000 5.246812e-001 6.117918e-001 6.054433e-001 7.781535e-001 8.322610e-001 9.105295e-001 9.891480e-001 1.212898e+000 1.196847e+000 1.075541e+000 9.323130e-001 8.356155e-001 1.418785e-001
<GCONST> 6.911833e+001
<TRANSP> 5
 0.000000e+000 1.000000e+000 0.000000e+000 0.000000e+000 0.000000e+000
 0.000000e+000 7.142792e-001 2.857207e-001 0.000000e+000 0.000000e+000
 0.000000e+000 0.000000e+000 8.628417e-001 1.371583e-001 0.000000e+000
 0.000000e+000 0.000000e+000 0.000000e+000 8.813729e-001 1.186271e-001
 0.000000e+000 0.000000e+000 0.000000e+000 0.000000e+000 0.000000e+000
<ENDHMM>
~h "sil"
<BEGINHMM>
<NUMSTATES> 5
<STATE> 2
<MEAN> 25
 -6.158814e+000 -4.190008e+000 -2.717403e+000 4.117001e-001 -6.582487e-001 -5.082756e-001 -3.583989e-001 -9.431071e-001 7.590931e-001 1.618152e+000 9.845595e-001 8.221529e-002 -1.892462e-001 -1.572692e-002 1.006340e-001 1.919183e-001 1.902305e-001 2.141622e-001 1.685032e-001 1.771782e-001 2.148729e-001 1.310237e-001 -8.350953e-002 -1.110299e-001 -1.464953e-001
<VARIANCE> 25
 6.173507e+000 4.622355e+000 8.296033e+000 9.183405e+000 9.319996e+000 1.312198e+001 1.158267e+001 1.036574e+001 1.095939e+001 1.145368e+001 1.085369e+001 9.376477e+000 7.383951e-001 4.698009e-001 8.778855e-001 9.903804e-001 1.148091e+000 1.573400e+000 1.598781e+000 1.346226e+000 1.184497e+000 1.116577e+000 1.145215e+000 1.081890e+000 4.038975e-001
<GCONST> 7.242751e+001
<STATE> 3
~s "silst"
<STATE> 4
<MEAN> 25
 -7.199327e+000 -5.066603e+000 -4.204556e+000 -9.627230e-001 -2.135235e+000 -8.152649e-001 5.273204e-002 6.662308e-002 1.498154e+000 2.145344e+000 1.256623e+000 3.061320e-001 1.066032e-001 4.668159e-002 -5.282886e-002 -1.659103e-001 -7.820819e-002 2.574821e-002 5.362543e-002 1.435761e-002 -4.657757e-002 -8.478389e-002 -2.946192e-002 -1.062082e-003 8.478556e-002
<VARIANCE> 25
 1.478392e+000 2.023268e+000 3.681479e+000 5.621514e+000 5.705333e+000 6.543050e+000 7.747780e+000 8.157251e+000 8.121561e+000 8.733080e+000 8.749504e+000 8.905480e+000 1.286962e-001 2.014419e-001 3.860793e-001 5.967776e-001 6.285597e-001 7.676475e-001 8.229155e-001 7.789900e-001 8.328472e-001 9.366316e-001 9.566196e-001 9.018757e-001 3.991459e-002
<GCONST> 5.654504e+001
<TRANSP> 5
 0.000000e+000 1.000000e+000 0.000000e+000 0.000000e+000 0.000000e+000
 0.000000e+000 5.667321e-001 4.003830e-001 3.288486e-002 0.000000e+000
 0.000000e+000 0.000000e+000 9.720069e-001 2.799308e-002 0.000000e+000
 0.000000e+000 1.352718e-001 0.000000e+000 7.170818e-001 1.476464e-001
 0.000000e+000 0.000000e+000 0.000000e+000 0.000000e+000 0.000000e+000
<ENDHMM>
