~o
<STREAMINFO> 1 25
<VECSIZE> 25<NULLD><MFCC_D_N_Z_0><DIAGC>
~s "silst"
<MEAN> 25
 -5.252163e+000 -2.646142e+000 -2.085065e+000 8.389368e-001 -9.529593e-001 6.189550e-001 -9.115160e-002 -6.886129e-001 6.042224e-001 1.740510e+000 1.056518e+000 2.896039e-001 -7.532881e-002 -4.874555e-002 1.620643e-004 2.916921e-002 9.975759e-003 -1.729327e-002 -1.390467e-002 -2.257631e-003 -8.644012e-003 1.110615e-003 8.249545e-003 9.350576e-003 -3.896454e-002
<VARIANCE> 25
 3.184658e+000 2.176778e+000 4.154959e+000 6.591941e+000 6.134098e+000 5.873728e+000 6.809611e+000 7.016638e+000 7.457101e+000 6.860424e+000 6.886722e+000 6.570523e+000 1.019770e-001 1.613147e-001 3.024420e-001 3.889119e-001 4.648591e-001 5.666415e-001 6.393267e-001 6.600981e-001 7.087604e-001 6.947343e-001 6.930928e-001 6.383668e-001 4.281222e-002
<GCONST> 5.327211e+001
~h "a"
<BEGINHMM>
<NUMSTATES> 5
<STATE> 2
<MEAN> 25
 6.986655e+000 1.734611e-001 -5.923429e+000 -7.687580e+000 5.959170e-001 -1.682248e+000 2.252846e+000 3.560325e+000 -1.261468e-001 -1.302350e+000 -6.790386e-001 3.378056e+000 1.278650e+000 2.228639e-001 -9.245708e-001 -9.820780e-001 3.435761e-001 -2.759107e-001 3.928115e-001 5.245638e-001 1.579110e-001 -2.792358e-001 -2.366744e-001 5.337715e-001 9.847179e-001
<VARIANCE> 25
 2.957195e+001 1.636371e+001 2.438663e+001 2.124294e+001 1.927973e+001 1.848484e+001 1.665022e+001 1.960967e+001 1.630563e+001 1.793567e+001 1.683723e+001 1.509820e+001 1.579716e+000 1.608036e+000 2.053336e+000 1.810851e+000 1.492041e+000 1.684050e+000 2.079407e+000 1.378451e+000 1.707257e+000 1.361067e+000 1.156107e+000 1.154905e+000 9.776915e-001
<GCONST> 8.658939e+001
<STATE> 3
<MEAN> 25
 1.075124e+001 3.099294e+000 -5.754946e+000 -8.455577e+000 9.803109e-001 -2.286877e+000 3.540633e+000 5.291289e+000 1.034336e+000 -2.036355e+000 -2.197211e+000 4.531947e+000 -1.746316e-001 1.820984e-001 1.957784e-001 1.452076e-001 -2.563542e-002 2.868541e-001 1.146206e-001 -1.200197e-001 -1.233237e-001 3.658639e-001 2.059677e-001 -1.140746e-001 -2.565055e-001
<VARIANCE> 25
 3.242190e+000 7.699356e+000 8.341743e+000 1.053693e+001 1.187626e+001 1.946831e+001 8.883885e+000 1.483935e+001 1.622524e+001 1.484507e+001 1.271210e+001 1.057637e+001 1.546420e-001 4.300191e-001 6.387404e-001 5.920204e-001 6.331641e-001 8.581782e-001 6.602232e-001 7.970148e-001 1.090306e+000 1.035366e+000 8.516769e-001 6.614400e-001 1.821758e-001
<GCONST> 6.726022e+001
<STATE> 4
<MEAN> 25
 6.270429e+000 3.090793e+000 -2.031770e+000 -4.579563e+000 3.751130e-001 7.068442e-001 3.157487e+000 2.629297e+000 -4.956499e-001 -4.523713e-001 -1.365365e-001 2.799059e+000 -1.403308e+000 -1.234752e-002 1.245892e+000 1.680903e+000 -1.208322e-001 6.389064e-001 -3.717432e-001 -8.919272e-001 -9.584720e-002 3.133533e-001 1.940375e-001 -8.418429e-001 -1.234516e+000
<VARIANCE> 25
 2.102305e+001 1.361237e+001 1.692608e+001 2.277644e+001 1.753432e+001 2.335338e+001 1.713259e+001 2.358187e+001 2.344528e+001 1.294592e+001 1.510936e+001 1.489679e+001 1.113401e+000 1.522591e+000 2.044934e+000 2.159440e+000 1.446655e+000 2.031380e+000 1.586583e+000 1.551736e+000 1.657296e+000 1.541350e+000 1.426296e+000 1.143211e+000 5.479760e-001
<GCONST> 8.552360e+001
<TRANSP> 5
 0.000000e+000 1.000000e+000 0.000000e+000 0.000000e+000 0.000000e+000
 0.000000e+000 6.553943e-001 3.446058e-001 0.000000e+000 0.000000e+000
 0.000000e+000 0.000000e+000 8.097175e-001 1.902825e-001 0.000000e+000
 0.000000e+000 0.000000e+000 0.000000e+000 7.366005e-001 2.633995e-001
 0.000000e+000 0.000000e+000 0.000000e+000 0.000000e+000 0.000000e+000
<ENDHMM>
~h "b"
<BEGINHMM>
<NUMSTATES> 5
<STATE> 2
<MEAN> 25
 -3.444876e+000 -3.197907e+000 -2.890946e+000 -1.325621e+000 -8.044170e-001 2.535417e+000 8.797146e-001 -1.523617e+000 -4.831357e-001 5.253879e-001 1.374302e+000 1.442327e+000 1.071672e-001 -1.304590e-001 -3.814220e-001 -3.042834e-001 -3.037227e-001 -1.967445e-001 -1.254715e-001 -6.408858e-002 -2.240730e-001 -2.749447e-001 -4.031745e-002 8.569751e-002 3.321563e-002
<VARIANCE> 25
 6.651112e+000 1.009210e+001 1.758697e+001 2.108315e+001 1.561392e+001 1.440146e+001 1.464766e+001 1.216468e+001 1.404196e+001 1.493271e+001 7.326886e+000 1.158199e+001 4.357213e-001 7.066906e-001 2.213307e+000 1.569488e+000 1.002397e+000 1.073116e+000 1.448720e+000 9.485995e-001 1.086917e+000 1.513347e+000 8.545094e-001 1.230174e+000 3.091548e-001
<GCONST> 7.628589e+001
<STATE> 3
<MEAN> 25
 -3.482204e+000 -2.967931e+000 -3.750429e+000 -1.417605e+000 -2.359559e+000 -1.256099e-002 -6.864668e-001 -1.466613e+000 -4.553174e-001 1.114730e+000 7.491943e-001 8.154851e-002 3.541946e-002 1.551581e-001 2.017722e-001 2.375479e-001 1.944030e-001 1.302651e-001 9.493822e-002 1.307043e-001 1.416817e-001 1.230504e-001 1.553339e-002 -9.404328e-002 -1.593656e-002
<VARIANCE> 25
 2.542394e+000 3.188184e+000 4.998129e+000 5.535654e+000 5.357066e+000 6.307248e+000 5.776096e+000 6.809427e+000 6.898483e+000 6.900017e+000 6.308261e+000 6.138265e+000 1.341934e-001 2.937534e-001 4.003709e-001 5.647658e-001 6.006997e-001 7.470029e-001 7.403005e-001 7.641450e-001 7.617907e-001 7.172142e-001 6.135256e-001 6.984987e-001 4.714361e-002
<GCONST> 5.547352e+001
<STATE> 4
<MEAN> 25
 5.718920e-001 3.871405e+000 4.647274e+000 7.344137e+000 5.244847e+000 5.903558e+000 3.445255e+000 1.757729e+000 1.976372e+000 2.251582e+000 4.893311e-001 -1.478078e+000 9.990858e-001 8.881844e-001 7.992610e-001 3.429779e-001 1.613189e-001 -7.429089e-002 -1.451565e-001 -1.707329e-001 -2.099258e-001 -2.190288e-001 -1.773000e-001 -1.267395e-001 5.796321e-001
<VARIANCE> 25
 7.592390e+000 1.027559e+001 1.373578e+001 1.372019e+001 8.731632e+000 9.279692e+000 7.778581e+000 6.937846e+000 7.448457e+000 6.557100e+000 6.771362e+000 6.791019e+000 7.250916e-001 1.315035e+000 1.800503e+000 2.666183e+000 2.873650e+000 2.845375e+000 2.236373e+000 1.378096e+000 9.752669e-001 8.304099e-001 6.866030e-001 7.181445e-001 3.620239e-001
<GCONST> 7.445667e+001
<TRANSP> 5
 0.000000e+000 1.000000e+000 0.000000e+000 0.000000e+000 0.000000e+000
 0.000000e+000 6.723098e-001 3.276902e-001 0.000000e+000 0.000000e+000
 0.000000e+000 0.000000e+000 9.012281e-001 9.877183e-002 0.000000e+000
 0.000000e+000 0.000000e+000 0.000000e+000 8.772420e-001 1.227580e-001
 0.000000e+000 0.000000e+000 0.000000e+000 0.000000e+000 0.000000e+000
<ENDHMM>
~h "c"
<BEGINHMM>
<NUMSTATES> 5
<STATE> 2
<MEAN> 25
 -3.055785e+000 -6.019767e+000 -4.285261e+000 -2.034119e-001 -2.927872e+000 -3.181099e+000 3.100018e+000 -1.195478e-001 -1.103405e+000 -2.413878e+000 4.099904e+000 3.791830e-002 3.179137e-001 -2.685505e+000 3.861650e-001 -1.441209e+000 -1.004320e+000 -2.095318e+000 1.057123e+000 -3.784577e-001 -1.361957e+000 -2.621120e+000 1.112172e+000 -5.592715e-001 3.063587e+000
<VARIANCE> 25
 5.370368e+000 1.645082e+001 1.085075e+001 1.107629e+001 1.057324e+001 1.599662e+001 1.846460e+001 3.533681e+000 1.205603e+001 3.223392e+001 8.375378e+000 7.513829e+000 5.996385e-001 9.339751e-001 2.675632e+000 9.500470e-001 8.751317e-001 8.406065e-001 7.090166e-001 9.342786e-001 6.877500e-001 7.979682e-001 2.857053e-001 9.687242e-001 5.613165e-001
<GCONST> 7.180305e+001
<STATE> 3
<MEAN> 25
 -3.562414e+000 -1.587983e+001 4.882322e+000 -3.936719e+000 -1.910626e+000 -9.120812e+000 3.322423e+000 7.065759e-001 -3.703941e+000 -6.963853e+000 5.695477e+000 1.326273e+000 1.244802e+000 6.145989e-001 1.205405e+000 1.048936e+000 1.460076e+000 5.454460e-001 -1.310875e+000 2.536512e-001 -9.437185e-002 9.193685e-003 -5.980254e-001 3.549441e-001 3.998802e-001
<VARIANCE> 25
 1.109797e+001 1.299140e+001 1.331476e+001 1.943791e+001 8.293560e+000 1.267176e+001 1.328956e+001 9.161942e+000 7.739691e+000 9.200986e+000 5.978971e+000 6.985167e+000 2.992813e+000 9.181077e+000 3.734258e+000 4.578202e+000 1.716972e+000 3.667567e+000 1.913647e+000 9.466341e-001 1.491928e+000 2.341451e+000 8.614935e-001 1.723718e+000 2.703158e+000
<GCONST> 8.515581e+001
<STATE> 4
<MEAN> 25
 5.267964e+000 3.370725e+000 1.192928e+001 9.123102e+000 6.932567e+000 -1.092041e+000 -8.433405e+000 1.853206e+000 -5.605573e+000 -1.084167e+001 -3.635296e+000 -4.992546e+000 2.651428e-001 1.020678e+000 -2.840811e-001 2.465310e-001 2.108597e-001 2.844941e-001 -1.612397e-001 -2.597339e-001 1.061735e-001 2.580713e-001 -3.601043e-001 -4.788389e-003 -4.889976e-001
<VARIANCE> 25
 1.476031e+000 1.531095e+001 1.323999e+001 9.637428e+000 4.171582e+000 1.633600e+000 1.809867e+001 7.349931e+000 5.647850e+000 2.000967e+001 9.918127e+000 1.527145e+001 1.583226e+000 3.729471e+000 1.289103e+000 9.750533e-001 1.008420e+000 6.706486e-001 2.314465e+000 8.355263e-001 7.518149e-001 1.368957e+000 8.708244e-001 1.524398e+000 1.132853e-001
<GCONST> 7.087820e+001
<TRANSP> 5
 0.000000e+000 1.000000e+000 0.000000e+000 0.000000e+000 0.000000e+000
 0.000000e+000 7.143041e-001 2.856959e-001 0.000000e+000 0.000000e+000
 0.000000e+000 0.000000e+000 8.170307e-001 1.829693e-001 0.000000e+000
 0.000000e+000 0.000000e+000 0.000000e+000 8.683155e-001 1.316846e-001
 0.000000e+000 0.000000e+000 0.000000e+000 0.000000e+000 0.000000e+000
<ENDHMM>
~h "d"
<BEGINHMM>
<NUMSTATES> 5
<STATE> 2
<MEAN> 25
 2.343332e+000 1.884410e+000 1.157698e+001 9.825319e+000 9.622887e+000 3.065447e+000 -5.970985e+000 1.204463e+000 2.736929e+000 -4.771783e+000 -4.223274e+000 -4.217646e+000 1.102212e-001 -2.025867e-001 1.585179e-001 -6.641934e-002 1.943840e-001 -2.391354e-001 -5.433189e-001 1.692695e-001 2.252082e-001 -3.693600e-001 -3.884347e-002 5.541341e-002 2.930245e-001
<VARIANCE> 25
 7.377344e+000 1.742842e+001 2.303055e+001 1.517273e+001 2.059430e+001 2.678721e+001 6.848544e+001 1.967764e+001 2.938150e+001 3.746056e+001 1.882831e+001 1.511672e+001 7.128123e-001 2.507319e+000 2.569037e+000 1.939698e+000 2.717110e+000 3.160058e+000 8.033463e+000 2.926638e+000 2.570116e+000 4.954732e+000 2.675565e+000 1.897264e+000 1.488425e+000
<GCONST> 9.489458e+001
<STATE> 3
<MEAN> 25
 4.529096e+000 2.291978e+000 6.762138e+000 6.869666e+000 9.902400e+000 2.234035e+000 -7.850111e+000 -3.770990e+000 1.805695e+000 -1.075346e+000 1.953401e-001 -1.379686e+000 -1.141325e-001 1.123304e+000 -8.324204e-001 -1.843264e-001 -9.986587e-001 1.570777e+000 2.870568e+000 6.391642e-004 -6.892588e-001 1.269943e+000 4.111210e-001 -7.461759e-002 -1.145770e+000
<VARIANCE> 25
 6.153252e+000 1.274895e+001 7.789927e+000 2.171960e+001 1.715819e+001 3.347316e+001 7.325907e+001 2.613456e+001 2.124673e+001 1.211501e+001 1.806000e+001 1.734132e+001 5.381599e-001 7.619922e-001 9.613165e-001 2.134848e+000 1.320492e+000 3.288403e+000 3.153322e+000 3.561952e+000 3.132869e+000 1.624081e+000 2.329463e+000 1.571760e+000 6.422859e-001
<GCONST> 8.684502e+001
<STATE> 4
<MEAN> 25
 3.159426e+000 5.188969e+000 5.955935e+000 8.572027e+000 6.599847e+000 6.056158e+000 1.752330e+000 3.871713e-001 1.126939e+000 9.171495e-001 -5.389310e-001 -2.495003e+000 -1.537482e-001 1.327641e-002 -1.476282e-001 2.683795e-003 -1.764922e-001 6.087051e-002 5.501019e-001 1.961757e-001 1.022790e-001 3.708233e-001 1.500877e-001 2.411609e-002 -1.817289e-001
<VARIANCE> 25
 5.164319e+000 3.537311e+000 6.795845e+000 4.647671e+000 5.538945e+000 6.161854e+000 1.010053e+001 8.237177e+000 5.999878e+000 7.858755e+000 9.025217e+000 1.263945e+001 1.908209e-001 4.220166e-001 4.545242e-001 5.805280e-001 5.217262e-001 6.073469e-001 7.924115e-001 7.657773e-001 5.710231e-001 7.982396e-001 6.941104e-001 8.232371e-001 6.470185e-002
<GCONST> 5.926286e+001
<TRANSP> 5
 0.000000e+000 1.000000e+000 0.000000e+000 0.000000e+000 0.000000e+000
 0.000000e+000 9.080738e-001 9.192625e-002 0.000000e+000 0.000000e+000
 0.000000e+000 0.000000e+000 6.115251e-001 3.884749e-001 0.000000e+000
 0.000000e+000 0.000000e+000 0.000000e+000 7.475595e-001 2.524404e-001
 0.000000e+000 0.000000e+000 0.000000e+000 0.000000e+000 0.000000e+000
<ENDHMM>
~h "e"
<BEGINHMM>
<NUMSTATES> 5
<STATE> 2
<MEAN> 25
 1.349674e+000 -5.111231e-001 -1.576117e+000 -7.368220e-001 -8.604655e-001 -5.062389e-001 2.717727e-001 -1.730500e+000 -2.407286e+000 -1.279750e+000 2.962838e-001 1.639351e+000 2.521191e+000 1.103953e+000 1.959965e-001 -3.714971e-001 5.090305e-001 -5.509360e-001 -1.475422e-001 -1.563362e-001 -6.373383e-001 -5.242425e-001 3.867007e-002 4.876342e-001 1.775626e+000
<VARIANCE> 25
 4.425631e+001 2.004736e+001 9.970984e+000 1.735603e+001 1.388970e+001 1.635567e+001 1.257096e+001 1.933366e+001 2.376529e+001 1.551954e+001 8.857947e+000 1.353979e+001 2.496622e+000 1.870174e+000 2.047441e+000 2.791824e+000 3.132415e+000 2.127222e+000 2.121367e+000 3.515821e+000 3.220341e+000 1.467913e+000 1.441885e+000 1.785589e+000 1.706886e+000
<GCONST> 8.972878e+001
<STATE> 3
<MEAN> 25
 8.790771e+000 2.592872e+000 -1.628316e+000 -3.550069e-001 2.527445e+000 -3.000864e+000 -3.105137e+000 -2.612681e+000 -2.824266e+000 -5.898438e-001 1.113534e+000 9.512931e-001 -1.206627e-001 2.087049e-001 6.305616e-001 1.280362e+000 8.931403e-001 5.885766e-002 -9.367526e-001 -6.389878e-001 2.855236e-001 1.098387e+000 3.495636e-001 -5.153451e-001 -2.152114e-001
<VARIANCE> 25
 2.142681e+001 2.001358e+001 3.474803e+001 3.264589e+001 4.417015e+001 2.696675e+001 4.100916e+001 4.002444e+001 4.064436e+001 2.024825e+001 1.891381e+001 2.259685e+001 2.177520e+000 1.894148e+000 1.876178e+000 2.380987e+000 1.715069e+000 2.694696e+000 2.486961e+000 1.577942e+000 1.400553e+000 1.691364e+000 1.295362e+000 1.057992e+000 1.506892e+000
<GCONST> 9.369764e+001
<STATE> 4
<MEAN> 25
 6.042245e+000 1.748578e+000 -4.105282e-001 4.918220e+000 6.611304e+000 -2.216416e+000 -8.036863e+000 -6.830013e+000 -1.716279e-001 5.953857e+000 1.805513e+000 -2.563358e+000 -6.263481e-001 -1.568376e-002 2.359527e-001 1.909796e-001 -2.215619e-001 3.346791e-001 2.369018e-001 2.848964e-001 4.536786e-001 5.137595e-002 -1.740856e-001 -2.688320e-001 -5.249428e-001
<VARIANCE> 25
 1.688554e+001 1.106116e+001 1.967971e+001 1.411259e+001 1.457018e+001 1.626895e+001 2.098878e+001 1.747251e+001 1.766066e+001 2.032402e+001 1.570235e+001 1.676102e+001 4.517133e-001 7.823789e-001 1.167064e+000 1.318797e+000 8.763755e-001 1.084758e+000 1.351523e+000 8.818241e-001 9.852188e-001 1.248758e+000 1.094558e+000 1.306885e+000 2.612504e-001
<GCONST> 7.837127e+001
<TRANSP> 5
 0.000000e+000 1.000000e+000 0.000000e+000 0.000000e+000 0.000000e+000
 0.000000e+000 7.242119e-001 2.757881e-001 0.000000e+000 0.000000e+000
 0.000000e+000 0.000000e+000 6.879606e-001 3.120394e-001 0.000000e+000
 0.000000e+000 0.000000e+000 0.000000e+000 8.306673e-001 1.693327e-001
 0.000000e+000 0.000000e+000 0.000000e+000 0.000000e+000 0.000000e+000
<ENDHMM>
~h "f"
<BEGINHMM>
<NUMSTATES> 5
<STATE> 2
<MEAN> 25
 -5.132519e+000 -8.259070e+000 -8.340060e-001 -2.351607e+000 4.521635e+000 -1.717766e-001 7.355555e-001 -8.132740e+000 4.336553e-001 -2.576378e+000 1.463712e+000 1.737806e+000 1.492371e-001 4.187530e-002 1.679734e-001 2.290545e-001 1.210193e-001 -2.249277e-001 -3.570342e-001 3.184184e-004 3.592729e-002 -2.271371e-001 -2.117462e-001 -1.196107e-001 1.156718e-001
<VARIANCE> 25
 1.716594e+001 1.334890e+001 1.082660e+001 4.357037e+001 1.956527e+001 1.798596e+001 2.732417e+001 1.509251e+001 1.379036e+001 2.158713e+001 9.781660e+000 1.615724e+001 2.804699e+000 3.634641e+000 2.379482e+000 9.450452e+000 2.776124e+000 1.434669e+000 4.135647e+000 2.626519e+000 1.682536e+000 2.947562e+000 2.114966e+000 2.959641e+000 4.208277e-001
<GCONST> 9.195383e+001
<STATE> 3
<MEAN> 25
 4.411997e+000 5.337934e-001 1.266619e+001 1.640103e+001 1.123471e+001 -6.237338e-001 -1.306868e+001 1.496556e+000 2.689196e+000 -9.675790e+000 -8.132348e+000 -6.075396e+000 6.389020e-002 1.118269e+000 1.829453e+000 2.386080e-001 -3.466034e-001 1.828302e-001 1.046550e-002 1.239984e+000 -4.544373e-001 -1.948018e+000 -5.157320e-001 7.152587e-002 -1.024138e-001
<VARIANCE> 25
 3.049989e+000 7.433152e+000 1.529867e+001 8.771577e+000 6.935137e+000 1.149020e+001 1.035728e+001 1.326988e+001 1.170604e+001 1.509683e+001 4.457492e+000 6.635810e+000 6.922420e-001 1.461618e+000 2.704962e+000 3.365888e+000 1.018506e+000 1.673880e+000 3.584445e+000 1.274412e+000 1.431895e+000 3.181591e+000 2.568916e+000 9.115850e-001 2.920763e-001
<GCONST> 7.723986e+001
<STATE> 4
<MEAN> 25
 2.698707e+000 3.910922e+000 1.217151e+001 1.097495e+001 7.710549e+000 4.182833e+000 -5.209907e+000 3.484590e+000 -4.562772e-001 -8.859592e+000 -3.992206e+000 -4.980293e+000 -1.696977e-001 3.846318e-002 -4.510723e-001 -3.909427e-001 -3.213093e-001 1.955902e-001 6.886711e-001 2.702420e-002 9.709605e-002 5.893846e-001 3.586417e-001 2.472345e-001 -2.305475e-001
<VARIANCE> 25
 2.236149e+000 3.880985e+000 8.106742e+000 8.935282e+000 6.809075e+000 9.653554e+000 1.115397e+001 8.776528e+000 8.214593e+000 1.282317e+001 8.923209e+000 7.108977e+000 8.684012e-002 3.703870e-001 4.645222e-001 5.037435e-001 4.078857e-001 9.141588e-001 1.113389e+000 8.083591e-001 8.824425e-001 8.922541e-001 8.662282e-001 6.196634e-001 7.791347e-002
<GCONST> 6.057252e+001
<TRANSP> 5
 0.000000e+000 1.000000e+000 0.000000e+000 0.000000e+000 0.000000e+000
 0.000000e+000 9.376680e-001 6.233205e-002 0.000000e+000 0.000000e+000
 0.000000e+000 0.000000e+000 7.882546e-001 2.117454e-001 0.000000e+000
 0.000000e+000 0.000000e+000 0.000000e+000 9.098190e-001 9.018099e-002
 0.000000e+000 0.000000e+000 0.000000e+000 0.000000e+000 0.000000e+000
<ENDHMM>
~h "g"
<BEGINHMM>
<NUMSTATES> 5
<STATE> 2
<MEAN> 25
 2.637730e-001 4.368605e+000 4.490757e+000 5.706820e+000 4.830472e+000 4.587598e+000 1.960396e+000 3.016670e-001 -3.063735e-001 8.964294e-003 -1.271140e-001 -9.326081e-001 -7.916542e-001 -3.640700e-001 -6.435325e-001 3.189140e-001 -3.127510e-001 3.993315e-001 1.556699e+000 9.581419e-001 1.005332e+000 5.247387e-001 3.656958e-001 5.737573e-001 -7.435832e-001
<VARIANCE> 25
 4.542944e+000 4.530723e+000 8.527780e+000 6.797067e+000 8.909577e+000 9.920997e+000 1.280402e+001 7.484748e+000 7.049263e+000 5.139491e+000 8.397947e+000 8.077476e+000 2.528372e-001 3.069687e-001 6.364759e-001 6.341451e-001 8.413824e-001 1.167570e+000 1.690696e+000 8.068894e-001 1.238101e+000 7.446301e-001 8.930249e-001 8.987631e-001 3.648488e-001
<GCONST> 6.540260e+001
<STATE> 3
<MEAN> 25
 -6.567325e-001 2.207281e+000 1.752167e+000 4.499213e+000 3.076783e+000 4.903740e+000 4.015857e+000 2.068846e+000 2.276179e+000 2.485831e+000 1.225214e+000 4.030694e-002 -3.429561e-001 -6.162171e-001 -3.953387e-001 -2.964120e-001 -4.915833e-001 -3.038546e-001 -2.735547e-001 1.466057e-001 2.232487e-001 1.202252e-001 3.157248e-002 -9.796149e-002 -1.273551e-001
<VARIANCE> 25
 3.444171e+000 3.581487e+000 4.981132e+000 4.171427e+000 5.339769e+000 7.134765e+000 5.446883e+000 4.358123e+000 7.453271e+000 8.420401e+000 6.445318e+000 5.471578e+000 1.976213e-001 4.259578e-001 5.051173e-001 6.190041e-001 8.162746e-001 8.663038e-001 9.304368e-001 7.222425e-001 1.148109e+000 7.258114e-001 8.066921e-001 5.553113e-001 7.336766e-002
<GCONST> 5.802367e+001
<STATE> 4
<MEAN> 25
 -1.584939e+000 -3.932297e+000 3.038863e+000 -1.947501e+000 2.682763e+000 7.796953e-001 -1.436366e-001 6.839490e-002 -1.275360e+000 -4.686222e+000 1.312061e+000 -5.088197e-001 -4.668192e-003 -7.327705e-001 1.308591e+000 -9.114231e-001 4.623952e-001 -6.760603e-001 -6.544917e-001 8.069038e-002 -3.387964e-001 -1.408477e+000 1.524510e-001 6.523535e-002 1.403336e+000
<VARIANCE> 25
 4.323853e+001 3.821862e+001 4.479438e+001 3.423093e+001 1.741729e+001 3.538054e+001 3.241070e+001 3.329934e+001 3.255486e+001 3.486047e+001 2.184346e+001 9.813006e+000 2.428184e+000 4.285804e+000 5.488698e+000 5.246909e+000 2.241375e+000 3.279671e+000 3.549276e+000 2.390466e+000 2.163255e+000 4.498533e+000 2.789639e+000 1.126056e+000 2.096248e+000
<GCONST> 1.004977e+002
<TRANSP> 5
 0.000000e+000 1.000000e+000 0.000000e+000 0.000000e+000 0.000000e+000
 0.000000e+000 6.055099e-001 3.944901e-001 0.000000e+000 0.000000e+000
 0.000000e+000 0.000000e+000 7.812309e-001 2.187691e-001 0.000000e+000
 0.000000e+000 0.000000e+000 0.000000e+000 8.473335e-001 1.526665e-001
 0.000000e+000 0.000000e+000 0.000000e+000 0.000000e+000 0.000000e+000
<ENDHMM>
~h "h"
<BEGINHMM>
<NUMSTATES> 5
<STATE> 2
<MEAN> 25
 2.007729e+000 -1.472736e+000 -4.293634e+000 -2.019655e+000 2.671420e-001 4.496450e+000 5.365400e+000 3.875175e+000 6.810939e-001 -1.293688e+000 1.222709e+000 3.948539e+000 -6.815339e-001 -6.984407e-001 -6.237688e-001 -2.679084e-001 -4.299603e-001 -2.041325e-001 -2.327646e-001 -3.063906e-001 -1.393649e-001 2.223210e-001 2.874415e-001 -1.183144e-002 -3.968138e-001
<VARIANCE> 25
 1.387027e+001 1.175120e+001 1.678185e+001 1.745321e+001 1.314472e+001 1.426869e+001 1.185581e+001 1.782538e+001 1.304708e+001 1.133798e+001 1.180134e+001 1.508614e+001 8.004521e-001 1.284562e+000 1.493836e+000 1.327536e+000 9.265063e-001 1.015530e+000 8.276772e-001 1.189666e+000 1.072129e+000 1.053702e+000 1.021655e+000 9.956280e-001 2.909606e-001
<GCONST> 7.702725e+001
<STATE> 3
<MEAN> 25
 -1.198522e+000 -3.029984e+000 -5.431130e+000 -2.442833e+000 -1.659772e+000 1.873545e+000 2.430341e+000 1.300343e+000 3.986034e-002 8.618038e-001 2.961713e+000 3.867126e+000 -3.949208e-001 1.404926e-001 3.291276e-001 3.121440e-001 3.354923e-002 -2.459293e-001 -3.484116e-001 -4.004622e-001 -4.548334e-002 2.437002e-001 -1.471135e-001 -3.830636e-001 -3.142973e-001
<VARIANCE> 25
 6.991978e+000 3.933956e+000 9.754320e+000 1.083254e+001 1.026008e+001 1.233899e+001 1.021948e+001 1.121443e+001 9.667767e+000 8.705219e+000 1.030481e+001 1.109121e+001 1.785942e-001 2.292642e-001 4.881696e-001 6.720018e-001 7.143307e-001 8.940540e-001 7.759042e-001 8.420758e-001 8.823897e-001 7.725642e-001 6.900605e-001 8.120130e-001 8.269680e-002
<GCONST> 6.403654e+001
<STATE> 4
<MEAN> 25
 -3.880574e+000 -2.499790e+000 -3.408753e+000 -1.129536e+000 -2.440137e+000 2.949613e-001 -7.715525e-002 -1.269925e+000 -3.741179e-001 1.177855e+000 5.498991e-001 3.157241e-002 -2.751103e-003 -6.181889e-003 -3.896288e-002 -5.771302e-002 -1.126158e-002 -1.060190e-002 8.543017e-003 1.754526e-002 -6.913817e-003 -2.279643e-002 -4.911283e-002 -3.826616e-002 -1.837930e-003
<VARIANCE> 25
 3.028919e+000 2.266110e+000 3.892807e+000 5.396066e+000 4.585602e+000 5.029157e+000 6.279340e+000 7.908429e+000 7.414505e+000 6.995648e+000 6.931589e+000 6.488968e+000 1.334014e-001 1.840741e-001 3.746507e-001 4.709610e-001 5.202752e-001 5.306939e-001 6.313076e-001 8.306935e-001 8.372840e-001 7.647913e-001 7.462975e-001 7.143883e-001 6.244970e-002
<GCONST> 5.449421e+001
<TRANSP> 5
 0.000000e+000 1.000000e+000 0.000000e+000 0.000000e+000 0.000000e+000
 0.000000e+000 7.476233e-001 2.523768e-001 0.000000e+000 0.000000e+000
 0.000000e+000 0.000000e+000 7.840363e-001 2.159636e-001 0.000000e+000
 0.000000e+000 0.000000e+000 0.000000e+000 9.080953e-001 9.190473e-002
 0.000000e+000 0.000000e+000 0.000000e+000 0.000000e+000 0.000000e+000
<ENDHMM>
~h "i"
<BEGINHMM>
<NUMSTATES> 5
<STATE> 2
<MEAN> 25
 2.650550e+000 -1.225740e-001 8.812625e+000 8.096905e+000 9.120575e+000 -3.302888e-001 -8.618867e+000 -8.437594e-001 1.218381e+000 -4.397348e+000 -3.641539e+000 -3.086846e+000 4.037150e-001 3.791838e-001 1.006266e+000 1.181472e+000 7.618487e-001 2.283224e-002 -7.761813e-001 2.582740e-001 7.609604e-002 -9.605092e-001 -7.464442e-001 -2.908550e-001 1.831679e-001
<VARIANCE> 25
 1.828780e+001 1.309594e+001 4.449199e+001 3.580777e+001 2.635172e+001 2.727181e+001 4.946029e+001 3.059549e+001 1.981305e+001 2.917425e+001 2.639134e+001 1.366724e+001 1.859403e+000 1.578653e+000 4.562262e+000 5.451662e+000 3.942606e+000 3.719283e+000 6.513425e+000 2.640873e+000 1.878337e+000 4.057647e+000 2.966505e+000 1.639114e+000 1.736652e+000
<GCONST> 9.893142e+001
<STATE> 3
<MEAN> 25
 -9.172785e-001 -1.024562e+000 3.672658e+000 4.150413e+000 4.311924e+000 1.519556e+000 -3.457973e+000 -5.364301e-001 6.357066e-001 -1.835607e+000 -1.331115e+000 -1.136597e+000 -3.160966e-001 -3.480405e-001 -9.484267e-001 -6.382116e-001 -4.575193e-001 -2.806786e-003 3.013391e-001 -3.340512e-001 -1.887528e-001 4.485612e-001 3.158854e-001 1.612494e-001 -2.883470e-001
<VARIANCE> 25
 1.413382e+001 1.059165e+001 5.806464e+001 3.811470e+001 2.777753e+001 2.314858e+001 4.206257e+001 2.520047e+001 1.430475e+001 2.952674e+001 1.766676e+001 1.240503e+001 5.622208e-001 1.039172e+000 2.826495e+000 1.928159e+000 1.951746e+000 1.690376e+000 2.073865e+000 1.663821e+000 1.378452e+000 1.680568e+000 1.268061e+000 7.853120e-001 4.183332e-001
<GCONST> 8.708038e+001
<STATE> 4
<MEAN> 25
 1.559091e+000 1.376974e+000 1.092425e+001 8.969959e+000 8.381284e+000 3.109312e+000 -6.204694e+000 2.333089e+000 1.322530e+000 -6.546909e+000 -3.439581e+000 -3.718534e+000 -7.615130e-002 -1.066130e-001 -9.961907e-001 -3.817906e-001 -3.242860e-001 -1.854955e-002 3.491916e-001 -3.670777e-001 -2.359231e-002 7.905991e-001 4.227475e-001 1.943824e-001 -2.709455e-001
<VARIANCE> 25
 7.527599e+000 8.958844e+000 3.989789e+001 1.801946e+001 1.970991e+001 1.862669e+001 3.487859e+001 2.083045e+001 1.421026e+001 3.186744e+001 1.259646e+001 1.079237e+001 4.565198e-001 9.602841e-001 1.356521e+000 1.383844e+000 1.131154e+000 1.248773e+000 1.957250e+000 1.552464e+000 1.311068e+000 1.688431e+000 1.482925e+000 1.047157e+000 2.943962e-001
<GCONST> 8.153156e+001
<TRANSP> 5
 0.000000e+000 1.000000e+000 0.000000e+000 0.000000e+000 0.000000e+000
 0.000000e+000 7.722950e-001 2.277050e-001 0.000000e+000 0.000000e+000
 0.000000e+000 0.000000e+000 5.614043e-001 4.385956e-001 0.000000e+000
 0.000000e+000 0.000000e+000 0.000000e+000 8.111289e-001 1.888711e-001
 0.000000e+000 0.000000e+000 0.000000e+000 0.000000e+000 0.000000e+000
<ENDHMM>
~h "j"
<BEGINHMM>
<NUMSTATES> 5
<STATE> 2
<MEAN> 25
 7.303340e+000 3.138275e+000 -3.808156e+000 -4.369863e+000 -4.101830e-002 2.089416e+000 -6.714936e-001 -3.582123e+000 -2.480198e+000 2.104159e+000 4.803670e+000 5.097072e+000 -5.253555e-001 -1.469709e-001 -4.170188e-001 -4.984906e-001 -6.507798e-001 1.917883e-001 5.448442e-001 3.628454e-001 -9.719383e-002 -1.311482e-001 -1.531738e-002 7.933426e-002 -4.982611e-001
<VARIANCE> 25
 1.502918e+001 1.008908e+001 9.038898e+000 9.340756e+000 1.489653e+001 9.847460e+000 1.505712e+001 1.402783e+001 8.130547e+000 6.324684e+000 8.934804e+000 6.975823e+000 5.752088e-001 1.204604e+000 5.628385e-001 9.802737e-001 1.648425e+000 1.251554e+000 9.141170e-001 6.819276e-001 1.197360e+000 6.387890e-001 9.757821e-001 1.012950e+000 8.704232e-002
<GCONST> 7.038698e+001
<STATE> 3
<MEAN> 25
 -3.618710e+000 -2.766883e+000 -4.124271e+000 -2.664022e+000 -2.204509e+000 2.863225e+000 2.181987e+000 3.285599e-001 -1.420893e+000 -6.003075e-001 2.723018e+000 3.292662e+000 -7.478771e-001 -6.807302e-002 8.134966e-001 1.105320e+000 3.165281e-001 -4.193107e-001 -2.619635e-001 5.778611e-002 2.151120e-001 -4.884396e-003 -4.793329e-001 -5.718422e-001 -4.802772e-001
<VARIANCE> 25
 3.584360e+000 1.776531e+000 9.150015e+000 1.743383e+001 3.619149e+000 7.206556e+000 4.850621e+000 5.433570e+000 1.171524e+001 7.169214e+000 9.533662e+000 8.174933e+000 1.353818e-001 1.882087e-001 3.978496e-001 8.605422e-001 3.178340e-001 8.877065e-001 6.670122e-001 6.091926e-001 1.220358e+000 7.469156e-001 1.038729e+000 9.945034e-001 7.050072e-002
<GCONST> 5.856991e+001
<STATE> 4
<MEAN> 25
 -7.108342e+000 -3.241664e+000 -3.615806e-001 2.524597e+000 -1.714918e+000 -1.306026e+000 -1.392880e-001 6.300614e-001 1.425783e+000 1.670015e+000 -1.654006e-001 -1.098720e+000 -1.925776e-003 2.531395e-003 1.743763e-003 -2.196377e-003 -2.177105e-003 -3.819383e-002 -1.588396e-002 -1.087753e-002 1.530803e-002 3.845084e-002 -1.524378e-002 8.633344e-003 6.130955e-003
<VARIANCE> 25
 5.944675e-001 1.154760e+000 2.368093e+000 3.280384e+000 3.487111e+000 4.912758e+000 4.804046e+000 5.391381e+000 5.268003e+000 4.600789e+000 5.385056e+000 5.637900e+000 6.201984e-002 1.202078e-001 1.545130e-001 2.944035e-001 3.417490e-001 5.502214e-001 5.111110e-001 5.440817e-001 6.819313e-001 5.189583e-001 7.189146e-001 6.089000e-001 1.518435e-002
<GCONST> 4.332455e+001
<TRANSP> 5
 0.000000e+000 1.000000e+000 0.000000e+000 0.000000e+000 0.000000e+000
 0.000000e+000 9.286008e-001 7.139919e-002 0.000000e+000 0.000000e+000
 0.000000e+000 0.000000e+000 8.404368e-001 1.595633e-001 0.000000e+000
 0.000000e+000 0.000000e+000 0.000000e+000 9.766005e-001 2.339958e-002
 0.000000e+000 0.000000e+000 0.000000e+000 0.000000e+000 0.000000e+000
<ENDHMM>
~h "k"
<BEGINHMM>
<NUMSTATES> 5
<STATE> 2
<MEAN> 25
 -3.565567e+000 -2.367972e+000 -2.834636e+000 -5.009089e-001 -2.402228e+000 -3.463293e-001 -3.259353e-001 -4.378105e-001 6.280264e-001 1.994710e+000 1.230110e+000 -2.355766e-001 1.989722e-001 -1.069741e-001 -1.848663e-001 -7.709664e-001 -3.489565e-001 -2.770705e-001 2.581670e-001 -1.696525e-001 -3.055170e-001 -3.347418e-001 1.625690e-002 1.180325e-001 4.372470e-001
<VARIANCE> 25
 3.260108e+000 3.958922e+000 4.697138e+000 8.199774e+000 7.986871e+000 9.110584e+000 9.234873e+000 9.324841e+000 8.840497e+000 8.123623e+000 8.886393e+000 7.343260e+000 7.279938e-001 8.362322e-001 8.702011e-001 3.120803e+000 1.710027e+000 1.484555e+000 2.719879e+000 1.298462e+000 1.463884e+000 1.932669e+000 1.199171e+000 9.400277e-001 1.211142e+000
<GCONST> 7.339853e+001
<STATE> 3
<MEAN> 25
 -4.886813e-002 -2.427560e+000 -2.694052e+000 -1.019834e+001 -4.914185e+000 -1.632285e+000 4.554083e+000 -1.970751e+000 -3.815846e+000 -3.201714e+000 1.265912e+000 1.596549e+000 1.092942e+000 6.007826e-001 7.334710e-001 -7.002667e-001 3.065532e-001 2.839096e-001 1.186567e+000 4.460725e-001 -4.478792e-001 -6.886868e-001 -1.562650e-001 6.770507e-001 1.191726e+000
<VARIANCE> 25
 1.022047e+001 1.794823e+001 1.830091e+001 4.176820e+001 4.280933e+001 3.163176e+001 7.197076e+001 2.432057e+001 2.052116e+001 3.120062e+001 2.364886e+001 1.659175e+001 1.545136e+000 1.744431e+000 1.771618e+000 8.362926e+000 3.815103e+000 2.510575e+000 4.835713e+000 1.938468e+000 2.422753e+000 2.920158e+000 1.851735e+000 1.631444e+000 2.318212e+000
<GCONST> 9.699809e+001
<STATE> 4
<MEAN> 25
 4.670654e+000 1.827386e+000 -3.748925e-001 -3.963436e+000 -3.268917e-001 -2.780102e-001 3.825644e+000 1.769444e+000 -1.662780e+000 -2.328288e+000 -1.195693e+000 3.462265e+000 2.850842e+000 1.739546e+000 -2.500819e-001 1.569353e+000 1.022853e+000 -1.530344e+000 -2.215277e+000 7.833554e-001 1.266833e+000 3.836797e-001 -8.343065e-001 5.115517e-001 7.603856e-001
<VARIANCE> 25
 2.273491e+001 1.172432e+001 1.021970e+001 1.391487e+001 1.130116e+001 1.872703e+001 2.095498e+001 1.218250e+001 1.139979e+001 1.320004e+001 1.284789e+001 9.292410e+000 9.227782e-001 1.035853e+000 2.798566e+000 2.584456e+000 1.194880e+000 2.181327e+000 2.149390e+000 1.504791e+000 1.390637e+000 1.574279e+000 1.211850e+000 1.377699e+000 8.828762e-001
<GCONST> 8.242006e+001
<TRANSP> 5
 0.000000e+000 1.000000e+000 0.000000e+000 0.000000e+000 0.000000e+000
 0.000000e+000 8.294752e-001 1.705248e-001 0.000000e+000 0.000000e+000
 0.000000e+000 0.000000e+000 6.940483e-001 3.059517e-001 0.000000e+000
 0.000000e+000 0.000000e+000 0.000000e+000 5.135639e-001 4.864361e-001
 0.000000e+000 0.000000e+000 0.000000e+000 0.000000e+000 0.000000e+000
<ENDHMM>
~h "l"
<BEGINHMM>
<NUMSTATES> 5
<STATE> 2
<MEAN> 25
 -1.046116e+000 -5.887209e-001 -9.615377e-001 -2.762345e+000 -1.038589e+000 1.289606e+000 8.343286e-001 -5.210642e-001 -1.063903e+000 5.372607e-001 5.783443e-002 3.387688e-001 2.868558e-001 6.558877e-001 4.621800e-001 2.923132e-001 -3.133414e-001 -2.748957e-001 -1.425133e-001 -9.935249e-002 -8.287930e-002 -2.432982e-001 -3.848523e-001 -3.490910e-001 -5.759285e-002
<VARIANCE> 25
 3.294544e+001 3.017135e+001 1.827828e+001 1.794811e+001 1.815575e+001 2.332814e+001 1.097599e+001 1.515604e+001 1.631666e+001 9.864191e+000 1.152780e+001 8.784654e+000 1.157786e+000 1.977660e+000 2.599135e+000 2.132973e+000 2.027073e+000 1.644670e+000 1.381785e+000 1.563619e+000 1.958762e+000 1.160672e+000 1.037775e+000 1.008066e+000 7.130611e-001
<GCONST> 8.454736e+001
<STATE> 3
<MEAN> 25
 6.215728e+000 8.202766e+000 3.584480e+000 -2.874234e+000 -2.684896e+000 -3.510737e+000 -8.346161e-001 8.929855e-001 -1.777132e+000 -9.184470e-001 -3.464393e+000 -2.477362e+000 1.334721e-001 2.954149e-001 4.443665e-001 1.224504e-001 -2.708836e-001 -3.313808e-001 -2.766680e-001 5.848890e-002 4.704023e-002 -2.789551e-001 -2.318311e-001 -3.160746e-001 5.498159e-002
<VARIANCE> 25
 8.910455e+000 7.898866e+000 7.671227e+000 1.889363e+001 1.182768e+001 1.153312e+001 8.115774e+000 9.097804e+000 1.384260e+001 1.427781e+001 9.141877e+000 7.968161e+000 8.558260e-001 5.999699e-001 4.458504e-001 1.391293e+000 7.626529e-001 8.301250e-001 7.923943e-001 8.980045e-001 7.512152e-001 7.355594e-001 7.464144e-001 6.017547e-001 4.544355e-001
<GCONST> 6.984568e+001
<STATE> 4
<MEAN> 25
 6.754477e+000 6.457732e+000 2.046175e+000 -7.138870e+000 -3.317644e+000 -4.181981e+000 3.002617e-001 4.693410e+000 3.258493e-001 -5.078809e-001 -3.300759e+000 -1.317421e+000 3.851355e-001 -8.819013e-001 -1.315805e+000 -1.199758e+000 6.709573e-002 8.710593e-003 1.109535e+000 1.295299e+000 7.072718e-001 1.318538e-002 -2.952908e-001 7.434999e-001 6.692684e-001
<VARIANCE> 25
 1.419958e+001 1.108099e+001 1.753316e+001 2.740397e+001 9.179855e+000 1.407178e+001 1.743091e+001 2.088905e+001 1.541580e+001 1.251670e+001 9.834265e+000 1.060805e+001 4.442250e-001 5.737597e-001 1.683174e+000 1.508551e+000 1.046199e+000 1.327151e+000 1.642509e+000 1.297016e+000 1.064320e+000 1.118909e+000 1.048910e+000 1.097082e+000 3.282617e-001
<GCONST> 7.769925e+001
<TRANSP> 5
 0.000000e+000 1.000000e+000 0.000000e+000 0.000000e+000 0.000000e+000
 0.000000e+000 6.178759e-001 3.821241e-001 0.000000e+000 0.000000e+000
 0.000000e+000 0.000000e+000 7.655712e-001 2.344288e-001 0.000000e+000
 0.000000e+000 0.000000e+000 0.000000e+000 6.406372e-001 3.593629e-001
 0.000000e+000 0.000000e+000 0.000000e+000 0.000000e+000 0.000000e+000
<ENDHMM>
~h "m"
<BEGINHMM>
<NUMSTATES> 5
<STATE> 2
<MEAN> 25
 3.780897e+000 5.275284e+000 4.070858e+000 6.152589e+000 3.012220e+000 3.593317e+000 3.821728e+000 4.164687e+000 4.232110e+000 2.333805e+000 -1.121619e+000 -4.523875e+000 1.754884e-001 1.101517e-001 1.597356e-001 3.189569e-001 3.979564e-001 3.301503e-001 2.709583e-001 2.865876e-001 2.578681e-001 1.405323e-001 -1.190279e-001 -3.908578e-001 1.002055e-001
<VARIANCE> 25
 7.750247e+000 5.952252e+000 6.752325e+000 6.824229e+000 5.738197e+000 9.236748e+000 6.969378e+000 7.431956e+000 9.770933e+000 7.359367e+000 7.830832e+000 9.872090e+000 1.028971e+000 7.063563e-001 6.475332e-001 8.948476e-001 9.226635e-001 9.076312e-001 6.989443e-001 9.602013e-001 1.021162e+000 7.219848e-001 7.552489e-001 9.995635e-001 3.369278e-001
<GCONST> 6.703480e+001
<STATE> 3
<MEAN> 25
 6.360683e+000 5.179822e+000 2.296274e+000 3.723784e+000 9.047002e-001 8.379779e-002 1.882875e+000 4.376659e+000 4.110802e+000 1.170890e+000 -1.625212e+000 -4.473000e+000 1.051261e+000 -1.679866e-001 -1.144218e+000 -2.039887e+000 -1.310837e+000 -1.542589e+000 -3.847082e-001 4.206968e-001 -6.538261e-001 -1.390811e+000 1.232626e-001 1.520388e+000 9.539793e-001
<VARIANCE> 25
 1.132271e+001 4.929636e+000 8.216945e+000 1.734160e+001 1.566556e+001 2.274323e+001 1.067819e+001 9.036470e+000 1.251981e+001 9.612011e+000 7.214892e+000 1.366227e+001 1.262912e+000 6.345146e-001 7.338312e-001 2.138875e+000 1.121931e+000 1.228517e+000 9.303724e-001 1.319408e+000 9.361822e-001 1.303210e+000 8.616735e-001 1.623443e+000 6.509508e-001
<GCONST> 7.561506e+001
<STATE> 4
<MEAN> 25
 8.589784e+000 4.417221e+000 -1.826379e+000 -3.119889e+000 -1.479635e+000 -1.386588e+000 4.300240e+000 8.057525e+000 2.232562e+000 -5.179403e+000 -2.334540e+000 2.096860e+000 1.657117e-001 -6.010362e-001 -1.028637e+000 -1.136605e+000 5.048311e-001 2.925342e-001 4.249290e-001 4.311453e-001 -5.893583e-001 -9.075431e-001 -7.053787e-002 1.376230e+000 4.310889e-001
<VARIANCE> 25
 1.526602e+001 6.201422e+000 1.174019e+001 2.630893e+001 1.117958e+001 1.475766e+001 6.367708e+000 1.247832e+001 7.400998e+000 1.842269e+001 9.068435e+000 1.063678e+001 4.967413e-001 3.764592e-001 6.262825e-001 1.728205e+000 1.069387e+000 9.024023e-001 1.109206e+000 1.398848e+000 9.386384e-001 1.464725e+000 7.834997e-001 1.121773e+000 3.658774e-001
<GCONST> 7.318565e+001
<TRANSP> 5
 0.000000e+000 1.000000e+000 0.000000e+000 0.000000e+000 0.000000e+000
 0.000000e+000 8.580659e-001 1.419341e-001 0.000000e+000 0.000000e+000
 0.000000e+000 0.000000e+000 5.922141e-001 4.077860e-001 0.000000e+000
 0.000000e+000 0.000000e+000 0.000000e+000 5.954919e-001 4.045080e-001
 0.000000e+000 0.000000e+000 0.000000e+000 0.000000e+000 0.000000e+000
<ENDHMM>
~h "n"
<BEGINHMM>
<NUMSTATES> 5
<STATE> 2
<MEAN> 25
 5.725361e+000 4.374935e+000 6.259928e+000 8.928504e+000 8.617847e+000 9.614355e-001 -5.789585e+000 -4.969030e+000 -1.299022e+000 -1.220327e+000 -1.771425e+000 -2.044782e+000 -2.825941e-001 9.238418e-001 3.957756e-001 1.047014e+000 -1.107067e-001 1.596615e+000 1.159392e+000 -6.525005e-002 1.387942e-001 1.228438e-001 -9.065523e-002 -5.038980e-001 -9.611427e-001
<VARIANCE> 25
 4.620252e+000 1.074197e+001 9.142090e+000 1.922191e+001 2.056941e+001 3.165582e+001 4.568581e+001 1.142041e+001 1.432462e+001 8.721603e+000 1.722738e+001 1.540270e+001 6.826524e-001 7.754108e-001 1.782941e+000 5.632710e+000 3.067792e+000 3.926633e+000 6.013619e+000 2.141819e+000 1.902293e+000 2.022066e+000 2.329163e+000 1.664047e+000 9.140666e-001
<GCONST> 8.749245e+001
<STATE> 3
<MEAN> 25
 4.775210e+000 5.948372e+000 5.235801e+000 8.936760e+000 7.047727e+000 5.253127e+000 2.996289e-001 -2.562417e+000 -1.879221e+000 -1.043143e+000 -2.539942e-001 -1.269542e-001 -3.020948e-001 -7.918440e-002 -3.917945e-003 8.279666e-002 4.841193e-002 3.122333e-001 4.419625e-001 3.876171e-001 2.567615e-001 2.270790e-001 1.898663e-001 2.986422e-002 -2.298269e-001
<VARIANCE> 25
 3.066288e+000 2.331588e+000 5.260171e+000 4.634267e+000 4.605055e+000 7.286407e+000 8.733740e+000 9.552449e+000 1.093714e+001 8.174295e+000 8.032135e+000 9.788366e+000 1.079029e-001 1.839519e-001 2.879499e-001 4.849242e-001 4.131673e-001 5.116057e-001 6.603751e-001 6.568369e-001 8.127716e-001 7.367766e-001 6.717259e-001 5.474240e-001 5.208609e-002
<GCONST> 5.515677e+001
<STATE> 4
<MEAN> 25
 2.889695e-002 2.001377e+000 3.295172e+000 5.929598e+000 3.925592e+000 5.387713e+000 3.168490e+000 5.886588e-001 3.996626e-001 1.240372e+000 1.462463e+000 2.139057e-001 -9.261356e-001 -1.092988e+000 -7.593283e-001 -1.000766e+000 -1.001626e+000 -6.004318e-001 -1.339859e-001 1.936110e-001 2.531172e-001 2.134649e-001 9.992291e-002 -7.619636e-002 -3.194453e-001
<VARIANCE> 25
 9.730766e+000 1.550960e+001 1.458070e+001 1.906812e+001 1.440527e+001 1.055781e+001 8.899669e+000 1.089718e+001 8.657244e+000 9.202588e+000 8.183425e+000 8.809890e+000 3.355279e-001 1.209592e+000 1.655395e+000 1.388559e+000 1.004740e+000 1.350558e+000 9.312420e-001 1.016002e+000 9.784962e-001 1.169555e+000 9.660714e-001 8.534386e-001 3.144616e-001
<GCONST> 7.381165e+001
<TRANSP> 5
 0.000000e+000 1.000000e+000 0.000000e+000 0.000000e+000 0.000000e+000
 0.000000e+000 5.455798e-001 4.544203e-001 0.000000e+000 0.000000e+000
 0.000000e+000 0.000000e+000 8.825338e-001 1.174661e-001 0.000000e+000
 0.000000e+000 0.000000e+000 0.000000e+000 7.714826e-001 2.285174e-001
 0.000000e+000 0.000000e+000 0.000000e+000 0.000000e+000 0.000000e+000
<ENDHMM>
~h "o"
<BEGINHMM>
<NUMSTATES> 5
<STATE> 2
<MEAN> 25
 7.244890e+000 4.395566e+000 2.909581e+000 -8.966216e-001 -5.045943e+000 -5.686437e+000 7.998763e-001 2.660651e+000 -1.660568e+000 -4.941676e+000 -3.143944e+000 -7.391336e-001 1.863995e+000 1.752942e+000 -2.363364e-001 -3.937903e-001 -1.499554e+000 -1.738577e+000 -1.352275e+000 1.126629e+000 1.334756e+000 -3.511699e-001 -9.588320e-001 -2.889846e-001 3.539774e-001
<VARIANCE> 25
 2.170034e+001 2.199017e+001 1.549707e+001 1.541792e+001 2.404173e+001 3.044623e+001 2.367517e+001 2.208012e+001 2.109666e+001 2.656178e+001 1.817499e+001 1.426912e+001 2.701426e+000 3.507247e+000 2.244400e+000 2.189631e+000 2.776957e+000 2.569260e+000 3.745115e+000 2.899333e+000 2.431490e+000 1.622227e+000 1.500727e+000 1.858251e+000 7.513915e-001
<GCONST> 9.263538e+001
<STATE> 3
<MEAN> 25
 9.335477e+000 8.244955e+000 4.159281e+000 -1.633004e+000 -7.717273e+000 -7.746580e+000 -9.558700e-001 5.353155e+000 1.636259e+000 -4.093951e+000 -4.865239e+000 -3.312592e+000 1.334570e-002 2.666238e-001 5.171530e-002 -1.904688e-002 -2.056501e-001 -1.532545e-001 -2.999004e-001 -9.809815e-002 3.346390e-001 4.904513e-001 2.688108e-001 -6.086908e-002 -1.323476e-001
<VARIANCE> 25
 5.060535e+000 5.365659e+000 1.263231e+001 1.366208e+001 2.081893e+001 2.312739e+001 1.150921e+001 1.426626e+001 1.930424e+001 1.173294e+001 7.457443e+000 1.727426e+001 2.725084e-001 4.210233e-001 7.185220e-001 5.935083e-001 1.042247e+000 1.135392e+000 9.541590e-001 1.128313e+000 9.956535e-001 1.147929e+000 6.229683e-001 8.984137e-001 2.297771e-001
<GCONST> 7.126569e+001
<STATE> 4
<MEAN> 25
 6.373686e+000 8.740162e+000 4.996875e+000 3.273216e-001 -6.715554e+000 -6.194715e+000 -3.068946e+000 7.504559e-001 2.384307e+000 2.137619e+000 -1.898308e-001 -2.967597e+000 -8.187653e-001 -6.903878e-001 -4.193335e-001 1.512806e-001 4.861958e-001 7.974957e-001 3.960905e-001 -2.432671e-001 -1.053490e-001 2.421976e-001 2.656529e-001 1.359037e-001 -4.564872e-001
<VARIANCE> 25
 1.433083e+001 1.502409e+001 1.257624e+001 9.387506e+000 1.262192e+001 2.021734e+001 1.625275e+001 1.718352e+001 1.336202e+001 1.021596e+001 9.934799e+000 8.179573e+000 6.085446e-001 8.712328e-001 7.421420e-001 9.082596e-001 7.872115e-001 9.564458e-001 7.804758e-001 1.580894e+000 1.097191e+000 9.586380e-001 8.901159e-001 5.565185e-001 1.989518e-001
<GCONST> 7.320916e+001
<TRANSP> 5
 0.000000e+000 1.000000e+000 0.000000e+000 0.000000e+000 0.000000e+000
 0.000000e+000 6.568140e-001 3.431860e-001 0.000000e+000 0.000000e+000
 0.000000e+000 0.000000e+000 8.731630e-001 1.268370e-001 0.000000e+000
 0.000000e+000 0.000000e+000 0.000000e+000 8.962288e-001 1.037711e-001
 0.000000e+000 0.000000e+000 0.000000e+000 0.000000e+000 0.000000e+000
<ENDHMM>
~h "p"
<BEGINHMM>
<NUMSTATES> 5
<STATE> 2
<MEAN> 25
 -2.972523e+000 -1.576845e+000 -5.546577e-001 1.722257e+000 -7.946648e-002 2.528275e+000 2.013871e+000 3.587111e-001 1.100729e+000 1.618426e+000 1.264828e+000 2.658153e-001 -6.994411e-001 -8.484349e-001 -9.735706e-001 -1.032292e+000 -6.101075e-001 -2.896439e-001 -4.537153e-001 -6.841395e-001 -3.465199e-001 -2.057087e-002 1.348772e-001 2.314952e-001 -2.964159e-001
<VARIANCE> 25
 7.824210e+000 8.416128e+000 1.373167e+001 1.487848e+001 1.030670e+001 9.030883e+000 1.258400e+001 1.290256e+001 1.018452e+001 9.055108e+000 8.083472e+000 8.135488e+000 7.340302e-001 1.032803e+000 1.686195e+000 1.540799e+000 1.513623e+000 1.150989e+000 1.450240e+000 1.315600e+000 1.138159e+000 9.241978e-001 1.012698e+000 9.162335e-001 3.612492e-001
<GCONST> 7.462400e+001
<STATE> 3
<MEAN> 25
 -3.832247e+000 -3.227323e+000 -3.532990e+000 -8.713261e-001 -2.288807e+000 3.420686e-001 1.144896e-001 -1.521876e+000 -8.288488e-001 9.143324e-001 1.150985e+000 1.975012e-001 -3.980707e-002 -1.408404e-001 -3.215685e-001 -3.301964e-001 -3.267752e-001 -2.934486e-001 -2.479594e-001 -1.285755e-001 -9.712703e-002 -3.653392e-002 -4.108943e-002 -4.031741e-002 -3.522093e-002
<VARIANCE> 25
 3.859268e+000 5.221958e+000 9.095928e+000 1.201825e+001 9.039717e+000 1.095095e+001 8.790680e+000 1.027026e+001 1.173105e+001 1.007051e+001 7.983111e+000 8.990803e+000 2.570633e-001 5.085477e-001 8.863189e-001 1.037797e+000 8.203249e-001 1.072900e+000 9.141970e-001 1.160342e+000 1.252787e+000 1.031906e+000 8.879651e-001 9.146811e-001 1.555834e-001
<GCONST> 6.778922e+001
<STATE> 4
<MEAN> 25
 -3.618590e+000 -2.571804e+000 -3.586519e+000 -1.100188e+000 -2.473712e+000 1.230216e-001 -2.093898e-001 -1.239368e+000 -3.261826e-001 1.370988e+000 9.364969e-001 2.900163e-001 -1.602781e-002 2.051984e-002 4.562968e-002 5.612851e-002 2.975673e-002 5.313422e-003 8.625779e-003 6.301209e-003 -1.932349e-002 -1.112144e-002 5.855507e-003 1.947432e-002 -1.483744e-002
<VARIANCE> 25
 1.822841e+000 2.449538e+000 3.408196e+000 4.011567e+000 4.830921e+000 5.520940e+000 6.791532e+000 6.705351e+000 6.693079e+000 7.087312e+000 6.403235e+000 6.285129e+000 1.249349e-001 1.967746e-001 2.778008e-001 3.744694e-001 4.305544e-001 5.381390e-001 6.516324e-001 6.876310e-001 6.601892e-001 7.294662e-001 6.797512e-001 6.655826e-001 5.761223e-002
<GCONST> 5.210346e+001
<TRANSP> 5
 0.000000e+000 1.000000e+000 0.000000e+000 0.000000e+000 0.000000e+000
 0.000000e+000 5.419459e-001 4.580541e-001 0.000000e+000 0.000000e+000
 0.000000e+000 0.000000e+000 6.935310e-001 3.064690e-001 0.000000e+000
 0.000000e+000 0.000000e+000 0.000000e+000 9.219984e-001 7.800163e-002
 0.000000e+000 0.000000e+000 0.000000e+000 0.000000e+000 0.000000e+000
<ENDHMM>
~h "r"
<BEGINHMM>
<NUMSTATES> 5
<STATE> 2
<MEAN> 25
 -5.738015e-001 -8.182664e-001 -1.701879e+000 -4.328937e-001 7.588010e-001 2.199074e+000 9.047703e-001 -9.964782e-001 -2.069482e+000 -7.882434e-001 3.296147e-001 1.012929e+000 1.036421e+000 5.619733e-001 4.225810e-001 3.767705e-001 5.021318e-001 1.483954e-001 1.979108e-002 -1.261245e-002 -4.186861e-001 -6.433346e-001 -2.116178e-001 1.979585e-001 6.648912e-001
<VARIANCE> 25
 1.817594e+001 1.531904e+001 1.854177e+001 1.530824e+001 1.688312e+001 1.286216e+001 1.273161e+001 1.045528e+001 1.101481e+001 1.311717e+001 8.708075e+000 8.451159e+000 1.679714e+000 1.504405e+000 1.779323e+000 1.314127e+000 1.676588e+000 1.537817e+000 1.526706e+000 1.309831e+000 1.276738e+000 1.536629e+000 1.165733e+000 9.694357e-001 7.855584e-001
<GCONST> 8.073946e+001
<STATE> 3
<MEAN> 25
 7.723673e+000 4.219323e+000 1.735752e-001 2.235566e+000 1.027140e+000 -2.409571e-001 1.310799e+000 1.098879e+000 -3.274558e+000 -6.124581e+000 -3.257843e+000 1.264848e+000 4.590650e-001 1.902497e-001 -4.505550e-002 -6.658133e-002 -7.277625e-001 -6.966373e-001 2.442447e-001 7.072815e-001 2.312704e-001 -4.881107e-001 -4.827300e-001 -4.017058e-001 2.158574e-001
<VARIANCE> 25
 9.949070e+000 3.232093e+000 1.044914e+001 7.113746e+000 8.244111e+000 1.182782e+001 8.209431e+000 1.104888e+001 1.082445e+001 1.342853e+001 7.545727e+000 5.769408e+000 1.085461e+000 5.115171e-001 7.480213e-001 5.299598e-001 8.316100e-001 1.317689e+000 8.116210e-001 1.088749e+000 8.222753e-001 1.326125e+000 8.208206e-001 7.646526e-001 5.801478e-001
<GCONST> 6.909686e+001
<STATE> 4
<MEAN> 25
 8.634911e+000 7.117245e+000 4.325917e+000 1.080937e+000 -4.909153e+000 -5.628212e+000 5.853999e-001 4.973927e+000 -8.258699e-001 -5.034489e+000 -3.601192e+000 -4.231845e+000 -3.663680e-001 8.949884e-001 1.046218e+000 -2.124798e-001 -4.695006e-001 -3.708811e-001 -9.588574e-001 -6.945486e-001 3.517595e-001 1.727042e+000 1.115252e+000 -7.444671e-001 -3.915588e-001
<VARIANCE> 25
 6.201711e+000 6.665770e+000 1.120934e+001 7.295331e+000 8.866049e+000 1.405079e+001 5.996284e+000 1.536595e+001 7.376549e+000 1.783159e+001 1.159069e+001 9.350589e+000 2.905556e-001 5.127542e-001 6.961800e-001 4.063201e-001 8.099075e-001 1.057241e+000 6.767526e-001 1.904309e+000 6.411473e-001 1.281777e+000 8.627324e-001 1.064447e+000 2.448862e-001
<GCONST> 6.822926e+001
<TRANSP> 5
 0.000000e+000 1.000000e+000 0.000000e+000 0.000000e+000 0.000000e+000
 0.000000e+000 8.434860e-001 1.565140e-001 0.000000e+000 0.000000e+000
 0.000000e+000 0.000000e+000 8.301466e-001 1.698534e-001 0.000000e+000
 0.000000e+000 0.000000e+000 0.000000e+000 6.889979e-001 3.110021e-001
 0.000000e+000 0.000000e+000 0.000000e+000 0.000000e+000 0.000000e+000
<ENDHMM>
~h "s"
<BEGINHMM>
<NUMSTATES> 5
<STATE> 2
<MEAN> 25
 -4.725121e+000 -6.411065e+000 5.486826e+000 -3.765326e+000 -5.814601e-001 -7.898446e-001 4.491304e+000 -1.167879e+000 -3.581206e+000 1.434312e+000 1.219209e+000 1.966275e+000 -2.398463e+000 -2.269981e+000 2.866174e+000 -1.087805e+000 5.743772e-001 -1.053034e+000 1.228939e+000 -4.157495e-001 -5.631594e-001 2.647845e-001 2.507956e-001 3.874859e-002 1.346309e+000
<VARIANCE> 25
 2.473126e+001 2.982941e+001 5.049996e+001 2.467773e+001 2.033882e+001 1.909072e+001 2.254963e+001 1.649998e+001 2.499753e+001 1.545173e+001 1.369122e+001 1.053963e+001 4.190569e+000 2.250027e+000 3.226894e+000 1.730440e+000 1.753088e+000 1.925223e+000 2.105887e+000 2.226752e+000 2.759032e+000 1.249573e+000 1.324578e+000 1.587350e+000 7.628211e-001
<GCONST> 9.092306e+001
<STATE> 3
<MEAN> 25
 -1.501177e+001 -1.177217e+001 1.437518e+001 -9.365695e+000 3.299789e+000 -7.135775e+000 1.004710e+001 -2.939083e+000 -2.949694e+000 1.076420e+000 2.739109e+000 3.960098e-001 -2.387685e-001 -2.030212e-001 1.528720e-001 -7.548616e-002 8.828358e-002 -2.389318e-001 1.963962e-001 -8.041019e-003 -7.425113e-002 -7.702956e-002 8.795331e-002 -5.751530e-002 2.512634e-001
<VARIANCE> 25
 7.943494e+000 1.105936e+001 8.987568e+000 1.837420e+001 1.530520e+001 1.587906e+001 1.736840e+001 1.519952e+001 2.627917e+001 1.049433e+001 9.557065e+000 1.208906e+001 7.939745e-001 4.811064e-001 6.858085e-001 7.151553e-001 8.134920e-001 9.835082e-001 1.090325e+000 9.421184e-001 1.039030e+000 9.525025e-001 8.396992e-001 8.964715e-001 3.830501e-001
<GCONST> 7.384270e+001
<STATE> 4
<MEAN> 25
 -8.196455e+000 -9.720767e+000 1.142500e+001 -6.279060e+000 1.895384e+000 -3.568168e+000 7.530674e+000 -1.431847e+000 -4.743754e+000 1.730092e+000 2.199727e+000 1.621907e+000 2.054528e+000 1.488347e+000 -1.896316e+000 9.128655e-001 -5.241028e-001 1.273896e+000 -1.173396e+000 3.403396e-001 2.606398e-001 -2.184343e-001 -3.459105e-001 -1.190696e-002 -1.117941e+000
<VARIANCE> 25
 2.174977e+001 1.906779e+001 4.337024e+001 2.925397e+001 3.238050e+001 2.174372e+001 2.647418e+001 1.607738e+001 2.975796e+001 2.493247e+001 1.111199e+001 1.845342e+001 2.834949e+000 2.843856e+000 3.094656e+000 1.985615e+000 2.190339e+000 2.101545e+000 2.085719e+000 1.495146e+000 2.008324e+000 1.824120e+000 1.257220e+000 1.855013e+000 9.680797e-001
<GCONST> 9.234293e+001
<TRANSP> 5
 0.000000e+000 1.000000e+000 0.000000e+000 0.000000e+000 0.000000e+000
 0.000000e+000 7.766153e-001 2.233848e-001 0.000000e+000 0.000000e+000
 0.000000e+000 0.000000e+000 9.079283e-001 9.207164e-002 0.000000e+000
 0.000000e+000 0.000000e+000 0.000000e+000 8.218152e-001 1.781847e-001
 0.000000e+000 0.000000e+000 0.000000e+000 0.000000e+000 0.000000e+000
<ENDHMM>
~h "t"
<BEGINHMM>
<NUMSTATES> 5
<STATE> 2
<MEAN> 25
 -2.359095e+000 -1.178304e+000 -1.412491e+000 3.916513e-001 -9.891784e-001 1.632823e+000 6.523743e-001 -6.028646e-001 -1.159228e-001 1.110543e+000 9.202530e-001 -1.280610e-001 -8.022048e-001 -7.331963e-001 -1.464903e+000 -9.911984e-001 -8.334382e-001 -5.360905e-001 -6.065162e-001 -5.721182e-001 -2.410353e-003 1.227768e-001 1.178888e-002 -5.928660e-002 -6.347800e-001
<VARIANCE> 25
 3.614768e+000 3.642734e+000 7.563461e+000 1.000943e+001 7.023141e+000 1.004579e+001 9.537724e+000 9.427648e+000 1.044952e+001 1.075602e+001 8.853923e+000 7.615040e+000 1.025001e+000 8.893266e-001 9.623686e-001 1.612610e+000 9.963887e-001 9.887197e-001 1.016372e+000 1.232882e+000 1.230406e+000 1.262668e+000 1.049495e+000 9.792736e-001 4.675415e-001
<GCONST> 7.080502e+001
<STATE> 3
<MEAN> 25
 -3.468808e+000 -2.322389e+000 -3.167610e+000 -7.202842e-001 -2.148385e+000 5.799564e-001 -2.020387e-001 -1.194026e+000 -2.753390e-001 1.162418e+000 8.957800e-001 3.104745e-001 -9.374868e-002 -7.950933e-002 -3.532651e-002 1.922686e-002 4.826867e-003 -4.965416e-002 -3.526906e-002 2.746966e-002 3.504364e-002 2.102552e-002 1.528176e-002 1.737402e-002 -4.450790e-002
<VARIANCE> 25
 2.559936e+000 2.588746e+000 5.128829e+000 6.236571e+000 5.928742e+000 6.698483e+000 6.661303e+000 7.105800e+000 7.774395e+000 7.476408e+000 7.575759e+000 7.379296e+000 1.069506e-001 1.774859e-001 2.962028e-001 4.226980e-001 4.678927e-001 6.351427e-001 6.353179e-001 7.013887e-001 7.302299e-001 7.485359e-001 7.730749e-001 6.924831e-001 5.932808e-002
<GCONST> 5.481117e+001
<STATE> 4
<MEAN> 25
 -8.905841e-001 -4.485711e+000 -8.222045e-001 1.542145e+000 -4.495924e-001 -6.547291e-001 5.971976e-001 -1.005223e+000 -2.727540e+000 -8.022979e-001 1.162876e+000 2.054916e-001 1.930776e+000 3.690769e-001 2.030500e+000 6.873074e-001 7.971618e-001 -3.433421e-001 -2.066385e-001 2.476975e-001 -8.604963e-001 -1.501134e+000 -8.150561e-001 -5.131741e-001 2.050962e+000
<VARIANCE> 25
 1.714164e+001 1.466823e+001 1.724589e+001 2.135256e+001 1.306530e+001 1.703444e+001 2.298611e+001 1.594812e+001 2.782109e+001 1.936714e+001 1.152042e+001 1.036037e+001 1.418175e+000 4.638474e+000 3.488324e+000 3.279633e+000 2.615072e+000 2.227534e+000 3.152716e+000 1.970475e+000 3.237845e+000 2.553114e+000 2.485470e+000 1.748474e+000 1.154319e+000
<GCONST> 9.139835e+001
<TRANSP> 5
 0.000000e+000 1.000000e+000 0.000000e+000 0.000000e+000 0.000000e+000
 0.000000e+000 5.075892e-001 4.924108e-001 0.000000e+000 0.000000e+000
 0.000000e+000 0.000000e+000 9.101531e-001 8.984692e-002 0.000000e+000
 0.000000e+000 0.000000e+000 0.000000e+000 7.104374e-001 2.895626e-001
 0.000000e+000 0.000000e+000 0.000000e+000 0.000000e+000 0.000000e+000
<ENDHMM>
~h "u"
<BEGINHMM>
<NUMSTATES> 5
<STATE> 2
<MEAN> 25
 7.688147e+000 8.691711e+000 8.210600e+000 2.789252e+000 -2.751024e+000 -3.098922e+000 -3.179484e+000 1.730020e+000 -3.595585e-001 -4.794391e+000 -4.664182e+000 -4.722668e+000 6.734654e-001 1.476660e+000 1.013194e+000 1.821347e-002 -4.363981e-001 -6.146157e-001 -1.164442e+000 -2.284388e-001 4.545672e-001 2.182951e-001 -3.067584e-001 -6.102582e-001 5.411899e-002
<VARIANCE> 25
 9.690560e+000 1.391772e+001 1.083073e+001 9.231586e+000 1.307440e+001 2.149775e+001 1.707502e+001 2.118396e+001 1.611483e+001 2.931704e+001 2.426994e+001 1.286713e+001 1.600257e+000 3.492780e+000 1.960694e+000 1.549150e+000 1.446150e+000 2.041360e+000 2.213683e+000 2.403854e+000 1.920848e+000 2.758928e+000 3.292916e+000 1.847643e+000 7.104816e-001
<GCONST> 8.760515e+001
<STATE> 3
<MEAN> 25
 6.290592e+000 1.017197e+001 9.048429e+000 4.852917e+000 -1.614329e+000 -3.108702e+000 -5.390037e+000 -2.826968e+000 -9.495691e-001 2.174072e-001 -8.271965e-002 -2.924210e+000 -7.597861e-001 -7.021409e-001 -6.141153e-001 2.765036e-001 5.454621e-001 6.542362e-001 5.375854e-001 -1.968091e-001 2.543888e-002 3.526735e-001 3.497939e-001 5.089146e-001 -4.536704e-001
<VARIANCE> 25
 4.355451e+000 5.013638e+000 6.473756e+000 6.906013e+000 9.260142e+000 1.420243e+001 1.207033e+001 1.297630e+001 1.087489e+001 1.149949e+001 8.705240e+000 1.022685e+001 6.503923e-001 9.281323e-001 7.682090e-001 6.372173e-001 7.322351e-001 1.131434e+000 1.120894e+000 1.469782e+000 1.036029e+000 1.118179e+000 1.024618e+000 8.367840e-001 1.925393e-001
<GCONST> 6.951912e+001
<STATE> 4
<MEAN> 25
 -1.409101e+000 1.249219e+000 1.397822e+000 3.005879e+000 1.562301e-001 9.886768e-001 -8.431947e-001 -1.611504e+000 -4.092364e-001 3.951693e-001 -1.722711e-001 -1.381146e+000 -8.032276e-001 -1.008637e+000 -9.468871e-001 -4.729913e-001 -9.332371e-002 2.167228e-001 3.432972e-001 1.927026e-001 1.254339e-001 1.570502e-001 8.623098e-002 1.079235e-001 -3.675835e-001
<VARIANCE> 25
 8.497051e+000 7.915539e+000 9.083161e+000 8.074046e+000 6.963606e+000 8.158998e+000 8.002951e+000 8.869175e+000 9.890260e+000 9.256609e+000 8.182349e+000 6.744768e+000 5.621035e-001 8.343595e-001 8.832818e-001 7.506198e-001 7.589858e-001 8.256839e-001 8.850024e-001 1.037250e+000 1.089478e+000 1.014952e+000 8.325783e-001 7.255646e-001 1.518377e-001
<GCONST> 6.727093e+001
<TRANSP> 5
 0.000000e+000 1.000000e+000 0.000000e+000 0.000000e+000 0.000000e+000
 0.000000e+000 7.708493e-001 2.291507e-001 0.000000e+000 0.000000e+000
 0.000000e+000 0.000000e+000 8.374984e-001 1.625016e-001 0.000000e+000
 0.000000e+000 0.000000e+000 0.000000e+000 8.014407e-001 1.985593e-001
 0.000000e+000 0.000000e+000 0.000000e+000 0.000000e+000 0.000000e+000
<ENDHMM>
~h "ng"
<BEGINHMM>
<NUMSTATES> 5
<STATE> 2
<MEAN> 25
 6.188712e+000 6.239188e+000 3.011382e+000 3.845228e+000 -1.388416e-001 5.913291e-002 -2.470886e-001 1.965766e+000 3.766254e+000 2.318671e+000 1.062386e+000 -3.019410e-001 -1.771557e-001 -1.485631e-002 1.774130e-001 3.304398e-001 1.327163e-001 7.168081e-002 -5.296081e-002 -6.687105e-002 6.786624e-002 1.115369e-001 2.176835e-001 1.192940e-001 -1.427820e-001
<VARIANCE> 25
 3.635853e+000 2.435534e+000 6.567007e+000 7.078197e+000 6.016332e+000 1.070931e+001 9.441594e+000 5.402738e+000 9.730254e+000 8.424411e+000 6.148494e+000 7.901966e+000 1.434736e-001 1.760459e-001 3.884572e-001 6.512776e-001 3.515634e-001 4.551226e-001 7.134597e-001 5.710009e-001 7.259760e-001 6.386466e-001 5.116005e-001 4.814364e-001 8.108655e-002
<GCONST> 5.588870e+001
<STATE> 3
<MEAN> 25
 3.310501e+000 4.898127e+000 3.031346e+000 5.102535e+000 2.297656e+000 3.314564e+000 2.169129e+000 1.569315e+000 2.635213e+000 2.671771e+000 1.232262e+000 -5.446336e-001 -6.743241e-001 -7.893134e-001 -5.972779e-001 -5.853959e-001 9.433261e-002 3.996992e-001 5.410603e-001 3.572674e-001 -6.044338e-002 -3.358451e-001 -2.264009e-001 1.868270e-001 -2.068775e-001
<VARIANCE> 25
 8.735641e+000 5.136687e+000 9.386234e+000 8.262080e+000 7.989176e+000 1.361122e+001 1.080958e+001 7.399328e+000 1.046812e+001 1.060701e+001 8.966690e+000 8.847088e+000 5.314764e-001 4.813008e-001 7.516692e-001 9.630212e-001 6.610684e-001 9.097836e-001 1.281561e+000 1.087117e+000 1.084915e+000 1.249676e+000 1.007437e+000 1.100524e+000 2.835992e-001
<GCONST> 6.953998e+001
<STATE> 4
<MEAN> 25
 -9.671415e-001 -4.103716e-001 -2.565557e+000 5.130314e-002 -1.096925e+000 1.682208e+000 1.490553e+000 1.335089e+000 1.451581e+000 1.049884e+000 6.183192e-001 1.972840e-001 -1.651269e-001 -4.010674e-001 -2.863841e-001 -5.448866e-001 -1.294262e-001 -2.040008e-001 -1.444193e-001 5.475682e-002 -2.604013e-001 -5.413412e-001 -2.011737e-001 3.363987e-001 1.002114e-001
<VARIANCE> 25
 1.465355e+001 1.113276e+001 2.176089e+001 1.983840e+001 1.224648e+001 1.058402e+001 1.139699e+001 1.133983e+001 1.386835e+001 1.365923e+001 9.689952e+000 1.133603e+001 5.141736e-001 5.616867e-001 1.457980e+000 2.292622e+000 1.283085e+000 1.227125e+000 1.851486e+000 1.213713e+000 1.708053e+000 2.502954e+000 1.151308e+000 1.455615e+000 3.753847e-001
<GCONST> 7.899630e+001
<TRANSP> 5
 0.000000e+000 1.000000e+000 0.000000e+000 0.000000e+000 0.000000e+000
 0.000000e+000 8.320384e-001 1.679616e-001 0.000000e+000 0.000000e+000
 0.000000e+000 0.000000e+000 6.129638e-001 3.870362e-001 0.000000e+000
 0.000000e+000 0.000000e+000 0.000000e+000 7.086664e-001 2.913336e-001
 0.000000e+000 0.000000e+000 0.000000e+000 0.000000e+000 0.000000e+000
<ENDHMM>
~h "ny"
<BEGINHMM>
<NUMSTATES> 5
<STATE> 2
<MEAN> 25
 -4.010945e+000 -3.237633e+000 -3.868700e+000 -1.419121e+000 -2.774984e+000 2.894691e-001 -6.738994e-002 -1.606567e+000 -2.955809e-001 1.626800e+000 1.267484e+000 3.186301e-001 2.783042e-002 9.602196e-002 6.951039e-002 1.075459e-001 6.077997e-002 9.526351e-003 1.508371e-002 6.550834e-002 4.251121e-002 1.030065e-002 2.385725e-002 9.236707e-003 -1.333540e-002
<VARIANCE> 25
 2.323826e+000 2.787109e+000 4.433478e+000 4.801429e+000 5.681178e+000 5.944646e+000 6.126726e+000 6.213032e+000 6.919918e+000 6.841421e+000 7.729292e+000 7.127518e+000 1.230934e-001 1.933394e-001 3.772490e-001 4.906597e-001 5.479298e-001 6.356766e-001 6.835585e-001 7.056487e-001 7.584106e-001 7.577044e-001 7.171288e-001 6.980231e-001 6.001082e-002
<GCONST> 5.463063e+001
<STATE> 3
<MEAN> 25
 -5.526310e-001 2.405608e+000 3.772706e+000 4.952473e+000 3.163899e+000 3.256653e+000 1.340337e+000 7.078933e-001 1.208919e+000 1.109591e+000 3.371124e-001 -2.290388e+000 1.098756e+000 1.113466e+000 1.966060e+000 1.055926e+000 1.230597e+000 -8.356033e-002 -6.047834e-001 2.548436e-001 1.851105e-001 -4.215886e-001 -1.771798e-001 -6.405837e-001 9.583831e-001
<VARIANCE> 25
 1.632728e+001 1.598141e+001 2.758607e+001 1.534844e+001 1.150165e+001 1.065608e+001 9.613655e+000 7.147636e+000 8.776189e+000 9.036302e+000 8.640591e+000 9.231033e+000 9.248706e-001 1.236808e+000 2.072605e+000 1.388036e+000 1.369133e+000 2.426174e+000 2.830567e+000 1.039320e+000 8.190212e-001 1.086132e+000 8.850193e-001 7.539623e-001 5.656746e-001
<GCONST> 7.772978e+001
<STATE> 4
<MEAN> 25
 5.985404e+000 3.833571e-001 5.671225e+000 3.438858e+000 9.331883e+000 -3.713518e+000 -9.838403e+000 -1.765242e+000 2.013200e+000 -1.027195e+000 2.325210e+000 1.019483e+000 8.289363e-001 -6.763376e-001 -1.413663e+000 -1.511007e+000 2.351417e-001 -2.281448e-001 -1.832520e-001 -1.305199e-001 -5.293470e-001 -1.550225e-001 5.089496e-001 1.350313e+000 9.569572e-001
<VARIANCE> 25
 8.367280e+000 1.632269e+001 3.390617e+001 2.882530e+001 1.146161e+001 2.258730e+001 3.232510e+001 2.336230e+001 1.706082e+001 1.246989e+001 1.457216e+001 2.657523e+001 6.346998e-001 1.587528e+000 2.848636e+000 2.277707e+000 2.635158e+000 4.299579e+000 1.029777e+001 3.355568e+000 2.873989e+000 1.981505e+000 1.468392e+000 1.591593e+000 1.187549e+000
<GCONST> 9.185916e+001
<TRANSP> 5
 0.000000e+000 1.000000e+000 0.000000e+000 0.000000e+000 0.000000e+000
 0.000000e+000 9.262667e-001 7.373331e-002 0.000000e+000 0.000000e+000
 0.000000e+000 0.000000e+000 8.152899e-001 1.847102e-001 0.000000e+000
 0.000000e+000 0.000000e+000 0.000000e+000 8.681744e-001 1.318256e-001
 0.000000e+000 0.000000e+000 0.000000e+000 0.000000e+000 0.000000e+000
<ENDHMM>
~h "sp"
<BEGINHMM>
<NUMSTATES> 3
<STATE> 2
~s "silst"
<TRANSP> 3
 0.000000e+000 6.084452e-001 3.915548e-001
 0.000000e+000 9.407508e-001 5.924916e-002
 0.000000e+000 0.000000e+000 0.000000e+000
<ENDHMM>
~h "sil"
<BEGINHMM>
<NUMSTATES> 5
<STATE> 2
<MEAN> 25
 -3.656642e+000 -2.756333e+000 -4.146648e+000 -2.034631e+000 -3.169297e+000 -1.773932e-001 -6.160296e-001 -1.688973e+000 -5.828427e-001 1.372652e+000 1.018031e+000 3.233193e-001 -4.891274e-002 4.442612e-002 7.498083e-002 9.355202e-002 5.017463e-002 3.592630e-003 -1.408940e-003 2.362209e-002 4.078809e-002 2.116757e-002 3.021283e-004 -1.246278e-002 -4.943674e-002
<VARIANCE> 25
 1.424948e+000 1.862534e+000 2.886902e+000 3.499141e+000 4.647244e+000 5.820598e+000 6.089231e+000 6.635267e+000 6.919101e+000 7.161493e+000 6.993955e+000 6.737987e+000 6.493524e-002 1.357030e-001 2.200793e-001 3.098819e-001 3.831219e-001 4.912438e-001 5.559807e-001 6.111975e-001 6.524276e-001 6.755931e-001 6.826167e-001 6.667959e-001 2.793185e-002
<GCONST> 4.863726e+001
<STATE> 3
~s "silst"
<STATE> 4
<MEAN> 25
 -4.476236e+000 -3.914449e+000 -4.324644e+000 -1.920450e+000 -2.469285e+000 3.883776e-001 -3.828612e-001 -1.193769e+000 1.722533e-001 1.475982e+000 1.248622e+000 2.817028e-001 3.993888e-001 -1.429560e-001 -4.811013e-001 -7.123086e-001 -4.256302e-001 -9.174971e-002 -7.027582e-002 -1.592970e-001 -2.045019e-001 -1.351063e-001 3.903446e-002 3.726763e-002 3.295970e-001
<VARIANCE> 25
 3.846738e+000 3.694534e+000 9.108413e+000 1.016431e+001 8.007115e+000 7.082140e+000 8.327185e+000 8.445297e+000 8.419549e+000 8.557982e+000 7.591422e+000 8.359189e+000 3.059240e-001 3.866642e-001 8.280923e-001 8.942920e-001 7.260189e-001 7.534772e-001 8.666784e-001 8.771485e-001 9.140052e-001 9.579322e-001 8.300345e-001 8.835974e-001 1.363382e-001
<GCONST> 6.410000e+001
<TRANSP> 5
 0.000000e+000 1.000000e+000 0.000000e+000 0.000000e+000 0.000000e+000
 0.000000e+000 9.190871e-001 5.499846e-002 2.591445e-002 0.000000e+000
 0.000000e+000 0.000000e+000 9.199696e-001 8.003043e-002 0.000000e+000
 0.000000e+000 2.218470e-001 0.000000e+000 6.811488e-001 9.700427e-002
 0.000000e+000 0.000000e+000 0.000000e+000 0.000000e+000 0.000000e+000
<ENDHMM>
