~h "a"
<BEGINHMM>
<NUMSTATES> 5
<STATE> 2
<MEAN> 25
 1.014639e-007 -3.412228e-008 -2.748922e-008 -4.709330e-008 1.008714e-009 2.158507e-008 -1.450291e-008 8.102630e-009 -1.486031e-009 -4.417650e-008 2.523431e-008 1.626169e-008 -6.271588e-004 -7.557286e-004 1.194882e-003 -1.391857e-003 -4.947411e-004 6.634704e-004 -1.323878e-003 -4.222318e-004 7.758217e-004 -1.542270e-005 1.410337e-003 5.157809e-004 5.451159e-004
<VARIANCE> 25
 3.851213e+001 2.601553e+001 3.703800e+001 3.397633e+001 2.318383e+001 1.830017e+001 2.404983e+001 1.855410e+001 1.429244e+001 1.801824e+001 1.336500e+001 1.443649e+001 1.061375e+000 1.066527e+000 1.478872e+000 1.624031e+000 1.134404e+000 1.290365e+000 1.599176e+000 1.224670e+000 1.184517e+000 1.363078e+000 1.099644e+000 1.044105e+000 6.252846e-001
<GCONST> 8.515993e+001
<STATE> 3
<MEAN> 25
 1.014639e-007 -3.412228e-008 -2.748922e-008 -4.709330e-008 1.008714e-009 2.158507e-008 -1.450291e-008 8.102630e-009 -1.486031e-009 -4.417650e-008 2.523431e-008 1.626169e-008 -6.271588e-004 -7.557286e-004 1.194882e-003 -1.391857e-003 -4.947411e-004 6.634704e-004 -1.323878e-003 -4.222318e-004 7.758217e-004 -1.542270e-005 1.410337e-003 5.157809e-004 5.451159e-004
<VARIANCE> 25
 3.851213e+001 2.601553e+001 3.703800e+001 3.397633e+001 2.318383e+001 1.830017e+001 2.404983e+001 1.855410e+001 1.429244e+001 1.801824e+001 1.336500e+001 1.443649e+001 1.061375e+000 1.066527e+000 1.478872e+000 1.624031e+000 1.134404e+000 1.290365e+000 1.599176e+000 1.224670e+000 1.184517e+000 1.363078e+000 1.099644e+000 1.044105e+000 6.252846e-001
<GCONST> 8.515993e+001
<STATE> 4
<MEAN> 25
 1.014639e-007 -3.412228e-008 -2.748922e-008 -4.709330e-008 1.008714e-009 2.158507e-008 -1.450291e-008 8.102630e-009 -1.486031e-009 -4.417650e-008 2.523431e-008 1.626169e-008 -6.271588e-004 -7.557286e-004 1.194882e-003 -1.391857e-003 -4.947411e-004 6.634704e-004 -1.323878e-003 -4.222318e-004 7.758217e-004 -1.542270e-005 1.410337e-003 5.157809e-004 5.451159e-004
<VARIANCE> 25
 3.851213e+001 2.601553e+001 3.703800e+001 3.397633e+001 2.318383e+001 1.830017e+001 2.404983e+001 1.855410e+001 1.429244e+001 1.801824e+001 1.336500e+001 1.443649e+001 1.061375e+000 1.066527e+000 1.478872e+000 1.624031e+000 1.134404e+000 1.290365e+000 1.599176e+000 1.224670e+000 1.184517e+000 1.363078e+000 1.099644e+000 1.044105e+000 6.252846e-001
<GCONST> 8.515993e+001
<TRANSP> 5
 0.000000e+000 1.000000e+000 0.000000e+000 0.000000e+000 0.000000e+000
 0.000000e+000 6.000000e-001 4.000000e-001 0.000000e+000 0.000000e+000
 0.000000e+000 0.000000e+000 6.000000e-001 4.000000e-001 0.000000e+000
 0.000000e+000 0.000000e+000 0.000000e+000 7.000000e-001 3.000000e-001
 0.000000e+000 0.000000e+000 0.000000e+000 0.000000e+000 0.000000e+000
<ENDHMM>
~h "b"
<BEGINHMM>
<NUMSTATES> 5
<STATE> 2
<MEAN> 25
 1.014639e-007 -3.412228e-008 -2.748922e-008 -4.709330e-008 1.008714e-009 2.158507e-008 -1.450291e-008 8.102630e-009 -1.486031e-009 -4.417650e-008 2.523431e-008 1.626169e-008 -6.271588e-004 -7.557286e-004 1.194882e-003 -1.391857e-003 -4.947411e-004 6.634704e-004 -1.323878e-003 -4.222318e-004 7.758217e-004 -1.542270e-005 1.410337e-003 5.157809e-004 5.451159e-004
<VARIANCE> 25
 3.851213e+001 2.601553e+001 3.703800e+001 3.397633e+001 2.318383e+001 1.830017e+001 2.404983e+001 1.855410e+001 1.429244e+001 1.801824e+001 1.336500e+001 1.443649e+001 1.061375e+000 1.066527e+000 1.478872e+000 1.624031e+000 1.134404e+000 1.290365e+000 1.599176e+000 1.224670e+000 1.184517e+000 1.363078e+000 1.099644e+000 1.044105e+000 6.252846e-001
<GCONST> 8.515993e+001
<STATE> 3
<MEAN> 25
 1.014639e-007 -3.412228e-008 -2.748922e-008 -4.709330e-008 1.008714e-009 2.158507e-008 -1.450291e-008 8.102630e-009 -1.486031e-009 -4.417650e-008 2.523431e-008 1.626169e-008 -6.271588e-004 -7.557286e-004 1.194882e-003 -1.391857e-003 -4.947411e-004 6.634704e-004 -1.323878e-003 -4.222318e-004 7.758217e-004 -1.542270e-005 1.410337e-003 5.157809e-004 5.451159e-004
<VARIANCE> 25
 3.851213e+001 2.601553e+001 3.703800e+001 3.397633e+001 2.318383e+001 1.830017e+001 2.404983e+001 1.855410e+001 1.429244e+001 1.801824e+001 1.336500e+001 1.443649e+001 1.061375e+000 1.066527e+000 1.478872e+000 1.624031e+000 1.134404e+000 1.290365e+000 1.599176e+000 1.224670e+000 1.184517e+000 1.363078e+000 1.099644e+000 1.044105e+000 6.252846e-001
<GCONST> 8.515993e+001
<STATE> 4
<MEAN> 25
 1.014639e-007 -3.412228e-008 -2.748922e-008 -4.709330e-008 1.008714e-009 2.158507e-008 -1.450291e-008 8.102630e-009 -1.486031e-009 -4.417650e-008 2.523431e-008 1.626169e-008 -6.271588e-004 -7.557286e-004 1.194882e-003 -1.391857e-003 -4.947411e-004 6.634704e-004 -1.323878e-003 -4.222318e-004 7.758217e-004 -1.542270e-005 1.410337e-003 5.157809e-004 5.451159e-004
<VARIANCE> 25
 3.851213e+001 2.601553e+001 3.703800e+001 3.397633e+001 2.318383e+001 1.830017e+001 2.404983e+001 1.855410e+001 1.429244e+001 1.801824e+001 1.336500e+001 1.443649e+001 1.061375e+000 1.066527e+000 1.478872e+000 1.624031e+000 1.134404e+000 1.290365e+000 1.599176e+000 1.224670e+000 1.184517e+000 1.363078e+000 1.099644e+000 1.044105e+000 6.252846e-001
<GCONST> 8.515993e+001
<TRANSP> 5
 0.000000e+000 1.000000e+000 0.000000e+000 0.000000e+000 0.000000e+000
 0.000000e+000 6.000000e-001 4.000000e-001 0.000000e+000 0.000000e+000
 0.000000e+000 0.000000e+000 6.000000e-001 4.000000e-001 0.000000e+000
 0.000000e+000 0.000000e+000 0.000000e+000 7.000000e-001 3.000000e-001
 0.000000e+000 0.000000e+000 0.000000e+000 0.000000e+000 0.000000e+000
<ENDHMM>
~h "u"
<BEGINHMM>
<NUMSTATES> 5
<STATE> 2
<MEAN> 25
 1.014639e-007 -3.412228e-008 -2.748922e-008 -4.709330e-008 1.008714e-009 2.158507e-008 -1.450291e-008 8.102630e-009 -1.486031e-009 -4.417650e-008 2.523431e-008 1.626169e-008 -6.271588e-004 -7.557286e-004 1.194882e-003 -1.391857e-003 -4.947411e-004 6.634704e-004 -1.323878e-003 -4.222318e-004 7.758217e-004 -1.542270e-005 1.410337e-003 5.157809e-004 5.451159e-004
<VARIANCE> 25
 3.851213e+001 2.601553e+001 3.703800e+001 3.397633e+001 2.318383e+001 1.830017e+001 2.404983e+001 1.855410e+001 1.429244e+001 1.801824e+001 1.336500e+001 1.443649e+001 1.061375e+000 1.066527e+000 1.478872e+000 1.624031e+000 1.134404e+000 1.290365e+000 1.599176e+000 1.224670e+000 1.184517e+000 1.363078e+000 1.099644e+000 1.044105e+000 6.252846e-001
<GCONST> 8.515993e+001
<STATE> 3
<MEAN> 25
 1.014639e-007 -3.412228e-008 -2.748922e-008 -4.709330e-008 1.008714e-009 2.158507e-008 -1.450291e-008 8.102630e-009 -1.486031e-009 -4.417650e-008 2.523431e-008 1.626169e-008 -6.271588e-004 -7.557286e-004 1.194882e-003 -1.391857e-003 -4.947411e-004 6.634704e-004 -1.323878e-003 -4.222318e-004 7.758217e-004 -1.542270e-005 1.410337e-003 5.157809e-004 5.451159e-004
<VARIANCE> 25
 3.851213e+001 2.601553e+001 3.703800e+001 3.397633e+001 2.318383e+001 1.830017e+001 2.404983e+001 1.855410e+001 1.429244e+001 1.801824e+001 1.336500e+001 1.443649e+001 1.061375e+000 1.066527e+000 1.478872e+000 1.624031e+000 1.134404e+000 1.290365e+000 1.599176e+000 1.224670e+000 1.184517e+000 1.363078e+000 1.099644e+000 1.044105e+000 6.252846e-001
<GCONST> 8.515993e+001
<STATE> 4
<MEAN> 25
 1.014639e-007 -3.412228e-008 -2.748922e-008 -4.709330e-008 1.008714e-009 2.158507e-008 -1.450291e-008 8.102630e-009 -1.486031e-009 -4.417650e-008 2.523431e-008 1.626169e-008 -6.271588e-004 -7.557286e-004 1.194882e-003 -1.391857e-003 -4.947411e-004 6.634704e-004 -1.323878e-003 -4.222318e-004 7.758217e-004 -1.542270e-005 1.410337e-003 5.157809e-004 5.451159e-004
<VARIANCE> 25
 3.851213e+001 2.601553e+001 3.703800e+001 3.397633e+001 2.318383e+001 1.830017e+001 2.404983e+001 1.855410e+001 1.429244e+001 1.801824e+001 1.336500e+001 1.443649e+001 1.061375e+000 1.066527e+000 1.478872e+000 1.624031e+000 1.134404e+000 1.290365e+000 1.599176e+000 1.224670e+000 1.184517e+000 1.363078e+000 1.099644e+000 1.044105e+000 6.252846e-001
<GCONST> 8.515993e+001
<TRANSP> 5
 0.000000e+000 1.000000e+000 0.000000e+000 0.000000e+000 0.000000e+000
 0.000000e+000 6.000000e-001 4.000000e-001 0.000000e+000 0.000000e+000
 0.000000e+000 0.000000e+000 6.000000e-001 4.000000e-001 0.000000e+000
 0.000000e+000 0.000000e+000 0.000000e+000 7.000000e-001 3.000000e-001
 0.000000e+000 0.000000e+000 0.000000e+000 0.000000e+000 0.000000e+000
<ENDHMM>
~h "k"
<BEGINHMM>
<NUMSTATES> 5
<STATE> 2
<MEAN> 25
 1.014639e-007 -3.412228e-008 -2.748922e-008 -4.709330e-008 1.008714e-009 2.158507e-008 -1.450291e-008 8.102630e-009 -1.486031e-009 -4.417650e-008 2.523431e-008 1.626169e-008 -6.271588e-004 -7.557286e-004 1.194882e-003 -1.391857e-003 -4.947411e-004 6.634704e-004 -1.323878e-003 -4.222318e-004 7.758217e-004 -1.542270e-005 1.410337e-003 5.157809e-004 5.451159e-004
<VARIANCE> 25
 3.851213e+001 2.601553e+001 3.703800e+001 3.397633e+001 2.318383e+001 1.830017e+001 2.404983e+001 1.855410e+001 1.429244e+001 1.801824e+001 1.336500e+001 1.443649e+001 1.061375e+000 1.066527e+000 1.478872e+000 1.624031e+000 1.134404e+000 1.290365e+000 1.599176e+000 1.224670e+000 1.184517e+000 1.363078e+000 1.099644e+000 1.044105e+000 6.252846e-001
<GCONST> 8.515993e+001
<STATE> 3
<MEAN> 25
 1.014639e-007 -3.412228e-008 -2.748922e-008 -4.709330e-008 1.008714e-009 2.158507e-008 -1.450291e-008 8.102630e-009 -1.486031e-009 -4.417650e-008 2.523431e-008 1.626169e-008 -6.271588e-004 -7.557286e-004 1.194882e-003 -1.391857e-003 -4.947411e-004 6.634704e-004 -1.323878e-003 -4.222318e-004 7.758217e-004 -1.542270e-005 1.410337e-003 5.157809e-004 5.451159e-004
<VARIANCE> 25
 3.851213e+001 2.601553e+001 3.703800e+001 3.397633e+001 2.318383e+001 1.830017e+001 2.404983e+001 1.855410e+001 1.429244e+001 1.801824e+001 1.336500e+001 1.443649e+001 1.061375e+000 1.066527e+000 1.478872e+000 1.624031e+000 1.134404e+000 1.290365e+000 1.599176e+000 1.224670e+000 1.184517e+000 1.363078e+000 1.099644e+000 1.044105e+000 6.252846e-001
<GCONST> 8.515993e+001
<STATE> 4
<MEAN> 25
 1.014639e-007 -3.412228e-008 -2.748922e-008 -4.709330e-008 1.008714e-009 2.158507e-008 -1.450291e-008 8.102630e-009 -1.486031e-009 -4.417650e-008 2.523431e-008 1.626169e-008 -6.271588e-004 -7.557286e-004 1.194882e-003 -1.391857e-003 -4.947411e-004 6.634704e-004 -1.323878e-003 -4.222318e-004 7.758217e-004 -1.542270e-005 1.410337e-003 5.157809e-004 5.451159e-004
<VARIANCE> 25
 3.851213e+001 2.601553e+001 3.703800e+001 3.397633e+001 2.318383e+001 1.830017e+001 2.404983e+001 1.855410e+001 1.429244e+001 1.801824e+001 1.336500e+001 1.443649e+001 1.061375e+000 1.066527e+000 1.478872e+000 1.624031e+000 1.134404e+000 1.290365e+000 1.599176e+000 1.224670e+000 1.184517e+000 1.363078e+000 1.099644e+000 1.044105e+000 6.252846e-001
<GCONST> 8.515993e+001
<TRANSP> 5
 0.000000e+000 1.000000e+000 0.000000e+000 0.000000e+000 0.000000e+000
 0.000000e+000 6.000000e-001 4.000000e-001 0.000000e+000 0.000000e+000
 0.000000e+000 0.000000e+000 6.000000e-001 4.000000e-001 0.000000e+000
 0.000000e+000 0.000000e+000 0.000000e+000 7.000000e-001 3.000000e-001
 0.000000e+000 0.000000e+000 0.000000e+000 0.000000e+000 0.000000e+000
<ENDHMM>
~h "t"
<BEGINHMM>
<NUMSTATES> 5
<STATE> 2
<MEAN> 25
 1.014639e-007 -3.412228e-008 -2.748922e-008 -4.709330e-008 1.008714e-009 2.158507e-008 -1.450291e-008 8.102630e-009 -1.486031e-009 -4.417650e-008 2.523431e-008 1.626169e-008 -6.271588e-004 -7.557286e-004 1.194882e-003 -1.391857e-003 -4.947411e-004 6.634704e-004 -1.323878e-003 -4.222318e-004 7.758217e-004 -1.542270e-005 1.410337e-003 5.157809e-004 5.451159e-004
<VARIANCE> 25
 3.851213e+001 2.601553e+001 3.703800e+001 3.397633e+001 2.318383e+001 1.830017e+001 2.404983e+001 1.855410e+001 1.429244e+001 1.801824e+001 1.336500e+001 1.443649e+001 1.061375e+000 1.066527e+000 1.478872e+000 1.624031e+000 1.134404e+000 1.290365e+000 1.599176e+000 1.224670e+000 1.184517e+000 1.363078e+000 1.099644e+000 1.044105e+000 6.252846e-001
<GCONST> 8.515993e+001
<STATE> 3
<MEAN> 25
 1.014639e-007 -3.412228e-008 -2.748922e-008 -4.709330e-008 1.008714e-009 2.158507e-008 -1.450291e-008 8.102630e-009 -1.486031e-009 -4.417650e-008 2.523431e-008 1.626169e-008 -6.271588e-004 -7.557286e-004 1.194882e-003 -1.391857e-003 -4.947411e-004 6.634704e-004 -1.323878e-003 -4.222318e-004 7.758217e-004 -1.542270e-005 1.410337e-003 5.157809e-004 5.451159e-004
<VARIANCE> 25
 3.851213e+001 2.601553e+001 3.703800e+001 3.397633e+001 2.318383e+001 1.830017e+001 2.404983e+001 1.855410e+001 1.429244e+001 1.801824e+001 1.336500e+001 1.443649e+001 1.061375e+000 1.066527e+000 1.478872e+000 1.624031e+000 1.134404e+000 1.290365e+000 1.599176e+000 1.224670e+000 1.184517e+000 1.363078e+000 1.099644e+000 1.044105e+000 6.252846e-001
<GCONST> 8.515993e+001
<STATE> 4
<MEAN> 25
 1.014639e-007 -3.412228e-008 -2.748922e-008 -4.709330e-008 1.008714e-009 2.158507e-008 -1.450291e-008 8.102630e-009 -1.486031e-009 -4.417650e-008 2.523431e-008 1.626169e-008 -6.271588e-004 -7.557286e-004 1.194882e-003 -1.391857e-003 -4.947411e-004 6.634704e-004 -1.323878e-003 -4.222318e-004 7.758217e-004 -1.542270e-005 1.410337e-003 5.157809e-004 5.451159e-004
<VARIANCE> 25
 3.851213e+001 2.601553e+001 3.703800e+001 3.397633e+001 2.318383e+001 1.830017e+001 2.404983e+001 1.855410e+001 1.429244e+001 1.801824e+001 1.336500e+001 1.443649e+001 1.061375e+000 1.066527e+000 1.478872e+000 1.624031e+000 1.134404e+000 1.290365e+000 1.599176e+000 1.224670e+000 1.184517e+000 1.363078e+000 1.099644e+000 1.044105e+000 6.252846e-001
<GCONST> 8.515993e+001
<TRANSP> 5
 0.000000e+000 1.000000e+000 0.000000e+000 0.000000e+000 0.000000e+000
 0.000000e+000 6.000000e-001 4.000000e-001 0.000000e+000 0.000000e+000
 0.000000e+000 0.000000e+000 6.000000e-001 4.000000e-001 0.000000e+000
 0.000000e+000 0.000000e+000 0.000000e+000 7.000000e-001 3.000000e-001
 0.000000e+000 0.000000e+000 0.000000e+000 0.000000e+000 0.000000e+000
<ENDHMM>
~h "e"
<BEGINHMM>
<NUMSTATES> 5
<STATE> 2
<MEAN> 25
 1.014639e-007 -3.412228e-008 -2.748922e-008 -4.709330e-008 1.008714e-009 2.158507e-008 -1.450291e-008 8.102630e-009 -1.486031e-009 -4.417650e-008 2.523431e-008 1.626169e-008 -6.271588e-004 -7.557286e-004 1.194882e-003 -1.391857e-003 -4.947411e-004 6.634704e-004 -1.323878e-003 -4.222318e-004 7.758217e-004 -1.542270e-005 1.410337e-003 5.157809e-004 5.451159e-004
<VARIANCE> 25
 3.851213e+001 2.601553e+001 3.703800e+001 3.397633e+001 2.318383e+001 1.830017e+001 2.404983e+001 1.855410e+001 1.429244e+001 1.801824e+001 1.336500e+001 1.443649e+001 1.061375e+000 1.066527e+000 1.478872e+000 1.624031e+000 1.134404e+000 1.290365e+000 1.599176e+000 1.224670e+000 1.184517e+000 1.363078e+000 1.099644e+000 1.044105e+000 6.252846e-001
<GCONST> 8.515993e+001
<STATE> 3
<MEAN> 25
 1.014639e-007 -3.412228e-008 -2.748922e-008 -4.709330e-008 1.008714e-009 2.158507e-008 -1.450291e-008 8.102630e-009 -1.486031e-009 -4.417650e-008 2.523431e-008 1.626169e-008 -6.271588e-004 -7.557286e-004 1.194882e-003 -1.391857e-003 -4.947411e-004 6.634704e-004 -1.323878e-003 -4.222318e-004 7.758217e-004 -1.542270e-005 1.410337e-003 5.157809e-004 5.451159e-004
<VARIANCE> 25
 3.851213e+001 2.601553e+001 3.703800e+001 3.397633e+001 2.318383e+001 1.830017e+001 2.404983e+001 1.855410e+001 1.429244e+001 1.801824e+001 1.336500e+001 1.443649e+001 1.061375e+000 1.066527e+000 1.478872e+000 1.624031e+000 1.134404e+000 1.290365e+000 1.599176e+000 1.224670e+000 1.184517e+000 1.363078e+000 1.099644e+000 1.044105e+000 6.252846e-001
<GCONST> 8.515993e+001
<STATE> 4
<MEAN> 25
 1.014639e-007 -3.412228e-008 -2.748922e-008 -4.709330e-008 1.008714e-009 2.158507e-008 -1.450291e-008 8.102630e-009 -1.486031e-009 -4.417650e-008 2.523431e-008 1.626169e-008 -6.271588e-004 -7.557286e-004 1.194882e-003 -1.391857e-003 -4.947411e-004 6.634704e-004 -1.323878e-003 -4.222318e-004 7.758217e-004 -1.542270e-005 1.410337e-003 5.157809e-004 5.451159e-004
<VARIANCE> 25
 3.851213e+001 2.601553e+001 3.703800e+001 3.397633e+001 2.318383e+001 1.830017e+001 2.404983e+001 1.855410e+001 1.429244e+001 1.801824e+001 1.336500e+001 1.443649e+001 1.061375e+000 1.066527e+000 1.478872e+000 1.624031e+000 1.134404e+000 1.290365e+000 1.599176e+000 1.224670e+000 1.184517e+000 1.363078e+000 1.099644e+000 1.044105e+000 6.252846e-001
<GCONST> 8.515993e+001
<TRANSP> 5
 0.000000e+000 1.000000e+000 0.000000e+000 0.000000e+000 0.000000e+000
 0.000000e+000 6.000000e-001 4.000000e-001 0.000000e+000 0.000000e+000
 0.000000e+000 0.000000e+000 6.000000e-001 4.000000e-001 0.000000e+000
 0.000000e+000 0.000000e+000 0.000000e+000 7.000000e-001 3.000000e-001
 0.000000e+000 0.000000e+000 0.000000e+000 0.000000e+000 0.000000e+000
<ENDHMM>
~h "m"
<BEGINHMM>
<NUMSTATES> 5
<STATE> 2
<MEAN> 25
 1.014639e-007 -3.412228e-008 -2.748922e-008 -4.709330e-008 1.008714e-009 2.158507e-008 -1.450291e-008 8.102630e-009 -1.486031e-009 -4.417650e-008 2.523431e-008 1.626169e-008 -6.271588e-004 -7.557286e-004 1.194882e-003 -1.391857e-003 -4.947411e-004 6.634704e-004 -1.323878e-003 -4.222318e-004 7.758217e-004 -1.542270e-005 1.410337e-003 5.157809e-004 5.451159e-004
<VARIANCE> 25
 3.851213e+001 2.601553e+001 3.703800e+001 3.397633e+001 2.318383e+001 1.830017e+001 2.404983e+001 1.855410e+001 1.429244e+001 1.801824e+001 1.336500e+001 1.443649e+001 1.061375e+000 1.066527e+000 1.478872e+000 1.624031e+000 1.134404e+000 1.290365e+000 1.599176e+000 1.224670e+000 1.184517e+000 1.363078e+000 1.099644e+000 1.044105e+000 6.252846e-001
<GCONST> 8.515993e+001
<STATE> 3
<MEAN> 25
 1.014639e-007 -3.412228e-008 -2.748922e-008 -4.709330e-008 1.008714e-009 2.158507e-008 -1.450291e-008 8.102630e-009 -1.486031e-009 -4.417650e-008 2.523431e-008 1.626169e-008 -6.271588e-004 -7.557286e-004 1.194882e-003 -1.391857e-003 -4.947411e-004 6.634704e-004 -1.323878e-003 -4.222318e-004 7.758217e-004 -1.542270e-005 1.410337e-003 5.157809e-004 5.451159e-004
<VARIANCE> 25
 3.851213e+001 2.601553e+001 3.703800e+001 3.397633e+001 2.318383e+001 1.830017e+001 2.404983e+001 1.855410e+001 1.429244e+001 1.801824e+001 1.336500e+001 1.443649e+001 1.061375e+000 1.066527e+000 1.478872e+000 1.624031e+000 1.134404e+000 1.290365e+000 1.599176e+000 1.224670e+000 1.184517e+000 1.363078e+000 1.099644e+000 1.044105e+000 6.252846e-001
<GCONST> 8.515993e+001
<STATE> 4
<MEAN> 25
 1.014639e-007 -3.412228e-008 -2.748922e-008 -4.709330e-008 1.008714e-009 2.158507e-008 -1.450291e-008 8.102630e-009 -1.486031e-009 -4.417650e-008 2.523431e-008 1.626169e-008 -6.271588e-004 -7.557286e-004 1.194882e-003 -1.391857e-003 -4.947411e-004 6.634704e-004 -1.323878e-003 -4.222318e-004 7.758217e-004 -1.542270e-005 1.410337e-003 5.157809e-004 5.451159e-004
<VARIANCE> 25
 3.851213e+001 2.601553e+001 3.703800e+001 3.397633e+001 2.318383e+001 1.830017e+001 2.404983e+001 1.855410e+001 1.429244e+001 1.801824e+001 1.336500e+001 1.443649e+001 1.061375e+000 1.066527e+000 1.478872e+000 1.624031e+000 1.134404e+000 1.290365e+000 1.599176e+000 1.224670e+000 1.184517e+000 1.363078e+000 1.099644e+000 1.044105e+000 6.252846e-001
<GCONST> 8.515993e+001
<TRANSP> 5
 0.000000e+000 1.000000e+000 0.000000e+000 0.000000e+000 0.000000e+000
 0.000000e+000 6.000000e-001 4.000000e-001 0.000000e+000 0.000000e+000
 0.000000e+000 0.000000e+000 6.000000e-001 4.000000e-001 0.000000e+000
 0.000000e+000 0.000000e+000 0.000000e+000 7.000000e-001 3.000000e-001
 0.000000e+000 0.000000e+000 0.000000e+000 0.000000e+000 0.000000e+000
<ENDHMM>
~h "n"
<BEGINHMM>
<NUMSTATES> 5
<STATE> 2
<MEAN> 25
 1.014639e-007 -3.412228e-008 -2.748922e-008 -4.709330e-008 1.008714e-009 2.158507e-008 -1.450291e-008 8.102630e-009 -1.486031e-009 -4.417650e-008 2.523431e-008 1.626169e-008 -6.271588e-004 -7.557286e-004 1.194882e-003 -1.391857e-003 -4.947411e-004 6.634704e-004 -1.323878e-003 -4.222318e-004 7.758217e-004 -1.542270e-005 1.410337e-003 5.157809e-004 5.451159e-004
<VARIANCE> 25
 3.851213e+001 2.601553e+001 3.703800e+001 3.397633e+001 2.318383e+001 1.830017e+001 2.404983e+001 1.855410e+001 1.429244e+001 1.801824e+001 1.336500e+001 1.443649e+001 1.061375e+000 1.066527e+000 1.478872e+000 1.624031e+000 1.134404e+000 1.290365e+000 1.599176e+000 1.224670e+000 1.184517e+000 1.363078e+000 1.099644e+000 1.044105e+000 6.252846e-001
<GCONST> 8.515993e+001
<STATE> 3
<MEAN> 25
 1.014639e-007 -3.412228e-008 -2.748922e-008 -4.709330e-008 1.008714e-009 2.158507e-008 -1.450291e-008 8.102630e-009 -1.486031e-009 -4.417650e-008 2.523431e-008 1.626169e-008 -6.271588e-004 -7.557286e-004 1.194882e-003 -1.391857e-003 -4.947411e-004 6.634704e-004 -1.323878e-003 -4.222318e-004 7.758217e-004 -1.542270e-005 1.410337e-003 5.157809e-004 5.451159e-004
<VARIANCE> 25
 3.851213e+001 2.601553e+001 3.703800e+001 3.397633e+001 2.318383e+001 1.830017e+001 2.404983e+001 1.855410e+001 1.429244e+001 1.801824e+001 1.336500e+001 1.443649e+001 1.061375e+000 1.066527e+000 1.478872e+000 1.624031e+000 1.134404e+000 1.290365e+000 1.599176e+000 1.224670e+000 1.184517e+000 1.363078e+000 1.099644e+000 1.044105e+000 6.252846e-001
<GCONST> 8.515993e+001
<STATE> 4
<MEAN> 25
 1.014639e-007 -3.412228e-008 -2.748922e-008 -4.709330e-008 1.008714e-009 2.158507e-008 -1.450291e-008 8.102630e-009 -1.486031e-009 -4.417650e-008 2.523431e-008 1.626169e-008 -6.271588e-004 -7.557286e-004 1.194882e-003 -1.391857e-003 -4.947411e-004 6.634704e-004 -1.323878e-003 -4.222318e-004 7.758217e-004 -1.542270e-005 1.410337e-003 5.157809e-004 5.451159e-004
<VARIANCE> 25
 3.851213e+001 2.601553e+001 3.703800e+001 3.397633e+001 2.318383e+001 1.830017e+001 2.404983e+001 1.855410e+001 1.429244e+001 1.801824e+001 1.336500e+001 1.443649e+001 1.061375e+000 1.066527e+000 1.478872e+000 1.624031e+000 1.134404e+000 1.290365e+000 1.599176e+000 1.224670e+000 1.184517e+000 1.363078e+000 1.099644e+000 1.044105e+000 6.252846e-001
<GCONST> 8.515993e+001
<TRANSP> 5
 0.000000e+000 1.000000e+000 0.000000e+000 0.000000e+000 0.000000e+000
 0.000000e+000 6.000000e-001 4.000000e-001 0.000000e+000 0.000000e+000
 0.000000e+000 0.000000e+000 6.000000e-001 4.000000e-001 0.000000e+000
 0.000000e+000 0.000000e+000 0.000000e+000 7.000000e-001 3.000000e-001
 0.000000e+000 0.000000e+000 0.000000e+000 0.000000e+000 0.000000e+000
<ENDHMM>
~h "j"
<BEGINHMM>
<NUMSTATES> 5
<STATE> 2
<MEAN> 25
 1.014639e-007 -3.412228e-008 -2.748922e-008 -4.709330e-008 1.008714e-009 2.158507e-008 -1.450291e-008 8.102630e-009 -1.486031e-009 -4.417650e-008 2.523431e-008 1.626169e-008 -6.271588e-004 -7.557286e-004 1.194882e-003 -1.391857e-003 -4.947411e-004 6.634704e-004 -1.323878e-003 -4.222318e-004 7.758217e-004 -1.542270e-005 1.410337e-003 5.157809e-004 5.451159e-004
<VARIANCE> 25
 3.851213e+001 2.601553e+001 3.703800e+001 3.397633e+001 2.318383e+001 1.830017e+001 2.404983e+001 1.855410e+001 1.429244e+001 1.801824e+001 1.336500e+001 1.443649e+001 1.061375e+000 1.066527e+000 1.478872e+000 1.624031e+000 1.134404e+000 1.290365e+000 1.599176e+000 1.224670e+000 1.184517e+000 1.363078e+000 1.099644e+000 1.044105e+000 6.252846e-001
<GCONST> 8.515993e+001
<STATE> 3
<MEAN> 25
 1.014639e-007 -3.412228e-008 -2.748922e-008 -4.709330e-008 1.008714e-009 2.158507e-008 -1.450291e-008 8.102630e-009 -1.486031e-009 -4.417650e-008 2.523431e-008 1.626169e-008 -6.271588e-004 -7.557286e-004 1.194882e-003 -1.391857e-003 -4.947411e-004 6.634704e-004 -1.323878e-003 -4.222318e-004 7.758217e-004 -1.542270e-005 1.410337e-003 5.157809e-004 5.451159e-004
<VARIANCE> 25
 3.851213e+001 2.601553e+001 3.703800e+001 3.397633e+001 2.318383e+001 1.830017e+001 2.404983e+001 1.855410e+001 1.429244e+001 1.801824e+001 1.336500e+001 1.443649e+001 1.061375e+000 1.066527e+000 1.478872e+000 1.624031e+000 1.134404e+000 1.290365e+000 1.599176e+000 1.224670e+000 1.184517e+000 1.363078e+000 1.099644e+000 1.044105e+000 6.252846e-001
<GCONST> 8.515993e+001
<STATE> 4
<MEAN> 25
 1.014639e-007 -3.412228e-008 -2.748922e-008 -4.709330e-008 1.008714e-009 2.158507e-008 -1.450291e-008 8.102630e-009 -1.486031e-009 -4.417650e-008 2.523431e-008 1.626169e-008 -6.271588e-004 -7.557286e-004 1.194882e-003 -1.391857e-003 -4.947411e-004 6.634704e-004 -1.323878e-003 -4.222318e-004 7.758217e-004 -1.542270e-005 1.410337e-003 5.157809e-004 5.451159e-004
<VARIANCE> 25
 3.851213e+001 2.601553e+001 3.703800e+001 3.397633e+001 2.318383e+001 1.830017e+001 2.404983e+001 1.855410e+001 1.429244e+001 1.801824e+001 1.336500e+001 1.443649e+001 1.061375e+000 1.066527e+000 1.478872e+000 1.624031e+000 1.134404e+000 1.290365e+000 1.599176e+000 1.224670e+000 1.184517e+000 1.363078e+000 1.099644e+000 1.044105e+000 6.252846e-001
<GCONST> 8.515993e+001
<TRANSP> 5
 0.000000e+000 1.000000e+000 0.000000e+000 0.000000e+000 0.000000e+000
 0.000000e+000 6.000000e-001 4.000000e-001 0.000000e+000 0.000000e+000
 0.000000e+000 0.000000e+000 6.000000e-001 4.000000e-001 0.000000e+000
 0.000000e+000 0.000000e+000 0.000000e+000 7.000000e-001 3.000000e-001
 0.000000e+000 0.000000e+000 0.000000e+000 0.000000e+000 0.000000e+000
<ENDHMM>
~h "s"
<BEGINHMM>
<NUMSTATES> 5
<STATE> 2
<MEAN> 25
 1.014639e-007 -3.412228e-008 -2.748922e-008 -4.709330e-008 1.008714e-009 2.158507e-008 -1.450291e-008 8.102630e-009 -1.486031e-009 -4.417650e-008 2.523431e-008 1.626169e-008 -6.271588e-004 -7.557286e-004 1.194882e-003 -1.391857e-003 -4.947411e-004 6.634704e-004 -1.323878e-003 -4.222318e-004 7.758217e-004 -1.542270e-005 1.410337e-003 5.157809e-004 5.451159e-004
<VARIANCE> 25
 3.851213e+001 2.601553e+001 3.703800e+001 3.397633e+001 2.318383e+001 1.830017e+001 2.404983e+001 1.855410e+001 1.429244e+001 1.801824e+001 1.336500e+001 1.443649e+001 1.061375e+000 1.066527e+000 1.478872e+000 1.624031e+000 1.134404e+000 1.290365e+000 1.599176e+000 1.224670e+000 1.184517e+000 1.363078e+000 1.099644e+000 1.044105e+000 6.252846e-001
<GCONST> 8.515993e+001
<STATE> 3
<MEAN> 25
 1.014639e-007 -3.412228e-008 -2.748922e-008 -4.709330e-008 1.008714e-009 2.158507e-008 -1.450291e-008 8.102630e-009 -1.486031e-009 -4.417650e-008 2.523431e-008 1.626169e-008 -6.271588e-004 -7.557286e-004 1.194882e-003 -1.391857e-003 -4.947411e-004 6.634704e-004 -1.323878e-003 -4.222318e-004 7.758217e-004 -1.542270e-005 1.410337e-003 5.157809e-004 5.451159e-004
<VARIANCE> 25
 3.851213e+001 2.601553e+001 3.703800e+001 3.397633e+001 2.318383e+001 1.830017e+001 2.404983e+001 1.855410e+001 1.429244e+001 1.801824e+001 1.336500e+001 1.443649e+001 1.061375e+000 1.066527e+000 1.478872e+000 1.624031e+000 1.134404e+000 1.290365e+000 1.599176e+000 1.224670e+000 1.184517e+000 1.363078e+000 1.099644e+000 1.044105e+000 6.252846e-001
<GCONST> 8.515993e+001
<STATE> 4
<MEAN> 25
 1.014639e-007 -3.412228e-008 -2.748922e-008 -4.709330e-008 1.008714e-009 2.158507e-008 -1.450291e-008 8.102630e-009 -1.486031e-009 -4.417650e-008 2.523431e-008 1.626169e-008 -6.271588e-004 -7.557286e-004 1.194882e-003 -1.391857e-003 -4.947411e-004 6.634704e-004 -1.323878e-003 -4.222318e-004 7.758217e-004 -1.542270e-005 1.410337e-003 5.157809e-004 5.451159e-004
<VARIANCE> 25
 3.851213e+001 2.601553e+001 3.703800e+001 3.397633e+001 2.318383e+001 1.830017e+001 2.404983e+001 1.855410e+001 1.429244e+001 1.801824e+001 1.336500e+001 1.443649e+001 1.061375e+000 1.066527e+000 1.478872e+000 1.624031e+000 1.134404e+000 1.290365e+000 1.599176e+000 1.224670e+000 1.184517e+000 1.363078e+000 1.099644e+000 1.044105e+000 6.252846e-001
<GCONST> 8.515993e+001
<TRANSP> 5
 0.000000e+000 1.000000e+000 0.000000e+000 0.000000e+000 0.000000e+000
 0.000000e+000 6.000000e-001 4.000000e-001 0.000000e+000 0.000000e+000
 0.000000e+000 0.000000e+000 6.000000e-001 4.000000e-001 0.000000e+000
 0.000000e+000 0.000000e+000 0.000000e+000 7.000000e-001 3.000000e-001
 0.000000e+000 0.000000e+000 0.000000e+000 0.000000e+000 0.000000e+000
<ENDHMM>
~h "o"
<BEGINHMM>
<NUMSTATES> 5
<STATE> 2
<MEAN> 25
 1.014639e-007 -3.412228e-008 -2.748922e-008 -4.709330e-008 1.008714e-009 2.158507e-008 -1.450291e-008 8.102630e-009 -1.486031e-009 -4.417650e-008 2.523431e-008 1.626169e-008 -6.271588e-004 -7.557286e-004 1.194882e-003 -1.391857e-003 -4.947411e-004 6.634704e-004 -1.323878e-003 -4.222318e-004 7.758217e-004 -1.542270e-005 1.410337e-003 5.157809e-004 5.451159e-004
<VARIANCE> 25
 3.851213e+001 2.601553e+001 3.703800e+001 3.397633e+001 2.318383e+001 1.830017e+001 2.404983e+001 1.855410e+001 1.429244e+001 1.801824e+001 1.336500e+001 1.443649e+001 1.061375e+000 1.066527e+000 1.478872e+000 1.624031e+000 1.134404e+000 1.290365e+000 1.599176e+000 1.224670e+000 1.184517e+000 1.363078e+000 1.099644e+000 1.044105e+000 6.252846e-001
<GCONST> 8.515993e+001
<STATE> 3
<MEAN> 25
 1.014639e-007 -3.412228e-008 -2.748922e-008 -4.709330e-008 1.008714e-009 2.158507e-008 -1.450291e-008 8.102630e-009 -1.486031e-009 -4.417650e-008 2.523431e-008 1.626169e-008 -6.271588e-004 -7.557286e-004 1.194882e-003 -1.391857e-003 -4.947411e-004 6.634704e-004 -1.323878e-003 -4.222318e-004 7.758217e-004 -1.542270e-005 1.410337e-003 5.157809e-004 5.451159e-004
<VARIANCE> 25
 3.851213e+001 2.601553e+001 3.703800e+001 3.397633e+001 2.318383e+001 1.830017e+001 2.404983e+001 1.855410e+001 1.429244e+001 1.801824e+001 1.336500e+001 1.443649e+001 1.061375e+000 1.066527e+000 1.478872e+000 1.624031e+000 1.134404e+000 1.290365e+000 1.599176e+000 1.224670e+000 1.184517e+000 1.363078e+000 1.099644e+000 1.044105e+000 6.252846e-001
<GCONST> 8.515993e+001
<STATE> 4
<MEAN> 25
 1.014639e-007 -3.412228e-008 -2.748922e-008 -4.709330e-008 1.008714e-009 2.158507e-008 -1.450291e-008 8.102630e-009 -1.486031e-009 -4.417650e-008 2.523431e-008 1.626169e-008 -6.271588e-004 -7.557286e-004 1.194882e-003 -1.391857e-003 -4.947411e-004 6.634704e-004 -1.323878e-003 -4.222318e-004 7.758217e-004 -1.542270e-005 1.410337e-003 5.157809e-004 5.451159e-004
<VARIANCE> 25
 3.851213e+001 2.601553e+001 3.703800e+001 3.397633e+001 2.318383e+001 1.830017e+001 2.404983e+001 1.855410e+001 1.429244e+001 1.801824e+001 1.336500e+001 1.443649e+001 1.061375e+000 1.066527e+000 1.478872e+000 1.624031e+000 1.134404e+000 1.290365e+000 1.599176e+000 1.224670e+000 1.184517e+000 1.363078e+000 1.099644e+000 1.044105e+000 6.252846e-001
<GCONST> 8.515993e+001
<TRANSP> 5
 0.000000e+000 1.000000e+000 0.000000e+000 0.000000e+000 0.000000e+000
 0.000000e+000 6.000000e-001 4.000000e-001 0.000000e+000 0.000000e+000
 0.000000e+000 0.000000e+000 6.000000e-001 4.000000e-001 0.000000e+000
 0.000000e+000 0.000000e+000 0.000000e+000 7.000000e-001 3.000000e-001
 0.000000e+000 0.000000e+000 0.000000e+000 0.000000e+000 0.000000e+000
<ENDHMM>
~h "l"
<BEGINHMM>
<NUMSTATES> 5
<STATE> 2
<MEAN> 25
 1.014639e-007 -3.412228e-008 -2.748922e-008 -4.709330e-008 1.008714e-009 2.158507e-008 -1.450291e-008 8.102630e-009 -1.486031e-009 -4.417650e-008 2.523431e-008 1.626169e-008 -6.271588e-004 -7.557286e-004 1.194882e-003 -1.391857e-003 -4.947411e-004 6.634704e-004 -1.323878e-003 -4.222318e-004 7.758217e-004 -1.542270e-005 1.410337e-003 5.157809e-004 5.451159e-004
<VARIANCE> 25
 3.851213e+001 2.601553e+001 3.703800e+001 3.397633e+001 2.318383e+001 1.830017e+001 2.404983e+001 1.855410e+001 1.429244e+001 1.801824e+001 1.336500e+001 1.443649e+001 1.061375e+000 1.066527e+000 1.478872e+000 1.624031e+000 1.134404e+000 1.290365e+000 1.599176e+000 1.224670e+000 1.184517e+000 1.363078e+000 1.099644e+000 1.044105e+000 6.252846e-001
<GCONST> 8.515993e+001
<STATE> 3
<MEAN> 25
 1.014639e-007 -3.412228e-008 -2.748922e-008 -4.709330e-008 1.008714e-009 2.158507e-008 -1.450291e-008 8.102630e-009 -1.486031e-009 -4.417650e-008 2.523431e-008 1.626169e-008 -6.271588e-004 -7.557286e-004 1.194882e-003 -1.391857e-003 -4.947411e-004 6.634704e-004 -1.323878e-003 -4.222318e-004 7.758217e-004 -1.542270e-005 1.410337e-003 5.157809e-004 5.451159e-004
<VARIANCE> 25
 3.851213e+001 2.601553e+001 3.703800e+001 3.397633e+001 2.318383e+001 1.830017e+001 2.404983e+001 1.855410e+001 1.429244e+001 1.801824e+001 1.336500e+001 1.443649e+001 1.061375e+000 1.066527e+000 1.478872e+000 1.624031e+000 1.134404e+000 1.290365e+000 1.599176e+000 1.224670e+000 1.184517e+000 1.363078e+000 1.099644e+000 1.044105e+000 6.252846e-001
<GCONST> 8.515993e+001
<STATE> 4
<MEAN> 25
 1.014639e-007 -3.412228e-008 -2.748922e-008 -4.709330e-008 1.008714e-009 2.158507e-008 -1.450291e-008 8.102630e-009 -1.486031e-009 -4.417650e-008 2.523431e-008 1.626169e-008 -6.271588e-004 -7.557286e-004 1.194882e-003 -1.391857e-003 -4.947411e-004 6.634704e-004 -1.323878e-003 -4.222318e-004 7.758217e-004 -1.542270e-005 1.410337e-003 5.157809e-004 5.451159e-004
<VARIANCE> 25
 3.851213e+001 2.601553e+001 3.703800e+001 3.397633e+001 2.318383e+001 1.830017e+001 2.404983e+001 1.855410e+001 1.429244e+001 1.801824e+001 1.336500e+001 1.443649e+001 1.061375e+000 1.066527e+000 1.478872e+000 1.624031e+000 1.134404e+000 1.290365e+000 1.599176e+000 1.224670e+000 1.184517e+000 1.363078e+000 1.099644e+000 1.044105e+000 6.252846e-001
<GCONST> 8.515993e+001
<TRANSP> 5
 0.000000e+000 1.000000e+000 0.000000e+000 0.000000e+000 0.000000e+000
 0.000000e+000 6.000000e-001 4.000000e-001 0.000000e+000 0.000000e+000
 0.000000e+000 0.000000e+000 6.000000e-001 4.000000e-001 0.000000e+000
 0.000000e+000 0.000000e+000 0.000000e+000 7.000000e-001 3.000000e-001
 0.000000e+000 0.000000e+000 0.000000e+000 0.000000e+000 0.000000e+000
<ENDHMM>
~h "ng"
<BEGINHMM>
<NUMSTATES> 5
<STATE> 2
<MEAN> 25
 1.014639e-007 -3.412228e-008 -2.748922e-008 -4.709330e-008 1.008714e-009 2.158507e-008 -1.450291e-008 8.102630e-009 -1.486031e-009 -4.417650e-008 2.523431e-008 1.626169e-008 -6.271588e-004 -7.557286e-004 1.194882e-003 -1.391857e-003 -4.947411e-004 6.634704e-004 -1.323878e-003 -4.222318e-004 7.758217e-004 -1.542270e-005 1.410337e-003 5.157809e-004 5.451159e-004
<VARIANCE> 25
 3.851213e+001 2.601553e+001 3.703800e+001 3.397633e+001 2.318383e+001 1.830017e+001 2.404983e+001 1.855410e+001 1.429244e+001 1.801824e+001 1.336500e+001 1.443649e+001 1.061375e+000 1.066527e+000 1.478872e+000 1.624031e+000 1.134404e+000 1.290365e+000 1.599176e+000 1.224670e+000 1.184517e+000 1.363078e+000 1.099644e+000 1.044105e+000 6.252846e-001
<GCONST> 8.515993e+001
<STATE> 3
<MEAN> 25
 1.014639e-007 -3.412228e-008 -2.748922e-008 -4.709330e-008 1.008714e-009 2.158507e-008 -1.450291e-008 8.102630e-009 -1.486031e-009 -4.417650e-008 2.523431e-008 1.626169e-008 -6.271588e-004 -7.557286e-004 1.194882e-003 -1.391857e-003 -4.947411e-004 6.634704e-004 -1.323878e-003 -4.222318e-004 7.758217e-004 -1.542270e-005 1.410337e-003 5.157809e-004 5.451159e-004
<VARIANCE> 25
 3.851213e+001 2.601553e+001 3.703800e+001 3.397633e+001 2.318383e+001 1.830017e+001 2.404983e+001 1.855410e+001 1.429244e+001 1.801824e+001 1.336500e+001 1.443649e+001 1.061375e+000 1.066527e+000 1.478872e+000 1.624031e+000 1.134404e+000 1.290365e+000 1.599176e+000 1.224670e+000 1.184517e+000 1.363078e+000 1.099644e+000 1.044105e+000 6.252846e-001
<GCONST> 8.515993e+001
<STATE> 4
<MEAN> 25
 1.014639e-007 -3.412228e-008 -2.748922e-008 -4.709330e-008 1.008714e-009 2.158507e-008 -1.450291e-008 8.102630e-009 -1.486031e-009 -4.417650e-008 2.523431e-008 1.626169e-008 -6.271588e-004 -7.557286e-004 1.194882e-003 -1.391857e-003 -4.947411e-004 6.634704e-004 -1.323878e-003 -4.222318e-004 7.758217e-004 -1.542270e-005 1.410337e-003 5.157809e-004 5.451159e-004
<VARIANCE> 25
 3.851213e+001 2.601553e+001 3.703800e+001 3.397633e+001 2.318383e+001 1.830017e+001 2.404983e+001 1.855410e+001 1.429244e+001 1.801824e+001 1.336500e+001 1.443649e+001 1.061375e+000 1.066527e+000 1.478872e+000 1.624031e+000 1.134404e+000 1.290365e+000 1.599176e+000 1.224670e+000 1.184517e+000 1.363078e+000 1.099644e+000 1.044105e+000 6.252846e-001
<GCONST> 8.515993e+001
<TRANSP> 5
 0.000000e+000 1.000000e+000 0.000000e+000 0.000000e+000 0.000000e+000
 0.000000e+000 6.000000e-001 4.000000e-001 0.000000e+000 0.000000e+000
 0.000000e+000 0.000000e+000 6.000000e-001 4.000000e-001 0.000000e+000
 0.000000e+000 0.000000e+000 0.000000e+000 7.000000e-001 3.000000e-001
 0.000000e+000 0.000000e+000 0.000000e+000 0.000000e+000 0.000000e+000
<ENDHMM>
~h "c"
<BEGINHMM>
<NUMSTATES> 5
<STATE> 2
<MEAN> 25
 1.014639e-007 -3.412228e-008 -2.748922e-008 -4.709330e-008 1.008714e-009 2.158507e-008 -1.450291e-008 8.102630e-009 -1.486031e-009 -4.417650e-008 2.523431e-008 1.626169e-008 -6.271588e-004 -7.557286e-004 1.194882e-003 -1.391857e-003 -4.947411e-004 6.634704e-004 -1.323878e-003 -4.222318e-004 7.758217e-004 -1.542270e-005 1.410337e-003 5.157809e-004 5.451159e-004
<VARIANCE> 25
 3.851213e+001 2.601553e+001 3.703800e+001 3.397633e+001 2.318383e+001 1.830017e+001 2.404983e+001 1.855410e+001 1.429244e+001 1.801824e+001 1.336500e+001 1.443649e+001 1.061375e+000 1.066527e+000 1.478872e+000 1.624031e+000 1.134404e+000 1.290365e+000 1.599176e+000 1.224670e+000 1.184517e+000 1.363078e+000 1.099644e+000 1.044105e+000 6.252846e-001
<GCONST> 8.515993e+001
<STATE> 3
<MEAN> 25
 1.014639e-007 -3.412228e-008 -2.748922e-008 -4.709330e-008 1.008714e-009 2.158507e-008 -1.450291e-008 8.102630e-009 -1.486031e-009 -4.417650e-008 2.523431e-008 1.626169e-008 -6.271588e-004 -7.557286e-004 1.194882e-003 -1.391857e-003 -4.947411e-004 6.634704e-004 -1.323878e-003 -4.222318e-004 7.758217e-004 -1.542270e-005 1.410337e-003 5.157809e-004 5.451159e-004
<VARIANCE> 25
 3.851213e+001 2.601553e+001 3.703800e+001 3.397633e+001 2.318383e+001 1.830017e+001 2.404983e+001 1.855410e+001 1.429244e+001 1.801824e+001 1.336500e+001 1.443649e+001 1.061375e+000 1.066527e+000 1.478872e+000 1.624031e+000 1.134404e+000 1.290365e+000 1.599176e+000 1.224670e+000 1.184517e+000 1.363078e+000 1.099644e+000 1.044105e+000 6.252846e-001
<GCONST> 8.515993e+001
<STATE> 4
<MEAN> 25
 1.014639e-007 -3.412228e-008 -2.748922e-008 -4.709330e-008 1.008714e-009 2.158507e-008 -1.450291e-008 8.102630e-009 -1.486031e-009 -4.417650e-008 2.523431e-008 1.626169e-008 -6.271588e-004 -7.557286e-004 1.194882e-003 -1.391857e-003 -4.947411e-004 6.634704e-004 -1.323878e-003 -4.222318e-004 7.758217e-004 -1.542270e-005 1.410337e-003 5.157809e-004 5.451159e-004
<VARIANCE> 25
 3.851213e+001 2.601553e+001 3.703800e+001 3.397633e+001 2.318383e+001 1.830017e+001 2.404983e+001 1.855410e+001 1.429244e+001 1.801824e+001 1.336500e+001 1.443649e+001 1.061375e+000 1.066527e+000 1.478872e+000 1.624031e+000 1.134404e+000 1.290365e+000 1.599176e+000 1.224670e+000 1.184517e+000 1.363078e+000 1.099644e+000 1.044105e+000 6.252846e-001
<GCONST> 8.515993e+001
<TRANSP> 5
 0.000000e+000 1.000000e+000 0.000000e+000 0.000000e+000 0.000000e+000
 0.000000e+000 6.000000e-001 4.000000e-001 0.000000e+000 0.000000e+000
 0.000000e+000 0.000000e+000 6.000000e-001 4.000000e-001 0.000000e+000
 0.000000e+000 0.000000e+000 0.000000e+000 7.000000e-001 3.000000e-001
 0.000000e+000 0.000000e+000 0.000000e+000 0.000000e+000 0.000000e+000
<ENDHMM>
~h "i"
<BEGINHMM>
<NUMSTATES> 5
<STATE> 2
<MEAN> 25
 1.014639e-007 -3.412228e-008 -2.748922e-008 -4.709330e-008 1.008714e-009 2.158507e-008 -1.450291e-008 8.102630e-009 -1.486031e-009 -4.417650e-008 2.523431e-008 1.626169e-008 -6.271588e-004 -7.557286e-004 1.194882e-003 -1.391857e-003 -4.947411e-004 6.634704e-004 -1.323878e-003 -4.222318e-004 7.758217e-004 -1.542270e-005 1.410337e-003 5.157809e-004 5.451159e-004
<VARIANCE> 25
 3.851213e+001 2.601553e+001 3.703800e+001 3.397633e+001 2.318383e+001 1.830017e+001 2.404983e+001 1.855410e+001 1.429244e+001 1.801824e+001 1.336500e+001 1.443649e+001 1.061375e+000 1.066527e+000 1.478872e+000 1.624031e+000 1.134404e+000 1.290365e+000 1.599176e+000 1.224670e+000 1.184517e+000 1.363078e+000 1.099644e+000 1.044105e+000 6.252846e-001
<GCONST> 8.515993e+001
<STATE> 3
<MEAN> 25
 1.014639e-007 -3.412228e-008 -2.748922e-008 -4.709330e-008 1.008714e-009 2.158507e-008 -1.450291e-008 8.102630e-009 -1.486031e-009 -4.417650e-008 2.523431e-008 1.626169e-008 -6.271588e-004 -7.557286e-004 1.194882e-003 -1.391857e-003 -4.947411e-004 6.634704e-004 -1.323878e-003 -4.222318e-004 7.758217e-004 -1.542270e-005 1.410337e-003 5.157809e-004 5.451159e-004
<VARIANCE> 25
 3.851213e+001 2.601553e+001 3.703800e+001 3.397633e+001 2.318383e+001 1.830017e+001 2.404983e+001 1.855410e+001 1.429244e+001 1.801824e+001 1.336500e+001 1.443649e+001 1.061375e+000 1.066527e+000 1.478872e+000 1.624031e+000 1.134404e+000 1.290365e+000 1.599176e+000 1.224670e+000 1.184517e+000 1.363078e+000 1.099644e+000 1.044105e+000 6.252846e-001
<GCONST> 8.515993e+001
<STATE> 4
<MEAN> 25
 1.014639e-007 -3.412228e-008 -2.748922e-008 -4.709330e-008 1.008714e-009 2.158507e-008 -1.450291e-008 8.102630e-009 -1.486031e-009 -4.417650e-008 2.523431e-008 1.626169e-008 -6.271588e-004 -7.557286e-004 1.194882e-003 -1.391857e-003 -4.947411e-004 6.634704e-004 -1.323878e-003 -4.222318e-004 7.758217e-004 -1.542270e-005 1.410337e-003 5.157809e-004 5.451159e-004
<VARIANCE> 25
 3.851213e+001 2.601553e+001 3.703800e+001 3.397633e+001 2.318383e+001 1.830017e+001 2.404983e+001 1.855410e+001 1.429244e+001 1.801824e+001 1.336500e+001 1.443649e+001 1.061375e+000 1.066527e+000 1.478872e+000 1.624031e+000 1.134404e+000 1.290365e+000 1.599176e+000 1.224670e+000 1.184517e+000 1.363078e+000 1.099644e+000 1.044105e+000 6.252846e-001
<GCONST> 8.515993e+001
<TRANSP> 5
 0.000000e+000 1.000000e+000 0.000000e+000 0.000000e+000 0.000000e+000
 0.000000e+000 6.000000e-001 4.000000e-001 0.000000e+000 0.000000e+000
 0.000000e+000 0.000000e+000 6.000000e-001 4.000000e-001 0.000000e+000
 0.000000e+000 0.000000e+000 0.000000e+000 7.000000e-001 3.000000e-001
 0.000000e+000 0.000000e+000 0.000000e+000 0.000000e+000 0.000000e+000
<ENDHMM>
~h "d"
<BEGINHMM>
<NUMSTATES> 5
<STATE> 2
<MEAN> 25
 1.014639e-007 -3.412228e-008 -2.748922e-008 -4.709330e-008 1.008714e-009 2.158507e-008 -1.450291e-008 8.102630e-009 -1.486031e-009 -4.417650e-008 2.523431e-008 1.626169e-008 -6.271588e-004 -7.557286e-004 1.194882e-003 -1.391857e-003 -4.947411e-004 6.634704e-004 -1.323878e-003 -4.222318e-004 7.758217e-004 -1.542270e-005 1.410337e-003 5.157809e-004 5.451159e-004
<VARIANCE> 25
 3.851213e+001 2.601553e+001 3.703800e+001 3.397633e+001 2.318383e+001 1.830017e+001 2.404983e+001 1.855410e+001 1.429244e+001 1.801824e+001 1.336500e+001 1.443649e+001 1.061375e+000 1.066527e+000 1.478872e+000 1.624031e+000 1.134404e+000 1.290365e+000 1.599176e+000 1.224670e+000 1.184517e+000 1.363078e+000 1.099644e+000 1.044105e+000 6.252846e-001
<GCONST> 8.515993e+001
<STATE> 3
<MEAN> 25
 1.014639e-007 -3.412228e-008 -2.748922e-008 -4.709330e-008 1.008714e-009 2.158507e-008 -1.450291e-008 8.102630e-009 -1.486031e-009 -4.417650e-008 2.523431e-008 1.626169e-008 -6.271588e-004 -7.557286e-004 1.194882e-003 -1.391857e-003 -4.947411e-004 6.634704e-004 -1.323878e-003 -4.222318e-004 7.758217e-004 -1.542270e-005 1.410337e-003 5.157809e-004 5.451159e-004
<VARIANCE> 25
 3.851213e+001 2.601553e+001 3.703800e+001 3.397633e+001 2.318383e+001 1.830017e+001 2.404983e+001 1.855410e+001 1.429244e+001 1.801824e+001 1.336500e+001 1.443649e+001 1.061375e+000 1.066527e+000 1.478872e+000 1.624031e+000 1.134404e+000 1.290365e+000 1.599176e+000 1.224670e+000 1.184517e+000 1.363078e+000 1.099644e+000 1.044105e+000 6.252846e-001
<GCONST> 8.515993e+001
<STATE> 4
<MEAN> 25
 1.014639e-007 -3.412228e-008 -2.748922e-008 -4.709330e-008 1.008714e-009 2.158507e-008 -1.450291e-008 8.102630e-009 -1.486031e-009 -4.417650e-008 2.523431e-008 1.626169e-008 -6.271588e-004 -7.557286e-004 1.194882e-003 -1.391857e-003 -4.947411e-004 6.634704e-004 -1.323878e-003 -4.222318e-004 7.758217e-004 -1.542270e-005 1.410337e-003 5.157809e-004 5.451159e-004
<VARIANCE> 25
 3.851213e+001 2.601553e+001 3.703800e+001 3.397633e+001 2.318383e+001 1.830017e+001 2.404983e+001 1.855410e+001 1.429244e+001 1.801824e+001 1.336500e+001 1.443649e+001 1.061375e+000 1.066527e+000 1.478872e+000 1.624031e+000 1.134404e+000 1.290365e+000 1.599176e+000 1.224670e+000 1.184517e+000 1.363078e+000 1.099644e+000 1.044105e+000 6.252846e-001
<GCONST> 8.515993e+001
<TRANSP> 5
 0.000000e+000 1.000000e+000 0.000000e+000 0.000000e+000 0.000000e+000
 0.000000e+000 6.000000e-001 4.000000e-001 0.000000e+000 0.000000e+000
 0.000000e+000 0.000000e+000 6.000000e-001 4.000000e-001 0.000000e+000
 0.000000e+000 0.000000e+000 0.000000e+000 7.000000e-001 3.000000e-001
 0.000000e+000 0.000000e+000 0.000000e+000 0.000000e+000 0.000000e+000
<ENDHMM>
~h "p"
<BEGINHMM>
<NUMSTATES> 5
<STATE> 2
<MEAN> 25
 1.014639e-007 -3.412228e-008 -2.748922e-008 -4.709330e-008 1.008714e-009 2.158507e-008 -1.450291e-008 8.102630e-009 -1.486031e-009 -4.417650e-008 2.523431e-008 1.626169e-008 -6.271588e-004 -7.557286e-004 1.194882e-003 -1.391857e-003 -4.947411e-004 6.634704e-004 -1.323878e-003 -4.222318e-004 7.758217e-004 -1.542270e-005 1.410337e-003 5.157809e-004 5.451159e-004
<VARIANCE> 25
 3.851213e+001 2.601553e+001 3.703800e+001 3.397633e+001 2.318383e+001 1.830017e+001 2.404983e+001 1.855410e+001 1.429244e+001 1.801824e+001 1.336500e+001 1.443649e+001 1.061375e+000 1.066527e+000 1.478872e+000 1.624031e+000 1.134404e+000 1.290365e+000 1.599176e+000 1.224670e+000 1.184517e+000 1.363078e+000 1.099644e+000 1.044105e+000 6.252846e-001
<GCONST> 8.515993e+001
<STATE> 3
<MEAN> 25
 1.014639e-007 -3.412228e-008 -2.748922e-008 -4.709330e-008 1.008714e-009 2.158507e-008 -1.450291e-008 8.102630e-009 -1.486031e-009 -4.417650e-008 2.523431e-008 1.626169e-008 -6.271588e-004 -7.557286e-004 1.194882e-003 -1.391857e-003 -4.947411e-004 6.634704e-004 -1.323878e-003 -4.222318e-004 7.758217e-004 -1.542270e-005 1.410337e-003 5.157809e-004 5.451159e-004
<VARIANCE> 25
 3.851213e+001 2.601553e+001 3.703800e+001 3.397633e+001 2.318383e+001 1.830017e+001 2.404983e+001 1.855410e+001 1.429244e+001 1.801824e+001 1.336500e+001 1.443649e+001 1.061375e+000 1.066527e+000 1.478872e+000 1.624031e+000 1.134404e+000 1.290365e+000 1.599176e+000 1.224670e+000 1.184517e+000 1.363078e+000 1.099644e+000 1.044105e+000 6.252846e-001
<GCONST> 8.515993e+001
<STATE> 4
<MEAN> 25
 1.014639e-007 -3.412228e-008 -2.748922e-008 -4.709330e-008 1.008714e-009 2.158507e-008 -1.450291e-008 8.102630e-009 -1.486031e-009 -4.417650e-008 2.523431e-008 1.626169e-008 -6.271588e-004 -7.557286e-004 1.194882e-003 -1.391857e-003 -4.947411e-004 6.634704e-004 -1.323878e-003 -4.222318e-004 7.758217e-004 -1.542270e-005 1.410337e-003 5.157809e-004 5.451159e-004
<VARIANCE> 25
 3.851213e+001 2.601553e+001 3.703800e+001 3.397633e+001 2.318383e+001 1.830017e+001 2.404983e+001 1.855410e+001 1.429244e+001 1.801824e+001 1.336500e+001 1.443649e+001 1.061375e+000 1.066527e+000 1.478872e+000 1.624031e+000 1.134404e+000 1.290365e+000 1.599176e+000 1.224670e+000 1.184517e+000 1.363078e+000 1.099644e+000 1.044105e+000 6.252846e-001
<GCONST> 8.515993e+001
<TRANSP> 5
 0.000000e+000 1.000000e+000 0.000000e+000 0.000000e+000 0.000000e+000
 0.000000e+000 6.000000e-001 4.000000e-001 0.000000e+000 0.000000e+000
 0.000000e+000 0.000000e+000 6.000000e-001 4.000000e-001 0.000000e+000
 0.000000e+000 0.000000e+000 0.000000e+000 7.000000e-001 3.000000e-001
 0.000000e+000 0.000000e+000 0.000000e+000 0.000000e+000 0.000000e+000
<ENDHMM>
~h "g"
<BEGINHMM>
<NUMSTATES> 5
<STATE> 2
<MEAN> 25
 1.014639e-007 -3.412228e-008 -2.748922e-008 -4.709330e-008 1.008714e-009 2.158507e-008 -1.450291e-008 8.102630e-009 -1.486031e-009 -4.417650e-008 2.523431e-008 1.626169e-008 -6.271588e-004 -7.557286e-004 1.194882e-003 -1.391857e-003 -4.947411e-004 6.634704e-004 -1.323878e-003 -4.222318e-004 7.758217e-004 -1.542270e-005 1.410337e-003 5.157809e-004 5.451159e-004
<VARIANCE> 25
 3.851213e+001 2.601553e+001 3.703800e+001 3.397633e+001 2.318383e+001 1.830017e+001 2.404983e+001 1.855410e+001 1.429244e+001 1.801824e+001 1.336500e+001 1.443649e+001 1.061375e+000 1.066527e+000 1.478872e+000 1.624031e+000 1.134404e+000 1.290365e+000 1.599176e+000 1.224670e+000 1.184517e+000 1.363078e+000 1.099644e+000 1.044105e+000 6.252846e-001
<GCONST> 8.515993e+001
<STATE> 3
<MEAN> 25
 1.014639e-007 -3.412228e-008 -2.748922e-008 -4.709330e-008 1.008714e-009 2.158507e-008 -1.450291e-008 8.102630e-009 -1.486031e-009 -4.417650e-008 2.523431e-008 1.626169e-008 -6.271588e-004 -7.557286e-004 1.194882e-003 -1.391857e-003 -4.947411e-004 6.634704e-004 -1.323878e-003 -4.222318e-004 7.758217e-004 -1.542270e-005 1.410337e-003 5.157809e-004 5.451159e-004
<VARIANCE> 25
 3.851213e+001 2.601553e+001 3.703800e+001 3.397633e+001 2.318383e+001 1.830017e+001 2.404983e+001 1.855410e+001 1.429244e+001 1.801824e+001 1.336500e+001 1.443649e+001 1.061375e+000 1.066527e+000 1.478872e+000 1.624031e+000 1.134404e+000 1.290365e+000 1.599176e+000 1.224670e+000 1.184517e+000 1.363078e+000 1.099644e+000 1.044105e+000 6.252846e-001
<GCONST> 8.515993e+001
<STATE> 4
<MEAN> 25
 1.014639e-007 -3.412228e-008 -2.748922e-008 -4.709330e-008 1.008714e-009 2.158507e-008 -1.450291e-008 8.102630e-009 -1.486031e-009 -4.417650e-008 2.523431e-008 1.626169e-008 -6.271588e-004 -7.557286e-004 1.194882e-003 -1.391857e-003 -4.947411e-004 6.634704e-004 -1.323878e-003 -4.222318e-004 7.758217e-004 -1.542270e-005 1.410337e-003 5.157809e-004 5.451159e-004
<VARIANCE> 25
 3.851213e+001 2.601553e+001 3.703800e+001 3.397633e+001 2.318383e+001 1.830017e+001 2.404983e+001 1.855410e+001 1.429244e+001 1.801824e+001 1.336500e+001 1.443649e+001 1.061375e+000 1.066527e+000 1.478872e+000 1.624031e+000 1.134404e+000 1.290365e+000 1.599176e+000 1.224670e+000 1.184517e+000 1.363078e+000 1.099644e+000 1.044105e+000 6.252846e-001
<GCONST> 8.515993e+001
<TRANSP> 5
 0.000000e+000 1.000000e+000 0.000000e+000 0.000000e+000 0.000000e+000
 0.000000e+000 6.000000e-001 4.000000e-001 0.000000e+000 0.000000e+000
 0.000000e+000 0.000000e+000 6.000000e-001 4.000000e-001 0.000000e+000
 0.000000e+000 0.000000e+000 0.000000e+000 7.000000e-001 3.000000e-001
 0.000000e+000 0.000000e+000 0.000000e+000 0.000000e+000 0.000000e+000
<ENDHMM>
~h "r"
<BEGINHMM>
<NUMSTATES> 5
<STATE> 2
<MEAN> 25
 1.014639e-007 -3.412228e-008 -2.748922e-008 -4.709330e-008 1.008714e-009 2.158507e-008 -1.450291e-008 8.102630e-009 -1.486031e-009 -4.417650e-008 2.523431e-008 1.626169e-008 -6.271588e-004 -7.557286e-004 1.194882e-003 -1.391857e-003 -4.947411e-004 6.634704e-004 -1.323878e-003 -4.222318e-004 7.758217e-004 -1.542270e-005 1.410337e-003 5.157809e-004 5.451159e-004
<VARIANCE> 25
 3.851213e+001 2.601553e+001 3.703800e+001 3.397633e+001 2.318383e+001 1.830017e+001 2.404983e+001 1.855410e+001 1.429244e+001 1.801824e+001 1.336500e+001 1.443649e+001 1.061375e+000 1.066527e+000 1.478872e+000 1.624031e+000 1.134404e+000 1.290365e+000 1.599176e+000 1.224670e+000 1.184517e+000 1.363078e+000 1.099644e+000 1.044105e+000 6.252846e-001
<GCONST> 8.515993e+001
<STATE> 3
<MEAN> 25
 1.014639e-007 -3.412228e-008 -2.748922e-008 -4.709330e-008 1.008714e-009 2.158507e-008 -1.450291e-008 8.102630e-009 -1.486031e-009 -4.417650e-008 2.523431e-008 1.626169e-008 -6.271588e-004 -7.557286e-004 1.194882e-003 -1.391857e-003 -4.947411e-004 6.634704e-004 -1.323878e-003 -4.222318e-004 7.758217e-004 -1.542270e-005 1.410337e-003 5.157809e-004 5.451159e-004
<VARIANCE> 25
 3.851213e+001 2.601553e+001 3.703800e+001 3.397633e+001 2.318383e+001 1.830017e+001 2.404983e+001 1.855410e+001 1.429244e+001 1.801824e+001 1.336500e+001 1.443649e+001 1.061375e+000 1.066527e+000 1.478872e+000 1.624031e+000 1.134404e+000 1.290365e+000 1.599176e+000 1.224670e+000 1.184517e+000 1.363078e+000 1.099644e+000 1.044105e+000 6.252846e-001
<GCONST> 8.515993e+001
<STATE> 4
<MEAN> 25
 1.014639e-007 -3.412228e-008 -2.748922e-008 -4.709330e-008 1.008714e-009 2.158507e-008 -1.450291e-008 8.102630e-009 -1.486031e-009 -4.417650e-008 2.523431e-008 1.626169e-008 -6.271588e-004 -7.557286e-004 1.194882e-003 -1.391857e-003 -4.947411e-004 6.634704e-004 -1.323878e-003 -4.222318e-004 7.758217e-004 -1.542270e-005 1.410337e-003 5.157809e-004 5.451159e-004
<VARIANCE> 25
 3.851213e+001 2.601553e+001 3.703800e+001 3.397633e+001 2.318383e+001 1.830017e+001 2.404983e+001 1.855410e+001 1.429244e+001 1.801824e+001 1.336500e+001 1.443649e+001 1.061375e+000 1.066527e+000 1.478872e+000 1.624031e+000 1.134404e+000 1.290365e+000 1.599176e+000 1.224670e+000 1.184517e+000 1.363078e+000 1.099644e+000 1.044105e+000 6.252846e-001
<GCONST> 8.515993e+001
<TRANSP> 5
 0.000000e+000 1.000000e+000 0.000000e+000 0.000000e+000 0.000000e+000
 0.000000e+000 6.000000e-001 4.000000e-001 0.000000e+000 0.000000e+000
 0.000000e+000 0.000000e+000 6.000000e-001 4.000000e-001 0.000000e+000
 0.000000e+000 0.000000e+000 0.000000e+000 7.000000e-001 3.000000e-001
 0.000000e+000 0.000000e+000 0.000000e+000 0.000000e+000 0.000000e+000
<ENDHMM>
~h "h"
<BEGINHMM>
<NUMSTATES> 5
<STATE> 2
<MEAN> 25
 1.014639e-007 -3.412228e-008 -2.748922e-008 -4.709330e-008 1.008714e-009 2.158507e-008 -1.450291e-008 8.102630e-009 -1.486031e-009 -4.417650e-008 2.523431e-008 1.626169e-008 -6.271588e-004 -7.557286e-004 1.194882e-003 -1.391857e-003 -4.947411e-004 6.634704e-004 -1.323878e-003 -4.222318e-004 7.758217e-004 -1.542270e-005 1.410337e-003 5.157809e-004 5.451159e-004
<VARIANCE> 25
 3.851213e+001 2.601553e+001 3.703800e+001 3.397633e+001 2.318383e+001 1.830017e+001 2.404983e+001 1.855410e+001 1.429244e+001 1.801824e+001 1.336500e+001 1.443649e+001 1.061375e+000 1.066527e+000 1.478872e+000 1.624031e+000 1.134404e+000 1.290365e+000 1.599176e+000 1.224670e+000 1.184517e+000 1.363078e+000 1.099644e+000 1.044105e+000 6.252846e-001
<GCONST> 8.515993e+001
<STATE> 3
<MEAN> 25
 1.014639e-007 -3.412228e-008 -2.748922e-008 -4.709330e-008 1.008714e-009 2.158507e-008 -1.450291e-008 8.102630e-009 -1.486031e-009 -4.417650e-008 2.523431e-008 1.626169e-008 -6.271588e-004 -7.557286e-004 1.194882e-003 -1.391857e-003 -4.947411e-004 6.634704e-004 -1.323878e-003 -4.222318e-004 7.758217e-004 -1.542270e-005 1.410337e-003 5.157809e-004 5.451159e-004
<VARIANCE> 25
 3.851213e+001 2.601553e+001 3.703800e+001 3.397633e+001 2.318383e+001 1.830017e+001 2.404983e+001 1.855410e+001 1.429244e+001 1.801824e+001 1.336500e+001 1.443649e+001 1.061375e+000 1.066527e+000 1.478872e+000 1.624031e+000 1.134404e+000 1.290365e+000 1.599176e+000 1.224670e+000 1.184517e+000 1.363078e+000 1.099644e+000 1.044105e+000 6.252846e-001
<GCONST> 8.515993e+001
<STATE> 4
<MEAN> 25
 1.014639e-007 -3.412228e-008 -2.748922e-008 -4.709330e-008 1.008714e-009 2.158507e-008 -1.450291e-008 8.102630e-009 -1.486031e-009 -4.417650e-008 2.523431e-008 1.626169e-008 -6.271588e-004 -7.557286e-004 1.194882e-003 -1.391857e-003 -4.947411e-004 6.634704e-004 -1.323878e-003 -4.222318e-004 7.758217e-004 -1.542270e-005 1.410337e-003 5.157809e-004 5.451159e-004
<VARIANCE> 25
 3.851213e+001 2.601553e+001 3.703800e+001 3.397633e+001 2.318383e+001 1.830017e+001 2.404983e+001 1.855410e+001 1.429244e+001 1.801824e+001 1.336500e+001 1.443649e+001 1.061375e+000 1.066527e+000 1.478872e+000 1.624031e+000 1.134404e+000 1.290365e+000 1.599176e+000 1.224670e+000 1.184517e+000 1.363078e+000 1.099644e+000 1.044105e+000 6.252846e-001
<GCONST> 8.515993e+001
<TRANSP> 5
 0.000000e+000 1.000000e+000 0.000000e+000 0.000000e+000 0.000000e+000
 0.000000e+000 6.000000e-001 4.000000e-001 0.000000e+000 0.000000e+000
 0.000000e+000 0.000000e+000 6.000000e-001 4.000000e-001 0.000000e+000
 0.000000e+000 0.000000e+000 0.000000e+000 7.000000e-001 3.000000e-001
 0.000000e+000 0.000000e+000 0.000000e+000 0.000000e+000 0.000000e+000
<ENDHMM>
~h "ny"
<BEGINHMM>
<NUMSTATES> 5
<STATE> 2
<MEAN> 25
 1.014639e-007 -3.412228e-008 -2.748922e-008 -4.709330e-008 1.008714e-009 2.158507e-008 -1.450291e-008 8.102630e-009 -1.486031e-009 -4.417650e-008 2.523431e-008 1.626169e-008 -6.271588e-004 -7.557286e-004 1.194882e-003 -1.391857e-003 -4.947411e-004 6.634704e-004 -1.323878e-003 -4.222318e-004 7.758217e-004 -1.542270e-005 1.410337e-003 5.157809e-004 5.451159e-004
<VARIANCE> 25
 3.851213e+001 2.601553e+001 3.703800e+001 3.397633e+001 2.318383e+001 1.830017e+001 2.404983e+001 1.855410e+001 1.429244e+001 1.801824e+001 1.336500e+001 1.443649e+001 1.061375e+000 1.066527e+000 1.478872e+000 1.624031e+000 1.134404e+000 1.290365e+000 1.599176e+000 1.224670e+000 1.184517e+000 1.363078e+000 1.099644e+000 1.044105e+000 6.252846e-001
<GCONST> 8.515993e+001
<STATE> 3
<MEAN> 25
 1.014639e-007 -3.412228e-008 -2.748922e-008 -4.709330e-008 1.008714e-009 2.158507e-008 -1.450291e-008 8.102630e-009 -1.486031e-009 -4.417650e-008 2.523431e-008 1.626169e-008 -6.271588e-004 -7.557286e-004 1.194882e-003 -1.391857e-003 -4.947411e-004 6.634704e-004 -1.323878e-003 -4.222318e-004 7.758217e-004 -1.542270e-005 1.410337e-003 5.157809e-004 5.451159e-004
<VARIANCE> 25
 3.851213e+001 2.601553e+001 3.703800e+001 3.397633e+001 2.318383e+001 1.830017e+001 2.404983e+001 1.855410e+001 1.429244e+001 1.801824e+001 1.336500e+001 1.443649e+001 1.061375e+000 1.066527e+000 1.478872e+000 1.624031e+000 1.134404e+000 1.290365e+000 1.599176e+000 1.224670e+000 1.184517e+000 1.363078e+000 1.099644e+000 1.044105e+000 6.252846e-001
<GCONST> 8.515993e+001
<STATE> 4
<MEAN> 25
 1.014639e-007 -3.412228e-008 -2.748922e-008 -4.709330e-008 1.008714e-009 2.158507e-008 -1.450291e-008 8.102630e-009 -1.486031e-009 -4.417650e-008 2.523431e-008 1.626169e-008 -6.271588e-004 -7.557286e-004 1.194882e-003 -1.391857e-003 -4.947411e-004 6.634704e-004 -1.323878e-003 -4.222318e-004 7.758217e-004 -1.542270e-005 1.410337e-003 5.157809e-004 5.451159e-004
<VARIANCE> 25
 3.851213e+001 2.601553e+001 3.703800e+001 3.397633e+001 2.318383e+001 1.830017e+001 2.404983e+001 1.855410e+001 1.429244e+001 1.801824e+001 1.336500e+001 1.443649e+001 1.061375e+000 1.066527e+000 1.478872e+000 1.624031e+000 1.134404e+000 1.290365e+000 1.599176e+000 1.224670e+000 1.184517e+000 1.363078e+000 1.099644e+000 1.044105e+000 6.252846e-001
<GCONST> 8.515993e+001
<TRANSP> 5
 0.000000e+000 1.000000e+000 0.000000e+000 0.000000e+000 0.000000e+000
 0.000000e+000 6.000000e-001 4.000000e-001 0.000000e+000 0.000000e+000
 0.000000e+000 0.000000e+000 6.000000e-001 4.000000e-001 0.000000e+000
 0.000000e+000 0.000000e+000 0.000000e+000 7.000000e-001 3.000000e-001
 0.000000e+000 0.000000e+000 0.000000e+000 0.000000e+000 0.000000e+000
<ENDHMM>
~h "sil"
<BEGINHMM>
<NUMSTATES> 5
<STATE> 2
<MEAN> 25
 1.014639e-007 -3.412228e-008 -2.748922e-008 -4.709330e-008 1.008714e-009 2.158507e-008 -1.450291e-008 8.102630e-009 -1.486031e-009 -4.417650e-008 2.523431e-008 1.626169e-008 -6.271588e-004 -7.557286e-004 1.194882e-003 -1.391857e-003 -4.947411e-004 6.634704e-004 -1.323878e-003 -4.222318e-004 7.758217e-004 -1.542270e-005 1.410337e-003 5.157809e-004 5.451159e-004
<VARIANCE> 25
 3.851213e+001 2.601553e+001 3.703800e+001 3.397633e+001 2.318383e+001 1.830017e+001 2.404983e+001 1.855410e+001 1.429244e+001 1.801824e+001 1.336500e+001 1.443649e+001 1.061375e+000 1.066527e+000 1.478872e+000 1.624031e+000 1.134404e+000 1.290365e+000 1.599176e+000 1.224670e+000 1.184517e+000 1.363078e+000 1.099644e+000 1.044105e+000 6.252846e-001
<GCONST> 8.515993e+001
<STATE> 3
<MEAN> 25
 1.014639e-007 -3.412228e-008 -2.748922e-008 -4.709330e-008 1.008714e-009 2.158507e-008 -1.450291e-008 8.102630e-009 -1.486031e-009 -4.417650e-008 2.523431e-008 1.626169e-008 -6.271588e-004 -7.557286e-004 1.194882e-003 -1.391857e-003 -4.947411e-004 6.634704e-004 -1.323878e-003 -4.222318e-004 7.758217e-004 -1.542270e-005 1.410337e-003 5.157809e-004 5.451159e-004
<VARIANCE> 25
 3.851213e+001 2.601553e+001 3.703800e+001 3.397633e+001 2.318383e+001 1.830017e+001 2.404983e+001 1.855410e+001 1.429244e+001 1.801824e+001 1.336500e+001 1.443649e+001 1.061375e+000 1.066527e+000 1.478872e+000 1.624031e+000 1.134404e+000 1.290365e+000 1.599176e+000 1.224670e+000 1.184517e+000 1.363078e+000 1.099644e+000 1.044105e+000 6.252846e-001
<GCONST> 8.515993e+001
<STATE> 4
<MEAN> 25
 1.014639e-007 -3.412228e-008 -2.748922e-008 -4.709330e-008 1.008714e-009 2.158507e-008 -1.450291e-008 8.102630e-009 -1.486031e-009 -4.417650e-008 2.523431e-008 1.626169e-008 -6.271588e-004 -7.557286e-004 1.194882e-003 -1.391857e-003 -4.947411e-004 6.634704e-004 -1.323878e-003 -4.222318e-004 7.758217e-004 -1.542270e-005 1.410337e-003 5.157809e-004 5.451159e-004
<VARIANCE> 25
 3.851213e+001 2.601553e+001 3.703800e+001 3.397633e+001 2.318383e+001 1.830017e+001 2.404983e+001 1.855410e+001 1.429244e+001 1.801824e+001 1.336500e+001 1.443649e+001 1.061375e+000 1.066527e+000 1.478872e+000 1.624031e+000 1.134404e+000 1.290365e+000 1.599176e+000 1.224670e+000 1.184517e+000 1.363078e+000 1.099644e+000 1.044105e+000 6.252846e-001
<GCONST> 8.515993e+001
<TRANSP> 5
 0.000000e+000 1.000000e+000 0.000000e+000 0.000000e+000 0.000000e+000
 0.000000e+000 6.000000e-001 4.000000e-001 0.000000e+000 0.000000e+000
 0.000000e+000 0.000000e+000 6.000000e-001 4.000000e-001 0.000000e+000
 0.000000e+000 0.000000e+000 0.000000e+000 7.000000e-001 3.000000e-001
 0.000000e+000 0.000000e+000 0.000000e+000 0.000000e+000 0.000000e+000
<ENDHMM>
~h "f"
<BEGINHMM>
<NUMSTATES> 5
<STATE> 2
<MEAN> 25
 1.014639e-007 -3.412228e-008 -2.748922e-008 -4.709330e-008 1.008714e-009 2.158507e-008 -1.450291e-008 8.102630e-009 -1.486031e-009 -4.417650e-008 2.523431e-008 1.626169e-008 -6.271588e-004 -7.557286e-004 1.194882e-003 -1.391857e-003 -4.947411e-004 6.634704e-004 -1.323878e-003 -4.222318e-004 7.758217e-004 -1.542270e-005 1.410337e-003 5.157809e-004 5.451159e-004
<VARIANCE> 25
 3.851213e+001 2.601553e+001 3.703800e+001 3.397633e+001 2.318383e+001 1.830017e+001 2.404983e+001 1.855410e+001 1.429244e+001 1.801824e+001 1.336500e+001 1.443649e+001 1.061375e+000 1.066527e+000 1.478872e+000 1.624031e+000 1.134404e+000 1.290365e+000 1.599176e+000 1.224670e+000 1.184517e+000 1.363078e+000 1.099644e+000 1.044105e+000 6.252846e-001
<GCONST> 8.515993e+001
<STATE> 3
<MEAN> 25
 1.014639e-007 -3.412228e-008 -2.748922e-008 -4.709330e-008 1.008714e-009 2.158507e-008 -1.450291e-008 8.102630e-009 -1.486031e-009 -4.417650e-008 2.523431e-008 1.626169e-008 -6.271588e-004 -7.557286e-004 1.194882e-003 -1.391857e-003 -4.947411e-004 6.634704e-004 -1.323878e-003 -4.222318e-004 7.758217e-004 -1.542270e-005 1.410337e-003 5.157809e-004 5.451159e-004
<VARIANCE> 25
 3.851213e+001 2.601553e+001 3.703800e+001 3.397633e+001 2.318383e+001 1.830017e+001 2.404983e+001 1.855410e+001 1.429244e+001 1.801824e+001 1.336500e+001 1.443649e+001 1.061375e+000 1.066527e+000 1.478872e+000 1.624031e+000 1.134404e+000 1.290365e+000 1.599176e+000 1.224670e+000 1.184517e+000 1.363078e+000 1.099644e+000 1.044105e+000 6.252846e-001
<GCONST> 8.515993e+001
<STATE> 4
<MEAN> 25
 1.014639e-007 -3.412228e-008 -2.748922e-008 -4.709330e-008 1.008714e-009 2.158507e-008 -1.450291e-008 8.102630e-009 -1.486031e-009 -4.417650e-008 2.523431e-008 1.626169e-008 -6.271588e-004 -7.557286e-004 1.194882e-003 -1.391857e-003 -4.947411e-004 6.634704e-004 -1.323878e-003 -4.222318e-004 7.758217e-004 -1.542270e-005 1.410337e-003 5.157809e-004 5.451159e-004
<VARIANCE> 25
 3.851213e+001 2.601553e+001 3.703800e+001 3.397633e+001 2.318383e+001 1.830017e+001 2.404983e+001 1.855410e+001 1.429244e+001 1.801824e+001 1.336500e+001 1.443649e+001 1.061375e+000 1.066527e+000 1.478872e+000 1.624031e+000 1.134404e+000 1.290365e+000 1.599176e+000 1.224670e+000 1.184517e+000 1.363078e+000 1.099644e+000 1.044105e+000 6.252846e-001
<GCONST> 8.515993e+001
<TRANSP> 5
 0.000000e+000 1.000000e+000 0.000000e+000 0.000000e+000 0.000000e+000
 0.000000e+000 6.000000e-001 4.000000e-001 0.000000e+000 0.000000e+000
 0.000000e+000 0.000000e+000 6.000000e-001 4.000000e-001 0.000000e+000
 0.000000e+000 0.000000e+000 0.000000e+000 7.000000e-001 3.000000e-001
 0.000000e+000 0.000000e+000 0.000000e+000 0.000000e+000 0.000000e+000
<ENDHMM>
