~o
<STREAMINFO> 1 25
<VECSIZE> 25<NULLD><MFCC_D_N_Z_0><DIAGC>
~h "proto"
<BEGINHMM>
<NUMSTATES> 5
<STATE> 2
<MEAN> 25
 9.495999e-008 6.540971e-008 -2.509122e-008 7.922860e-009 -2.983091e-009 4.158917e-009 -8.330826e-009 -2.089203e-009 4.612357e-010 -1.123076e-008 6.730144e-010 -2.601629e-008 -5.785484e-004 4.195071e-005 4.310141e-004 -4.722328e-004 -3.210859e-004 1.715910e-004 -1.141576e-004 7.702004e-004 -1.954775e-004 -1.994591e-003 -1.444188e-003 -1.222004e-003 -2.115858e-004
<VARIANCE> 25
 5.448860e+001 3.966045e+001 3.843344e+001 4.378028e+001 2.425256e+001 1.866519e+001 2.614847e+001 1.794563e+001 1.774277e+001 1.844782e+001 1.355966e+001 1.601077e+001 1.363145e+000 1.416191e+000 1.587223e+000 2.035964e+000 1.278089e+000 1.294822e+000 1.691912e+000 1.278534e+000 1.420008e+000 1.373131e+000 1.159690e+000 1.080342e+000 7.241064e-001
<GCONST> 8.816740e+001
<STATE> 3
<MEAN> 25
 9.495999e-008 6.540971e-008 -2.509122e-008 7.922860e-009 -2.983091e-009 4.158917e-009 -8.330826e-009 -2.089203e-009 4.612357e-010 -1.123076e-008 6.730144e-010 -2.601629e-008 -5.785484e-004 4.195071e-005 4.310141e-004 -4.722328e-004 -3.210859e-004 1.715910e-004 -1.141576e-004 7.702004e-004 -1.954775e-004 -1.994591e-003 -1.444188e-003 -1.222004e-003 -2.115858e-004
<VARIANCE> 25
 5.448860e+001 3.966045e+001 3.843344e+001 4.378028e+001 2.425256e+001 1.866519e+001 2.614847e+001 1.794563e+001 1.774277e+001 1.844782e+001 1.355966e+001 1.601077e+001 1.363145e+000 1.416191e+000 1.587223e+000 2.035964e+000 1.278089e+000 1.294822e+000 1.691912e+000 1.278534e+000 1.420008e+000 1.373131e+000 1.159690e+000 1.080342e+000 7.241064e-001
<GCONST> 8.816740e+001
<STATE> 4
<MEAN> 25
 9.495999e-008 6.540971e-008 -2.509122e-008 7.922860e-009 -2.983091e-009 4.158917e-009 -8.330826e-009 -2.089203e-009 4.612357e-010 -1.123076e-008 6.730144e-010 -2.601629e-008 -5.785484e-004 4.195071e-005 4.310141e-004 -4.722328e-004 -3.210859e-004 1.715910e-004 -1.141576e-004 7.702004e-004 -1.954775e-004 -1.994591e-003 -1.444188e-003 -1.222004e-003 -2.115858e-004
<VARIANCE> 25
 5.448860e+001 3.966045e+001 3.843344e+001 4.378028e+001 2.425256e+001 1.866519e+001 2.614847e+001 1.794563e+001 1.774277e+001 1.844782e+001 1.355966e+001 1.601077e+001 1.363145e+000 1.416191e+000 1.587223e+000 2.035964e+000 1.278089e+000 1.294822e+000 1.691912e+000 1.278534e+000 1.420008e+000 1.373131e+000 1.159690e+000 1.080342e+000 7.241064e-001
<GCONST> 8.816740e+001
<TRANSP> 5
 0.000000e+000 1.000000e+000 0.000000e+000 0.000000e+000 0.000000e+000
 0.000000e+000 6.000000e-001 4.000000e-001 0.000000e+000 0.000000e+000
 0.000000e+000 0.000000e+000 6.000000e-001 4.000000e-001 0.000000e+000
 0.000000e+000 0.000000e+000 0.000000e+000 7.000000e-001 3.000000e-001
 0.000000e+000 0.000000e+000 0.000000e+000 0.000000e+000 0.000000e+000
<ENDHMM>
