~o
<STREAMINFO> 1 25
<VECSIZE> 25<NULLD><MFCC_D_N_Z_0><DIAGC>
~h "b"
<BEGINHMM>
<NUMSTATES> 5
<STATE> 2
<MEAN> 25
 -3.747390e+000 -1.319453e+000 -3.454348e-001 1.932030e+000 1.351121e-001 8.021821e-001 3.761292e-001 3.276140e-001 1.250624e+000 1.220275e+000 -2.609238e-002 -1.357805e+000 -2.606820e-001 -1.697637e-001 -1.346736e-002 2.091324e-001 2.319538e-001 1.071940e-001 3.221746e-002 -1.346602e-002 6.039617e-002 2.698213e-002 -2.207010e-002 -1.867155e-002 -1.473610e-001
<VARIANCE> 25
 1.461618e+001 1.665871e+001 1.341794e+001 1.017833e+001 9.161329e+000 9.991878e+000 9.542779e+000 9.917539e+000 1.093558e+001 8.864158e+000 8.248370e+000 9.638314e+000 5.448273e-001 6.755985e-001 8.303987e-001 8.397853e-001 7.120188e-001 6.961139e-001 7.641311e-001 9.130480e-001 1.002122e+000 8.131903e-001 7.425701e-001 8.532280e-001 1.483254e-001
<GCONST> 6.938433e+001
<STATE> 3
<MEAN> 25
 -4.698870e+000 -2.055356e+000 -5.466294e-001 2.696138e+000 1.032747e+000 1.265354e+000 5.521694e-001 2.936349e-001 1.495600e+000 1.413331e+000 8.221699e-002 -1.053164e+000 2.008937e-002 6.741375e-002 1.334870e-001 1.948490e-001 1.855783e-001 8.069078e-002 1.992209e-002 7.664969e-003 5.071675e-002 3.139658e-002 -4.954494e-003 1.045531e-002 6.252027e-003
<VARIANCE> 25
 1.197022e+001 1.648925e+001 1.611806e+001 1.369976e+001 9.237614e+000 7.250135e+000 7.295194e+000 8.127086e+000 9.227755e+000 8.034380e+000 6.775478e+000 7.491850e+000 5.106767e-001 7.143651e-001 8.002019e-001 7.572263e-001 5.862491e-001 6.283666e-001 6.568328e-001 7.569367e-001 8.418300e-001 7.855573e-001 6.842319e-001 7.120959e-001 1.323333e-001
<GCONST> 6.678739e+001
<STATE> 4
<MEAN> 25
 -2.138018e+000 1.194750e+000 2.883201e+000 5.661582e+000 3.170321e+000 2.298379e+000 8.596349e-001 2.900244e-001 1.767611e+000 1.785372e+000 3.119535e-001 -1.035325e+000 4.821784e-001 3.346906e-001 2.158151e-001 8.115400e-002 4.340433e-002 1.369649e-002 -2.449640e-002 -8.479001e-002 -1.134153e-001 -2.625803e-002 2.279908e-002 -1.797297e-003 2.709262e-001
<VARIANCE> 25
 2.234835e+001 3.137811e+001 3.102895e+001 2.223522e+001 1.228043e+001 8.815741e+000 8.917839e+000 8.092788e+000 8.853369e+000 6.848695e+000 6.173906e+000 6.483058e+000 9.033440e-001 1.460889e+000 1.763353e+000 1.750077e+000 1.201515e+000 1.059509e+000 1.009627e+000 8.359374e-001 9.414316e-001 7.621048e-001 6.870728e-001 6.494402e-001 3.235238e-001
<GCONST> 7.500291e+001
<TRANSP> 5
 0.000000e+000 1.000000e+000 0.000000e+000 0.000000e+000 0.000000e+000
 0.000000e+000 8.465721e-001 1.534279e-001 0.000000e+000 0.000000e+000
 0.000000e+000 0.000000e+000 8.324538e-001 1.675462e-001 0.000000e+000
 0.000000e+000 0.000000e+000 0.000000e+000 9.041578e-001 9.584225e-002
 0.000000e+000 0.000000e+000 0.000000e+000 0.000000e+000 0.000000e+000
<ENDHMM>
~h "d"
<BEGINHMM>
<NUMSTATES> 5
<STATE> 2
<MEAN> 25
 3.660326e+000 5.418675e+000 1.000718e+001 8.771067e+000 6.933673e+000 1.774679e+000 -4.042361e+000 -1.639745e+000 3.534400e-001 -1.372278e+000 -2.094995e+000 -3.001626e+000 2.854934e-002 2.081352e-002 8.673443e-002 4.820192e-002 1.007314e-001 -2.915306e-002 -1.559873e-001 2.504035e-002 8.419284e-002 -4.008058e-002 -6.198774e-002 -6.956162e-002 3.906121e-002
<VARIANCE> 25
 9.934926e+000 1.635069e+001 1.952960e+001 2.124843e+001 2.278155e+001 2.132588e+001 4.786454e+001 1.775632e+001 1.838052e+001 1.667027e+001 1.458430e+001 1.219509e+001 8.117006e-001 1.875723e+000 1.738428e+000 2.179508e+000 2.287856e+000 1.796286e+000 4.841677e+000 1.839456e+000 1.832537e+000 1.744844e+000 1.446137e+000 9.411989e-001 1.002972e+000
<GCONST> 8.772850e+001
<STATE> 3
<MEAN> 25
 4.640708e+000 6.267471e+000 8.450641e+000 8.032954e+000 6.170123e+000 5.045114e-001 -5.305511e+000 -2.382739e+000 3.856983e-001 -8.892758e-001 -1.223670e+000 -1.968926e+000 -2.507024e-002 -2.994023e-002 -2.190907e-001 -7.214231e-002 -2.115111e-002 9.287941e-002 1.311623e-001 -8.861511e-002 -9.382164e-002 8.397947e-002 1.715062e-001 1.593623e-001 -6.210760e-002
<VARIANCE> 25
 8.522916e+000 8.432609e+000 1.333290e+001 1.356275e+001 1.596792e+001 2.541160e+001 5.456424e+001 2.151009e+001 2.201863e+001 1.311920e+001 1.276493e+001 1.178378e+001 5.739294e-001 7.209242e-001 1.022244e+000 1.185507e+000 1.546703e+000 2.265734e+000 4.645010e+000 1.628235e+000 1.838080e+000 1.335801e+000 1.320156e+000 8.020056e-001 5.536736e-001
<GCONST> 8.212363e+001
<STATE> 4
<MEAN> 25
 3.447132e+000 4.975186e+000 5.954585e+000 6.837483e+000 5.742779e+000 2.127545e+000 -2.701455e+000 -2.757531e+000 -9.800430e-001 -4.696842e-001 2.167851e-001 -5.299690e-001 -3.454269e-001 -3.217351e-001 -2.670082e-001 -1.419750e-001 -1.129480e-001 1.697155e-001 3.425377e-001 9.948613e-002 -2.625673e-002 6.011782e-002 8.539546e-002 8.355102e-002 -1.901538e-001
<VARIANCE> 25
 1.802135e+001 1.252872e+001 1.353264e+001 1.647124e+001 1.451285e+001 2.151819e+001 4.237148e+001 2.247554e+001 1.965701e+001 1.240947e+001 1.405877e+001 1.159613e+001 6.583920e-001 7.902153e-001 9.214872e-001 1.204286e+000 1.263636e+000 1.787316e+000 2.958606e+000 1.866451e+000 1.721881e+000 1.221095e+000 1.406001e+000 8.723607e-001 4.603136e-001
<GCONST> 8.211257e+001
<TRANSP> 5
 0.000000e+000 1.000000e+000 0.000000e+000 0.000000e+000 0.000000e+000
 0.000000e+000 9.496173e-001 5.038266e-002 0.000000e+000 0.000000e+000
 0.000000e+000 0.000000e+000 8.910535e-001 1.089465e-001 0.000000e+000
 0.000000e+000 0.000000e+000 0.000000e+000 9.067346e-001 9.326544e-002
 0.000000e+000 0.000000e+000 0.000000e+000 0.000000e+000 0.000000e+000
<ENDHMM>
~h "f"
<BEGINHMM>
<NUMSTATES> 5
<STATE> 2
<MEAN> 25
 1.183655e+000 -3.635379e+000 3.110331e+000 5.226274e+000 7.873389e+000 2.962931e+000 -4.308521e+000 -5.160890e+000 -2.125038e+000 -3.146758e+000 -2.106948e+000 -1.914506e+000 5.824964e-002 1.683443e-001 7.885700e-002 2.525632e-001 1.634176e-001 3.421582e-002 -9.943744e-003 2.848275e-002 -9.141207e-002 -2.292671e-001 -4.993636e-002 -6.273111e-005 -4.522516e-002
<VARIANCE> 25
 1.635656e+001 6.039122e+001 7.717736e+001 8.937868e+001 2.205247e+001 1.559585e+001 4.141516e+001 2.183876e+001 1.918431e+001 3.027658e+001 3.681958e+001 2.577823e+001 1.203313e+000 4.826766e+000 6.064436e+000 6.636272e+000 2.493148e+000 1.722787e+000 3.025158e+000 2.167004e+000 2.147279e+000 3.765493e+000 3.343729e+000 1.985200e+000 4.374339e-001
<GCONST> 9.949728e+001
<STATE> 3
<MEAN> 25
 1.843523e+000 3.345012e-001 6.172322e+000 8.035836e+000 7.656041e+000 2.061244e+000 -5.267878e+000 -3.233286e+000 -2.431772e+000 -5.401191e+000 -2.722094e+000 -2.584789e+000 -2.434444e-002 3.065615e-001 2.757239e-001 2.026989e-001 -9.740573e-002 -2.341880e-002 1.118924e-001 3.313164e-001 1.286029e-001 -9.547760e-002 -6.290074e-002 -7.862662e-003 -1.557404e-001
<VARIANCE> 25
 1.582388e+001 5.996222e+001 7.316341e+001 7.303149e+001 1.765821e+001 1.203449e+001 3.656522e+001 2.162063e+001 1.379511e+001 2.850666e+001 2.541773e+001 1.963885e+001 8.861589e-001 3.455994e+000 3.713014e+000 3.652426e+000 1.389560e+000 1.152582e+000 2.487848e+000 1.317423e+000 1.419693e+000 2.365717e+000 2.044470e+000 1.524062e+000 1.914118e-001
<GCONST> 9.168417e+001
<STATE> 4
<MEAN> 25
 5.124818e-001 1.874572e+000 6.574959e+000 8.838671e+000 6.014531e+000 1.681087e+000 -3.299552e+000 -1.355790e-001 -5.571741e-001 -4.637844e+000 -2.963286e+000 -2.437407e+000 -3.494628e-001 -2.872138e-001 -5.218335e-001 -4.000728e-001 -3.681221e-001 -9.268218e-002 4.140539e-001 2.285933e-001 2.305626e-001 3.891087e-001 2.115742e-001 2.033557e-001 -2.372563e-001
<VARIANCE> 25
 1.626011e+001 2.702173e+001 4.270004e+001 3.471950e+001 1.833857e+001 1.038697e+001 2.277392e+001 1.361508e+001 1.134560e+001 2.239593e+001 1.369457e+001 1.216146e+001 5.242804e-001 1.729684e+000 1.690296e+000 1.419540e+000 1.056943e+000 1.104584e+000 1.512467e+000 9.667845e-001 9.709118e-001 1.339064e+000 1.018127e+000 1.048761e+000 1.278371e-001
<GCONST> 8.055640e+001
<TRANSP> 5
 0.000000e+000 1.000000e+000 0.000000e+000 0.000000e+000 0.000000e+000
 0.000000e+000 9.534500e-001 4.654996e-002 0.000000e+000 0.000000e+000
 0.000000e+000 0.000000e+000 8.607690e-001 1.392310e-001 0.000000e+000
 0.000000e+000 0.000000e+000 0.000000e+000 8.667898e-001 1.332102e-001
 0.000000e+000 0.000000e+000 0.000000e+000 0.000000e+000 0.000000e+000
<ENDHMM>
~h "g"
<BEGINHMM>
<NUMSTATES> 5
<STATE> 2
<MEAN> 25
 -5.320354e+000 -2.602921e+000 -1.637524e+000 1.589910e+000 -2.104937e-001 4.500798e-001 8.650320e-001 8.222750e-001 1.937058e+000 2.093793e+000 5.393620e-001 -3.140644e-001 -2.534783e-001 -1.897664e-001 -1.394072e-001 6.871077e-003 -7.631836e-002 -3.626290e-002 4.583198e-002 6.309032e-002 8.655665e-002 5.287004e-002 5.348143e-002 4.444185e-002 -1.563034e-001
<VARIANCE> 25
 1.076301e+001 1.081504e+001 7.184617e+000 5.579987e+000 6.306597e+000 7.287379e+000 8.663091e+000 7.398129e+000 8.262873e+000 6.879752e+000 7.101191e+000 6.130636e+000 2.274632e-001 1.837831e-001 3.358399e-001 4.426487e-001 5.354982e-001 6.488441e-001 8.553345e-001 8.229421e-001 8.626552e-001 7.135838e-001 7.060046e-001 5.835932e-001 9.230611e-002
<GCONST> 5.995342e+001
<STATE> 3
<MEAN> 25
 -4.910983e+000 -2.116015e+000 -1.373700e+000 1.505783e+000 -5.118563e-001 2.168603e-001 7.703194e-001 6.920900e-001 2.059111e+000 2.249251e+000 1.111073e+000 1.084804e-001 -9.480797e-002 -1.568293e-001 -9.844118e-002 3.226809e-003 -4.135491e-002 1.505581e-002 4.928550e-002 2.309494e-002 -2.943489e-002 -4.521712e-002 -5.534214e-002 3.295108e-003 -3.609576e-002
<VARIANCE> 25
 1.557216e+001 1.665376e+001 1.004655e+001 6.870213e+000 5.656611e+000 7.105077e+000 8.289907e+000 7.733823e+000 7.963470e+000 6.923052e+000 7.959749e+000 6.142586e+000 5.409955e-001 3.109832e-001 4.568500e-001 7.156789e-001 5.941234e-001 6.142336e-001 7.787889e-001 8.653216e-001 1.015046e+000 8.376389e-001 8.013809e-001 5.630245e-001 2.349272e-001
<GCONST> 6.478355e+001
<STATE> 4
<MEAN> 25
 3.731712e+000 1.351851e+000 -3.601382e+000 -3.731262e+000 -1.648546e+000 2.691329e-002 1.488439e+000 1.218136e+000 6.860796e-001 5.418423e-001 1.094133e+000 2.131525e+000 1.137411e+000 2.134682e-001 -2.455853e-001 -6.898368e-001 1.601736e-001 1.059105e-001 -2.050263e-002 4.977881e-002 -1.936859e-001 -3.303065e-001 2.452387e-001 3.689886e-001 9.158663e-001
<VARIANCE> 25
 7.452287e+001 2.324198e+001 2.293083e+001 4.335177e+001 1.160743e+001 9.236157e+000 1.110433e+001 1.307731e+001 1.382058e+001 1.104624e+001 8.066726e+000 1.249538e+001 4.922510e+000 2.275970e+000 1.555546e+000 2.582105e+000 1.410658e+000 8.958399e-001 1.393855e+000 1.777927e+000 1.609084e+000 1.488952e+000 9.583173e-001 8.862491e-001 2.182903e+000
<GCONST> 8.603946e+001
<TRANSP> 5
 0.000000e+000 1.000000e+000 0.000000e+000 0.000000e+000 0.000000e+000
 0.000000e+000 9.007940e-001 9.920608e-002 0.000000e+000 0.000000e+000
 0.000000e+000 0.000000e+000 7.391769e-001 2.608231e-001 0.000000e+000
 0.000000e+000 0.000000e+000 0.000000e+000 7.697791e-001 2.302209e-001
 0.000000e+000 0.000000e+000 0.000000e+000 0.000000e+000 0.000000e+000
<ENDHMM>
~h "k"
<BEGINHMM>
<NUMSTATES> 5
<STATE> 2
<MEAN> 25
 -2.990267e+000 -3.197876e+000 -3.030710e+000 -1.787692e+000 -1.719084e+000 3.337189e-001 1.448987e+000 -1.741846e-001 1.113819e-001 4.221163e-001 6.297227e-001 3.313137e-002 1.389722e+000 -1.824332e-001 -9.668978e-001 -2.332759e+000 -1.188045e+000 -1.827228e-001 9.345983e-001 -1.496288e-001 -9.775744e-001 -6.293504e-001 3.962915e-001 5.470504e-001 1.411367e+000
<VARIANCE> 25
 2.588420e+001 1.445826e+001 1.677122e+001 4.912431e+001 3.106337e+001 2.346076e+001 3.029198e+001 1.485700e+001 2.005915e+001 1.744025e+001 1.266158e+001 1.177573e+001 2.449253e+000 2.518406e+000 2.291761e+000 6.676147e+000 4.451603e+000 3.539056e+000 4.663310e+000 1.801693e+000 3.025640e+000 2.503612e+000 1.691825e+000 1.459385e+000 2.459015e+000
<GCONST> 9.540993e+001
<STATE> 3
<MEAN> 25
 1.649311e+000 -2.643434e+000 -4.957667e+000 -7.746790e+000 -4.409761e+000 -4.645977e-001 3.522008e+000 -4.278452e-001 -2.564729e+000 -1.338932e+000 1.605178e+000 1.745843e+000 1.749957e+000 5.789555e-001 -3.988310e-001 -1.654484e+000 -6.794276e-001 -3.756152e-001 4.854386e-001 1.788103e-002 -7.496995e-001 -5.174146e-001 2.477296e-001 6.599574e-001 1.386050e+000
<VARIANCE> 25
 4.124959e+001 2.941212e+001 2.215343e+001 6.651594e+001 4.875063e+001 4.130894e+001 5.647543e+001 2.229731e+001 3.228874e+001 2.561764e+001 1.819992e+001 1.696208e+001 2.609068e+000 3.409549e+000 2.823656e+000 1.027634e+001 5.691188e+000 3.684345e+000 6.208279e+000 1.932192e+000 4.195047e+000 2.553508e+000 2.024717e+000 1.713871e+000 3.171284e+000
<GCONST> 1.033906e+002
<STATE> 4
<MEAN> 25
 6.585083e+000 1.109706e+000 -4.237440e+000 -8.593698e+000 -4.123671e+000 -1.911609e+000 2.518672e+000 1.735534e-001 -3.200844e+000 -1.914460e+000 1.293662e+000 3.206895e+000 1.292209e+000 1.142901e+000 2.807941e-001 2.475894e-001 2.846832e-001 -3.438025e-001 -5.122054e-001 2.663014e-001 2.172512e-001 -2.921813e-002 -3.406371e-001 2.383987e-001 4.715181e-001
<VARIANCE> 25
 4.341627e+001 3.644703e+001 2.938626e+001 4.642771e+001 3.648164e+001 3.628180e+001 4.608609e+001 2.097581e+001 2.865924e+001 2.085053e+001 2.173351e+001 1.913375e+001 3.070374e+000 2.972718e+000 2.701478e+000 6.758453e+000 3.640876e+000 2.917835e+000 4.032872e+000 1.682279e+000 3.097665e+000 1.902355e+000 1.913294e+000 1.572885e+000 2.079275e+000
<GCONST> 1.000183e+002
<TRANSP> 5
 0.000000e+000 1.000000e+000 0.000000e+000 0.000000e+000 0.000000e+000
 0.000000e+000 5.742258e-001 4.257742e-001 0.000000e+000 0.000000e+000
 0.000000e+000 0.000000e+000 6.354018e-001 3.645983e-001 0.000000e+000
 0.000000e+000 0.000000e+000 0.000000e+000 8.364896e-001 1.635104e-001
 0.000000e+000 0.000000e+000 0.000000e+000 0.000000e+000 0.000000e+000
<ENDHMM>
~h "l"
<BEGINHMM>
<NUMSTATES> 5
<STATE> 2
<MEAN> 25
 3.170969e+000 2.004570e+000 -1.877942e+000 -4.961710e+000 -2.722263e+000 -1.476410e-001 1.778327e+000 1.489578e+000 -5.504789e-001 -3.359707e-001 -5.923970e-001 7.327249e-001 9.901383e-002 9.169024e-002 -4.376583e-002 -1.755398e-001 -2.535247e-001 -2.194868e-001 1.178032e-002 1.273730e-001 5.637901e-002 -3.266980e-002 -1.006641e-001 -4.883219e-002 3.893522e-002
<VARIANCE> 25
 5.667649e+001 3.979844e+001 2.802559e+001 4.726935e+001 1.525768e+001 1.577431e+001 1.500935e+001 1.327437e+001 1.218241e+001 1.133838e+001 1.037436e+001 1.183792e+001 1.004430e+000 1.315443e+000 1.838719e+000 2.154790e+000 1.291201e+000 1.298332e+000 1.273870e+000 1.045237e+000 1.138593e+000 1.098143e+000 9.377857e-001 1.074068e+000 5.635155e-001
<GCONST> 8.348929e+001
<STATE> 3
<MEAN> 25
 3.984706e+000 2.553394e+000 -2.161752e+000 -5.752625e+000 -3.209445e+000 -7.025403e-001 1.859514e+000 1.922626e+000 -4.723942e-001 -6.106703e-001 -9.779934e-001 8.076610e-001 1.170787e-001 7.068872e-002 -5.382956e-002 -1.466410e-001 -1.246900e-001 -9.911534e-002 6.919065e-002 1.246370e-001 1.220652e-002 -1.098327e-001 -1.439454e-001 1.409987e-002 6.203794e-002
<VARIANCE> 25
 5.733666e+001 3.920994e+001 2.666115e+001 4.682153e+001 1.613720e+001 1.660795e+001 1.583369e+001 1.414499e+001 1.266449e+001 1.179620e+001 1.053811e+001 1.203998e+001 1.174893e+000 1.375025e+000 2.105196e+000 2.225889e+000 1.145171e+000 1.271469e+000 1.246128e+000 1.019462e+000 1.162560e+000 1.083498e+000 9.382916e-001 1.011055e+000 5.915440e-001
<GCONST> 8.393903e+001
<STATE> 4
<MEAN> 25
 6.707311e+000 4.631680e+000 -2.113498e+000 -7.356068e+000 -4.828852e+000 -1.904780e+000 2.108807e+000 3.106578e+000 -1.934681e-002 -1.368086e+000 -1.890948e+000 1.073367e+000 -1.286245e-001 -5.343667e-002 5.018776e-002 2.186489e-001 3.032658e-003 4.444870e-002 5.942325e-002 4.951603e-002 1.019374e-001 -6.405953e-002 -6.180104e-002 -3.843293e-002 -1.105502e-001
<VARIANCE> 25
 4.531979e+001 3.186365e+001 2.808077e+001 4.065457e+001 1.604479e+001 1.700227e+001 1.750499e+001 1.429527e+001 1.541549e+001 1.245079e+001 9.977940e+000 1.348637e+001 1.673989e+000 1.371653e+000 2.461719e+000 2.821926e+000 1.133713e+000 1.232929e+000 1.408855e+000 1.049465e+000 1.157769e+000 1.229513e+000 9.617475e-001 1.226875e+000 8.117583e-001
<GCONST> 8.535817e+001
<TRANSP> 5
 0.000000e+000 1.000000e+000 0.000000e+000 0.000000e+000 0.000000e+000
 0.000000e+000 6.566850e-001 3.433150e-001 0.000000e+000 0.000000e+000
 0.000000e+000 0.000000e+000 6.545678e-001 3.454322e-001 0.000000e+000
 0.000000e+000 0.000000e+000 0.000000e+000 8.402553e-001 1.597447e-001
 0.000000e+000 0.000000e+000 0.000000e+000 0.000000e+000 0.000000e+000
<ENDHMM>
~h "m"
<BEGINHMM>
<NUMSTATES> 5
<STATE> 2
<MEAN> 25
 3.302146e+000 3.686840e+000 4.519800e-001 2.562953e-002 -1.041655e+000 3.021952e-001 1.907990e+000 2.875777e+000 2.242363e+000 8.421347e-002 -1.427259e+000 -1.460002e+000 -3.415025e-002 5.096926e-002 1.112625e-001 1.858503e-001 1.460002e-001 1.309177e-001 1.405974e-001 1.842500e-001 1.428693e-001 -1.273288e-002 -1.192950e-001 -1.606367e-001 -4.389259e-002
<VARIANCE> 25
 4.292791e+001 2.642645e+001 2.198675e+001 3.900745e+001 1.797312e+001 1.347473e+001 1.014681e+001 1.391097e+001 1.410061e+001 1.549152e+001 9.697397e+000 1.492646e+001 9.329792e-001 6.125798e-001 1.203237e+000 1.889611e+000 1.164945e+000 9.884392e-001 8.739451e-001 1.024471e+000 9.959300e-001 9.974436e-001 8.326148e-001 1.140787e+000 3.792232e-001
<GCONST> 7.980073e+001
<STATE> 3
<MEAN> 25
 2.857101e+000 3.513681e+000 6.478799e-001 5.471178e-001 -6.689737e-001 6.081764e-001 2.193982e+000 3.042691e+000 2.480864e+000 2.363872e-001 -1.386076e+000 -1.518518e+000 -5.378035e-002 -5.490288e-002 -2.499333e-002 3.513641e-002 7.360691e-002 8.026237e-002 8.610856e-002 4.964807e-002 2.231087e-002 -1.143753e-002 -4.721954e-003 3.219528e-002 -2.574933e-002
<VARIANCE> 25
 4.255666e+001 2.669894e+001 1.949133e+001 3.673846e+001 1.844532e+001 1.382662e+001 9.780999e+000 1.279970e+001 1.196088e+001 1.433723e+001 9.660445e+000 1.548000e+001 8.620465e-001 5.556341e-001 1.115300e+000 1.905928e+000 1.106407e+000 9.420118e-001 8.705054e-001 9.531837e-001 9.029102e-001 1.025779e+000 8.058975e-001 1.155985e+000 3.480902e-001
<GCONST> 7.874947e+001
<STATE> 4
<MEAN> 25
 1.791761e+000 2.302174e+000 -2.750281e-001 2.486122e-001 -3.370965e-001 1.202516e+000 2.535505e+000 2.793980e+000 2.192183e+000 3.621456e-001 -7.787481e-001 -5.823601e-001 -1.191920e-001 -1.911056e-001 -1.702113e-001 -1.060638e-001 2.624781e-002 5.074250e-002 6.678895e-003 -4.784171e-002 -6.745901e-002 -5.723599e-003 8.435953e-002 1.546841e-001 -3.502104e-002
<VARIANCE> 25
 4.762077e+001 2.681826e+001 1.828637e+001 3.567265e+001 1.673176e+001 1.320352e+001 9.562328e+000 1.261180e+001 1.073657e+001 1.532185e+001 1.049841e+001 1.616086e+001 8.075086e-001 5.754930e-001 9.966682e-001 1.764140e+000 1.113067e+000 9.438680e-001 8.635125e-001 9.255440e-001 8.879040e-001 9.359698e-001 7.999974e-001 1.140244e+000 3.135923e-001
<GCONST> 7.819342e+001
<TRANSP> 5
 0.000000e+000 1.000000e+000 0.000000e+000 0.000000e+000 0.000000e+000
 0.000000e+000 7.496161e-001 2.503839e-001 0.000000e+000 0.000000e+000
 0.000000e+000 0.000000e+000 7.531379e-001 2.468620e-001 0.000000e+000
 0.000000e+000 0.000000e+000 0.000000e+000 8.964190e-001 1.035810e-001
 0.000000e+000 0.000000e+000 0.000000e+000 0.000000e+000 0.000000e+000
<ENDHMM>
~h "n"
<BEGINHMM>
<NUMSTATES> 5
<STATE> 2
<MEAN> 25
 4.755405e+000 3.562757e+000 2.433133e+000 4.911214e+000 4.767821e+000 2.356302e+000 -2.508574e+000 -4.904567e+000 -4.056759e+000 -2.020195e+000 1.590098e-001 1.218107e+000 1.672216e-001 3.485495e-001 6.598477e-001 1.014927e+000 6.718854e-001 1.696574e-001 -3.393283e-001 -3.412313e-001 -8.583878e-002 -1.514627e-001 -1.389356e-001 -2.286910e-001 2.971589e-002
<VARIANCE> 25
 2.840787e+001 2.339642e+001 2.007732e+001 2.519751e+001 2.105701e+001 1.628877e+001 3.304674e+001 2.056008e+001 2.175434e+001 1.391023e+001 1.290368e+001 1.598802e+001 2.866374e+000 1.327327e+000 2.121377e+000 3.369502e+000 2.278224e+000 2.216740e+000 3.638160e+000 2.443963e+000 2.713516e+000 1.603375e+000 1.674359e+000 1.371372e+000 1.620858e+000
<GCONST> 9.196542e+001
<STATE> 3
<MEAN> 25
 4.193417e+000 4.646165e+000 4.037147e+000 6.473741e+000 5.425120e+000 2.889538e+000 -1.849087e+000 -4.061632e+000 -3.152133e+000 -1.375635e+000 7.268314e-001 1.229171e+000 -3.849913e-001 -6.441403e-002 1.712909e-001 1.598721e-001 2.686145e-002 1.302533e-001 2.556214e-001 2.595216e-001 2.620077e-001 2.328609e-001 1.266407e-001 -5.658330e-002 -2.473865e-001
<VARIANCE> 25
 1.825735e+001 1.480971e+001 1.372463e+001 1.510281e+001 1.360153e+001 1.348869e+001 2.974716e+001 1.491225e+001 1.472675e+001 1.272887e+001 1.183049e+001 1.325458e+001 8.701297e-001 1.039072e+000 1.404236e+000 1.765284e+000 1.356410e+000 1.343317e+000 2.399031e+000 1.237965e+000 1.416887e+000 1.235067e+000 1.314619e+000 1.038880e+000 5.337002e-001
<GCONST> 8.121526e+001
<STATE> 4
<MEAN> 25
 2.803325e-001 2.155412e+000 2.978926e+000 5.573923e+000 4.113238e+000 3.404762e+000 5.183395e-001 -1.912328e+000 -1.397158e+000 -8.512741e-002 1.285139e+000 1.118376e+000 -5.086221e-001 -4.605570e-001 -2.144101e-001 -2.764450e-001 -2.810683e-001 -9.078848e-002 1.748082e-001 2.787928e-001 2.442866e-001 1.578730e-001 -1.460237e-003 -8.581325e-002 -2.119489e-001
<VARIANCE> 25
 2.061351e+001 2.246875e+001 1.761422e+001 1.637010e+001 1.264579e+001 1.038951e+001 1.507067e+001 1.307987e+001 1.261423e+001 1.075098e+001 9.156018e+000 9.130275e+000 5.728828e-001 1.065586e+000 1.407371e+000 1.180896e+000 9.956275e-001 1.080610e+000 1.478842e+000 1.227673e+000 1.257736e+000 1.151521e+000 9.949724e-001 8.893312e-001 3.324673e-001
<GCONST> 7.707777e+001
<TRANSP> 5
 0.000000e+000 1.000000e+000 0.000000e+000 0.000000e+000 0.000000e+000
 0.000000e+000 7.287385e-001 2.712615e-001 0.000000e+000 0.000000e+000
 0.000000e+000 0.000000e+000 7.084091e-001 2.915909e-001 0.000000e+000
 0.000000e+000 0.000000e+000 0.000000e+000 8.795987e-001 1.204013e-001
 0.000000e+000 0.000000e+000 0.000000e+000 0.000000e+000 0.000000e+000
<ENDHMM>
~h "p"
<BEGINHMM>
<NUMSTATES> 5
<STATE> 2
<MEAN> 25
 -2.241652e+000 -4.073024e-001 1.710201e-001 2.132037e+000 -6.717464e-001 -7.461439e-001 -7.703479e-001 -8.735930e-001 3.125938e-001 8.232166e-001 4.410479e-003 -9.818206e-001 3.458076e-002 -5.770438e-002 -5.739509e-002 -3.738005e-002 -7.520913e-002 -1.868607e-001 -2.821233e-001 -3.797160e-001 -2.969972e-001 -1.390199e-001 -6.285746e-002 -1.279461e-002 4.296750e-002
<VARIANCE> 25
 2.732119e+001 2.770693e+001 1.736549e+001 1.063805e+001 1.027914e+001 1.494560e+001 1.712573e+001 1.597783e+001 1.440195e+001 1.326837e+001 1.028495e+001 9.245562e+000 3.081726e+000 2.812434e+000 1.855539e+000 1.244513e+000 1.190049e+000 1.287373e+000 1.297822e+000 1.515277e+000 1.517538e+000 1.365099e+000 1.026570e+000 9.725802e-001 1.173794e+000
<GCONST> 8.323540e+001
<STATE> 3
<MEAN> 25
 -1.935023e+000 2.365613e-001 6.227976e-001 2.086962e+000 -1.116151e+000 -1.624198e+000 -1.850432e+000 -1.768635e+000 -1.708401e-001 6.064776e-001 -2.581180e-001 -1.224226e+000 2.132673e-001 2.070236e-001 8.452039e-002 -7.113536e-002 -9.033211e-002 -1.825443e-001 -2.016494e-001 -1.240296e-001 -6.302752e-002 -3.896339e-002 -2.786988e-002 -9.775394e-003 1.103552e-001
<VARIANCE> 25
 3.197614e+001 3.548816e+001 2.530157e+001 1.067997e+001 1.009599e+001 1.707512e+001 1.872792e+001 1.571219e+001 1.284692e+001 1.129795e+001 9.326478e+000 7.919857e+000 2.783081e+000 2.402889e+000 1.760940e+000 1.346003e+000 9.913915e-001 1.213997e+000 1.344095e+000 1.344244e+000 1.272512e+000 1.139395e+000 8.870417e-001 8.159619e-001 1.034314e+000
<GCONST> 8.231654e+001
<STATE> 4
<MEAN> 25
 -2.671416e+000 -4.541431e-002 5.185626e-001 2.191051e+000 -1.075322e+000 -1.838736e+000 -2.324331e+000 -1.942797e+000 1.588013e-001 9.800180e-001 -1.708369e-002 -1.121441e+000 1.478745e-001 -4.496267e-002 -1.494673e-001 -1.343473e-001 9.915975e-003 5.457930e-002 5.764499e-002 2.296880e-002 -3.252511e-002 -3.304412e-002 4.092119e-002 9.986930e-002 1.194413e-001
<VARIANCE> 25
 3.154860e+001 3.896035e+001 3.010565e+001 1.121390e+001 8.880496e+000 1.578786e+001 1.708569e+001 1.486327e+001 1.272804e+001 1.021581e+001 8.077113e+000 7.384200e+000 1.815233e+000 9.660690e-001 8.044705e-001 1.015975e+000 9.228190e-001 9.190366e-001 9.871764e-001 1.235478e+000 1.333998e+000 1.072426e+000 8.419425e-001 8.093402e-001 7.050563e-001
<GCONST> 7.833804e+001
<TRANSP> 5
 0.000000e+000 1.000000e+000 0.000000e+000 0.000000e+000 0.000000e+000
 0.000000e+000 6.834682e-001 3.165318e-001 0.000000e+000 0.000000e+000
 0.000000e+000 0.000000e+000 6.904069e-001 3.095931e-001 0.000000e+000
 0.000000e+000 0.000000e+000 0.000000e+000 8.919498e-001 1.080502e-001
 0.000000e+000 0.000000e+000 0.000000e+000 0.000000e+000 0.000000e+000
<ENDHMM>
~h "r"
<BEGINHMM>
<NUMSTATES> 5
<STATE> 2
<MEAN> 25
 4.366961e+000 2.345083e+000 -2.285398e+000 -3.110634e+000 -1.530609e+000 2.637580e-001 7.860121e-001 -3.187271e-003 -1.987162e+000 -2.368402e+000 -2.909628e-001 1.768085e+000 7.513080e-001 5.124119e-001 1.149338e-001 -6.778661e-002 2.870936e-002 5.499901e-002 -1.595974e-002 -8.181097e-002 -3.856422e-001 -3.446589e-001 -1.186110e-001 7.322155e-002 3.722476e-001
<VARIANCE> 25
 4.562244e+001 2.630179e+001 1.655782e+001 2.328394e+001 1.824579e+001 1.712618e+001 1.664522e+001 1.819770e+001 2.383132e+001 2.241853e+001 1.383755e+001 1.461709e+001 2.899451e+000 2.020801e+000 1.554917e+000 1.870104e+000 1.431240e+000 1.565382e+000 1.589963e+000 1.582950e+000 1.743424e+000 1.755673e+000 1.356909e+000 1.211397e+000 1.040886e+000
<GCONST> 8.826087e+001
<STATE> 3
<MEAN> 25
 6.725664e+000 4.262408e+000 -1.438805e+000 -2.900523e+000 -1.971084e+000 -3.042904e-001 5.340761e-001 -2.719642e-002 -2.829189e+000 -3.139256e+000 -1.054490e+000 1.125511e+000 4.227100e-001 3.872388e-001 1.886148e-001 7.012742e-002 -1.466364e-001 -1.944326e-001 -1.198354e-001 -6.644814e-002 -1.421538e-001 -5.587706e-002 -8.747943e-002 -1.931789e-001 1.641579e-001
<VARIANCE> 25
 3.847086e+001 2.225233e+001 1.823323e+001 2.257019e+001 1.705021e+001 1.815873e+001 1.500261e+001 1.652199e+001 2.144243e+001 2.310814e+001 1.351544e+001 1.599339e+001 2.388736e+000 1.488031e+000 1.663203e+000 2.018364e+000 1.320043e+000 1.543195e+000 1.575647e+000 1.632073e+000 1.820319e+000 1.865338e+000 1.380617e+000 1.291662e+000 9.750276e-001
<GCONST> 8.745985e+001
<STATE> 4
<MEAN> 25
 8.204536e+000 6.920787e+000 1.100768e+000 -2.287518e+000 -3.867829e+000 -2.881718e+000 -1.051478e+000 -3.592687e-002 -2.330249e+000 -2.432540e+000 -1.556930e+000 -9.067433e-001 1.540795e-002 3.785741e-001 4.977879e-001 3.277325e-001 -1.783144e-001 -4.208378e-001 -4.400497e-001 -2.334412e-001 2.082372e-001 4.015310e-001 1.563178e-001 -2.260725e-001 -8.928853e-002
<VARIANCE> 25
 2.615801e+001 2.570725e+001 2.873717e+001 1.875353e+001 1.984499e+001 3.091765e+001 2.129358e+001 1.795741e+001 1.907592e+001 2.441300e+001 1.487053e+001 1.922537e+001 1.530174e+000 1.047649e+000 1.650002e+000 2.112111e+000 1.254313e+000 1.571078e+000 1.845392e+000 2.018065e+000 1.684829e+000 1.992722e+000 1.498844e+000 1.396093e+000 7.648400e-001
<GCONST> 8.830730e+001
<TRANSP> 5
 0.000000e+000 1.000000e+000 0.000000e+000 0.000000e+000 0.000000e+000
 0.000000e+000 6.979057e-001 3.020943e-001 0.000000e+000 0.000000e+000
 0.000000e+000 0.000000e+000 6.993594e-001 3.006406e-001 0.000000e+000
 0.000000e+000 0.000000e+000 0.000000e+000 8.426543e-001 1.573457e-001
 0.000000e+000 0.000000e+000 0.000000e+000 0.000000e+000 0.000000e+000
<ENDHMM>
~h "s"
<BEGINHMM>
<NUMSTATES> 5
<STATE> 2
<MEAN> 25
 -5.484236e+000 -9.158978e+000 6.193880e+000 -8.586072e+000 -7.470345e-002 -1.287733e+000 5.726123e+000 -1.829699e+000 -4.879448e+000 3.326388e+000 2.501594e+000 2.199100e+000 -1.094863e+000 -1.296072e+000 1.423587e+000 -8.674046e-001 1.931220e-001 -3.528129e-001 5.454114e-001 -2.582762e-001 -4.658290e-001 2.964368e-001 7.884675e-002 -1.101023e-001 7.966269e-001
<VARIANCE> 25
 3.624238e+001 3.322293e+001 5.154068e+001 3.729314e+001 2.121307e+001 2.337633e+001 3.169671e+001 1.401962e+001 1.695214e+001 1.212964e+001 1.000130e+001 1.048949e+001 2.550994e+000 2.284818e+000 3.237589e+000 2.239916e+000 1.859529e+000 1.711151e+000 1.915684e+000 1.326915e+000 1.687522e+000 1.458426e+000 1.128356e+000 1.067490e+000 9.431658e-001
<GCONST> 8.974636e+001
<STATE> 3
<MEAN> 25
 -8.345105e+000 -1.229267e+001 9.615025e+000 -1.083671e+001 1.017179e+000 -2.556643e+000 6.909221e+000 -2.308099e+000 -5.837780e+000 3.443372e+000 2.653276e+000 1.639062e+000 -9.149139e-002 -1.722008e-001 3.727790e-001 -1.340194e-001 2.196863e-001 -1.183229e-001 1.952301e-002 -3.154385e-002 -8.687289e-002 -4.192387e-002 2.622414e-003 -9.842683e-002 3.054017e-001
<VARIANCE> 25
 1.886542e+001 1.859252e+001 3.178644e+001 3.173847e+001 2.140398e+001 2.397223e+001 3.437637e+001 1.259193e+001 1.656676e+001 1.232689e+001 1.107460e+001 1.090184e+001 2.147446e+000 2.354044e+000 2.617127e+000 2.588164e+000 1.387159e+000 1.482671e+000 1.895813e+000 1.089975e+000 1.368801e+000 1.345502e+000 1.132627e+000 1.078796e+000 9.910801e-001
<GCONST> 8.692973e+001
<STATE> 4
<MEAN> 25
 -6.729441e+000 -1.061814e+001 7.990948e+000 -8.031451e+000 1.082205e+000 -1.755430e+000 5.130992e+000 -2.048147e+000 -5.447587e+000 2.955377e+000 2.564653e+000 1.207238e+000 7.550890e-001 8.937114e-001 -4.322351e-001 9.394470e-001 1.591999e-002 1.988175e-001 -7.407773e-001 6.354800e-002 2.887540e-001 -2.793729e-001 -2.702589e-001 -2.224038e-001 -4.554202e-001
<VARIANCE> 25
 3.143433e+001 3.467987e+001 4.299794e+001 5.104151e+001 2.478987e+001 2.383978e+001 4.428715e+001 1.327270e+001 2.027646e+001 1.662141e+001 1.348463e+001 1.330931e+001 2.149072e+000 3.069039e+000 2.999201e+000 3.851203e+000 1.316923e+000 1.725694e+000 2.578058e+000 1.155850e+000 1.717633e+000 2.009500e+000 1.804115e+000 1.460140e+000 1.066835e+000
<GCONST> 9.292120e+001
<TRANSP> 5
 0.000000e+000 1.000000e+000 0.000000e+000 0.000000e+000 0.000000e+000
 0.000000e+000 8.378039e-001 1.621962e-001 0.000000e+000 0.000000e+000
 0.000000e+000 0.000000e+000 8.126924e-001 1.873076e-001 0.000000e+000
 0.000000e+000 0.000000e+000 0.000000e+000 9.069766e-001 9.302333e-002
 0.000000e+000 0.000000e+000 0.000000e+000 0.000000e+000 0.000000e+000
<ENDHMM>
~h "t"
<BEGINHMM>
<NUMSTATES> 5
<STATE> 2
<MEAN> 25
 -3.663991e+000 -1.779069e+000 -9.003386e-001 1.778483e+000 9.311842e-002 9.525757e-001 3.266498e-001 -8.157052e-001 -9.077185e-002 6.808683e-001 4.843472e-001 4.066464e-002 -4.450505e-001 -4.232421e-001 -2.761359e-001 7.825042e-002 -7.238740e-002 -1.047795e-001 -9.551720e-002 -2.881812e-002 1.438783e-001 6.516162e-002 1.183534e-002 -8.733916e-002 -2.557963e-001
<VARIANCE> 25
 1.162496e+001 1.109388e+001 1.120374e+001 1.267881e+001 9.664586e+000 8.985649e+000 9.386719e+000 1.029396e+001 1.315893e+001 1.124211e+001 1.031159e+001 1.047229e+001 1.473268e+000 9.527557e-001 8.922850e-001 1.219141e+000 8.050988e-001 8.730822e-001 8.862839e-001 1.020437e+000 1.588139e+000 1.143088e+000 1.002581e+000 1.099177e+000 8.390765e-001
<GCONST> 7.496461e+001
<STATE> 3
<MEAN> 25
 -4.201060e+000 -2.785753e+000 -1.644993e+000 1.598426e+000 -4.959692e-002 6.058133e-001 3.123794e-001 -6.177616e-001 -6.518806e-003 6.479317e-001 5.760125e-001 8.510228e-002 1.486081e-001 -2.350579e-001 -9.663459e-002 -9.875251e-002 -7.319627e-002 -1.650370e-001 -2.545809e-002 -1.400482e-002 -1.857653e-001 -1.574249e-001 1.251236e-002 1.457243e-002 2.300749e-001
<VARIANCE> 25
 1.260008e+001 1.060194e+001 1.014013e+001 9.872387e+000 8.802917e+000 9.691329e+000 9.585277e+000 1.034729e+001 1.609401e+001 1.264906e+001 9.697792e+000 9.881675e+000 1.803462e+000 1.383907e+000 1.011053e+000 9.013613e-001 8.711191e-001 9.789574e-001 1.016565e+000 1.111882e+000 2.094459e+000 1.494176e+000 1.105191e+000 1.133415e+000 1.320320e+000
<GCONST> 7.679879e+001
<STATE> 4
<MEAN> 25
 -7.197016e-001 -1.657388e+000 -4.594316e-001 1.488721e+000 -3.703518e-001 -2.905142e-001 3.287296e-001 -6.555730e-001 -2.299594e+000 -2.204840e+000 -4.701872e-001 -3.063073e-001 8.357986e-001 6.809807e-001 5.529743e-001 -1.459394e-001 -1.373090e-001 -2.805414e-001 -2.662866e-001 7.004759e-002 -2.383548e-001 -4.591470e-001 -3.441214e-001 -2.904049e-001 5.337211e-001
<VARIANCE> 25
 4.514172e+001 3.960473e+001 2.146163e+001 1.257269e+001 1.118227e+001 1.407561e+001 1.628081e+001 1.282381e+001 2.984388e+001 3.050372e+001 1.800089e+001 1.570956e+001 3.244192e+000 6.107748e+000 2.860690e+000 1.215820e+000 1.359131e+000 1.451927e+000 2.290946e+000 1.717897e+000 3.488715e+000 2.791829e+000 2.320544e+000 2.334690e+000 2.419013e+000
<GCONST> 9.302404e+001
<TRANSP> 5
 0.000000e+000 1.000000e+000 0.000000e+000 0.000000e+000 0.000000e+000
 0.000000e+000 7.341970e-001 2.658030e-001 0.000000e+000 0.000000e+000
 0.000000e+000 0.000000e+000 7.258345e-001 2.741655e-001 0.000000e+000
 0.000000e+000 0.000000e+000 0.000000e+000 8.651707e-001 1.348294e-001
 0.000000e+000 0.000000e+000 0.000000e+000 0.000000e+000 0.000000e+000
<ENDHMM>
~h "aa"
<BEGINHMM>
<NUMSTATES> 5
<STATE> 2
<MEAN> 25
 6.375559e+000 2.091459e+000 -4.318052e+000 -5.899902e+000 -1.403744e+000 2.058716e-001 1.839884e+000 2.038616e+000 -2.628297e-001 -8.720028e-001 3.039872e-001 3.152040e+000 1.046968e-001 6.224245e-002 -2.029872e-001 -2.013307e-001 -7.746547e-002 1.625729e-001 2.020894e-001 1.762417e-001 6.967961e-002 1.413091e-002 8.861056e-003 3.205073e-002 -1.011114e-003
<VARIANCE> 25
 6.778465e+001 2.315565e+001 2.282854e+001 4.246612e+001 1.268254e+001 1.372479e+001 1.506496e+001 1.464040e+001 1.607177e+001 1.341105e+001 1.338532e+001 1.699541e+001 1.583094e+000 9.634179e-001 1.561204e+000 2.511014e+000 1.295521e+000 1.247886e+000 1.610453e+000 1.359484e+000 1.300432e+000 1.308209e+000 1.081775e+000 1.113149e+000 7.860523e-001
<GCONST> 8.506671e+001
<STATE> 3
<MEAN> 25
 6.017410e+000 2.088616e+000 -4.266106e+000 -5.878290e+000 -1.481705e+000 7.602974e-001 2.184954e+000 2.117879e+000 -1.952786e-001 -7.204438e-001 3.709417e-001 2.891555e+000 -1.088341e-001 7.114397e-002 1.070674e-001 8.143479e-002 -4.202900e-002 1.247632e-001 1.185569e-001 -3.534855e-003 -3.489348e-002 2.031368e-002 -9.377337e-003 -6.430048e-002 -1.229800e-001
<VARIANCE> 25
 6.251557e+001 2.331665e+001 2.273675e+001 4.206955e+001 1.246646e+001 1.280571e+001 1.361552e+001 1.464246e+001 1.713845e+001 1.358770e+001 1.160542e+001 1.546250e+001 1.526759e+000 9.451011e-001 1.593172e+000 2.790244e+000 1.242344e+000 1.218069e+000 1.355579e+000 1.241852e+000 1.262793e+000 1.249311e+000 1.056636e+000 1.151827e+000 7.855439e-001
<GCONST> 8.430788e+001
<STATE> 4
<MEAN> 25
 4.728526e+000 1.993380e+000 -3.562557e+000 -4.991875e+000 -1.553824e+000 1.157915e+000 2.319577e+000 1.905459e+000 -7.026222e-002 -5.607419e-001 3.944969e-001 2.420991e+000 -3.844827e-001 -4.543271e-003 3.586985e-001 4.532214e-001 2.899013e-002 -3.228856e-003 -4.423131e-002 -1.312403e-001 5.891350e-003 6.590918e-002 -1.195133e-002 -1.436357e-001 -2.844832e-001
<VARIANCE> 25
 5.460764e+001 2.397059e+001 2.175624e+001 3.977668e+001 1.339473e+001 1.235532e+001 1.500180e+001 1.676891e+001 1.869019e+001 1.369356e+001 1.070746e+001 1.425112e+001 1.643556e+000 1.062416e+000 1.816410e+000 2.992456e+000 1.172296e+000 1.182373e+000 1.377320e+000 1.291914e+000 1.277071e+000 1.222551e+000 9.779144e-001 1.166914e+000 7.724454e-001
<GCONST> 8.456892e+001
<TRANSP> 5
 0.000000e+000 1.000000e+000 0.000000e+000 0.000000e+000 0.000000e+000
 0.000000e+000 6.527130e-001 3.472870e-001 0.000000e+000 0.000000e+000
 0.000000e+000 0.000000e+000 6.473792e-001 3.526208e-001 0.000000e+000
 0.000000e+000 0.000000e+000 0.000000e+000 8.053617e-001 1.946383e-001
 0.000000e+000 0.000000e+000 0.000000e+000 0.000000e+000 0.000000e+000
<ENDHMM>
~h "ao"
<BEGINHMM>
<NUMSTATES> 5
<STATE> 2
<MEAN> 25
 7.916044e+000 8.044879e+000 3.242117e+000 -2.186806e+000 -4.753721e+000 -4.754272e+000 9.774202e-002 1.553889e+000 -2.487601e+000 -3.832532e+000 -4.089533e+000 -1.378241e+000 7.110237e-002 4.292227e-001 5.187936e-001 4.752000e-001 -3.719992e-001 -4.434662e-001 -4.739831e-001 1.346555e-001 4.543378e-001 8.448184e-002 -2.985378e-001 -5.950395e-001 -1.630041e-001
<VARIANCE> 25
 2.456677e+001 2.207053e+001 1.747782e+001 2.681363e+001 2.138378e+001 2.649072e+001 1.236688e+001 1.473730e+001 1.677849e+001 1.717332e+001 1.437149e+001 1.437201e+001 1.042178e+000 1.081425e+000 6.940418e-001 1.402445e+000 1.583598e+000 1.535723e+000 1.575364e+000 1.088583e+000 1.128676e+000 9.836323e-001 9.666832e-001 9.814677e-001 3.794076e-001
<GCONST> 8.153468e+001
<STATE> 3
<MEAN> 25
 7.836105e+000 8.400878e+000 4.035806e+000 -1.332957e+000 -5.592717e+000 -5.310318e+000 -3.420128e-001 1.883207e+000 -1.353412e+000 -3.355897e+000 -4.105466e+000 -2.327267e+000 -2.539135e-002 1.030475e-001 1.884878e-001 2.160282e-001 -2.926370e-001 -1.973142e-001 -1.453257e-001 1.060636e-001 3.951389e-001 2.001458e-001 1.910791e-002 -2.460215e-001 -1.026812e-001
<VARIANCE> 25
 2.331336e+001 2.129799e+001 1.589602e+001 2.494438e+001 2.702934e+001 2.559016e+001 1.135906e+001 1.812805e+001 1.903036e+001 1.843570e+001 1.392621e+001 1.249498e+001 5.488341e-001 5.118563e-001 7.598590e-001 1.111225e+000 1.359462e+000 1.116634e+000 1.075261e+000 1.090468e+000 1.046930e+000 9.410771e-001 7.110394e-001 8.805669e-001 3.242982e-001
<GCONST> 7.855189e+001
<STATE> 4
<MEAN> 25
 6.335426e+000 8.142476e+000 3.770111e+000 -9.778926e-001 -7.289449e+000 -7.013660e+000 -1.683519e+000 2.367600e+000 2.463874e+000 5.740004e-001 -2.203565e+000 -3.222421e+000 -3.368723e-001 -3.042563e-001 -2.149145e-001 3.237677e-002 1.255199e-001 1.803515e-001 2.567043e-002 -6.553062e-002 8.772533e-002 1.698267e-001 1.382833e-001 5.480925e-002 -1.927225e-001
<VARIANCE> 25
 3.059415e+001 2.872506e+001 1.871146e+001 1.540507e+001 1.909777e+001 2.351268e+001 1.639061e+001 1.638276e+001 1.816177e+001 2.165546e+001 1.212469e+001 1.042734e+001 6.884673e-001 7.883194e-001 8.281350e-001 9.685847e-001 1.127165e+000 1.267868e+000 1.160252e+000 1.561355e+000 1.235885e+000 1.143638e+000 7.027047e-001 8.446794e-001 2.258289e-001
<GCONST> 7.935964e+001
<TRANSP> 5
 0.000000e+000 1.000000e+000 0.000000e+000 0.000000e+000 0.000000e+000
 0.000000e+000 6.198029e-001 3.801971e-001 0.000000e+000 0.000000e+000
 0.000000e+000 0.000000e+000 6.542671e-001 3.457330e-001 0.000000e+000
 0.000000e+000 0.000000e+000 0.000000e+000 9.411848e-001 5.881527e-002
 0.000000e+000 0.000000e+000 0.000000e+000 0.000000e+000 0.000000e+000
<ENDHMM>
~h "eh"
<BEGINHMM>
<NUMSTATES> 5
<STATE> 2
<MEAN> 25
 6.345733e+000 1.985398e+000 -3.473063e+000 -2.558815e+000 -1.603064e+000 -6.205502e-001 -1.121273e+000 -3.256028e+000 -3.818382e+000 -1.507134e+000 1.528267e+000 2.451779e+000 1.923378e+000 1.071975e+000 1.040584e-001 -3.901531e-001 2.107971e-002 -2.121181e-001 -6.028521e-001 -6.549460e-001 -6.920601e-001 -2.174279e-001 3.193247e-001 5.237412e-001 1.114751e+000
<VARIANCE> 25
 5.723926e+001 2.559811e+001 1.549572e+001 1.898627e+001 2.040712e+001 1.514729e+001 1.718679e+001 3.604413e+001 3.448962e+001 1.710645e+001 1.502576e+001 1.496814e+001 5.814205e+000 2.440884e+000 1.598363e+000 2.841238e+000 1.856504e+000 1.360169e+000 1.827120e+000 2.888588e+000 3.975986e+000 2.234251e+000 1.461436e+000 2.032946e+000 2.528017e+000
<GCONST> 9.383558e+001
<STATE> 3
<MEAN> 25
 9.262662e+000 4.205302e+000 -2.729850e+000 -2.127728e+000 -7.988944e-001 -1.150664e+000 -3.119042e+000 -4.566862e+000 -3.990562e+000 -8.357594e-001 2.201442e+000 2.700693e+000 5.994392e-001 7.036287e-001 5.751682e-001 5.957340e-001 4.788474e-001 -1.370455e-001 -7.746544e-001 -5.201530e-001 9.367021e-002 3.717272e-001 1.918310e-001 -4.264702e-002 2.389590e-001
<VARIANCE> 25
 3.369194e+001 2.077947e+001 2.358563e+001 2.198061e+001 2.600432e+001 1.773132e+001 2.787331e+001 4.620424e+001 3.945935e+001 1.802887e+001 1.860981e+001 1.847687e+001 3.792590e+000 2.030804e+000 1.709967e+000 2.764397e+000 1.201597e+000 1.329178e+000 1.826874e+000 1.970777e+000 2.600580e+000 1.485066e+000 1.229012e+000 1.853406e+000 1.682059e+000
<GCONST> 9.248921e+001
<STATE> 4
<MEAN> 25
 7.091697e+000 2.986986e+000 -2.258374e+000 2.556744e+000 3.524461e+000 -9.231631e-001 -7.536128e+000 -7.587507e+000 -1.010297e+000 4.337550e+000 3.424194e+000 -5.237194e-001 -5.221143e-001 -7.880265e-002 2.855601e-001 3.368358e-001 1.114724e-001 1.029698e-001 1.008076e-001 2.118869e-001 3.013875e-001 1.376893e-001 -1.143257e-001 -1.845497e-001 -3.419094e-001
<VARIANCE> 25
 3.365426e+001 1.604133e+001 2.294909e+001 2.045535e+001 1.904149e+001 1.221145e+001 2.943326e+001 2.967472e+001 2.172849e+001 2.210661e+001 1.309429e+001 1.577170e+001 8.230981e-001 8.657716e-001 1.243073e+000 1.414539e+000 8.685290e-001 8.950924e-001 1.286356e+000 1.035814e+000 1.112670e+000 9.088162e-001 8.277802e-001 8.905652e-001 3.602946e-001
<GCONST> 8.106227e+001
<TRANSP> 5
 0.000000e+000 1.000000e+000 0.000000e+000 0.000000e+000 0.000000e+000
 0.000000e+000 5.784346e-001 4.215653e-001 0.000000e+000 0.000000e+000
 0.000000e+000 0.000000e+000 5.496023e-001 4.503976e-001 0.000000e+000
 0.000000e+000 0.000000e+000 0.000000e+000 8.704417e-001 1.295583e-001
 0.000000e+000 0.000000e+000 0.000000e+000 0.000000e+000 0.000000e+000
<ENDHMM>
~h "hh"
<BEGINHMM>
<NUMSTATES> 5
<STATE> 2
<MEAN> 25
 5.107579e+000 1.137106e+000 -5.154966e+000 -5.610559e+000 -1.245619e+000 2.242194e+000 3.766146e+000 3.775801e+000 8.266442e-001 -2.996219e+000 -9.948315e-001 3.814899e+000 -1.400432e-002 -2.346502e-001 -3.713453e-001 -1.999519e-001 1.795565e-001 2.205341e-001 1.375541e-001 5.505870e-003 -1.128042e-001 -9.433976e-002 -9.089157e-004 2.224289e-001 3.560659e-002
<VARIANCE> 25
 5.120789e+001 2.434267e+001 2.048799e+001 2.880973e+001 1.268695e+001 1.670738e+001 1.441154e+001 1.889687e+001 1.093885e+001 2.017458e+001 1.283029e+001 1.766019e+001 7.405219e-001 7.071121e-001 1.214040e+000 1.678729e+000 1.058568e+000 1.059135e+000 1.071620e+000 1.013290e+000 1.092086e+000 1.224031e+000 7.847236e-001 9.605090e-001 3.762417e-001
<GCONST> 8.053069e+001
<STATE> 3
<MEAN> 25
 4.235549e+000 3.095575e-001 -5.530495e+000 -5.008134e+000 -7.436913e-001 2.600875e+000 3.716668e+000 3.252041e+000 6.358789e-001 -2.431355e+000 -5.205772e-001 3.958314e+000 -1.777370e-001 -2.142294e-001 -1.538181e-001 5.954520e-002 9.644569e-002 8.315873e-002 -1.529559e-002 -1.160565e-001 -6.027292e-002 1.094264e-001 1.091675e-001 2.457682e-002 -9.781983e-002
<VARIANCE> 25
 5.266344e+001 2.272243e+001 2.159230e+001 2.964329e+001 1.133956e+001 1.686075e+001 1.508719e+001 1.779166e+001 1.072013e+001 1.819862e+001 1.176475e+001 1.837840e+001 6.916298e-001 6.777397e-001 1.094642e+000 1.341306e+000 8.562017e-001 9.898597e-001 9.225364e-001 9.222708e-001 1.015214e+000 9.984850e-001 7.627640e-001 9.368408e-001 3.340840e-001
<GCONST> 7.887195e+001
<STATE> 4
<MEAN> 25
 3.784949e-001 -1.790479e+000 -5.319870e+000 -2.871386e+000 -4.811637e-001 2.496064e+000 2.903252e+000 1.513597e+000 2.949108e-001 -7.194811e-001 8.914027e-001 3.112864e+000 -3.147622e-001 -1.200242e-001 9.270266e-002 1.619269e-001 -8.717461e-003 -7.672746e-002 -1.172614e-001 -1.379115e-001 -1.801671e-002 1.411396e-001 4.697717e-002 -1.503263e-001 -1.923069e-001
<VARIANCE> 25
 4.831611e+001 1.781775e+001 1.909602e+001 2.338720e+001 8.979715e+000 1.624071e+001 1.453541e+001 1.538393e+001 1.281151e+001 1.625463e+001 1.033972e+001 1.700431e+001 4.990422e-001 4.530074e-001 8.585886e-001 1.005566e+000 6.795868e-001 9.252566e-001 8.575619e-001 9.595367e-001 1.123710e+000 1.020719e+000 8.176219e-001 8.831574e-001 2.275671e-001
<GCONST> 7.574561e+001
<TRANSP> 5
 0.000000e+000 1.000000e+000 0.000000e+000 0.000000e+000 0.000000e+000
 0.000000e+000 7.179071e-001 2.820929e-001 0.000000e+000 0.000000e+000
 0.000000e+000 0.000000e+000 7.366002e-001 2.633998e-001 0.000000e+000
 0.000000e+000 0.000000e+000 0.000000e+000 9.340430e-001 6.595707e-002
 0.000000e+000 0.000000e+000 0.000000e+000 0.000000e+000 0.000000e+000
<ENDHMM>
~h "ih"
<BEGINHMM>
<NUMSTATES> 5
<STATE> 2
<MEAN> 25
 4.906912e-001 1.207917e-001 6.750661e+000 5.962305e+000 5.648767e+000 1.403619e+000 -5.041906e+000 -4.951953e-001 -7.423718e-001 -3.247164e+000 -2.046411e+000 -2.840436e+000 -5.583761e-002 1.536368e-001 4.974284e-001 4.811999e-001 2.861158e-001 6.637602e-003 -3.269246e-001 1.326497e-001 3.290745e-002 -5.070393e-001 -2.711663e-001 -1.818129e-001 -5.078202e-002
<VARIANCE> 25
 2.649173e+001 2.611814e+001 6.355617e+001 3.556516e+001 2.998434e+001 1.655868e+001 4.664492e+001 2.422564e+001 1.627387e+001 3.274022e+001 2.094430e+001 1.773522e+001 1.138801e+000 2.411303e+000 3.790018e+000 3.508634e+000 2.061474e+000 1.862028e+000 3.391033e+000 1.987126e+000 1.531828e+000 2.930652e+000 1.955212e+000 1.143942e+000 1.084835e+000
<GCONST> 9.488157e+001
<STATE> 3
<MEAN> 25
 -9.318356e-001 -2.927625e-001 5.456384e+000 5.596129e+000 4.932345e+000 1.363095e+000 -3.913094e+000 -3.389919e-001 -2.190429e-001 -2.690354e+000 -1.695334e+000 -2.491901e+000 -1.015647e-001 -6.326177e-002 -1.687785e-001 -8.987759e-002 -3.459189e-002 -2.223578e-002 3.375640e-002 -6.301328e-002 2.200693e-002 6.422823e-002 5.916787e-002 4.616714e-002 -7.135784e-002
<VARIANCE> 25
 2.659151e+001 2.455658e+001 5.893364e+001 3.209344e+001 3.156262e+001 1.747896e+001 3.998300e+001 2.194956e+001 1.420595e+001 3.094237e+001 1.718574e+001 1.496595e+001 8.725792e-001 1.453915e+000 2.676910e+000 2.229234e+000 1.756801e+000 1.846178e+000 2.432100e+000 1.821878e+000 1.369407e+000 1.900543e+000 1.462900e+000 1.059223e+000 8.630832e-001
<GCONST> 9.063612e+001
<STATE> 4
<MEAN> 25
 -2.121962e-001 -1.794160e-001 5.030090e+000 5.229689e+000 5.515028e+000 1.385910e+000 -4.396683e+000 -7.755044e-001 -1.870741e-001 -2.779247e+000 -1.338026e+000 -1.841606e+000 1.126069e-001 -6.474768e-002 -4.570862e-001 -4.257688e-001 -2.083795e-001 -1.832619e-002 1.330554e-001 -1.729171e-001 -8.948944e-002 2.771706e-001 2.576771e-001 2.461863e-001 5.377834e-002
<VARIANCE> 25
 2.945200e+001 2.335127e+001 5.537914e+001 3.668711e+001 2.992455e+001 2.207693e+001 3.868494e+001 2.943870e+001 1.513624e+001 3.551515e+001 1.902067e+001 1.457800e+001 9.792029e-001 1.411352e+000 2.356859e+000 2.293178e+000 1.981655e+000 2.184288e+000 2.567422e+000 2.337631e+000 1.532416e+000 1.905598e+000 1.749354e+000 1.207495e+000 8.184571e-001
<GCONST> 9.242720e+001
<TRANSP> 5
 0.000000e+000 1.000000e+000 0.000000e+000 0.000000e+000 0.000000e+000
 0.000000e+000 7.307252e-001 2.692748e-001 0.000000e+000 0.000000e+000
 0.000000e+000 0.000000e+000 6.821063e-001 3.178938e-001 0.000000e+000
 0.000000e+000 0.000000e+000 0.000000e+000 8.727628e-001 1.272372e-001
 0.000000e+000 0.000000e+000 0.000000e+000 0.000000e+000 0.000000e+000
<ENDHMM>
~h "ng"
<BEGINHMM>
<NUMSTATES> 5
<STATE> 2
<MEAN> 25
 1.767404e+000 2.699178e+000 4.702202e-001 1.883698e+000 -2.376718e-001 2.646684e-001 6.760498e-001 9.595274e-001 1.605660e+000 1.173384e+000 9.926359e-001 9.234657e-001 -4.553361e-001 -2.431772e-001 4.296554e-002 2.904729e-001 1.353389e-001 2.306728e-002 7.517047e-003 5.518600e-002 1.478119e-001 2.215277e-001 1.810998e-001 3.713926e-002 -2.718656e-001
<VARIANCE> 25
 3.317542e+001 2.171987e+001 9.657146e+000 1.175135e+001 1.003974e+001 1.007232e+001 9.152099e+000 9.593915e+000 9.580198e+000 8.065547e+000 6.995280e+000 6.446436e+000 3.299319e-001 4.244753e-001 7.839700e-001 1.084606e+000 5.573046e-001 9.407480e-001 9.772003e-001 8.054370e-001 8.124357e-001 9.784087e-001 7.698179e-001 6.030076e-001 1.327547e-001
<GCONST> 6.847683e+001
<STATE> 3
<MEAN> 25
 -4.297953e-001 1.124157e+000 3.116356e-002 2.091988e+000 2.101384e-003 6.451426e-001 9.718449e-001 9.702972e-001 1.761918e+000 1.722668e+000 1.343356e+000 8.012983e-001 -3.931609e-001 -3.172151e-001 -1.321438e-001 -1.023275e-002 5.293944e-002 1.034364e-001 9.075078e-002 1.827253e-002 3.022859e-003 4.611654e-002 5.927283e-002 -3.265430e-004 -1.918617e-001
<VARIANCE> 25
 3.042279e+001 2.226898e+001 1.087741e+001 1.088758e+001 9.112831e+000 9.451878e+000 9.132556e+000 9.379174e+000 9.178492e+000 8.637985e+000 7.003344e+000 6.664966e+000 3.625719e-001 4.085484e-001 7.087139e-001 8.619859e-001 5.192348e-001 7.504272e-001 7.999042e-001 7.864668e-001 8.860993e-001 1.091287e+000 7.907174e-001 6.928050e-001 1.371366e-001
<GCONST> 6.793150e+001
<STATE> 4
<MEAN> 25
 -3.781579e+000 -1.659552e+000 -1.508486e+000 1.583158e+000 -1.122889e-001 9.601472e-001 1.453908e+000 8.771924e-001 1.634243e+000 1.943394e+000 1.326150e+000 4.066305e-001 -1.932918e-001 -2.195780e-001 -1.713711e-001 -1.461390e-001 -3.839250e-002 2.733609e-002 4.167397e-002 -1.182153e-002 -8.395442e-002 -8.424745e-002 -3.708312e-002 5.848271e-003 -7.310873e-002
<VARIANCE> 25
 1.968778e+001 1.587024e+001 1.033650e+001 1.013436e+001 7.800979e+000 8.633638e+000 9.698458e+000 9.769856e+000 9.743318e+000 9.222758e+000 6.831971e+000 7.111683e+000 4.476602e-001 3.858338e-001 6.573421e-001 9.330440e-001 6.379493e-001 7.763035e-001 8.661937e-001 8.686517e-001 9.976003e-001 1.119170e+000 8.053657e-001 8.245745e-001 1.646843e-001
<GCONST> 6.815079e+001
<TRANSP> 5
 0.000000e+000 1.000000e+000 0.000000e+000 0.000000e+000 0.000000e+000
 0.000000e+000 7.076540e-001 2.923460e-001 0.000000e+000 0.000000e+000
 0.000000e+000 0.000000e+000 7.404098e-001 2.595902e-001 0.000000e+000
 0.000000e+000 0.000000e+000 0.000000e+000 9.084045e-001 9.159546e-002
 0.000000e+000 0.000000e+000 0.000000e+000 0.000000e+000 0.000000e+000
<ENDHMM>
~h "ny"
<BEGINHMM>
<NUMSTATES> 5
<STATE> 2
<MEAN> 25
 -1.891913e+000 -3.665703e-001 1.520400e+000 2.607190e+000 1.435570e+000 5.088248e-001 -8.232320e-001 -9.710956e-001 3.806565e-001 7.234759e-001 4.152267e-001 -9.854095e-001 2.368524e-001 3.037525e-001 3.495340e-001 1.874746e-001 1.948471e-001 2.226715e-003 -2.571130e-002 1.806387e-002 -2.860917e-002 -1.688707e-001 -7.210780e-002 -9.290036e-002 1.531158e-001
<VARIANCE> 25
 3.972211e+001 3.214662e+001 3.579368e+001 2.725329e+001 1.364948e+001 1.477438e+001 2.026675e+001 1.191938e+001 1.168424e+001 1.057294e+001 9.103797e+000 1.458571e+001 1.002380e+000 1.301566e+000 2.262274e+000 1.604017e+000 1.235645e+000 1.769158e+000 2.039749e+000 1.373363e+000 1.275151e+000 1.147880e+000 9.703523e-001 1.279935e+000 5.339809e-001
<GCONST> 8.381841e+001
<STATE> 3
<MEAN> 25
 -6.104777e-001 8.109308e-001 3.048983e+000 2.671505e+000 2.217057e+000 -1.808727e-001 -1.547902e+000 -8.319570e-001 2.215710e-001 -3.681977e-002 4.696504e-001 -1.123969e+000 3.166357e-001 1.822769e-001 2.449081e-001 -2.054150e-001 1.711161e-001 -1.922245e-001 -2.101860e-001 5.378999e-002 -8.406145e-002 -1.835387e-001 5.051734e-002 6.147345e-002 3.661747e-001
<VARIANCE> 25
 4.387030e+001 3.410791e+001 4.645988e+001 3.183460e+001 1.603102e+001 1.818489e+001 2.853525e+001 1.315555e+001 1.204897e+001 1.234366e+001 1.015908e+001 1.861496e+001 1.038062e+000 1.368807e+000 2.606956e+000 1.759712e+000 1.324535e+000 2.024163e+000 3.146547e+000 1.696232e+000 1.490969e+000 1.373034e+000 1.120747e+000 1.292136e+000 6.375544e-001
<GCONST> 8.757658e+001
<STATE> 4
<MEAN> 25
 3.633424e+000 1.253461e+000 2.968179e+000 -4.779127e-001 4.186786e+000 -1.113401e+000 -4.986773e+000 -1.610471e+000 -2.333338e-001 -5.734658e-001 2.017855e+000 1.435543e+000 5.371660e-001 -5.399330e-002 -5.454772e-001 -8.773223e-001 -1.431854e-001 2.621506e-001 2.073556e-001 3.253869e-002 -3.077556e-001 -1.301564e-001 9.410134e-002 5.330861e-001 4.031475e-001
<VARIANCE> 25
 4.428330e+001 2.346862e+001 5.048161e+001 4.295183e+001 2.186109e+001 2.839649e+001 6.149144e+001 2.006992e+001 1.680541e+001 1.437875e+001 1.260895e+001 3.022361e+001 1.157184e+000 1.575473e+000 3.452570e+000 2.314468e+000 2.124306e+000 3.162338e+000 7.108196e+000 2.671674e+000 2.207727e+000 1.791497e+000 1.364191e+000 1.959363e+000 8.438698e-001
<GCONST> 9.527045e+001
<TRANSP> 5
 0.000000e+000 1.000000e+000 0.000000e+000 0.000000e+000 0.000000e+000
 0.000000e+000 7.526097e-001 2.473903e-001 0.000000e+000 0.000000e+000
 0.000000e+000 0.000000e+000 7.209019e-001 2.790981e-001 0.000000e+000
 0.000000e+000 0.000000e+000 0.000000e+000 8.812323e-001 1.187677e-001
 0.000000e+000 0.000000e+000 0.000000e+000 0.000000e+000 0.000000e+000
<ENDHMM>
~h "uw"
<BEGINHMM>
<NUMSTATES> 5
<STATE> 2
<MEAN> 25
 5.778318e+000 7.994076e+000 5.562273e+000 1.857240e+000 -3.450028e+000 -4.520650e+000 -3.441473e+000 -2.457419e-001 -5.329824e-002 -9.265031e-001 -1.922581e+000 -3.517969e+000 -6.118821e-002 2.806458e-001 2.430200e-001 1.395959e-001 -1.245611e-001 -2.140998e-001 -2.787711e-001 6.252639e-003 3.601115e-001 2.708252e-001 -1.047320e-001 -2.680114e-001 -1.522754e-001
<VARIANCE> 25
 3.810752e+001 4.188984e+001 2.731308e+001 1.396453e+001 1.504364e+001 2.245739e+001 1.803695e+001 1.453448e+001 1.382557e+001 2.229235e+001 1.728609e+001 1.386819e+001 1.522073e+000 2.816729e+000 1.899210e+000 1.330600e+000 1.505556e+000 2.077783e+000 2.021360e+000 1.440142e+000 1.608266e+000 2.092006e+000 1.670924e+000 1.326831e+000 5.257522e-001
<GCONST> 8.782627e+001
<STATE> 3
<MEAN> 25
 4.157124e+000 6.912549e+000 5.079161e+000 2.382717e+000 -2.980855e+000 -4.024593e+000 -3.206899e+000 -4.008337e-001 6.527359e-001 -5.779105e-002 -1.614983e+000 -3.383458e+000 -5.189111e-001 -3.948892e-001 -1.970352e-001 1.542272e-001 2.166335e-001 2.391186e-001 1.260931e-001 -2.786457e-002 1.928810e-001 2.416756e-001 1.102010e-001 5.111800e-002 -2.943450e-001
<VARIANCE> 25
 3.907695e+001 4.183635e+001 2.539672e+001 1.228755e+001 1.457792e+001 1.988677e+001 1.600458e+001 1.354023e+001 1.271683e+001 1.729708e+001 1.591286e+001 1.264226e+001 1.102213e+000 1.678761e+000 1.367177e+000 1.042467e+000 1.186650e+000 1.533038e+000 1.427174e+000 1.341950e+000 1.310594e+000 1.525348e+000 1.281294e+000 1.021769e+000 3.217464e-001
<GCONST> 8.288121e+001
<STATE> 4
<MEAN> 25
 7.943997e-001 3.695158e+000 3.099412e+000 2.637795e+000 -1.616094e+000 -2.228462e+000 -2.102143e+000 -6.318569e-001 7.748043e-001 2.155440e-001 -1.351555e+000 -2.813277e+000 -5.801594e-001 -5.893931e-001 -3.696112e-001 5.075289e-002 2.883746e-001 3.543661e-001 2.233203e-001 -4.830256e-003 3.866581e-002 5.027318e-002 5.591348e-002 9.976081e-002 -2.766499e-001
<VARIANCE> 25
 3.568858e+001 3.784776e+001 2.218847e+001 1.102159e+001 1.393115e+001 1.820705e+001 1.420374e+001 1.163759e+001 1.318142e+001 1.490748e+001 1.200421e+001 1.033664e+001 1.033713e+000 1.237123e+000 1.005477e+000 9.827874e-001 1.100058e+000 1.276908e+000 1.198109e+000 1.302175e+000 1.304996e+000 1.312171e+000 1.141894e+000 9.532952e-001 2.995295e-001
<GCONST> 7.983589e+001
<TRANSP> 5
 0.000000e+000 1.000000e+000 0.000000e+000 0.000000e+000 0.000000e+000
 0.000000e+000 7.170154e-001 2.829846e-001 0.000000e+000 0.000000e+000
 0.000000e+000 0.000000e+000 7.248983e-001 2.751017e-001 0.000000e+000
 0.000000e+000 0.000000e+000 0.000000e+000 8.632920e-001 1.367080e-001
 0.000000e+000 0.000000e+000 0.000000e+000 0.000000e+000 0.000000e+000
<ENDHMM>
~h "sil"
<BEGINHMM>
<NUMSTATES> 5
<STATE> 2
<MEAN> 25
 -4.389637e+000 -3.400730e+000 -2.804522e+000 -4.885116e-001 -5.316360e-001 7.577984e-002 3.541339e-001 1.553490e-001 9.963796e-001 1.381449e+000 8.857732e-001 3.188733e-001 -4.136882e-002 -3.011346e-002 -2.784916e-002 -1.914284e-002 -1.756184e-002 -1.088761e-002 8.208412e-003 2.597911e-002 2.911647e-002 1.548671e-002 -9.430754e-003 -1.639462e-002 -2.527674e-002
<VARIANCE> 25
 3.710699e+001 1.495825e+001 1.351637e+001 2.170546e+001 1.160460e+001 1.164576e+001 1.093546e+001 1.211156e+001 1.308888e+001 1.022506e+001 8.919031e+000 9.511065e+000 8.054277e-001 5.928001e-001 7.965574e-001 1.139202e+000 8.438522e-001 9.842669e-001 1.070601e+000 1.051532e+000 1.106450e+000 9.628639e-001 9.191325e-001 8.421020e-001 4.697188e-001
<GCONST> 7.522516e+001
<STATE> 3
<MEAN> 25
 -7.448055e+000 -4.934344e+000 -3.057234e+000 9.548789e-001 -7.337961e-001 -2.207528e-001 1.157782e-001 -4.052342e-002 1.593175e+000 2.066507e+000 8.137411e-001 -1.734024e-001 -1.127553e-002 -8.851330e-003 -5.863922e-003 -2.137906e-003 -3.137301e-003 -1.691638e-003 5.698126e-003 4.016357e-003 5.398495e-003 1.024365e-002 1.268050e-002 1.091331e-002 -5.568485e-003
<VARIANCE> 25
 8.703068e-001 1.240020e+000 1.989086e+000 3.617840e+000 4.468299e+000 5.035436e+000 5.554182e+000 6.118222e+000 6.149149e+000 5.831358e+000 6.020098e+000 5.422544e+000 5.353205e-002 1.055536e-001 1.791496e-001 2.938215e-001 4.003962e-001 4.895328e-001 5.821801e-001 6.441852e-001 6.535182e-001 6.103949e-001 6.359983e-001 5.515959e-001 1.605962e-002
<GCONST> 4.487260e+001
<STATE> 4
<MEAN> 25
 -5.829010e+000 -3.749770e+000 -2.498100e+000 6.960070e-001 -4.969214e-001 8.682228e-002 1.518902e-001 1.137439e-001 1.451860e+000 1.694786e+000 6.206731e-001 -2.868418e-001 8.631659e-004 -5.421746e-004 -6.798480e-004 -8.199085e-003 -1.150271e-003 1.039322e-002 9.070033e-003 1.441058e-002 3.985296e-003 -1.013211e-002 -4.918248e-003 -5.775844e-003 2.490639e-003
<VARIANCE> 25
 2.063700e+001 1.289193e+001 1.107262e+001 9.944252e+000 7.649699e+000 8.125941e+000 9.075010e+000 7.937899e+000 8.842567e+000 8.958694e+000 8.150921e+000 8.789915e+000 2.207389e-001 2.860967e-001 4.269731e-001 5.505757e-001 5.825003e-001 6.608317e-001 7.959885e-001 7.699481e-001 8.410338e-001 8.139673e-001 8.398190e-001 7.717565e-001 1.003525e-001
<GCONST> 6.451694e+001
<TRANSP> 5
 0.000000e+000 1.000000e+000 0.000000e+000 0.000000e+000 0.000000e+000
 0.000000e+000 9.410822e-001 5.891772e-002 0.000000e+000 0.000000e+000
 0.000000e+000 0.000000e+000 9.618962e-001 3.810377e-002 0.000000e+000
 0.000000e+000 0.000000e+000 0.000000e+000 9.788208e-001 2.117923e-002
 0.000000e+000 0.000000e+000 0.000000e+000 0.000000e+000 0.000000e+000
<ENDHMM>
