~o
<STREAMINFO> 1 25
<VECSIZE> 25<NULLD><MFCC_D_N_Z_0><DIAGC>
~s "silst"
<MEAN> 25
 -5.274287e+000 -2.666658e+000 -2.103343e+000 8.384683e-001 -9.660407e-001 6.050144e-001 -8.854108e-002 -6.837507e-001 6.078680e-001 1.750010e+000 1.084250e+000 3.050144e-001 -7.390716e-002 -4.733923e-002 2.473935e-003 2.913579e-002 1.036819e-002 -1.577365e-002 -1.349863e-002 -2.375390e-003 -7.739679e-003 1.114498e-003 7.864530e-003 8.879965e-003 -3.756505e-002
<VARIANCE> 25
 3.157089e+000 2.179495e+000 4.131822e+000 6.531500e+000 6.076105e+000 5.867531e+000 6.786305e+000 6.927358e+000 7.419067e+000 6.815529e+000 6.807122e+000 6.571347e+000 1.007136e-001 1.597112e-001 2.980911e-001 3.857132e-001 4.581259e-001 5.654784e-001 6.325618e-001 6.483530e-001 7.013506e-001 6.901960e-001 6.907948e-001 6.407614e-001 4.251133e-002
<GCONST> 5.308576e+001
~h "a"
<BEGINHMM>
<NUMSTATES> 5
<STATE> 2
<MEAN> 25
 7.047486e+000 2.174516e-001 -5.972257e+000 -7.684858e+000 5.456296e-001 -1.702755e+000 2.286964e+000 3.612968e+000 -2.510177e-002 -1.277908e+000 -7.260545e-001 3.370631e+000 1.253572e+000 2.114708e-001 -9.099516e-001 -9.589500e-001 3.477406e-001 -2.604147e-001 3.773643e-001 5.150650e-001 1.706579e-001 -2.792611e-001 -2.372804e-001 5.182631e-001 9.678280e-001
<VARIANCE> 25
 2.954900e+001 1.630586e+001 2.394993e+001 2.146228e+001 1.907792e+001 1.825103e+001 1.619915e+001 1.916820e+001 1.683500e+001 1.833482e+001 1.649433e+001 1.542029e+001 1.618154e+000 1.614601e+000 2.031700e+000 1.826002e+000 1.492295e+000 1.645049e+000 2.014099e+000 1.372852e+000 1.713322e+000 1.398700e+000 1.159652e+000 1.135313e+000 9.782155e-001
<GCONST> 8.654220e+001
<STATE> 3
<MEAN> 25
 1.073665e+001 3.118078e+000 -5.739295e+000 -8.455131e+000 9.750525e-001 -2.254159e+000 3.568017e+000 5.310382e+000 1.041815e+000 -2.010381e+000 -2.189008e+000 4.525500e+000 -1.931869e-001 1.964412e-001 2.329311e-001 1.688917e-001 -3.716036e-002 2.984380e-001 1.058686e-001 -1.428198e-001 -1.326061e-001 3.752007e-001 2.133031e-001 -1.292093e-001 -2.760702e-001
<VARIANCE> 25
 3.264467e+000 7.616435e+000 8.301764e+000 1.053417e+001 1.193855e+001 1.967154e+001 8.827971e+000 1.471820e+001 1.631016e+001 1.470800e+001 1.272107e+001 1.061193e+001 1.609194e-001 4.331548e-001 6.442028e-001 5.994695e-001 6.358719e-001 8.649473e-001 6.576158e-001 8.086505e-001 1.092070e+000 1.026108e+000 8.562487e-001 6.677937e-001 1.852934e-001
<GCONST> 6.736752e+001
<STATE> 4
<MEAN> 25
 5.991550e+000 2.992407e+000 -1.950825e+000 -4.399090e+000 3.713849e-001 8.297572e-001 3.134328e+000 2.556588e+000 -5.052953e-001 -4.172950e-001 -8.327402e-002 2.700737e+000 -1.408732e+000 -4.306056e-002 1.179254e+000 1.659923e+000 -1.293851e-001 6.103157e-001 -3.498498e-001 -8.579244e-001 -6.976029e-002 3.252750e-001 2.086824e-001 -8.174871e-001 -1.236113e+000
<VARIANCE> 25
 2.201823e+001 1.388932e+001 1.710961e+001 2.301396e+001 1.771636e+001 2.310117e+001 1.727382e+001 2.314652e+001 2.306398e+001 1.285232e+001 1.480161e+001 1.491801e+001 1.119285e+000 1.521857e+000 2.135831e+000 2.147222e+000 1.435589e+000 2.025382e+000 1.690526e+000 1.623025e+000 1.686714e+000 1.527015e+000 1.410974e+000 1.164656e+000 5.584501e-001
<GCONST> 8.573270e+001
<TRANSP> 5
 0.000000e+000 1.000000e+000 0.000000e+000 0.000000e+000 0.000000e+000
 0.000000e+000 6.604745e-001 3.395255e-001 0.000000e+000 0.000000e+000
 0.000000e+000 0.000000e+000 8.096533e-001 1.903467e-001 0.000000e+000
 0.000000e+000 0.000000e+000 0.000000e+000 7.361915e-001 2.638085e-001
 0.000000e+000 0.000000e+000 0.000000e+000 0.000000e+000 0.000000e+000
<ENDHMM>
~h "b"
<BEGINHMM>
<NUMSTATES> 5
<STATE> 2
<MEAN> 25
 -3.470677e+000 -3.122427e+000 -2.761664e+000 -1.198323e+000 -6.997389e-001 2.573636e+000 8.892576e-001 -1.480783e+000 -3.715755e-001 6.219150e-001 1.366084e+000 1.410056e+000 1.059233e-001 -1.326167e-001 -4.070405e-001 -3.022833e-001 -2.662336e-001 -1.403150e-001 -7.553940e-002 -3.167069e-002 -2.113893e-001 -2.808550e-001 -4.389891e-002 1.031916e-001 2.570708e-002
<VARIANCE> 25
 6.613210e+000 1.010672e+001 1.737016e+001 2.087275e+001 1.550657e+001 1.449040e+001 1.477958e+001 1.214962e+001 1.391896e+001 1.500047e+001 7.331395e+000 1.161411e+001 4.509436e-001 7.283658e-001 2.294478e+000 1.586663e+000 1.040157e+000 1.107412e+000 1.490088e+000 9.610412e-001 1.093795e+000 1.533604e+000 8.660611e-001 1.235216e+000 3.199397e-001
<GCONST> 7.655778e+001
<STATE> 3
<MEAN> 25
 -3.479995e+000 -2.981460e+000 -3.763577e+000 -1.430601e+000 -2.348392e+000 7.159058e-003 -6.828499e-001 -1.477806e+000 -4.712438e-001 1.109923e+000 7.532723e-001 9.687536e-002 3.155305e-002 1.482591e-001 1.943170e-001 2.283753e-001 1.806570e-001 1.178885e-001 8.594108e-002 1.275908e-001 1.447468e-001 1.270450e-001 1.436287e-002 -9.878190e-002 -1.752448e-002
<VARIANCE> 25
 2.553569e+000 3.216669e+000 5.072071e+000 5.618794e+000 5.382772e+000 6.352077e+000 5.776763e+000 6.828422e+000 7.011178e+000 6.981654e+000 6.322090e+000 6.151705e+000 1.304438e-001 2.853295e-001 3.918227e-001 5.495934e-001 5.976282e-001 7.471967e-001 7.509367e-001 7.614328e-001 7.735380e-001 7.204043e-001 6.129732e-001 6.958013e-001 4.669686e-002
<GCONST> 5.546855e+001
<STATE> 4
<MEAN> 25
 5.177855e-001 3.823910e+000 4.594154e+000 7.308114e+000 5.219034e+000 5.891751e+000 3.449654e+000 1.762394e+000 1.993945e+000 2.274991e+000 5.098484e-001 -1.467318e+000 9.938869e-001 8.873079e-001 8.031833e-001 3.619202e-001 1.817271e-001 -5.484319e-002 -1.293064e-001 -1.605357e-001 -2.064110e-001 -2.174262e-001 -1.770783e-001 -1.275126e-001 5.755922e-001
<VARIANCE> 25
 7.707052e+000 1.056638e+001 1.402780e+001 1.396430e+001 8.944271e+000 9.312758e+000 7.726760e+000 6.856309e+000 7.341681e+000 6.451965e+000 6.749313e+000 6.807059e+000 7.171233e-001 1.310151e+000 1.793467e+000 2.648486e+000 2.836649e+000 2.818612e+000 2.209984e+000 1.373185e+000 9.751608e-001 8.326451e-001 6.846077e-001 7.151661e-001 3.594809e-001
<GCONST> 7.444111e+001
<TRANSP> 5
 0.000000e+000 1.000000e+000 0.000000e+000 0.000000e+000 0.000000e+000
 0.000000e+000 6.690072e-001 3.309928e-001 0.000000e+000 0.000000e+000
 0.000000e+000 0.000000e+000 9.011758e-001 9.882421e-002 0.000000e+000
 0.000000e+000 0.000000e+000 0.000000e+000 8.774968e-001 1.225032e-001
 0.000000e+000 0.000000e+000 0.000000e+000 0.000000e+000 0.000000e+000
<ENDHMM>
~h "c"
<BEGINHMM>
<NUMSTATES> 5
<STATE> 2
<MEAN> 25
 -3.055685e+000 -6.019627e+000 -4.285367e+000 -2.033357e-001 -2.927916e+000 -3.181072e+000 3.099932e+000 -1.196028e-001 -1.103448e+000 -2.413799e+000 4.099778e+000 3.791538e-002 3.179424e-001 -2.685517e+000 3.861080e-001 -1.441191e+000 -1.004345e+000 -2.095340e+000 1.057168e+000 -3.784721e-001 -1.361992e+000 -2.621175e+000 1.112191e+000 -5.592878e-001 3.063616e+000
<VARIANCE> 25
 5.369937e+000 1.645025e+001 1.085042e+001 1.107637e+001 1.057320e+001 1.599679e+001 1.846467e+001 3.533633e+000 1.205609e+001 3.223432e+001 8.374945e+000 7.513983e+000 5.996109e-001 9.339771e-001 2.675550e+000 9.500644e-001 8.751107e-001 8.405899e-001 7.089629e-001 9.342785e-001 6.876973e-001 7.978510e-001 2.856979e-001 9.687284e-001 5.612772e-001
<GCONST> 7.180240e+001
<STATE> 3
<MEAN> 25
 -3.828640e+000 -1.628704e+001 4.664647e+000 -4.437263e+000 -2.019360e+000 -9.245693e+000 3.571679e+000 5.399680e-001 -3.722027e+000 -6.692953e+000 5.898924e+000 1.398619e+000 1.171802e+000 4.033362e-001 1.170690e+000 9.149982e-001 1.430751e+000 4.669610e-001 -1.260140e+000 2.438461e-001 -7.141598e-002 9.710784e-002 -5.525774e-001 4.625419e-001 4.714448e-001
<VARIANCE> 25
 9.757687e+000 9.318813e+000 1.265781e+001 1.388086e+001 8.334047e+000 1.279634e+001 1.226087e+001 8.833506e+000 8.049356e+000 7.716270e+000 5.175375e+000 7.139042e+000 2.980733e+000 8.426735e+000 3.856721e+000 4.311554e+000 1.765670e+000 3.662049e+000 1.926952e+000 9.830272e-001 1.539687e+000 2.241138e+000 8.445191e-001 1.500724e+000 2.684344e+000
<GCONST> 8.372172e+001
<STATE> 4
<MEAN> 25
 5.196739e+000 3.117110e+000 1.186329e+001 9.099736e+000 6.752323e+000 -1.219966e+000 -8.265781e+000 1.921389e+000 -5.556823e+000 -1.090526e+001 -3.502457e+000 -4.847583e+000 3.360784e-001 1.135350e+000 -2.339031e-001 3.527140e-001 2.557904e-001 3.375669e-001 -2.192583e-001 -2.324125e-001 9.013902e-002 1.995513e-001 -3.911918e-001 -6.039576e-002 -5.113781e-001
<VARIANCE> 25
 1.586662e+000 1.715875e+001 1.299087e+001 9.355209e+000 5.088027e+000 2.271119e+000 1.842130e+001 7.381505e+000 5.653196e+000 1.961510e+001 1.015157e+001 1.543679e+001 1.743569e+000 4.279590e+000 1.444556e+000 1.395061e+000 1.101495e+000 7.871686e-001 2.407504e+000 8.356331e-001 7.491691e-001 1.493609e+000 9.012854e-001 1.619685e+000 1.295265e-001
<GCONST> 7.288754e+001
<TRANSP> 5
 0.000000e+000 1.000000e+000 0.000000e+000 0.000000e+000 0.000000e+000
 0.000000e+000 7.142972e-001 2.857029e-001 0.000000e+000 0.000000e+000
 0.000000e+000 0.000000e+000 8.095218e-001 1.904782e-001 0.000000e+000
 0.000000e+000 0.000000e+000 0.000000e+000 8.724363e-001 1.275637e-001
 0.000000e+000 0.000000e+000 0.000000e+000 0.000000e+000 0.000000e+000
<ENDHMM>
~h "d"
<BEGINHMM>
<NUMSTATES> 5
<STATE> 2
<MEAN> 25
 2.532403e+000 2.181921e+000 1.114604e+001 9.605369e+000 8.922287e+000 3.180916e+000 -5.216978e+000 1.687728e+000 3.380251e+000 -4.087775e+000 -4.033972e+000 -4.327239e+000 1.309568e-001 -2.225139e-001 7.723419e-002 -6.686568e-002 1.853744e-001 -3.401540e-001 -6.348225e-001 6.746550e-002 2.056476e-001 -2.953569e-001 3.681741e-002 1.017999e-001 3.051415e-001
<VARIANCE> 25
 6.381642e+000 1.579781e+001 2.212792e+001 1.371282e+001 1.967836e+001 2.787890e+001 7.626385e+001 1.772235e+001 2.783323e+001 3.723095e+001 1.601274e+001 1.398122e+001 6.370637e-001 2.118265e+000 2.524156e+000 1.916788e+000 2.345743e+000 3.005836e+000 7.964542e+000 2.640892e+000 2.377783e+000 4.637960e+000 2.264947e+000 1.696276e+000 1.241677e+000
<GCONST> 9.298472e+001
<STATE> 3
<MEAN> 25
 5.358889e+000 2.317895e+000 6.463454e+000 6.432581e+000 1.033995e+001 9.394354e-001 -9.798536e+000 -4.846779e+000 1.151050e+000 -9.609250e-001 9.163153e-001 -9.606977e-001 -1.153266e-001 1.332945e+000 -6.800936e-001 -8.527955e-002 -9.212411e-001 1.804076e+000 3.079709e+000 -1.793697e-001 -1.077005e+000 1.136468e+000 2.075169e-001 -1.303816e-001 -1.238446e+000
<VARIANCE> 25
 5.705224e+000 1.346670e+001 7.515418e+000 1.893954e+001 1.463512e+001 3.819193e+001 7.259517e+001 1.902217e+001 1.950784e+001 1.017586e+001 1.518239e+001 1.412513e+001 5.177165e-001 6.751895e-001 1.092390e+000 2.475445e+000 1.114207e+000 3.151390e+000 3.037151e+000 3.700735e+000 2.981568e+000 1.503462e+000 2.533122e+000 1.391371e+000 5.943663e-001
<GCONST> 8.532105e+001
<STATE> 4
<MEAN> 25
 3.561890e+000 5.640781e+000 5.330383e+000 8.625525e+000 6.935897e+000 5.834848e+000 1.319934e+000 -5.265708e-001 4.095458e-001 7.360134e-001 -8.122892e-002 -1.386436e+000 -2.920789e-001 -9.355142e-002 -8.473618e-002 -2.004531e-002 -1.348565e-001 9.668875e-002 5.525431e-001 4.375987e-001 1.996289e-001 2.775867e-001 1.738275e-001 1.179465e-001 -2.261037e-001
<VARIANCE> 25
 5.084702e+000 3.562731e+000 4.675305e+000 4.625782e+000 5.316125e+000 6.692338e+000 1.056140e+001 9.146867e+000 6.684681e+000 6.676078e+000 7.283412e+000 9.097327e+000 1.439237e-001 3.071212e-001 3.885901e-001 5.393023e-001 4.863008e-001 6.573764e-001 7.929103e-001 6.914724e-001 6.142619e-001 7.794527e-001 6.266817e-001 6.590871e-001 5.817892e-002
<GCONST> 5.716384e+001
<TRANSP> 5
 0.000000e+000 1.000000e+000 0.000000e+000 0.000000e+000 0.000000e+000
 0.000000e+000 9.351079e-001 6.489214e-002 0.000000e+000 0.000000e+000
 0.000000e+000 0.000000e+000 7.137169e-001 2.862830e-001 0.000000e+000
 0.000000e+000 0.000000e+000 0.000000e+000 7.815191e-001 2.184809e-001
 0.000000e+000 0.000000e+000 0.000000e+000 0.000000e+000 0.000000e+000
<ENDHMM>
~h "e"
<BEGINHMM>
<NUMSTATES> 5
<STATE> 2
<MEAN> 25
 1.268542e+000 -6.566176e-001 -1.510635e+000 -7.078137e-001 -7.478185e-001 -2.853920e-001 2.787757e-001 -1.846319e+000 -2.443958e+000 -1.382278e+000 3.749360e-001 1.867355e+000 2.463050e+000 1.043565e+000 1.775909e-001 -3.627037e-001 5.519283e-001 -5.344475e-001 -1.659146e-001 -1.875391e-001 -6.755785e-001 -5.494046e-001 5.770290e-002 5.221350e-001 1.756691e+000
<VARIANCE> 25
 4.416520e+001 2.069942e+001 1.084229e+001 1.741591e+001 1.412677e+001 1.748531e+001 1.282671e+001 1.923360e+001 2.370164e+001 1.580683e+001 9.104234e+000 1.470324e+001 2.604116e+000 2.014697e+000 2.123387e+000 2.785693e+000 3.248349e+000 2.175731e+000 2.167454e+000 3.526922e+000 3.024489e+000 1.536728e+000 1.479082e+000 1.929733e+000 1.752886e+000
<GCONST> 9.041725e+001
<STATE> 3
<MEAN> 25
 8.670680e+000 2.545688e+000 -1.633484e+000 -3.732001e-001 2.535221e+000 -3.050436e+000 -3.063444e+000 -2.509460e+000 -2.804184e+000 -6.487334e-001 1.117558e+000 9.747604e-001 -1.045903e-001 2.181735e-001 6.221960e-001 1.262316e+000 8.795436e-001 3.855539e-002 -9.183569e-001 -6.146919e-001 2.751489e-001 1.084370e+000 3.333901e-001 -5.077711e-001 -2.043920e-001
<VARIANCE> 25
 2.340834e+001 2.057045e+001 3.498273e+001 3.211293e+001 4.388513e+001 2.754502e+001 4.155925e+001 3.980132e+001 3.948558e+001 2.010081e+001 1.874148e+001 2.279937e+001 2.223500e+000 1.942184e+000 1.905289e+000 2.411267e+000 1.755987e+000 2.703919e+000 2.486191e+000 1.650370e+000 1.344423e+000 1.723401e+000 1.319376e+000 1.057219e+000 1.519982e+000
<GCONST> 9.393951e+001
<STATE> 4
<MEAN> 25
 5.972250e+000 1.753040e+000 -3.695837e-001 4.882473e+000 6.596405e+000 -2.132269e+000 -7.923656e+000 -6.790730e+000 -2.736595e-001 5.805721e+000 1.751706e+000 -2.522361e+000 -6.235749e-001 -1.599584e-002 2.367112e-001 1.906325e-001 -2.243818e-001 3.396824e-001 2.444213e-001 2.844757e-001 4.442544e-001 5.530543e-002 -1.612281e-001 -2.658370e-001 -5.244031e-001
<VARIANCE> 25
 1.740528e+001 1.128616e+001 2.037687e+001 1.359606e+001 1.424479e+001 1.677545e+001 2.181235e+001 1.781971e+001 1.760390e+001 2.135624e+001 1.598533e+001 1.681791e+001 4.500638e-001 7.779547e-001 1.160634e+000 1.310770e+000 8.923011e-001 1.106071e+000 1.360862e+000 8.809675e-001 9.629176e-001 1.239428e+000 1.064891e+000 1.336285e+000 2.622682e-001
<GCONST> 7.854374e+001
<TRANSP> 5
 0.000000e+000 1.000000e+000 0.000000e+000 0.000000e+000 0.000000e+000
 0.000000e+000 7.204271e-001 2.795729e-001 0.000000e+000 0.000000e+000
 0.000000e+000 0.000000e+000 6.789713e-001 3.210287e-001 0.000000e+000
 0.000000e+000 0.000000e+000 0.000000e+000 8.327411e-001 1.672589e-001
 0.000000e+000 0.000000e+000 0.000000e+000 0.000000e+000 0.000000e+000
<ENDHMM>
~h "f"
<BEGINHMM>
<NUMSTATES> 5
<STATE> 2
<MEAN> 25
 -5.113437e+000 -8.324389e+000 -7.578192e-001 -2.050555e+000 4.805157e+000 -4.717906e-001 6.613321e-001 -8.209592e+000 4.673194e-001 -2.510777e+000 1.208578e+000 1.588785e+000 2.358851e-001 1.264401e-001 2.472287e-001 4.136383e-001 2.226257e-001 -2.245076e-001 -4.470318e-001 4.023753e-002 5.069783e-002 -2.519432e-001 -2.899629e-001 -2.105863e-001 1.212107e-001
<VARIANCE> 25
 1.884421e+001 1.444791e+001 1.142605e+001 5.051382e+001 2.097925e+001 1.682155e+001 3.024799e+001 1.531785e+001 1.458149e+001 2.127390e+001 1.012128e+001 1.817364e+001 2.914393e+000 3.830254e+000 2.702543e+000 9.844432e+000 2.768372e+000 1.481306e+000 4.413925e+000 2.827856e+000 1.782694e+000 3.107755e+000 2.232514e+000 3.032423e+000 4.173752e-001
<GCONST> 9.324822e+001
<STATE> 3
<MEAN> 25
 4.320720e+000 6.880438e-001 1.317762e+001 1.633404e+001 1.094161e+001 -6.007994e-001 -1.298950e+001 1.820306e+000 2.488652e+000 -1.030931e+001 -8.240194e+000 -5.847021e+000 -5.744442e-002 9.575651e-001 1.584538e+000 -4.070832e-002 -4.731526e-001 2.770005e-001 2.904803e-001 1.132903e+000 -5.524656e-001 -1.726624e+000 -2.753530e-001 1.867311e-001 -1.386552e-001
<VARIANCE> 25
 2.956557e+000 7.975353e+000 1.301321e+001 9.057909e+000 6.253625e+000 1.179809e+001 1.049802e+001 1.219169e+001 1.133909e+001 1.089731e+001 4.278120e+000 6.498361e+000 4.742954e-001 1.237325e+000 2.664474e+000 2.394977e+000 7.311696e-001 1.591200e+000 3.042792e+000 1.201074e+000 1.192103e+000 3.205949e+000 2.058336e+000 6.412852e-001 2.815652e-001
<GCONST> 7.429052e+001
<STATE> 4
<MEAN> 25
 2.648829e+000 3.881822e+000 1.196846e+001 1.080355e+001 7.614599e+000 4.260381e+000 -4.996956e+000 3.506838e+000 -4.200463e-001 -8.625092e+000 -3.812007e+000 -4.900366e+000 -1.785758e-001 3.451030e-004 -4.841340e-001 -3.881179e-001 -3.331756e-001 1.627280e-001 6.762349e-001 1.363914e-002 1.209853e-001 6.153243e-001 3.542996e-001 2.718790e-001 -2.291855e-001
<VARIANCE> 25
 2.310915e+000 3.920092e+000 8.452613e+000 8.735633e+000 6.866035e+000 9.450847e+000 1.119192e+001 8.849317e+000 8.401507e+000 1.326912e+001 8.591484e+000 7.363802e+000 9.574642e-002 4.075261e-001 4.961984e-001 5.065484e-001 4.180757e-001 9.400006e-001 1.112071e+000 8.064892e-001 8.792937e-001 8.871873e-001 8.676754e-001 6.533924e-001 7.847256e-002
<GCONST> 6.105371e+001
<TRANSP> 5
 0.000000e+000 1.000000e+000 0.000000e+000 0.000000e+000 0.000000e+000
 0.000000e+000 9.343005e-001 6.569950e-002 0.000000e+000 0.000000e+000
 0.000000e+000 0.000000e+000 7.895564e-001 2.104436e-001 0.000000e+000
 0.000000e+000 0.000000e+000 0.000000e+000 9.099725e-001 9.002743e-002
 0.000000e+000 0.000000e+000 0.000000e+000 0.000000e+000 0.000000e+000
<ENDHMM>
~h "g"
<BEGINHMM>
<NUMSTATES> 5
<STATE> 2
<MEAN> 25
 -1.696843e-001 4.143358e+000 4.174815e+000 5.515390e+000 4.478656e+000 4.440140e+000 2.458003e+000 1.961598e-002 1.317324e-001 5.033048e-001 4.071077e-002 -5.956886e-001 -6.363187e-001 -4.439470e-001 -5.120537e-001 1.538131e-001 -2.559278e-001 2.351245e-001 9.959840e-001 6.513203e-001 8.962507e-001 6.271238e-001 4.809646e-001 6.022504e-001 -4.992588e-001
<VARIANCE> 25
 5.633319e+000 6.067480e+000 1.080801e+001 7.978234e+000 1.093156e+001 1.301955e+001 9.116615e+000 7.159129e+000 6.158881e+000 4.291743e+000 1.010627e+001 8.123245e+000 1.183539e-001 1.972188e-001 5.428675e-001 4.299300e-001 6.177723e-001 8.508456e-001 1.299935e+000 5.963693e-001 9.913344e-001 7.680732e-001 7.163793e-001 6.572902e-001 1.259435e-001
<GCONST> 6.154669e+001
<STATE> 3
<MEAN> 25
 -6.495228e-001 2.334351e+000 2.019245e+000 4.718071e+000 3.177766e+000 4.870024e+000 3.885002e+000 1.975662e+000 2.170117e+000 2.316074e+000 1.125589e+000 -2.042829e-002 -3.455704e-001 -6.123344e-001 -4.223680e-001 -2.862176e-001 -4.582940e-001 -2.653780e-001 -1.723707e-001 1.680339e-001 2.157555e-001 1.198791e-001 2.917023e-002 -8.571554e-002 -1.321043e-001
<VARIANCE> 25
 3.415953e+000 3.672175e+000 5.565993e+000 4.590888e+000 5.368824e+000 7.698671e+000 5.869774e+000 4.695000e+000 7.545335e+000 8.617569e+000 6.444259e+000 5.565334e+000 1.886929e-001 4.038395e-001 5.129926e-001 5.930032e-001 7.525242e-001 9.012229e-001 1.003188e+000 7.089148e-001 1.142809e+000 7.350383e-001 8.015458e-001 5.817802e-001 7.352906e-002
<GCONST> 5.846849e+001
<STATE> 4
<MEAN> 25
 2.805035e-001 -2.761029e+000 1.113150e+000 -1.578841e+000 2.447915e+000 2.066707e+000 8.077884e-001 -9.626355e-001 -2.097504e+000 -3.480555e+000 5.942500e-001 -2.912840e-001 2.877131e-002 -9.639292e-001 1.015270e+000 -1.165536e+000 3.724043e-001 -8.948926e-001 -9.485730e-001 -9.767670e-003 -3.460648e-001 -1.632569e+000 1.649368e-001 8.569307e-002 1.553609e+000
<VARIANCE> 25
 4.109782e+001 4.196275e+001 3.155888e+001 3.889638e+001 1.905774e+001 3.085225e+001 2.953627e+001 3.437556e+001 3.406904e+001 3.059797e+001 2.053878e+001 9.429707e+000 2.469543e+000 4.425665e+000 5.798794e+000 4.904682e+000 2.583294e+000 3.266423e+000 3.377263e+000 2.507542e+000 2.405533e+000 4.358769e+000 2.846102e+000 1.158855e+000 2.107219e+000
<GCONST> 1.003247e+002
<TRANSP> 5
 0.000000e+000 1.000000e+000 0.000000e+000 0.000000e+000 0.000000e+000
 0.000000e+000 3.213689e-001 6.786311e-001 0.000000e+000 0.000000e+000
 0.000000e+000 0.000000e+000 7.920538e-001 2.079462e-001 0.000000e+000
 0.000000e+000 0.000000e+000 0.000000e+000 8.225296e-001 1.774704e-001
 0.000000e+000 0.000000e+000 0.000000e+000 0.000000e+000 0.000000e+000
<ENDHMM>
~h "h"
<BEGINHMM>
<NUMSTATES> 5
<STATE> 2
<MEAN> 25
 1.911218e+000 -1.552128e+000 -4.406517e+000 -2.070245e+000 2.125978e-001 4.469635e+000 5.361194e+000 3.882491e+000 6.925266e-001 -1.245468e+000 1.279995e+000 3.953806e+000 -6.716130e-001 -6.778481e-001 -6.306191e-001 -2.752645e-001 -4.372948e-001 -2.281998e-001 -2.404979e-001 -3.028283e-001 -1.469326e-001 2.274315e-001 2.937747e-001 -1.554122e-002 -3.976808e-001
<VARIANCE> 25
 1.343449e+001 1.133510e+001 1.678833e+001 1.769047e+001 1.314619e+001 1.427223e+001 1.174291e+001 1.776354e+001 1.283471e+001 1.124960e+001 1.188947e+001 1.537369e+001 7.794493e-001 1.283539e+000 1.496994e+000 1.315892e+000 9.308122e-001 1.012376e+000 8.129203e-001 1.172146e+000 1.068784e+000 1.029092e+000 1.014799e+000 9.955596e-001 2.736849e-001
<GCONST> 7.680241e+001
<STATE> 3
<MEAN> 25
 -1.271554e+000 -3.023309e+000 -5.369122e+000 -2.382813e+000 -1.639497e+000 1.835687e+000 2.418409e+000 1.307183e+000 3.420953e-002 8.797970e-001 2.941555e+000 3.833112e+000 -3.973605e-001 1.484051e-001 3.445044e-001 3.251966e-001 3.835241e-002 -2.500571e-001 -3.578150e-001 -4.098503e-001 -4.935289e-002 2.411424e-001 -1.518670e-001 -3.845191e-001 -3.167025e-001
<VARIANCE> 25
 6.967678e+000 3.870859e+000 9.684629e+000 1.086661e+001 1.028502e+001 1.217256e+001 1.000899e+001 1.118549e+001 9.644416e+000 8.653672e+000 1.034502e+001 1.094001e+001 1.791304e-001 2.242013e-001 4.767818e-001 6.536969e-001 7.126634e-001 8.917813e-001 7.705802e-001 8.374962e-001 8.936774e-001 7.579524e-001 6.804569e-001 8.134838e-001 8.154283e-002
<GCONST> 6.383971e+001
<STATE> 4
<MEAN> 25
 -3.881805e+000 -2.467405e+000 -3.391590e+000 -1.100352e+000 -2.438565e+000 2.781617e-001 -1.162944e-001 -1.292634e+000 -3.766286e-001 1.185432e+000 5.357941e-001 3.168300e-003 -3.361846e-003 -9.575156e-003 -3.891458e-002 -5.486196e-002 -1.515126e-002 -1.192940e-002 4.791848e-003 1.653763e-002 -5.788969e-003 -2.088175e-002 -4.742905e-002 -3.920748e-002 -2.600862e-003
<VARIANCE> 25
 2.940765e+000 2.186347e+000 3.889114e+000 5.454330e+000 4.608890e+000 5.008004e+000 6.248635e+000 7.838695e+000 7.441502e+000 7.025254e+000 6.983142e+000 6.506481e+000 1.292147e-001 1.780734e-001 3.643286e-001 4.544388e-001 5.174291e-001 5.255083e-001 6.293907e-001 8.299993e-001 8.460217e-001 7.737523e-001 7.466401e-001 7.134462e-001 5.992753e-002
<GCONST> 5.427577e+001
<TRANSP> 5
 0.000000e+000 1.000000e+000 0.000000e+000 0.000000e+000 0.000000e+000
 0.000000e+000 7.461867e-001 2.538133e-001 0.000000e+000 0.000000e+000
 0.000000e+000 0.000000e+000 7.806086e-001 2.193914e-001 0.000000e+000
 0.000000e+000 0.000000e+000 0.000000e+000 9.071735e-001 9.282658e-002
 0.000000e+000 0.000000e+000 0.000000e+000 0.000000e+000 0.000000e+000
<ENDHMM>
~h "i"
<BEGINHMM>
<NUMSTATES> 5
<STATE> 2
<MEAN> 25
 2.415099e+000 -1.772603e-002 8.721829e+000 7.821238e+000 8.745481e+000 -1.151573e-001 -8.567325e+000 -9.228190e-001 1.111467e+000 -4.399790e+000 -3.495776e+000 -3.056754e+000 5.055065e-002 2.717172e-001 5.588067e-001 6.469552e-001 2.494715e-001 1.986376e-001 -2.234943e-001 2.598746e-001 2.127021e-002 -6.692669e-001 -4.238525e-001 -1.345851e-001 -1.182931e-001
<VARIANCE> 25
 1.994479e+001 1.445531e+001 4.242135e+001 3.594397e+001 2.485260e+001 2.592385e+001 4.671172e+001 2.828208e+001 1.701773e+001 3.055289e+001 2.835971e+001 1.307720e+001 1.586413e+000 1.651068e+000 5.189203e+000 5.163386e+000 3.204851e+000 2.760151e+000 5.591041e+000 2.427145e+000 1.674646e+000 4.446688e+000 3.220983e+000 1.518177e+000 1.415810e+000
<GCONST> 9.774603e+001
<STATE> 3
<MEAN> 25
 -2.137060e+000 -1.649337e+000 1.712760e+000 1.948853e+000 2.323996e+000 1.659296e+000 -1.884301e+000 -9.742489e-001 3.454632e-001 -1.047553e+000 -3.921482e-001 -5.602243e-001 -2.705515e-001 -2.831024e-001 -7.060817e-001 -5.441108e-001 -3.383648e-001 2.155282e-002 2.252080e-001 -2.565448e-001 -1.530217e-001 3.480872e-001 1.916576e-001 1.443653e-001 -2.330074e-001
<VARIANCE> 25
 1.146232e+001 1.048868e+001 5.026554e+001 3.059222e+001 2.310061e+001 1.754396e+001 2.782431e+001 2.187986e+001 1.214835e+001 2.538021e+001 1.576755e+001 1.129349e+001 4.675638e-001 9.249432e-001 2.402143e+000 1.664357e+000 1.907569e+000 1.569941e+000 1.719321e+000 1.587315e+000 1.215282e+000 1.536568e+000 1.249509e+000 7.629818e-001 3.573470e-001
<GCONST> 8.359985e+001
<STATE> 4
<MEAN> 25
 1.020838e+000 9.954803e-001 1.070677e+001 8.302451e+000 8.012670e+000 3.159434e+000 -5.772576e+000 2.621103e+000 1.199318e+000 -6.490010e+000 -2.984040e+000 -3.467929e+000 2.739061e-002 -7.489740e-002 -8.788751e-001 -2.266227e-001 -2.066952e-001 -1.537726e-002 2.151427e-001 -3.427418e-001 -1.295391e-002 6.522022e-001 3.035696e-001 1.765382e-001 -2.069324e-001
<VARIANCE> 25
 8.905186e+000 1.078763e+001 4.766440e+001 2.118238e+001 2.115593e+001 1.649432e+001 3.221289e+001 2.105375e+001 1.367239e+001 3.361187e+001 1.307043e+001 1.149514e+001 6.107482e-001 9.970269e-001 1.514410e+000 1.748257e+000 1.317841e+000 1.247268e+000 2.012671e+000 1.628033e+000 1.282029e+000 1.680843e+000 1.536847e+000 1.095778e+000 3.406875e-001
<GCONST> 8.331976e+001
<TRANSP> 5
 0.000000e+000 1.000000e+000 0.000000e+000 0.000000e+000 0.000000e+000
 0.000000e+000 7.643458e-001 2.356542e-001 0.000000e+000 0.000000e+000
 0.000000e+000 0.000000e+000 6.069376e-001 3.930624e-001 0.000000e+000
 0.000000e+000 0.000000e+000 0.000000e+000 8.061494e-001 1.938506e-001
 0.000000e+000 0.000000e+000 0.000000e+000 0.000000e+000 0.000000e+000
<ENDHMM>
~h "j"
<BEGINHMM>
<NUMSTATES> 5
<STATE> 2
<MEAN> 25
 7.252333e+000 3.114814e+000 -3.863210e+000 -4.418882e+000 -1.179555e-001 2.094085e+000 -6.131955e-001 -3.527096e+000 -2.478633e+000 2.084972e+000 4.807447e+000 5.112428e+000 -5.333619e-001 -1.560907e-001 -4.148419e-001 -4.941657e-001 -6.394925e-001 1.875391e-001 5.434245e-001 3.737901e-001 -7.974052e-002 -1.424233e-001 -2.294065e-002 7.361648e-002 -4.975322e-001
<VARIANCE> 25
 1.540878e+001 1.019106e+001 8.896469e+000 8.949883e+000 1.427993e+001 9.842506e+000 1.506917e+001 1.388503e+001 8.148061e+000 6.261600e+000 8.921237e+000 6.837327e+000 5.718215e-001 1.203256e+000 5.653570e-001 9.711061e-001 1.613242e+000 1.249957e+000 9.138640e-001 6.662794e-001 1.179700e+000 6.097763e-001 9.637575e-001 9.994068e-001 8.706938e-002
<GCONST> 7.013651e+001
<STATE> 3
<MEAN> 25
 -3.672223e+000 -2.782957e+000 -4.068913e+000 -2.603954e+000 -2.172384e+000 2.851484e+000 2.141897e+000 3.303759e-001 -1.416463e+000 -6.305240e-001 2.662056e+000 3.279422e+000 -7.415884e-001 -5.376823e-002 8.244334e-001 1.131103e+000 3.314492e-001 -4.204735e-001 -2.701932e-001 4.479695e-002 2.012656e-001 1.078853e-003 -4.828041e-001 -5.830886e-001 -4.811407e-001
<VARIANCE> 25
 3.481319e+000 1.785791e+000 9.099041e+000 1.754102e+001 3.640076e+000 7.306161e+000 4.822262e+000 5.493967e+000 1.182166e+001 7.220376e+000 9.450261e+000 8.283406e+000 1.343928e-001 1.762416e-001 3.880242e-001 8.293471e-001 3.039547e-001 8.973971e-001 6.684565e-001 6.074265e-001 1.222440e+000 7.556526e-001 1.050281e+000 1.000200e+000 7.141489e-002
<GCONST> 5.846521e+001
<STATE> 4
<MEAN> 25
 -7.106108e+000 -3.246275e+000 -3.681773e-001 2.523741e+000 -1.715892e+000 -1.302362e+000 -1.494360e-001 6.260053e-001 1.426912e+000 1.670419e+000 -1.567048e-001 -1.104753e+000 -2.180476e-003 2.545904e-003 1.233632e-003 -3.441891e-003 -2.930639e-003 -3.872318e-002 -1.514372e-002 -9.716336e-003 1.841102e-002 4.040650e-002 -1.353123e-002 7.713560e-003 6.410688e-003
<VARIANCE> 25
 5.929686e-001 1.145145e+000 2.353125e+000 3.282298e+000 3.491557e+000 4.911056e+000 4.778840e+000 5.398739e+000 5.254893e+000 4.601995e+000 5.371928e+000 5.641690e+000 6.203774e-002 1.197296e-001 1.546528e-001 2.933071e-001 3.422682e-001 5.506496e-001 5.086530e-001 5.449539e-001 6.788055e-001 5.172865e-001 7.187953e-001 6.096199e-001 1.517479e-002
<GCONST> 4.328605e+001
<TRANSP> 5
 0.000000e+000 1.000000e+000 0.000000e+000 0.000000e+000 0.000000e+000
 0.000000e+000 9.288574e-001 7.114253e-002 0.000000e+000 0.000000e+000
 0.000000e+000 0.000000e+000 8.379990e-001 1.620009e-001 0.000000e+000
 0.000000e+000 0.000000e+000 0.000000e+000 9.765307e-001 2.346929e-002
 0.000000e+000 0.000000e+000 0.000000e+000 0.000000e+000 0.000000e+000
<ENDHMM>
~h "k"
<BEGINHMM>
<NUMSTATES> 5
<STATE> 2
<MEAN> 25
 -3.635078e+000 -2.423241e+000 -2.816064e+000 -5.036402e-001 -2.442095e+000 -4.198274e-001 -3.156521e-001 -4.030233e-001 6.323937e-001 1.974402e+000 1.279024e+000 -2.329251e-001 2.954550e-001 -7.329345e-002 -1.660485e-001 -9.887660e-001 -4.492493e-001 -3.104393e-001 4.025908e-001 -1.520163e-001 -3.969124e-001 -4.995874e-001 4.231166e-003 1.574132e-001 5.836679e-001
<VARIANCE> 25
 3.506905e+000 4.139439e+000 4.949770e+000 9.282282e+000 8.468694e+000 9.427636e+000 9.299231e+000 9.571232e+000 9.106615e+000 7.829879e+000 8.798314e+000 7.209875e+000 8.287817e-001 9.219649e-001 9.325782e-001 3.633369e+000 1.919156e+000 1.605896e+000 3.257758e+000 1.355672e+000 1.604578e+000 2.085732e+000 1.231814e+000 1.001015e+000 1.448614e+000
<GCONST> 7.508565e+001
<STATE> 3
<MEAN> 25
 1.417645e-001 -2.375343e+000 -2.617393e+000 -1.059044e+001 -5.091171e+000 -1.678306e+000 4.882428e+000 -1.893936e+000 -3.966436e+000 -3.400012e+000 1.314232e+000 1.753413e+000 1.092447e+000 6.608571e-001 7.818570e-001 -4.531540e-001 4.239683e-001 3.091632e-001 1.054120e+000 4.974990e-001 -3.598281e-001 -5.831836e-001 -1.897458e-001 6.607331e-001 1.084620e+000
<VARIANCE> 25
 9.605738e+000 1.816268e+001 1.835583e+001 3.841867e+001 4.203873e+001 3.197737e+001 7.345325e+001 2.455011e+001 2.020987e+001 3.130939e+001 2.407999e+001 1.679768e+001 1.556902e+000 1.729363e+000 1.730553e+000 8.126046e+000 3.574764e+000 2.435403e+000 4.684087e+000 1.899556e+000 2.378305e+000 2.808945e+000 1.818268e+000 1.626790e+000 2.269773e+000
<GCONST> 9.660799e+001
<STATE> 4
<MEAN> 25
 4.943536e+000 2.003486e+000 -3.978952e-001 -3.889561e+000 -2.626435e-001 -4.834874e-001 3.589994e+000 1.801082e+000 -1.554036e+000 -2.289521e+000 -1.246467e+000 3.487218e+000 2.871722e+000 1.708326e+000 -3.115560e-001 1.465919e+000 9.762768e-001 -1.579987e+000 -2.187811e+000 7.626914e-001 1.248869e+000 3.418332e-001 -8.296958e-001 5.180501e-001 8.191704e-001
<VARIANCE> 25
 2.272646e+001 1.124827e+001 1.044813e+001 1.352710e+001 1.116692e+001 1.895252e+001 1.955235e+001 1.195212e+001 1.125572e+001 1.325486e+001 1.274535e+001 9.245381e+000 8.825825e-001 1.065986e+000 2.774535e+000 2.636524e+000 1.190186e+000 2.144595e+000 2.170932e+000 1.504247e+000 1.382245e+000 1.533907e+000 1.211064e+000 1.354196e+000 8.492658e-001
<GCONST> 8.215752e+001
<TRANSP> 5
 0.000000e+000 1.000000e+000 0.000000e+000 0.000000e+000 0.000000e+000
 0.000000e+000 8.102537e-001 1.897463e-001 0.000000e+000 0.000000e+000
 0.000000e+000 0.000000e+000 6.833248e-001 3.166753e-001 0.000000e+000
 0.000000e+000 0.000000e+000 0.000000e+000 5.128942e-001 4.871059e-001
 0.000000e+000 0.000000e+000 0.000000e+000 0.000000e+000 0.000000e+000
<ENDHMM>
~h "l"
<BEGINHMM>
<NUMSTATES> 5
<STATE> 2
<MEAN> 25
 -1.394797e+000 -1.002595e+000 -1.193542e+000 -2.875246e+000 -1.315747e+000 1.182739e+000 8.511318e-001 -4.713624e-001 -8.940131e-001 6.868967e-001 2.100432e-001 4.423616e-001 1.307755e-001 4.741304e-001 3.454238e-001 2.817819e-001 -2.726898e-001 -2.342356e-001 -1.490236e-001 -1.207969e-001 -3.693188e-002 -1.979944e-001 -3.269509e-001 -2.827186e-001 -1.209237e-001
<VARIANCE> 25
 3.182439e+001 2.992550e+001 1.721863e+001 1.604279e+001 1.791459e+001 2.269946e+001 1.071280e+001 1.460551e+001 1.619287e+001 1.013063e+001 1.086017e+001 9.067019e+000 7.511581e-001 1.720194e+000 2.466372e+000 2.052797e+000 2.023832e+000 1.550964e+000 1.281040e+000 1.534568e+000 1.979715e+000 1.178531e+000 1.025758e+000 1.039362e+000 5.789850e-001
<GCONST> 8.324062e+001
<STATE> 3
<MEAN> 25
 6.035591e+000 7.912527e+000 3.218474e+000 -3.161087e+000 -2.688082e+000 -3.511106e+000 -8.267107e-001 9.024255e-001 -1.663431e+000 -5.752358e-001 -3.152330e+000 -1.982608e+000 2.927754e-001 4.661847e-001 5.051270e-001 7.022638e-002 -3.442147e-001 -4.156836e-001 -3.139350e-001 5.371181e-002 -5.279936e-003 -3.137374e-001 -3.096749e-001 -3.208520e-001 1.172298e-001
<VARIANCE> 25
 1.165686e+001 9.764774e+000 7.600007e+000 1.788463e+001 1.159964e+001 1.205138e+001 8.136512e+000 9.194917e+000 1.325990e+001 1.291904e+001 8.183014e+000 6.910981e+000 1.166049e+000 8.645185e-001 5.645272e-001 1.403643e+000 7.564353e-001 7.929336e-001 7.726414e-001 9.121349e-001 7.895622e-001 7.514188e-001 7.491323e-001 6.002672e-001 5.527741e-001
<GCONST> 7.102766e+001
<STATE> 4
<MEAN> 25
 6.878565e+000 6.607687e+000 1.934058e+000 -7.201145e+000 -3.426841e+000 -4.308144e+000 2.395483e-001 4.688250e+000 4.691089e-001 -4.153189e-001 -3.304276e+000 -1.213103e+000 3.169450e-001 -8.379351e-001 -1.233616e+000 -1.080341e+000 1.276207e-001 5.332677e-002 1.053228e+000 1.206407e+000 6.749753e-001 1.620530e-002 -2.991570e-001 6.653742e-001 5.971382e-001
<VARIANCE> 25
 1.349754e+001 1.115876e+001 1.681230e+001 2.541551e+001 9.248142e+000 1.336841e+001 1.737703e+001 2.076144e+001 1.587405e+001 1.282268e+001 1.035688e+001 9.996710e+000 4.364984e-001 5.876109e-001 1.764702e+000 1.617790e+000 9.117950e-001 1.278682e+000 1.706678e+000 1.359134e+000 1.069482e+000 1.114468e+000 1.052158e+000 1.121763e+000 3.555498e-001
<GCONST> 7.767097e+001
<TRANSP> 5
 0.000000e+000 1.000000e+000 0.000000e+000 0.000000e+000 0.000000e+000
 0.000000e+000 6.319001e-001 3.680999e-001 0.000000e+000 0.000000e+000
 0.000000e+000 0.000000e+000 7.370622e-001 2.629379e-001 0.000000e+000
 0.000000e+000 0.000000e+000 0.000000e+000 6.645087e-001 3.354914e-001
 0.000000e+000 0.000000e+000 0.000000e+000 0.000000e+000 0.000000e+000
<ENDHMM>
~h "m"
<BEGINHMM>
<NUMSTATES> 5
<STATE> 2
<MEAN> 25
 3.769762e+000 5.280626e+000 4.070374e+000 6.146633e+000 3.011531e+000 3.609328e+000 3.826228e+000 4.140184e+000 4.199111e+000 2.313540e+000 -1.125426e+000 -4.499869e+000 1.737702e-001 1.144519e-001 1.696532e-001 3.334394e-001 4.124761e-001 3.436742e-001 2.762637e-001 2.866147e-001 2.612419e-001 1.460107e-001 -1.206678e-001 -3.997458e-001 9.807378e-002
<VARIANCE> 25
 7.774434e+000 6.004073e+000 6.824737e+000 6.869050e+000 5.728138e+000 9.072864e+000 6.897038e+000 7.431665e+000 9.619906e+000 7.361862e+000 7.799762e+000 9.700514e+000 1.055838e+000 7.126762e-001 6.555188e-001 9.206560e-001 9.417714e-001 9.272525e-001 6.995888e-001 9.645425e-001 1.018108e+000 7.260596e-001 7.541446e-001 1.006070e+000 3.474693e-001
<GCONST> 6.715807e+001
<STATE> 3
<MEAN> 25
 6.508780e+000 5.208250e+000 2.186216e+000 3.479878e+000 6.987202e-001 -7.729806e-002 1.890884e+000 4.537254e+000 4.177285e+000 1.047255e+000 -1.648007e+000 -4.416168e+000 1.029115e+000 -1.863271e-001 -1.162731e+000 -2.046959e+000 -1.277363e+000 -1.485590e+000 -3.350129e-001 4.493476e-001 -6.457891e-001 -1.413257e+000 1.053500e-001 1.538943e+000 9.425184e-001
<VARIANCE> 25
 1.135679e+001 4.871214e+000 8.454317e+000 1.875475e+001 1.660758e+001 2.301500e+001 1.057213e+001 9.231208e+000 1.276122e+001 1.039302e+001 7.137290e+000 1.427365e+001 1.187720e+000 5.978432e-001 7.364227e-001 2.156988e+000 1.118582e+000 1.264511e+000 9.716120e-001 1.343733e+000 9.446108e-001 1.328825e+000 8.611027e-001 1.664643e+000 6.301512e-001
<GCONST> 7.592368e+001
<STATE> 4
<MEAN> 25
 8.544680e+000 4.370726e+000 -1.855881e+000 -3.105502e+000 -1.328882e+000 -1.228392e+000 4.364737e+000 8.035638e+000 2.185345e+000 -5.252488e+000 -2.343361e+000 2.208837e+000 1.316549e-001 -6.002578e-001 -9.834492e-001 -1.048479e+000 5.461226e-001 3.183918e-001 4.053613e-001 3.871899e-001 -5.887676e-001 -8.180510e-001 -4.882303e-002 1.312062e+000 3.993899e-001
<VARIANCE> 25
 1.540876e+001 6.250043e+000 1.174714e+001 2.661877e+001 1.057645e+001 1.458013e+001 6.249839e+000 1.276108e+001 7.281684e+000 1.883842e+001 9.154779e+000 1.050591e+001 4.687641e-001 3.832209e-001 6.035523e-001 1.603201e+000 1.012990e+000 8.877065e-001 1.108612e+000 1.346112e+000 9.356499e-001 1.417755e+000 7.794173e-001 1.059836e+000 3.490238e-001
<GCONST> 7.274765e+001
<TRANSP> 5
 0.000000e+000 1.000000e+000 0.000000e+000 0.000000e+000 0.000000e+000
 0.000000e+000 8.577819e-001 1.422180e-001 0.000000e+000 0.000000e+000
 0.000000e+000 0.000000e+000 6.116419e-001 3.883582e-001 0.000000e+000
 0.000000e+000 0.000000e+000 0.000000e+000 5.903773e-001 4.096227e-001
 0.000000e+000 0.000000e+000 0.000000e+000 0.000000e+000 0.000000e+000
<ENDHMM>
~h "n"
<BEGINHMM>
<NUMSTATES> 5
<STATE> 2
<MEAN> 25
 5.191336e+000 2.883090e+000 5.924852e+000 9.773676e+000 9.469039e+000 -2.556902e-001 -6.328403e+000 -4.728089e+000 -1.322329e+000 -2.174503e+000 -3.162322e+000 -2.418912e+000 1.529874e-001 7.158449e-001 8.856035e-001 1.461315e+000 6.492905e-001 7.263148e-001 6.175342e-003 -1.665029e-001 2.897115e-001 -1.608717e-001 -3.981263e-001 -6.793092e-001 -2.632784e-001
<VARIANCE> 25
 8.217338e+000 1.430887e+001 1.529506e+001 3.208585e+001 3.163791e+001 3.899276e+001 4.696000e+001 1.272170e+001 1.494033e+001 1.513548e+001 2.021182e+001 1.590232e+001 1.620690e+000 7.988694e-001 2.290635e+000 6.456087e+000 4.887563e+000 6.050488e+000 6.675677e+000 2.021874e+000 1.732289e+000 2.535423e+000 2.502391e+000 1.617509e+000 2.115224e+000
<GCONST> 9.418275e+001
<STATE> 3
<MEAN> 25
 4.862131e+000 5.938560e+000 5.286018e+000 8.946536e+000 7.038160e+000 5.111797e+000 5.202549e-002 -2.758377e+000 -1.961744e+000 -1.184488e+000 -4.364409e-001 -2.521018e-001 -2.932063e-001 -5.082367e-002 1.260608e-002 1.131427e-001 6.052748e-002 3.415498e-001 4.558032e-001 3.853147e-001 2.511069e-001 2.155107e-001 1.884601e-001 1.863156e-002 -2.380015e-001
<VARIANCE> 25
 3.419285e+000 2.456570e+000 5.674783e+000 5.145738e+000 4.758684e+000 7.358728e+000 8.493261e+000 9.175012e+000 1.112303e+001 7.834553e+000 7.646175e+000 1.044340e+001 1.112171e-001 2.027134e-001 2.886783e-001 5.485463e-001 4.491104e-001 5.419915e-001 7.610380e-001 6.653125e-001 8.292196e-001 7.566451e-001 6.888118e-001 5.639544e-001 6.124221e-002
<GCONST> 5.627534e+001
<STATE> 4
<MEAN> 25
 4.733176e-001 2.481835e+000 3.598672e+000 6.376875e+000 4.292504e+000 5.673296e+000 3.287096e+000 5.738699e-001 3.191635e-001 1.299718e+000 1.658576e+000 2.334149e-001 -9.178054e-001 -1.072785e+000 -7.370110e-001 -9.681610e-001 -9.733592e-001 -5.591868e-001 -7.836527e-002 2.323298e-001 2.827827e-001 2.319629e-001 1.002713e-001 -8.860094e-002 -3.202044e-001
<VARIANCE> 25
 8.932372e+000 1.328018e+001 1.362408e+001 1.705667e+001 1.260852e+001 1.020508e+001 8.606406e+000 1.021434e+001 8.260535e+000 9.083119e+000 8.692601e+000 8.120260e+000 3.336747e-001 1.144356e+000 1.587242e+000 1.326389e+000 9.031187e-001 1.397293e+000 8.873366e-001 9.972485e-001 9.251328e-001 1.122553e+000 9.993088e-001 7.647179e-001 2.862462e-001
<GCONST> 7.248957e+001
<TRANSP> 5
 0.000000e+000 1.000000e+000 0.000000e+000 0.000000e+000 0.000000e+000
 0.000000e+000 6.418751e-001 3.581249e-001 0.000000e+000 0.000000e+000
 0.000000e+000 0.000000e+000 8.759043e-001 1.240957e-001 0.000000e+000
 0.000000e+000 0.000000e+000 0.000000e+000 7.622252e-001 2.377748e-001
 0.000000e+000 0.000000e+000 0.000000e+000 0.000000e+000 0.000000e+000
<ENDHMM>
~h "o"
<BEGINHMM>
<NUMSTATES> 5
<STATE> 2
<MEAN> 25
 7.292575e+000 4.490135e+000 2.614869e+000 -1.246331e+000 -5.222156e+000 -5.828093e+000 7.111211e-001 2.734930e+000 -1.708506e+000 -4.540616e+000 -3.002629e+000 -4.366207e-001 1.721012e+000 1.850539e+000 -8.047656e-002 -2.592922e-001 -1.322420e+000 -1.468537e+000 -1.308210e+000 1.043670e+000 1.299679e+000 -3.007385e-001 -9.999279e-001 -5.839381e-001 2.124567e-001
<VARIANCE> 25
 2.263849e+001 2.406723e+001 1.412502e+001 1.540956e+001 2.510401e+001 3.110933e+001 2.471403e+001 2.292581e+001 2.132263e+001 2.463289e+001 1.806908e+001 1.217749e+001 3.132179e+000 3.428537e+000 2.242275e+000 2.298204e+000 2.882339e+000 2.928380e+000 3.882154e+000 2.938909e+000 2.544876e+000 1.726487e+000 1.514308e+000 1.567400e+000 8.293933e-001
<GCONST> 9.302663e+001
<STATE> 3
<MEAN> 25
 8.622255e+000 8.076981e+000 4.503414e+000 -9.763846e-001 -6.443341e+000 -6.611378e+000 -5.468749e-001 4.585076e+000 7.612200e-001 -4.380305e+000 -5.136374e+000 -3.793945e+000 6.014596e-002 1.765679e-001 3.446688e-002 -5.083164e-004 -2.538772e-001 -2.161207e-001 -2.580510e-001 4.994768e-003 3.428424e-001 3.299254e-001 2.198671e-001 -1.726476e-002 -6.197124e-002
<VARIANCE> 25
 7.194828e+000 4.903973e+000 1.236158e+001 1.499832e+001 2.641712e+001 2.648659e+001 1.107349e+001 1.636680e+001 2.123403e+001 1.138860e+001 7.535170e+000 1.684050e+001 3.772255e-001 4.039992e-001 7.112462e-001 7.204615e-001 1.176443e+000 1.308162e+000 9.688883e-001 1.130128e+000 9.711056e-001 1.179178e+000 6.075689e-001 9.767191e-001 2.710401e-001
<GCONST> 7.309506e+001
<STATE> 4
<MEAN> 25
 6.469492e+000 8.802878e+000 5.054600e+000 2.852183e-001 -6.811274e+000 -6.339843e+000 -3.137347e+000 8.135963e-001 2.401474e+000 2.073182e+000 -2.525710e-001 -3.018307e+000 -7.971424e-001 -6.574594e-001 -3.999929e-001 1.500231e-001 4.670146e-001 7.751078e-001 3.661438e-001 -2.587199e-001 -9.810451e-002 2.643472e-001 2.858752e-001 1.286349e-001 -4.506975e-001
<VARIANCE> 25
 1.431185e+001 1.487901e+001 1.242385e+001 9.374470e+000 1.261551e+001 2.045005e+001 1.596995e+001 1.702143e+001 1.321313e+001 1.027267e+001 9.919315e+000 8.323048e+000 6.042029e-001 8.899986e-001 7.437983e-001 8.878711e-001 7.824184e-001 9.644754e-001 8.031901e-001 1.572575e+000 1.083366e+000 9.506640e-001 8.893281e-001 5.656608e-001 1.913152e-001
<GCONST> 7.315319e+001
<TRANSP> 5
 0.000000e+000 1.000000e+000 0.000000e+000 0.000000e+000 0.000000e+000
 0.000000e+000 6.528190e-001 3.471811e-001 0.000000e+000 0.000000e+000
 0.000000e+000 0.000000e+000 8.889990e-001 1.110010e-001 0.000000e+000
 0.000000e+000 0.000000e+000 0.000000e+000 8.986286e-001 1.013715e-001
 0.000000e+000 0.000000e+000 0.000000e+000 0.000000e+000 0.000000e+000
<ENDHMM>
~h "p"
<BEGINHMM>
<NUMSTATES> 5
<STATE> 2
<MEAN> 25
 -2.973376e+000 -1.566649e+000 -4.911976e-001 1.860838e+000 -3.617102e-002 2.604615e+000 2.015972e+000 3.850300e-001 1.048232e+000 1.591829e+000 1.283051e+000 2.680441e-001 -6.973776e-001 -8.557309e-001 -9.614167e-001 -1.025713e+000 -6.032080e-001 -2.737891e-001 -4.584234e-001 -6.586944e-001 -3.273320e-001 -1.863196e-002 1.335560e-001 2.271468e-001 -2.930453e-001
<VARIANCE> 25
 7.744416e+000 8.497868e+000 1.387709e+001 1.487024e+001 1.054707e+001 8.960324e+000 1.265340e+001 1.243211e+001 1.045901e+001 9.107390e+000 7.997621e+000 8.051079e+000 7.339431e-001 1.043696e+000 1.740079e+000 1.534729e+000 1.542268e+000 1.118623e+000 1.433179e+000 1.205899e+000 1.125983e+000 8.860648e-001 9.784582e-001 8.698511e-001 3.401274e-001
<GCONST> 7.435793e+001
<STATE> 3
<MEAN> 25
 -3.831612e+000 -3.211463e+000 -3.484275e+000 -8.271229e-001 -2.279031e+000 3.705707e-001 1.635588e-001 -1.444993e+000 -7.575895e-001 9.922032e-001 1.255830e+000 2.007449e-001 -4.231023e-002 -1.716778e-001 -3.561402e-001 -3.733813e-001 -3.513967e-001 -3.203776e-001 -2.841792e-001 -1.698756e-001 -1.168298e-001 -3.500243e-002 -3.949742e-002 -4.189904e-002 -2.514116e-002
<VARIANCE> 25
 3.850528e+000 5.349879e+000 9.031763e+000 1.180044e+001 8.989248e+000 1.121153e+001 8.617362e+000 1.029967e+001 1.204740e+001 1.033267e+001 8.004681e+000 8.791380e+000 2.854163e-001 5.223338e-001 9.084337e-001 1.069027e+000 8.343989e-001 1.097983e+000 9.307876e-001 1.146138e+000 1.274749e+000 1.050739e+000 8.988962e-001 9.099292e-001 1.701720e-001
<GCONST> 6.818280e+001
<STATE> 4
<MEAN> 25
 -3.589719e+000 -2.600814e+000 -3.615400e+000 -1.126859e+000 -2.475681e+000 1.317463e-001 -2.281572e-001 -1.246451e+000 -3.508220e-001 1.339108e+000 9.362352e-001 2.882682e-001 -1.424355e-002 2.598486e-002 5.296454e-002 6.162334e-002 2.819255e-002 6.370858e-004 1.384105e-002 1.205907e-002 -2.089696e-002 -1.331779e-002 7.357640e-003 1.674435e-002 -1.422925e-002
<VARIANCE> 25
 1.826632e+000 2.486567e+000 3.463592e+000 4.127105e+000 4.924829e+000 5.556270e+000 6.849369e+000 6.765654e+000 6.664501e+000 7.088592e+000 6.369228e+000 6.353000e+000 1.336021e-001 2.033291e-001 2.893114e-001 3.768107e-001 4.366636e-001 5.449300e-001 6.627014e-001 7.049145e-001 6.568975e-001 7.360527e-001 6.763150e-001 6.729053e-001 6.305675e-002
<GCONST> 5.252457e+001
<TRANSP> 5
 0.000000e+000 1.000000e+000 0.000000e+000 0.000000e+000 0.000000e+000
 0.000000e+000 5.318376e-001 4.681624e-001 0.000000e+000 0.000000e+000
 0.000000e+000 0.000000e+000 6.756658e-001 3.243342e-001 0.000000e+000
 0.000000e+000 0.000000e+000 0.000000e+000 9.205558e-001 7.944421e-002
 0.000000e+000 0.000000e+000 0.000000e+000 0.000000e+000 0.000000e+000
<ENDHMM>
~h "r"
<BEGINHMM>
<NUMSTATES> 5
<STATE> 2
<MEAN> 25
 -5.551499e-001 -7.921387e-001 -1.662086e+000 -3.921894e-001 8.026125e-001 2.225249e+000 9.329898e-001 -9.718515e-001 -2.066949e+000 -7.918323e-001 3.321956e-001 1.018396e+000 1.036990e+000 5.665128e-001 4.293464e-001 3.833236e-001 5.005693e-001 1.509085e-001 2.517214e-002 -1.209470e-002 -4.180848e-001 -6.452417e-001 -2.156598e-001 1.949763e-001 6.632568e-001
<VARIANCE> 25
 1.817085e+001 1.542175e+001 1.858185e+001 1.535376e+001 1.688091e+001 1.288223e+001 1.271932e+001 1.051437e+001 1.107647e+001 1.316110e+001 8.754645e+000 8.429811e+000 1.702127e+000 1.516558e+000 1.784503e+000 1.322490e+000 1.678034e+000 1.545626e+000 1.534456e+000 1.312439e+000 1.275115e+000 1.537360e+000 1.173576e+000 9.754344e-001 7.983620e-001
<GCONST> 8.084060e+001
<STATE> 3
<MEAN> 25
 7.725747e+000 4.212945e+000 1.413759e-001 2.219512e+000 1.034650e+000 -2.269673e-001 1.306078e+000 1.066041e+000 -3.279180e+000 -6.102113e+000 -3.239000e+000 1.293210e+000 4.666843e-001 1.838567e-001 -6.000793e-002 -6.834385e-002 -7.214497e-001 -6.951115e-001 2.401966e-001 7.006216e-001 2.241952e-001 -4.972180e-001 -4.814726e-001 -3.889395e-001 2.215872e-001
<VARIANCE> 25
 9.909195e+000 3.218049e+000 1.051164e+001 7.157042e+000 8.075993e+000 1.167132e+001 8.225910e+000 1.084965e+001 1.079456e+001 1.336976e+001 7.532747e+000 5.788113e+000 1.074072e+000 5.032634e-001 7.419128e-001 5.210694e-001 8.357118e-001 1.311301e+000 8.087516e-001 1.093351e+000 8.273162e-001 1.323398e+000 8.202857e-001 7.666261e-001 5.750454e-001
<GCONST> 6.899072e+001
<STATE> 4
<MEAN> 25
 8.657635e+000 7.045569e+000 4.241839e+000 1.102992e+000 -4.875440e+000 -5.593098e+000 6.605154e-001 5.017799e+000 -8.588109e-001 -5.172242e+000 -3.685790e+000 -4.168529e+000 -3.542923e-001 8.936774e-001 1.045501e+000 -2.255859e-001 -4.919801e-001 -3.944100e-001 -9.454209e-001 -6.452132e-001 3.596039e-001 1.703871e+000 1.090092e+000 -7.760331e-001 -3.797138e-001
<VARIANCE> 25
 6.221162e+000 6.558360e+000 1.123247e+001 7.268727e+000 8.959569e+000 1.421245e+001 5.796487e+000 1.537333e+001 7.383417e+000 1.776758e+001 1.141310e+001 9.389851e+000 3.013351e-001 5.157185e-001 6.945471e-001 4.045254e-001 8.137260e-001 1.060310e+000 6.803012e-001 1.919085e+000 6.396828e-001 1.305835e+000 8.783430e-001 1.034152e+000 2.512297e-001
<GCONST> 6.827608e+001
<TRANSP> 5
 0.000000e+000 1.000000e+000 0.000000e+000 0.000000e+000 0.000000e+000
 0.000000e+000 8.425000e-001 1.575000e-001 0.000000e+000 0.000000e+000
 0.000000e+000 0.000000e+000 8.287615e-001 1.712385e-001 0.000000e+000
 0.000000e+000 0.000000e+000 0.000000e+000 6.876530e-001 3.123470e-001
 0.000000e+000 0.000000e+000 0.000000e+000 0.000000e+000 0.000000e+000
<ENDHMM>
~h "s"
<BEGINHMM>
<NUMSTATES> 5
<STATE> 2
<MEAN> 25
 -3.910956e+000 -5.631838e+000 4.408404e+000 -3.313792e+000 -8.835055e-001 -3.062046e-001 4.145968e+000 -1.042131e+000 -3.483102e+000 1.294302e+000 1.146392e+000 1.928407e+000 -2.420281e+000 -2.395947e+000 2.988804e+000 -1.051785e+000 4.920443e-001 -9.691563e-001 1.245481e+000 -4.132049e-001 -6.495855e-001 3.035424e-001 2.448502e-001 7.438400e-002 1.321849e+000
<VARIANCE> 25
 2.360307e+001 2.904746e+001 4.586288e+001 2.230648e+001 1.896929e+001 1.722687e+001 2.128327e+001 1.613433e+001 2.373485e+001 1.525941e+001 1.408847e+001 1.084305e+001 4.574600e+000 2.297540e+000 3.447725e+000 1.801514e+000 1.760664e+000 2.034765e+000 2.201585e+000 2.399091e+000 2.926156e+000 1.261463e+000 1.315911e+000 1.646972e+000 8.329580e-001
<GCONST> 9.097265e+001
<STATE> 3
<MEAN> 25
 -1.456176e+001 -1.200231e+001 1.394131e+001 -9.221993e+000 3.030719e+000 -6.748143e+000 9.667962e+000 -2.709994e+000 -3.259349e+000 1.055045e+000 2.686213e+000 9.187573e-001 -5.245482e-001 -3.228144e-001 3.083967e-001 -1.952312e-001 2.115313e-001 -3.946157e-001 3.492500e-001 -6.581791e-002 -4.468828e-002 -1.323489e-001 1.460917e-001 -9.544536e-002 4.749982e-001
<VARIANCE> 25
 9.409450e+000 1.205361e+001 8.752731e+000 2.143661e+001 1.594137e+001 1.671350e+001 1.953689e+001 1.625822e+001 2.990930e+001 1.165270e+001 9.906834e+000 1.272355e+001 9.543175e-001 5.630071e-001 9.111372e-001 8.464868e-001 9.023942e-001 1.023045e+000 1.176438e+000 9.576747e-001 1.099320e+000 9.372039e-001 8.869717e-001 9.256811e-001 3.702079e-001
<GCONST> 7.594625e+001
<STATE> 4
<MEAN> 25
 -1.044117e+001 -1.008723e+001 1.281236e+001 -7.222239e+000 2.516543e+000 -4.932398e+000 8.545405e+000 -2.068679e+000 -3.961640e+000 1.680982e+000 2.358076e+000 7.903973e-001 1.570567e+000 1.036856e+000 -1.353744e+000 6.778075e-001 -4.085123e-001 9.360610e-001 -8.752021e-001 2.706183e-001 1.194194e-001 -1.101821e-001 -2.611176e-001 1.971866e-002 -8.990365e-001
<VARIANCE> 25
 2.787508e+001 1.531263e+001 3.656107e+001 2.560375e+001 2.799563e+001 2.308064e+001 2.397795e+001 1.561125e+001 2.628709e+001 1.958522e+001 1.038431e+001 1.656879e+001 2.690123e+000 2.605967e+000 3.004896e+000 1.684078e+000 1.782780e+000 2.094254e+000 1.913381e+000 1.326875e+000 1.691705e+000 1.600538e+000 1.096372e+000 1.541208e+000 8.637507e-001
<GCONST> 8.982500e+001
<TRANSP> 5
 0.000000e+000 1.000000e+000 0.000000e+000 0.000000e+000 0.000000e+000
 0.000000e+000 7.473806e-001 2.526194e-001 0.000000e+000 0.000000e+000
 0.000000e+000 0.000000e+000 8.906596e-001 1.093404e-001 0.000000e+000
 0.000000e+000 0.000000e+000 0.000000e+000 8.713485e-001 1.286515e-001
 0.000000e+000 0.000000e+000 0.000000e+000 0.000000e+000 0.000000e+000
<ENDHMM>
~h "t"
<BEGINHMM>
<NUMSTATES> 5
<STATE> 2
<MEAN> 25
 -2.393938e+000 -1.144470e+000 -1.290513e+000 4.962914e-001 -9.354786e-001 1.686613e+000 7.462478e-001 -5.354362e-001 -7.682460e-002 1.175315e+000 9.920210e-001 -1.319506e-001 -7.808501e-001 -7.187178e-001 -1.452926e+000 -1.005340e+000 -8.273764e-001 -5.458077e-001 -6.473657e-001 -5.854372e-001 8.299613e-003 1.194785e-001 -8.638540e-003 -5.860789e-002 -6.193160e-001
<VARIANCE> 25
 3.588792e+000 3.641095e+000 7.102768e+000 1.011429e+001 6.991236e+000 9.918817e+000 9.561941e+000 9.602741e+000 1.052526e+001 1.039923e+001 8.733084e+000 7.663316e+000 9.885459e-001 8.912795e-001 9.838064e-001 1.583475e+000 9.871356e-001 9.876156e-001 9.726794e-001 1.210357e+000 1.213334e+000 1.246950e+000 1.013370e+000 9.170384e-001 4.416233e-001
<GCONST> 7.042740e+001
<STATE> 3
<MEAN> 25
 -3.453421e+000 -2.327220e+000 -3.158520e+000 -7.323924e-001 -2.159148e+000 5.604417e-001 -2.515898e-001 -1.248306e+000 -2.988831e-001 1.144078e+000 8.570483e-001 2.778799e-001 -8.325052e-002 -8.730319e-002 -3.292398e-002 2.212919e-002 9.290145e-003 -5.155980e-002 -3.184668e-002 2.536826e-002 2.145214e-002 7.985117e-003 1.045312e-002 1.672720e-002 -2.980417e-002
<VARIANCE> 25
 2.550571e+000 2.612738e+000 5.074673e+000 6.145127e+000 5.831789e+000 6.588516e+000 6.584775e+000 7.068945e+000 7.779104e+000 7.407272e+000 7.518831e+000 7.295459e+000 1.142839e-001 1.860576e-001 3.120495e-001 4.285053e-001 4.744966e-001 6.424243e-001 6.379638e-001 7.161999e-001 7.499335e-001 7.445718e-001 7.798720e-001 6.891752e-001 7.398812e-002
<GCONST> 5.518971e+001
<STATE> 4
<MEAN> 25
 -6.655690e-001 -4.434355e+000 -4.447465e-001 1.624037e+000 -2.623533e-001 -6.146509e-001 6.081878e-001 -1.000305e+000 -2.789316e+000 -9.328101e-001 1.044881e+000 9.406500e-002 1.981155e+000 4.802245e-001 2.129312e+000 7.150062e-001 8.325144e-001 -3.212808e-001 -2.484584e-001 3.080324e-001 -8.119465e-001 -1.551033e+000 -8.895887e-001 -5.492013e-001 2.054766e+000
<VARIANCE> 25
 1.798884e+001 1.587339e+001 1.966168e+001 2.193289e+001 1.430590e+001 1.753230e+001 2.383157e+001 1.638241e+001 2.846521e+001 2.019110e+001 1.207942e+001 1.076921e+001 1.380995e+000 4.864493e+000 3.545755e+000 3.549978e+000 2.781868e+000 2.280767e+000 3.290659e+000 2.030633e+000 3.327272e+000 2.564198e+000 2.571645e+000 1.829531e+000 1.190166e+000
<GCONST> 9.243306e+001
<TRANSP> 5
 0.000000e+000 1.000000e+000 0.000000e+000 0.000000e+000 0.000000e+000
 0.000000e+000 5.082526e-001 4.917474e-001 0.000000e+000 0.000000e+000
 0.000000e+000 0.000000e+000 9.084360e-001 9.156401e-002 0.000000e+000
 0.000000e+000 0.000000e+000 0.000000e+000 7.105916e-001 2.894084e-001
 0.000000e+000 0.000000e+000 0.000000e+000 0.000000e+000 0.000000e+000
<ENDHMM>
~h "u"
<BEGINHMM>
<NUMSTATES> 5
<STATE> 2
<MEAN> 25
 7.762000e+000 8.827975e+000 8.299488e+000 2.799075e+000 -2.785820e+000 -3.175507e+000 -3.276249e+000 1.738142e+000 -3.041779e-001 -4.753434e+000 -4.662338e+000 -4.794787e+000 6.215122e-001 1.418914e+000 9.614549e-001 2.996492e-002 -4.234757e-001 -6.049889e-001 -1.147639e+000 -2.657689e-001 4.354956e-001 2.686386e-001 -2.467480e-001 -5.729795e-001 2.552608e-002
<VARIANCE> 25
 8.882191e+000 1.309755e+001 1.010392e+001 9.172106e+000 1.296151e+001 2.134037e+001 1.685664e+001 2.104769e+001 1.573051e+001 2.923639e+001 2.417395e+001 1.277078e+001 1.605806e+000 3.423568e+000 1.940185e+000 1.531549e+000 1.435383e+000 2.016151e+000 2.190185e+000 2.398927e+000 1.901963e+000 2.715429e+000 3.269134e+000 1.845368e+000 6.954033e-001
<GCONST> 8.718084e+001
<STATE> 3
<MEAN> 25
 6.131527e+000 1.002232e+001 8.935951e+000 4.891905e+000 -1.517031e+000 -2.986950e+000 -5.303511e+000 -2.889592e+000 -9.532107e-001 2.982555e-001 -2.864317e-003 -2.803680e+000 -7.975558e-001 -7.554827e-001 -6.537062e-001 2.540704e-001 5.482927e-001 6.750678e-001 5.603940e-001 -1.813634e-001 2.278694e-002 3.235262e-001 3.220480e-001 5.000210e-001 -4.659597e-001
<VARIANCE> 25
 4.839089e+000 5.655921e+000 6.876763e+000 6.873113e+000 9.349654e+000 1.447743e+001 1.229429e+001 1.262659e+001 1.083504e+001 1.107825e+001 8.322567e+000 1.011675e+001 6.882973e-001 9.803769e-001 8.001009e-001 6.512855e-001 7.369919e-001 1.127461e+000 1.109883e+000 1.446300e+000 1.045660e+000 1.119371e+000 1.013035e+000 8.347398e-001 1.957695e-001
<GCONST> 6.988771e+001
<STATE> 4
<MEAN> 25
 -1.662672e+000 9.287168e-001 1.031155e+000 2.779837e+000 2.686459e-002 9.636304e-001 -8.122619e-001 -1.575866e+000 -3.967810e-001 4.697357e-001 -1.056196e-001 -1.330616e+000 -7.189813e-001 -9.098783e-001 -8.677537e-001 -4.561732e-001 -1.171050e-001 1.662293e-001 2.976499e-001 1.837669e-001 1.320920e-001 1.744217e-001 1.003803e-001 1.070203e-001 -3.286232e-001
<VARIANCE> 25
 8.199783e+000 7.706882e+000 9.256103e+000 8.207578e+000 6.930153e+000 7.922930e+000 7.980703e+000 8.686873e+000 9.702066e+000 9.057783e+000 8.148993e+000 6.866891e+000 5.058169e-001 7.638125e-001 8.591399e-001 7.404163e-001 7.228082e-001 7.891142e-001 8.719741e-001 1.014899e+000 1.049481e+000 9.628780e-001 8.228716e-001 7.220055e-001 1.381479e-001
<GCONST> 6.659186e+001
<TRANSP> 5
 0.000000e+000 1.000000e+000 0.000000e+000 0.000000e+000 0.000000e+000
 0.000000e+000 7.752333e-001 2.247667e-001 0.000000e+000 0.000000e+000
 0.000000e+000 0.000000e+000 8.387887e-001 1.612113e-001 0.000000e+000
 0.000000e+000 0.000000e+000 0.000000e+000 8.089162e-001 1.910838e-001
 0.000000e+000 0.000000e+000 0.000000e+000 0.000000e+000 0.000000e+000
<ENDHMM>
~h "ng"
<BEGINHMM>
<NUMSTATES> 5
<STATE> 2
<MEAN> 25
 6.008090e+000 6.182345e+000 3.138623e+000 3.934289e+000 -1.322288e-001 -1.866177e-001 -4.201914e-001 1.969741e+000 3.949233e+000 2.466770e+000 8.600446e-001 -4.884079e-001 -1.983948e-001 -4.157577e-002 1.745044e-001 3.386153e-001 1.173652e-001 7.700430e-002 -4.671934e-002 -5.959830e-002 8.911113e-002 1.345083e-001 2.318480e-001 1.563310e-001 -1.516804e-001
<VARIANCE> 25
 4.545141e+000 2.958008e+000 6.203074e+000 6.577807e+000 5.981495e+000 9.989848e+000 8.985706e+000 5.535157e+000 8.849581e+000 7.947681e+000 5.373775e+000 6.353211e+000 1.719967e-001 1.927433e-001 4.088175e-001 7.405169e-001 3.791064e-001 5.000550e-001 7.971588e-001 6.109464e-001 7.632538e-001 6.699123e-001 5.141087e-001 4.677025e-001 9.568994e-002
<GCONST> 5.660833e+001
<STATE> 3
<MEAN> 25
 3.457519e+000 4.734552e+000 2.305327e+000 4.412154e+000 1.854236e+000 3.325855e+000 2.320611e+000 1.711782e+000 2.262075e+000 2.220663e+000 1.839921e+000 3.432883e-001 -6.214734e-001 -7.019194e-001 -5.788746e-001 -5.505990e-001 5.391964e-002 3.456553e-001 4.562834e-001 2.393143e-001 -1.279804e-001 -2.440715e-001 -2.002624e-001 9.676323e-002 -2.192927e-001
<VARIANCE> 25
 1.166443e+001 6.110469e+000 8.935466e+000 8.849271e+000 7.708082e+000 1.091052e+001 9.719710e+000 7.033145e+000 1.024828e+001 1.085096e+001 8.733745e+000 7.927992e+000 4.765058e-001 5.234939e-001 7.302040e-001 9.680103e-001 6.440610e-001 8.372176e-001 1.150610e+000 1.101407e+000 1.007837e+000 1.148352e+000 9.763775e-001 1.068833e+000 2.271502e-001
<GCONST> 6.878003e+001
<STATE> 4
<MEAN> 25
 -1.355158e+000 -7.181854e-001 -2.969873e+000 -2.630962e-001 -1.406760e+000 1.376277e+000 1.380728e+000 1.110234e+000 1.190476e+000 1.223101e+000 8.796044e-001 5.093480e-001 -1.796586e-001 -3.708093e-001 -3.036922e-001 -5.312775e-001 -1.845044e-001 -1.871907e-001 -5.149312e-002 1.145606e-002 -2.684111e-001 -4.026688e-001 -1.725452e-001 2.842381e-001 5.870080e-002
<VARIANCE> 25
 1.366773e+001 9.512702e+000 1.883883e+001 1.816090e+001 1.271378e+001 1.088365e+001 1.086201e+001 1.120532e+001 1.347025e+001 1.386892e+001 9.957749e+000 1.020732e+001 4.913824e-001 5.127922e-001 1.266026e+000 2.157627e+000 1.247994e+000 1.165897e+000 1.539700e+000 1.228322e+000 1.650823e+000 2.364950e+000 1.150787e+000 1.397991e+000 3.315834e-001
<GCONST> 7.760536e+001
<TRANSP> 5
 0.000000e+000 1.000000e+000 0.000000e+000 0.000000e+000 0.000000e+000
 0.000000e+000 8.249363e-001 1.750637e-001 0.000000e+000 0.000000e+000
 0.000000e+000 0.000000e+000 6.536877e-001 3.463123e-001 0.000000e+000
 0.000000e+000 0.000000e+000 0.000000e+000 7.284337e-001 2.715663e-001
 0.000000e+000 0.000000e+000 0.000000e+000 0.000000e+000 0.000000e+000
<ENDHMM>
~h "ny"
<BEGINHMM>
<NUMSTATES> 5
<STATE> 2
<MEAN> 25
 -4.035842e+000 -3.260366e+000 -3.870323e+000 -1.402196e+000 -2.791948e+000 3.279828e-001 -6.562276e-002 -1.622626e+000 -2.781678e-001 1.609710e+000 1.236004e+000 2.915271e-001 2.492117e-002 9.389970e-002 6.500819e-002 1.032357e-001 5.518930e-002 2.407095e-003 9.432524e-003 6.506298e-002 4.651812e-002 1.650517e-002 2.503404e-002 9.327613e-003 -1.589649e-002
<VARIANCE> 25
 2.238060e+000 2.635319e+000 4.458183e+000 4.748839e+000 5.712528e+000 5.906861e+000 6.089876e+000 6.116229e+000 6.943758e+000 6.796450e+000 7.857855e+000 7.204664e+000 1.144765e-001 1.838181e-001 3.686448e-001 4.762141e-001 5.342960e-001 6.188335e-001 6.678711e-001 6.737376e-001 7.638938e-001 7.445272e-001 7.227045e-001 6.936325e-001 5.777581e-002
<GCONST> 5.418863e+001
<STATE> 3
<MEAN> 25
 -1.134478e+000 1.798800e+000 2.875205e+000 4.540224e+000 2.794827e+000 3.179422e+000 1.549911e+000 7.595434e-001 1.222125e+000 1.313137e+000 5.265159e-001 -1.919799e+000 1.125174e+000 1.269933e+000 2.052269e+000 1.176316e+000 1.274122e+000 1.449649e-001 -3.567400e-001 3.048787e-001 1.783136e-001 -3.894429e-001 -2.031124e-001 -6.647783e-001 8.906887e-001
<VARIANCE> 25
 1.510642e+001 1.470757e+001 2.414852e+001 1.542588e+001 1.172726e+001 1.140115e+001 9.331820e+000 6.929013e+000 8.650354e+000 8.822179e+000 8.145682e+000 8.673157e+000 9.125401e-001 1.077870e+000 1.995390e+000 1.280433e+000 1.304903e+000 2.009638e+000 2.218102e+000 1.002951e+000 8.321707e-001 1.028132e+000 8.631890e-001 7.597813e-001 4.663227e-001
<GCONST> 7.627253e+001
<STATE> 4
<MEAN> 25
 5.820731e+000 7.036915e-001 5.831360e+000 3.562195e+000 9.051740e+000 -3.240600e+000 -9.144612e+000 -1.599249e+000 1.886605e+000 -9.834756e-001 2.192451e+000 7.660485e-001 8.362945e-001 -6.093743e-001 -1.220639e+000 -1.416715e+000 2.736739e-001 -3.393078e-001 -3.148744e-001 -1.030391e-001 -5.061942e-001 -2.071857e-001 4.621372e-001 1.221386e+000 9.870042e-001
<VARIANCE> 25
 9.112642e+000 1.761073e+001 3.418164e+001 2.954354e+001 1.197913e+001 2.430656e+001 3.641450e+001 2.278692e+001 1.706499e+001 1.222751e+001 1.478274e+001 2.731272e+001 6.484681e-001 1.603257e+000 3.273997e+000 2.391838e+000 2.630628e+000 4.324102e+000 1.031343e+001 3.255121e+000 2.774503e+000 1.964344e+000 1.476386e+000 1.728168e+000 1.212409e+000
<GCONST> 9.254622e+001
<TRANSP> 5
 0.000000e+000 1.000000e+000 0.000000e+000 0.000000e+000 0.000000e+000
 0.000000e+000 9.257260e-001 7.427403e-002 0.000000e+000 0.000000e+000
 0.000000e+000 0.000000e+000 7.930545e-001 2.069456e-001 0.000000e+000
 0.000000e+000 0.000000e+000 0.000000e+000 8.783372e-001 1.216628e-001
 0.000000e+000 0.000000e+000 0.000000e+000 0.000000e+000 0.000000e+000
<ENDHMM>
~h "sp"
<BEGINHMM>
<NUMSTATES> 3
<STATE> 2
~s "silst"
<TRANSP> 3
 0.000000e+000 6.069266e-001 3.930734e-001
 0.000000e+000 9.402179e-001 5.978217e-002
 0.000000e+000 0.000000e+000 0.000000e+000
<ENDHMM>
~h "sil"
<BEGINHMM>
<NUMSTATES> 5
<STATE> 2
<MEAN> 25
 -3.646601e+000 -2.745555e+000 -4.124147e+000 -2.009398e+000 -3.129820e+000 -1.482576e-001 -6.092703e-001 -1.686204e+000 -5.841367e-001 1.366991e+000 1.015003e+000 3.259111e-001 -4.561905e-002 3.963050e-002 6.772995e-002 8.318958e-002 4.332831e-002 1.141614e-003 -5.021604e-003 2.118373e-002 3.989929e-002 2.278745e-002 2.335025e-003 -1.063823e-002 -4.575352e-002
<VARIANCE> 25
 1.412822e+000 1.876318e+000 2.902155e+000 3.538577e+000 4.699135e+000 5.831049e+000 6.084854e+000 6.655539e+000 6.929245e+000 7.140393e+000 6.955976e+000 6.724332e+000 6.703819e-002 1.371858e-001 2.239925e-001 3.167945e-001 3.871668e-001 4.936875e-001 5.596685e-001 6.142296e-001 6.564436e-001 6.774880e-001 6.808653e-001 6.675506e-001 2.913066e-002
<GCONST> 4.881780e+001
<STATE> 3
~s "silst"
<STATE> 4
<MEAN> 25
 -4.465850e+000 -3.950859e+000 -4.380086e+000 -1.970469e+000 -2.501329e+000 3.914491e-001 -3.501817e-001 -1.141230e+000 2.188928e-001 1.483205e+000 1.243674e+000 2.619756e-001 4.101303e-001 -1.401686e-001 -4.847655e-001 -7.181621e-001 -4.239860e-001 -8.503794e-002 -6.085796e-002 -1.537741e-001 -2.089048e-001 -1.482901e-001 3.329208e-002 3.061200e-002 3.367000e-001
<VARIANCE> 25
 3.928405e+000 3.762390e+000 9.571136e+000 1.056785e+001 8.278896e+000 7.231731e+000 8.495116e+000 8.572012e+000 8.447626e+000 8.683293e+000 7.638947e+000 8.419759e+000 3.203624e-001 4.015266e-001 8.689600e-001 9.381081e-001 7.488584e-001 7.621075e-001 8.828892e-001 8.922296e-001 9.251648e-001 9.619182e-001 8.302330e-001 8.928460e-001 1.431829e-001
<GCONST> 6.468187e+001
<TRANSP> 5
 0.000000e+000 1.000000e+000 0.000000e+000 0.000000e+000 0.000000e+000
 0.000000e+000 9.256400e-001 4.993054e-002 2.442944e-002 0.000000e+000
 0.000000e+000 0.000000e+000 9.254473e-001 7.455274e-002 0.000000e+000
 0.000000e+000 2.163468e-001 0.000000e+000 6.803190e-001 1.033342e-001
 0.000000e+000 0.000000e+000 0.000000e+000 0.000000e+000 0.000000e+000
<ENDHMM>
