~o
<STREAMINFO> 1 25
<VECSIZE> 25<NULLD><MFCC_D_N_Z_0><DIAGC>
~h "a"
<BEGINHMM>
<NUMSTATES> 5
<STATE> 2
<MEAN> 25
 3.780048e-001 1.004613e-001 -2.420085e-001 -5.830403e-001 -3.804509e-002 -1.290400e-002 3.074994e-001 2.277896e-001 2.061318e-002 2.079762e-002 3.412092e-002 3.119234e-001 4.037685e-003 4.206681e-004 8.778928e-004 4.954193e-004 3.852936e-003 2.807430e-003 -4.942074e-004 -3.851237e-004 -6.688029e-004 -9.270265e-004 2.663550e-004 6.976628e-005 3.490698e-003
<VARIANCE> 25
 4.096837e+001 2.598016e+001 3.644779e+001 3.528577e+001 2.195755e+001 1.814490e+001 2.358352e+001 1.988262e+001 1.453072e+001 1.732693e+001 1.312827e+001 1.467985e+001 1.125517e+000 1.031190e+000 1.609578e+000 1.759140e+000 1.169407e+000 1.296548e+000 1.589756e+000 1.241260e+000 1.175922e+000 1.333700e+000 1.075143e+000 1.077860e+000 6.769224e-001
<GCONST> 8.549699e+001
<STATE> 3
<MEAN> 25
 4.005786e-001 1.051041e-001 -2.387693e-001 -5.805303e-001 -1.911803e-002 -2.091862e-003 3.067115e-001 2.299062e-001 1.931416e-002 1.697740e-002 3.450795e-002 3.118154e-001 5.284942e-003 1.156852e-003 1.132251e-003 1.044709e-003 4.608543e-003 2.249865e-003 -2.422748e-004 5.623548e-004 -2.356482e-004 -9.469280e-004 -8.670118e-006 -1.852187e-004 4.272467e-003
<VARIANCE> 25
 4.094221e+001 2.600142e+001 3.660963e+001 3.558955e+001 2.206660e+001 1.814278e+001 2.361523e+001 1.996682e+001 1.454359e+001 1.733799e+001 1.314196e+001 1.470227e+001 1.129908e+000 1.035922e+000 1.612983e+000 1.768075e+000 1.172599e+000 1.298371e+000 1.593987e+000 1.245401e+000 1.178635e+000 1.338510e+000 1.076043e+000 1.079361e+000 6.805009e-001
<GCONST> 8.556385e+001
<STATE> 4
<MEAN> 25
 5.056689e-001 1.508514e-001 -2.172884e-001 -5.802658e-001 4.246042e-002 8.656774e-003 3.233128e-001 2.612534e-001 2.466167e-002 -6.025941e-003 1.606754e-002 3.118775e-001 7.230039e-003 3.199531e-003 1.540978e-003 2.618893e-003 4.719309e-003 1.286632e-003 -1.382492e-004 1.862403e-003 -1.110529e-005 -1.796624e-003 -1.195690e-003 -8.024000e-004 4.475705e-003
<VARIANCE> 25
 4.128955e+001 2.612179e+001 3.708038e+001 3.634474e+001 2.224085e+001 1.827678e+001 2.383689e+001 2.008895e+001 1.461131e+001 1.741582e+001 1.324134e+001 1.482327e+001 1.147084e+000 1.047148e+000 1.612732e+000 1.784397e+000 1.179928e+000 1.304873e+000 1.597325e+000 1.253670e+000 1.183872e+000 1.348576e+000 1.078877e+000 1.082324e+000 6.909411e-001
<GCONST> 8.575356e+001
<TRANSP> 5
 0.000000e+000 1.000000e+000 0.000000e+000 0.000000e+000 0.000000e+000
 0.000000e+000 7.753503e-001 2.246497e-001 0.000000e+000 0.000000e+000
 0.000000e+000 0.000000e+000 7.753501e-001 2.246498e-001 0.000000e+000
 0.000000e+000 0.000000e+000 0.000000e+000 9.051926e-001 9.480743e-002
 0.000000e+000 0.000000e+000 0.000000e+000 0.000000e+000 0.000000e+000
<ENDHMM>
~h "b"
<BEGINHMM>
<NUMSTATES> 5
<STATE> 2
<MEAN> 25
 1.569405e-001 6.267199e-001 6.806887e-003 3.666803e-001 -5.317782e-001 -5.146933e-002 2.121445e-001 2.278586e-001 3.649208e-001 3.046062e-001 6.038618e-002 -7.489219e-002 8.731341e-004 -4.807295e-003 -1.186100e-002 2.939249e-003 1.363803e-003 8.633464e-003 8.992832e-003 6.916858e-003 6.808366e-003 4.540892e-003 8.033314e-003 1.027290e-002 -4.023680e-003
<VARIANCE> 25
 3.919498e+001 3.067422e+001 3.217342e+001 2.900234e+001 1.675153e+001 1.826804e+001 2.023322e+001 1.650592e+001 1.297944e+001 1.467608e+001 1.148680e+001 1.460278e+001 9.900488e-001 1.090778e+000 1.269090e+000 1.418517e+000 1.135291e+000 1.299522e+000 1.359913e+000 1.047336e+000 1.017741e+000 1.210989e+000 9.832833e-001 9.787251e-001 5.195960e-001
<GCONST> 8.270741e+001
<STATE> 3
<MEAN> 25
 1.574463e-001 6.026716e-001 -5.259974e-002 3.817365e-001 -5.266754e-001 -9.883744e-003 2.503038e-001 2.573328e-001 3.921034e-001 3.190792e-001 8.828744e-002 -3.453291e-002 -2.889639e-004 -5.062392e-003 -1.284891e-002 4.081149e-003 1.593860e-003 9.850594e-003 7.940818e-003 5.794768e-003 5.803378e-003 3.188877e-003 5.975013e-003 8.455941e-003 -5.451420e-003
<VARIANCE> 25
 3.899887e+001 3.054172e+001 3.183865e+001 2.878943e+001 1.659222e+001 1.838419e+001 2.018499e+001 1.648631e+001 1.290884e+001 1.467278e+001 1.154937e+001 1.459330e+001 9.859665e-001 1.086196e+000 1.256515e+000 1.419075e+000 1.134838e+000 1.303122e+000 1.359198e+000 1.041528e+000 1.018689e+000 1.204695e+000 9.755849e-001 9.765658e-001 5.182611e-001
<GCONST> 8.263401e+001
<STATE> 4
<MEAN> 25
 1.985323e-001 6.445033e-001 -9.301048e-002 4.323549e-001 -5.509107e-001 2.952316e-003 2.629923e-001 2.708204e-001 4.546288e-001 3.543984e-001 1.094354e-001 -1.227374e-002 2.226906e-003 1.361083e-003 -6.886493e-003 4.749088e-003 -2.529681e-003 4.907430e-003 1.530686e-003 8.831240e-004 3.140947e-003 1.089009e-003 8.368135e-004 1.559050e-003 -5.255335e-003
<VARIANCE> 25
 3.867958e+001 3.047721e+001 3.139335e+001 2.881555e+001 1.675913e+001 1.898444e+001 2.051983e+001 1.631790e+001 1.279028e+001 1.433032e+001 1.129961e+001 1.418790e+001 1.003067e+000 1.089581e+000 1.237202e+000 1.422881e+000 1.153533e+000 1.338957e+000 1.394538e+000 1.034266e+000 1.017182e+000 1.184616e+000 9.537176e-001 9.474623e-001 5.248526e-001
<GCONST> 8.258700e+001
<TRANSP> 5
 0.000000e+000 1.000000e+000 0.000000e+000 0.000000e+000 0.000000e+000
 0.000000e+000 7.799062e-001 2.200938e-001 0.000000e+000 0.000000e+000
 0.000000e+000 0.000000e+000 7.799061e-001 2.200939e-001 0.000000e+000
 0.000000e+000 0.000000e+000 0.000000e+000 9.102605e-001 8.973949e-002
 0.000000e+000 0.000000e+000 0.000000e+000 0.000000e+000 0.000000e+000
<ENDHMM>
~h "c"
<BEGINHMM>
<NUMSTATES> 5
<STATE> 2
<MEAN> 25
 2.357481e-001 -6.072691e-001 1.987112e-001 -3.158077e-001 -8.356254e-002 -1.446316e+000 -8.986945e-001 -2.824380e-001 -7.933897e-001 -8.133741e-001 8.223719e-001 5.307992e-001 3.023634e-003 -7.904128e-003 1.983625e-003 2.811741e-003 3.840890e-003 -7.210194e-003 1.047675e-002 1.116538e-002 -1.260067e-003 -7.314607e-003 3.161821e-003 8.231989e-004 9.744092e-003
<VARIANCE> 25
 3.438674e+001 3.823771e+001 4.143476e+001 3.768236e+001 1.827788e+001 2.121631e+001 2.735737e+001 1.161813e+001 1.493368e+001 3.085460e+001 1.705358e+001 1.876333e+001 1.324166e+000 2.267566e+000 1.717895e+000 1.835443e+000 1.320310e+000 1.706079e+000 1.620041e+000 1.047626e+000 1.267107e+000 1.554199e+000 1.210481e+000 1.223006e+000 1.170332e+000
<GCONST> 8.892115e+001
<STATE> 3
<MEAN> 25
 2.496531e-001 -6.463590e-001 2.060668e-001 -3.012851e-001 -6.270200e-002 -1.476588e+000 -8.423128e-001 -2.246182e-001 -7.977629e-001 -8.503752e-001 8.348159e-001 5.323784e-001 3.566367e-003 -7.268732e-003 3.712072e-004 1.703807e-003 4.005741e-003 -4.988347e-003 1.291540e-002 1.268393e-002 -2.315321e-004 -7.525182e-003 1.654459e-003 4.410823e-004 9.362277e-003
<VARIANCE> 25
 3.457096e+001 3.884938e+001 4.148990e+001 3.768745e+001 1.799931e+001 2.116505e+001 2.743160e+001 1.161658e+001 1.479069e+001 3.102256e+001 1.688704e+001 1.853540e+001 1.322638e+000 2.304694e+000 1.719828e+000 1.851105e+000 1.306317e+000 1.709681e+000 1.618317e+000 1.029049e+000 1.243787e+000 1.563444e+000 1.197625e+000 1.211867e+000 1.178885e+000
<GCONST> 8.887441e+001
<STATE> 4
<MEAN> 25
 2.410285e-001 -7.827508e-001 1.806151e-001 -2.886020e-001 3.200172e-002 -1.492404e+000 -7.046620e-001 -9.249566e-002 -8.299366e-001 -9.411005e-001 8.755735e-001 5.436406e-001 4.102279e-003 -5.838145e-003 -3.057065e-003 -1.640155e-004 4.131370e-003 -6.682137e-004 1.685253e-002 1.494037e-002 2.279030e-003 -7.306304e-003 -1.365994e-003 -7.754426e-004 7.889039e-003
<VARIANCE> 25
 3.468249e+001 3.924314e+001 4.145379e+001 3.768507e+001 1.761198e+001 2.108601e+001 2.739313e+001 1.144212e+001 1.457691e+001 3.185358e+001 1.668472e+001 1.837846e+001 1.303063e+000 2.380181e+000 1.718832e+000 1.878387e+000 1.287748e+000 1.723458e+000 1.618380e+000 9.978137e-001 1.207001e+000 1.606263e+000 1.177387e+000 1.202110e+000 1.194402e+000
<GCONST> 8.881532e+001
<TRANSP> 5
 0.000000e+000 1.000000e+000 0.000000e+000 0.000000e+000 0.000000e+000
 0.000000e+000 7.976822e-001 2.023178e-001 0.000000e+000 0.000000e+000
 0.000000e+000 0.000000e+000 7.976825e-001 2.023175e-001 0.000000e+000
 0.000000e+000 0.000000e+000 0.000000e+000 9.298538e-001 7.014622e-002
 0.000000e+000 0.000000e+000 0.000000e+000 0.000000e+000 0.000000e+000
<ENDHMM>
~h "d"
<BEGINHMM>
<NUMSTATES> 5
<STATE> 2
<MEAN> 25
 7.653555e-001 9.151855e-001 2.329739e+000 2.882058e+000 2.674612e+000 1.600982e+000 -9.216871e-001 -4.477529e-001 3.600963e-001 -2.837289e-001 -5.224286e-002 -6.753402e-001 -1.482033e-002 -1.077010e-002 -3.898081e-002 -2.899941e-002 -2.468830e-002 -1.753899e-003 1.183436e-002 1.630409e-003 1.466947e-003 1.629252e-002 8.316783e-003 9.188063e-003 -1.746977e-002
<VARIANCE> 25
 3.068538e+001 2.395602e+001 4.186840e+001 4.230325e+001 3.280950e+001 2.112133e+001 3.681981e+001 1.609682e+001 1.853518e+001 1.888516e+001 1.411005e+001 1.573469e+001 8.786400e-001 1.280970e+000 1.478337e+000 1.604131e+000 1.182391e+000 1.676957e+000 2.758453e+000 1.477094e+000 1.537741e+000 1.666089e+000 1.207235e+000 1.115838e+000 8.236898e-001
<GCONST> 8.832857e+001
<STATE> 3
<MEAN> 25
 6.908240e-001 8.664025e-001 2.161341e+000 2.754480e+000 2.559008e+000 1.589031e+000 -8.687790e-001 -4.383142e-001 3.680827e-001 -2.153524e-001 -2.174549e-002 -6.342395e-001 -1.829831e-002 -1.355566e-002 -4.301675e-002 -3.369772e-002 -3.082262e-002 -5.743255e-003 1.260249e-002 1.497620e-003 -2.366599e-004 1.599025e-002 7.598821e-003 1.053191e-002 -1.958420e-002
<VARIANCE> 25
 3.082344e+001 2.359647e+001 4.124289e+001 4.208035e+001 3.253364e+001 2.078124e+001 3.579551e+001 1.595159e+001 1.790954e+001 1.860819e+001 1.395156e+001 1.550943e+001 8.629110e-001 1.256215e+000 1.450682e+000 1.596192e+000 1.164797e+000 1.643591e+000 2.666762e+000 1.460772e+000 1.501006e+000 1.626716e+000 1.190665e+000 1.103737e+000 8.094908e-001
<GCONST> 8.792918e+001
<STATE> 4
<MEAN> 25
 6.375738e-001 8.409574e-001 1.895178e+000 2.460602e+000 2.292367e+000 1.537424e+000 -7.319077e-001 -3.631140e-001 3.551522e-001 -1.615531e-001 -7.825833e-003 -5.497186e-001 -2.226395e-002 -1.672476e-002 -4.445894e-002 -3.583365e-002 -3.674893e-002 -1.218889e-002 1.227143e-002 1.571940e-003 -2.986796e-003 1.309608e-002 4.983403e-003 1.124110e-002 -2.134052e-002
<VARIANCE> 25
 3.160474e+001 2.347233e+001 3.988360e+001 4.173796e+001 3.156957e+001 2.011791e+001 3.370608e+001 1.576666e+001 1.715290e+001 1.834023e+001 1.379078e+001 1.550528e+001 8.698197e-001 1.245866e+000 1.429291e+000 1.604527e+000 1.136402e+000 1.573293e+000 2.491137e+000 1.428140e+000 1.453502e+000 1.577158e+000 1.184636e+000 1.114816e+000 8.058702e-001
<GCONST> 8.747167e+001
<TRANSP> 5
 0.000000e+000 1.000000e+000 0.000000e+000 0.000000e+000 0.000000e+000
 0.000000e+000 7.738159e-001 2.261841e-001 0.000000e+000 0.000000e+000
 0.000000e+000 0.000000e+000 7.738165e-001 2.261834e-001 0.000000e+000
 0.000000e+000 0.000000e+000 0.000000e+000 9.033912e-001 9.660880e-002
 0.000000e+000 0.000000e+000 0.000000e+000 0.000000e+000 0.000000e+000
<ENDHMM>
~h "e"
<BEGINHMM>
<NUMSTATES> 5
<STATE> 2
<MEAN> 25
 7.888457e-001 2.767682e-001 6.027728e-001 8.226348e-001 9.994962e-001 2.156560e-001 -1.523541e-001 -7.483700e-002 1.581806e-001 -1.920175e-001 -1.541481e-001 7.037437e-002 8.608134e-003 7.428186e-003 1.037254e-002 1.806526e-002 1.348565e-002 2.501406e-004 -1.246208e-002 -1.989012e-004 6.810220e-003 1.858393e-004 -1.870241e-003 -7.807087e-004 3.061353e-003
<VARIANCE> 25
 4.307702e+001 2.590254e+001 3.881452e+001 3.965611e+001 2.916908e+001 2.196529e+001 3.338326e+001 2.153543e+001 1.942424e+001 2.026088e+001 1.349197e+001 1.580057e+001 1.330272e+000 1.187325e+000 1.542828e+000 1.732187e+000 1.248087e+000 1.521978e+000 2.219115e+000 1.435980e+000 1.510746e+000 1.598045e+000 1.117286e+000 1.127332e+000 8.218862e-001
<GCONST> 8.883763e+001
<STATE> 3
<MEAN> 25
 8.283494e-001 3.128545e-001 6.409951e-001 9.046673e-001 1.059696e+000 2.219378e-001 -2.118534e-001 -7.984644e-002 1.874094e-001 -1.897658e-001 -1.608003e-001 6.683411e-002 7.427969e-003 7.024924e-003 5.466321e-003 1.611082e-002 1.187120e-002 2.046284e-003 -1.220249e-002 -1.949441e-003 6.195333e-003 1.495385e-003 -8.868139e-004 -1.750569e-005 3.710864e-004
<VARIANCE> 25
 4.313517e+001 2.583960e+001 3.869060e+001 3.961892e+001 2.948072e+001 2.215654e+001 3.377880e+001 2.159556e+001 1.949515e+001 2.029805e+001 1.345135e+001 1.581146e+001 1.310236e+000 1.183202e+000 1.530866e+000 1.703769e+000 1.238849e+000 1.528761e+000 2.231993e+000 1.432384e+000 1.511000e+000 1.596187e+000 1.112331e+000 1.122292e+000 8.131599e-001
<GCONST> 8.880615e+001
<STATE> 4
<MEAN> 25
 9.106142e-001 3.649977e-001 5.741988e-001 9.477934e-001 1.100639e+000 2.430985e-001 -2.985433e-001 -1.253944e-001 1.945018e-001 -1.540512e-001 -1.415739e-001 7.022578e-002 2.723249e-003 4.621081e-003 -2.005699e-003 1.190232e-002 8.728577e-003 5.844387e-003 -1.105781e-002 -4.860071e-003 5.789298e-003 4.263259e-003 1.134473e-003 3.251720e-004 -4.982609e-003
<VARIANCE> 25
 4.347478e+001 2.555526e+001 3.779853e+001 3.918440e+001 2.928613e+001 2.216486e+001 3.387954e+001 2.161241e+001 1.926810e+001 2.023718e+001 1.333449e+001 1.566494e+001 1.285037e+000 1.169241e+000 1.506835e+000 1.665826e+000 1.224492e+000 1.524477e+000 2.192566e+000 1.412048e+000 1.489093e+000 1.568417e+000 1.099361e+000 1.105155e+000 8.024840e-001
<GCONST> 8.854462e+001
<TRANSP> 5
 0.000000e+000 1.000000e+000 0.000000e+000 0.000000e+000 0.000000e+000
 0.000000e+000 7.763903e-001 2.236097e-001 0.000000e+000 0.000000e+000
 0.000000e+000 0.000000e+000 7.763903e-001 2.236097e-001 0.000000e+000
 0.000000e+000 0.000000e+000 0.000000e+000 9.065626e-001 9.343740e-002
 0.000000e+000 0.000000e+000 0.000000e+000 0.000000e+000 0.000000e+000
<ENDHMM>
~h "f"
<BEGINHMM>
<NUMSTATES> 5
<STATE> 2
<MEAN> 25
 -9.357274e-001 -1.038111e+000 8.646986e-001 1.264057e+000 1.268786e+000 6.692615e-001 -9.985496e-001 -4.138379e-001 -3.932329e-002 -1.091640e+000 -2.918564e-001 -4.604285e-001 -2.887277e-003 4.271423e-003 -1.867037e-002 -1.497240e-002 -2.264879e-002 -9.889524e-003 -1.242836e-003 -2.494632e-003 -3.785307e-003 8.731795e-003 6.252693e-004 -5.653807e-003 -1.197351e-002
<VARIANCE> 25
 2.782121e+001 2.428714e+001 5.003769e+001 4.336479e+001 3.097278e+001 1.490094e+001 2.474648e+001 2.369808e+001 1.229755e+001 2.838885e+001 1.552478e+001 1.560123e+001 9.243033e-001 1.196110e+000 1.918618e+000 2.329758e+000 1.269970e+000 1.091022e+000 1.726891e+000 1.488908e+000 1.174994e+000 1.798297e+000 1.242528e+000 1.191026e+000 5.347244e-001
<GCONST> 8.738116e+001
<STATE> 3
<MEAN> 25
 -9.433791e-001 -1.015602e+000 7.734645e-001 1.189630e+000 1.161778e+000 6.224107e-001 -9.999174e-001 -4.277471e-001 -5.936967e-002 -1.048128e+000 -2.881773e-001 -4.805320e-001 -1.881165e-003 5.130701e-003 -1.930881e-002 -1.584958e-002 -2.301787e-002 -1.011782e-002 1.787293e-004 -2.614964e-003 -4.443165e-003 9.337948e-003 1.109348e-003 -3.865748e-003 -1.142648e-002
<VARIANCE> 25
 2.763442e+001 2.405518e+001 4.987626e+001 4.257583e+001 3.098365e+001 1.502102e+001 2.463132e+001 2.351494e+001 1.225269e+001 2.806264e+001 1.536783e+001 1.555937e+001 9.118809e-001 1.169726e+000 1.904953e+000 2.285335e+000 1.261439e+000 1.096252e+000 1.710702e+000 1.475175e+000 1.170119e+000 1.779939e+000 1.233797e+000 1.184178e+000 5.284361e-001
<GCONST> 8.718918e+001
<STATE> 4
<MEAN> 25
 -8.981781e-001 -9.616593e-001 5.727665e-001 1.059079e+000 9.779047e-001 5.380355e-001 -9.901766e-001 -4.650562e-001 -9.939678e-002 -9.782323e-001 -2.906815e-001 -4.833338e-001 1.138913e-003 7.717154e-003 -2.033896e-002 -1.741115e-002 -2.359033e-002 -1.044550e-002 3.186288e-003 -1.834892e-003 -5.202838e-003 1.123054e-002 2.376605e-003 -5.597989e-004 -1.008769e-002
<VARIANCE> 25
 2.753728e+001 2.376959e+001 4.900208e+001 4.154915e+001 3.093299e+001 1.516884e+001 2.444218e+001 2.331131e+001 1.220860e+001 2.736373e+001 1.522198e+001 1.543529e+001 8.874009e-001 1.128860e+000 1.853904e+000 2.203516e+000 1.240767e+000 1.095451e+000 1.677676e+000 1.452541e+000 1.162129e+000 1.729967e+000 1.217515e+000 1.174822e+000 5.121326e-001
<GCONST> 8.681052e+001
<TRANSP> 5
 0.000000e+000 1.000000e+000 0.000000e+000 0.000000e+000 0.000000e+000
 0.000000e+000 7.754325e-001 2.245675e-001 0.000000e+000 0.000000e+000
 0.000000e+000 0.000000e+000 7.754319e-001 2.245682e-001 0.000000e+000
 0.000000e+000 0.000000e+000 0.000000e+000 9.046859e-001 9.531412e-002
 0.000000e+000 0.000000e+000 0.000000e+000 0.000000e+000 0.000000e+000
<ENDHMM>
~h "g"
<BEGINHMM>
<NUMSTATES> 5
<STATE> 2
<MEAN> 25
 -1.057846e+000 -8.717992e-001 -7.425455e-001 -6.984160e-001 -6.803643e-001 -4.158601e-002 1.274711e-003 -8.125858e-002 2.838169e-002 3.028659e-001 2.709324e-001 -6.259200e-002 1.451779e-002 5.432814e-003 1.048400e-002 4.492098e-003 1.535742e-002 5.995786e-003 7.747134e-003 3.227736e-003 1.228239e-004 -9.767246e-003 -4.080574e-003 -1.322283e-003 1.448834e-002
<VARIANCE> 25
 3.749805e+001 2.136943e+001 3.789476e+001 2.991435e+001 2.221878e+001 1.505220e+001 1.947497e+001 1.647393e+001 1.367176e+001 1.816748e+001 1.168420e+001 1.202316e+001 9.618416e-001 7.721469e-001 1.270448e+000 1.480165e+000 9.657023e-001 9.811706e-001 1.217334e+000 1.083395e+000 1.084429e+000 1.092586e+000 9.593804e-001 8.742710e-001 5.855657e-001
<GCONST> 8.172522e+001
<STATE> 3
<MEAN> 25
 -9.688607e-001 -8.350077e-001 -6.806385e-001 -6.832078e-001 -5.962054e-001 -1.401707e-002 3.143031e-002 -6.303646e-002 2.641028e-002 2.453240e-001 2.466153e-001 -6.714997e-002 2.089417e-002 8.546275e-003 1.271049e-002 2.517139e-003 1.884812e-002 6.353458e-003 5.251265e-003 3.549141e-003 -4.423106e-004 -1.389338e-002 -6.589296e-003 -1.571232e-003 1.984026e-002
<VARIANCE> 25
 3.836716e+001 2.132798e+001 3.845853e+001 3.033143e+001 2.245509e+001 1.517709e+001 1.948118e+001 1.667768e+001 1.387441e+001 1.861818e+001 1.179463e+001 1.208653e+001 9.959549e-001 7.841192e-001 1.305089e+000 1.523624e+000 9.727865e-001 9.919886e-001 1.231652e+000 1.100518e+000 1.105973e+000 1.115238e+000 9.755118e-001 8.803452e-001 6.118616e-001
<GCONST> 8.211959e+001
<STATE> 4
<MEAN> 25
 -5.694090e-001 -6.260870e-001 -3.734328e-001 -6.114124e-001 -2.022565e-001 1.256517e-001 6.363252e-002 1.876795e-002 5.434265e-003 -1.376594e-002 1.550675e-001 -8.199814e-002 3.077161e-002 1.451172e-002 2.384409e-002 2.860076e-003 2.820407e-002 8.681987e-003 8.085986e-005 6.604957e-003 1.181047e-003 -2.007938e-002 -7.682612e-003 -2.573768e-003 3.014196e-002
<VARIANCE> 25
 4.079755e+001 2.152605e+001 4.093039e+001 3.252164e+001 2.341587e+001 1.589827e+001 2.054701e+001 1.735212e+001 1.455375e+001 2.030182e+001 1.222767e+001 1.247492e+001 1.095118e+000 8.410361e-001 1.439449e+000 1.667227e+000 1.011802e+000 1.046570e+000 1.324541e+000 1.177374e+000 1.171484e+000 1.192624e+000 1.023400e+000 9.013763e-001 7.037967e-001
<GCONST> 8.362785e+001
<TRANSP> 5
 0.000000e+000 1.000000e+000 0.000000e+000 0.000000e+000 0.000000e+000
 0.000000e+000 7.835439e-001 2.164560e-001 0.000000e+000 0.000000e+000
 0.000000e+000 0.000000e+000 7.835435e-001 2.164565e-001 0.000000e+000
 0.000000e+000 0.000000e+000 0.000000e+000 9.150597e-001 8.494033e-002
 0.000000e+000 0.000000e+000 0.000000e+000 0.000000e+000 0.000000e+000
<ENDHMM>
~h "h"
<BEGINHMM>
<NUMSTATES> 5
<STATE> 2
<MEAN> 25
 5.915768e-001 2.965360e-001 -8.555580e-001 -3.088076e-001 -3.409740e-001 -1.288031e-001 1.090195e-001 5.719312e-001 3.939384e-001 -1.808700e-001 -1.255802e-001 2.259927e-001 -9.300825e-003 -4.906212e-003 -8.779866e-003 -7.307127e-003 -1.632218e-002 3.129751e-004 4.016057e-003 -3.983689e-003 -4.221603e-003 4.814170e-003 4.296497e-003 3.283439e-003 -1.008960e-002
<VARIANCE> 25
 3.713148e+001 2.249764e+001 3.261902e+001 2.878891e+001 2.094942e+001 1.623401e+001 2.221703e+001 2.006637e+001 1.364757e+001 1.864373e+001 1.245835e+001 1.577689e+001 8.120897e-001 7.341190e-001 1.192837e+000 1.293708e+000 1.019875e+000 1.103822e+000 1.222243e+000 1.182516e+000 1.061847e+000 1.270389e+000 9.787233e-001 1.038528e+000 4.665388e-001
<GCONST> 8.222545e+001
<STATE> 3
<MEAN> 25
 5.548314e-001 2.669385e-001 -9.052327e-001 -3.459129e-001 -4.093325e-001 -1.270725e-001 1.249763e-001 5.523904e-001 3.671032e-001 -1.641654e-001 -1.080029e-001 2.381757e-001 -8.756759e-003 -7.191277e-003 -1.136356e-002 -9.013902e-003 -1.528721e-002 9.378552e-004 4.156021e-003 -4.159536e-003 -6.191395e-003 4.178535e-003 4.378902e-003 2.822456e-003 -8.746570e-003
<VARIANCE> 25
 3.700089e+001 2.249946e+001 3.242039e+001 2.854192e+001 2.067433e+001 1.618917e+001 2.206607e+001 2.016597e+001 1.354591e+001 1.842883e+001 1.248135e+001 1.572414e+001 8.078375e-001 7.344937e-001 1.190955e+000 1.284405e+000 1.023178e+000 1.107352e+000 1.219754e+000 1.179483e+000 1.060508e+000 1.269361e+000 9.828613e-001 1.034745e+000 4.649743e-001
<GCONST> 8.215228e+001
<STATE> 4
<MEAN> 25
 5.847995e-001 2.121637e-001 -1.049914e+000 -4.562965e-001 -4.679445e-001 -1.230540e-001 1.669101e-001 5.393477e-001 3.030480e-001 -1.243555e-001 -6.578362e-002 2.653831e-001 -5.551277e-003 -9.223968e-003 -1.197088e-002 -9.404739e-003 -8.967272e-003 1.154777e-003 3.656811e-003 -2.631320e-003 -6.130465e-003 5.643047e-003 6.707234e-003 2.393601e-003 -3.745180e-003
<VARIANCE> 25
 3.675270e+001 2.242816e+001 3.228117e+001 2.848877e+001 2.030054e+001 1.631508e+001 2.193108e+001 2.045896e+001 1.340247e+001 1.802824e+001 1.259885e+001 1.556577e+001 8.030804e-001 7.402215e-001 1.193047e+000 1.276739e+000 1.027325e+000 1.115468e+000 1.217017e+000 1.179213e+000 1.057482e+000 1.261806e+000 9.911967e-001 1.021691e+000 4.704226e-001
<GCONST> 8.210569e+001
<TRANSP> 5
 0.000000e+000 1.000000e+000 0.000000e+000 0.000000e+000 0.000000e+000
 0.000000e+000 7.747255e-001 2.252745e-001 0.000000e+000 0.000000e+000
 0.000000e+000 0.000000e+000 7.747255e-001 2.252746e-001 0.000000e+000
 0.000000e+000 0.000000e+000 0.000000e+000 9.040412e-001 9.595876e-002
 0.000000e+000 0.000000e+000 0.000000e+000 0.000000e+000 0.000000e+000
<ENDHMM>
~h "i"
<BEGINHMM>
<NUMSTATES> 5
<STATE> 2
<MEAN> 25
 -4.635136e-001 -4.024808e-001 3.327038e-001 8.715265e-001 7.932042e-001 5.519305e-001 -5.900788e-001 -2.928842e-001 4.097834e-002 -2.166831e-001 8.873819e-003 -2.371896e-001 -3.864776e-003 -5.239084e-003 -5.152415e-003 -1.190745e-002 -5.138672e-003 -4.658358e-003 6.321254e-004 7.335047e-004 -3.655649e-003 1.204041e-003 2.392100e-003 2.949429e-003 3.503125e-004
<VARIANCE> 25
 3.001337e+001 2.199378e+001 4.304577e+001 3.761636e+001 2.832316e+001 1.679396e+001 2.437289e+001 1.823792e+001 1.296363e+001 2.112370e+001 1.388804e+001 1.446808e+001 8.731412e-001 9.865386e-001 1.590060e+000 1.781765e+000 1.170209e+000 1.240671e+000 1.720814e+000 1.276171e+000 1.160476e+000 1.481708e+000 1.156485e+000 1.052067e+000 6.172127e-001
<GCONST> 8.531351e+001
<STATE> 3
<MEAN> 25
 -4.775392e-001 -4.234195e-001 3.189183e-001 8.187683e-001 7.743750e-001 5.311004e-001 -5.893574e-001 -2.894665e-001 2.441631e-002 -2.156689e-001 1.753481e-002 -2.244139e-001 -2.662887e-003 -4.595548e-003 -3.227891e-003 -1.259167e-002 -4.216148e-003 -4.724536e-003 2.318400e-004 3.928986e-004 -3.828973e-003 -5.350130e-004 1.547026e-003 3.255252e-003 2.263262e-003
<VARIANCE> 25
 3.018904e+001 2.198442e+001 4.319188e+001 3.761613e+001 2.821897e+001 1.671544e+001 2.428435e+001 1.829233e+001 1.293338e+001 2.114620e+001 1.388631e+001 1.446511e+001 8.775294e-001 9.806870e-001 1.600471e+000 1.791788e+000 1.171051e+000 1.238720e+000 1.713846e+000 1.277803e+000 1.158157e+000 1.480680e+000 1.157882e+000 1.052167e+000 6.209498e-001
<GCONST> 8.532388e+001
<STATE> 4
<MEAN> 25
 -4.371538e-001 -4.194255e-001 4.240098e-001 7.692355e-001 8.221410e-001 5.030621e-001 -6.137722e-001 -2.690851e-001 -1.212135e-003 -2.760909e-001 -3.756536e-004 -2.201568e-001 -3.896293e-004 -2.326711e-003 1.084827e-003 -1.238169e-002 -2.871523e-003 -5.001701e-003 -8.369898e-005 5.385001e-004 -3.786599e-003 -2.149336e-003 9.469984e-004 3.067835e-003 5.025702e-003
<VARIANCE> 25
 3.077743e+001 2.229394e+001 4.423669e+001 3.823336e+001 2.831843e+001 1.671751e+001 2.437715e+001 1.842642e+001 1.296916e+001 2.160933e+001 1.407113e+001 1.451052e+001 8.948357e-001 9.882601e-001 1.628579e+000 1.812342e+000 1.179525e+000 1.242419e+000 1.715180e+000 1.285022e+000 1.157990e+000 1.492506e+000 1.173019e+000 1.055210e+000 6.335264e-001
<GCONST> 8.556927e+001
<TRANSP> 5
 0.000000e+000 1.000000e+000 0.000000e+000 0.000000e+000 0.000000e+000
 0.000000e+000 7.763300e-001 2.236700e-001 0.000000e+000 0.000000e+000
 0.000000e+000 0.000000e+000 7.763276e-001 2.236725e-001 0.000000e+000
 0.000000e+000 0.000000e+000 0.000000e+000 9.062192e-001 9.378081e-002
 0.000000e+000 0.000000e+000 0.000000e+000 0.000000e+000 0.000000e+000
<ENDHMM>
~h "j"
<BEGINHMM>
<NUMSTATES> 5
<STATE> 2
<MEAN> 25
 -7.271655e-001 -9.273415e-001 -5.639274e-001 9.604954e-002 -6.997452e-002 -1.752722e-001 -4.126111e-001 -3.780532e-001 -3.178510e-001 1.293738e-001 6.828938e-001 5.458187e-001 -1.532282e-002 -4.337176e-003 6.861948e-003 1.516335e-002 -1.167904e-003 -1.259988e-002 -5.994111e-003 6.225863e-003 8.225127e-003 -5.164017e-004 -1.527386e-002 -1.673159e-002 -1.179869e-002
<VARIANCE> 25
 5.244418e+001 2.055478e+001 1.933861e+001 2.408285e+001 1.785679e+001 1.413799e+001 2.318242e+001 1.419821e+001 1.434069e+001 1.196846e+001 1.310113e+001 1.450934e+001 1.002617e+000 1.242448e+000 1.172620e+000 1.461538e+000 1.209779e+000 1.207626e+000 1.536539e+000 1.086015e+000 1.234201e+000 9.621334e-001 1.203732e+000 8.819884e-001 6.519086e-001
<GCONST> 8.224739e+001
<STATE> 3
<MEAN> 25
 -7.990506e-001 -9.479924e-001 -5.266762e-001 1.729685e-001 -7.097603e-002 -2.373905e-001 -4.458683e-001 -3.486998e-001 -2.758016e-001 1.288086e-001 6.089039e-001 4.627116e-001 -1.054069e-002 -3.098889e-003 8.677584e-003 1.569486e-002 2.971647e-003 -1.090217e-002 -7.149280e-003 4.666757e-003 8.378283e-003 1.093462e-003 -1.211770e-002 -1.445294e-002 -7.496359e-003
<VARIANCE> 25
 5.266725e+001 2.042440e+001 1.934403e+001 2.412539e+001 1.773524e+001 1.407614e+001 2.327928e+001 1.401296e+001 1.430054e+001 1.199272e+001 1.293806e+001 1.453584e+001 9.926064e-001 1.224677e+000 1.158856e+000 1.447273e+000 1.185758e+000 1.205239e+000 1.532411e+000 1.079805e+000 1.237699e+000 9.589748e-001 1.198583e+000 8.732384e-001 6.497087e-001
<GCONST> 8.212105e+001
<STATE> 4
<MEAN> 25
 -8.523136e-001 -9.579087e-001 -4.636159e-001 2.807682e-001 -4.104238e-002 -3.110498e-001 -5.128138e-001 -3.180492e-001 -2.147067e-001 1.464301e-001 5.371596e-001 3.653534e-001 -6.843666e-003 -2.201475e-003 1.069502e-002 1.650481e-002 6.953153e-003 -8.246757e-003 -7.862451e-003 2.879239e-003 8.979469e-003 4.126951e-003 -7.680659e-003 -1.143793e-002 -3.939739e-003
<VARIANCE> 25
 5.287565e+001 2.031575e+001 1.960935e+001 2.440283e+001 1.771481e+001 1.403649e+001 2.378477e+001 1.383639e+001 1.420316e+001 1.200130e+001 1.270612e+001 1.469439e+001 9.859467e-001 1.209165e+000 1.145112e+000 1.437933e+000 1.159709e+000 1.211038e+000 1.545565e+000 1.077822e+000 1.249890e+000 9.544935e-001 1.179926e+000 8.663188e-001 6.530749e-001
<GCONST> 8.207424e+001
<TRANSP> 5
 0.000000e+000 1.000000e+000 0.000000e+000 0.000000e+000 0.000000e+000
 0.000000e+000 7.989649e-001 2.010351e-001 0.000000e+000 0.000000e+000
 0.000000e+000 0.000000e+000 7.989651e-001 2.010349e-001 0.000000e+000
 0.000000e+000 0.000000e+000 0.000000e+000 9.310361e-001 6.896392e-002
 0.000000e+000 0.000000e+000 0.000000e+000 0.000000e+000 0.000000e+000
<ENDHMM>
~h "k"
<BEGINHMM>
<NUMSTATES> 5
<STATE> 2
<MEAN> 25
 3.430537e-001 2.144581e-001 3.508340e-001 -6.194691e-001 -2.640365e-001 -3.901709e-001 6.211242e-001 6.840792e-002 -2.053268e-001 -3.046641e-003 -4.393262e-002 3.037961e-001 -2.515181e-003 -6.781290e-004 1.085414e-002 -4.810692e-003 1.535552e-004 -5.247569e-003 3.194164e-003 -6.894578e-003 -3.377436e-003 -3.978833e-004 -1.308326e-003 2.827746e-003 7.611585e-003
<VARIANCE> 25
 4.466556e+001 2.951457e+001 3.712850e+001 3.636194e+001 2.063735e+001 2.099576e+001 2.667282e+001 1.844596e+001 1.482172e+001 1.612625e+001 1.455167e+001 1.481138e+001 1.459652e+000 1.353294e+000 1.742088e+000 1.959189e+000 1.330180e+000 1.514092e+000 1.810616e+000 1.275933e+000 1.278444e+000 1.417109e+000 1.216536e+000 1.084764e+000 7.980266e-001
<GCONST> 8.755033e+001
<STATE> 3
<MEAN> 25
 3.309149e-001 2.110503e-001 3.987204e-001 -6.401719e-001 -2.629622e-001 -4.136887e-001 6.374297e-001 3.870036e-002 -2.186573e-001 -4.293134e-003 -4.972900e-002 3.149075e-001 -2.728732e-003 -7.152551e-004 1.125463e-002 -4.025752e-003 7.704133e-004 -5.152468e-003 3.378148e-003 -6.906094e-003 -3.033550e-003 -3.714257e-004 -1.229669e-003 2.342271e-003 7.678747e-003
<VARIANCE> 25
 4.507748e+001 2.982022e+001 3.751385e+001 3.670135e+001 2.076770e+001 2.108423e+001 2.689919e+001 1.842382e+001 1.487753e+001 1.610597e+001 1.454265e+001 1.470118e+001 1.477908e+000 1.361355e+000 1.750104e+000 1.971719e+000 1.334555e+000 1.518327e+000 1.818362e+000 1.277276e+000 1.281711e+000 1.418812e+000 1.214010e+000 1.079952e+000 8.018339e-001
<GCONST> 8.764431e+001
<STATE> 4
<MEAN> 25
 3.145982e-001 2.063482e-001 4.731229e-001 -7.003999e-001 -2.688304e-001 -4.731837e-001 6.995881e-001 -2.416094e-003 -2.261825e-001 4.076820e-004 -6.341993e-002 3.339565e-001 -3.113829e-003 -1.167158e-003 1.033265e-002 -3.458009e-003 1.594614e-003 -4.042432e-003 4.239393e-003 -5.488137e-003 -1.484505e-003 -1.735548e-004 -1.401585e-003 1.199627e-003 7.246278e-003
<VARIANCE> 25
 4.620661e+001 3.035006e+001 3.834780e+001 3.720048e+001 2.101988e+001 2.143065e+001 2.734378e+001 1.827315e+001 1.492986e+001 1.617935e+001 1.457386e+001 1.449158e+001 1.510374e+000 1.368650e+000 1.741521e+000 1.976404e+000 1.336336e+000 1.529330e+000 1.819821e+000 1.274410e+000 1.282851e+000 1.424561e+000 1.209502e+000 1.066445e+000 8.040360e-001
<GCONST> 8.777756e+001
<TRANSP> 5
 0.000000e+000 1.000000e+000 0.000000e+000 0.000000e+000 0.000000e+000
 0.000000e+000 7.747995e-001 2.252005e-001 0.000000e+000 0.000000e+000
 0.000000e+000 0.000000e+000 7.747982e-001 2.252018e-001 0.000000e+000
 0.000000e+000 0.000000e+000 0.000000e+000 9.040529e-001 9.594715e-002
 0.000000e+000 0.000000e+000 0.000000e+000 0.000000e+000 0.000000e+000
<ENDHMM>
~h "l"
<BEGINHMM>
<NUMSTATES> 5
<STATE> 2
<MEAN> 25
 4.383323e-001 3.527843e-001 3.076117e-002 -1.066234e+000 -5.734029e-001 -7.831247e-001 5.015728e-001 2.128763e-001 -3.260026e-002 3.262482e-001 -5.262538e-002 6.804050e-002 8.685499e-003 -2.142419e-003 1.811357e-003 -1.534354e-002 5.766211e-003 -1.664522e-003 9.166607e-003 5.621347e-003 -2.575052e-003 7.522008e-004 -1.530991e-003 7.557056e-004 1.598857e-002
<VARIANCE> 25
 4.569762e+001 3.051003e+001 3.969792e+001 3.517447e+001 2.100453e+001 2.100128e+001 2.565955e+001 2.036070e+001 1.448046e+001 1.569337e+001 1.448354e+001 1.420937e+001 1.161620e+000 1.102828e+000 1.602310e+000 1.676135e+000 1.154588e+000 1.391454e+000 1.607595e+000 1.240461e+000 1.152322e+000 1.266781e+000 1.131165e+000 1.029485e+000 6.338543e-001
<GCONST> 8.600402e+001
<STATE> 3
<MEAN> 25
 4.723199e-001 3.459000e-001 4.836476e-002 -1.130708e+000 -5.516245e-001 -7.932709e-001 5.419839e-001 2.405843e-001 -4.359008e-002 3.235115e-001 -6.334190e-002 7.000120e-002 8.394470e-003 -6.742969e-004 3.428090e-003 -1.360508e-002 4.673000e-003 -1.439489e-003 8.336249e-003 6.903877e-003 -1.676378e-003 -1.095679e-003 -3.052797e-003 2.621668e-004 1.460201e-002
<VARIANCE> 25
 4.604576e+001 3.073600e+001 3.994626e+001 3.576336e+001 2.112899e+001 2.106659e+001 2.572001e+001 2.046455e+001 1.454436e+001 1.574497e+001 1.455924e+001 1.429022e+001 1.169687e+000 1.107482e+000 1.618548e+000 1.686918e+000 1.154386e+000 1.389537e+000 1.611361e+000 1.243843e+000 1.155384e+000 1.268698e+000 1.134807e+000 1.035384e+000 6.381161e-001
<GCONST> 8.612778e+001
<STATE> 4
<MEAN> 25
 5.619571e-001 4.126914e-001 1.822697e-001 -1.208663e+000 -5.470780e-001 -8.510599e-001 6.179971e-001 3.089615e-001 -4.920085e-002 2.811198e-001 -1.220720e-001 5.823567e-002 2.359236e-003 -6.819461e-004 6.986662e-003 -7.185785e-003 2.055311e-003 -6.446560e-004 6.087745e-003 5.364032e-003 -7.547868e-004 -3.001126e-003 -3.215545e-003 7.625426e-004 8.684547e-003
<VARIANCE> 25
 4.698217e+001 3.161155e+001 4.026264e+001 3.646321e+001 2.133049e+001 2.147276e+001 2.592679e+001 2.049543e+001 1.474409e+001 1.593671e+001 1.478435e+001 1.445590e+001 1.191565e+000 1.118559e+000 1.637810e+000 1.695480e+000 1.150972e+000 1.390516e+000 1.615317e+000 1.249698e+000 1.160379e+000 1.276582e+000 1.139366e+000 1.040578e+000 6.423222e-001
<GCONST> 8.637035e+001
<TRANSP> 5
 0.000000e+000 1.000000e+000 0.000000e+000 0.000000e+000 0.000000e+000
 0.000000e+000 7.736315e-001 2.263685e-001 0.000000e+000 0.000000e+000
 0.000000e+000 0.000000e+000 7.736323e-001 2.263677e-001 0.000000e+000
 0.000000e+000 0.000000e+000 0.000000e+000 9.028816e-001 9.711835e-002
 0.000000e+000 0.000000e+000 0.000000e+000 0.000000e+000 0.000000e+000
<ENDHMM>
~h "m"
<BEGINHMM>
<NUMSTATES> 5
<STATE> 2
<MEAN> 25
 9.752353e-001 8.400574e-001 -1.125488e-001 -1.323418e-001 -1.527234e-001 -9.653108e-003 2.753882e-001 6.851752e-001 3.365149e-001 -1.081990e-001 -2.068841e-001 -6.753438e-002 -4.092847e-003 -1.102035e-003 -8.624128e-003 2.332989e-003 -3.943445e-003 5.766155e-003 -7.780161e-004 -3.097827e-003 6.823610e-004 -1.348898e-003 -1.501385e-003 5.468355e-004 -9.138617e-003
<VARIANCE> 25
 3.871161e+001 2.530710e+001 3.315300e+001 3.192833e+001 2.209018e+001 1.952971e+001 2.188212e+001 2.196370e+001 1.495953e+001 1.986716e+001 1.286788e+001 1.479031e+001 9.632434e-001 8.948877e-001 1.400938e+000 1.618381e+000 1.108017e+000 1.269207e+000 1.368140e+000 1.228756e+000 1.118848e+000 1.316896e+000 9.797995e-001 1.063137e+000 5.578754e-001
<GCONST> 8.435928e+001
<STATE> 3
<MEAN> 25
 9.512402e-001 8.286092e-001 -1.522494e-001 -1.192838e-001 -1.676984e-001 2.010223e-002 2.748282e-001 6.675629e-001 3.364345e-001 -1.150047e-001 -2.144749e-001 -6.579866e-002 -4.666067e-003 -2.182524e-003 -8.152140e-003 3.230287e-003 -2.645438e-003 6.216904e-003 -5.863744e-004 -3.933668e-003 -1.602232e-004 -2.141989e-003 -1.988352e-003 1.049489e-004 -8.804244e-003
<VARIANCE> 25
 3.826785e+001 2.517075e+001 3.292617e+001 3.165069e+001 2.192115e+001 1.931733e+001 2.163182e+001 2.195054e+001 1.492766e+001 1.982535e+001 1.279084e+001 1.478565e+001 9.565372e-001 8.926541e-001 1.400919e+000 1.611624e+000 1.111428e+000 1.258054e+000 1.355703e+000 1.223230e+000 1.116489e+000 1.318214e+000 9.770467e-001 1.063267e+000 5.553865e-001
<GCONST> 8.424413e+001
<STATE> 4
<MEAN> 25
 9.208405e-001 8.118297e-001 -2.210443e-001 -7.952585e-002 -1.777076e-001 8.802664e-002 2.985863e-001 6.486928e-001 3.425772e-001 -1.188210e-001 -2.218290e-001 -5.466436e-002 -5.214161e-003 -4.299325e-003 -8.129495e-003 3.019687e-003 -8.878884e-004 6.083944e-003 3.796675e-004 -4.132252e-003 -1.293661e-003 -1.753721e-003 -1.353253e-003 -1.429239e-004 -7.485868e-003
<VARIANCE> 25
 3.762178e+001 2.504878e+001 3.227824e+001 3.110485e+001 2.143892e+001 1.883593e+001 2.114104e+001 2.197854e+001 1.487544e+001 1.956569e+001 1.263770e+001 1.483877e+001 9.446241e-001 8.934764e-001 1.391771e+000 1.601329e+000 1.125058e+000 1.244763e+000 1.328931e+000 1.218763e+000 1.111595e+000 1.320350e+000 9.732434e-001 1.066327e+000 5.493405e-001
<GCONST> 8.402932e+001
<TRANSP> 5
 0.000000e+000 1.000000e+000 0.000000e+000 0.000000e+000 0.000000e+000
 0.000000e+000 7.761272e-001 2.238727e-001 0.000000e+000 0.000000e+000
 0.000000e+000 0.000000e+000 7.761248e-001 2.238752e-001 0.000000e+000
 0.000000e+000 0.000000e+000 0.000000e+000 9.058236e-001 9.417634e-002
 0.000000e+000 0.000000e+000 0.000000e+000 0.000000e+000 0.000000e+000
<ENDHMM>
~h "n"
<BEGINHMM>
<NUMSTATES> 5
<STATE> 2
<MEAN> 25
 4.730686e-001 4.605596e-001 6.001079e-001 1.314952e+000 1.114532e+000 7.304144e-001 -4.421680e-001 -4.701220e-001 -6.437344e-002 -4.131521e-002 -3.079227e-002 -3.528680e-002 -8.659021e-003 -1.039304e-003 2.890282e-003 1.180087e-002 -2.187892e-003 9.007301e-004 -3.868760e-003 -3.679289e-003 4.197311e-003 1.761101e-003 -2.671403e-004 -3.571260e-003 -9.263805e-003
<VARIANCE> 25
 3.080057e+001 2.240030e+001 3.468081e+001 3.879453e+001 2.832624e+001 1.881586e+001 2.677617e+001 1.786264e+001 1.513094e+001 1.623267e+001 1.276172e+001 1.414840e+001 9.778566e-001 1.106608e+000 1.572286e+000 1.848170e+000 1.287515e+000 1.509925e+000 2.115678e+000 1.365644e+000 1.320981e+000 1.483419e+000 1.146610e+000 1.070573e+000 7.179552e-001
<GCONST> 8.625432e+001
<STATE> 3
<MEAN> 25
 4.332110e-001 4.552313e-001 6.120510e-001 1.359964e+000 1.099504e+000 7.316796e-001 -4.590435e-001 -4.837658e-001 -4.422893e-002 -3.206832e-002 -2.998502e-002 -5.184574e-002 -1.003354e-002 -2.300599e-003 1.927269e-003 8.275728e-003 -3.704038e-003 1.958884e-004 -2.806497e-003 -2.208410e-003 5.018613e-003 2.025400e-003 6.890735e-004 -2.721509e-003 -9.216819e-003
<VARIANCE> 25
 3.071239e+001 2.239530e+001 3.452700e+001 3.832535e+001 2.838903e+001 1.879429e+001 2.666486e+001 1.781935e+001 1.506957e+001 1.627137e+001 1.268608e+001 1.406877e+001 9.676626e-001 1.100494e+000 1.551606e+000 1.825034e+000 1.279201e+000 1.506981e+000 2.102705e+000 1.363753e+000 1.313649e+000 1.482827e+000 1.142048e+000 1.063451e+000 7.095225e-001
<GCONST> 8.612955e+001
<STATE> 4
<MEAN> 25
 3.894143e-001 4.758229e-001 6.397166e-001 1.399462e+000 1.046593e+000 7.344919e-001 -4.669522e-001 -4.840736e-001 -1.799787e-003 -6.629145e-003 -2.401310e-002 -9.446143e-002 -1.201540e-002 -4.636940e-003 -7.402134e-004 5.945546e-004 -7.455866e-003 -2.114941e-003 -1.740128e-003 1.537935e-004 6.264066e-003 3.188706e-003 2.155282e-003 -1.846468e-003 -8.804128e-003
<VARIANCE> 25
 3.063462e+001 2.265935e+001 3.417606e+001 3.739431e+001 2.817461e+001 1.873129e+001 2.633072e+001 1.772650e+001 1.490642e+001 1.642858e+001 1.262021e+001 1.395837e+001 9.506173e-001 1.100924e+000 1.515670e+000 1.780102e+000 1.261308e+000 1.493600e+000 2.059979e+000 1.352410e+000 1.295899e+000 1.484197e+000 1.140606e+000 1.055160e+000 6.921609e-001
<GCONST> 8.589663e+001
<TRANSP> 5
 0.000000e+000 1.000000e+000 0.000000e+000 0.000000e+000 0.000000e+000
 0.000000e+000 7.723304e-001 2.276696e-001 0.000000e+000 0.000000e+000
 0.000000e+000 0.000000e+000 7.723318e-001 2.276682e-001 0.000000e+000
 0.000000e+000 0.000000e+000 0.000000e+000 9.014103e-001 9.858974e-002
 0.000000e+000 0.000000e+000 0.000000e+000 0.000000e+000 0.000000e+000
<ENDHMM>
~h "o"
<BEGINHMM>
<NUMSTATES> 5
<STATE> 2
<MEAN> 25
 9.393557e-001 5.789067e-001 -4.072872e-001 -9.484462e-001 -1.164829e+000 -1.432586e+000 -1.985232e-002 2.745982e-001 -1.162180e-001 3.857060e-001 -1.540976e-001 -5.048013e-001 1.895685e-003 9.151491e-003 1.974504e-002 4.843130e-003 -1.372972e-002 -1.641395e-002 2.851760e-003 2.685417e-004 -7.386126e-004 -3.863214e-003 -7.724197e-003 -6.837440e-003 3.725740e-003
<VARIANCE> 25
 4.502682e+001 3.437872e+001 4.091604e+001 3.237790e+001 2.681619e+001 2.354485e+001 2.504209e+001 1.978094e+001 1.643499e+001 1.826881e+001 1.607796e+001 1.470285e+001 1.044810e+000 9.377723e-001 1.304309e+000 1.280612e+000 1.132276e+000 1.290377e+000 1.426010e+000 1.219162e+000 1.198656e+000 1.187713e+000 1.087251e+000 9.204918e-001 5.433134e-001
<GCONST> 8.547269e+001
<STATE> 3
<MEAN> 25
 9.160096e-001 6.090101e-001 -2.986751e-001 -9.019429e-001 -1.225891e+000 -1.497764e+000 -1.544089e-002 2.650959e-001 -1.162707e-001 3.700978e-001 -1.819758e-001 -5.308459e-001 -5.791085e-003 6.861479e-003 2.728108e-002 1.034133e-002 -1.320774e-002 -1.510716e-002 3.691237e-004 -2.415645e-003 -4.716523e-004 -4.707900e-003 -6.720481e-003 -6.551586e-003 1.293383e-004
<VARIANCE> 25
 4.557016e+001 3.492371e+001 4.017416e+001 3.201385e+001 2.680971e+001 2.394101e+001 2.512369e+001 1.968976e+001 1.656995e+001 1.828973e+001 1.612179e+001 1.476532e+001 1.048530e+000 9.430779e-001 1.294206e+000 1.273625e+000 1.131351e+000 1.302558e+000 1.440713e+000 1.217357e+000 1.200772e+000 1.189387e+000 1.086990e+000 9.221297e-001 5.404553e-001
<GCONST> 8.551490e+001
<STATE> 4
<MEAN> 25
 8.232766e-001 6.930368e-001 5.988151e-002 -6.204266e-001 -1.312651e+000 -1.586272e+000 -8.960102e-002 2.132357e-001 -7.489263e-002 3.385580e-001 -1.994335e-001 -5.528819e-001 -1.809762e-002 -2.188099e-003 2.855161e-002 1.612146e-002 -8.210272e-003 -8.428033e-003 -2.221216e-003 -6.437234e-003 7.628038e-005 -3.609956e-003 -2.381713e-003 -3.318705e-003 -5.877137e-003
<VARIANCE> 25
 4.630873e+001 3.599878e+001 3.799569e+001 3.016263e+001 2.756419e+001 2.501216e+001 2.554477e+001 1.941351e+001 1.696460e+001 1.842635e+001 1.612698e+001 1.484025e+001 1.069950e+000 9.663540e-001 1.285868e+000 1.265027e+000 1.147839e+000 1.348571e+000 1.490046e+000 1.222629e+000 1.214066e+000 1.206392e+000 1.104536e+000 9.188468e-001 5.387465e-001
<GCONST> 8.570939e+001
<TRANSP> 5
 0.000000e+000 1.000000e+000 0.000000e+000 0.000000e+000 0.000000e+000
 0.000000e+000 7.805384e-001 2.194616e-001 0.000000e+000 0.000000e+000
 0.000000e+000 0.000000e+000 7.805386e-001 2.194614e-001 0.000000e+000
 0.000000e+000 0.000000e+000 0.000000e+000 9.110716e-001 8.892842e-002
 0.000000e+000 0.000000e+000 0.000000e+000 0.000000e+000 0.000000e+000
<ENDHMM>
~h "p"
<BEGINHMM>
<NUMSTATES> 5
<STATE> 2
<MEAN> 25
 1.141433e-001 3.523021e-001 2.847012e-001 6.483725e-001 2.557107e-002 1.822927e-001 -3.726458e-001 -2.116672e-001 -1.401712e-002 -5.734325e-002 -2.325780e-001 -3.941349e-001 7.268119e-004 3.035439e-003 8.993984e-003 1.139259e-002 6.349565e-003 5.001766e-005 -9.233383e-003 1.969794e-003 6.695225e-003 -3.039807e-003 -5.480556e-003 -7.019627e-003 -6.247464e-004
<VARIANCE> 25
 3.231387e+001 2.501937e+001 3.686955e+001 3.401104e+001 2.354122e+001 1.678075e+001 2.243374e+001 1.729366e+001 1.392492e+001 1.800158e+001 1.383186e+001 1.403301e+001 1.104372e+000 1.237858e+000 1.493943e+000 1.638752e+000 1.164445e+000 1.282266e+000 1.685766e+000 1.229309e+000 1.205623e+000 1.419542e+000 1.187636e+000 1.065041e+000 6.653458e-001
<GCONST> 8.521098e+001
<STATE> 3
<MEAN> 25
 1.140761e-001 3.590165e-001 3.216285e-001 6.992508e-001 5.254777e-002 1.833645e-001 -4.145719e-001 -2.090185e-001 1.249367e-002 -6.828552e-002 -2.514094e-001 -4.238234e-001 -4.723443e-004 1.084797e-003 7.672704e-003 1.080561e-002 5.660099e-003 7.140963e-005 -8.939180e-003 5.706350e-004 5.948469e-003 -1.938062e-003 -3.716559e-003 -6.233816e-003 -8.251210e-004
<VARIANCE> 25
 3.213706e+001 2.499199e+001 3.723670e+001 3.420426e+001 2.389344e+001 1.677687e+001 2.270632e+001 1.721245e+001 1.397069e+001 1.794235e+001 1.378013e+001 1.409775e+001 1.094561e+000 1.230433e+000 1.481940e+000 1.630318e+000 1.163689e+000 1.284194e+000 1.704347e+000 1.225617e+000 1.206110e+000 1.415152e+000 1.185296e+000 1.065631e+000 6.597429e-001
<GCONST> 8.521088e+001
<STATE> 4
<MEAN> 25
 7.043201e-002 3.243738e-001 3.697791e-001 7.918302e-001 1.095512e-001 2.031135e-001 -4.893924e-001 -2.348372e-001 3.442778e-002 -7.351646e-002 -2.618314e-001 -4.584776e-001 -4.089849e-003 -2.415417e-003 6.518344e-003 9.724130e-003 6.278922e-003 1.300296e-003 -8.053871e-003 -1.792377e-003 4.374627e-003 -4.497869e-004 -6.497194e-004 -3.201419e-003 -1.799626e-003
<VARIANCE> 25
 3.168106e+001 2.485481e+001 3.788857e+001 3.436749e+001 2.444238e+001 1.672866e+001 2.302291e+001 1.676638e+001 1.382073e+001 1.787222e+001 1.380688e+001 1.405724e+001 1.078592e+000 1.204577e+000 1.461179e+000 1.603996e+000 1.163536e+000 1.290794e+000 1.723152e+000 1.211855e+000 1.199026e+000 1.406105e+000 1.189979e+000 1.060902e+000 6.500975e-001
<GCONST> 8.511580e+001
<TRANSP> 5
 0.000000e+000 1.000000e+000 0.000000e+000 0.000000e+000 0.000000e+000
 0.000000e+000 7.763785e-001 2.236215e-001 0.000000e+000 0.000000e+000
 0.000000e+000 0.000000e+000 7.763790e-001 2.236210e-001 0.000000e+000
 0.000000e+000 0.000000e+000 0.000000e+000 9.062743e-001 9.372573e-002
 0.000000e+000 0.000000e+000 0.000000e+000 0.000000e+000 0.000000e+000
<ENDHMM>
~h "r"
<BEGINHMM>
<NUMSTATES> 5
<STATE> 2
<MEAN> 25
 1.152164e+000 3.347677e-001 1.031810e-001 -3.115726e-001 1.433930e-003 -7.619268e-001 1.082445e-001 5.973534e-001 -1.087987e-001 -1.924148e-001 1.795774e-002 -7.964057e-002 1.616603e-002 1.602264e-002 6.466482e-003 1.208246e-002 2.607216e-003 -2.127729e-003 -6.214854e-003 6.307978e-004 7.508408e-004 -3.685351e-003 1.880383e-003 2.101714e-003 3.804071e-003
<VARIANCE> 25
 4.513691e+001 2.973797e+001 4.059807e+001 3.306045e+001 2.707735e+001 2.209222e+001 2.871222e+001 2.383658e+001 1.670547e+001 2.190213e+001 1.388196e+001 1.538683e+001 1.096314e+000 9.891938e-001 1.341439e+000 1.419454e+000 1.088214e+000 1.376941e+000 1.584973e+000 1.344251e+000 1.248873e+000 1.398516e+000 1.032785e+000 1.039605e+000 5.754164e-001
<GCONST> 8.650200e+001
<STATE> 3
<MEAN> 25
 1.206956e+000 4.017301e-001 1.228717e-001 -2.514506e-001 8.884423e-003 -7.555233e-001 8.300176e-002 5.969103e-001 -9.852435e-002 -2.069873e-001 2.537471e-002 -7.305646e-002 1.026346e-002 1.457068e-002 5.632692e-003 1.466423e-002 2.381862e-003 2.216533e-003 -5.755015e-003 -5.366019e-004 2.806575e-003 -3.719235e-003 1.260180e-003 1.065210e-003 -1.617947e-003
<VARIANCE> 25
 4.494383e+001 2.950486e+001 4.022176e+001 3.269410e+001 2.717114e+001 2.229473e+001 2.885597e+001 2.372152e+001 1.670196e+001 2.214804e+001 1.393366e+001 1.533970e+001 1.094692e+000 9.842875e-001 1.336843e+000 1.412573e+000 1.083417e+000 1.380706e+000 1.584728e+000 1.339239e+000 1.247434e+000 1.397820e+000 1.031750e+000 1.033221e+000 5.758016e-001
<GCONST> 8.646527e+001
<STATE> 4
<MEAN> 25
 1.314608e+000 5.559434e-001 1.660634e-001 -4.788550e-002 5.870232e-002 -6.635067e-001 2.319919e-002 5.821262e-001 -4.776125e-002 -2.594346e-001 2.581659e-002 -5.093276e-002 -1.034436e-003 1.090924e-002 1.789184e-003 1.707955e-002 8.221819e-004 9.176232e-003 -5.087856e-003 -2.471779e-003 6.374939e-003 -2.401463e-003 -7.351991e-004 -7.076661e-004 -1.194435e-002
<VARIANCE> 25
 4.414590e+001 2.869861e+001 3.893026e+001 3.158542e+001 2.702048e+001 2.238080e+001 2.857693e+001 2.349357e+001 1.661374e+001 2.279530e+001 1.385905e+001 1.519132e+001 1.085832e+000 9.700679e-001 1.315877e+000 1.382723e+000 1.076253e+000 1.383405e+000 1.565705e+000 1.327800e+000 1.239732e+000 1.401231e+000 1.024457e+000 1.015792e+000 5.691342e-001
<GCONST> 8.621516e+001
<TRANSP> 5
 0.000000e+000 1.000000e+000 0.000000e+000 0.000000e+000 0.000000e+000
 0.000000e+000 7.793705e-001 2.206295e-001 0.000000e+000 0.000000e+000
 0.000000e+000 0.000000e+000 7.793708e-001 2.206291e-001 0.000000e+000
 0.000000e+000 0.000000e+000 0.000000e+000 9.094724e-001 9.052761e-002
 0.000000e+000 0.000000e+000 0.000000e+000 0.000000e+000 0.000000e+000
<ENDHMM>
~h "s"
<BEGINHMM>
<NUMSTATES> 5
<STATE> 2
<MEAN> 25
 -6.951281e-001 -7.828815e-001 9.806502e-001 -9.637166e-001 2.704314e-002 -4.931417e-001 7.087733e-001 -5.129977e-002 -3.760474e-001 -1.006830e-001 -1.915537e-002 4.723201e-002 -2.941185e-004 -4.651298e-003 -1.841538e-003 -4.579405e-003 3.638804e-003 2.866024e-003 1.329314e-005 -1.615251e-004 -1.377474e-003 -7.469670e-004 5.819104e-004 3.008102e-004 3.261620e-003
<VARIANCE> 25
 5.302921e+001 3.556339e+001 5.369848e+001 3.684437e+001 2.391355e+001 2.095863e+001 3.069452e+001 1.764685e+001 1.674220e+001 1.951941e+001 1.470408e+001 1.511351e+001 1.588886e+000 1.388631e+000 1.824794e+000 1.582665e+000 1.136964e+000 1.379835e+000 1.691056e+000 1.266569e+000 1.297795e+000 1.386512e+000 1.199223e+000 1.067862e+000 7.101275e-001
<GCONST> 8.834026e+001
<STATE> 3
<MEAN> 25
 -7.008795e-001 -8.084003e-001 9.685231e-001 -9.893030e-001 4.051467e-002 -4.817988e-001 7.073790e-001 -5.019231e-002 -3.836842e-001 -1.045771e-001 -1.413987e-002 5.553780e-002 -2.130889e-003 -5.998322e-003 -2.090249e-003 -5.902937e-003 2.832956e-003 2.768121e-003 1.296583e-004 9.230825e-004 -1.446691e-003 -8.400956e-004 1.315188e-003 2.517415e-003 2.471942e-003
<VARIANCE> 25
 5.296325e+001 3.561325e+001 5.392817e+001 3.713275e+001 2.411921e+001 2.095079e+001 3.068205e+001 1.767024e+001 1.680627e+001 1.943630e+001 1.454288e+001 1.515320e+001 1.586977e+000 1.381173e+000 1.834638e+000 1.591746e+000 1.137178e+000 1.379117e+000 1.696606e+000 1.261635e+000 1.298218e+000 1.379229e+000 1.185836e+000 1.071925e+000 7.119893e-001
<GCONST> 8.834655e+001
<STATE> 4
<MEAN> 25
 -6.858634e-001 -8.595213e-001 1.027762e+000 -1.049628e+000 1.110966e-001 -4.393684e-001 7.029284e-001 -2.634052e-002 -4.018472e-001 -1.299676e-001 3.669867e-003 9.485664e-002 -3.252049e-003 -6.409663e-003 4.908199e-004 -6.652046e-003 2.793722e-003 3.931577e-003 -2.779338e-003 2.372674e-004 -8.773604e-004 7.977504e-005 2.002843e-003 3.436105e-003 2.195436e-003
<VARIANCE> 25
 5.329710e+001 3.611520e+001 5.479256e+001 3.811193e+001 2.468764e+001 2.104874e+001 3.077448e+001 1.785421e+001 1.706325e+001 1.939232e+001 1.427418e+001 1.515698e+001 1.602982e+000 1.376355e+000 1.870294e+000 1.616471e+000 1.145439e+000 1.385323e+000 1.715010e+000 1.258535e+000 1.299067e+000 1.373675e+000 1.160227e+000 1.077095e+000 7.182344e-001
<GCONST> 8.849419e+001
<TRANSP> 5
 0.000000e+000 1.000000e+000 0.000000e+000 0.000000e+000 0.000000e+000
 0.000000e+000 7.803169e-001 2.196830e-001 0.000000e+000 0.000000e+000
 0.000000e+000 0.000000e+000 7.803175e-001 2.196825e-001 0.000000e+000
 0.000000e+000 0.000000e+000 0.000000e+000 9.104526e-001 8.954743e-002
 0.000000e+000 0.000000e+000 0.000000e+000 0.000000e+000 0.000000e+000
<ENDHMM>
~h "t"
<BEGINHMM>
<NUMSTATES> 5
<STATE> 2
<MEAN> 25
 -4.314904e-001 -3.676768e-001 7.448463e-002 5.190677e-001 2.589623e-001 3.205396e-001 -2.844852e-001 -3.566588e-001 -3.199242e-001 -2.848079e-001 -3.392133e-002 -1.852449e-001 9.697208e-004 7.638115e-004 -2.201862e-004 4.822487e-003 1.924724e-003 3.346330e-003 -3.720436e-003 -1.065278e-004 -2.487005e-003 -1.323582e-003 1.396120e-003 -4.963681e-003 -2.186071e-003
<VARIANCE> 25
 3.377908e+001 2.447344e+001 3.611004e+001 3.343133e+001 2.289075e+001 1.671404e+001 2.258222e+001 1.665730e+001 1.320837e+001 1.923346e+001 1.398729e+001 1.493804e+001 1.140832e+000 1.249570e+000 1.609842e+000 1.779409e+000 1.203260e+000 1.275405e+000 1.560716e+000 1.222045e+000 1.242296e+000 1.515225e+000 1.221352e+000 1.101780e+000 7.043154e-001
<GCONST> 8.557680e+001
<STATE> 3
<MEAN> 25
 -4.245346e-001 -3.619425e-001 7.585751e-002 5.384859e-001 2.632838e-001 3.304868e-001 -3.045587e-001 -3.584199e-001 -3.308186e-001 -2.931693e-001 -3.161924e-002 -2.077449e-001 1.360296e-003 1.944490e-003 1.591412e-003 4.258376e-003 1.205525e-003 1.673164e-003 -5.049566e-003 -3.916093e-004 -1.456389e-003 -1.123156e-003 4.596307e-004 -4.983106e-003 -1.547105e-003
<VARIANCE> 25
 3.359802e+001 2.440886e+001 3.596722e+001 3.322903e+001 2.285451e+001 1.668182e+001 2.243313e+001 1.663009e+001 1.325762e+001 1.930278e+001 1.403407e+001 1.498715e+001 1.139722e+000 1.261528e+000 1.615903e+000 1.781110e+000 1.207708e+000 1.276770e+000 1.564038e+000 1.225465e+000 1.246671e+000 1.524244e+000 1.227258e+000 1.107146e+000 7.065244e-001
<GCONST> 8.560612e+001
<STATE> 4
<MEAN> 25
 -3.861586e-001 -3.338359e-001 1.080572e-001 5.636461e-001 2.635650e-001 3.230266e-001 -3.653838e-001 -3.751855e-001 -3.542222e-001 -3.137252e-001 -4.653287e-002 -2.614875e-001 9.097132e-004 2.921294e-003 2.730495e-003 3.023722e-003 -3.052159e-004 -6.359546e-004 -6.145908e-003 -9.994394e-004 -5.125413e-004 -6.580697e-004 -6.508878e-004 -4.116014e-003 -1.658969e-003
<VARIANCE> 25
 3.332748e+001 2.441451e+001 3.571089e+001 3.286650e+001 2.276518e+001 1.665401e+001 2.218778e+001 1.654093e+001 1.333052e+001 1.938447e+001 1.411546e+001 1.506907e+001 1.144978e+000 1.292021e+000 1.629127e+000 1.771564e+000 1.210012e+000 1.279561e+000 1.565241e+000 1.236146e+000 1.252617e+000 1.538743e+000 1.239613e+000 1.115423e+000 7.113898e-001
<GCONST> 8.566249e+001
<TRANSP> 5
 0.000000e+000 1.000000e+000 0.000000e+000 0.000000e+000 0.000000e+000
 0.000000e+000 7.775021e-001 2.224979e-001 0.000000e+000 0.000000e+000
 0.000000e+000 0.000000e+000 7.775013e-001 2.224987e-001 0.000000e+000
 0.000000e+000 0.000000e+000 0.000000e+000 9.071714e-001 9.282862e-002
 0.000000e+000 0.000000e+000 0.000000e+000 0.000000e+000 0.000000e+000
<ENDHMM>
~h "u"
<BEGINHMM>
<NUMSTATES> 5
<STATE> 2
<MEAN> 25
 1.874600e-001 4.161507e-001 3.133586e-001 3.061725e-001 -3.965833e-001 -2.634593e-001 -3.923545e-002 1.698545e-002 -1.548642e-001 -1.611518e-001 -1.666807e-001 -4.081583e-001 -5.329175e-003 -1.212577e-003 4.601731e-003 1.754131e-003 -1.358943e-003 1.909702e-003 2.116933e-003 -1.729644e-003 1.872289e-003 -3.498086e-004 -1.122470e-003 -1.992006e-003 -1.890663e-003
<VARIANCE> 25
 3.801360e+001 2.966802e+001 3.605716e+001 3.012440e+001 1.979066e+001 1.903068e+001 2.366072e+001 1.703407e+001 1.403030e+001 1.798467e+001 1.368414e+001 1.445540e+001 1.148973e+000 1.328071e+000 1.383137e+000 1.497447e+000 1.116148e+000 1.351448e+000 1.523985e+000 1.165706e+000 1.188974e+000 1.377183e+000 1.152721e+000 1.038332e+000 6.046374e-001
<GCONST> 8.501989e+001
<STATE> 3
<MEAN> 25
 1.577927e-001 4.071465e-001 3.355125e-001 3.125999e-001 -4.032410e-001 -2.557536e-001 -2.986990e-002 6.027517e-003 -1.479577e-001 -1.619777e-001 -1.719105e-001 -4.164790e-001 -7.102616e-003 -2.473702e-003 5.503132e-003 1.429704e-003 -7.364165e-004 2.361911e-003 1.925187e-003 -2.495519e-003 1.838191e-003 -3.875976e-005 -5.681754e-004 -9.930976e-004 -2.046889e-003
<VARIANCE> 25
 3.805681e+001 2.974142e+001 3.609185e+001 3.000216e+001 1.968575e+001 1.900992e+001 2.365339e+001 1.693805e+001 1.405279e+001 1.804560e+001 1.369627e+001 1.443989e+001 1.150984e+000 1.330985e+000 1.382643e+000 1.492638e+000 1.114934e+000 1.349076e+000 1.523639e+000 1.162860e+000 1.188422e+000 1.378598e+000 1.155584e+000 1.039427e+000 6.023058e-001
<GCONST> 8.500790e+001
<STATE> 4
<MEAN> 25
 1.134591e-001 3.935445e-001 3.773890e-001 3.223978e-001 -4.103146e-001 -2.357402e-001 -1.731776e-002 -2.200690e-002 -1.531860e-001 -1.775354e-001 -1.821522e-001 -4.211900e-001 -7.876277e-003 -3.967851e-003 5.311692e-003 -1.209436e-003 -3.505392e-004 1.959546e-003 1.985013e-003 -3.172463e-003 1.154014e-003 1.599872e-004 8.001390e-005 9.233490e-004 -8.749462e-004
<VARIANCE> 25
 3.800453e+001 3.000329e+001 3.610304e+001 2.965455e+001 1.943459e+001 1.893195e+001 2.353392e+001 1.672063e+001 1.407302e+001 1.815079e+001 1.368209e+001 1.443979e+001 1.160029e+000 1.340082e+000 1.380708e+000 1.473529e+000 1.116016e+000 1.350652e+000 1.520913e+000 1.159025e+000 1.186404e+000 1.382930e+000 1.159951e+000 1.043524e+000 5.978766e-001
<GCONST> 8.497439e+001
<TRANSP> 5
 0.000000e+000 1.000000e+000 0.000000e+000 0.000000e+000 0.000000e+000
 0.000000e+000 7.779074e-001 2.220926e-001 0.000000e+000 0.000000e+000
 0.000000e+000 0.000000e+000 7.779070e-001 2.220930e-001 0.000000e+000
 0.000000e+000 0.000000e+000 0.000000e+000 9.075285e-001 9.247145e-002
 0.000000e+000 0.000000e+000 0.000000e+000 0.000000e+000 0.000000e+000
<ENDHMM>
~h "ng"
<BEGINHMM>
<NUMSTATES> 5
<STATE> 2
<MEAN> 25
 1.195499e-001 -2.883025e-001 2.364673e-001 -1.911942e-001 6.971031e-001 4.020971e-001 -1.174763e-001 2.626833e-001 2.477778e-001 -1.655563e-001 2.495017e-002 3.821022e-001 -1.317402e-003 -3.452674e-003 -1.956112e-002 -1.237662e-002 -1.474128e-002 -1.070384e-002 -1.182002e-003 -1.147338e-003 -6.787374e-003 3.959224e-003 7.715925e-003 3.265204e-003 -5.684657e-003
<VARIANCE> 25
 4.052033e+001 2.551260e+001 4.361612e+001 3.816228e+001 2.753873e+001 1.632239e+001 2.588010e+001 1.975285e+001 1.553153e+001 1.957394e+001 1.294016e+001 1.539991e+001 1.039988e+000 9.204620e-001 1.544913e+000 1.781499e+000 1.072751e+000 1.215238e+000 1.736893e+000 1.329094e+000 1.213642e+000 1.491915e+000 1.114344e+000 1.099345e+000 6.141032e-001
<GCONST> 8.604144e+001
<STATE> 3
<MEAN> 25
 1.281730e-001 -2.883517e-001 1.407908e-001 -2.336478e-001 6.295727e-001 3.549331e-001 -1.187540e-001 2.607059e-001 2.177162e-001 -1.476601e-001 5.821251e-002 3.951297e-001 5.696768e-004 -4.702096e-004 -2.127595e-002 -8.512633e-003 -1.555478e-002 -1.014092e-002 -4.493547e-004 -1.136564e-003 -6.927526e-003 4.195122e-003 7.632343e-003 2.213989e-003 -8.025148e-003
<VARIANCE> 25
 4.043714e+001 2.507463e+001 4.293428e+001 3.739014e+001 2.732073e+001 1.619925e+001 2.574962e+001 1.975082e+001 1.534936e+001 1.951974e+001 1.302096e+001 1.529812e+001 1.028491e+000 9.009948e-001 1.527984e+000 1.774151e+000 1.065693e+000 1.207593e+000 1.709267e+000 1.321819e+000 1.206072e+000 1.482109e+000 1.120518e+000 1.097674e+000 6.069965e-001
<GCONST> 8.584765e+001
<STATE> 4
<MEAN> 25
 2.516069e-001 -1.819080e-001 5.167658e-002 -2.344498e-001 5.565882e-001 2.866134e-001 -9.056181e-002 3.026715e-001 1.670514e-001 -1.437263e-001 9.901352e-002 3.970907e-001 2.585265e-003 3.814537e-003 -2.515378e-002 -4.220105e-003 -1.880066e-002 -8.978141e-003 3.121686e-003 -1.266076e-003 -6.950668e-003 4.795955e-003 6.565390e-003 1.706214e-003 -1.233804e-002
<VARIANCE> 25
 4.079037e+001 2.491803e+001 4.173881e+001 3.647350e+001 2.680676e+001 1.635317e+001 2.570047e+001 1.963083e+001 1.529261e+001 1.940150e+001 1.320264e+001 1.506282e+001 1.036973e+000 8.927583e-001 1.512346e+000 1.777798e+000 1.066696e+000 1.210077e+000 1.677765e+000 1.315161e+000 1.205808e+000 1.465814e+000 1.135788e+000 1.097638e+000 6.028349e-001
<GCONST> 8.573354e+001
<TRANSP> 5
 0.000000e+000 1.000000e+000 0.000000e+000 0.000000e+000 0.000000e+000
 0.000000e+000 7.734894e-001 2.265107e-001 0.000000e+000 0.000000e+000
 0.000000e+000 0.000000e+000 7.734898e-001 2.265102e-001 0.000000e+000
 0.000000e+000 0.000000e+000 0.000000e+000 9.033047e-001 9.669523e-002
 0.000000e+000 0.000000e+000 0.000000e+000 0.000000e+000 0.000000e+000
<ENDHMM>
~h "ny"
<BEGINHMM>
<NUMSTATES> 5
<STATE> 2
<MEAN> 25
 -3.287708e-001 -3.986919e-001 -3.474134e-001 -3.430029e-001 2.680499e-001 6.219933e-002 3.988364e-001 2.277702e-001 7.987727e-002 3.662068e-001 4.701566e-001 3.877115e-001 1.902653e-002 6.017155e-003 -2.117684e-002 -7.342882e-003 -2.250310e-003 5.587910e-003 9.741454e-003 -3.053426e-005 -1.353575e-002 -5.121814e-003 -2.120686e-004 7.256519e-003 3.623826e-003
<VARIANCE> 25
 4.166824e+001 2.550188e+001 3.582670e+001 3.295679e+001 2.095681e+001 1.757429e+001 2.458387e+001 1.799861e+001 1.366885e+001 1.653247e+001 1.201646e+001 1.504999e+001 9.643450e-001 9.704540e-001 1.601007e+000 1.584321e+000 1.125533e+000 1.343224e+000 1.885433e+000 1.240084e+000 1.196661e+000 1.280127e+000 9.521132e-001 1.059554e+000 6.058115e-001
<GCONST> 8.466994e+001
<STATE> 3
<MEAN> 25
 -2.332309e-001 -3.679740e-001 -4.318277e-001 -3.799718e-001 2.589011e-001 7.955791e-002 4.252911e-001 2.287595e-001 2.716847e-002 3.512525e-001 4.703206e-001 4.146355e-001 2.233786e-002 7.193736e-003 -1.799053e-002 -7.927617e-003 -1.703109e-003 3.764298e-003 5.186714e-003 -9.349680e-005 -1.176275e-002 -3.688074e-003 1.086245e-004 5.851851e-003 7.001958e-003
<VARIANCE> 25
 4.140308e+001 2.535353e+001 3.524670e+001 3.288249e+001 2.098592e+001 1.775281e+001 2.466800e+001 1.828477e+001 1.375157e+001 1.623847e+001 1.205014e+001 1.517816e+001 9.576270e-001 9.780115e-001 1.613148e+000 1.612558e+000 1.133957e+000 1.367524e+000 1.927811e+000 1.264030e+000 1.215005e+000 1.289904e+000 9.659049e-001 1.070543e+000 6.130954e-001
<GCONST> 8.482140e+001
<STATE> 4
<MEAN> 25
 4.096461e-002 -3.002899e-001 -5.202444e-001 -4.404169e-001 3.790342e-001 1.435540e-001 4.389662e-001 2.383606e-001 -2.916626e-002 3.366057e-001 4.721783e-001 4.852061e-001 3.053293e-002 1.117955e-002 -8.303124e-003 -6.439869e-003 6.543436e-003 3.012646e-003 -5.108086e-004 2.799668e-003 -4.774471e-003 -2.508698e-003 -2.654541e-004 5.439824e-003 1.555618e-002
<VARIANCE> 25
 4.157042e+001 2.535146e+001 3.449251e+001 3.372208e+001 2.134754e+001 1.833953e+001 2.530042e+001 1.875577e+001 1.386943e+001 1.581415e+001 1.229662e+001 1.564638e+001 9.676490e-001 1.012411e+000 1.653307e+000 1.675940e+000 1.172542e+000 1.436527e+000 2.021646e+000 1.326355e+000 1.257512e+000 1.306674e+000 1.009140e+000 1.101672e+000 6.420340e-001
<GCONST> 8.541431e+001
<TRANSP> 5
 0.000000e+000 1.000000e+000 0.000000e+000 0.000000e+000 0.000000e+000
 0.000000e+000 7.716987e-001 2.283013e-001 0.000000e+000 0.000000e+000
 0.000000e+000 0.000000e+000 7.716987e-001 2.283013e-001 0.000000e+000
 0.000000e+000 0.000000e+000 0.000000e+000 9.011627e-001 9.883726e-002
 0.000000e+000 0.000000e+000 0.000000e+000 0.000000e+000 0.000000e+000
<ENDHMM>
~h "sil"
<BEGINHMM>
<NUMSTATES> 5
<STATE> 2
<MEAN> 25
 -4.958416e+000 -2.868244e+000 -2.921600e+000 -4.070643e-001 -2.010615e+000 -1.960488e-002 -5.271972e-001 -1.237170e+000 1.259796e-001 1.457826e+000 9.653888e-001 2.792160e-001 -1.672401e-002 -2.334859e-002 1.519989e-002 -7.140880e-003 3.039027e-003 -6.362983e-003 -3.763625e-002 -3.582154e-002 3.335374e-003 -7.691452e-003 1.046818e-002 5.853052e-002 7.085059e-003
<VARIANCE> 25
 3.466923e+000 1.998260e+000 5.113810e+000 7.429358e+000 6.843523e+000 5.959050e+000 6.720599e+000 6.908793e+000 7.755697e+000 6.907662e+000 7.066776e+000 6.906112e+000 1.227619e-001 1.566036e-001 3.264832e-001 4.495008e-001 4.696707e-001 5.190695e-001 6.024525e-001 6.265880e-001 7.323395e-001 7.396773e-001 7.037758e-001 6.974526e-001 5.332718e-002
<GCONST> 5.442274e+001
<STATE> 3
<MEAN> 25
 -4.995227e+000 -2.913172e+000 -2.853779e+000 -4.823321e-001 -1.978659e+000 5.396583e-002 -5.994961e-001 -1.239348e+000 2.060439e-001 1.491885e+000 1.021966e+000 3.974999e-001 -7.057277e-004 -4.649858e-003 1.362142e-002 -1.245942e-002 -2.946976e-004 2.003323e-002 -1.407411e-002 8.870400e-003 1.823533e-002 1.101354e-002 1.492245e-002 9.681441e-003 5.763364e-003
<VARIANCE> 25
 3.551681e+000 2.105435e+000 5.291803e+000 7.615039e+000 6.812797e+000 5.927161e+000 6.543003e+000 7.302050e+000 7.801516e+000 7.100123e+000 7.139395e+000 6.762795e+000 1.363627e-001 1.471191e-001 3.278193e-001 4.496463e-001 4.582727e-001 5.207776e-001 6.014727e-001 6.813886e-001 7.402052e-001 7.440169e-001 6.975875e-001 6.768186e-001 5.914167e-002
<GCONST> 5.478848e+001
<STATE> 4
<MEAN> 25
 -4.900293e+000 -2.880650e+000 -2.843296e+000 -5.974943e-001 -1.915732e+000 1.715311e-001 -5.849311e-001 -1.125625e+000 2.957875e-001 1.599893e+000 1.131951e+000 4.154959e-001 -3.055127e-003 -4.597811e-003 2.096533e-002 -3.008238e-002 -5.728694e-003 1.679705e-002 -2.131608e-002 2.067231e-002 2.924891e-002 6.809320e-003 4.297876e-002 -7.563952e-003 1.190477e-002
<VARIANCE> 25
 3.781800e+000 2.382864e+000 5.787760e+000 7.983144e+000 6.761245e+000 5.861689e+000 6.764833e+000 7.400208e+000 7.668023e+000 7.160384e+000 7.196286e+000 6.785592e+000 1.407067e-001 1.544909e-001 3.599248e-001 4.833629e-001 4.535303e-001 5.325381e-001 6.180946e-001 6.887103e-001 7.593531e-001 7.435794e-001 6.657894e-001 6.814066e-001 6.195826e-002
<GCONST> 5.546976e+001
<TRANSP> 5
 0.000000e+000 1.000000e+000 0.000000e+000 0.000000e+000 0.000000e+000
 0.000000e+000 7.770674e-001 2.229326e-001 0.000000e+000 0.000000e+000
 0.000000e+000 0.000000e+000 7.770675e-001 2.229325e-001 0.000000e+000
 0.000000e+000 0.000000e+000 0.000000e+000 9.068459e-001 9.315410e-002
 0.000000e+000 0.000000e+000 0.000000e+000 0.000000e+000 0.000000e+000
<ENDHMM>
