~o
<STREAMINFO> 1 25
<VECSIZE> 25<NULLD><MFCC_D_N_Z_0><DIAGC>
~h "b"
<BEGINHMM>
<NUMSTATES> 5
<STATE> 2
<MEAN> 25
 9.634560e-002 4.622915e-001 1.569859e-002 4.673622e-001 5.108339e-002 3.294514e-001 4.696049e-001 3.541815e-001 4.409772e-001 2.105187e-001 -9.518086e-002 -1.160702e-001 -5.102362e-003 -2.392574e-003 -5.449599e-003 3.506911e-003 4.668290e-003 8.608380e-003 7.726335e-003 6.340770e-003 1.341573e-002 6.132195e-003 1.289268e-003 2.180041e-003 -5.735232e-003
<VARIANCE> 25
 5.523826e+001 3.830960e+001 3.547630e+001 4.031840e+001 2.180590e+001 1.916601e+001 2.481033e+001 1.574251e+001 1.675636e+001 1.643593e+001 1.152121e+001 1.516023e+001 1.234490e+000 1.268817e+000 1.328096e+000 1.854275e+000 1.280414e+000 1.295831e+000 1.706662e+000 1.180209e+000 1.398770e+000 1.212478e+000 1.007656e+000 1.001429e+000 6.648000e-001
<GCONST> 8.633961e+001
<STATE> 3
<MEAN> 25
 7.790486e-002 4.530233e-001 -9.677209e-003 4.777086e-001 7.513016e-002 3.687870e-001 5.025119e-001 3.815340e-001 4.965357e-001 2.299620e-001 -9.798679e-002 -1.117687e-001 -4.034325e-003 -2.086790e-003 -5.390004e-003 2.268628e-003 5.763541e-003 9.027649e-003 6.778667e-003 5.756393e-003 1.195594e-002 4.025369e-003 -5.760343e-004 8.526781e-004 -4.717763e-003
<VARIANCE> 25
 5.507650e+001 3.778186e+001 3.565025e+001 4.077885e+001 2.193023e+001 1.907713e+001 2.475241e+001 1.578355e+001 1.673920e+001 1.653862e+001 1.149991e+001 1.516361e+001 1.239962e+000 1.274017e+000 1.336807e+000 1.872235e+000 1.295480e+000 1.292563e+000 1.715464e+000 1.181934e+000 1.399488e+000 1.223000e+000 1.005829e+000 9.957170e-001 6.703681e-001
<GCONST> 8.639436e+001
<STATE> 4
<MEAN> 25
 1.131311e-001 5.022927e-001 9.865419e-003 5.102989e-001 1.712917e-001 4.617204e-001 5.554503e-001 3.988157e-001 5.465686e-001 2.530500e-001 -1.168381e-001 -1.188772e-001 2.389916e-003 3.654086e-003 -9.321903e-004 3.088343e-003 8.491505e-003 9.784379e-003 4.141872e-003 2.092897e-003 5.855256e-003 2.165922e-003 -2.031462e-003 -1.242626e-003 -5.518472e-004
<VARIANCE> 25
 5.463210e+001 3.688527e+001 3.644878e+001 4.260837e+001 2.243656e+001 1.883486e+001 2.478411e+001 1.594533e+001 1.699702e+001 1.663012e+001 1.150943e+001 1.513898e+001 1.281499e+000 1.309130e+000 1.383636e+000 1.950932e+000 1.331842e+000 1.293647e+000 1.748676e+000 1.199660e+000 1.424679e+000 1.232855e+000 1.000056e+000 9.884912e-001 6.987404e-001
<GCONST> 8.672240e+001
<TRANSP> 5
 0.000000e+000 1.000000e+000 0.000000e+000 0.000000e+000 0.000000e+000
 0.000000e+000 7.756399e-001 2.243601e-001 0.000000e+000 0.000000e+000
 0.000000e+000 0.000000e+000 7.756396e-001 2.243604e-001 0.000000e+000
 0.000000e+000 0.000000e+000 0.000000e+000 9.043791e-001 9.562095e-002
 0.000000e+000 0.000000e+000 0.000000e+000 0.000000e+000 0.000000e+000
<ENDHMM>
~h "d"
<BEGINHMM>
<NUMSTATES> 5
<STATE> 2
<MEAN> 25
 4.510259e-001 1.354010e+000 2.728916e+000 3.562505e+000 2.670273e+000 8.170413e-001 -1.600821e+000 -1.329714e+000 -2.238598e-001 -1.678283e-001 -2.297773e-001 -6.570945e-001 -2.913816e-002 -2.197776e-002 -2.027104e-002 -9.583768e-003 -1.410092e-002 -2.295075e-003 7.360327e-003 9.257557e-003 9.923922e-003 1.042582e-002 5.563501e-003 1.766133e-003 -1.880613e-002
<VARIANCE> 25
 4.265730e+001 3.487588e+001 4.343583e+001 3.836057e+001 2.664360e+001 1.711074e+001 3.217280e+001 1.902336e+001 1.921610e+001 1.512439e+001 1.361075e+001 1.505527e+001 1.112204e+000 1.252101e+000 1.344237e+000 1.688737e+000 1.335546e+000 1.377673e+000 2.409263e+000 1.498013e+000 1.610621e+000 1.265203e+000 1.159035e+000 1.019324e+000 7.439325e-001
<GCONST> 8.783087e+001
<STATE> 3
<MEAN> 25
 3.316842e-001 1.258736e+000 2.635360e+000 3.505778e+000 2.605691e+000 8.112235e-001 -1.558323e+000 -1.287393e+000 -1.853624e-001 -1.281713e-001 -2.091122e-001 -6.460010e-001 -3.192216e-002 -2.630755e-002 -2.650413e-002 -1.815926e-002 -1.962833e-002 -2.120886e-003 1.310121e-002 1.108281e-002 9.469821e-003 1.002509e-002 4.849480e-003 3.337058e-003 -1.938227e-002
<VARIANCE> 25
 4.279596e+001 3.483080e+001 4.293579e+001 3.774548e+001 2.650841e+001 1.711672e+001 3.203265e+001 1.907051e+001 1.892510e+001 1.483602e+001 1.343925e+001 1.476664e+001 1.078408e+000 1.229328e+000 1.321600e+000 1.665360e+000 1.338228e+000 1.374323e+000 2.394780e+000 1.506753e+000 1.591424e+000 1.240472e+000 1.151178e+000 1.002921e+000 7.247728e-001
<GCONST> 8.757028e+001
<STATE> 4
<MEAN> 25
 2.595565e-001 1.141666e+000 2.433801e+000 3.257897e+000 2.419373e+000 7.975494e-001 -1.403976e+000 -1.163643e+000 -1.469631e-001 -1.085780e-001 -1.827163e-001 -5.944259e-001 -2.754275e-002 -2.663689e-002 -3.089494e-002 -3.010567e-002 -2.633882e-002 -3.890094e-003 1.734378e-002 1.211425e-002 7.188741e-003 8.143385e-003 4.795290e-003 5.265485e-003 -1.479518e-002
<VARIANCE> 25
 4.372725e+001 3.489325e+001 4.244793e+001 3.825957e+001 2.664517e+001 1.727985e+001 3.152551e+001 1.962837e+001 1.862630e+001 1.462775e+001 1.348738e+001 1.463920e+001 1.061123e+000 1.230838e+000 1.317431e+000 1.682047e+000 1.359625e+000 1.384975e+000 2.372767e+000 1.563211e+000 1.579847e+000 1.213002e+000 1.149670e+000 9.895993e-001 7.213173e-001
<GCONST> 8.758192e+001
<TRANSP> 5
 0.000000e+000 1.000000e+000 0.000000e+000 0.000000e+000 0.000000e+000
 0.000000e+000 7.721642e-001 2.278358e-001 0.000000e+000 0.000000e+000
 0.000000e+000 0.000000e+000 7.721642e-001 2.278358e-001 0.000000e+000
 0.000000e+000 0.000000e+000 0.000000e+000 9.008477e-001 9.915230e-002
 0.000000e+000 0.000000e+000 0.000000e+000 0.000000e+000 0.000000e+000
<ENDHMM>
~h "f"
<BEGINHMM>
<NUMSTATES> 5
<STATE> 2
<MEAN> 25
 -6.983537e-001 -8.779600e-001 6.129884e-001 1.607487e+000 1.491541e+000 5.755765e-001 -8.977080e-001 -5.500761e-001 -1.950758e-001 -7.957124e-001 -5.174399e-001 -5.310407e-001 -1.377703e-002 1.041517e-003 -2.727870e-003 -3.991998e-003 -9.454215e-003 -5.346118e-003 2.958375e-003 5.054097e-003 5.659008e-003 4.723253e-003 2.581726e-004 -3.069336e-003 -1.207861e-002
<VARIANCE> 25
 4.368297e+001 4.163283e+001 4.711324e+001 5.251582e+001 3.201894e+001 1.598240e+001 2.920059e+001 2.278407e+001 1.586707e+001 2.319453e+001 1.627704e+001 1.570997e+001 1.146157e+000 1.882965e+000 2.106971e+000 2.408099e+000 1.287840e+000 1.222598e+000 1.740043e+000 1.444666e+000 1.369485e+000 1.580740e+000 1.323814e+000 1.156927e+000 6.299097e-001
<GCONST> 8.996224e+001
<STATE> 3
<MEAN> 25
 -7.561563e-001 -8.704340e-001 5.952166e-001 1.578985e+000 1.442346e+000 5.502749e-001 -8.773370e-001 -5.240961e-001 -1.700413e-001 -7.710121e-001 -5.118256e-001 -5.390943e-001 -1.226066e-002 2.258417e-003 -3.568091e-003 -6.913900e-003 -1.150804e-002 -5.817177e-003 5.267428e-003 5.849878e-003 5.363289e-003 5.644986e-003 1.760346e-003 -1.408545e-003 -1.114900e-002
<VARIANCE> 25
 4.375447e+001 4.151774e+001 4.675879e+001 5.197748e+001 3.187606e+001 1.594427e+001 2.887357e+001 2.260808e+001 1.589741e+001 2.315470e+001 1.611650e+001 1.567966e+001 1.136036e+000 1.855842e+000 2.068765e+000 2.378516e+000 1.278114e+000 1.216889e+000 1.718484e+000 1.430273e+000 1.361782e+000 1.565692e+000 1.314308e+000 1.162942e+000 6.193718e-001
<GCONST> 8.978284e+001
<STATE> 4
<MEAN> 25
 -7.590836e-001 -7.936753e-001 5.298514e-001 1.445878e+000 1.312462e+000 5.007933e-001 -7.894442e-001 -4.513777e-001 -1.431314e-001 -7.250221e-001 -4.855835e-001 -5.165233e-001 -8.788911e-003 4.501028e-003 -4.562532e-003 -1.265875e-002 -1.556770e-002 -6.835082e-003 1.005846e-002 8.209391e-003 4.086175e-003 6.458916e-003 3.762861e-003 1.952636e-003 -8.581355e-003
<VARIANCE> 25
 4.471476e+001 4.164653e+001 4.595974e+001 5.192889e+001 3.173699e+001 1.580174e+001 2.858358e+001 2.249743e+001 1.595754e+001 2.279251e+001 1.585647e+001 1.556093e+001 1.142847e+000 1.835765e+000 1.986844e+000 2.334668e+000 1.262905e+000 1.209364e+000 1.690960e+000 1.411301e+000 1.355685e+000 1.527273e+000 1.293804e+000 1.164159e+000 6.047250e-001
<GCONST> 8.954575e+001
<TRANSP> 5
 0.000000e+000 1.000000e+000 0.000000e+000 0.000000e+000 0.000000e+000
 0.000000e+000 7.772172e-001 2.227828e-001 0.000000e+000 0.000000e+000
 0.000000e+000 0.000000e+000 7.772171e-001 2.227829e-001 0.000000e+000
 0.000000e+000 0.000000e+000 0.000000e+000 9.069280e-001 9.307204e-002
 0.000000e+000 0.000000e+000 0.000000e+000 0.000000e+000 0.000000e+000
<ENDHMM>
~h "g"
<BEGINHMM>
<NUMSTATES> 5
<STATE> 2
<MEAN> 25
 -2.000209e+000 -1.439790e+000 -4.535649e-001 2.760257e-001 9.506098e-002 1.462941e-001 1.312847e-002 3.435546e-001 5.822790e-001 2.715040e-001 2.658515e-001 -1.876292e-002 2.327337e-002 1.119172e-002 7.533928e-003 -3.348641e-003 3.093333e-003 4.760395e-004 5.232371e-003 8.067983e-003 -2.120029e-003 -4.895548e-003 -2.536257e-003 -7.649040e-004 1.595214e-002
<VARIANCE> 25
 5.307518e+001 3.040536e+001 3.498415e+001 3.763631e+001 2.175216e+001 1.297800e+001 1.975166e+001 1.500317e+001 1.673794e+001 2.155175e+001 1.296542e+001 1.309866e+001 1.172657e+000 9.572207e-001 1.119202e+000 1.766801e+000 1.040056e+000 9.832382e-001 1.362582e+000 1.203650e+000 1.289317e+000 1.172429e+000 1.017341e+000 9.025758e-001 6.741529e-001
<GCONST> 8.412155e+001
<STATE> 3
<MEAN> 25
 -1.865894e+000 -1.376133e+000 -4.070806e-001 2.574818e-001 1.195818e-001 1.494860e-001 2.685073e-002 3.735330e-001 5.630291e-001 2.391952e-001 2.599955e-001 -1.454694e-002 3.316590e-002 1.613571e-002 1.151242e-002 -4.537517e-003 6.440138e-003 3.578054e-004 1.573212e-003 5.612054e-003 -5.371071e-003 -8.249884e-003 -1.514307e-003 5.646201e-004 2.353544e-002
<VARIANCE> 25
 5.396349e+001 3.093619e+001 3.548317e+001 3.839513e+001 2.188498e+001 1.313405e+001 1.981816e+001 1.526736e+001 1.687573e+001 2.168765e+001 1.293863e+001 1.305731e+001 1.237947e+000 1.000107e+000 1.146685e+000 1.808846e+000 1.040043e+000 9.835042e-001 1.363629e+000 1.226817e+000 1.309008e+000 1.189877e+000 1.018984e+000 9.049780e-001 7.090968e-001
<GCONST> 8.448830e+001
<STATE> 4
<MEAN> 25
 -1.406121e+000 -1.133878e+000 -1.209237e-001 3.144616e-001 3.484443e-001 2.342972e-001 -1.889545e-002 4.258618e-001 4.781617e-001 5.638168e-002 2.414374e-001 -1.956590e-002 4.712322e-002 2.395213e-002 2.487217e-002 -2.739225e-004 1.644394e-002 3.335484e-003 -4.881086e-003 4.734686e-003 -8.290293e-003 -1.441603e-002 -2.189661e-003 -2.237195e-003 3.544531e-002
<VARIANCE> 25
 5.533859e+001 3.206127e+001 3.845805e+001 4.166153e+001 2.295243e+001 1.359813e+001 2.083723e+001 1.637436e+001 1.721671e+001 2.260238e+001 1.336240e+001 1.332214e+001 1.363853e+000 1.132452e+000 1.265545e+000 1.992818e+000 1.076038e+000 1.019728e+000 1.425563e+000 1.304781e+000 1.366685e+000 1.231627e+000 1.050406e+000 9.219605e-001 8.032691e-001
<GCONST> 8.587157e+001
<TRANSP> 5
 0.000000e+000 1.000000e+000 0.000000e+000 0.000000e+000 0.000000e+000
 0.000000e+000 7.765827e-001 2.234173e-001 0.000000e+000 0.000000e+000
 0.000000e+000 0.000000e+000 7.765831e-001 2.234168e-001 0.000000e+000
 0.000000e+000 0.000000e+000 0.000000e+000 9.057311e-001 9.426883e-002
 0.000000e+000 0.000000e+000 0.000000e+000 0.000000e+000 0.000000e+000
<ENDHMM>
~h "k"
<BEGINHMM>
<NUMSTATES> 5
<STATE> 2
<MEAN> 25
 8.489259e-001 2.937352e-001 -5.359841e-002 -1.165996e+000 -5.922152e-001 -2.836898e-001 6.310276e-001 1.209925e-001 -3.415458e-001 -9.053153e-003 9.012806e-002 3.409202e-001 5.199455e-003 -3.438198e-003 5.281711e-003 -1.027923e-002 2.053985e-004 -1.006705e-003 5.734837e-003 -6.295075e-003 -8.428638e-003 1.258073e-003 1.971418e-003 4.605498e-003 1.217731e-002
<VARIANCE> 25
 5.725771e+001 4.244054e+001 3.955117e+001 5.119318e+001 2.456271e+001 2.213710e+001 2.887648e+001 1.700175e+001 1.936397e+001 1.683724e+001 1.396556e+001 1.726264e+001 1.843667e+000 1.741111e+000 1.897464e+000 2.611403e+000 1.655706e+000 1.537205e+000 1.930405e+000 1.274233e+000 1.571301e+000 1.450644e+000 1.232686e+000 1.113768e+000 9.721408e-001
<GCONST> 9.083633e+001
<STATE> 3
<MEAN> 25
 8.683615e-001 2.766647e-001 -3.016040e-002 -1.208779e+000 -5.911658e-001 -2.888267e-001 6.582147e-001 9.352996e-002 -3.778215e-001 -3.268858e-003 9.953699e-002 3.612452e-001 4.131916e-003 -3.446310e-003 5.428553e-003 -8.953980e-003 3.044927e-004 -1.326267e-003 5.736424e-003 -6.125769e-003 -7.688330e-003 1.328257e-003 2.008427e-003 4.258249e-003 1.114351e-002
<VARIANCE> 25
 5.745881e+001 4.284803e+001 3.997733e+001 5.195132e+001 2.474259e+001 2.216577e+001 2.894515e+001 1.703046e+001 1.948218e+001 1.681228e+001 1.404368e+001 1.723690e+001 1.864717e+000 1.754733e+000 1.917611e+000 2.642388e+000 1.665762e+000 1.546809e+000 1.935117e+000 1.274781e+000 1.577319e+000 1.455572e+000 1.236713e+000 1.112520e+000 9.845728e-001
<GCONST> 9.097486e+001
<STATE> 4
<MEAN> 25
 9.086025e-001 2.540384e-001 9.820369e-003 -1.298531e+000 -6.077048e-001 -3.129135e-001 7.242004e-001 5.694539e-002 -4.363583e-001 1.182440e-002 1.223338e-001 4.053340e-001 1.992687e-003 -4.188612e-003 5.485284e-003 -7.280041e-003 7.274275e-004 -1.936551e-003 5.612328e-003 -5.416745e-003 -6.441030e-003 1.295810e-003 2.108970e-003 3.856473e-003 9.630661e-003
<VARIANCE> 25
 5.807250e+001 4.373667e+001 4.091270e+001 5.319346e+001 2.509936e+001 2.228691e+001 2.914236e+001 1.709725e+001 1.971834e+001 1.681968e+001 1.413724e+001 1.719002e+001 1.897376e+000 1.771419e+000 1.931917e+000 2.687494e+000 1.682604e+000 1.556948e+000 1.943333e+000 1.273975e+000 1.587068e+000 1.463927e+000 1.239012e+000 1.107097e+000 1.002159e+000
<GCONST> 9.119759e+001
<TRANSP> 5
 0.000000e+000 1.000000e+000 0.000000e+000 0.000000e+000 0.000000e+000
 0.000000e+000 7.710314e-001 2.289686e-001 0.000000e+000 0.000000e+000
 0.000000e+000 0.000000e+000 7.710311e-001 2.289689e-001 0.000000e+000
 0.000000e+000 0.000000e+000 0.000000e+000 8.993874e-001 1.006126e-001
 0.000000e+000 0.000000e+000 0.000000e+000 0.000000e+000 0.000000e+000
<ENDHMM>
~h "l"
<BEGINHMM>
<NUMSTATES> 5
<STATE> 2
<MEAN> 25
 6.068414e-001 3.652199e-001 -2.313693e-001 -1.357544e+000 -1.097952e+000 -5.722972e-001 6.612452e-001 4.589761e-001 8.161913e-002 2.198168e-001 9.410614e-003 1.428374e-001 9.466765e-003 -1.595684e-003 3.112223e-003 -1.078612e-002 5.251623e-003 3.120816e-003 5.796941e-003 2.941572e-004 -5.291814e-003 -3.752172e-003 -7.302549e-006 2.578337e-003 1.366716e-002
<VARIANCE> 25
 5.955357e+001 4.518325e+001 3.819117e+001 4.625770e+001 2.399521e+001 2.167839e+001 2.587698e+001 1.695505e+001 1.798949e+001 1.708868e+001 1.378947e+001 1.596433e+001 1.419724e+000 1.419318e+000 1.662358e+000 2.176191e+000 1.411438e+000 1.345108e+000 1.664105e+000 1.219617e+000 1.377956e+000 1.300267e+000 1.115453e+000 1.069833e+000 7.193515e-001
<GCONST> 8.854781e+001
<STATE> 3
<MEAN> 25
 6.535534e-001 3.635981e-001 -2.101812e-001 -1.408834e+000 -1.077541e+000 -5.635995e-001 6.832806e-001 4.588302e-001 5.412212e-002 1.999931e-001 5.597390e-003 1.502954e-001 1.155887e-002 3.134613e-004 4.597923e-003 -1.166901e-002 4.691042e-003 1.967348e-003 4.426289e-003 8.305495e-005 -6.318542e-003 -4.973320e-003 -1.318937e-003 1.430243e-003 1.495487e-002
<VARIANCE> 25
 5.947581e+001 4.534601e+001 3.870344e+001 4.699690e+001 2.419143e+001 2.171848e+001 2.612250e+001 1.692230e+001 1.814463e+001 1.710168e+001 1.391367e+001 1.608073e+001 1.426090e+000 1.426652e+000 1.678474e+000 2.191612e+000 1.413148e+000 1.345453e+000 1.675889e+000 1.219764e+000 1.385264e+000 1.304431e+000 1.120112e+000 1.072142e+000 7.220839e-001
<GCONST> 8.867594e+001
<STATE> 4
<MEAN> 25
 8.544753e-001 4.825576e-001 -1.211282e-001 -1.551178e+000 -1.116736e+000 -6.053388e-001 7.246696e-001 4.860075e-001 3.199920e-004 1.501145e-001 -3.857662e-002 1.459666e-001 1.014986e-002 3.776413e-004 6.188591e-003 -1.128165e-002 2.988270e-003 4.157292e-004 3.739813e-003 -4.973462e-004 -7.370304e-003 -5.275249e-003 -2.265373e-003 8.707708e-004 1.418838e-002
<VARIANCE> 25
 5.953310e+001 4.626523e+001 3.976464e+001 4.846834e+001 2.490258e+001 2.198728e+001 2.654338e+001 1.696506e+001 1.854314e+001 1.719584e+001 1.415074e+001 1.622362e+001 1.444304e+000 1.445202e+000 1.705011e+000 2.221472e+000 1.420864e+000 1.346721e+000 1.696978e+000 1.224293e+000 1.395993e+000 1.309253e+000 1.124905e+000 1.074310e+000 7.273006e-001
<GCONST> 8.896991e+001
<TRANSP> 5
 0.000000e+000 1.000000e+000 0.000000e+000 0.000000e+000 0.000000e+000
 0.000000e+000 7.708953e-001 2.291047e-001 0.000000e+000 0.000000e+000
 0.000000e+000 0.000000e+000 7.708949e-001 2.291051e-001 0.000000e+000
 0.000000e+000 0.000000e+000 0.000000e+000 8.992901e-001 1.007099e-001
 0.000000e+000 0.000000e+000 0.000000e+000 0.000000e+000 0.000000e+000
<ENDHMM>
~h "m"
<BEGINHMM>
<NUMSTATES> 5
<STATE> 2
<MEAN> 25
 1.415798e+000 1.123112e+000 -2.121695e-001 -5.416774e-001 -5.089564e-001 6.374574e-002 2.730740e-001 6.548701e-001 2.666577e-001 -3.536158e-001 -2.770909e-001 -1.557593e-002 -3.460161e-003 -4.090019e-004 3.973173e-004 3.065441e-003 -6.824379e-004 2.399400e-003 -1.140830e-003 -5.885012e-004 1.146366e-003 -1.400666e-003 -2.208696e-003 7.462132e-004 -3.898623e-003
<VARIANCE> 25
 5.333239e+001 3.824564e+001 3.902587e+001 4.350558e+001 2.385470e+001 2.069618e+001 2.386425e+001 1.966507e+001 1.656332e+001 2.039890e+001 1.305021e+001 1.728412e+001 1.215200e+000 1.182127e+000 1.618424e+000 2.057947e+000 1.225264e+000 1.245995e+000 1.353308e+000 1.238010e+000 1.257420e+000 1.316088e+000 1.019076e+000 1.116104e+000 6.022965e-001
<GCONST> 8.722903e+001
<STATE> 3
<MEAN> 25
 1.393869e+000 1.114939e+000 -2.135103e-001 -5.257323e-001 -5.083761e-001 7.379705e-002 2.701128e-001 6.493876e-001 2.728771e-001 -3.545421e-001 -2.840247e-001 -1.137059e-002 -5.102282e-003 -1.524078e-003 2.383019e-004 4.150567e-003 2.485362e-004 2.135912e-003 -7.874271e-004 -1.547495e-003 1.381662e-003 7.473351e-005 -1.736122e-003 5.663374e-004 -4.658781e-003
<VARIANCE> 25
 5.322667e+001 3.822664e+001 3.888114e+001 4.324245e+001 2.383223e+001 2.068671e+001 2.374438e+001 1.966461e+001 1.651381e+001 2.030240e+001 1.300190e+001 1.731080e+001 1.209916e+000 1.178247e+000 1.624967e+000 2.061598e+000 1.227959e+000 1.246195e+000 1.349293e+000 1.241359e+000 1.254701e+000 1.314216e+000 1.020903e+000 1.117772e+000 6.001906e-001
<GCONST> 8.719685e+001
<STATE> 4
<MEAN> 25
 1.384709e+000 1.116917e+000 -2.322504e-001 -4.919497e-001 -4.923899e-001 1.082451e-001 2.775299e-001 6.182949e-001 2.822947e-001 -3.425459e-001 -2.882938e-001 1.565903e-002 -8.233588e-003 -4.777485e-003 -1.058981e-004 6.128327e-003 3.527670e-003 3.175734e-003 -6.172389e-004 -3.913111e-003 4.835034e-004 2.669777e-003 -1.321386e-004 1.986240e-004 -5.496904e-003
<VARIANCE> 25
 5.306053e+001 3.838708e+001 3.870010e+001 4.280036e+001 2.384101e+001 2.068022e+001 2.371212e+001 1.978818e+001 1.632834e+001 2.002291e+001 1.299512e+001 1.749208e+001 1.206919e+000 1.181442e+000 1.638976e+000 2.078547e+000 1.238088e+000 1.251029e+000 1.353361e+000 1.248247e+000 1.247204e+000 1.311255e+000 1.031431e+000 1.129571e+000 5.988967e-001
<GCONST> 8.722065e+001
<TRANSP> 5
 0.000000e+000 1.000000e+000 0.000000e+000 0.000000e+000 0.000000e+000
 0.000000e+000 7.709811e-001 2.290189e-001 0.000000e+000 0.000000e+000
 0.000000e+000 0.000000e+000 7.709821e-001 2.290179e-001 0.000000e+000
 0.000000e+000 0.000000e+000 0.000000e+000 8.992946e-001 1.007053e-001
 0.000000e+000 0.000000e+000 0.000000e+000 0.000000e+000 0.000000e+000
<ENDHMM>
~h "n"
<BEGINHMM>
<NUMSTATES> 5
<STATE> 2
<MEAN> 25
 6.135231e-001 6.727884e-001 6.040300e-001 1.075736e+000 9.436490e-001 5.383645e-001 -5.342945e-001 -6.744084e-001 -2.627511e-001 -1.542185e-001 4.514378e-002 4.029922e-002 -1.426847e-002 -1.826245e-003 2.424140e-003 1.820563e-002 3.591100e-003 -1.078572e-003 -5.035691e-003 -9.164272e-004 8.047222e-003 6.172127e-003 5.415779e-004 -2.144676e-003 -1.386523e-002
<VARIANCE> 25
 4.899726e+001 3.541988e+001 3.753492e+001 4.604143e+001 2.555292e+001 1.734753e+001 2.742184e+001 1.868875e+001 1.884978e+001 1.548447e+001 1.304690e+001 1.584444e+001 1.470367e+000 1.505827e+000 1.746045e+000 2.239934e+000 1.348170e+000 1.396883e+000 2.062541e+000 1.369680e+000 1.631323e+000 1.444368e+000 1.209186e+000 1.099888e+000 8.744367e-001
<GCONST> 8.904015e+001
<STATE> 3
<MEAN> 25
 5.484141e-001 6.646661e-001 6.164522e-001 1.153249e+000 9.555491e-001 5.303501e-001 -5.562316e-001 -6.759998e-001 -2.257202e-001 -1.274753e-001 4.530788e-002 2.835522e-002 -1.581329e-002 -2.416734e-003 2.576952e-003 1.686556e-002 2.760604e-003 -2.082120e-003 -4.748618e-003 -4.533231e-004 7.800329e-003 6.054666e-003 -3.102736e-005 -2.319417e-003 -1.436895e-002
<VARIANCE> 25
 4.888807e+001 3.547463e+001 3.738170e+001 4.518632e+001 2.533664e+001 1.728706e+001 2.730754e+001 1.856369e+001 1.867272e+001 1.546179e+001 1.289336e+001 1.567935e+001 1.448609e+000 1.488421e+000 1.718543e+000 2.194822e+000 1.329315e+000 1.382225e+000 2.049592e+000 1.363111e+000 1.611418e+000 1.434850e+000 1.199816e+000 1.093227e+000 8.578006e-001
<GCONST> 8.881009e+001
<STATE> 4
<MEAN> 25
 4.513248e-001 6.775389e-001 6.655704e-001 1.282082e+000 9.486278e-001 4.976487e-001 -5.852084e-001 -6.656302e-001 -1.637996e-001 -9.280664e-002 2.909808e-002 -1.805822e-002 -1.888164e-002 -4.167720e-003 2.070953e-003 1.354839e-002 8.089630e-005 -3.919117e-003 -4.069502e-003 1.224935e-003 8.304285e-003 5.567131e-003 -1.439063e-003 -3.504857e-003 -1.547114e-002
<VARIANCE> 25
 4.860795e+001 3.595397e+001 3.710118e+001 4.341983e+001 2.506130e+001 1.734924e+001 2.707482e+001 1.839367e+001 1.835894e+001 1.548479e+001 1.267731e+001 1.546988e+001 1.413619e+000 1.480564e+000 1.678539e+000 2.102567e+000 1.301468e+000 1.356630e+000 2.016767e+000 1.353780e+000 1.584211e+000 1.424104e+000 1.187993e+000 1.087060e+000 8.260680e-001
<GCONST> 8.846253e+001
<TRANSP> 5
 0.000000e+000 1.000000e+000 0.000000e+000 0.000000e+000 0.000000e+000
 0.000000e+000 7.681555e-001 2.318445e-001 0.000000e+000 0.000000e+000
 0.000000e+000 0.000000e+000 7.681567e-001 2.318433e-001 0.000000e+000
 0.000000e+000 0.000000e+000 0.000000e+000 8.959271e-001 1.040730e-001
 0.000000e+000 0.000000e+000 0.000000e+000 0.000000e+000 0.000000e+000
<ENDHMM>
~h "p"
<BEGINHMM>
<NUMSTATES> 5
<STATE> 2
<MEAN> 25
 1.107919e-001 5.407672e-001 4.849814e-001 9.642191e-001 8.017460e-002 -2.382642e-001 -5.930393e-001 -3.986695e-001 -1.620905e-001 -2.033188e-001 -2.722834e-001 -5.141596e-001 -2.810382e-003 9.173869e-003 1.183277e-002 1.496119e-002 1.606979e-003 -8.148445e-003 -1.261788e-002 -2.852411e-004 1.120096e-002 3.270288e-003 -4.522802e-003 -7.891231e-003 -6.399791e-003
<VARIANCE> 25
 4.961679e+001 3.899338e+001 3.485370e+001 3.976280e+001 2.377331e+001 1.829736e+001 2.359348e+001 1.812539e+001 1.873802e+001 1.855687e+001 1.343730e+001 1.515631e+001 1.641256e+000 1.832030e+000 1.631601e+000 1.888869e+000 1.273974e+000 1.293369e+000 1.652086e+000 1.302621e+000 1.635772e+000 1.488977e+000 1.218400e+000 1.141674e+000 8.590493e-001
<GCONST> 8.861073e+001
<STATE> 3
<MEAN> 25
 8.927243e-002 5.703991e-001 5.309420e-001 1.030900e+000 9.236062e-002 -2.645158e-001 -6.490006e-001 -4.042039e-001 -1.136236e-001 -1.846905e-001 -2.837037e-001 -5.428749e-001 -6.225128e-003 5.789927e-003 9.598098e-003 1.476557e-002 2.792846e-003 -5.831569e-003 -1.234762e-002 -1.277218e-003 1.152895e-002 5.206765e-003 -2.219121e-003 -6.167684e-003 -8.342520e-003
<VARIANCE> 25
 4.938037e+001 3.882642e+001 3.489166e+001 3.937715e+001 2.390943e+001 1.823876e+001 2.365794e+001 1.806741e+001 1.852143e+001 1.836877e+001 1.327705e+001 1.510432e+001 1.622846e+000 1.802617e+000 1.602433e+000 1.867240e+000 1.271553e+000 1.288403e+000 1.657013e+000 1.293324e+000 1.617832e+000 1.479664e+000 1.201338e+000 1.127713e+000 8.477963e-001
<GCONST> 8.843394e+001
<STATE> 4
<MEAN> 25
 1.325142e-003 5.691231e-001 5.902675e-001 1.171509e+000 1.491306e-001 -2.798177e-001 -7.639590e-001 -4.453030e-001 -3.945662e-002 -1.418013e-001 -2.752939e-001 -5.832281e-001 -1.059244e-002 5.352173e-004 6.736237e-003 1.362656e-002 5.474266e-003 -1.735947e-003 -1.065286e-002 -1.593611e-003 1.169554e-002 7.104926e-003 6.395426e-004 -3.838353e-003 -9.707263e-003
<VARIANCE> 25
 4.882583e+001 3.840583e+001 3.498263e+001 3.846634e+001 2.418463e+001 1.810098e+001 2.392994e+001 1.800760e+001 1.811736e+001 1.809406e+001 1.303293e+001 1.492309e+001 1.584051e+000 1.741603e+000 1.547896e+000 1.819351e+000 1.270315e+000 1.279604e+000 1.676146e+000 1.287265e+000 1.597614e+000 1.465518e+000 1.177896e+000 1.099412e+000 8.256261e-001
<GCONST> 8.812109e+001
<TRANSP> 5
 0.000000e+000 1.000000e+000 0.000000e+000 0.000000e+000 0.000000e+000
 0.000000e+000 7.704971e-001 2.295029e-001 0.000000e+000 0.000000e+000
 0.000000e+000 0.000000e+000 7.704982e-001 2.295018e-001 0.000000e+000
 0.000000e+000 0.000000e+000 0.000000e+000 8.985887e-001 1.014114e-001
 0.000000e+000 0.000000e+000 0.000000e+000 0.000000e+000 0.000000e+000
<ENDHMM>
~h "r"
<BEGINHMM>
<NUMSTATES> 5
<STATE> 2
<MEAN> 25
 1.612855e+000 7.601049e-001 -1.740653e-001 -9.139335e-001 -4.726718e-001 -3.938382e-001 3.869481e-002 3.793395e-001 -8.955170e-002 -1.239939e-001 1.327716e-001 1.042318e-001 3.322025e-002 2.892729e-002 1.120719e-002 1.038320e-002 3.781071e-003 1.098522e-003 -5.768119e-003 8.448354e-003 5.003439e-003 -7.697634e-003 -3.598253e-003 -5.231403e-003 1.205152e-002
<VARIANCE> 25
 6.001171e+001 4.242522e+001 4.121004e+001 4.355406e+001 2.654366e+001 2.112068e+001 3.007406e+001 2.363141e+001 2.009498e+001 2.278321e+001 1.543755e+001 1.765161e+001 1.431150e+000 1.306107e+000 1.497658e+000 1.957438e+000 1.194360e+000 1.298479e+000 1.625307e+000 1.392556e+000 1.386606e+000 1.437529e+000 1.207522e+000 1.075582e+000 6.979021e-001
<GCONST> 8.945956e+001
<STATE> 3
<MEAN> 25
 1.734991e+000 8.712789e-001 -1.249417e-001 -8.517382e-001 -4.523569e-001 -3.827364e-001 1.407432e-002 4.126626e-001 -6.509120e-002 -1.562708e-001 1.118248e-001 7.876685e-002 2.561151e-002 2.365442e-002 1.110367e-002 1.530353e-002 5.346813e-003 3.311895e-003 -5.125737e-003 7.495250e-003 5.385456e-003 -7.389951e-003 -4.495292e-003 -5.642512e-003 7.383058e-003
<VARIANCE> 25
 5.912307e+001 4.212895e+001 4.156416e+001 4.347507e+001 2.688759e+001 2.140086e+001 3.019511e+001 2.380965e+001 2.020319e+001 2.328175e+001 1.550209e+001 1.785052e+001 1.426320e+000 1.306913e+000 1.500253e+000 1.960008e+000 1.205258e+000 1.302975e+000 1.622167e+000 1.393204e+000 1.398543e+000 1.445640e+000 1.196078e+000 1.077928e+000 6.972749e-001
<GCONST> 8.954165e+001
<STATE> 4
<MEAN> 25
 1.913306e+000 1.042787e+000 -4.836319e-002 -6.868283e-001 -4.051259e-001 -3.402081e-001 -3.084941e-002 4.128414e-001 -5.078193e-002 -2.244153e-001 6.464082e-002 5.599470e-002 1.504852e-002 1.559475e-002 7.496670e-003 1.867280e-002 7.384744e-003 6.590612e-003 -4.554455e-003 4.146403e-003 3.914412e-003 -8.727455e-003 -6.536685e-003 -4.799366e-003 8.632566e-004
<VARIANCE> 25
 5.764230e+001 4.172359e+001 4.205808e+001 4.277377e+001 2.750831e+001 2.185151e+001 3.032511e+001 2.429070e+001 2.032182e+001 2.399722e+001 1.567313e+001 1.811563e+001 1.418570e+000 1.313801e+000 1.499882e+000 1.949429e+000 1.222597e+000 1.316357e+000 1.611479e+000 1.401200e+000 1.423745e+000 1.449779e+000 1.174795e+000 1.078333e+000 6.878093e-001
<GCONST> 8.963920e+001
<TRANSP> 5
 0.000000e+000 1.000000e+000 0.000000e+000 0.000000e+000 0.000000e+000
 0.000000e+000 7.736375e-001 2.263625e-001 0.000000e+000 0.000000e+000
 0.000000e+000 0.000000e+000 7.736366e-001 2.263634e-001 0.000000e+000
 0.000000e+000 0.000000e+000 0.000000e+000 9.023820e-001 9.761804e-002
 0.000000e+000 0.000000e+000 0.000000e+000 0.000000e+000 0.000000e+000
<ENDHMM>
~h "s"
<BEGINHMM>
<NUMSTATES> 5
<STATE> 2
<MEAN> 25
 -6.029675e-001 -1.347133e+000 8.192481e-001 -1.206603e+000 2.716461e-001 -3.546062e-001 5.230969e-001 -1.729206e-001 -6.452522e-001 2.816140e-001 4.024408e-001 3.181115e-001 -4.746158e-003 -3.604553e-003 -1.286565e-002 6.760058e-003 6.901439e-003 1.081832e-002 4.057369e-003 -1.892136e-003 2.303625e-003 3.761115e-003 1.042052e-003 5.553573e-003 -8.996110e-003
<VARIANCE> 25
 6.094076e+001 4.781493e+001 5.121275e+001 5.561988e+001 2.729435e+001 1.874382e+001 3.672224e+001 1.826656e+001 2.020464e+001 2.152810e+001 1.642804e+001 1.649379e+001 1.564115e+000 1.616034e+000 1.795560e+000 2.361727e+000 1.319296e+000 1.388552e+000 1.928245e+000 1.319188e+000 1.371643e+000 1.480973e+000 1.364360e+000 1.104021e+000 7.796343e-001
<GCONST> 9.108235e+001
<STATE> 3
<MEAN> 25
 -6.288607e-001 -1.360550e+000 7.661766e-001 -1.173388e+000 2.947961e-001 -3.085009e-001 5.351517e-001 -1.812020e-001 -6.393539e-001 2.920502e-001 4.053330e-001 3.350630e-001 -6.960840e-003 -4.209522e-003 -1.115088e-002 6.925764e-003 5.343903e-003 1.027344e-002 2.001357e-003 -2.270073e-003 5.475283e-004 1.596042e-003 -2.209871e-004 3.678756e-003 -1.047346e-002
<VARIANCE> 25
 6.087184e+001 4.746068e+001 5.074630e+001 5.493551e+001 2.689650e+001 1.861781e+001 3.649042e+001 1.839237e+001 2.023719e+001 2.152371e+001 1.619771e+001 1.625887e+001 1.543151e+000 1.606767e+000 1.787216e+000 2.322210e+000 1.292955e+000 1.391810e+000 1.918675e+000 1.313659e+000 1.367297e+000 1.467102e+000 1.349911e+000 1.097358e+000 7.678274e-001
<GCONST> 9.089198e+001
<STATE> 4
<MEAN> 25
 -6.216587e-001 -1.353309e+000 8.042640e-001 -1.079717e+000 3.715749e-001 -2.204458e-001 4.822365e-001 -2.094133e-001 -6.669900e-001 2.725784e-001 4.056790e-001 3.422444e-001 -8.688267e-003 -3.244880e-003 -8.204607e-003 9.457698e-003 3.113672e-003 8.984561e-003 -4.498600e-003 -2.614699e-003 1.533021e-003 1.423138e-003 -1.483660e-004 1.929649e-003 -1.288671e-002
<VARIANCE> 25
 6.054920e+001 4.747982e+001 5.023208e+001 5.455354e+001 2.699562e+001 1.847464e+001 3.677864e+001 1.891177e+001 2.037426e+001 2.180143e+001 1.607124e+001 1.604708e+001 1.507339e+000 1.605925e+000 1.783259e+000 2.289458e+000 1.259039e+000 1.390751e+000 1.927738e+000 1.315145e+000 1.368402e+000 1.456644e+000 1.333944e+000 1.094553e+000 7.499663e-001
<GCONST> 9.079393e+001
<TRANSP> 5
 0.000000e+000 1.000000e+000 0.000000e+000 0.000000e+000 0.000000e+000
 0.000000e+000 7.744685e-001 2.255315e-001 0.000000e+000 0.000000e+000
 0.000000e+000 0.000000e+000 7.744681e-001 2.255319e-001 0.000000e+000
 0.000000e+000 0.000000e+000 0.000000e+000 9.032956e-001 9.670445e-002
 0.000000e+000 0.000000e+000 0.000000e+000 0.000000e+000 0.000000e+000
<ENDHMM>
~h "t"
<BEGINHMM>
<NUMSTATES> 5
<STATE> 2
<MEAN> 25
 -7.665725e-001 -5.350923e-001 2.053652e-002 8.103639e-001 3.506743e-001 2.928438e-002 -3.725118e-001 -5.293411e-001 -3.211889e-001 -2.454984e-001 -1.739723e-001 -2.919270e-001 -8.010162e-003 -4.526050e-003 2.926049e-003 1.195089e-002 3.451829e-003 -2.004701e-003 -6.950411e-003 -4.538199e-003 -4.115282e-003 -4.824421e-003 -3.238568e-003 -5.031158e-003 -5.992550e-003
<VARIANCE> 25
 4.830995e+001 3.802825e+001 3.565812e+001 3.889029e+001 2.251967e+001 1.734869e+001 2.466432e+001 1.663715e+001 1.794332e+001 1.922303e+001 1.448353e+001 1.590715e+001 1.547386e+000 1.816438e+000 1.684509e+000 1.926456e+000 1.252260e+000 1.246934e+000 1.643482e+000 1.300874e+000 1.578667e+000 1.541910e+000 1.315812e+000 1.166910e+000 8.457445e-001
<GCONST> 8.853259e+001
<STATE> 3
<MEAN> 25
 -7.969566e-001 -5.501401e-001 3.672625e-002 8.630764e-001 3.644378e-001 1.977912e-002 -4.030764e-001 -5.463763e-001 -3.389893e-001 -2.693332e-001 -1.932018e-001 -3.202969e-001 -5.110353e-003 -1.787981e-003 4.442642e-003 1.154036e-002 3.090343e-003 -2.240982e-003 -7.164527e-003 -3.684664e-003 -4.129274e-003 -5.803088e-003 -5.045790e-003 -7.121962e-003 -4.500605e-003
<VARIANCE> 25
 4.803438e+001 3.810489e+001 3.550494e+001 3.848988e+001 2.255330e+001 1.740413e+001 2.455630e+001 1.664695e+001 1.796976e+001 1.935470e+001 1.457400e+001 1.591274e+001 1.551772e+000 1.839046e+000 1.691943e+000 1.918810e+000 1.255017e+000 1.254904e+000 1.641211e+000 1.306733e+000 1.583908e+000 1.549869e+000 1.324242e+000 1.180353e+000 8.499526e-001
<GCONST> 8.858857e+001
<STATE> 4
<MEAN> 25
 -7.962524e-001 -5.289874e-001 1.079432e-001 9.763746e-001 3.913421e-001 -3.235815e-003 -4.768677e-001 -5.802503e-001 -3.881667e-001 -3.442570e-001 -2.582935e-001 -4.029031e-001 -1.635139e-003 1.985071e-003 5.760984e-003 1.026808e-002 2.125405e-003 -2.780279e-003 -7.396749e-003 -2.551822e-003 -3.729057e-003 -6.136355e-003 -6.161695e-003 -8.617055e-003 -3.046916e-003
<VARIANCE> 25
 4.755244e+001 3.852483e+001 3.528805e+001 3.782571e+001 2.281665e+001 1.760010e+001 2.437175e+001 1.676310e+001 1.804964e+001 1.964300e+001 1.472894e+001 1.592907e+001 1.573188e+000 1.905726e+000 1.717496e+000 1.911846e+000 1.264881e+000 1.271986e+000 1.636651e+000 1.323448e+000 1.604006e+000 1.572299e+000 1.344228e+000 1.208048e+000 8.632140e-001
<GCONST> 8.879153e+001
<TRANSP> 5
 0.000000e+000 1.000000e+000 0.000000e+000 0.000000e+000 0.000000e+000
 0.000000e+000 7.719113e-001 2.280887e-001 0.000000e+000 0.000000e+000
 0.000000e+000 0.000000e+000 7.719123e-001 2.280876e-001 0.000000e+000
 0.000000e+000 0.000000e+000 0.000000e+000 9.003109e-001 9.968908e-002
 0.000000e+000 0.000000e+000 0.000000e+000 0.000000e+000 0.000000e+000
<ENDHMM>
~h "aa"
<BEGINHMM>
<NUMSTATES> 5
<STATE> 2
<MEAN> 25
 5.588052e-001 1.678748e-001 -3.586004e-001 -8.295044e-001 -2.549043e-001 1.532771e-001 4.349257e-001 3.110111e-001 -1.137937e-002 -3.218236e-002 1.450976e-001 3.939433e-001 3.759568e-003 1.183714e-003 1.400043e-003 5.965695e-004 2.899707e-003 2.290860e-003 -5.270976e-004 -2.935989e-003 -3.450041e-003 -2.419345e-003 -9.091037e-004 2.795226e-004 2.936514e-003
<VARIANCE> 25
 5.709882e+001 3.874800e+001 3.869584e+001 4.664188e+001 2.344123e+001 1.881240e+001 2.576931e+001 1.788220e+001 1.759302e+001 1.810222e+001 1.345513e+001 1.674345e+001 1.383690e+000 1.318868e+000 1.705835e+000 2.259607e+000 1.301091e+000 1.336307e+000 1.717721e+000 1.272579e+000 1.398773e+000 1.335603e+000 1.122224e+000 1.087117e+000 7.447943e-001
<GCONST> 8.836503e+001
<STATE> 3
<MEAN> 25
 5.804236e-001 1.763853e-001 -3.541923e-001 -8.277652e-001 -2.420122e-001 1.623989e-001 4.325775e-001 2.998447e-001 -2.672406e-002 -4.494606e-002 1.396743e-001 3.951569e-001 5.668695e-003 2.424175e-003 1.191032e-003 3.341938e-004 3.039835e-003 1.960779e-003 -5.729008e-004 -2.411247e-003 -3.446386e-003 -3.106487e-003 -1.452427e-003 3.792769e-004 3.888727e-003
<VARIANCE> 25
 5.709506e+001 3.870277e+001 3.876001e+001 4.693959e+001 2.351826e+001 1.876663e+001 2.578928e+001 1.792862e+001 1.766949e+001 1.807868e+001 1.349209e+001 1.674929e+001 1.390596e+000 1.327486e+000 1.710798e+000 2.272770e+000 1.302618e+000 1.335679e+000 1.723133e+000 1.277186e+000 1.407573e+000 1.342584e+000 1.125334e+000 1.086998e+000 7.495931e-001
<GCONST> 8.843039e+001
<STATE> 4
<MEAN> 25
 7.145147e-001 2.510789e-001 -3.446425e-001 -8.606438e-001 -2.189806e-001 1.800100e-001 4.429339e-001 3.028147e-001 -5.868217e-002 -8.664763e-002 1.254472e-001 4.141461e-001 8.205494e-003 4.153648e-003 8.813412e-004 7.289192e-004 3.619978e-003 1.511612e-003 -8.500210e-004 -1.296870e-003 -2.968273e-003 -4.120165e-003 -2.138992e-003 2.515200e-004 4.888907e-003
<VARIANCE> 25
 5.727172e+001 3.879108e+001 3.928020e+001 4.780806e+001 2.387594e+001 1.873678e+001 2.607867e+001 1.815001e+001 1.783842e+001 1.806269e+001 1.358408e+001 1.683954e+001 1.409492e+000 1.344155e+000 1.718184e+000 2.302677e+000 1.306907e+000 1.333141e+000 1.739202e+000 1.288218e+000 1.422952e+000 1.352701e+000 1.133977e+000 1.090646e+000 7.616134e-001
<GCONST> 8.863306e+001
<TRANSP> 5
 0.000000e+000 1.000000e+000 0.000000e+000 0.000000e+000 0.000000e+000
 0.000000e+000 7.712525e-001 2.287475e-001 0.000000e+000 0.000000e+000
 0.000000e+000 0.000000e+000 7.712527e-001 2.287473e-001 0.000000e+000
 0.000000e+000 0.000000e+000 0.000000e+000 8.997902e-001 1.002098e-001
 0.000000e+000 0.000000e+000 0.000000e+000 0.000000e+000 0.000000e+000
<ENDHMM>
~h "ao"
<BEGINHMM>
<NUMSTATES> 5
<STATE> 2
<MEAN> 25
 7.191003e-001 3.177055e-001 -4.666949e-001 -1.173804e+000 -1.300443e+000 -1.001690e+000 1.743151e-001 2.950860e-001 2.620332e-002 2.333590e-001 -4.030855e-002 -1.579581e-001 3.229386e-002 2.116382e-002 -6.640493e-003 -1.560400e-002 -1.388665e-002 -1.034128e-002 3.312815e-003 4.373804e-003 -1.634566e-003 -6.813756e-004 -6.502015e-003 -3.996836e-003 1.483914e-002
<VARIANCE> 25
 6.255301e+001 4.925541e+001 4.023292e+001 4.294965e+001 3.283072e+001 2.484332e+001 2.471810e+001 2.113196e+001 2.154466e+001 2.033377e+001 1.529265e+001 1.575779e+001 1.268739e+000 1.274665e+000 1.402876e+000 1.868000e+000 1.349486e+000 1.219137e+000 1.417903e+000 1.397292e+000 1.398423e+000 1.324685e+000 1.131410e+000 1.043735e+000 6.240020e-001
<GCONST> 8.890094e+001
<STATE> 3
<MEAN> 25
 8.491378e-001 4.078346e-001 -4.774524e-001 -1.229765e+000 -1.362743e+000 -1.053905e+000 1.845433e-001 3.097564e-001 2.051062e-002 2.406646e-001 -6.471343e-002 -1.791244e-001 2.789314e-002 1.960962e-002 -1.587272e-003 -1.231907e-002 -1.365240e-002 -1.199697e-002 1.987902e-003 3.527144e-003 -1.347548e-003 1.266271e-003 -5.966709e-003 -5.564205e-003 1.342804e-002
<VARIANCE> 25
 6.262066e+001 4.943368e+001 4.011502e+001 4.298457e+001 3.296683e+001 2.510062e+001 2.499762e+001 2.142946e+001 2.189975e+001 2.035562e+001 1.530293e+001 1.576649e+001 1.280226e+000 1.278043e+000 1.401789e+000 1.859144e+000 1.339741e+000 1.215054e+000 1.425637e+000 1.392138e+000 1.399647e+000 1.317627e+000 1.122442e+000 1.044059e+000 6.265164e-001
<GCONST> 8.895100e+001
<STATE> 4
<MEAN> 25
 1.145981e+000 6.669893e-001 -3.180606e-001 -1.242053e+000 -1.507027e+000 -1.217279e+000 1.621571e-001 3.054178e-001 -1.634742e-002 2.604751e-001 -1.124999e-001 -2.512456e-001 1.434129e-002 1.179833e-002 8.487849e-003 -1.167483e-003 -9.075127e-003 -1.196850e-002 -1.733864e-003 -7.606371e-004 -1.774275e-003 5.030612e-003 -3.447190e-003 -7.293639e-003 8.141754e-003
<VARIANCE> 25
 6.231809e+001 5.040749e+001 3.944099e+001 4.248537e+001 3.416565e+001 2.606328e+001 2.587745e+001 2.220824e+001 2.284385e+001 2.063782e+001 1.563332e+001 1.590921e+001 1.316013e+000 1.319516e+000 1.421472e+000 1.863682e+000 1.356352e+000 1.236745e+000 1.474394e+000 1.410329e+000 1.420031e+000 1.324070e+000 1.123969e+000 1.062334e+000 6.359766e-001
<GCONST> 8.937257e+001
<TRANSP> 5
 0.000000e+000 1.000000e+000 0.000000e+000 0.000000e+000 0.000000e+000
 0.000000e+000 7.757312e-001 2.242688e-001 0.000000e+000 0.000000e+000
 0.000000e+000 0.000000e+000 7.757310e-001 2.242690e-001 0.000000e+000
 0.000000e+000 0.000000e+000 0.000000e+000 9.046943e-001 9.530569e-002
 0.000000e+000 0.000000e+000 0.000000e+000 0.000000e+000 0.000000e+000
<ENDHMM>
~h "eh"
<BEGINHMM>
<NUMSTATES> 5
<STATE> 2
<MEAN> 25
 1.409640e+000 9.855372e-001 5.935799e-001 8.474523e-001 7.188533e-001 1.622505e-001 -5.392699e-001 -7.043033e-001 -3.235384e-001 -1.905624e-002 1.518457e-001 3.790349e-001 2.202354e-002 2.763277e-002 1.979292e-002 1.945902e-002 1.287278e-002 -4.690188e-003 -1.822587e-002 -4.265669e-003 5.915210e-003 1.415246e-003 -6.658584e-003 -9.229810e-003 6.640616e-003
<VARIANCE> 25
 5.329701e+001 3.715713e+001 3.993530e+001 4.702699e+001 2.810600e+001 1.841483e+001 3.050976e+001 2.323825e+001 2.125975e+001 1.856821e+001 1.419060e+001 1.578447e+001 1.663138e+000 1.500747e+000 1.648453e+000 2.049539e+000 1.268941e+000 1.288643e+000 1.916982e+000 1.308700e+000 1.520251e+000 1.425933e+000 1.092484e+000 1.077767e+000 8.146321e-001
<GCONST> 8.955451e+001
<STATE> 3
<MEAN> 25
 1.513480e+000 1.112000e+000 6.719220e-001 9.306168e-001 7.802507e-001 1.469388e-001 -6.241634e-001 -7.264347e-001 -2.966583e-001 -1.523751e-002 1.229479e-001 3.391163e-001 2.115672e-002 2.737365e-002 1.727657e-002 1.954666e-002 1.489978e-002 -2.580921e-003 -1.968910e-002 -6.323522e-003 5.322362e-003 1.234350e-003 -5.415717e-003 -8.808508e-003 5.225530e-003
<VARIANCE> 25
 5.288001e+001 3.695786e+001 4.037988e+001 4.707221e+001 2.848843e+001 1.847091e+001 3.114542e+001 2.324809e+001 2.109058e+001 1.849060e+001 1.410043e+001 1.580747e+001 1.641445e+000 1.477301e+000 1.622827e+000 2.019047e+000 1.267130e+000 1.292494e+000 1.955302e+000 1.295010e+000 1.513031e+000 1.417378e+000 1.083665e+000 1.067000e+000 8.040525e-001
<GCONST> 8.948312e+001
<STATE> 4
<MEAN> 25
 1.706129e+000 1.300370e+000 6.833244e-001 1.026312e+000 8.599638e-001 1.238715e-001 -7.989213e-001 -8.102611e-001 -2.495123e-001 3.314389e-002 1.179012e-001 2.799601e-001 1.797327e-002 2.522845e-002 1.087170e-002 1.902157e-002 1.783391e-002 2.227560e-003 -2.104512e-002 -9.046699e-003 5.919348e-003 2.066265e-003 -2.940093e-003 -7.969299e-003 1.713536e-003
<VARIANCE> 25
 5.276932e+001 3.637187e+001 4.076353e+001 4.650051e+001 2.901955e+001 1.856907e+001 3.234100e+001 2.372424e+001 2.056236e+001 1.844861e+001 1.406269e+001 1.574123e+001 1.605812e+000 1.431920e+000 1.580431e+000 1.957733e+000 1.257347e+000 1.293488e+000 1.997360e+000 1.280682e+000 1.490016e+000 1.382862e+000 1.070758e+000 1.044840e+000 7.815288e-001
<GCONST> 8.930083e+001
<TRANSP> 5
 0.000000e+000 1.000000e+000 0.000000e+000 0.000000e+000 0.000000e+000
 0.000000e+000 7.688873e-001 2.311127e-001 0.000000e+000 0.000000e+000
 0.000000e+000 0.000000e+000 7.688867e-001 2.311133e-001 0.000000e+000
 0.000000e+000 0.000000e+000 0.000000e+000 8.969116e-001 1.030884e-001
 0.000000e+000 0.000000e+000 0.000000e+000 0.000000e+000 0.000000e+000
<ENDHMM>
~h "hh"
<BEGINHMM>
<NUMSTATES> 5
<STATE> 2
<MEAN> 25
 1.008610e+000 5.653120e-001 -6.800283e-001 -7.849960e-001 -4.696125e-001 1.261494e-001 2.797136e-001 6.871045e-001 3.063139e-001 -2.505680e-001 -3.650937e-002 4.195555e-001 -4.548705e-003 -6.191619e-003 -7.938449e-003 -1.014354e-002 -4.129471e-003 3.057118e-003 8.343785e-003 1.497421e-003 -2.550550e-003 2.589433e-003 2.113363e-003 3.439741e-003 -7.356759e-004
<VARIANCE> 25
 5.770779e+001 3.986889e+001 4.003236e+001 3.857262e+001 2.226866e+001 2.127102e+001 2.417182e+001 1.766002e+001 1.690655e+001 1.996938e+001 1.319279e+001 1.890572e+001 1.145844e+000 1.043695e+000 1.430603e+000 1.936698e+000 1.237978e+000 1.361625e+000 1.537471e+000 1.264937e+000 1.304409e+000 1.314750e+000 1.060573e+000 1.085473e+000 5.683636e-001
<GCONST> 8.708874e+001
<STATE> 3
<MEAN> 25
 9.830125e-001 5.341392e-001 -7.202324e-001 -8.331665e-001 -4.876071e-001 1.402030e-001 3.215532e-001 6.955628e-001 2.976064e-001 -2.342007e-001 -2.191577e-002 4.340665e-001 -7.182512e-003 -8.454701e-003 -1.001812e-002 -1.068864e-002 -3.111031e-003 3.968549e-003 1.009082e-002 1.885375e-003 -1.603750e-003 4.533902e-003 3.864847e-003 3.536774e-003 -2.334661e-003
<VARIANCE> 25
 5.799427e+001 3.977604e+001 3.964915e+001 3.842049e+001 2.211736e+001 2.129513e+001 2.414548e+001 1.759129e+001 1.686026e+001 1.977838e+001 1.321062e+001 1.892389e+001 1.139770e+000 1.034003e+000 1.420660e+000 1.932388e+000 1.237532e+000 1.360883e+000 1.537840e+000 1.263182e+000 1.304152e+000 1.308172e+000 1.065969e+000 1.084322e+000 5.631732e-001
<GCONST> 8.702080e+001
<STATE> 4
<MEAN> 25
 9.726664e-001 4.607711e-001 -8.749008e-001 -9.845383e-001 -5.235234e-001 1.777674e-001 4.161742e-001 6.987463e-001 2.585093e-001 -2.140819e-001 2.391970e-002 4.939359e-001 -8.975492e-003 -9.992344e-003 -1.276298e-002 -9.671692e-003 -1.434739e-003 3.770081e-003 9.159603e-003 3.163325e-004 -2.460141e-003 4.237853e-003 4.632254e-003 3.994386e-003 -3.947217e-003
<VARIANCE> 25
 5.832000e+001 3.948966e+001 3.968890e+001 3.891983e+001 2.206073e+001 2.130238e+001 2.437284e+001 1.758767e+001 1.682028e+001 1.930038e+001 1.328597e+001 1.893736e+001 1.132772e+000 1.024411e+000 1.412810e+000 1.939858e+000 1.238850e+000 1.347498e+000 1.539408e+000 1.259933e+000 1.309088e+000 1.298880e+000 1.075784e+000 1.075850e+000 5.586911e-001
<GCONST> 8.698203e+001
<TRANSP> 5
 0.000000e+000 1.000000e+000 0.000000e+000 0.000000e+000 0.000000e+000
 0.000000e+000 7.716694e-001 2.283306e-001 0.000000e+000 0.000000e+000
 0.000000e+000 0.000000e+000 7.716689e-001 2.283311e-001 0.000000e+000
 0.000000e+000 0.000000e+000 0.000000e+000 9.002204e-001 9.977964e-002
 0.000000e+000 0.000000e+000 0.000000e+000 0.000000e+000 0.000000e+000
<ENDHMM>
~h "ih"
<BEGINHMM>
<NUMSTATES> 5
<STATE> 2
<MEAN> 25
 -5.943626e-001 -3.792547e-001 9.342573e-001 1.527568e+000 1.402336e+000 5.347858e-001 -8.435577e-001 -5.241616e-001 -1.096733e-001 -2.751253e-001 -1.866437e-001 -4.227742e-001 -9.693836e-003 -1.053048e-002 -1.165255e-002 -1.555930e-002 -1.184903e-002 -1.837839e-003 5.471014e-003 5.471878e-003 1.283178e-003 1.751950e-003 1.985045e-003 3.796996e-003 -4.201073e-003
<VARIANCE> 25
 4.606139e+001 3.753691e+001 4.322028e+001 4.613475e+001 2.767486e+001 1.660215e+001 2.858262e+001 1.929978e+001 1.718559e+001 2.010032e+001 1.456798e+001 1.555529e+001 1.217719e+000 1.480397e+000 1.728278e+000 2.237000e+000 1.324711e+000 1.305826e+000 1.903953e+000 1.423470e+000 1.445881e+000 1.476623e+000 1.241998e+000 1.092694e+000 7.361562e-001
<GCONST> 8.895523e+001
<STATE> 3
<MEAN> 25
 -6.348025e-001 -4.218204e-001 8.873801e-001 1.460188e+000 1.349720e+000 5.262378e-001 -8.202320e-001 -4.991659e-001 -1.040089e-001 -2.681081e-001 -1.765881e-001 -4.058395e-001 -8.078821e-003 -9.109913e-003 -1.065545e-002 -1.610238e-002 -1.215837e-002 -2.051399e-003 5.437370e-003 5.857805e-003 9.430975e-004 1.021653e-003 2.143811e-003 4.302744e-003 -3.069999e-003
<VARIANCE> 25
 4.626665e+001 3.751591e+001 4.289642e+001 4.586243e+001 2.748255e+001 1.651317e+001 2.830580e+001 1.922655e+001 1.713063e+001 2.009891e+001 1.452968e+001 1.552265e+001 1.213548e+000 1.470017e+000 1.723546e+000 2.236150e+000 1.320219e+000 1.303336e+000 1.887119e+000 1.421431e+000 1.439837e+000 1.474699e+000 1.242683e+000 1.093906e+000 7.354044e-001
<GCONST> 8.887772e+001
<STATE> 4
<MEAN> 25
 -6.234789e-001 -4.291317e-001 9.243966e-001 1.399698e+000 1.330793e+000 5.260589e-001 -8.179879e-001 -4.625357e-001 -1.217471e-001 -3.046648e-001 -1.745496e-001 -3.975560e-001 -5.981602e-003 -5.428373e-003 -9.549256e-003 -1.552726e-002 -1.335387e-002 -3.224194e-003 5.461725e-003 6.605069e-003 1.437091e-003 5.200107e-004 2.263589e-003 4.269859e-003 -2.968868e-003
<VARIANCE> 25
 4.643348e+001 3.772416e+001 4.307834e+001 4.607504e+001 2.760289e+001 1.644176e+001 2.832425e+001 1.932877e+001 1.714657e+001 2.044094e+001 1.468336e+001 1.561101e+001 1.211545e+000 1.479722e+000 1.732735e+000 2.252645e+000 1.321235e+000 1.304200e+000 1.884947e+000 1.435546e+000 1.440489e+000 1.487181e+000 1.258906e+000 1.106051e+000 7.371018e-001
<GCONST> 8.899866e+001
<TRANSP> 5
 0.000000e+000 1.000000e+000 0.000000e+000 0.000000e+000 0.000000e+000
 0.000000e+000 7.724057e-001 2.275942e-001 0.000000e+000 0.000000e+000
 0.000000e+000 0.000000e+000 7.724061e-001 2.275939e-001 0.000000e+000
 0.000000e+000 0.000000e+000 0.000000e+000 9.009790e-001 9.902101e-002
 0.000000e+000 0.000000e+000 0.000000e+000 0.000000e+000 0.000000e+000
<ENDHMM>
~h "ng"
<BEGINHMM>
<NUMSTATES> 5
<STATE> 2
<MEAN> 25
 -1.075905e-001 -7.962628e-002 3.950555e-001 4.457087e-001 6.762223e-001 4.477129e-001 -4.519466e-001 -1.130885e-001 -5.894158e-003 -1.294282e-002 1.615478e-001 3.236573e-001 -1.305581e-002 -1.089646e-002 -1.770182e-002 -1.300542e-002 -1.739076e-002 -8.095833e-003 3.639209e-003 3.697774e-003 7.840492e-004 2.155376e-003 5.167078e-003 5.556412e-004 -9.280239e-003
<VARIANCE> 25
 5.264290e+001 3.676483e+001 4.100249e+001 4.531448e+001 2.402285e+001 1.490136e+001 2.817582e+001 1.714653e+001 1.603309e+001 1.877008e+001 1.288078e+001 1.510587e+001 1.166106e+000 1.127106e+000 1.501431e+000 2.102393e+000 1.136747e+000 1.256084e+000 1.827393e+000 1.316022e+000 1.289245e+000 1.414670e+000 1.154905e+000 9.929568e-001 6.028667e-001
<GCONST> 8.696905e+001
<STATE> 3
<MEAN> 25
 -1.567352e-001 -1.195710e-001 3.113175e-001 3.885712e-001 5.980173e-001 4.116458e-001 -4.317155e-001 -9.421532e-002 -1.470619e-004 -3.709285e-003 1.839013e-001 3.286255e-001 -1.100827e-002 -8.675665e-003 -1.865632e-002 -1.284074e-002 -1.707686e-002 -8.810543e-003 4.066624e-003 3.811862e-003 1.294619e-003 2.160839e-003 4.942773e-003 5.967508e-004 -9.049324e-003
<VARIANCE> 25
 5.306516e+001 3.656251e+001 4.063511e+001 4.459063e+001 2.374052e+001 1.483513e+001 2.801842e+001 1.701987e+001 1.582138e+001 1.874451e+001 1.285532e+001 1.512029e+001 1.157959e+000 1.113196e+000 1.493394e+000 2.094120e+000 1.132252e+000 1.253687e+000 1.815444e+000 1.313441e+000 1.279894e+000 1.407741e+000 1.156329e+000 9.935054e-001 5.966552e-001
<GCONST> 8.683755e+001
<STATE> 4
<MEAN> 25
 -1.037315e-001 -7.967034e-002 2.240311e-001 3.125627e-001 5.113311e-001 3.775527e-001 -3.845074e-001 -4.039981e-002 1.017896e-002 -1.316225e-002 2.161066e-001 3.453239e-001 -9.222735e-003 -5.758085e-003 -2.104950e-002 -1.195179e-002 -1.804521e-002 -9.592238e-003 6.210866e-003 5.035839e-003 2.797275e-003 2.440209e-003 3.663632e-003 7.414583e-004 -1.038776e-002
<VARIANCE> 25
 5.379603e+001 3.644301e+001 4.018822e+001 4.380692e+001 2.355313e+001 1.484792e+001 2.827543e+001 1.708405e+001 1.566937e+001 1.883648e+001 1.287922e+001 1.524123e+001 1.155955e+000 1.102002e+000 1.491933e+000 2.096882e+000 1.131161e+000 1.254725e+000 1.817753e+000 1.321950e+000 1.271357e+000 1.406125e+000 1.165203e+000 1.000054e+000 5.898200e-001
<GCONST> 8.682101e+001
<TRANSP> 5
 0.000000e+000 1.000000e+000 0.000000e+000 0.000000e+000 0.000000e+000
 0.000000e+000 7.683404e-001 2.316595e-001 0.000000e+000 0.000000e+000
 0.000000e+000 0.000000e+000 7.683407e-001 2.316593e-001 0.000000e+000
 0.000000e+000 0.000000e+000 0.000000e+000 8.960989e-001 1.039012e-001
 0.000000e+000 0.000000e+000 0.000000e+000 0.000000e+000 0.000000e+000
<ENDHMM>
~h "ny"
<BEGINHMM>
<NUMSTATES> 5
<STATE> 2
<MEAN> 25
 3.902513e-001 4.155796e-001 2.564114e-001 -4.451662e-001 -2.312891e-001 -1.203949e-001 2.263823e-001 1.552260e-001 1.173234e-001 1.566861e-001 1.270735e-001 1.375429e-001 1.723268e-002 8.000875e-003 -1.202618e-002 -1.588629e-002 9.386022e-003 1.384939e-002 1.091364e-002 2.883710e-003 -7.700336e-003 -8.153101e-003 8.751151e-003 1.640969e-002 1.013866e-002
<VARIANCE> 25
 5.657856e+001 3.871801e+001 3.943798e+001 4.286175e+001 2.314939e+001 2.072045e+001 2.849480e+001 1.767369e+001 1.630092e+001 1.647089e+001 1.202371e+001 1.867186e+001 1.196550e+000 1.185951e+000 1.699073e+000 1.971929e+000 1.214682e+000 1.420324e+000 2.013053e+000 1.354595e+000 1.384653e+000 1.298846e+000 1.089403e+000 1.184328e+000 6.385831e-001
<GCONST> 8.797401e+001
<STATE> 3
<MEAN> 25
 4.695791e-001 4.465969e-001 1.949588e-001 -5.206496e-001 -1.968446e-001 -6.344838e-002 2.763416e-001 1.787341e-001 9.386111e-002 1.286169e-001 1.695266e-001 2.174843e-001 1.661911e-002 4.979643e-003 -1.664207e-002 -1.704362e-002 8.071513e-003 1.444353e-002 1.255035e-002 5.769538e-003 -4.916951e-003 -6.302533e-003 9.993703e-003 1.894161e-002 9.557676e-003
<VARIANCE> 25
 5.691980e+001 3.824397e+001 3.910614e+001 4.322868e+001 2.300176e+001 2.071029e+001 2.871999e+001 1.771728e+001 1.626340e+001 1.620656e+001 1.206648e+001 1.892527e+001 1.204196e+000 1.181337e+000 1.706356e+000 1.997964e+000 1.215340e+000 1.420420e+000 2.044085e+000 1.358514e+000 1.385641e+000 1.294635e+000 1.091751e+000 1.195984e+000 6.474141e-001
<GCONST> 8.803158e+001
<STATE> 4
<MEAN> 25
 6.500466e-001 5.129181e-001 1.097155e-001 -6.187754e-001 -9.960545e-002 3.274640e-002 3.029896e-001 2.139669e-001 5.916373e-002 9.007242e-002 2.432749e-001 3.657811e-001 1.523367e-002 1.104609e-003 -1.924180e-002 -1.768385e-002 4.134465e-003 1.335627e-002 1.252576e-002 8.927311e-003 -2.682614e-003 -5.460909e-003 8.336580e-003 2.029787e-002 8.733829e-003
<VARIANCE> 25
 5.726079e+001 3.724210e+001 3.926225e+001 4.392086e+001 2.349835e+001 2.082105e+001 2.978066e+001 1.782512e+001 1.625557e+001 1.583719e+001 1.212687e+001 1.944053e+001 1.213702e+000 1.160821e+000 1.716307e+000 2.042157e+000 1.242910e+000 1.435322e+000 2.144014e+000 1.365106e+000 1.392652e+000 1.297608e+000 1.082486e+000 1.216424e+000 6.623729e-001
<GCONST> 8.825030e+001
<TRANSP> 5
 0.000000e+000 1.000000e+000 0.000000e+000 0.000000e+000 0.000000e+000
 0.000000e+000 7.709980e-001 2.290020e-001 0.000000e+000 0.000000e+000
 0.000000e+000 0.000000e+000 7.709987e-001 2.290013e-001 0.000000e+000
 0.000000e+000 0.000000e+000 0.000000e+000 9.004011e-001 9.959890e-002
 0.000000e+000 0.000000e+000 0.000000e+000 0.000000e+000 0.000000e+000
<ENDHMM>
~h "uw"
<BEGINHMM>
<NUMSTATES> 5
<STATE> 2
<MEAN> 25
 1.556223e-001 4.680433e-001 2.633173e-001 2.728647e-001 -4.871468e-001 -5.047315e-001 -6.236207e-002 4.699802e-002 -1.432598e-002 -6.521310e-002 -2.773556e-001 -4.665391e-001 -2.188470e-003 -7.619432e-004 5.937420e-003 6.776378e-003 2.452749e-003 -1.415739e-004 -9.739032e-004 -1.321026e-004 -4.346145e-004 -3.608715e-003 -3.341217e-003 -4.585234e-003 -6.075086e-004
<VARIANCE> 25
 5.273322e+001 4.273069e+001 3.629933e+001 3.779235e+001 2.103895e+001 2.015987e+001 2.566755e+001 1.692095e+001 1.832561e+001 1.933648e+001 1.334656e+001 1.592719e+001 1.567201e+000 1.759319e+000 1.491496e+000 1.741794e+000 1.303829e+000 1.320967e+000 1.599455e+000 1.250405e+000 1.526974e+000 1.450451e+000 1.225450e+000 1.122344e+000 7.755076e-001
<GCONST> 8.830979e+001
<STATE> 3
<MEAN> 25
 1.438149e-001 4.617013e-001 2.896871e-001 2.993895e-001 -4.762775e-001 -5.046796e-001 -6.568955e-002 4.349497e-002 -1.905543e-002 -8.085749e-002 -2.922229e-001 -4.851292e-001 -3.203808e-003 -1.556289e-003 6.792765e-003 5.970400e-003 2.774313e-003 -1.566049e-004 -7.488482e-004 -1.001488e-003 -1.251816e-003 -3.411384e-003 -3.120994e-003 -4.368652e-003 -3.273474e-004
<VARIANCE> 25
 5.252869e+001 4.283718e+001 3.654935e+001 3.786554e+001 2.118599e+001 2.026401e+001 2.573717e+001 1.692116e+001 1.832471e+001 1.942591e+001 1.336865e+001 1.596675e+001 1.572471e+000 1.769785e+000 1.496379e+000 1.744571e+000 1.314279e+000 1.326683e+000 1.599020e+000 1.253339e+000 1.529605e+000 1.451423e+000 1.227809e+000 1.123927e+000 7.759641e-001
<GCONST> 8.837556e+001
<STATE> 4
<MEAN> 25
 1.458061e-001 4.652793e-001 3.407559e-001 3.323291e-001 -4.613674e-001 -5.031313e-001 -7.033595e-002 1.554483e-002 -5.177047e-002 -1.230827e-001 -3.280998e-001 -5.064706e-001 -2.788975e-003 -2.700263e-003 6.916900e-003 1.244611e-003 2.009155e-003 -8.404367e-004 -1.272136e-004 -2.526860e-003 -3.003413e-003 -3.150270e-003 -2.779830e-003 -2.961967e-003 1.986453e-003
<VARIANCE> 25
 5.223557e+001 4.312444e+001 3.697213e+001 3.812846e+001 2.153409e+001 2.048204e+001 2.583629e+001 1.689833e+001 1.830114e+001 1.947616e+001 1.343239e+001 1.609777e+001 1.589682e+000 1.796892e+000 1.511173e+000 1.760695e+000 1.343557e+000 1.347028e+000 1.606824e+000 1.260665e+000 1.539818e+000 1.456609e+000 1.235721e+000 1.127867e+000 7.799546e-001
<GCONST> 8.855714e+001
<TRANSP> 5
 0.000000e+000 1.000000e+000 0.000000e+000 0.000000e+000 0.000000e+000
 0.000000e+000 7.724744e-001 2.275256e-001 0.000000e+000 0.000000e+000
 0.000000e+000 0.000000e+000 7.724727e-001 2.275273e-001 0.000000e+000
 0.000000e+000 0.000000e+000 0.000000e+000 9.008705e-001 9.912944e-002
 0.000000e+000 0.000000e+000 0.000000e+000 0.000000e+000 0.000000e+000
<ENDHMM>
~h "sil"
<BEGINHMM>
<NUMSTATES> 5
<STATE> 2
<MEAN> 25
 -7.330057e+000 -4.883056e+000 -3.129172e+000 6.713313e-001 -5.119935e-001 -1.243119e-001 1.044153e-001 -7.204969e-002 1.596697e+000 2.121808e+000 8.889721e-001 -9.702122e-002 -3.385787e-002 4.534023e-004 -5.014821e-003 -3.918155e-002 -1.988010e-002 2.659716e-003 4.451940e-004 1.392555e-002 -2.282120e-003 -6.496961e-002 -5.029592e-002 -4.045045e-002 -1.358511e-002
<VARIANCE> 25
 1.744687e+000 1.690532e+000 2.783338e+000 4.509812e+000 5.255543e+000 5.671564e+000 6.160744e+000 6.174037e+000 6.686624e+000 6.493065e+000 6.747731e+000 6.229426e+000 1.460647e-001 1.658359e-001 2.759277e-001 3.792177e-001 4.946199e-001 5.931874e-001 7.175641e-001 6.841208e-001 6.948536e-001 7.186316e-001 7.459573e-001 6.676514e-001 6.633515e-002
<GCONST> 5.208107e+001
<STATE> 3
<MEAN> 25
 -7.412302e+000 -4.878385e+000 -3.080131e+000 6.479930e-001 -5.282283e-001 -1.057490e-001 7.325608e-002 -2.655979e-002 1.595256e+000 2.034638e+000 8.307076e-001 -1.430291e-001 -1.125168e-002 1.323021e-003 1.073818e-002 7.427531e-003 -9.463730e-003 5.540188e-003 -8.567868e-003 1.500068e-002 2.673666e-003 -1.301135e-002 -2.753209e-003 -8.187274e-003 -1.075262e-002
<VARIANCE> 25
 1.408790e+000 1.616835e+000 2.652367e+000 4.441148e+000 4.888374e+000 5.470055e+000 6.015290e+000 6.406734e+000 6.695970e+000 6.406040e+000 6.823257e+000 6.159642e+000 1.072940e-001 1.424797e-001 2.593227e-001 3.500136e-001 4.474527e-001 5.699005e-001 6.787511e-001 6.851524e-001 6.802603e-001 7.023478e-001 7.773232e-001 6.906568e-001 5.665451e-002
<GCONST> 5.072770e+001
<STATE> 4
<MEAN> 25
 -7.404997e+000 -4.863035e+000 -3.038223e+000 6.672342e-001 -5.363572e-001 -7.051071e-002 5.973717e-002 5.379331e-002 1.663542e+000 2.024455e+000 8.312096e-001 -1.348089e-001 1.350141e-004 5.068778e-004 1.085803e-002 -2.150459e-003 -7.270875e-003 4.769616e-003 -4.431797e-003 2.406498e-002 5.728840e-004 -2.670460e-002 -9.424075e-003 -1.809437e-002 2.354152e-003
<VARIANCE> 25
 1.731842e+000 1.934957e+000 3.177679e+000 4.602944e+000 4.910866e+000 5.530734e+000 6.143602e+000 6.519867e+000 6.782033e+000 6.775917e+000 6.986699e+000 6.618689e+000 1.035641e-001 1.551569e-001 3.008185e-001 3.611329e-001 4.629430e-001 5.784228e-001 6.792587e-001 6.969905e-001 7.137676e-001 7.805136e-001 8.318115e-001 7.617887e-001 5.516126e-002
<GCONST> 5.213793e+001
<TRANSP> 5
 0.000000e+000 1.000000e+000 0.000000e+000 0.000000e+000 0.000000e+000
 0.000000e+000 7.721376e-001 2.278624e-001 0.000000e+000 0.000000e+000
 0.000000e+000 0.000000e+000 7.721381e-001 2.278620e-001 0.000000e+000
 0.000000e+000 0.000000e+000 0.000000e+000 9.005290e-001 9.947111e-002
 0.000000e+000 0.000000e+000 0.000000e+000 0.000000e+000 0.000000e+000
<ENDHMM>
