~o
<STREAMINFO> 1 25
<VECSIZE> 25<NULLD><MFCC_D_N_Z_0><DIAGC>
~h "b"
<BEGINHMM>
<NUMSTATES> 5
<STATE> 2
<MEAN> 25
 -3.983245e+000 -1.942758e+000 -1.052586e+000 9.678959e-001 -5.477527e-001 4.514866e-001 2.104110e-001 -8.406211e-002 7.878976e-001 9.356734e-001 -7.423578e-002 -1.319795e+000 -4.007711e-001 -3.003021e-001 -8.235329e-002 2.008650e-001 2.093558e-001 8.173052e-002 -1.191610e-002 -8.001765e-002 -3.606655e-002 -2.833845e-002 -6.250708e-003 2.604149e-002 -2.140520e-001
<VARIANCE> 25
 7.924126e+000 9.081250e+000 1.038249e+001 9.459538e+000 6.195859e+000 7.221922e+000 8.505392e+000 1.278940e+001 1.427263e+001 9.145836e+000 9.598475e+000 1.156224e+001 2.491625e-001 2.743502e-001 5.253215e-001 6.588197e-001 5.874701e-001 6.382222e-001 7.758170e-001 1.100716e+000 1.180694e+000 8.049529e-001 7.850445e-001 8.639995e-001 7.319139e-002
<GCONST> 6.494483e+001
<STATE> 3
<MEAN> 25
 -6.451514e+000 -4.135232e+000 -2.149471e+000 1.802065e+000 6.818547e-001 1.020409e+000 2.490449e-001 -6.043272e-002 1.286864e+000 1.380757e+000 3.177770e-001 -7.056441e-001 1.100472e-002 4.220197e-002 7.419898e-002 9.633139e-002 9.448826e-002 5.234047e-002 4.298003e-002 6.393351e-002 1.150601e-001 8.568386e-002 2.680920e-002 1.724978e-002 1.076439e-003
<VARIANCE> 25
 2.997097e+000 3.883999e+000 4.729616e+000 6.504078e+000 5.013493e+000 5.064933e+000 6.016589e+000 7.625009e+000 8.406321e+000 7.503537e+000 6.534391e+000 6.779910e+000 1.714638e-001 2.873741e-001 4.107659e-001 4.819182e-001 4.613978e-001 5.730357e-001 6.404527e-001 7.518784e-001 7.553769e-001 7.686170e-001 6.784906e-001 7.173015e-001 3.719839e-002
<GCONST> 5.557708e+001
<STATE> 4
<MEAN> 25
 3.878472e-001 4.170116e+000 6.067961e+000 8.389218e+000 5.294442e+000 3.727717e+000 1.790706e+000 8.462195e-001 2.164188e+000 1.990179e+000 3.287444e-001 -1.318308e+000 1.083477e+000 6.918705e-001 3.964372e-001 1.227572e-001 8.360838e-002 4.942789e-002 1.704449e-002 -2.216835e-001 -3.425100e-001 -1.437308e-001 -1.783480e-002 -4.434859e-002 6.242365e-001
<VARIANCE> 25
 1.405149e+001 1.992742e+001 2.231151e+001 1.621586e+001 8.846354e+000 7.385205e+000 9.006535e+000 7.185552e+000 7.929265e+000 6.245134e+000 5.958888e+000 6.211764e+000 1.118436e+000 2.334665e+000 3.154996e+000 2.971179e+000 1.825175e+000 1.160192e+000 1.024776e+000 9.180535e-001 9.895952e-001 7.234797e-001 7.504449e-001 6.410716e-001 4.683015e-001
<GCONST> 7.539854e+001
<TRANSP> 5
 0.000000e+000 1.000000e+000 0.000000e+000 0.000000e+000 0.000000e+000
 0.000000e+000 8.526402e-001 1.473598e-001 0.000000e+000 0.000000e+000
 0.000000e+000 0.000000e+000 9.150208e-001 8.497921e-002 0.000000e+000
 0.000000e+000 0.000000e+000 0.000000e+000 8.823954e-001 1.176046e-001
 0.000000e+000 0.000000e+000 0.000000e+000 0.000000e+000 0.000000e+000
<ENDHMM>
~h "d"
<BEGINHMM>
<NUMSTATES> 5
<STATE> 2
<MEAN> 25
 3.413397e+000 4.965285e+000 1.039072e+001 7.602533e+000 6.528125e+000 2.101557e+000 -3.330313e+000 -1.077112e+000 -1.847701e-001 -1.864196e+000 -2.627895e+000 -3.376773e+000 8.327461e-002 2.776238e-002 2.859266e-001 5.765499e-002 1.632154e-001 -1.377740e-001 -4.989456e-001 2.802033e-002 6.639177e-002 -2.165135e-001 -1.499115e-001 -1.446532e-001 1.379102e-001
<VARIANCE> 25
 1.133541e+001 2.151447e+001 2.663540e+001 3.138685e+001 3.430075e+001 1.961533e+001 4.653209e+001 2.077678e+001 1.882242e+001 2.036365e+001 1.786142e+001 1.451687e+001 1.065346e+000 2.897554e+000 2.208254e+000 3.585308e+000 3.103765e+000 1.754282e+000 5.008193e+000 2.503489e+000 2.165823e+000 2.099006e+000 1.851704e+000 1.337682e+000 1.488259e+000
<GCONST> 9.330299e+001
<STATE> 3
<MEAN> 25
 4.612786e+000 6.934513e+000 9.621686e+000 8.581452e+000 5.633809e+000 -1.007329e+000 -6.468163e+000 -1.280537e+000 2.298095e+000 -2.313446e-001 -1.648794e+000 -2.850742e+000 1.723723e-001 9.471192e-003 -2.949888e-001 -1.991119e-001 -1.310193e-001 -1.114191e-001 -1.112723e-001 -3.171495e-001 -1.997731e-001 1.994662e-001 3.345482e-001 2.740320e-001 7.253484e-002
<VARIANCE> 25
 5.548243e+000 5.858157e+000 7.592687e+000 9.879292e+000 1.609198e+001 2.591513e+001 6.460100e+001 1.591705e+001 1.417106e+001 1.071971e+001 8.802469e+000 1.022402e+001 3.129799e-001 4.311273e-001 8.726757e-001 7.635205e-001 1.317396e+000 2.425942e+000 5.216976e+000 1.200840e+000 1.747597e+000 1.285423e+000 1.011606e+000 6.517428e-001 3.593724e-001
<GCONST> 7.619491e+001
<STATE> 4
<MEAN> 25
 4.747106e+000 6.258821e+000 5.330812e+000 7.301890e+000 5.515093e+000 2.755521e+000 -2.505274e+000 -4.823941e+000 -2.861524e+000 -3.766903e-001 1.307648e+000 2.730454e-001 -6.407088e-001 -3.518760e-001 -1.857272e-001 1.824177e-001 -1.950903e-002 4.835938e-001 1.028405e+000 5.331168e-001 1.915838e-001 -7.455103e-003 -1.206304e-001 -7.904300e-003 -4.416033e-001
<VARIANCE> 25
 1.120252e+001 5.905185e+000 5.753970e+000 9.221079e+000 7.081736e+000 9.150727e+000 1.941229e+001 1.630775e+001 1.328093e+001 1.058685e+001 1.042739e+001 7.952756e+000 3.716981e-001 5.589674e-001 5.895121e-001 7.349526e-001 7.168938e-001 1.008357e+000 1.653720e+000 9.254782e-001 1.313376e+000 1.140189e+000 1.246164e+000 6.392879e-001 1.828338e-001
<GCONST> 6.957369e+001
<TRANSP> 5
 0.000000e+000 1.000000e+000 0.000000e+000 0.000000e+000 0.000000e+000
 0.000000e+000 9.203349e-001 7.966511e-002 0.000000e+000 0.000000e+000
 0.000000e+000 0.000000e+000 9.259788e-001 7.402118e-002 0.000000e+000
 0.000000e+000 0.000000e+000 0.000000e+000 8.644518e-001 1.355482e-001
 0.000000e+000 0.000000e+000 0.000000e+000 0.000000e+000 0.000000e+000
<ENDHMM>
~h "f"
<BEGINHMM>
<NUMSTATES> 5
<STATE> 2
<MEAN> 25
 -4.624399e-001 -8.199285e+000 -2.885155e+000 -3.772099e-002 6.414218e+000 3.634118e+000 -1.214800e+000 -7.263752e+000 -3.640226e+000 -1.186179e+000 1.432608e+000 5.920449e-001 1.166612e-001 5.547571e-002 2.261018e-002 5.343212e-002 3.476039e-002 -1.366082e-001 -2.326410e-001 -1.211186e-001 -1.085218e-001 -1.165988e-001 -5.717158e-003 -1.633539e-003 6.398569e-002
<VARIANCE> 25
 1.672992e+001 4.343482e+001 3.201569e+001 7.259064e+001 2.420763e+001 1.503693e+001 3.407589e+001 1.466243e+001 1.746675e+001 2.141000e+001 2.338525e+001 2.430146e+001 1.597243e+000 6.921030e+000 7.018517e+000 8.115353e+000 2.613062e+000 1.726144e+000 3.668821e+000 2.029361e+000 2.558825e+000 3.822933e+000 3.592231e+000 2.656114e+000 3.628730e-001
<GCONST> 9.814596e+001
<STATE> 3
<MEAN> 25
 5.039754e+000 5.071170e+000 1.121193e+001 1.400967e+001 9.909882e+000 -5.562655e-001 -1.185919e+001 -3.957646e+000 -2.081040e+000 -8.002929e+000 -7.197601e+000 -5.709561e+000 -2.364764e-001 6.403358e-001 1.592681e+000 1.459769e-001 -5.282853e-001 -1.528365e-001 9.520854e-002 1.123123e+000 -2.952593e-001 -1.413096e+000 -1.967373e-001 2.530023e-001 -1.132797e-001
<VARIANCE> 25
 9.571105e+000 1.376616e+001 2.322217e+001 2.672051e+001 1.766900e+001 9.131285e+000 2.343926e+001 1.242225e+001 1.025127e+001 1.397017e+001 1.129747e+001 7.882973e+000 3.979738e-001 1.651425e+000 2.052729e+000 9.665014e-001 4.907739e-001 1.206639e+000 1.994830e+000 1.054618e+000 1.212945e+000 1.805770e+000 1.814692e+000 6.205891e-001 1.436833e-001
<GCONST> 7.691735e+001
<STATE> 4
<MEAN> 25
 1.714681e+000 3.888965e+000 9.630198e+000 1.103927e+001 7.192492e+000 1.992662e+000 -4.470734e+000 3.804585e-001 -9.767109e-001 -6.418029e+000 -3.949611e+000 -3.404470e+000 -3.877460e-001 -3.775248e-001 -6.546296e-001 -4.991658e-001 -4.510471e-001 2.246685e-002 6.506488e-001 2.572791e-001 2.566952e-001 4.691957e-001 3.352870e-001 3.031113e-001 -2.537740e-001
<VARIANCE> 25
 1.081240e+001 1.407767e+001 2.867131e+001 1.664450e+001 1.319801e+001 8.968478e+000 2.210147e+001 8.171047e+000 1.056902e+001 1.857344e+001 9.139955e+000 9.251881e+000 2.336859e-001 9.081988e-001 9.125544e-001 6.580207e-001 6.052862e-001 8.169317e-001 1.150311e+000 7.971817e-001 8.164083e-001 8.727615e-001 7.223781e-001 8.359571e-001 8.116883e-002
<GCONST> 7.062182e+001
<TRANSP> 5
 0.000000e+000 1.000000e+000 0.000000e+000 0.000000e+000 0.000000e+000
 0.000000e+000 9.361117e-001 6.388825e-002 0.000000e+000 0.000000e+000
 0.000000e+000 0.000000e+000 6.256419e-001 3.743581e-001 0.000000e+000
 0.000000e+000 0.000000e+000 0.000000e+000 9.209439e-001 7.905617e-002
 0.000000e+000 0.000000e+000 0.000000e+000 0.000000e+000 0.000000e+000
<ENDHMM>
~h "g"
<BEGINHMM>
<NUMSTATES> 5
<STATE> 2
<MEAN> 25
 -6.468679e+000 -3.759991e+000 -2.319507e+000 1.399686e+000 -3.848081e-001 3.229927e-001 8.523253e-001 6.737072e-001 1.877608e+000 1.996594e+000 2.445703e-001 -5.053984e-001 -1.320865e-001 -1.331393e-001 -1.161821e-001 -3.361676e-002 -3.539031e-002 -4.535267e-002 -4.091340e-002 -3.942984e-002 -1.088015e-002 1.025768e-002 3.635577e-002 3.245377e-002 -7.359333e-002
<VARIANCE> 25
 4.445347e+000 5.512881e+000 4.512500e+000 4.515863e+000 5.621945e+000 7.296627e+000 7.485899e+000 6.808230e+000 7.734770e+000 6.956395e+000 6.538557e+000 5.927515e+000 1.145192e-001 1.421529e-001 2.737676e-001 3.343482e-001 4.660646e-001 6.040360e-001 6.881315e-001 7.531582e-001 7.856527e-001 7.395240e-001 6.645761e-001 6.223579e-001 3.424741e-002
<GCONST> 5.421457e+001
<STATE> 3
<MEAN> 25
 -3.629776e+000 -4.623718e-001 2.447158e-001 2.576664e+000 1.078443e-001 7.871125e-001 1.720617e+000 1.477921e+000 2.502306e+000 2.603931e+000 1.167311e+000 -2.889649e-002 -1.593633e-001 -1.578800e-001 1.426733e-002 1.477823e-001 8.743959e-002 2.386320e-002 1.294760e-001 1.911389e-001 5.431364e-002 6.927533e-003 -1.777036e-001 -5.653275e-002 -7.290028e-002
<VARIANCE> 25
 1.403341e+001 1.885693e+001 1.354778e+001 8.213258e+000 7.759430e+000 9.267067e+000 9.443615e+000 7.762523e+000 7.617620e+000 6.561053e+000 9.093842e+000 5.130046e+000 3.765477e-001 4.019593e-001 4.398499e-001 6.411347e-001 5.933759e-001 6.156315e-001 6.492966e-001 7.794594e-001 1.059188e+000 8.687513e-001 8.800341e-001 5.122592e-001 1.254340e-001
<GCONST> 6.476367e+001
<STATE> 4
<MEAN> 25
 5.633178e+000 2.274669e+000 -3.382966e+000 -4.498765e+000 -1.449412e+000 -1.908026e-001 7.903386e-001 8.297635e-001 4.824876e-001 4.190934e-001 1.808054e+000 3.295968e+000 9.071451e-001 3.299133e-002 -1.836635e-002 -4.865797e-001 1.785673e-001 3.405272e-002 -2.949455e-001 -9.907075e-002 -2.807947e-001 -4.098011e-001 2.940594e-001 2.908887e-001 8.515517e-001
<VARIANCE> 25
 6.607694e+001 2.125237e+001 2.759020e+001 4.549508e+001 1.515417e+001 8.595277e+000 1.365272e+001 1.744864e+001 1.744192e+001 1.105442e+001 8.958890e+000 1.375695e+001 5.389622e+000 3.259152e+000 2.407917e+000 3.799629e+000 1.755083e+000 1.194959e+000 2.224630e+000 2.510326e+000 1.975392e+000 2.046157e+000 1.139366e+000 1.133795e+000 2.808739e+000
<GCONST> 9.097361e+001
<TRANSP> 5
 0.000000e+000 1.000000e+000 0.000000e+000 0.000000e+000 0.000000e+000
 0.000000e+000 9.362285e-001 6.377154e-002 0.000000e+000 0.000000e+000
 0.000000e+000 0.000000e+000 6.728955e-001 3.271045e-001 0.000000e+000
 0.000000e+000 0.000000e+000 0.000000e+000 8.743493e-001 1.256507e-001
 0.000000e+000 0.000000e+000 0.000000e+000 0.000000e+000 0.000000e+000
<ENDHMM>
~h "k"
<BEGINHMM>
<NUMSTATES> 5
<STATE> 2
<MEAN> 25
 -5.361595e+000 -3.694961e+000 -2.572021e+000 8.834383e-001 -2.849374e-001 5.894538e-001 5.598152e-001 1.467856e-001 1.305098e+000 1.612973e+000 5.741758e-001 -6.334836e-001 1.673780e+000 -3.996606e-001 -1.225643e+000 -3.085747e+000 -1.751390e+000 -2.614706e-001 1.230968e+000 -4.169210e-001 -1.506465e+000 -8.738585e-001 5.472804e-001 5.271005e-001 1.815956e+000
<VARIANCE> 25
 5.525577e+000 6.676153e+000 8.726985e+000 1.275229e+001 1.385017e+001 1.275183e+001 1.170408e+001 1.087136e+001 1.150201e+001 1.045280e+001 1.039007e+001 8.724412e+000 2.030061e+000 2.523495e+000 2.487320e+000 6.275359e+000 4.436476e+000 3.921887e+000 5.310002e+000 1.966056e+000 2.949738e+000 2.782526e+000 1.816577e+000 1.568767e+000 2.517770e+000
<GCONST> 8.724269e+001
<STATE> 3
<MEAN> 25
 2.730424e+000 -5.767130e+000 -7.758368e+000 -1.372108e+001 -6.628572e+000 2.673199e-001 6.169178e+000 -2.778520e+000 -6.288123e+000 -3.065968e+000 2.980172e+000 1.515425e+000 2.365010e+000 4.719783e-001 -4.311605e-001 -3.283976e+000 -1.586310e+000 -7.014452e-001 1.338906e+000 -1.595380e-001 -1.833198e+000 -1.066841e+000 9.491242e-001 1.181206e+000 2.391789e+000
<VARIANCE> 25
 1.426672e+001 2.997899e+001 2.127169e+001 4.558567e+001 7.112064e+001 6.127347e+001 7.995517e+001 2.802937e+001 2.728304e+001 3.106374e+001 2.014876e+001 1.740379e+001 1.445228e+000 2.684836e+000 2.357060e+000 6.036201e+000 4.754203e+000 4.916749e+000 5.480685e+000 1.968317e+000 3.174110e+000 2.335422e+000 1.687145e+000 1.680629e+000 2.027646e+000
<GCONST> 1.008724e+002
<STATE> 4
<MEAN> 25
 6.285999e+000 9.959811e-001 -4.021602e+000 -9.276279e+000 -5.302518e+000 -2.130413e+000 3.165101e+000 1.703349e-001 -3.944199e+000 -1.862159e+000 2.088661e+000 3.805365e+000 1.703822e+000 2.036848e+000 5.426835e-001 1.483093e+000 1.096136e+000 -4.680133e-001 -1.372685e+000 6.460088e-001 1.112835e+000 3.505507e-001 -8.433114e-001 3.570793e-001 1.043837e-001
<VARIANCE> 25
 2.603424e+001 2.593857e+001 1.624341e+001 3.335536e+001 4.068259e+001 4.393523e+001 5.638376e+001 2.016260e+001 3.048519e+001 2.229912e+001 2.309579e+001 1.376329e+001 2.660048e+000 2.233827e+000 2.200357e+000 3.962580e+000 2.968424e+000 2.877639e+000 3.485993e+000 1.582706e+000 2.103435e+000 1.332488e+000 1.299697e+000 1.552405e+000 1.306294e+000
<GCONST> 9.536517e+001
<TRANSP> 5
 0.000000e+000 1.000000e+000 0.000000e+000 0.000000e+000 0.000000e+000
 0.000000e+000 6.156563e-001 3.843437e-001 0.000000e+000 0.000000e+000
 0.000000e+000 0.000000e+000 5.112780e-001 4.887220e-001 0.000000e+000
 0.000000e+000 0.000000e+000 0.000000e+000 7.492986e-001 2.507014e-001
 0.000000e+000 0.000000e+000 0.000000e+000 0.000000e+000 0.000000e+000
<ENDHMM>
~h "l"
<BEGINHMM>
<NUMSTATES> 5
<STATE> 2
<MEAN> 25
 -2.575078e+000 -2.681419e+000 -2.663839e+000 -2.381999e+000 -1.155263e+000 1.423815e+000 1.721219e+000 1.473486e-001 -5.629583e-001 3.747189e-001 5.614834e-001 8.233441e-001 8.620711e-002 1.334340e-001 9.874083e-003 -9.511942e-002 -2.677013e-001 -2.876204e-001 -1.460025e-001 1.498387e-002 1.329443e-002 -4.096838e-002 -1.202970e-001 -1.038677e-001 2.149513e-003
<VARIANCE> 25
 4.085862e+001 3.374293e+001 1.856557e+001 2.735993e+001 1.210148e+001 1.589897e+001 1.448427e+001 1.149675e+001 1.240409e+001 1.152595e+001 1.082722e+001 1.196855e+001 6.515853e-001 1.359285e+000 1.641658e+000 1.907386e+000 1.202317e+000 1.411001e+000 1.283715e+000 9.888226e-001 1.261865e+000 1.274048e+000 1.025910e+000 1.118067e+000 4.773620e-001
<GCONST> 8.126750e+001
<STATE> 3
<MEAN> 25
 3.948950e+000 3.061061e+000 -1.295348e+000 -4.834722e+000 -3.258528e+000 -1.189095e+000 1.004687e+000 1.121456e+000 -1.409271e+000 -1.434510e+000 -1.520463e+000 2.355466e-001 8.154285e-001 7.551561e-001 2.481356e-001 -4.360410e-001 -3.873727e-001 -3.857081e-001 1.986637e-002 2.233425e-001 -1.588720e-001 -3.748918e-001 -3.703875e-001 -6.750123e-002 4.331718e-001
<VARIANCE> 25
 4.955737e+001 3.512720e+001 2.589916e+001 4.220490e+001 1.251426e+001 1.130094e+001 1.361822e+001 1.335879e+001 1.034207e+001 1.093289e+001 9.270917e+000 1.007922e+001 2.005714e+000 2.085551e+000 2.385174e+000 2.250746e+000 1.211504e+000 1.169522e+000 1.228500e+000 1.094869e+000 1.196659e+000 1.173457e+000 8.028940e-001 9.791567e-001 7.088789e-001
<GCONST> 8.333775e+001
<STATE> 4
<MEAN> 25
 9.525784e+000 7.096206e+000 -1.294680e+000 -9.078008e+000 -6.323981e+000 -3.369651e+000 1.846245e+000 3.947682e+000 -2.611393e-002 -2.027948e+000 -2.670753e+000 1.140079e+000 5.063212e-002 -1.040732e-001 -1.972941e-001 -9.052977e-002 -3.951625e-002 6.268068e-002 1.618260e-001 2.061371e-001 2.079723e-001 -3.483911e-002 -4.883618e-002 1.312498e-001 4.086338e-002
<VARIANCE> 25
 1.838110e+001 1.368047e+001 2.711505e+001 2.825769e+001 1.195388e+001 1.235551e+001 1.638388e+001 1.314952e+001 1.333715e+001 1.110589e+001 7.177825e+000 1.330731e+001 1.416951e+000 1.091622e+000 2.725392e+000 2.940828e+000 1.066931e+000 1.187931e+000 1.430499e+000 1.192858e+000 1.054856e+000 1.075566e+000 8.618675e-001 1.315370e+000 7.598572e-001
<GCONST> 8.130679e+001
<TRANSP> 5
 0.000000e+000 1.000000e+000 0.000000e+000 0.000000e+000 0.000000e+000
 0.000000e+000 7.919431e-001 2.080569e-001 0.000000e+000 0.000000e+000
 0.000000e+000 0.000000e+000 5.319273e-001 4.680727e-001 0.000000e+000
 0.000000e+000 0.000000e+000 0.000000e+000 8.707119e-001 1.292881e-001
 0.000000e+000 0.000000e+000 0.000000e+000 0.000000e+000 0.000000e+000
<ENDHMM>
~h "m"
<BEGINHMM>
<NUMSTATES> 5
<STATE> 2
<MEAN> 25
 2.527425e+000 4.215108e+000 2.600348e+000 3.589597e+000 7.928863e-001 1.100520e+000 2.027634e+000 2.966448e+000 3.380310e+000 1.176525e+000 -1.526533e+000 -3.349767e+000 9.784060e-002 2.816847e-001 4.678000e-001 7.226145e-001 7.792823e-001 5.850103e-001 3.663877e-001 3.439029e-001 3.286791e-001 -7.618332e-002 -5.370715e-001 -6.995887e-001 1.988864e-003
<VARIANCE> 25
 2.284851e+001 2.142445e+001 1.586294e+001 1.060828e+001 9.297356e+000 8.475078e+000 7.091196e+000 8.990179e+000 1.207838e+001 8.950355e+000 8.229496e+000 1.036764e+001 1.434241e+000 8.253497e-001 8.687046e-001 1.344317e+000 1.045646e+000 8.414376e-001 6.270714e-001 1.005104e+000 1.084358e+000 7.888873e-001 9.643406e-001 8.357817e-001 4.434089e-001
<GCONST> 7.346644e+001
<STATE> 3
<MEAN> 25
 3.835159e+000 5.519558e+000 3.607258e+000 4.623944e+000 1.920265e+000 2.011316e+000 2.899380e+000 3.807742e+000 4.026298e+000 1.209786e+000 -2.106502e+000 -4.274317e+000 -8.375277e-002 -7.003635e-002 1.772755e-003 1.517291e-001 1.957186e-001 1.509251e-001 1.290237e-001 2.368413e-002 -1.076486e-002 4.315315e-002 5.316916e-002 1.859623e-002 -5.317827e-002
<VARIANCE> 25
 1.234512e+001 1.018978e+001 9.312881e+000 7.817092e+000 7.175336e+000 6.653677e+000 5.431116e+000 7.695749e+000 1.009433e+001 8.052018e+000 7.811704e+000 9.348962e+000 5.312158e-001 3.355201e-001 4.563714e-001 6.390609e-001 6.485412e-001 5.929021e-001 5.796944e-001 6.344844e-001 7.712182e-001 6.685557e-001 6.913639e-001 6.741556e-001 1.610990e-001
<GCONST> 6.319234e+001
<STATE> 4
<MEAN> 25
 -2.546776e+000 -5.587400e-001 -4.162251e-001 2.614051e+000 1.134596e+000 2.131810e+000 2.276415e+000 1.463875e+000 2.022044e+000 1.792304e+000 4.629257e-001 -9.657434e-001 -1.255690e-001 -2.179252e-001 -2.473905e-001 -2.698704e-001 -1.955789e-001 -1.185676e-001 -1.161859e-001 -1.139257e-001 -9.703277e-002 -7.118364e-003 1.402721e-001 2.161801e-001 -3.711273e-002
<VARIANCE> 25
 2.397132e+001 1.966438e+001 1.399930e+001 1.204714e+001 8.406346e+000 7.758048e+000 7.088891e+000 9.880049e+000 1.068988e+001 8.620351e+000 9.339577e+000 1.030212e+001 7.812298e-001 5.542942e-001 6.524798e-001 1.097033e+000 8.931296e-001 7.585286e-001 7.287868e-001 8.150700e-001 9.086730e-001 8.386585e-001 8.155279e-001 9.219911e-001 2.319452e-001
<GCONST> 7.064754e+001
<TRANSP> 5
 0.000000e+000 1.000000e+000 0.000000e+000 0.000000e+000 0.000000e+000
 0.000000e+000 6.119434e-001 3.880566e-001 0.000000e+000 0.000000e+000
 0.000000e+000 0.000000e+000 7.056634e-001 2.943366e-001 0.000000e+000
 0.000000e+000 0.000000e+000 0.000000e+000 8.931220e-001 1.068780e-001
 0.000000e+000 0.000000e+000 0.000000e+000 0.000000e+000 0.000000e+000
<ENDHMM>
~h "n"
<BEGINHMM>
<NUMSTATES> 5
<STATE> 2
<MEAN> 25
 6.375554e+000 3.916151e+000 2.644256e+000 4.618695e+000 4.811840e+000 1.882587e+000 -3.945377e+000 -6.523536e+000 -5.165223e+000 -2.551366e+000 -3.866049e-001 7.945765e-001 1.532722e-001 7.555177e-001 1.377106e+000 2.331548e+000 1.282662e+000 1.746499e-001 -8.928288e-001 -7.061656e-001 4.447684e-002 -5.689321e-001 -7.410656e-001 -7.434347e-001 -1.771080e-001
<VARIANCE> 25
 2.042641e+001 2.353653e+001 2.111245e+001 3.135757e+001 2.881496e+001 1.927886e+001 4.203526e+001 2.452450e+001 2.274233e+001 1.243103e+001 1.528671e+001 1.840291e+001 4.116345e+000 1.404887e+000 2.253563e+000 4.079060e+000 2.832370e+000 3.368207e+000 4.715277e+000 3.443435e+000 3.603988e+000 1.641641e+000 2.021708e+000 1.725003e+000 2.344166e+000
<GCONST> 9.605454e+001
<STATE> 3
<MEAN> 25
 5.859856e+000 6.296223e+000 4.566746e+000 7.190145e+000 5.829103e+000 3.056098e+000 -2.215035e+000 -5.050560e+000 -4.163706e+000 -2.390155e+000 1.700459e-001 1.335390e+000 -4.332162e-001 -1.180729e-002 1.468500e-001 3.120313e-001 1.561188e-001 3.702287e-001 5.526587e-001 3.819058e-001 2.949523e-001 3.027414e-001 2.880594e-001 8.020374e-002 -3.413963e-001
<VARIANCE> 25
 6.299616e+000 4.574347e+000 9.105250e+000 8.221958e+000 8.372311e+000 9.815873e+000 1.700940e+001 7.780299e+000 1.079273e+001 1.175089e+001 8.683629e+000 1.111571e+001 2.223472e-001 3.147537e-001 4.986317e-001 7.942443e-001 8.835057e-001 6.999434e-001 1.379705e+000 7.919805e-001 9.840314e-001 1.084074e+000 9.377669e-001 6.679739e-001 1.750317e-001
<GCONST> 6.620682e+001
<STATE> 4
<MEAN> 25
 8.930618e-002 2.415151e+000 3.190399e+000 6.261217e+000 4.435563e+000 3.826794e+000 1.259705e+000 -1.402429e+000 -1.024917e+000 4.151796e-001 1.738359e+000 1.403179e+000 -6.897961e-001 -6.659747e-001 -2.817166e-001 -3.825012e-001 -4.053219e-001 -1.557372e-001 1.710040e-001 3.516786e-001 3.272419e-001 2.106718e-001 -2.088910e-002 -1.433814e-001 -2.690219e-001
<VARIANCE> 25
 1.354565e+001 1.636821e+001 1.329065e+001 1.119240e+001 9.246327e+000 7.528806e+000 8.629251e+000 9.945444e+000 9.501109e+000 8.568115e+000 8.429977e+000 8.124440e+000 3.667822e-001 8.058240e-001 1.031963e+000 8.673217e-001 8.285782e-001 8.947307e-001 1.014632e+000 1.102998e+000 1.141122e+000 9.674897e-001 8.779344e-001 7.308223e-001 1.715203e-001
<GCONST> 7.004765e+001
<TRANSP> 5
 0.000000e+000 1.000000e+000 0.000000e+000 0.000000e+000 0.000000e+000
 0.000000e+000 5.260006e-001 4.739994e-001 0.000000e+000 0.000000e+000
 0.000000e+000 0.000000e+000 8.328237e-001 1.671763e-001 0.000000e+000
 0.000000e+000 0.000000e+000 0.000000e+000 8.721124e-001 1.278877e-001
 0.000000e+000 0.000000e+000 0.000000e+000 0.000000e+000 0.000000e+000
<ENDHMM>
~h "p"
<BEGINHMM>
<NUMSTATES> 5
<STATE> 2
<MEAN> 25
 -4.106266e+000 -2.626636e+000 -5.460682e-001 2.220900e+000 2.140324e-001 1.481888e+000 1.197204e+000 5.635589e-001 1.214312e+000 1.511354e+000 9.757985e-001 4.593746e-002 4.567023e-003 -1.805676e-001 -1.486284e-001 -1.039181e-001 -1.799784e-001 -3.925434e-001 -4.472833e-001 -5.784576e-001 -5.310553e-001 -3.043117e-001 -1.785136e-001 -1.200258e-001 6.671643e-002
<VARIANCE> 25
 9.799633e+000 1.323016e+001 1.756566e+001 8.411768e+000 8.368931e+000 1.347955e+001 1.431071e+001 1.550943e+001 1.299081e+001 1.455641e+001 1.063471e+001 9.588437e+000 1.999093e+000 2.150788e+000 2.618417e+000 1.381016e+000 1.417798e+000 1.470564e+000 1.561321e+000 1.804419e+000 1.569553e+000 1.574200e+000 1.097881e+000 1.219352e+000 9.391371e-001
<GCONST> 8.145034e+001
<STATE> 3
<MEAN> 25
 -3.338143e+000 -1.422056e+000 -4.225099e-001 1.686699e+000 -8.278810e-001 -1.097970e+000 -1.488502e+000 -1.800164e+000 -4.199369e-001 5.312296e-001 -1.107623e-001 -9.092976e-001 3.717917e-001 1.391623e-001 -1.923661e-001 -3.381401e-001 -2.867943e-001 -3.942537e-001 -4.002856e-001 -4.306735e-001 -3.391907e-001 -2.534232e-001 -1.452907e-001 -1.107250e-001 2.254920e-001
<VARIANCE> 25
 1.768171e+001 1.774323e+001 1.321148e+001 9.181974e+000 1.050834e+001 1.614378e+001 1.409990e+001 1.244575e+001 1.041117e+001 1.019692e+001 9.772901e+000 7.299617e+000 3.561626e+000 1.605901e+000 1.625077e+000 1.854172e+000 1.423388e+000 1.203962e+000 1.163114e+000 1.380282e+000 1.342668e+000 1.293193e+000 9.718104e-001 7.792151e-001 1.539303e+000
<GCONST> 8.029142e+001
<STATE> 4
<MEAN> 25
 -5.791013e+000 -3.539058e+000 -2.172821e+000 1.264923e+000 -4.070832e-001 -2.486979e-001 -5.724386e-001 -6.453410e-001 9.778086e-001 1.326092e+000 2.477197e-001 -6.005254e-001 7.502180e-002 -5.378196e-002 -1.215945e-001 -1.081444e-001 -1.055487e-002 4.720830e-002 6.311914e-002 4.139714e-002 4.642296e-003 2.191580e-002 6.678934e-002 7.060025e-002 6.720233e-002
<VARIANCE> 25
 6.174476e+000 4.682443e+000 4.237816e+000 4.939063e+000 5.872342e+000 6.991690e+000 8.118949e+000 9.211740e+000 9.807709e+000 8.793080e+000 7.147708e+000 6.428457e+000 9.604552e-001 4.176488e-001 3.659333e-001 5.493736e-001 6.287196e-001 6.939989e-001 6.976817e-001 8.634070e-001 9.831222e-001 8.930401e-001 7.388786e-001 7.002741e-001 3.737182e-001
<GCONST> 6.303945e+001
<TRANSP> 5
 0.000000e+000 1.000000e+000 0.000000e+000 0.000000e+000 0.000000e+000
 0.000000e+000 5.209471e-001 4.790529e-001 0.000000e+000 0.000000e+000
 0.000000e+000 0.000000e+000 2.846528e-001 7.153472e-001 0.000000e+000
 0.000000e+000 0.000000e+000 0.000000e+000 9.024476e-001 9.755245e-002
 0.000000e+000 0.000000e+000 0.000000e+000 0.000000e+000 0.000000e+000
<ENDHMM>
~h "r"
<BEGINHMM>
<NUMSTATES> 5
<STATE> 2
<MEAN> 25
 -1.272913e-001 -7.179390e-001 -2.588747e+000 -1.839306e+000 -4.430158e-001 1.559839e+000 1.228429e+000 -5.683824e-001 -1.969965e+000 -1.377387e+000 8.255700e-001 2.188956e+000 1.247563e+000 7.207683e-001 8.738925e-002 -1.424763e-001 1.867819e-001 1.694479e-001 -1.672142e-002 -1.272005e-001 -6.627414e-001 -6.775038e-001 -1.004858e-001 2.685335e-001 6.824476e-001
<VARIANCE> 25
 3.576672e+001 2.033843e+001 1.217269e+001 1.771969e+001 1.316141e+001 1.317962e+001 1.320134e+001 1.463033e+001 1.799626e+001 1.431030e+001 1.041731e+001 1.079295e+001 2.424674e+000 1.883700e+000 1.547092e+000 1.858334e+000 1.430919e+000 1.624402e+000 1.592983e+000 1.479792e+000 1.752945e+000 1.716136e+000 1.333095e+000 1.111661e+000 8.556283e-001
<GCONST> 8.421798e+001
<STATE> 3
<MEAN> 25
 8.643243e+000 5.042211e+000 -1.432180e+000 -2.339560e+000 -1.181648e+000 7.236255e-001 1.143998e+000 -6.457618e-001 -4.715391e+000 -5.314095e+000 -1.806348e+000 1.861403e+000 3.734919e-001 3.228459e-001 4.069504e-002 -7.403544e-002 -5.122722e-001 -3.396232e-001 1.656213e-001 3.191865e-001 1.286951e-001 -1.448101e-001 -4.127237e-001 -4.908819e-001 1.203834e-001
<VARIANCE> 25
 2.060035e+001 9.674949e+000 1.399482e+001 2.292068e+001 1.101177e+001 9.378894e+000 9.654053e+000 1.097334e+001 1.658833e+001 1.508828e+001 9.116891e+000 7.472255e+000 2.466270e+000 1.458807e+000 1.846996e+000 2.794901e+000 1.203023e+000 1.343804e+000 1.284722e+000 1.401106e+000 1.845825e+000 1.735381e+000 1.286002e+000 1.174253e+000 1.183660e+000
<GCONST> 8.179148e+001
<STATE> 4
<MEAN> 25
 9.771811e+000 8.696777e+000 1.710569e+000 -3.372275e+000 -6.019567e+000 -4.095619e+000 3.432027e-001 2.512469e+000 -1.849273e+000 -3.870560e+000 -4.098413e+000 -3.252277e+000 -1.321985e-001 8.663635e-001 1.169601e+000 2.896057e-001 -6.447157e-001 -1.148554e+000 -1.025128e+000 -2.199438e-001 7.275859e-001 1.212195e+000 3.794172e-001 -6.934410e-001 -2.475810e-001
<VARIANCE> 25
 8.679763e+000 8.253030e+000 1.250749e+001 9.859196e+000 1.369572e+001 2.045175e+001 1.064001e+001 1.147346e+001 1.038159e+001 1.486471e+001 8.570591e+000 1.145101e+001 9.821780e-001 5.282283e-001 1.016032e+000 1.486253e+000 9.903678e-001 1.152992e+000 1.576667e+000 2.172650e+000 1.054646e+000 1.317074e+000 1.499115e+000 1.374775e+000 4.634033e-001
<GCONST> 7.650100e+001
<TRANSP> 5
 0.000000e+000 1.000000e+000 0.000000e+000 0.000000e+000 0.000000e+000
 0.000000e+000 8.549330e-001 1.450670e-001 0.000000e+000 0.000000e+000
 0.000000e+000 0.000000e+000 8.043023e-001 1.956977e-001 0.000000e+000
 0.000000e+000 0.000000e+000 0.000000e+000 7.541437e-001 2.458563e-001
 0.000000e+000 0.000000e+000 0.000000e+000 0.000000e+000 0.000000e+000
<ENDHMM>
~h "s"
<BEGINHMM>
<NUMSTATES> 5
<STATE> 2
<MEAN> 25
 -4.281734e+000 -8.019446e+000 3.136096e+000 -5.929344e+000 -1.940058e+000 5.830202e-001 3.480413e+000 -2.106764e+000 -4.559287e+000 3.421462e+000 2.577677e+000 2.462951e+000 -1.377475e+000 -1.886705e+000 2.112866e+000 -1.395513e+000 2.846441e-001 -5.026616e-001 7.541252e-001 -3.602432e-001 -7.727585e-001 5.219947e-001 -4.762933e-003 -5.015700e-002 1.257698e+000
<VARIANCE> 25
 1.727104e+001 2.251189e+001 4.312637e+001 2.908485e+001 1.940732e+001 1.579875e+001 2.383449e+001 1.386110e+001 1.747009e+001 1.174920e+001 8.940278e+000 8.547788e+000 2.369168e+000 1.732008e+000 2.615824e+000 1.872611e+000 2.280282e+000 1.643665e+000 1.839995e+000 1.567689e+000 1.795619e+000 1.299906e+000 1.160501e+000 1.066830e+000 6.806760e-001
<GCONST> 8.628851e+001
<STATE> 3
<MEAN> 25
 -1.055344e+001 -1.397953e+001 1.203746e+001 -1.299699e+001 2.006259e+000 -4.362203e+000 8.727735e+000 -2.250757e+000 -6.128709e+000 3.418281e+000 2.433597e+000 1.162596e+000 -9.377253e-002 -1.380126e-001 1.175349e-001 -5.640144e-002 1.408758e-001 -6.955887e-002 6.224291e-002 2.223662e-002 -8.248059e-002 -6.527988e-002 1.096166e-001 -3.171287e-002 1.423029e-001
<VARIANCE> 25
 6.902226e+000 8.339133e+000 8.364903e+000 1.611813e+001 1.387218e+001 1.811358e+001 2.437582e+001 1.136543e+001 1.386153e+001 1.016607e+001 1.065380e+001 9.592997e+000 8.332539e-001 6.971945e-001 8.875551e-001 1.021110e+000 9.962054e-001 1.146430e+000 1.112149e+000 9.054926e-001 9.265182e-001 9.121010e-001 7.988137e-001 8.276042e-001 4.560443e-001
<GCONST> 7.376059e+001
<STATE> 4
<MEAN> 25
 -4.097176e+000 -9.459449e+000 6.335465e+000 -6.353384e+000 4.717761e-001 1.210475e-001 4.128027e+000 -1.916839e+000 -6.061534e+000 3.403727e+000 3.627707e+000 2.066999e+000 1.800872e+000 2.102210e+000 -1.632613e+000 2.041365e+000 -1.927082e-001 7.219179e-001 -1.467517e+000 -1.247347e-003 8.205782e-001 -3.807534e-001 -3.837708e-001 -4.497937e-001 -1.203291e+000
<VARIANCE> 25
 2.193463e+001 2.506474e+001 3.707694e+001 3.625089e+001 2.988122e+001 1.925233e+001 3.137395e+001 1.446681e+001 2.269006e+001 2.011104e+001 1.156026e+001 1.340230e+001 2.238525e+000 2.711263e+000 2.662637e+000 4.128267e+000 1.579050e+000 1.787592e+000 2.398684e+000 1.340653e+000 2.146178e+000 2.126834e+000 2.116820e+000 2.171927e+000 8.251146e-001
<GCONST> 9.235661e+001
<TRANSP> 5
 0.000000e+000 1.000000e+000 0.000000e+000 0.000000e+000 0.000000e+000
 0.000000e+000 8.212505e-001 1.787495e-001 0.000000e+000 0.000000e+000
 0.000000e+000 0.000000e+000 9.044185e-001 9.558152e-002 0.000000e+000
 0.000000e+000 0.000000e+000 0.000000e+000 8.016049e-001 1.983951e-001
 0.000000e+000 0.000000e+000 0.000000e+000 0.000000e+000 0.000000e+000
<ENDHMM>
~h "t"
<BEGINHMM>
<NUMSTATES> 5
<STATE> 2
<MEAN> 25
 -4.525217e+000 -2.172670e+000 -1.324377e+000 1.661829e+000 -4.112852e-002 7.601671e-001 1.061583e-001 -7.647035e-001 4.177550e-001 9.606465e-001 4.447713e-001 -8.682930e-002 -4.330816e-001 -3.348175e-001 -2.379614e-001 -1.679794e-002 2.747001e-003 -7.663351e-002 -4.675848e-002 6.909771e-002 2.322162e-001 1.661635e-001 1.031807e-002 -5.756344e-002 -2.454287e-001
<VARIANCE> 25
 4.138639e+000 4.429169e+000 6.164285e+000 7.564328e+000 7.821115e+000 7.423982e+000 7.459995e+000 8.467615e+000 8.781909e+000 8.593712e+000 8.567202e+000 8.401856e+000 4.180532e-001 3.004752e-001 3.896380e-001 5.951866e-001 5.578284e-001 6.382572e-001 6.610088e-001 8.131381e-001 9.109648e-001 8.451784e-001 7.865270e-001 7.902807e-001 1.874465e-001
<GCONST> 6.190446e+001
<STATE> 3
<MEAN> 25
 -6.404166e+000 -4.051952e+000 -2.746308e+000 8.348836e-001 -6.105172e-001 2.197983e-001 2.557961e-001 -4.431112e-002 1.334492e+000 1.682620e+000 9.038876e-001 1.293932e-001 2.602425e-001 -2.342045e-001 -1.239447e-001 -1.529670e-001 -8.391599e-002 -1.614992e-001 -9.933048e-002 -1.354796e-001 -2.373516e-001 -1.386232e-001 7.898752e-002 6.953996e-002 3.180992e-001
<VARIANCE> 25
 3.119511e+000 3.479133e+000 4.605748e+000 5.491639e+000 5.971415e+000 6.612149e+000 7.495424e+000 8.562072e+000 9.099761e+000 7.616036e+000 6.766358e+000 6.803655e+000 8.003852e-001 5.458072e-001 5.641216e-001 6.478108e-001 7.361662e-001 8.797525e-001 8.983831e-001 1.084280e+000 1.267771e+000 9.928972e-001 9.203440e-001 1.007890e+000 7.375515e-001
<GCONST> 6.502248e+001
<STATE> 4
<MEAN> 25
 2.636736e+000 -3.140962e+000 -1.218716e+000 2.701037e-001 -1.204989e+000 -1.031917e+000 1.364644e+000 -9.853907e-001 -5.353152e+000 -4.051120e+000 7.249903e-001 1.120817e+000 2.390150e+000 1.709031e+000 1.442334e+000 -3.738020e-001 -2.360957e-001 -4.276945e-001 -4.488799e-001 -5.235033e-002 -1.028463e+000 -1.355671e+000 -8.480266e-001 -5.460533e-001 1.593857e+000
<VARIANCE> 25
 4.490086e+001 5.625235e+001 2.499128e+001 1.711248e+001 1.463327e+001 2.053785e+001 2.410199e+001 1.906443e+001 3.916624e+001 3.685031e+001 2.106133e+001 1.820632e+001 3.013637e+000 1.062133e+001 4.251047e+000 1.942839e+000 2.200640e+000 2.330243e+000 4.029525e+000 2.891175e+000 6.131290e+000 3.170003e+000 3.570992e+000 3.777999e+000 3.888821e+000
<GCONST> 1.014938e+002
<TRANSP> 5
 0.000000e+000 1.000000e+000 0.000000e+000 0.000000e+000 0.000000e+000
 0.000000e+000 8.912136e-001 1.087864e-001 0.000000e+000 0.000000e+000
 0.000000e+000 0.000000e+000 8.137911e-001 1.862090e-001 0.000000e+000
 0.000000e+000 0.000000e+000 0.000000e+000 7.379958e-001 2.620042e-001
 0.000000e+000 0.000000e+000 0.000000e+000 0.000000e+000 0.000000e+000
<ENDHMM>
~h "aa"
<BEGINHMM>
<NUMSTATES> 5
<STATE> 2
<MEAN> 25
 1.010644e+001 3.493913e+000 -5.390243e+000 -8.392000e+000 -1.820712e+000 -5.627744e-001 1.664500e+000 2.387641e+000 -8.376459e-001 -2.185741e+000 -2.056228e-001 4.266974e+000 7.357553e-001 2.106207e-001 -6.987591e-001 -1.049959e+000 -2.332950e-001 2.487957e-001 4.429101e-001 4.785957e-001 2.566389e-002 -2.684646e-001 -8.617607e-002 3.912877e-001 4.288832e-001
<VARIANCE> 25
 3.664780e+001 1.687133e+001 2.296637e+001 3.493660e+001 1.282523e+001 1.455705e+001 1.260279e+001 1.201228e+001 1.503781e+001 1.235102e+001 1.478003e+001 1.676661e+001 1.562315e+000 1.080310e+000 1.536724e+000 2.829625e+000 1.770272e+000 1.379723e+000 1.615309e+000 1.292550e+000 1.426807e+000 1.429517e+000 1.180126e+000 1.391354e+000 8.614693e-001
<GCONST> 8.472971e+001
<STATE> 3
<MEAN> 25
 1.115917e+001 4.039135e+000 -6.427440e+000 -1.005440e+001 -1.891601e+000 7.521046e-001 3.097983e+000 3.409544e+000 -6.789966e-001 -1.946686e+000 -1.765650e-001 4.655580e+000 -2.186134e-001 2.006345e-001 2.892667e-001 1.725875e-001 -6.936435e-002 2.991052e-001 3.333394e-001 3.015443e-002 -1.294438e-001 1.634516e-001 1.018527e-001 -8.772428e-002 -2.592485e-001
<VARIANCE> 25
 2.534514e+001 1.282578e+001 1.586309e+001 2.243978e+001 9.651459e+000 1.178863e+001 8.981369e+000 1.005284e+001 1.662992e+001 1.209972e+001 9.921904e+000 1.051270e+001 7.982743e-001 7.109759e-001 1.150440e+000 1.865995e+000 1.099230e+000 1.020788e+000 9.430805e-001 1.026016e+000 1.090475e+000 1.147188e+000 9.954801e-001 9.932485e-001 4.995822e-001
<GCONST> 7.659319e+001
<STATE> 4
<MEAN> 25
 3.872615e+000 1.900376e+000 -3.543081e+000 -4.924055e+000 -2.207455e+000 1.198570e+000 3.041037e+000 2.494150e+000 4.190527e-001 -3.735366e-002 5.842156e-001 2.235306e+000 -9.920462e-001 -1.846841e-001 7.077527e-001 1.075255e+000 7.761095e-002 -1.103668e-001 -2.565863e-001 -3.484848e-001 9.583904e-002 2.609531e-001 1.661419e-002 -4.478280e-001 -6.928037e-001
<VARIANCE> 25
 5.142485e+001 2.063504e+001 1.353793e+001 2.993560e+001 1.198621e+001 1.154088e+001 1.343780e+001 1.634981e+001 2.064070e+001 1.321511e+001 9.665590e+000 1.278613e+001 1.201100e+000 9.153076e-001 1.624531e+000 2.524595e+000 1.019995e+000 1.165262e+000 1.227844e+000 1.229827e+000 1.226932e+000 1.311213e+000 9.101757e-001 1.006172e+000 5.844265e-001
<GCONST> 8.160738e+001
<TRANSP> 5
 0.000000e+000 1.000000e+000 0.000000e+000 0.000000e+000 0.000000e+000
 0.000000e+000 6.779437e-001 3.220563e-001 0.000000e+000 0.000000e+000
 0.000000e+000 0.000000e+000 5.974138e-001 4.025862e-001 0.000000e+000
 0.000000e+000 0.000000e+000 0.000000e+000 7.880126e-001 2.119874e-001
 0.000000e+000 0.000000e+000 0.000000e+000 0.000000e+000 0.000000e+000
<ENDHMM>
~h "ao"
<BEGINHMM>
<NUMSTATES> 5
<STATE> 2
<MEAN> 25
 8.724116e+000 8.521136e+000 3.128596e+000 -2.858243e+000 -4.649225e+000 -3.733197e+000 9.982491e-001 1.083039e+000 -4.005569e+000 -5.396591e+000 -5.007390e+000 -8.952633e-001 1.187259e-001 8.193859e-001 7.786863e-001 8.602379e-001 -6.344425e-001 -6.426734e-001 -6.976227e-001 1.815225e-001 7.923776e-001 1.064929e-002 -7.475199e-001 -1.205059e+000 -3.296736e-001
<VARIANCE> 25
 1.231601e+001 7.551311e+000 8.544402e+000 1.660056e+001 1.601021e+001 2.258639e+001 1.177944e+001 1.209431e+001 1.532329e+001 1.031539e+001 9.088443e+000 1.052290e+001 1.612009e+000 1.756791e+000 7.981305e-001 2.062598e+000 1.827015e+000 1.970521e+000 2.158115e+000 1.697050e+000 1.250495e+000 1.200768e+000 1.049859e+000 1.080980e+000 5.971349e-001
<GCONST> 8.004346e+001
<STATE> 3
<MEAN> 25
 8.394019e+000 9.536096e+000 5.396285e+000 -1.620540e-001 -5.632149e+000 -5.041003e+000 -1.501050e-001 1.753745e+000 -2.116276e+000 -4.773009e+000 -5.775085e+000 -3.636990e+000 1.387630e-001 2.152396e-001 1.420154e-001 1.933696e-002 -4.047148e-001 -5.315620e-001 -2.695340e-001 2.668513e-001 5.156286e-001 3.660415e-001 1.523385e-001 -9.896789e-002 9.890231e-003
<VARIANCE> 25
 1.062327e+001 5.447962e+000 9.323079e+000 1.836457e+001 2.570965e+001 2.192593e+001 8.450756e+000 1.967673e+001 1.481104e+001 9.800819e+000 7.532636e+000 9.577557e+000 4.783618e-001 4.285071e-001 5.835733e-001 1.009944e+000 1.301387e+000 1.275272e+000 9.199707e-001 1.143486e+000 1.053110e+000 1.000527e+000 6.049138e-001 7.871708e-001 2.668963e-001
<GCONST> 7.228600e+001
<STATE> 4
<MEAN> 25
 6.112189e+000 8.298497e+000 3.760134e+000 -1.132436e+000 -7.930789e+000 -7.791265e+000 -2.483640e+000 2.752452e+000 3.997038e+000 2.192347e+000 -1.376496e+000 -3.542661e+000 -5.583028e-001 -5.324442e-001 -3.398821e-001 8.515258e-002 3.734998e-001 4.782721e-001 1.772612e-001 -1.832024e-001 -3.946230e-002 9.161609e-002 1.455751e-001 1.136508e-001 -2.842047e-001
<VARIANCE> 25
 2.933269e+001 2.796069e+001 1.783022e+001 1.263601e+001 1.390631e+001 1.974848e+001 1.458275e+001 1.298617e+001 1.002000e+001 1.320010e+001 8.699347e+000 9.241693e+000 5.476528e-001 6.429481e-001 6.884854e-001 7.872784e-001 7.482971e-001 8.484041e-001 9.156938e-001 1.258089e+000 1.042343e+000 9.927925e-001 6.898813e-001 6.799677e-001 1.482308e-001
<GCONST> 7.360403e+001
<TRANSP> 5
 0.000000e+000 1.000000e+000 0.000000e+000 0.000000e+000 0.000000e+000
 0.000000e+000 6.896523e-001 3.103477e-001 0.000000e+000 0.000000e+000
 0.000000e+000 0.000000e+000 8.560047e-001 1.439953e-001 0.000000e+000
 0.000000e+000 0.000000e+000 0.000000e+000 9.301985e-001 6.980148e-002
 0.000000e+000 0.000000e+000 0.000000e+000 0.000000e+000 0.000000e+000
<ENDHMM>
~h "eh"
<BEGINHMM>
<NUMSTATES> 5
<STATE> 2
<MEAN> 25
 4.089921e+000 -1.631009e-001 -3.623299e+000 -2.877032e+000 -2.705726e+000 -8.685951e-001 -2.140898e-001 -2.603175e+000 -4.034257e+000 -2.041885e+000 6.635988e-001 1.966633e+000 3.853288e+000 1.872426e+000 -9.557462e-002 -1.460570e+000 -6.762092e-001 -5.240436e-001 -3.269813e-001 -5.595720e-001 -1.486027e+000 -1.011232e+000 2.458015e-001 1.129263e+000 2.362174e+000
<VARIANCE> 25
 5.940350e+001 2.301539e+001 1.022384e+001 1.486151e+001 1.349034e+001 1.220499e+001 9.023674e+000 2.269077e+001 2.960196e+001 1.790548e+001 8.657683e+000 1.505052e+001 2.792789e+000 2.489558e+000 1.313586e+000 1.689440e+000 2.467780e+000 1.374570e+000 1.741919e+000 4.667915e+000 4.486192e+000 2.096925e+000 1.821766e+000 1.830603e+000 1.388357e+000
<GCONST> 8.958689e+001
<STATE> 3
<MEAN> 25
 1.208806e+001 6.252908e+000 -3.066561e+000 -4.686443e+000 -2.848216e+000 -2.262368e+000 -2.423417e+000 -3.065721e+000 -3.937848e+000 -1.917115e+000 1.671038e+000 3.393541e+000 -1.840377e-005 7.462558e-001 9.759018e-001 1.415645e+000 9.718954e-001 -1.819231e-001 -1.386882e+000 -8.672213e-001 6.090497e-001 9.780484e-001 4.655040e-001 -3.239421e-001 -2.563173e-001
<VARIANCE> 25
 8.926729e+000 1.151655e+001 2.601678e+001 2.360305e+001 3.305144e+001 2.059669e+001 2.051612e+001 6.238316e+001 5.115962e+001 1.094001e+001 2.639941e+001 2.360419e+001 1.343693e+000 2.128118e+000 1.828792e+000 2.224338e+000 8.405381e-001 1.239199e+000 1.599370e+000 1.981002e+000 1.472667e+000 6.916840e-001 1.238439e+000 1.257630e+000 7.864206e-001
<GCONST> 8.730873e+001
<STATE> 4
<MEAN> 25
 6.415325e+000 2.065483e+000 -2.824335e+000 2.748360e+000 4.021163e+000 -1.145644e+000 -8.632164e+000 -8.473676e+000 -7.438537e-001 5.529462e+000 4.042369e+000 -1.048083e+000 -6.645719e-001 -1.308550e-001 3.426273e-001 3.207594e-001 2.651295e-002 4.108351e-002 1.264476e-001 2.740539e-001 3.303569e-001 8.892489e-002 -2.050418e-001 -2.408401e-001 -4.138974e-001
<VARIANCE> 25
 3.842320e+001 1.515649e+001 1.999969e+001 1.655220e+001 1.448901e+001 9.529420e+000 1.932596e+001 2.208050e+001 2.104993e+001 1.567913e+001 1.147121e+001 1.362088e+001 3.718152e-001 6.281900e-001 1.111693e+000 1.334423e+000 8.028345e-001 7.205647e-001 1.032693e+000 8.721705e-001 1.028712e+000 8.571208e-001 7.155523e-001 8.476595e-001 1.789374e-001
<GCONST> 7.589246e+001
<TRANSP> 5
 0.000000e+000 1.000000e+000 0.000000e+000 0.000000e+000 0.000000e+000
 0.000000e+000 6.837709e-001 3.162291e-001 0.000000e+000 0.000000e+000
 0.000000e+000 0.000000e+000 5.824032e-001 4.175968e-001 0.000000e+000
 0.000000e+000 0.000000e+000 0.000000e+000 8.733768e-001 1.266232e-001
 0.000000e+000 0.000000e+000 0.000000e+000 0.000000e+000 0.000000e+000
<ENDHMM>
~h "hh"
<BEGINHMM>
<NUMSTATES> 5
<STATE> 2
<MEAN> 25
 8.699475e+000 3.039197e+000 -6.195602e+000 -9.295870e+000 -2.758920e+000 1.939980e+000 5.178629e+000 5.773708e+000 1.001744e+000 -5.035490e+000 -2.854369e+000 4.492543e+000 3.048137e-001 -4.492768e-001 -8.954005e-001 -6.704171e-001 4.904929e-001 5.287941e-001 3.686628e-001 9.389724e-002 -2.854588e-001 -2.797398e-001 -7.111473e-002 5.492262e-001 3.529805e-001
<VARIANCE> 25
 2.951814e+001 1.883512e+001 1.484458e+001 1.449284e+001 1.138804e+001 1.049382e+001 9.453002e+000 1.239566e+001 8.636826e+000 1.533602e+001 9.509399e+000 1.218378e+001 6.403191e-001 7.370951e-001 1.197736e+000 1.784549e+000 1.051526e+000 1.002496e+000 1.062688e+000 7.396057e-001 1.071992e+000 1.323119e+000 7.908417e-001 6.967943e-001 2.936030e-001
<GCONST> 7.517333e+001
<STATE> 3
<MEAN> 25
 7.622740e+000 -6.926011e-001 -8.937860e+000 -7.833553e+000 4.759175e-001 5.253687e+000 6.180419e+000 5.490262e+000 8.294582e-001 -4.144001e+000 -7.606067e-001 6.617754e+000 -5.274741e-001 -5.205984e-001 -2.608014e-001 4.202498e-001 9.546011e-002 1.537286e-001 -1.392255e-001 -4.089511e-001 -1.913165e-001 2.012150e-001 3.827761e-001 -1.003025e-001 -3.566585e-001
<VARIANCE> 25
 1.651609e+001 1.322038e+001 1.295699e+001 1.481091e+001 1.254504e+001 1.555622e+001 1.032871e+001 1.329074e+001 9.693576e+000 1.027392e+001 9.360744e+000 1.246487e+001 5.753196e-001 1.042605e+000 1.021415e+000 9.128395e-001 8.875750e-001 1.006704e+000 8.190455e-001 9.276132e-001 1.014138e+000 7.514744e-001 7.677712e-001 7.533592e-001 2.259465e-001
<GCONST> 7.287125e+001
<STATE> 4
<MEAN> 25
 -2.598843e+000 -3.327522e+000 -4.992440e+000 -1.412432e+000 -1.068941e-001 2.540980e+000 2.353454e+000 2.665045e-001 -1.456055e-001 2.085732e-001 1.553916e+000 2.196490e+000 -4.054866e-001 -5.510069e-002 2.363996e-001 2.115031e-001 -3.781984e-002 -1.781236e-001 -1.654956e-001 -9.979030e-002 6.676553e-002 1.848947e-001 -1.823024e-002 -2.336062e-001 -2.518163e-001
<VARIANCE> 25
 2.847033e+001 7.326052e+000 1.358643e+001 1.468390e+001 7.054155e+000 1.379841e+001 1.228662e+001 1.191464e+001 1.285660e+001 1.269078e+001 9.222250e+000 1.396367e+001 3.641110e-001 2.933910e-001 6.636128e-001 7.015204e-001 5.973641e-001 7.994220e-001 8.005834e-001 9.838510e-001 1.107898e+000 9.806130e-001 8.227984e-001 8.304591e-001 1.419616e-001
<GCONST> 6.987128e+001
<TRANSP> 5
 0.000000e+000 1.000000e+000 0.000000e+000 0.000000e+000 0.000000e+000
 0.000000e+000 8.225052e-001 1.774947e-001 0.000000e+000 0.000000e+000
 0.000000e+000 0.000000e+000 7.859610e-001 2.140391e-001 0.000000e+000
 0.000000e+000 0.000000e+000 0.000000e+000 9.318970e-001 6.810310e-002
 0.000000e+000 0.000000e+000 0.000000e+000 0.000000e+000 0.000000e+000
<ENDHMM>
~h "ih"
<BEGINHMM>
<NUMSTATES> 5
<STATE> 2
<MEAN> 25
 2.344415e+000 -1.563531e-001 9.196465e+000 6.614473e+000 7.087249e+000 1.493956e+000 -7.137424e+000 -8.253881e-001 -1.261941e+000 -4.759904e+000 -2.707236e+000 -3.306101e+000 3.091500e-001 7.675595e-001 1.390365e+000 1.397710e+000 8.294581e-001 1.235377e-002 -8.024302e-001 3.549535e-001 8.005632e-002 -1.224614e+000 -9.305599e-001 -4.829619e-001 4.476149e-002
<VARIANCE> 25
 1.668265e+001 3.377545e+001 5.456896e+001 4.179990e+001 2.646547e+001 2.077452e+001 4.512744e+001 3.440973e+001 1.736322e+001 3.650596e+001 2.613842e+001 1.741122e+001 1.852928e+000 3.490466e+000 4.192893e+000 4.893842e+000 2.578201e+000 2.457922e+000 4.586535e+000 2.480066e+000 1.997965e+000 3.318333e+000 2.415157e+000 1.275269e+000 1.568708e+000
<GCONST> 9.887589e+001
<STATE> 3
<MEAN> 25
 4.602134e-001 1.580748e+000 9.272563e+000 8.921306e+000 6.821268e+000 2.244108e+000 -4.794016e+000 9.603084e-001 3.843216e-003 -5.546578e+000 -3.501954e+000 -3.789250e+000 -3.062890e-001 -1.383014e-001 -6.528819e-001 -2.463767e-001 -1.691297e-001 1.286423e-002 4.213900e-001 -7.872391e-002 9.204373e-002 3.792277e-001 1.479761e-001 7.353242e-002 -3.096949e-001
<VARIANCE> 25
 1.858865e+001 1.481254e+001 4.525833e+001 2.402873e+001 2.532525e+001 1.426641e+001 3.083565e+001 1.421220e+001 1.316228e+001 3.008529e+001 1.252965e+001 1.210796e+001 4.406071e-001 7.121480e-001 1.277887e+000 8.831471e-001 1.105299e+000 1.140556e+000 1.475570e+000 1.035231e+000 1.027060e+000 1.181948e+000 8.054886e-001 6.587390e-001 3.078550e-001
<GCONST> 7.953160e+001
<STATE> 4
<MEAN> 25
 1.264272e+000 5.226123e-001 4.500239e+000 4.800948e+000 6.858291e+000 1.311750e+000 -5.305804e+000 -2.839176e+000 -7.915665e-001 -2.015663e+000 -1.748185e+000 -1.803229e+000 2.185126e-001 -2.248641e-001 -1.088412e+000 -9.574005e-001 -4.580008e-001 -1.595350e-002 3.055261e-001 -4.636936e-001 -2.934301e-001 7.070714e-001 7.353860e-001 5.709184e-001 1.127140e-001
<VARIANCE> 25
 3.453112e+001 2.505149e+001 4.683703e+001 4.424847e+001 4.188689e+001 3.635353e+001 5.166657e+001 3.501600e+001 1.964857e+001 2.749586e+001 2.555737e+001 1.742615e+001 1.185027e+000 1.579694e+000 2.428010e+000 2.494683e+000 3.026169e+000 3.594269e+000 3.222163e+000 3.387573e+000 2.125166e+000 2.071689e+000 2.369548e+000 1.519349e+000 7.902903e-001
<GCONST> 9.729891e+001
<TRANSP> 5
 0.000000e+000 1.000000e+000 0.000000e+000 0.000000e+000 0.000000e+000
 0.000000e+000 7.843378e-001 2.156622e-001 0.000000e+000 0.000000e+000
 0.000000e+000 0.000000e+000 7.550182e-001 2.449819e-001 0.000000e+000
 0.000000e+000 0.000000e+000 0.000000e+000 7.835994e-001 2.164006e-001
 0.000000e+000 0.000000e+000 0.000000e+000 0.000000e+000 0.000000e+000
<ENDHMM>
~h "ng"
<BEGINHMM>
<NUMSTATES> 5
<STATE> 2
<MEAN> 25
 6.119456e+000 6.374371e+000 1.952170e+000 2.098161e+000 -1.204883e+000 -1.117154e+000 1.293941e-001 1.887595e+000 2.760216e+000 1.226264e+000 7.751346e-001 9.608147e-001 -4.765716e-001 -1.510271e-001 3.306271e-001 6.206616e-001 2.790961e-001 3.483617e-002 -8.547026e-002 -4.031716e-002 1.301612e-001 2.769507e-001 3.243586e-001 8.237908e-002 -2.961326e-001
<VARIANCE> 25
 8.432099e+000 5.606414e+000 5.642401e+000 7.395624e+000 8.728493e+000 9.527018e+000 7.974926e+000 6.215201e+000 7.352539e+000 5.449959e+000 5.987238e+000 5.213142e+000 2.335160e-001 2.769238e-001 4.805004e-001 7.137010e-001 4.417562e-001 7.978237e-001 9.312256e-001 6.388857e-001 6.485780e-001 7.157907e-001 6.211175e-001 4.958160e-001 8.673979e-002
<GCONST> 5.922872e+001
<STATE> 3
<MEAN> 25
 1.488575e+000 3.687491e+000 2.567396e+000 4.318044e+000 1.441081e+000 1.567817e+000 1.749676e+000 1.757529e+000 2.533535e+000 2.045571e+000 1.636668e+000 7.490019e-001 -6.633038e-001 -6.259695e-001 -3.878456e-001 -1.301810e-001 9.389972e-002 2.910949e-001 2.007251e-001 3.929449e-002 3.010529e-002 1.388781e-002 -1.712077e-002 -9.831677e-002 -3.170173e-001
<VARIANCE> 25
 1.424144e+001 1.019382e+001 6.076850e+000 6.267735e+000 9.661676e+000 1.174922e+001 1.029566e+001 1.011649e+001 9.570265e+000 7.803687e+000 8.293915e+000 6.982520e+000 4.814704e-001 5.066828e-001 5.946436e-001 6.810989e-001 6.220015e-001 6.507237e-001 7.481689e-001 9.448801e-001 8.868154e-001 1.075818e+000 8.605078e-001 7.429476e-001 1.258100e-001
<GCONST> 6.618149e+001
<STATE> 4
<MEAN> 25
 -5.336316e+000 -2.960432e+000 -2.014781e+000 1.549921e+000 -1.048190e-001 1.066477e+000 1.626275e+000 9.063128e-001 1.882961e+000 2.335619e+000 1.160039e+000 -4.987451e-002 -1.318956e-001 -1.979274e-001 -2.172207e-001 -2.138121e-001 -1.305961e-001 -4.214226e-002 1.214734e-002 -8.861998e-003 -8.059663e-002 -1.148043e-001 -5.649862e-002 2.754029e-002 -4.232072e-002
<VARIANCE> 25
 8.635426e+000 7.716877e+000 6.666792e+000 6.638056e+000 6.746327e+000 8.022865e+000 7.925647e+000 8.589720e+000 9.261100e+000 7.544463e+000 6.138678e+000 6.411779e+000 2.493042e-001 2.851867e-001 5.724481e-001 7.769282e-001 5.743831e-001 8.453749e-001 8.442863e-001 8.481230e-001 1.026905e+000 1.021118e+000 7.166424e-001 7.941272e-001 9.236163e-002
<GCONST> 6.265887e+001
<TRANSP> 5
 0.000000e+000 1.000000e+000 0.000000e+000 0.000000e+000 0.000000e+000
 0.000000e+000 8.336264e-001 1.663735e-001 0.000000e+000 0.000000e+000
 0.000000e+000 0.000000e+000 6.650458e-001 3.349542e-001 0.000000e+000
 0.000000e+000 0.000000e+000 0.000000e+000 8.973568e-001 1.026432e-001
 0.000000e+000 0.000000e+000 0.000000e+000 0.000000e+000 0.000000e+000
<ENDHMM>
~h "ny"
<BEGINHMM>
<NUMSTATES> 5
<STATE> 2
<MEAN> 25
 -4.706314e+000 -2.378489e+000 -4.648037e-001 2.708618e+000 9.879117e-001 1.048250e+000 2.322205e-001 -7.396889e-001 7.236688e-001 1.355338e+000 6.675503e-002 -1.212870e+000 1.050145e-001 3.247367e-001 3.843210e-001 3.350219e-001 1.798900e-001 -3.485516e-002 2.990857e-002 8.789948e-002 5.363144e-002 -1.126894e-001 -7.757760e-002 -2.115067e-001 3.302877e-002
<VARIANCE> 25
 1.892632e+001 2.021237e+001 1.881006e+001 1.173944e+001 7.793011e+000 1.058879e+001 9.514069e+000 9.019533e+000 1.083711e+001 8.058966e+000 7.269606e+000 8.076490e+000 7.826770e-001 9.651707e-001 1.285909e+000 1.001123e+000 7.925785e-001 1.310516e+000 1.107772e+000 9.057924e-001 1.151666e+000 1.015934e+000 8.652171e-001 1.005846e+000 3.683558e-001
<GCONST> 7.373156e+001
<STATE> 3
<MEAN> 25
 1.616943e+000 5.067933e+000 7.561728e+000 6.677337e+000 3.328705e+000 2.387816e-002 -6.003241e-001 -1.467036e-001 -7.930616e-002 -1.448896e+000 -4.265663e-002 -2.969043e+000 5.805028e-001 4.447679e-001 1.056293e+000 -2.925530e-001 2.130813e-001 -8.281914e-001 -8.959164e-001 6.215093e-003 -7.851814e-002 -4.900819e-001 3.662409e-001 -6.936914e-002 8.834544e-001
<VARIANCE> 25
 1.929479e+001 2.295289e+001 3.489595e+001 2.271905e+001 1.327481e+001 1.459714e+001 1.689902e+001 9.550926e+000 9.280995e+000 8.831212e+000 1.052300e+001 1.155979e+001 1.579524e+000 1.815946e+000 2.173720e+000 1.691097e+000 1.297611e+000 1.920448e+000 2.860716e+000 1.172290e+000 1.409945e+000 1.309447e+000 1.287184e+000 1.133342e+000 7.022935e-001
<GCONST> 8.338976e+001
<STATE> 4
<MEAN> 25
 6.236272e+000 1.563748e+000 4.879519e+000 -1.488531e+000 6.347746e+000 -2.810871e+000 -9.470447e+000 -3.052824e+000 3.084671e-001 -9.673647e-001 3.333667e+000 2.530863e+000 1.007776e+000 -3.247696e-001 -1.410211e+000 -1.605787e+000 -2.054627e-001 6.659657e-001 3.369812e-001 -1.689546e-001 -5.562868e-001 -9.170690e-002 1.661374e-001 1.227261e+000 6.784163e-001
<VARIANCE> 25
 2.155406e+001 1.674365e+001 5.230855e+001 4.071850e+001 1.657042e+001 3.239508e+001 4.334588e+001 2.524250e+001 1.958183e+001 1.744799e+001 1.400899e+001 2.636876e+001 1.258599e+000 1.930800e+000 3.578715e+000 1.781349e+000 3.001544e+000 3.721311e+000 9.813249e+000 4.299005e+000 2.771223e+000 2.464040e+000 1.596406e+000 1.484533e+000 1.041719e+000
<GCONST> 9.624887e+001
<TRANSP> 5
 0.000000e+000 1.000000e+000 0.000000e+000 0.000000e+000 0.000000e+000
 0.000000e+000 8.951228e-001 1.048772e-001 0.000000e+000 0.000000e+000
 0.000000e+000 0.000000e+000 7.592802e-001 2.407198e-001 0.000000e+000
 0.000000e+000 0.000000e+000 0.000000e+000 8.700835e-001 1.299165e-001
 0.000000e+000 0.000000e+000 0.000000e+000 0.000000e+000 0.000000e+000
<ENDHMM>
~h "uw"
<BEGINHMM>
<NUMSTATES> 5
<STATE> 2
<MEAN> 25
 9.386134e+000 1.118363e+001 7.707709e+000 1.321757e+000 -4.995482e+000 -6.345857e+000 -4.647514e+000 -1.459765e-001 -1.140114e+000 -2.444261e+000 -3.193208e+000 -4.495797e+000 4.299209e-001 1.387904e+000 1.300876e+000 5.117333e-001 -5.066515e-001 -1.024323e+000 -1.213108e+000 -2.874438e-001 5.869771e-001 4.163979e-001 -3.207647e-001 -6.502676e-001 -6.661469e-002
<VARIANCE> 25
 8.857731e+000 1.662897e+001 1.580943e+001 1.527700e+001 1.304732e+001 2.160672e+001 1.655155e+001 1.807382e+001 1.289159e+001 2.777340e+001 2.005665e+001 1.212632e+001 1.589592e+000 3.090997e+000 2.348817e+000 1.700598e+000 1.513708e+000 2.271465e+000 2.262396e+000 1.737302e+000 1.742554e+000 2.861197e+000 2.172452e+000 1.385050e+000 6.082345e-001
<GCONST> 8.693504e+001
<STATE> 3
<MEAN> 25
 7.389791e+000 1.138514e+001 9.029925e+000 3.867465e+000 -4.208077e+000 -6.799700e+000 -6.142577e+000 -2.110708e+000 5.366039e-001 5.939718e-001 -1.306172e+000 -3.822730e+000 -8.198655e-001 -7.747857e-001 -4.778309e-001 2.852723e-001 5.656778e-001 6.253650e-001 3.768033e-001 -8.528614e-002 2.162852e-001 4.005783e-001 4.034756e-001 3.737922e-001 -4.292965e-001
<VARIANCE> 25
 7.976332e+000 9.112619e+000 9.183373e+000 1.022779e+001 1.058195e+001 1.146647e+001 1.236987e+001 1.685521e+001 1.163583e+001 1.511066e+001 1.550917e+001 9.974512e+000 6.813011e-001 8.239426e-001 7.700205e-001 8.710628e-001 9.849863e-001 1.096391e+000 1.011618e+000 1.377653e+000 1.067619e+000 1.151759e+000 9.996900e-001 7.192712e-001 1.804094e-001
<GCONST> 7.272144e+001
<STATE> 4
<MEAN> 25
 -1.810750e+000 1.318650e+000 1.758738e+000 3.164389e+000 -4.486338e-001 -1.206968e+000 -1.904584e+000 -1.243011e+000 6.050792e-001 3.644880e-001 -1.195812e+000 -2.657759e+000 -7.464816e-001 -8.241237e-001 -5.732523e-001 -6.814652e-002 2.940307e-001 4.704497e-001 3.713476e-001 1.316353e-001 -3.247801e-003 -6.404609e-002 -5.563837e-002 1.309816e-002 -3.421814e-001
<VARIANCE> 25
 1.523908e+001 1.646297e+001 1.103145e+001 8.383752e+000 8.915263e+000 9.564173e+000 9.723948e+000 1.085743e+001 1.141503e+001 1.113940e+001 9.590419e+000 8.023515e+000 5.995373e-001 7.136681e-001 6.370006e-001 7.475451e-001 8.605972e-001 9.348128e-001 9.718661e-001 1.221965e+000 1.110825e+000 1.040931e+000 9.522166e-001 8.325207e-001 1.518392e-001
<GCONST> 7.068427e+001
<TRANSP> 5
 0.000000e+000 1.000000e+000 0.000000e+000 0.000000e+000 0.000000e+000
 0.000000e+000 7.160022e-001 2.839979e-001 0.000000e+000 0.000000e+000
 0.000000e+000 0.000000e+000 8.252163e-001 1.747837e-001 0.000000e+000
 0.000000e+000 0.000000e+000 0.000000e+000 8.762906e-001 1.237094e-001
 0.000000e+000 0.000000e+000 0.000000e+000 0.000000e+000 0.000000e+000
<ENDHMM>
~h "sil"
<BEGINHMM>
<NUMSTATES> 5
<STATE> 2
<MEAN> 25
 -2.868508e+000 -2.574404e+000 -2.630514e+000 -9.746107e-001 -9.914703e-002 4.220990e-001 2.335853e-001 -1.645730e-001 4.236526e-001 1.080390e+000 1.101788e+000 6.518102e-001 -1.004859e-001 -5.025267e-002 -2.080752e-002 2.213063e-002 3.750381e-002 4.476715e-002 3.036299e-002 3.643640e-002 6.503136e-002 4.451544e-002 -1.433339e-002 -2.008486e-002 -6.575833e-002
<VARIANCE> 25
 4.654633e+001 1.815648e+001 2.537245e+001 2.948736e+001 1.636222e+001 1.521250e+001 1.765509e+001 1.380311e+001 1.473431e+001 1.109031e+001 1.150645e+001 1.372402e+001 7.973403e-001 6.318709e-001 1.103902e+000 1.514027e+000 9.247457e-001 1.161684e+000 1.493234e+000 1.086937e+000 1.154870e+000 1.018197e+000 1.153749e+000 9.504432e-001 5.189627e-001
<GCONST> 8.045766e+001
<STATE> 3
<MEAN> 25
 -7.361331e+000 -4.841558e+000 -3.045431e+000 9.461088e-001 -5.838147e-001 -2.879563e-002 1.314356e-001 4.952146e-002 1.719207e+000 2.102458e+000 8.035976e-001 -2.315510e-001 -1.006123e-002 -1.088782e-002 -1.041773e-002 -9.664826e-003 -9.492856e-003 -6.198612e-003 -4.270544e-004 2.643292e-003 1.132688e-003 -6.838294e-004 -4.435516e-006 5.952888e-004 -4.354001e-003
<VARIANCE> 25
 1.024527e+000 1.468575e+000 2.317331e+000 3.746646e+000 4.431001e+000 5.078021e+000 5.757662e+000 6.109201e+000 6.456172e+000 6.413467e+000 6.292748e+000 5.881208e+000 5.761471e-002 1.155644e-001 1.993122e-001 3.056144e-001 4.071624e-001 5.073583e-001 6.119833e-001 6.548923e-001 6.909482e-001 6.871756e-001 6.851405e-001 6.199609e-001 1.751071e-002
<GCONST> 4.657754e+001
<STATE> 4
<MEAN> 25
 -7.004381e+000 -4.573659e+000 -2.956617e+000 6.825758e-001 -7.457061e-001 9.437975e-002 2.707040e-001 -6.821848e-002 1.592038e+000 1.953239e+000 8.840765e-001 -3.214012e-001 1.056770e-001 6.543624e-002 6.652608e-003 -1.118234e-001 -1.769039e-002 1.186063e-001 1.184149e-001 1.137227e-001 -1.365566e-002 -7.029437e-002 9.517366e-003 -1.488640e-002 7.826663e-002
<VARIANCE> 25
 2.408039e+000 2.577103e+000 4.427031e+000 6.652593e+000 6.885681e+000 7.531196e+000 8.891770e+000 9.873669e+000 9.240011e+000 8.752244e+000 7.433541e+000 7.779709e+000 2.464871e-001 2.512796e-001 4.838935e-001 5.689555e-001 6.572747e-001 7.915373e-001 9.513405e-001 9.642537e-001 1.027128e+000 9.928073e-001 8.600355e-001 8.953260e-001 9.550037e-002
<GCONST> 6.062739e+001
<TRANSP> 5
 0.000000e+000 1.000000e+000 0.000000e+000 0.000000e+000 0.000000e+000
 0.000000e+000 9.101885e-001 8.981149e-002 0.000000e+000 0.000000e+000
 0.000000e+000 0.000000e+000 9.850863e-001 1.491371e-002 0.000000e+000
 0.000000e+000 0.000000e+000 0.000000e+000 7.774853e-001 2.225147e-001
 0.000000e+000 0.000000e+000 0.000000e+000 0.000000e+000 0.000000e+000
<ENDHMM>
~h "sp"
<BEGINHMM>
<NUMSTATES> 3
<STATE> 2
<MEAN> 25
 -7.361331e+000 -4.841558e+000 -3.045431e+000 9.461088e-001 -5.838147e-001 -2.879563e-002 1.314356e-001 4.952146e-002 1.719207e+000 2.102458e+000 8.035976e-001 -2.315510e-001 -1.006123e-002 -1.088782e-002 -1.041773e-002 -9.664826e-003 -9.492856e-003 -6.198612e-003 -4.270544e-004 2.643292e-003 1.132688e-003 -6.838294e-004 -4.435516e-006 5.952888e-004 -4.354001e-003
<VARIANCE> 25
 1.024527e+000 1.468575e+000 2.317331e+000 3.746646e+000 4.431001e+000 5.078021e+000 5.757662e+000 6.109201e+000 6.456172e+000 6.413467e+000 6.292748e+000 5.881208e+000 5.761471e-002 1.155644e-001 1.993122e-001 3.056144e-001 4.071624e-001 5.073583e-001 6.119833e-001 6.548923e-001 6.909482e-001 6.871756e-001 6.851405e-001 6.199609e-001 1.751071e-002
<GCONST> 4.657754e+001
<TRANSP> 3
 0.0 1.0 0.0
 0.0 0.9 0.1
 0.0 0.0 0.0
<ENDHMM>
