~o
<STREAMINFO> 1 25
<VECSIZE> 25<NULLD><MFCC_D_N_Z_0><DIAGC>
~s "silst"
<MEAN> 25
 -5.639432e+000 -3.027363e+000 -2.427425e+000 5.967414e-001 -1.253210e+000 2.238538e-001 -4.470485e-001 -7.905009e-001 7.849037e-001 1.930750e+000 1.260466e+000 2.293720e-001 -1.136297e-002 -6.849675e-003 9.915330e-003 3.815520e-003 8.282050e-003 1.256977e-002 7.207961e-003 1.384527e-002 8.631326e-003 6.231628e-003 8.718640e-003 -7.019224e-004 -2.792153e-003
<VARIANCE> 25
 2.834819e+000 2.148183e+000 5.296105e+000 7.812581e+000 6.662915e+000 5.932318e+000 6.810297e+000 7.034119e+000 7.508931e+000 7.231812e+000 6.913710e+000 6.625890e+000 1.306265e-001 1.407807e-001 3.092768e-001 4.496589e-001 4.472008e-001 5.260893e-001 5.970502e-001 6.496045e-001 7.214919e-001 7.084450e-001 6.785892e-001 6.524922e-001 5.617905e-002
<GCONST> 5.411354e+001
~h "a"
<BEGINHMM>
<NUMSTATES> 5
<STATE> 2
<MEAN> 25
 7.814621e+000 1.343868e+000 -5.446498e+000 -6.750027e+000 1.098815e-001 -1.901574e+000 2.611270e+000 4.072475e+000 8.161226e-001 -2.111830e+000 -1.595820e+000 3.698124e+000 5.212880e-001 5.807248e-002 -5.131281e-001 -5.406218e-001 2.128979e-001 6.168716e-002 2.626833e-001 2.982942e-001 4.063674e-002 7.928164e-002 -7.584958e-005 2.244470e-001 3.825274e-001
<VARIANCE> 25
 2.942557e+001 1.506676e+001 1.752943e+001 2.126644e+001 1.545056e+001 2.037247e+001 1.262826e+001 1.582725e+001 1.420974e+001 1.643962e+001 1.511125e+001 1.573577e+001 1.469329e+000 1.082843e+000 1.397426e+000 1.956387e+000 1.158695e+000 1.365488e+000 1.309902e+000 1.119739e+000 1.255175e+000 1.434209e+000 1.059103e+000 1.244184e+000 1.023729e+000
<GCONST> 8.313602e+001
<STATE> 3
<MEAN> 25
 8.367113e+000 1.856827e+000 -5.804382e+000 -7.461913e+000 8.229662e-001 -1.192752e+000 3.193913e+000 4.283678e+000 6.589718e-001 -8.251734e-001 -9.907004e-001 3.638740e+000 -1.631133e-001 2.368434e-001 3.234968e-001 2.285521e-001 6.701723e-002 2.802385e-001 9.817503e-002 -1.938003e-001 -2.255448e-001 3.724222e-001 2.336199e-001 -1.576023e-001 -2.279808e-001
<VARIANCE> 25
 2.738873e+001 1.339666e+001 1.349445e+001 1.819962e+001 1.503304e+001 1.976972e+001 1.050057e+001 1.452507e+001 1.537139e+001 1.328696e+001 1.219398e+001 1.422248e+001 7.299047e-001 8.096127e-001 9.344557e-001 1.129284e+000 9.669362e-001 1.111521e+000 8.128095e-001 9.602025e-001 1.204544e+000 1.143101e+000 1.042673e+000 9.035148e-001 5.316851e-001
<GCONST> 7.753297e+001
<STATE> 4
<MEAN> 25
 4.793621e+000 1.998569e+000 -2.596419e+000 -3.565781e+000 5.414511e-001 8.870721e-001 2.488297e+000 2.076299e+000 -1.560778e-001 4.675343e-002 3.831176e-001 2.370549e+000 -7.650387e-001 3.424152e-002 6.942165e-001 9.334050e-001 -1.097959e-001 2.830296e-001 -2.302337e-001 -5.392236e-001 -9.057396e-002 2.966928e-001 1.874638e-001 -4.357728e-001 -6.979139e-001
<VARIANCE> 25
 3.530406e+001 1.426677e+001 1.732393e+001 2.844031e+001 1.558643e+001 2.045637e+001 1.796557e+001 2.033256e+001 1.935946e+001 1.245502e+001 1.217546e+001 1.587299e+001 1.239758e+000 1.106237e+000 1.803753e+000 2.320940e+000 1.195615e+000 1.676666e+000 1.345227e+000 1.473885e+000 1.446062e+000 1.251303e+000 1.129380e+000 1.171219e+000 8.395807e-001
<GCONST> 8.460902e+001
<TRANSP> 5
 0.000000e+000 1.000000e+000 0.000000e+000 0.000000e+000 0.000000e+000
 0.000000e+000 7.175717e-001 2.824283e-001 0.000000e+000 0.000000e+000
 0.000000e+000 0.000000e+000 6.423501e-001 3.576499e-001 0.000000e+000
 0.000000e+000 0.000000e+000 0.000000e+000 7.917767e-001 2.082233e-001
 0.000000e+000 0.000000e+000 0.000000e+000 0.000000e+000 0.000000e+000
<ENDHMM>
~h "b"
<BEGINHMM>
<NUMSTATES> 5
<STATE> 2
<MEAN> 25
 -1.706147e+000 2.496058e-003 -3.489892e-001 1.237109e+000 -6.135561e-001 8.529281e-001 -5.112339e-001 -8.510535e-001 9.270571e-001 1.724787e+000 1.229366e+000 -3.345159e-002 -8.874945e-002 3.291791e-002 1.114641e-001 2.788959e-001 3.501505e-001 3.797005e-001 2.610362e-001 2.632773e-001 1.906927e-001 8.676764e-002 1.187862e-002 1.283964e-002 -8.658430e-002
<VARIANCE> 25
 8.360027e+000 2.005912e+001 2.706140e+001 2.745580e+001 1.527750e+001 1.194067e+001 1.178959e+001 9.607396e+000 9.674992e+000 1.126757e+001 7.685540e+000 1.014362e+001 5.674396e-001 8.595488e-001 1.714494e+000 1.290257e+000 1.099676e+000 9.777812e-001 1.071995e+000 8.185738e-001 9.532233e-001 1.233997e+000 7.265731e-001 8.627908e-001 1.449528e-001
<GCONST> 7.444537e+001
<STATE> 3
<MEAN> 25
 -3.401108e+000 -2.208518e+000 -2.727993e+000 -5.362570e-001 -1.603521e+000 7.499912e-001 5.731117e-003 -8.483561e-001 3.714085e-001 1.566375e+000 9.592921e-001 2.085115e-001 -2.614152e-002 1.856553e-002 5.009458e-002 1.311650e-001 1.651513e-001 1.436712e-001 9.536885e-002 8.121157e-002 4.958627e-002 3.018318e-002 -6.909193e-003 -2.526758e-002 -2.797690e-002
<VARIANCE> 25
 4.129505e+000 6.155826e+000 9.425577e+000 1.297151e+001 1.007132e+001 8.985983e+000 6.864724e+000 8.595423e+000 9.208419e+000 8.017381e+000 6.261818e+000 6.756913e+000 2.020137e-001 3.610934e-001 5.651177e-001 7.449721e-001 6.908152e-001 7.563367e-001 6.937934e-001 7.907999e-001 8.687219e-001 7.297581e-001 5.936999e-001 6.901795e-001 6.424506e-002
<GCONST> 6.179279e+001
<STATE> 4
<MEAN> 25
 -2.180861e+000 3.748615e-001 1.013868e+000 3.767441e+000 2.422410e+000 3.718721e+000 1.834037e+000 3.563899e-001 1.078469e+000 2.028379e+000 9.723550e-001 -5.014403e-001 4.221381e-001 4.927737e-001 5.280203e-001 4.273992e-001 3.505330e-001 1.875731e-001 1.109632e-001 4.197103e-002 -2.478589e-002 -5.659101e-002 -7.742860e-002 -8.070095e-002 2.116905e-001
<VARIANCE> 25
 1.198539e+001 1.877024e+001 2.188062e+001 2.328148e+001 1.771511e+001 1.592791e+001 1.197226e+001 9.179348e+000 8.064209e+000 6.461859e+000 6.094086e+000 6.790442e+000 4.755086e-001 8.926107e-001 1.209442e+000 1.444022e+000 1.331390e+000 1.315098e+000 1.252023e+000 9.793882e-001 8.150563e-001 7.223079e-001 6.525476e-001 6.956813e-001 1.715375e-001
<GCONST> 7.299657e+001
<TRANSP> 5
 0.000000e+000 1.000000e+000 0.000000e+000 0.000000e+000 0.000000e+000
 0.000000e+000 5.578060e-001 4.421940e-001 0.000000e+000 0.000000e+000
 0.000000e+000 0.000000e+000 8.722491e-001 1.277509e-001 0.000000e+000
 0.000000e+000 0.000000e+000 0.000000e+000 9.019080e-001 9.809201e-002
 0.000000e+000 0.000000e+000 0.000000e+000 0.000000e+000 0.000000e+000
<ENDHMM>
~h "c"
<BEGINHMM>
<NUMSTATES> 5
<STATE> 2
<MEAN> 25
 -3.206419e+000 -6.157787e+000 -3.759557e+000 -4.696412e-001 -2.894773e+000 -3.246881e+000 2.841522e+000 1.062340e-001 -1.026322e+000 -2.129224e+000 4.055212e+000 1.578218e-001 3.473482e-001 -2.646318e+000 4.230307e-001 -1.396856e+000 -9.488039e-001 -2.069290e+000 9.298351e-001 -4.169905e-001 -1.347665e+000 -2.523527e+000 1.029372e+000 -4.538360e-001 2.985740e+000
<VARIANCE> 25
 5.334425e+000 1.971210e+001 1.396036e+001 1.262669e+001 1.061625e+001 1.784170e+001 1.685489e+001 4.206305e+000 1.218393e+001 3.085630e+001 8.537511e+000 7.529739e+000 5.913835e-001 9.553791e-001 3.009788e+000 9.580385e-001 1.047555e+000 8.594132e-001 8.336400e-001 8.504431e-001 7.008104e-001 1.037046e+000 3.296678e-001 1.075929e+000 6.327692e-001
<GCONST> 7.359811e+001
<STATE> 3
<MEAN> 25
 -3.465668e+000 -1.483351e+001 2.847358e+000 -5.028982e+000 -2.037493e+000 -8.824551e+000 3.428282e+000 -4.560450e-001 -3.515141e+000 -6.347277e+000 6.172113e+000 1.110155e+000 6.210526e-001 -6.143401e-001 1.243705e+000 -2.296513e-001 1.148816e+000 -3.551980e-001 -5.979553e-001 2.741581e-002 -4.758882e-003 3.454110e-001 -1.373201e-001 8.089970e-001 1.177126e+000
<VARIANCE> 25
 1.803377e+001 2.246777e+001 2.150284e+001 1.155924e+001 1.651197e+001 1.711306e+001 2.216916e+001 9.950959e+000 9.133560e+000 1.366819e+001 5.191057e+000 9.387935e+000 2.204974e+000 6.486054e+000 4.010003e+000 1.947512e+000 2.361420e+000 3.213717e+000 1.624865e+000 1.108713e+000 1.603284e+000 2.380199e+000 7.039744e-001 7.160663e-001 2.314276e+000
<GCONST> 8.604498e+001
<STATE> 4
<MEAN> 25
 4.329173e+000 -1.060682e+000 9.981340e+000 6.312215e+000 5.365860e+000 -2.996048e+000 -6.005762e+000 1.573295e+000 -5.328068e+000 -9.634652e+000 -1.328492e+000 -2.848827e+000 9.504819e-001 1.830512e+000 6.444610e-002 8.330675e-001 4.809072e-001 7.055396e-001 -7.409099e-001 -2.592761e-002 1.853563e-002 -4.916915e-002 -7.321776e-001 -2.834883e-001 -5.838741e-001
<VARIANCE> 25
 1.665617e+001 7.192921e+001 2.990391e+001 3.781355e+001 1.244297e+001 1.319534e+001 3.613858e+001 9.818393e+000 7.294717e+000 2.678730e+001 2.098884e+001 2.773405e+001 2.541818e+000 4.537187e+000 1.653246e+000 3.184648e+000 1.511640e+000 1.515422e+000 2.963458e+000 7.830666e-001 8.397907e-001 1.743346e+000 8.034912e-001 1.700889e+000 4.426152e-001
<GCONST> 8.833591e+001
<TRANSP> 5
 0.000000e+000 1.000000e+000 0.000000e+000 0.000000e+000 0.000000e+000
 0.000000e+000 7.055321e-001 2.944679e-001 0.000000e+000 0.000000e+000
 0.000000e+000 0.000000e+000 7.520994e-001 2.479006e-001 0.000000e+000
 0.000000e+000 0.000000e+000 0.000000e+000 8.831138e-001 1.168862e-001
 0.000000e+000 0.000000e+000 0.000000e+000 0.000000e+000 0.000000e+000
<ENDHMM>
~h "d"
<BEGINHMM>
<NUMSTATES> 5
<STATE> 2
<MEAN> 25
 2.888219e+000 2.497506e+000 1.055908e+001 9.578399e+000 8.687387e+000 2.793493e+000 -4.976700e+000 1.553110e+000 3.350010e+000 -3.662493e+000 -3.640954e+000 -4.183459e+000 1.641236e-001 -1.612721e-001 2.760893e-002 -1.123863e-001 1.464878e-001 -3.402698e-001 -5.959938e-001 -1.154652e-001 5.477417e-002 -1.756439e-001 8.348978e-002 1.055035e-001 2.922519e-001
<VARIANCE> 25
 6.369723e+000 1.704225e+001 1.927501e+001 1.293762e+001 1.790260e+001 3.060984e+001 8.041611e+001 1.551730e+001 2.404717e+001 3.373653e+001 1.557833e+001 1.267005e+001 5.602782e-001 2.094693e+000 2.201071e+000 1.778111e+000 2.030167e+000 2.773117e+000 7.156807e+000 2.395930e+000 2.416215e+000 4.139266e+000 2.201255e+000 1.537765e+000 1.125896e+000
<GCONST> 9.130745e+001
<STATE> 3
<MEAN> 25
 6.064421e+000 3.845899e+000 6.159623e+000 6.162694e+000 9.582245e+000 1.167098e+000 -9.408246e+000 -6.144640e+000 -4.911259e-001 -1.046465e-001 1.471904e+000 -7.859262e-001 -2.026236e-001 1.284467e+000 -3.969828e-001 8.411947e-002 -9.260285e-001 2.020992e+000 2.978920e+000 -3.631229e-002 -8.870561e-001 7.317515e-001 -1.269098e-001 -5.035431e-002 -1.253081e+000
<VARIANCE> 25
 5.511824e+000 1.269829e+001 6.561043e+000 1.618716e+001 1.332033e+001 2.982650e+001 4.516385e+001 1.517704e+001 1.265259e+001 7.055224e+000 1.389716e+001 1.341466e+001 3.942187e-001 7.920005e-001 7.656205e-001 2.247661e+000 8.353742e-001 3.100963e+000 3.351038e+000 2.881656e+000 2.220010e+000 1.422042e+000 2.218391e+000 1.271456e+000 5.890173e-001
<GCONST> 8.135059e+001
<STATE> 4
<MEAN> 25
 3.566170e+000 5.463917e+000 5.106299e+000 8.698339e+000 7.263263e+000 5.584339e+000 9.929827e-001 -9.301669e-001 1.305881e-001 9.529776e-001 2.941348e-001 -9.175482e-001 -4.513209e-001 -3.167155e-001 -2.661661e-001 -2.345725e-001 -3.118373e-001 -1.321539e-003 5.040087e-001 4.902980e-001 2.402377e-001 1.633179e-001 1.455895e-001 1.470107e-001 -2.751841e-001
<VARIANCE> 25
 5.297162e+000 3.854348e+000 4.190428e+000 4.723413e+000 4.700990e+000 6.437417e+000 1.253694e+001 1.122321e+001 8.230090e+000 7.370859e+000 6.650986e+000 5.025894e+000 1.754864e-001 3.689203e-001 5.287914e-001 5.238060e-001 6.099351e-001 7.226852e-001 7.952881e-001 7.956825e-001 7.548646e-001 6.815956e-001 6.908503e-001 4.949216e-001 9.488887e-002
<GCONST> 5.852917e+001
<TRANSP> 5
 0.000000e+000 1.000000e+000 0.000000e+000 0.000000e+000 0.000000e+000
 0.000000e+000 9.536693e-001 4.633068e-002 0.000000e+000 0.000000e+000
 0.000000e+000 0.000000e+000 7.374505e-001 2.625495e-001 0.000000e+000
 0.000000e+000 0.000000e+000 0.000000e+000 8.805234e-001 1.194766e-001
 0.000000e+000 0.000000e+000 0.000000e+000 0.000000e+000 0.000000e+000
<ENDHMM>
~h "e"
<BEGINHMM>
<NUMSTATES> 5
<STATE> 2
<MEAN> 25
 1.162343e+000 -1.298831e+000 -6.870039e-001 -4.356934e-001 7.563688e-001 3.832367e-001 -2.909759e-001 -2.535032e+000 -2.426978e+000 -1.883598e+000 3.928574e-001 1.369296e+000 2.243177e+000 9.138117e-001 2.734993e-001 -2.164636e-001 6.225235e-001 -4.478331e-001 -2.448562e-001 -1.507452e-001 -5.320835e-001 -4.681353e-001 -4.392204e-003 3.250751e-001 1.630485e+000
<VARIANCE> 25
 3.830079e+001 2.091329e+001 2.561115e+001 2.917315e+001 2.722859e+001 2.138473e+001 1.761579e+001 2.448886e+001 2.714716e+001 1.889216e+001 1.527295e+001 1.761787e+001 3.131743e+000 2.437504e+000 3.130690e+000 4.355453e+000 3.836356e+000 2.145113e+000 2.612202e+000 3.737000e+000 3.430782e+000 2.179911e+000 2.090509e+000 2.174403e+000 2.034945e+000
<GCONST> 9.678617e+001
<STATE> 3
<MEAN> 25
 8.119606e+000 2.156789e+000 -4.548294e-001 -1.030024e-001 2.959193e+000 -2.710055e+000 -3.115433e+000 -2.132852e+000 -2.348599e+000 -1.116218e+000 6.480678e-001 4.380626e-001 4.156048e-001 4.620956e-001 4.922650e-001 9.151930e-001 8.634833e-001 -1.805636e-001 -9.204343e-001 -4.824436e-001 2.142251e-001 7.591312e-001 1.481315e-001 -4.133860e-001 1.514296e-001
<VARIANCE> 25
 2.723560e+001 2.473373e+001 3.698889e+001 3.570050e+001 4.716782e+001 2.739179e+001 4.266873e+001 4.177032e+001 4.166231e+001 2.361725e+001 2.214366e+001 2.238483e+001 2.429993e+000 2.322464e+000 2.041787e+000 2.842865e+000 2.003618e+000 2.652126e+000 2.584449e+000 2.241405e+000 1.686440e+000 2.342960e+000 1.629685e+000 1.190545e+000 1.520397e+000
<GCONST> 9.676441e+001
<STATE> 4
<MEAN> 25
 6.457333e+000 2.388701e+000 5.670165e-001 4.669568e+000 6.122790e+000 -1.795740e+000 -7.082433e+000 -5.583222e+000 -2.191503e-001 4.520887e+000 1.277352e+000 -2.414420e+000 -5.434186e-001 -1.407827e-002 1.802040e-001 1.586794e-001 -1.654901e-001 3.625924e-001 2.759367e-001 2.502316e-001 3.190927e-001 1.431764e-001 -3.517616e-002 -1.519154e-001 -4.681306e-001
<VARIANCE> 25
 1.523408e+001 1.317894e+001 2.739603e+001 1.871614e+001 2.037521e+001 1.994238e+001 2.538571e+001 2.598446e+001 2.233913e+001 3.285393e+001 1.796790e+001 1.624365e+001 5.841254e-001 8.249297e-001 1.367357e+000 1.586319e+000 1.100158e+000 1.272348e+000 1.681841e+000 1.141050e+000 1.157345e+000 1.378450e+000 1.134876e+000 1.224018e+000 3.394138e-001
<GCONST> 8.300999e+001
<TRANSP> 5
 0.000000e+000 1.000000e+000 0.000000e+000 0.000000e+000 0.000000e+000
 0.000000e+000 7.108297e-001 2.891703e-001 0.000000e+000 0.000000e+000
 0.000000e+000 0.000000e+000 5.819048e-001 4.180952e-001 0.000000e+000
 0.000000e+000 0.000000e+000 0.000000e+000 8.550160e-001 1.449840e-001
 0.000000e+000 0.000000e+000 0.000000e+000 0.000000e+000 0.000000e+000
<ENDHMM>
~h "f"
<BEGINHMM>
<NUMSTATES> 5
<STATE> 2
<MEAN> 25
 -2.442834e+000 -5.459059e+000 3.739446e+000 2.762673e+000 6.728535e+000 5.072746e-001 -2.699924e+000 -4.825108e+000 1.158369e+000 -3.438507e+000 -1.298098e+000 -8.601975e-001 2.971999e-001 1.261345e-001 3.122164e-001 5.888777e-001 4.102161e-001 -1.821578e-002 -4.105184e-001 8.678263e-002 8.436775e-002 -2.966408e-001 -2.956485e-001 -2.160203e-001 1.492190e-001
<VARIANCE> 25
 2.473517e+001 2.819103e+001 5.113124e+001 8.484391e+001 2.687555e+001 1.821463e+001 4.439829e+001 3.589269e+001 1.387651e+001 2.941863e+001 2.664604e+001 2.660471e+001 2.065287e+000 3.527171e+000 4.968716e+000 7.955182e+000 2.999449e+000 1.530881e+000 4.006981e+000 3.048733e+000 1.711754e+000 5.042774e+000 3.037746e+000 2.529446e+000 7.616930e-001
<GCONST> 1.006243e+002
<STATE> 3
<MEAN> 25
 4.127336e+000 7.938557e-001 1.359239e+001 1.569466e+001 1.067352e+001 -4.567012e-001 -1.254502e+001 1.822425e+000 1.587811e+000 -1.090328e+001 -7.857423e+000 -5.514074e+000 -1.749533e-001 6.853653e-001 9.212981e-001 -5.465978e-001 -5.456821e-001 4.650138e-001 6.609638e-001 6.663073e-001 -7.871759e-001 -1.117600e+000 1.931764e-001 3.809786e-001 -1.947477e-001
<VARIANCE> 25
 4.026373e+000 9.795485e+000 1.627347e+001 1.339705e+001 6.629815e+000 1.178194e+001 1.284669e+001 2.143461e+001 1.523792e+001 1.021031e+001 6.704612e+000 6.684754e+000 3.249646e-001 7.486886e-001 2.006483e+000 1.245511e+000 8.100054e-001 1.352846e+000 1.759956e+000 1.273264e+000 9.468675e-001 2.081596e+000 1.466284e+000 8.392490e-001 2.633393e-001
<GCONST> 7.378487e+001
<STATE> 4
<MEAN> 25
 2.244565e+000 3.197678e+000 1.123774e+001 1.051951e+001 7.277150e+000 4.009080e+000 -4.423059e+000 3.824690e+000 2.918287e-002 -8.023659e+000 -3.466295e+000 -4.131403e+000 -2.887148e-001 -2.137633e-001 -7.504629e-001 -5.615016e-001 -4.654870e-001 2.816536e-002 6.366695e-001 -2.663227e-002 1.101039e-001 6.688181e-001 4.096721e-001 3.580958e-001 -2.687428e-001
<VARIANCE> 25
 3.788951e+000 6.566628e+000 1.492204e+001 1.076157e+001 8.008166e+000 9.269761e+000 1.476758e+001 1.166653e+001 9.888573e+000 1.645378e+001 9.634084e+000 9.865871e+000 2.195674e-001 7.651862e-001 9.596419e-001 8.776481e-001 6.921185e-001 1.089108e+000 1.292432e+000 1.031909e+000 9.186315e-001 9.319435e-001 8.531703e-001 7.621613e-001 9.187379e-002
<GCONST> 6.841931e+001
<TRANSP> 5
 0.000000e+000 1.000000e+000 0.000000e+000 0.000000e+000 0.000000e+000
 0.000000e+000 9.591666e-001 4.083336e-002 0.000000e+000 0.000000e+000
 0.000000e+000 0.000000e+000 7.328799e-001 2.671201e-001 0.000000e+000
 0.000000e+000 0.000000e+000 0.000000e+000 9.250295e-001 7.497054e-002
 0.000000e+000 0.000000e+000 0.000000e+000 0.000000e+000 0.000000e+000
<ENDHMM>
~h "g"
<BEGINHMM>
<NUMSTATES> 5
<STATE> 2
<MEAN> 25
 -4.691014e+000 -3.134703e+000 -3.628769e+000 -4.949733e-001 -2.433969e+000 -2.304484e-001 -8.718085e-002 -8.274666e-001 1.766591e-001 1.636933e+000 8.835803e-001 1.830805e-001 -5.807963e-002 -2.372060e-002 1.763274e-002 4.572559e-002 1.757962e-003 4.207457e-004 2.708865e-002 8.149902e-003 -1.768768e-002 -1.890427e-002 7.766251e-003 1.016195e-002 -3.619843e-002
<VARIANCE> 25
 4.565030e+000 2.984645e+000 9.001154e+000 9.796562e+000 8.572067e+000 5.938201e+000 6.006840e+000 6.406845e+000 8.183950e+000 7.238390e+000 7.277937e+000 9.191009e+000 1.063948e-001 1.663795e-001 3.249307e-001 4.489835e-001 5.075867e-001 5.350802e-001 5.581895e-001 6.961160e-001 7.210855e-001 6.985177e-001 6.158464e-001 7.412719e-001 5.188324e-002
<GCONST> 5.626663e+001
<STATE> 3
<MEAN> 25
 -2.870805e+000 -1.161901e+000 -1.793447e+000 9.436789e-001 -2.088259e-001 1.923527e+000 1.616094e+000 2.857953e-001 9.270974e-001 2.105915e+000 1.358365e+000 5.227208e-001 1.062098e-001 9.136102e-002 8.584654e-002 2.383606e-002 -1.938564e-002 2.809735e-002 6.889811e-002 1.077968e-001 -1.351277e-001 -1.063382e-001 2.340183e-002 -1.364373e-001 6.042878e-002
<VARIANCE> 25
 1.382581e+001 1.109959e+001 1.120369e+001 1.136736e+001 1.326030e+001 1.101223e+001 1.095084e+001 6.910607e+000 8.473786e+000 7.776216e+000 5.453904e+000 7.773176e+000 4.194835e-001 3.578083e-001 5.603852e-001 5.196992e-001 5.815536e-001 5.511211e-001 7.359723e-001 7.600325e-001 8.256142e-001 8.276833e-001 6.233064e-001 6.779143e-001 1.839673e-001
<GCONST> 6.528854e+001
<STATE> 4
<MEAN> 25
 6.533317e+000 1.886047e+000 -3.332276e+000 -5.315532e+000 5.974236e-001 4.837548e-001 1.249648e+000 1.084981e-001 9.980758e-002 -4.724084e-001 -9.714717e-002 2.568347e+000 6.515782e-001 4.051757e-001 4.892963e-001 4.478588e-002 5.224027e-001 1.056950e-001 -1.909960e-001 -1.757785e-001 -1.828376e-001 -2.421758e-001 -4.191611e-002 1.787322e-001 5.695978e-001
<VARIANCE> 25
 3.663964e+001 1.235761e+001 2.084734e+001 3.765737e+001 1.361115e+001 1.139314e+001 1.155864e+001 2.121613e+001 2.233990e+001 9.972214e+000 1.149675e+001 1.597130e+001 3.955220e+000 1.703202e+000 2.494938e+000 3.838540e+000 1.242212e+000 1.251845e+000 1.608926e+000 2.303244e+000 2.133437e+000 1.292847e+000 1.413007e+000 1.673184e+000 2.338491e+000
<GCONST> 8.853605e+001
<TRANSP> 5
 0.000000e+000 1.000000e+000 0.000000e+000 0.000000e+000 0.000000e+000
 0.000000e+000 9.422505e-001 5.774954e-002 0.000000e+000 0.000000e+000
 0.000000e+000 0.000000e+000 4.977210e-001 5.022790e-001 0.000000e+000
 0.000000e+000 0.000000e+000 0.000000e+000 8.742919e-001 1.257081e-001
 0.000000e+000 0.000000e+000 0.000000e+000 0.000000e+000 0.000000e+000
<ENDHMM>
~h "h"
<BEGINHMM>
<NUMSTATES> 5
<STATE> 2
<MEAN> 25
 1.688186e+000 -9.288912e-001 -4.048328e+000 -2.143145e+000 7.974454e-002 2.682463e+000 3.813420e+000 3.293118e+000 7.927244e-001 -5.955630e-002 1.631329e+000 3.353145e+000 -4.940540e-001 -3.177013e-001 -2.648261e-001 -1.118130e-001 -3.496250e-001 -2.244010e-001 -2.147027e-001 -2.747543e-001 -9.154363e-002 1.988054e-001 1.133545e-001 -7.540751e-002 -3.272580e-001
<VARIANCE> 25
 1.622783e+001 1.542190e+001 2.036250e+001 1.734978e+001 1.192843e+001 2.083783e+001 1.252696e+001 1.851372e+001 1.258644e+001 1.070613e+001 1.345907e+001 1.718108e+001 3.520629e-001 5.979617e-001 1.022959e+000 1.062620e+000 9.434494e-001 9.562223e-001 7.910162e-001 1.054171e+000 9.995896e-001 8.778892e-001 7.799851e-001 8.746076e-001 1.611934e-001
<GCONST> 7.454805e+001
<STATE> 3
<MEAN> 25
 -1.455921e+000 -2.775521e+000 -4.741243e+000 -1.830634e+000 -1.182459e+000 1.651699e+000 2.384759e+000 1.610102e+000 7.270021e-001 1.123199e+000 2.419665e+000 3.051554e+000 -4.117674e-001 1.403217e-002 1.792947e-001 1.897740e-001 -1.873900e-002 -2.626900e-001 -3.524061e-001 -3.592053e-001 -5.744101e-002 1.840405e-001 -1.145157e-001 -2.434967e-001 -2.990177e-001
<VARIANCE> 25
 1.041649e+001 5.074070e+000 9.997062e+000 1.189660e+001 1.006268e+001 1.134803e+001 1.071407e+001 1.171218e+001 9.907090e+000 9.582091e+000 1.244283e+001 1.456568e+001 2.030123e-001 2.742029e-001 5.709029e-001 7.099777e-001 7.875628e-001 8.067341e-001 7.301300e-001 8.261872e-001 8.766645e-001 7.071711e-001 7.281519e-001 7.884930e-001 9.379441e-002
<GCONST> 6.586591e+001
<STATE> 4
<MEAN> 25
 -4.201920e+000 -2.799308e+000 -3.235290e+000 -7.398295e-001 -2.074109e+000 3.690862e-001 3.727829e-002 -1.052256e+000 -1.154541e-001 1.371855e+000 9.574126e-001 4.335854e-001 -2.079358e-002 -1.032116e-002 -1.730603e-002 -3.231246e-002 -2.472185e-002 -1.274154e-002 -2.746015e-003 -8.889362e-003 -1.206834e-002 -6.382982e-003 -4.078777e-002 -6.087641e-002 -1.282118e-002
<VARIANCE> 25
 4.348488e+000 2.630800e+000 5.752091e+000 7.906408e+000 6.659478e+000 6.260970e+000 6.559559e+000 7.492813e+000 7.496509e+000 7.264475e+000 7.232299e+000 7.268048e+000 1.373139e-001 1.901319e-001 3.945418e-001 4.994721e-001 5.260134e-001 6.144295e-001 6.419486e-001 7.712302e-001 7.708444e-001 7.510448e-001 7.241710e-001 7.234803e-001 6.769051e-002
<GCONST> 5.679796e+001
<TRANSP> 5
 0.000000e+000 1.000000e+000 0.000000e+000 0.000000e+000 0.000000e+000
 0.000000e+000 7.144511e-001 2.855488e-001 0.000000e+000 0.000000e+000
 0.000000e+000 0.000000e+000 5.741315e-001 4.258685e-001 0.000000e+000
 0.000000e+000 0.000000e+000 0.000000e+000 9.509234e-001 4.907659e-002
 0.000000e+000 0.000000e+000 0.000000e+000 0.000000e+000 0.000000e+000
<ENDHMM>
~h "i"
<BEGINHMM>
<NUMSTATES> 5
<STATE> 2
<MEAN> 25
 2.172713e+000 6.283441e-001 4.582883e+000 4.809812e+000 5.707810e+000 3.848622e-001 -5.770553e+000 -1.474384e+000 9.491572e-003 -1.896124e+000 -1.371574e+000 -1.226761e+000 -3.113194e-001 4.881952e-002 2.987208e-001 4.041211e-001 -3.401488e-002 3.192078e-002 -2.446383e-001 1.949930e-001 1.577246e-001 -4.056990e-001 -2.879064e-001 -2.496748e-001 -3.186911e-001
<VARIANCE> 25
 2.183218e+001 1.376059e+001 4.325291e+001 3.143001e+001 2.615494e+001 2.073189e+001 5.024174e+001 2.072104e+001 1.521418e+001 2.487101e+001 2.670244e+001 1.480556e+001 1.016360e+000 1.106909e+000 4.352109e+000 3.993094e+000 2.159234e+000 1.691115e+000 3.741253e+000 1.959213e+000 1.343433e+000 3.511444e+000 2.256550e+000 1.219487e+000 9.466587e-001
<GCONST> 9.279518e+001
<STATE> 3
<MEAN> 25
 -2.928743e+000 -1.523613e+000 -1.021243e+000 8.767998e-001 1.388268e-001 1.131333e+000 -2.671362e-001 -4.877757e-001 4.502116e-001 9.729292e-001 5.534343e-001 5.444865e-002 -1.911377e-001 -1.739132e-001 -1.465284e-001 -2.321107e-001 -1.812042e-001 -5.645185e-002 -6.392781e-003 -4.458375e-002 -4.574722e-002 -1.526899e-002 3.874762e-002 3.767328e-002 -7.560964e-002
<VARIANCE> 25
 7.316578e+000 6.969361e+000 2.390722e+001 1.625436e+001 1.803173e+001 1.301350e+001 2.007986e+001 1.065582e+001 9.992365e+000 1.595622e+001 1.221838e+001 8.540003e+000 2.940562e-001 6.397402e-001 1.388595e+000 1.067648e+000 1.112543e+000 1.205245e+000 1.171354e+000 1.117983e+000 1.030511e+000 1.436154e+000 1.030472e+000 8.017429e-001 2.966225e-001
<GCONST> 7.465632e+001
<STATE> 4
<MEAN> 25
 -7.509772e-001 -6.018626e-001 7.139406e+000 4.994381e+000 5.574383e+000 1.957639e+000 -4.652332e+000 1.196582e+000 6.447043e-001 -4.649066e+000 -1.583918e+000 -2.298690e+000 -1.361307e-002 -5.314029e-002 -3.761609e-001 -2.331708e-001 -1.233211e-001 1.699201e-002 1.880512e-001 -1.817156e-001 -1.084466e-001 2.286901e-001 1.578096e-001 1.117298e-001 -5.743813e-002
<VARIANCE> 25
 1.550520e+001 1.416155e+001 7.496928e+001 3.459361e+001 3.295419e+001 1.812304e+001 3.518925e+001 2.553828e+001 1.352936e+001 3.943908e+001 1.670729e+001 1.263971e+001 7.474571e-001 1.038356e+000 2.351746e+000 1.889777e+000 1.600321e+000 1.518487e+000 2.328792e+000 1.590724e+000 1.287003e+000 1.791466e+000 1.531223e+000 1.013095e+000 7.169356e-001
<GCONST> 8.840220e+001
<TRANSP> 5
 0.000000e+000 1.000000e+000 0.000000e+000 0.000000e+000 0.000000e+000
 0.000000e+000 6.472903e-001 3.527097e-001 0.000000e+000 0.000000e+000
 0.000000e+000 0.000000e+000 7.524770e-001 2.475230e-001 0.000000e+000
 0.000000e+000 0.000000e+000 0.000000e+000 8.634206e-001 1.365794e-001
 0.000000e+000 0.000000e+000 0.000000e+000 0.000000e+000 0.000000e+000
<ENDHMM>
~h "j"
<BEGINHMM>
<NUMSTATES> 5
<STATE> 2
<MEAN> 25
 6.020694e+000 2.174672e+000 -4.789335e+000 -5.087053e+000 -5.768820e-001 2.276989e+000 2.366364e-001 -2.771214e+000 -2.027125e+000 1.834194e+000 4.497995e+000 4.680448e+000 -6.832566e-001 -1.789790e-001 -2.069147e-001 -2.273769e-001 -4.781924e-001 1.944030e-001 5.179660e-001 3.216328e-001 -6.153093e-002 -1.229160e-001 -1.391309e-002 5.337311e-002 -5.683196e-001
<VARIANCE> 25
 2.162777e+001 1.470153e+001 7.308609e+000 7.247225e+000 1.569298e+001 1.206182e+001 1.556814e+001 1.442445e+001 8.803263e+000 7.918734e+000 9.548384e+000 7.041132e+000 3.508891e-001 1.118874e+000 7.058363e-001 1.089958e+000 1.753132e+000 1.399132e+000 9.264674e-001 7.625966e-001 1.408220e+000 5.977908e-001 8.802184e-001 8.810058e-001 8.544743e-002
<GCONST> 7.125478e+001
<STATE> 3
<MEAN> 25
 -3.642072e+000 -2.580267e+000 -4.358613e+000 -3.021396e+000 -2.237307e+000 2.836391e+000 2.551100e+000 -4.062247e-001 -1.318426e+000 -1.053569e+000 1.920145e+000 3.238855e+000 -6.716596e-001 1.096516e-002 8.816518e-001 1.331136e+000 3.404520e-001 -6.670743e-001 -3.961111e-001 3.511428e-002 2.375745e-001 1.553175e-001 -4.852706e-001 -5.493094e-001 -4.611520e-001
<VARIANCE> 25
 3.586575e+000 1.069436e+000 6.290999e+000 1.318546e+001 3.902352e+000 5.784477e+000 5.322750e+000 5.399289e+000 7.344278e+000 5.147724e+000 8.926047e+000 9.857154e+000 8.181881e-002 1.304901e-001 2.825600e-001 6.702899e-001 5.195541e-001 7.292435e-001 6.446101e-001 7.470260e-001 1.236775e+000 7.963609e-001 8.464851e-001 8.928483e-001 5.516201e-002
<GCONST> 5.519656e+001
<STATE> 4
<MEAN> 25
 -6.911502e+000 -3.141804e+000 -3.214082e-001 2.530111e+000 -1.598011e+000 -1.076406e+000 1.903094e-001 9.043407e-001 1.509766e+000 1.818995e+000 1.316769e-001 -8.275024e-001 2.396441e-003 7.422248e-004 2.851634e-002 1.081196e-002 1.425681e-002 -3.364665e-002 -3.454401e-002 2.029841e-002 3.024402e-002 5.133506e-002 7.143191e-003 1.039581e-002 1.087655e-002
<VARIANCE> 25
 1.031634e+000 1.547413e+000 2.817381e+000 3.959218e+000 3.597621e+000 5.769185e+000 5.059657e+000 4.842243e+000 5.292727e+000 4.859878e+000 6.012367e+000 5.817074e+000 8.197565e-002 1.530937e-001 2.112467e-001 3.455369e-001 3.835322e-001 6.085737e-001 5.765125e-001 6.569932e-001 6.749892e-001 5.353225e-001 8.025143e-001 6.050274e-001 2.717529e-002
<GCONST> 4.709284e+001
<TRANSP> 5
 0.000000e+000 1.000000e+000 0.000000e+000 0.000000e+000 0.000000e+000
 0.000000e+000 9.149698e-001 8.503021e-002 0.000000e+000 0.000000e+000
 0.000000e+000 0.000000e+000 8.085716e-001 1.914284e-001 0.000000e+000
 0.000000e+000 0.000000e+000 0.000000e+000 9.781711e-001 2.182888e-002
 0.000000e+000 0.000000e+000 0.000000e+000 0.000000e+000 0.000000e+000
<ENDHMM>
~h "k"
<BEGINHMM>
<NUMSTATES> 5
<STATE> 2
<MEAN> 25
 -3.254556e+000 -2.832634e+000 -2.895691e+000 -2.090861e+000 -2.313483e+000 -4.223358e-001 -1.729769e-001 -1.071084e+000 -2.286714e-001 9.917935e-001 1.119422e+000 -1.743952e-001 8.892305e-001 -6.730227e-002 -1.520195e-001 -2.439239e+000 -7.700637e-001 -3.430385e-001 1.425687e+000 -1.451438e-001 -9.340129e-001 -1.271795e+000 -4.915360e-002 4.397300e-001 1.653396e+000
<VARIANCE> 25
 7.326195e+000 8.334751e+000 1.026626e+001 2.754146e+001 1.810681e+001 1.315728e+001 1.905517e+001 1.429255e+001 1.427966e+001 1.340595e+001 1.086280e+001 7.812937e+000 1.115292e+000 1.556792e+000 1.802157e+000 4.823212e+000 3.152770e+000 2.259285e+000 5.139518e+000 1.967232e+000 2.246106e+000 2.857245e+000 1.916790e+000 1.486863e+000 1.870349e+000
<GCONST> 8.700296e+001
<STATE> 3
<MEAN> 25
 6.109852e-001 -2.388865e+000 -2.468401e+000 -1.084387e+001 -4.692272e+000 -9.527313e-001 6.479319e+000 -1.310947e+000 -4.273796e+000 -4.079471e+000 9.144247e-001 1.963430e+000 1.553674e+000 1.003792e+000 7.620680e-001 -2.484030e-002 3.877027e-001 -2.920442e-002 5.329213e-001 6.629959e-001 -8.164699e-002 -3.976429e-001 -3.388433e-001 7.419904e-001 1.028830e+000
<VARIANCE> 25
 1.070597e+001 1.862276e+001 2.005703e+001 4.449077e+001 4.314952e+001 3.117886e+001 6.561609e+001 2.499902e+001 1.977915e+001 3.026451e+001 2.431886e+001 1.674773e+001 1.914747e+000 1.801842e+000 2.062170e+000 7.757718e+000 3.458625e+000 2.581411e+000 5.564394e+000 1.816726e+000 2.410591e+000 2.680467e+000 1.680158e+000 1.604969e+000 1.994884e+000
<GCONST> 9.710908e+001
<STATE> 4
<MEAN> 25
 6.272353e+000 2.717760e+000 -8.251314e-001 -4.630624e+000 -1.427406e+000 -2.555981e+000 2.226006e+000 1.772978e+000 -7.612505e-001 -2.621928e+000 -1.575640e+000 3.146373e+000 2.257217e+000 1.210382e+000 -3.018222e-001 8.727774e-001 6.945396e-001 -1.307068e+000 -1.498632e+000 6.950344e-001 1.013298e+000 6.895184e-002 -7.919492e-001 3.712307e-001 8.378354e-001
<VARIANCE> 25
 2.486180e+001 1.614330e+001 2.046642e+001 2.396039e+001 1.711254e+001 2.460598e+001 2.827564e+001 1.320904e+001 1.443807e+001 1.566529e+001 1.560278e+001 1.572018e+001 2.140636e+000 1.629485e+000 2.936751e+000 2.991677e+000 1.634557e+000 2.897431e+000 2.763185e+000 1.410740e+000 1.374479e+000 1.718068e+000 1.603437e+000 1.381226e+000 1.131589e+000
<GCONST> 8.914259e+001
<TRANSP> 5
 0.000000e+000 1.000000e+000 0.000000e+000 0.000000e+000 0.000000e+000
 0.000000e+000 6.414735e-001 3.585265e-001 0.000000e+000 0.000000e+000
 0.000000e+000 0.000000e+000 5.855231e-001 4.144769e-001 0.000000e+000
 0.000000e+000 0.000000e+000 0.000000e+000 6.516557e-001 3.483443e-001
 0.000000e+000 0.000000e+000 0.000000e+000 0.000000e+000 0.000000e+000
<ENDHMM>
~h "l"
<BEGINHMM>
<NUMSTATES> 5
<STATE> 2
<MEAN> 25
 -8.016399e-001 -4.042090e-001 -1.999252e+000 -3.222745e+000 -1.739833e+000 -9.597792e-002 4.864084e-001 2.497189e-002 -4.386538e-001 9.013137e-001 -1.361913e-001 -3.867896e-002 7.698473e-002 2.995653e-001 1.820913e-001 3.961790e-002 -2.007114e-001 -3.746969e-001 -1.580744e-001 3.053028e-002 -4.043110e-002 -9.948676e-003 -2.075490e-001 -1.551933e-001 -4.796153e-002
<VARIANCE> 25
 3.376993e+001 2.728962e+001 1.627950e+001 1.981971e+001 1.137479e+001 1.560490e+001 1.187392e+001 1.584013e+001 1.278195e+001 9.133465e+000 9.811943e+000 9.592955e+000 5.245591e-001 8.962911e-001 1.229186e+000 1.015891e+000 1.093318e+000 1.014057e+000 9.261298e-001 1.094049e+000 1.303890e+000 9.393198e-001 8.651361e-001 9.069961e-001 3.005229e-001
<GCONST> 7.661186e+001
<STATE> 3
<MEAN> 25
 5.264229e+000 5.179762e+000 2.547171e-001 -4.937418e+000 -1.257898e+000 -3.268069e+000 6.278632e-001 2.289019e+000 -1.463351e+000 6.135469e-001 -2.110615e+000 -6.432403e-001 5.252787e-001 5.563298e-001 3.840409e-001 -2.682185e-001 -2.052154e-001 -5.082559e-001 2.022384e-002 3.217559e-001 -5.972876e-003 -1.498828e-001 -4.031209e-001 -2.796302e-002 3.450845e-001
<VARIANCE> 25
 2.499846e+001 2.045552e+001 1.878128e+001 2.962518e+001 1.288803e+001 1.512197e+001 1.453805e+001 1.679218e+001 1.182574e+001 9.353806e+000 1.015296e+001 7.930435e+000 1.272180e+000 1.407908e+000 1.262745e+000 1.359846e+000 1.074249e+000 1.056249e+000 1.063493e+000 1.227939e+000 1.060207e+000 8.456692e-001 7.767603e-001 7.893843e-001 5.378192e-001
<GCONST> 7.866836e+001
<STATE> 4
<MEAN> 25
 7.804125e+000 5.771979e+000 -8.238572e-001 -7.628591e+000 -2.959043e+000 -3.816972e+000 2.212753e+000 5.686306e+000 1.669948e+000 -6.737573e-001 -4.198677e+000 1.411504e-001 1.442033e-003 -3.379788e-001 -4.093477e-001 -1.048883e-001 -1.262290e-001 1.501566e-001 2.544643e-001 2.182194e-001 3.748076e-001 -2.078209e-001 -7.011247e-002 1.823640e-001 5.520042e-002
<VARIANCE> 25
 1.066996e+001 1.163387e+001 2.277592e+001 2.106311e+001 1.029469e+001 1.511117e+001 1.883934e+001 2.059109e+001 1.663664e+001 1.244297e+001 9.200341e+000 1.212957e+001 1.071973e+000 9.956155e-001 2.232424e+000 2.177955e+000 9.178069e-001 1.246415e+000 1.808389e+000 1.863513e+000 1.147413e+000 1.157505e+000 1.117299e+000 1.214412e+000 7.127206e-001
<GCONST> 8.124329e+001
<TRANSP> 5
 0.000000e+000 1.000000e+000 0.000000e+000 0.000000e+000 0.000000e+000
 0.000000e+000 7.932624e-001 2.067376e-001 0.000000e+000 0.000000e+000
 0.000000e+000 0.000000e+000 6.029518e-001 3.970481e-001 0.000000e+000
 0.000000e+000 0.000000e+000 0.000000e+000 8.562195e-001 1.437805e-001
 0.000000e+000 0.000000e+000 0.000000e+000 0.000000e+000 0.000000e+000
<ENDHMM>
~h "m"
<BEGINHMM>
<NUMSTATES> 5
<STATE> 2
<MEAN> 25
 4.338536e+000 5.481261e+000 4.042197e+000 5.707530e+000 2.327320e+000 2.232128e+000 2.759586e+000 3.815317e+000 4.089704e+000 1.852494e+000 -1.397160e+000 -4.309650e+000 1.747921e-001 1.616477e-002 4.337920e-002 2.956766e-001 4.340128e-001 3.774247e-001 3.745902e-001 5.278584e-001 5.196008e-001 1.998026e-001 -2.209706e-001 -5.847169e-001 1.153040e-001
<VARIANCE> 25
 9.600765e+000 7.601945e+000 9.980966e+000 1.319242e+001 8.946193e+000 1.250811e+001 9.284595e+000 9.641213e+000 1.256493e+001 1.050493e+001 7.783898e+000 1.081255e+001 9.757144e-001 5.766967e-001 8.432657e-001 1.532010e+000 1.294365e+000 1.350496e+000 8.817007e-001 1.190751e+000 1.201300e+000 9.138014e-001 7.046177e-001 1.088568e+000 4.094904e-001
<GCONST> 7.286846e+001
<STATE> 3
<MEAN> 25
 5.443299e+000 5.263568e+000 2.806773e+000 3.855790e+000 1.322886e+000 1.487848e+000 3.395968e+000 5.070813e+000 4.240334e+000 1.056351e+000 -1.398729e+000 -3.956480e+000 1.588834e-001 -2.082321e-001 -5.064513e-001 -7.434167e-001 -3.745953e-001 -3.653089e-001 9.359530e-002 2.179353e-001 -3.386656e-001 -6.291382e-001 1.175972e-001 7.649795e-001 2.293173e-001
<VARIANCE> 25
 1.254521e+001 5.944926e+000 1.074381e+001 2.282966e+001 1.451320e+001 2.190013e+001 8.922618e+000 1.086164e+001 9.803157e+000 1.496608e+001 7.740944e+000 1.418502e+001 6.344545e-001 3.416262e-001 8.227310e-001 1.947645e+000 1.214547e+000 1.418359e+000 8.435294e-001 1.068979e+000 8.626463e-001 1.660799e+000 7.385210e-001 1.332825e+000 3.851641e-001
<GCONST> 7.455631e+001
<STATE> 4
<MEAN> 25
 1.074307e+000 4.614106e-001 -2.150129e+000 -7.927214e-001 -8.046225e-001 7.716928e-001 2.535275e+000 2.854146e+000 7.853177e-001 -1.062855e+000 -3.375334e-001 9.745903e-001 -1.062579e-001 -2.177917e-001 -2.732737e-001 -2.543672e-001 7.798828e-002 2.469138e-002 1.169311e-002 -5.340599e-002 -2.544152e-001 -1.113986e-001 6.672943e-002 3.365931e-001 -3.516823e-003
<VARIANCE> 25
 4.268913e+001 1.506821e+001 1.003087e+001 1.864576e+001 9.202485e+000 1.266976e+001 1.189995e+001 2.650326e+001 8.661634e+000 2.296672e+001 9.264423e+000 1.128565e+001 3.328218e-001 3.920403e-001 5.561960e-001 7.369665e-001 7.793360e-001 8.952215e-001 7.801269e-001 8.441631e-001 8.418904e-001 9.389471e-001 6.973031e-001 9.107334e-001 1.629647e-001
<GCONST> 7.189045e+001
<TRANSP> 5
 0.000000e+000 1.000000e+000 0.000000e+000 0.000000e+000 0.000000e+000
 0.000000e+000 7.791706e-001 2.208294e-001 0.000000e+000 0.000000e+000
 0.000000e+000 0.000000e+000 7.906906e-001 2.093094e-001 0.000000e+000
 0.000000e+000 0.000000e+000 0.000000e+000 8.434801e-001 1.565199e-001
 0.000000e+000 0.000000e+000 0.000000e+000 0.000000e+000 0.000000e+000
<ENDHMM>
~h "n"
<BEGINHMM>
<NUMSTATES> 5
<STATE> 2
<MEAN> 25
 4.845731e+000 2.529753e+000 4.390569e+000 7.420693e+000 7.370463e+000 9.125218e-002 -4.172353e+000 -3.926126e+000 -2.502404e+000 -2.774487e+000 -2.401227e+000 -7.571943e-001 2.430303e-001 5.830727e-001 1.718981e+000 2.593665e+000 1.484502e+000 2.556287e-001 -1.118846e+000 -5.834550e-001 4.129052e-001 -6.467535e-001 -1.019572e+000 -1.164657e+000 2.419453e-002
<VARIANCE> 25
 1.356940e+001 1.583536e+001 2.342878e+001 5.024574e+001 3.895805e+001 3.391516e+001 4.486708e+001 1.184205e+001 1.836792e+001 1.625899e+001 1.983647e+001 1.860779e+001 2.353584e+000 7.293103e-001 2.296597e+000 4.703805e+000 3.616535e+000 5.696862e+000 3.778759e+000 1.861304e+000 1.774399e+000 2.284844e+000 1.413671e+000 1.076542e+000 2.646143e+000
<GCONST> 9.414894e+001
<STATE> 3
<MEAN> 25
 5.121454e+000 5.132532e+000 5.713103e+000 9.303005e+000 7.793663e+000 3.486212e+000 -2.294185e+000 -3.668364e+000 -1.969315e+000 -1.813395e+000 -1.366208e+000 -1.076116e+000 -2.443330e-001 1.590336e-001 -5.708459e-002 -4.566605e-002 -1.448743e-001 6.417451e-001 6.927365e-001 3.841839e-001 2.267285e-001 3.225253e-001 3.271547e-001 6.333921e-002 -3.514238e-001
<VARIANCE> 25
 5.604395e+000 6.922052e+000 1.075933e+001 1.232308e+001 1.296113e+001 1.956273e+001 2.670878e+001 1.011297e+001 1.419776e+001 9.973169e+000 1.239321e+001 1.458138e+001 2.436242e-001 6.347699e-001 6.437737e-001 1.172061e+000 1.112789e+000 1.669899e+000 2.205052e+000 8.991005e-001 9.915670e-001 1.077567e+000 1.114113e+000 7.468888e-001 3.981822e-001
<GCONST> 7.389407e+001
<STATE> 4
<MEAN> 25
 1.472781e+000 3.341487e+000 3.818111e+000 6.720301e+000 4.926638e+000 5.835584e+000 2.670908e+000 -1.265846e-001 -2.190751e-001 6.453865e-001 1.043671e+000 1.110553e-001 -6.684647e-001 -6.948099e-001 -4.863277e-001 -6.201326e-001 -6.265599e-001 -2.126071e-001 1.584330e-001 2.605783e-001 2.637481e-001 2.378705e-001 1.606834e-001 -3.000436e-003 -2.729677e-001
<VARIANCE> 25
 1.129291e+001 1.442882e+001 1.359322e+001 1.537863e+001 1.232608e+001 9.015766e+000 7.962631e+000 9.440028e+000 8.989271e+000 8.546515e+000 9.308987e+000 8.860882e+000 3.234306e-001 9.496638e-001 1.116222e+000 1.109390e+000 9.973698e-001 1.129339e+000 8.663700e-001 9.346614e-001 9.982055e-001 9.454925e-001 9.089065e-001 7.010792e-001 1.702609e-001
<GCONST> 7.082988e+001
<TRANSP> 5
 0.000000e+000 1.000000e+000 0.000000e+000 0.000000e+000 0.000000e+000
 0.000000e+000 6.666692e-001 3.333307e-001 0.000000e+000 0.000000e+000
 0.000000e+000 0.000000e+000 8.319588e-001 1.680412e-001 0.000000e+000
 0.000000e+000 0.000000e+000 0.000000e+000 8.549282e-001 1.450718e-001
 0.000000e+000 0.000000e+000 0.000000e+000 0.000000e+000 0.000000e+000
<ENDHMM>
~h "o"
<BEGINHMM>
<NUMSTATES> 5
<STATE> 2
<MEAN> 25
 8.352658e+000 6.358536e+000 2.785206e+000 -3.566765e+000 -4.918869e+000 -6.126923e+000 -1.058510e-001 3.668596e+000 -1.372312e+000 -3.632236e+000 -4.237628e+000 -1.681965e+000 5.247223e-001 8.259844e-001 3.503567e-001 -1.732531e-002 -1.183934e+000 -7.373039e-001 -7.204872e-001 3.281085e-001 7.407500e-001 -8.260766e-002 -4.951759e-001 -6.287299e-001 -1.158411e-001
<VARIANCE> 25
 1.603313e+001 9.542092e+000 1.568602e+001 2.454994e+001 2.677583e+001 2.934594e+001 1.536475e+001 1.991146e+001 2.236064e+001 2.085170e+001 1.166865e+001 1.144939e+001 1.564202e+000 1.161989e+000 1.540614e+000 2.924861e+000 1.974496e+000 2.594918e+000 1.699017e+000 2.077412e+000 1.603898e+000 1.439689e+000 9.960067e-001 1.041534e+000 8.700093e-001
<GCONST> 8.609267e+001
<STATE> 3
<MEAN> 25
 7.907616e+000 8.026697e+000 4.378329e+000 -1.158367e+000 -5.472479e+000 -5.687459e+000 3.334744e-002 3.900793e+000 -1.948193e-001 -4.074827e+000 -5.220535e+000 -3.797468e+000 -2.722669e-002 9.145989e-002 1.052794e-001 1.847515e-001 -1.840933e-001 -7.853796e-002 -1.197567e-001 5.140027e-002 3.018858e-001 1.050052e-001 8.105268e-002 -1.186859e-001 -9.491092e-002
<VARIANCE> 25
 9.029756e+000 5.028172e+000 1.252107e+001 1.665674e+001 3.076845e+001 2.390316e+001 9.219696e+000 1.956265e+001 2.544064e+001 1.060679e+001 7.433127e+000 1.521475e+001 4.271448e-001 3.683629e-001 7.237124e-001 9.618876e-001 1.187441e+000 1.236586e+000 9.167998e-001 1.054405e+000 8.698175e-001 1.118744e+000 6.817783e-001 1.023569e+000 3.236322e-001
<GCONST> 7.384782e+001
<STATE> 4
<MEAN> 25
 6.435215e+000 8.285514e+000 4.505160e+000 7.245880e-002 -6.762897e+000 -6.279067e+000 -2.710976e+000 1.202464e+000 2.143612e+000 1.234389e+000 -8.102484e-001 -3.071359e+000 -4.992342e-001 -3.879437e-001 -2.646328e-001 1.171512e-001 3.380705e-001 5.063748e-001 1.826390e-001 -2.410687e-001 -9.403644e-002 2.144332e-001 2.491403e-001 1.185530e-001 -3.021480e-001
<VARIANCE> 25
 1.823810e+001 1.832111e+001 1.476859e+001 8.877397e+000 1.234779e+001 1.915768e+001 1.327510e+001 1.771913e+001 1.386432e+001 1.411780e+001 1.086106e+001 9.674625e+000 4.862985e-001 7.173058e-001 5.961937e-001 6.890997e-001 7.813758e-001 1.078837e+000 8.404648e-001 1.503700e+000 1.063979e+000 1.018893e+000 8.617399e-001 6.665931e-001 1.694041e-001
<GCONST> 7.336412e+001
<TRANSP> 5
 0.000000e+000 1.000000e+000 0.000000e+000 0.000000e+000 0.000000e+000
 0.000000e+000 6.778668e-001 3.221332e-001 0.000000e+000 0.000000e+000
 0.000000e+000 0.000000e+000 8.704501e-001 1.295499e-001 0.000000e+000
 0.000000e+000 0.000000e+000 0.000000e+000 9.009729e-001 9.902706e-002
 0.000000e+000 0.000000e+000 0.000000e+000 0.000000e+000 0.000000e+000
<ENDHMM>
~h "p"
<BEGINHMM>
<NUMSTATES> 5
<STATE> 2
<MEAN> 25
 -2.684595e+000 -1.172929e+000 -9.019161e-001 1.375195e+000 -4.726703e-001 2.055308e+000 1.705319e+000 2.252239e-001 5.155712e-001 1.220842e+000 1.011060e+000 1.810898e-001 -6.719639e-001 -7.232111e-001 -7.732214e-001 -6.571444e-001 -4.318757e-001 -2.560902e-001 -4.011679e-001 -5.643433e-001 -3.002980e-001 -1.410624e-002 4.476159e-002 1.217761e-001 -3.331988e-001
<VARIANCE> 25
 6.631372e+000 8.187107e+000 1.245254e+001 1.447368e+001 9.168093e+000 8.710150e+000 1.102158e+001 1.097105e+001 1.032113e+001 8.458492e+000 8.139913e+000 8.286213e+000 6.760779e-001 9.125641e-001 1.315168e+000 1.501087e+000 1.163166e+000 9.875924e-001 1.193654e+000 1.027339e+000 1.084631e+000 9.075633e-001 9.162658e-001 9.106661e-001 2.644579e-001
<GCONST> 7.200463e+001
<STATE> 3
<MEAN> 25
 -3.555070e+000 -2.244307e+000 -2.357112e+000 -1.532833e-001 -1.710229e+000 8.288623e-001 1.754051e-001 -1.338745e+000 -4.021821e-001 8.876054e-001 7.392084e-001 -5.500836e-002 -1.893187e-001 -2.335216e-001 -3.542424e-001 -3.124715e-001 -2.844144e-001 -3.316338e-001 -3.540827e-001 -2.845181e-001 -1.061596e-001 1.033048e-002 -2.045134e-002 2.228822e-003 -1.111632e-001
<VARIANCE> 25
 4.828923e+000 4.444161e+000 8.038445e+000 9.201659e+000 6.983528e+000 9.133994e+000 8.780417e+000 8.920565e+000 9.667120e+000 8.947472e+000 7.364765e+000 7.077837e+000 5.650453e-001 4.942484e-001 1.095774e+000 1.134299e+000 7.162012e-001 9.176372e-001 1.021491e+000 1.061904e+000 1.070089e+000 1.024185e+000 8.379724e-001 8.596312e-001 2.824941e-001
<GCONST> 6.734998e+001
<STATE> 4
<MEAN> 25
 -3.847992e+000 -2.615245e+000 -3.129883e+000 -6.463538e-001 -2.305742e+000 8.094797e-002 -3.509214e-001 -1.306321e+000 -3.584194e-001 1.225816e+000 9.812736e-001 2.310756e-001 3.129184e-002 1.812339e-002 3.351726e-002 2.258543e-002 3.960029e-003 -3.029132e-002 -8.862876e-003 -6.936700e-003 -2.330877e-002 -1.531351e-002 6.273935e-003 2.235313e-002 2.699330e-002
<VARIANCE> 25
 2.787679e+000 3.029207e+000 4.374228e+000 6.005274e+000 5.788952e+000 6.326732e+000 7.181293e+000 7.426039e+000 7.420370e+000 7.498612e+000 7.105628e+000 6.721962e+000 2.815256e-001 3.170935e-001 4.159693e-001 4.936861e-001 5.496833e-001 6.484680e-001 7.231927e-001 7.779909e-001 7.423398e-001 7.966527e-001 7.506277e-001 7.176622e-001 1.515016e-001
<GCONST> 5.817442e+001
<TRANSP> 5
 0.000000e+000 1.000000e+000 0.000000e+000 0.000000e+000 0.000000e+000
 0.000000e+000 6.232406e-001 3.767594e-001 0.000000e+000 0.000000e+000
 0.000000e+000 0.000000e+000 4.452066e-001 5.547934e-001 0.000000e+000
 0.000000e+000 0.000000e+000 0.000000e+000 9.291937e-001 7.080627e-002
 0.000000e+000 0.000000e+000 0.000000e+000 0.000000e+000 0.000000e+000
<ENDHMM>
~h "r"
<BEGINHMM>
<NUMSTATES> 5
<STATE> 2
<MEAN> 25
 -3.929317e-002 -7.405205e-002 -9.059315e-001 5.894399e-003 -6.865258e-002 1.041926e+000 5.688497e-001 -6.450782e-001 -1.757414e+000 -9.563441e-001 -1.912246e-001 5.927928e-001 7.176528e-001 3.613985e-001 2.200489e-001 2.808933e-001 2.501436e-001 -4.496197e-002 2.269340e-002 3.021743e-002 -3.202411e-001 -5.397545e-001 -2.136604e-001 1.295691e-001 4.429428e-001
<VARIANCE> 25
 2.618399e+001 1.746029e+001 1.679473e+001 1.182098e+001 1.406586e+001 1.308123e+001 1.240744e+001 1.161749e+001 1.423280e+001 1.485543e+001 1.001598e+001 9.234234e+000 1.898875e+000 1.538488e+000 1.472822e+000 9.578331e-001 1.262391e+000 1.508618e+000 1.519087e+000 1.310870e+000 1.379683e+000 1.324584e+000 1.117442e+000 8.694317e-001 9.309817e-001
<GCONST> 8.068142e+001
<STATE> 3
<MEAN> 25
 7.643364e+000 3.900678e+000 -1.819516e-001 2.115963e+000 8.018459e-001 -5.031458e-001 1.085985e+000 1.034112e+000 -3.047418e+000 -5.635622e+000 -2.797356e+000 1.278233e+000 4.866543e-001 1.661839e-001 -1.225693e-001 -2.007941e-002 -5.874465e-001 -6.757039e-001 1.254182e-001 5.609937e-001 1.625101e-001 -4.660083e-001 -3.605680e-001 -2.763840e-001 2.341467e-001
<VARIANCE> 25
 1.344582e+001 4.946319e+000 1.443275e+001 8.857013e+000 9.664129e+000 1.262975e+001 9.205485e+000 1.180823e+001 1.007516e+001 1.558411e+001 9.472877e+000 7.228358e+000 8.949910e-001 5.951799e-001 8.472984e-001 5.393900e-001 1.063929e+000 1.375932e+000 9.820213e-001 1.386337e+000 9.811560e-001 1.364369e+000 8.974907e-001 8.560941e-001 5.577081e-001
<GCONST> 7.249178e+001
<STATE> 4
<MEAN> 25
 8.544908e+000 6.163543e+000 2.656769e+000 1.385892e+000 -3.559232e+000 -4.654963e+000 4.547681e-001 3.818408e+000 -8.713909e-001 -4.715710e+000 -3.402183e+000 -2.457967e+000 -1.689354e-001 5.590361e-001 8.248466e-001 -1.298110e-001 -5.546935e-001 -4.907438e-001 -5.875159e-001 -2.095876e-001 3.237563e-001 1.101045e+000 5.790930e-001 -7.259281e-001 -1.795209e-001
<VARIANCE> 25
 9.214167e+000 1.006955e+001 1.980331e+001 8.327563e+000 1.868975e+001 1.912949e+001 9.601463e+000 2.240506e+001 1.065488e+001 2.529949e+001 1.286236e+001 1.317149e+001 4.486468e-001 6.224005e-001 8.943904e-001 5.214263e-001 9.711414e-001 1.064134e+000 8.384579e-001 1.979876e+000 7.282646e-001 1.811365e+000 1.094218e+000 1.128397e+000 3.095548e-001
<GCONST> 7.537862e+001
<TRANSP> 5
 0.000000e+000 1.000000e+000 0.000000e+000 0.000000e+000 0.000000e+000
 0.000000e+000 8.808552e-001 1.191448e-001 0.000000e+000 0.000000e+000
 0.000000e+000 0.000000e+000 7.377532e-001 2.622468e-001 0.000000e+000
 0.000000e+000 0.000000e+000 0.000000e+000 7.271247e-001 2.728753e-001
 0.000000e+000 0.000000e+000 0.000000e+000 0.000000e+000 0.000000e+000
<ENDHMM>
~h "s"
<BEGINHMM>
<NUMSTATES> 5
<STATE> 2
<MEAN> 25
 -1.900940e+000 -3.629710e+000 2.689986e+000 -3.078662e+000 -1.154993e+000 2.617354e-001 3.621088e+000 -7.330067e-001 -2.965439e+000 1.156200e+000 9.738348e-001 2.034443e+000 -2.473514e+000 -2.312963e+000 3.078944e+000 -7.999864e-001 3.534795e-001 -5.255309e-001 1.179603e+000 -4.729687e-001 -4.669148e-001 3.271341e-001 1.909363e-001 -2.283123e-002 1.025190e+000
<VARIANCE> 25
 3.663455e+001 3.286768e+001 3.836473e+001 2.063746e+001 1.439270e+001 1.362126e+001 1.891651e+001 1.538541e+001 1.869558e+001 1.417069e+001 1.223506e+001 1.090111e+001 4.510751e+000 2.282450e+000 3.870322e+000 1.817677e+000 1.521993e+000 2.352684e+000 2.137606e+000 2.355619e+000 3.409846e+000 1.176272e+000 1.154395e+000 1.633558e+000 1.205476e+000
<GCONST> 9.052400e+001
<STATE> 3
<MEAN> 25
 -1.149660e+001 -1.144945e+001 1.300542e+001 -7.634367e+000 2.175236e+000 -5.089661e+000 8.608304e+000 -2.143570e+000 -4.173702e+000 1.484804e+000 2.226104e+000 2.077539e+000 -1.488709e+000 -8.924705e-001 1.169779e+000 -6.840081e-001 6.108369e-001 -9.605054e-001 9.279272e-001 -2.318664e-001 -9.475604e-002 -2.209719e-001 3.489848e-001 -1.039179e-001 1.099426e+000
<VARIANCE> 25
 1.379582e+001 1.645710e+001 1.495760e+001 2.502106e+001 2.192953e+001 2.020663e+001 2.291503e+001 2.067093e+001 3.771790e+001 1.475358e+001 1.149844e+001 1.161135e+001 2.279467e+000 1.716010e+000 2.160138e+000 1.319097e+000 1.255702e+000 1.447238e+000 1.491651e+000 1.434206e+000 1.535022e+000 1.198193e+000 1.107777e+000 1.084139e+000 4.591682e-001
<GCONST> 8.455024e+001
<STATE> 4
<MEAN> 25
 -1.169442e+001 -1.028606e+001 1.264795e+001 -8.061611e+000 2.880077e+000 -5.659865e+000 8.872246e+000 -2.192508e+000 -3.522558e+000 1.027130e+000 2.334348e+000 6.071273e-001 1.055807e+000 7.249773e-001 -8.036878e-001 4.427586e-001 -2.715909e-001 3.657454e-001 -6.441159e-001 2.378225e-001 1.424028e-001 -1.447517e-001 -2.839912e-001 -8.801290e-002 -4.396981e-001
<VARIANCE> 25
 4.213964e+001 2.026486e+001 3.333715e+001 2.650023e+001 2.226037e+001 2.375205e+001 2.348405e+001 1.653787e+001 2.541924e+001 1.922264e+001 1.110290e+001 1.503044e+001 2.804090e+000 2.515366e+000 2.754915e+000 1.540804e+000 1.425062e+000 2.062201e+000 1.949768e+000 1.303811e+000 1.565675e+000 1.518299e+000 1.260674e+000 1.438300e+000 8.483651e-001
<GCONST> 8.972871e+001
<TRANSP> 5
 0.000000e+000 1.000000e+000 0.000000e+000 0.000000e+000 0.000000e+000
 0.000000e+000 7.016383e-001 2.983617e-001 0.000000e+000 0.000000e+000
 0.000000e+000 0.000000e+000 7.752089e-001 2.247911e-001 0.000000e+000
 0.000000e+000 0.000000e+000 0.000000e+000 9.292305e-001 7.076958e-002
 0.000000e+000 0.000000e+000 0.000000e+000 0.000000e+000 0.000000e+000
<ENDHMM>
~h "t"
<BEGINHMM>
<NUMSTATES> 5
<STATE> 2
<MEAN> 25
 -2.874617e+000 -1.307604e+000 -1.296232e+000 7.938799e-001 -8.311478e-001 1.732585e+000 6.708245e-001 -6.525009e-001 1.001874e-001 1.189029e+000 9.668707e-001 2.985624e-001 -6.023652e-001 -4.835241e-001 -5.976358e-001 -2.982626e-001 -4.216164e-001 -1.963493e-001 -2.915611e-001 -2.470593e-001 1.100914e-001 1.021912e-001 2.196031e-002 -7.390303e-002 -4.284492e-001
<VARIANCE> 25
 5.776987e+000 4.596120e+000 9.206667e+000 9.836245e+000 7.947051e+000 8.824247e+000 8.508681e+000 8.852025e+000 8.885777e+000 8.378284e+000 7.325515e+000 7.298545e+000 9.425086e-001 6.456506e-001 1.009071e+000 1.334801e+000 8.431925e-001 8.880457e-001 9.567564e-001 1.006385e+000 1.043746e+000 9.589761e-001 9.026482e-001 1.010315e+000 5.077793e-001
<GCONST> 6.929823e+001
<STATE> 3
<MEAN> 25
 -3.738307e+000 -2.664340e+000 -3.301330e+000 -6.921799e-001 -2.031012e+000 7.207164e-001 -6.483674e-002 -1.197151e+000 -3.107248e-001 1.168469e+000 1.016170e+000 4.905578e-001 7.245480e-002 -1.360705e-001 -2.632638e-002 4.143267e-002 8.604590e-003 -1.341682e-001 -9.540822e-003 1.927134e-002 -1.104241e-001 -1.036035e-001 -1.162691e-003 4.941601e-003 1.245211e-001
<VARIANCE> 25
 3.252882e+000 2.836394e+000 6.338144e+000 7.564250e+000 6.240672e+000 6.873870e+000 6.978878e+000 7.395639e+000 8.554248e+000 7.815168e+000 7.783070e+000 7.546617e+000 3.342331e-001 3.871977e-001 6.079213e-001 7.011183e-001 5.937430e-001 7.861461e-001 7.431204e-001 7.443397e-001 9.757159e-001 9.205914e-001 8.429189e-001 7.184615e-001 3.704092e-001
<GCONST> 6.216356e+001
<STATE> 4
<MEAN> 25
 2.096689e+000 -2.112062e+000 9.887210e-001 1.962146e+000 -2.900777e-001 -4.278985e-001 1.127495e+000 -2.400688e-001 -3.735235e+000 -3.451274e+000 -5.886060e-001 -5.374131e-001 1.722684e+000 1.275761e+000 1.960841e+000 4.084124e-001 3.892389e-001 -2.654062e-001 -3.749553e-001 5.812848e-001 -3.718393e-001 -1.527694e+000 -1.148497e+000 -7.987033e-001 1.358493e+000
<VARIANCE> 25
 2.587804e+001 3.912293e+001 2.805350e+001 2.303867e+001 1.695480e+001 2.020705e+001 2.275009e+001 1.721109e+001 2.784229e+001 2.791120e+001 2.074372e+001 1.455136e+001 1.994287e+000 6.119997e+000 3.844911e+000 3.238771e+000 2.398158e+000 2.146882e+000 3.606457e+000 1.963850e+000 3.879493e+000 2.965931e+000 2.890973e+000 2.122801e+000 2.057950e+000
<GCONST> 9.710961e+001
<TRANSP> 5
 0.000000e+000 1.000000e+000 0.000000e+000 0.000000e+000 0.000000e+000
 0.000000e+000 7.819246e-001 2.180754e-001 0.000000e+000 0.000000e+000
 0.000000e+000 0.000000e+000 8.820501e-001 1.179499e-001 0.000000e+000
 0.000000e+000 0.000000e+000 0.000000e+000 7.105510e-001 2.894490e-001
 0.000000e+000 0.000000e+000 0.000000e+000 0.000000e+000 0.000000e+000
<ENDHMM>
~h "u"
<BEGINHMM>
<NUMSTATES> 5
<STATE> 2
<MEAN> 25
 7.534098e+000 8.945799e+000 8.208392e+000 2.908218e+000 -2.916356e+000 -3.699500e+000 -3.752173e+000 1.289279e+000 -1.459150e-001 -3.567926e+000 -3.833178e+000 -4.643807e+000 3.330787e-001 9.578340e-001 6.484277e-001 5.652518e-002 -3.315749e-001 -5.251182e-001 -1.050353e+000 -6.077065e-001 1.874726e-001 5.027455e-001 1.746443e-001 -2.723810e-001 -5.741452e-002
<VARIANCE> 25
 9.657936e+000 1.359378e+001 1.176403e+001 1.014301e+001 1.583414e+001 2.467411e+001 1.886205e+001 2.239760e+001 1.351010e+001 2.852802e+001 2.476230e+001 1.327420e+001 1.574001e+000 2.574893e+000 1.892499e+000 1.435794e+000 1.573380e+000 2.230042e+000 2.183243e+000 2.067488e+000 1.582339e+000 2.274395e+000 2.381386e+000 1.499526e+000 6.502567e-001
<GCONST> 8.665414e+001
<STATE> 3
<MEAN> 25
 5.734320e+000 9.572688e+000 8.600634e+000 4.721889e+000 -1.596408e+000 -3.047274e+000 -5.340722e+000 -3.014688e+000 -1.108496e+000 -1.004298e-002 -2.850397e-001 -2.862555e+000 -8.239670e-001 -7.905882e-001 -6.900637e-001 2.033210e-001 5.051866e-001 6.646473e-001 5.233411e-001 -2.289315e-001 -1.733990e-002 3.025567e-001 3.153001e-001 4.601544e-001 -4.768623e-001
<VARIANCE> 25
 8.120701e+000 1.017936e+001 1.025542e+001 7.973126e+000 9.530807e+000 1.420317e+001 1.205699e+001 1.387733e+001 1.104994e+001 1.171804e+001 9.860804e+000 1.041359e+001 7.281443e-001 1.104318e+000 8.999869e-001 7.042229e-001 8.027633e-001 1.147098e+000 1.103225e+000 1.325484e+000 9.826128e-001 1.198400e+000 1.041470e+000 8.284231e-001 1.976881e-001
<GCONST> 7.230699e+001
<STATE> 4
<MEAN> 25
 -1.915360e+000 2.989145e-001 1.010711e-001 1.886814e+000 -8.421417e-001 5.921101e-001 -7.768610e-001 -1.310580e+000 -1.005611e-001 8.896487e-001 3.731118e-001 -8.329183e-001 -4.033464e-001 -5.085729e-001 -4.851607e-001 -2.244988e-001 -3.511953e-002 1.210731e-001 2.332793e-001 1.721219e-001 1.121010e-001 9.935086e-002 5.203333e-002 9.483489e-002 -1.870414e-001
<VARIANCE> 25
 1.248156e+001 1.483586e+001 1.529013e+001 1.029311e+001 7.422216e+000 7.371383e+000 7.466784e+000 8.017522e+000 8.906945e+000 8.711192e+000 8.180108e+000 7.209760e+000 4.566690e-001 6.919330e-001 7.364085e-001 6.563364e-001 6.356326e-001 7.879031e-001 8.556519e-001 8.741869e-001 8.724220e-001 8.100532e-001 7.774038e-001 6.567292e-001 1.344542e-001
<GCONST> 6.686274e+001
<TRANSP> 5
 0.000000e+000 1.000000e+000 0.000000e+000 0.000000e+000 0.000000e+000
 0.000000e+000 7.854331e-001 2.145669e-001 0.000000e+000 0.000000e+000
 0.000000e+000 0.000000e+000 8.131093e-001 1.868907e-001 0.000000e+000
 0.000000e+000 0.000000e+000 0.000000e+000 8.880122e-001 1.119878e-001
 0.000000e+000 0.000000e+000 0.000000e+000 0.000000e+000 0.000000e+000
<ENDHMM>
~h "ng"
<BEGINHMM>
<NUMSTATES> 5
<STATE> 2
<MEAN> 25
 4.943287e+000 4.692169e+000 1.916801e+000 2.429347e+000 2.282467e-001 4.947388e-001 7.749428e-001 2.664021e+000 3.472630e+000 1.737606e+000 5.627225e-001 3.224866e-001 -1.311530e-001 -3.436438e-001 -3.370682e-001 -3.053809e-001 1.575798e-001 1.165757e-001 2.427582e-001 1.736682e-001 -1.404356e-001 -3.096199e-001 4.009194e-002 4.913272e-001 5.754378e-002
<VARIANCE> 25
 1.375616e+001 8.205038e+000 1.091293e+001 1.951969e+001 7.618581e+000 1.216497e+001 1.311375e+001 9.601677e+000 1.119534e+001 1.482735e+001 7.933823e+000 1.109730e+001 4.367440e-001 5.073626e-001 1.031840e+000 1.935660e+000 7.134434e-001 5.850064e-001 1.127915e+000 9.235367e-001 1.080811e+000 1.854067e+000 8.437089e-001 1.297001e+000 3.614056e-001
<GCONST> 7.310844e+001
<STATE> 3
<MEAN> 25
 4.237168e+000 3.362169e+000 1.786471e-002 1.168352e+000 9.335393e-001 2.136615e+000 2.154851e+000 2.581044e+000 1.995030e+000 8.972558e-002 1.030220e+000 2.341819e+000 -1.608366e-001 -3.364030e-001 -4.275548e-001 -2.872050e-001 6.615703e-002 1.122124e-002 6.473944e-002 3.139248e-002 -1.484511e-001 -1.946979e-001 3.917305e-003 1.827734e-001 -1.366705e-002
<VARIANCE> 25
 2.038018e+001 1.198602e+001 1.355650e+001 2.111608e+001 8.449893e+000 1.026184e+001 9.323771e+000 1.217951e+001 9.503843e+000 2.490887e+001 8.909004e+000 1.505334e+001 3.350242e-001 3.924729e-001 7.419937e-001 8.495118e-001 6.607109e-001 6.380001e-001 7.162063e-001 7.528024e-001 8.401198e-001 1.170483e+000 5.902253e-001 7.898172e-001 2.009747e-001
<GCONST> 7.030611e+001
<STATE> 4
<MEAN> 25
 -1.576208e+000 -1.387630e+000 -3.667140e+000 -1.271496e+000 -1.455966e+000 9.516851e-001 1.125087e+000 5.295318e-001 2.081437e-001 7.132278e-001 1.176647e+000 1.440473e+000 -1.562585e-001 -1.633131e-001 -9.951650e-002 -1.457431e-001 -7.719844e-002 -1.136690e-001 -1.171966e-001 -9.349423e-002 -1.078556e-001 4.119271e-003 2.729379e-002 1.482919e-002 -4.444491e-002
<VARIANCE> 25
 2.154344e+001 7.424834e+000 1.032876e+001 1.304967e+001 1.156217e+001 9.007606e+000 9.492237e+000 1.174345e+001 9.843707e+000 1.406427e+001 8.432875e+000 1.097576e+001 4.168901e-001 3.592975e-001 7.527660e-001 9.457347e-001 7.841931e-001 7.841343e-001 7.205698e-001 7.509741e-001 9.723207e-001 1.017731e+000 9.044386e-001 8.769829e-001 2.184091e-001
<GCONST> 6.964111e+001
<TRANSP> 5
 0.000000e+000 1.000000e+000 0.000000e+000 0.000000e+000 0.000000e+000
 0.000000e+000 8.154821e-001 1.845179e-001 0.000000e+000 0.000000e+000
 0.000000e+000 0.000000e+000 7.078314e-001 2.921686e-001 0.000000e+000
 0.000000e+000 0.000000e+000 0.000000e+000 8.480250e-001 1.519750e-001
 0.000000e+000 0.000000e+000 0.000000e+000 0.000000e+000 0.000000e+000
<ENDHMM>
~h "ny"
<BEGINHMM>
<NUMSTATES> 5
<STATE> 2
<MEAN> 25
 -4.608429e+000 -3.256840e+000 -3.136734e+000 -5.237077e-001 -1.664639e+000 8.559979e-001 2.384686e-001 -1.315460e+000 -9.332848e-002 1.455754e+000 1.241727e+000 4.426183e-001 -1.386902e-003 1.629771e-002 -3.923552e-002 3.640055e-002 1.752234e-002 -5.738414e-003 -3.903642e-003 6.678685e-003 -1.843879e-003 -1.434469e-002 2.707503e-002 9.650639e-003 -2.318323e-002
<VARIANCE> 25
 2.917282e+000 2.632174e+000 4.692605e+000 6.013521e+000 7.455143e+000 5.953141e+000 7.195068e+000 7.263282e+000 7.023093e+000 7.110322e+000 6.841578e+000 6.770022e+000 1.416684e-001 2.130961e-001 4.756074e-001 5.241576e-001 5.323932e-001 5.662033e-001 6.961959e-001 7.303358e-001 7.867593e-001 7.375106e-001 6.956239e-001 6.519016e-001 6.525910e-002
<GCONST> 5.599125e+001
<STATE> 3
<MEAN> 25
 -2.445257e+000 -9.730529e-001 -1.089653e+000 1.489235e+000 4.185876e-001 1.736476e+000 6.252331e-001 -3.537852e-001 7.226318e-002 1.190871e+000 9.099293e-001 -1.020577e+000 6.545808e-001 8.974002e-001 1.278950e+000 1.007663e+000 1.011036e+000 4.658693e-001 1.172050e-001 3.057470e-001 2.448777e-001 -5.271418e-002 -5.653669e-002 -3.267469e-001 4.113051e-001
<VARIANCE> 25
 1.573694e+001 1.013028e+001 1.921171e+001 1.718422e+001 1.146626e+001 1.278856e+001 9.733812e+000 6.925397e+000 8.913466e+000 8.802071e+000 7.525304e+000 8.179049e+000 5.246532e-001 8.419823e-001 1.658137e+000 1.149402e+000 1.253115e+000 1.891880e+000 1.443300e+000 9.699354e-001 1.123133e+000 9.756355e-001 8.599015e-001 6.639211e-001 1.877076e-001
<GCONST> 7.338473e+001
<STATE> 4
<MEAN> 25
 3.427392e+000 1.047732e-001 2.666260e+000 1.498401e+000 5.986497e+000 -5.645348e-001 -3.838518e+000 -3.335484e-001 7.415631e-001 -4.055276e-001 1.794455e+000 1.474483e+000 6.610277e-001 -4.992745e-003 -2.146209e-001 -6.124478e-001 3.114855e-001 -1.898964e-001 -1.533487e-001 9.699401e-002 -2.954914e-001 -2.228771e-001 1.303579e-001 4.437740e-001 6.768795e-001
<VARIANCE> 25
 3.178599e+001 1.966351e+001 4.631234e+001 4.554084e+001 2.297596e+001 2.796001e+001 5.875031e+001 1.874717e+001 1.819546e+001 1.384982e+001 1.338613e+001 2.487020e+001 1.450994e+000 2.162184e+000 4.340060e+000 3.294063e+000 2.394810e+000 3.135338e+000 6.782609e+000 2.488493e+000 2.240355e+000 1.637911e+000 1.473027e+000 2.017483e+000 1.476579e+000
<GCONST> 9.627004e+001
<TRANSP> 5
 0.000000e+000 1.000000e+000 0.000000e+000 0.000000e+000 0.000000e+000
 0.000000e+000 9.489586e-001 5.104145e-002 0.000000e+000 0.000000e+000
 0.000000e+000 0.000000e+000 6.207693e-001 3.792307e-001 0.000000e+000
 0.000000e+000 0.000000e+000 0.000000e+000 9.351992e-001 6.480078e-002
 0.000000e+000 0.000000e+000 0.000000e+000 0.000000e+000 0.000000e+000
<ENDHMM>
~h "sp"
<BEGINHMM>
<NUMSTATES> 3
<STATE> 2
~s "silst"
<TRANSP> 3
 0.000000e+000 7.000000e-001 3.000000e-001
 0.000000e+000 9.000000e-001 9.999999e-002
 0.000000e+000 0.000000e+000 0.000000e+000
<ENDHMM>
~h "sil"
<BEGINHMM>
<NUMSTATES> 5
<STATE> 2
<MEAN> 25
 -3.744142e+000 -2.666484e+000 -3.816880e+000 -1.637985e+000 -2.777098e+000 8.515508e-002 -5.118779e-001 -1.619385e+000 -5.386717e-001 1.375705e+000 9.394310e-001 3.637019e-001 -2.112154e-002 -5.112406e-003 4.215887e-003 1.806943e-003 -9.112872e-003 -1.246673e-002 -1.597619e-002 -7.023075e-003 5.885308e-003 5.424274e-003 1.941597e-003 3.903443e-003 -1.369219e-002
<VARIANCE> 25
 1.552904e+000 1.987672e+000 3.306020e+000 4.323781e+000 5.073438e+000 5.807185e+000 6.031455e+000 6.663514e+000 6.868353e+000 6.838875e+000 6.762815e+000 6.606750e+000 7.862657e-002 1.577209e-001 2.634173e-001 3.572285e-001 4.065790e-001 5.024794e-001 5.865595e-001 6.275490e-001 6.662517e-001 7.058698e-001 6.877873e-001 6.729833e-001 3.584783e-002
<GCONST> 5.026556e+001
<STATE> 3
~s "silst"
<STATE> 4
<MEAN> 25
 -1.788109e+000 -1.433582e+000 -2.352061e+000 -6.166335e-001 -1.260931e+000 3.454542e-001 -5.232972e-001 -2.585391e-001 4.958032e-001 9.543341e-001 6.476579e-001 1.184938e-001 1.123944e-001 -1.158002e-002 -1.549454e-002 -1.515367e-001 -2.204583e-002 3.464669e-002 -1.476080e-004 3.908378e-002 4.304549e-003 -6.606899e-002 2.952396e-002 -2.301915e-002 1.248917e-001
<VARIANCE> 25
 2.315127e+001 1.813085e+001 2.470066e+001 2.143534e+001 1.779303e+001 1.378176e+001 1.312879e+001 1.067550e+001 9.427994e+000 1.256272e+001 9.780247e+000 8.976900e+000 5.413569e-001 6.317129e-001 1.142631e+000 1.287950e+000 1.042477e+000 1.098995e+000 1.152386e+000 8.898268e-001 9.114684e-001 1.056139e+000 8.415595e-001 8.213421e-001 3.046293e-001
<GCONST> 7.583125e+001
<TRANSP> 5
 0.000000e+000 1.000000e+000 0.000000e+000 0.000000e+000 0.000000e+000
 0.000000e+000 7.805830e-001 1.941705e-002 2.000000e-001 0.000000e+000
 0.000000e+000 0.000000e+000 9.723822e-001 2.761786e-002 0.000000e+000
 0.000000e+000 2.000000e-001 0.000000e+000 6.709183e-001 1.290817e-001
 0.000000e+000 0.000000e+000 0.000000e+000 0.000000e+000 0.000000e+000
<ENDHMM>
