\data\
ngram 1=45882

\1-grams:
-5.7800	"
-5.7800	"'"A
-5.7800	"'"Ah,
-5.7800	"'"And
-5.4790	"'"But
-5.7800	"'"Done!"
-5.7800	"'"Gone!
-5.7800	"'"Ha,
-5.4790	"'"He
-5.7800	"'"Hullo,
-5.3029	"'"I
-5.4790	"'"I'd
-5.7800	"'"I'll
-5.7800	"'"I'm
-5.4790	"'"I've
-5.7800	"'"It's
-5.7800	"'"Just
-5.7800	"'"Mr.
-5.7800	"'"No."
-5.7800	"'"Oh,
-5.7800	"'"On
-5.7800	"'"Only
-5.7800	"'"Right
-5.4790	"'"So
-5.7800	"'"So!"
-5.7800	"'"The
-5.7800	"'"Then
-5.7800	"'"Very
-5.7800	"'"Victor,
-5.7800	"'"We
-5.7800	"'"Well,
-5.3029	"'"What
-5.4790	"'"You
-5.7800	"'"You're
-5.7800	"'136
-5.7800	"'16
-5.0019	"'A
-5.4790	"'About
-5.7800	"'Absolute
-5.7800	"'Absolutely.'
-5.4790	"'After
-5.3029	"'Ah!'
-4.7386	"'Ah,
-5.7800	"'Alas,
-5.3029	"'All
-5.7800	"'Almost
-5.7800	"'Ample.'
-5.7800	"'An
-4.3998	"'And
-5.7800	"'Answer
-5.4790	"'Any
-5.4790	"'Anything
-5.7800	"'Apoplexy.
-5.4790	"'Are
-5.7800	"'Arthur
-5.7800	"'Arthur!'
-5.7800	"'As
-5.7800	"'Ask
-5.1779	"'At
-5.7800	"'Ay,
-5.7800	"'Be
-5.7800	"'Because
-5.7800	"'Beg
-5.7800	"'Black
-5.7800	"'Bless
-5.7800	"'Breckinridge,
-5.7800	"'Brunton,
-4.7800	"'But
-5.7800	"'But,
-5.7800	"'But,'
-5.4790	"'By
-5.3029	"'Can
-5.7800	"'Cause
-5.4790	"'Certainly
-5.3029	"'Certainly,'
-5.7800	"'Come!
-5.1779	"'Come,
-5.7800	"'Consider,
-5.7800	"'D'you
-5.7800	"'Danger
-5.3029	"'Dear
-5.7800	"'Death,'
-5.7800	"'December
-5.7800	"'Did
-5.0810	"'Do
-5.7800	"'Does
-5.4790	"'Don't
-5.7800	"'Entirely.'
-5.7800	"'Exactly.
-5.7800	"'Excuse
-5.7800	"'F.H.M.'
-5.7800	"'Five
-5.0019	"'For
-5.7800	"'Fore
-5.7800	"'Friends,'
-5.7800	"'Fritz!
-5.4790	"'From
-5.7800	"'Garrideb,
-5.7800	"'God
-5.7800	"'Gone
-5.7800	"'Good!
-5.7800	"'Good-evening,'
-5.7800	"'Ha,
-5.7800	"'Half
-5.7800	"'Hampshire.
-5.7800	"'Harold,'
-5.0019	"'Have
-4.8769	"'He
-5.3029	"'Here
-5.4790	"'High
-5.7800	"'His
-5.7800	"'Holdernesse,
-4.8258	"'How
-5.7800	"'How?'
-5.7800	"'Hudson
-5.7800	"'Hum!'
-3.8355	"'I
-5.4790	"'I'll
-4.8258	"'If
-5.7800	"'Impossible!'
-5.1779	"'In
-5.1779	"'Is
-4.2615	"'It
-4.9349	"'It's
-5.7800	"'Jack,'
-5.7800	"'Jephro
-5.7800	"'Jephro,'
-5.7800	"'Keep
-5.7800	"'Kindly
-5.7800	"'Ku
-5.7800	"'L'homme
-5.7800	"'Langur,'"
-5.7800	"'Lately
-5.4790	"'Let
-5.7800	"'Listen
-5.7800	"'Listen,'
-5.1779	"'Look
-5.4790	"'Lord
-5.7800	"'Lost,
-5.7800	"'Made
-5.7800	"'Many
-5.7800	"'Mary.'
-5.7800	"'May
-5.7800	"'Milano.'
-5.7800	"'Miss
-5.7800	"'Most
-5.0019	"'Mr.
-4.7008	"'My
-5.7800	"'Neither
-5.7800	"'Never
-5.7800	"'Never!'
-5.7800	"'Never,'
-5.7800	"'Never.'
-5.7800	"'Next
-4.9349	"'No
-4.7386	"'No,
-5.4790	"'No,'
-5.4790	"'No;
-5.7800	"'None
-5.7800	"'Nonsense!'
-5.7800	"'Nonsense,
-5.7800	"'North
-4.8769	"'Not
-5.7800	"'Nothing
-5.7800	"'Nothing.
-5.7800	"'Now
-5.7800	"'Oct.
-5.3029	"'Of
-5.7800	"'Oh!
-4.5759	"'Oh,
-5.3029	"'Oh,'
-5.0810	"'On
-5.3029	"'One
-5.0810	"'Only
-5.4790	"'Or
-5.7800	"'Over
-5.7800	"'Perfectly.'
-5.7800	"'Perhaps
-5.7800	"'Perhaps,
-5.7800	"'Photography
-5.4790	"'Pon
-5.7800	"'Pooh!'
-5.7800	"'Pooh,
-5.7800	"'Populus
-5.7800	"'Possibly
-5.7800	"'Pray,
-5.4790	"'Precisely
-5.7800	"'Precisely.
-5.7800	"'Precisely.'
-5.7800	"'Pretty
-5.7800	"'Put
-4.8258	"'Quite
-5.7800	"'Rache,'
-5.4790	"'Really,
-5.4790	"'Right
-5.7800	"'See
-5.7800	"'Seven
-5.4790	"'She
-5.7800	"'Show
-5.3029	"'So
-5.7800	"'So,
-5.4790	"'So,'
-5.7800	"'Sold
-5.3029	"'Some
-5.7800	"'St.
-5.7800	"'Stolen!'
-5.7800	"'Such,
-5.4790	"'Surely
-5.7800	"'Take
-5.0810	"'Tell
-5.7800	"'Ten
-5.7800	"'Tention!"
-5.1779	"'Thank
-4.6661	"'That
-5.4790	"'That's
-4.4183	"'The
-4.7800	"'Then
-5.4790	"'Then,
-4.6039	"'There
-5.7800	"'These
-5.7800	"'They
-4.8769	"'This
-5.7800	"'This,'
-5.7800	"'Three
-5.4790	"'Tis
-5.4790	"'To
-5.7800	"'Trust
-5.1779	"'Tut,
-5.7800	"'Under
-5.7800	"'Undoubtedly
-5.7800	"'Until
-5.0019	"'Very
-5.7800	"'Wandsworth
-4.9349	"'We
-5.7800	"'We'll
-5.7800	"'Well
-4.3650	"'Well,
-4.9349	"'Well,'
-5.7800	"'Well?'
-4.3821	"'What
-5.3029	"'What,
-5.7800	"'Whatever
-5.3029	"'When
-4.7386	"'Where
-5.4790	"'Which
-5.3029	"'Who
-5.7800	"'Whose
-5.3029	"'Why
-4.8769	"'Why,
-5.7800	"'Why,'
-5.7800	"'Within
-5.7800	"'Wonderful!'
-5.7800	"'Would
-4.5247	"'Yes,
-5.3029	"'Yes,'
-5.7800	"'Yes.
-5.0810	"'Yes.'
-4.0557	"'You
-5.7800	"'You're
-5.1779	"'Your
-5.4790	"'Yours
-5.7800	"'journeys
-5.7800	"'the
-5.7800	"--diverting
-5.7800	"--in
-5.7800	"...
-5.7800	"13,
-5.7800	"1742."
-5.7800	"1883."
-5.7800	"1884."
-5.7800	"3.30
-3.5705	"A
-5.7800	"A.
-5.7800	"ARAT,"
-5.7800	"Abbey
-4.5759	"About
-5.7800	"Absolute
-5.4790	"Absolutely
-5.7800	"Absolutely!"
-5.7800	"Absolutely,"
-5.3029	"Absolutely."
-5.7800	"Absolutely?"
-5.7800	"Absurdly
-5.7800	"Adelbert
-5.7800	"Admirable!"
-5.7800	"Admirable,
-5.7800	"Aeroplanes,"
-4.9349	"After
-5.7800	"Against
-5.3029	"Ah
-4.4376	"Ah!
-4.7386	"Ah!"
-3.8992	"Ah,
-5.4790	"Ah,"
-5.7800	"Aha!
-5.7800	"Ain't
-5.7800	"Air-guns,
-5.4790	"Alas!
-5.7800	"Alas!"
-5.7800	"Alas,
-5.7800	"Aldgate,
-5.7800	"Alec."
-5.7800	"Alice
-4.2615	"All
-5.7800	"Alone
-5.7800	"Already,
-5.7800	"Already?"
-5.7800	"Altamont
-5.7800	"Always!"
-5.7800	"Always."
-5.4790	"Am
-5.7800	"Amen!
-5.4790	"American
-5.7800	"American,
-5.7800	"Ames,
-5.7800	"Ames,"
-5.3029	"Among
-5.7800	"Ample."
-4.5759	"An
-3.2249	"And
-5.1779	"And,
-5.4790	"Another
-4.6339	"Any
-5.7800	"Anybody
-5.4790	"Anyhow,
-5.3029	"Anyone
-4.6339	"Anything
-5.4790	"Apart
-5.7800	"Apparently
-5.7800	"Apparently,"
-5.7800	"Appearances
-4.5496	"Are
-5.7800	"Aren't
-5.3029	"Arrest
-5.3029	"Arthur
-4.1779	"As
-5.3029	"Ask
-4.1568	"At
-5.7800	"Athens,
-5.7800	"Au
-5.7800	"Awake,
-5.4790	"Away
-5.7800	"Away,
-4.8769	"Ay,
-5.7800	"Ay,"
-5.7800	"Aye,
-5.7800	"BALLARAT."
-5.7800	"Bad!
-5.7800	"Bad!"
-5.7800	"Baker
-5.7800	"Baldwin--he
-5.7800	"Bannister
-5.7800	"Baron
-5.4790	"Barrymore
-5.4790	"Bartholomew
-5.4790	"Baskerville
-5.3029	"Be
-5.7800	"Bear
-5.7800	"Beating
-5.7800	"Beautiful!
-4.0241	"Because
-5.4790	"Because,
-4.8258	"Before
-5.7800	"Beg
-5.7800	"Besides
-5.4790	"Besides,
-5.4790	"Better
-5.7800	"Between
-5.7800	"Beyond
-5.7800	"Big
-5.7800	"Birdy
-5.7800	"Birlstone!
-5.7800	"Bite
-5.4790	"Bless
-5.7800	"Blessington
-5.7800	"Blood."
-5.7800	"Bloodhounds--sleuth-hounds--"
-5.7800	"Bluff,
-5.7800	"Boats
-5.7800	"Bogs
-5.7800	"Boscombe
-5.3029	"Both
-5.7800	"Bought."
-5.7800	"Boys,"
-5.7800	"Bradshaw!"
-5.7800	"Brag
-5.7800	"Brandy!
-5.7800	"Bravo,
-5.7800	"Breckinridge
-5.7800	"Brenda
-5.7800	"Briefly,"
-5.7800	"Brilliant
-5.7800	"Brilliant,
-5.7800	"Bring
-5.7800	"Brixton
-5.0810	"Brother
-5.7800	"Burglary!
-5.7800	"Burglary!"
-3.2722	"But
-4.7800	"But,
-3.9167	"By
-5.7800	"C.P.R.,"
-5.7800	"Cadogen
-5.3029	"Call
-4.3486	"Can
-5.3029	"Can't
-5.7800	"Capital
-5.4790	"Capital!
-5.1779	"Capital!"
-5.7800	"Capital,
-5.4790	"Captain
-5.7800	"Carried
-5.7800	"Caught
-4.8258	"Certainly
-4.5496	"Certainly,
-5.1779	"Certainly,"
-5.7800	"Certainly--but
-5.1779	"Certainly.
-4.9349	"Certainly."
-5.7800	"Chapter
-5.7800	"Charing
-5.7800	"Check
-5.7800	"Cheeseman's,
-5.7800	"Children,
-5.7800	"Circumstantial
-5.7800	"Clearly
-5.7800	"Closed
-5.7800	"Clutched,
-5.7800	"Coarse
-5.7800	"Cocks
-5.0810	"Colonel
-5.7800	"Colossal!"
-5.7800	"Colour
-5.7800	"Column!"
-4.3821	"Come
-4.4376	"Come,
-5.4790	"Come,"
-5.7800	"Come--come,
-5.7800	"Coming
-5.7800	"Commissionaire,
-5.7800	"Commonplace,"
-5.7800	"Confirms
-5.7800	"Confound
-5.7800	"Consider
-5.7800	"Consider,"
-5.7800	"Considering
-5.7800	"Contagious
-5.7800	"Convinced
-5.7800	"Cooee!"
-5.7800	"Copenhagen"
-4.6661	"Could
-5.3029	"Couldn't
-5.4790	"Count
-5.7800	"Criminal
-5.7800	"Criminals!"
-5.7800	"Cro-Magnon"
-5.7800	"Cruise
-5.7800	"Curious
-5.7800	"Curious,
-5.4790	"Curse
-5.7800	"Cut
-5.7800	"Cyanea!
-5.7800	"Cyanea!"
-5.7800	"D'ye
-5.4790	"D'you
-5.7800	"Damn
-5.7800	"Damp
-5.7800	"Danger
-5.7800	"Danger!
-5.7800	"Dangerous,
-5.3029	"Dark
-5.7800	"Data!
-5.7800	"Day
-5.7800	"De
-5.7800	"Dead,
-5.7800	"Dead?
-4.2615	"Dear
-5.7800	"Dear,
-5.7800	"Dearest
-5.7800	"Death
-5.7800	"Deduce
-5.7800	"Deep."
-5.7800	"Deeply
-5.7800	"Delay
-5.7800	"Deserted
-5.7800	"Devil's-foot
-5.7800	"Deviltry,
-3.9539	"Did
-5.0019	"Didn't
-5.7800	"Different
-5.7800	"Dirty-looking
-5.7800	"Dirty?"
-5.7800	"Disease?"
-5.7800	"Dispatched
-4.0092	"Do
-4.7008	"Does
-4.3650	"Don't
-5.7800	"Don't,
-5.7800	"Done
-5.7800	"Dorak--a
-5.7800	"Douglas!"
-5.7800	"Down
-4.8258	"Dr.
-5.7800	"Drive
-5.7800	"Driving
-5.4790	"Drop
-5.7800	"Dumb-bell--there's
-5.7800	"Dundee,
-5.7800	"E"
-5.4790	"Each
-5.4790	"Early
-5.7800	"Easier
-5.4790	"Easy,
-5.7800	"Edith
-5.7800	"Edith,
-5.7800	"Education
-5.7800	"Education,
-5.7800	"Eglow,
-5.7800	"Egypt,"
-5.4790	"Eh?
-5.4790	"Eight
-5.7800	"Either
-5.7800	"Elementary,"
-5.7800	"Elman.
-5.3029	"Eminent
-5.7800	"Employ
-5.7800	"Encyclopaedia
-5.7800	"Encyclopaedia"
-5.7800	"Engage
-5.7800	"Engaged."
-5.7800	"English,"
-5.7800	"Enormous."
-5.4790	"Enough
-5.7800	"Entirely,
-5.4790	"Entirely."
-5.7800	"Equally
-5.7800	"Especially
-5.0810	"Even
-4.8769	"Every
-5.7800	"Everyone
-5.4790	"Everything
-5.7800	"Evidently,"
-5.7800	"Exactly
-5.1779	"Exactly!
-5.3029	"Exactly!"
-4.8258	"Exactly,
-4.9349	"Exactly,"
-5.7800	"Exactly--one
-4.2485	"Exactly.
-4.6039	"Exactly."
-5.4790	"Exactly;
-5.7800	"Exceedingly
-4.8769	"Excellent!
-4.7008	"Excellent!"
-4.7386	"Excellent,
-5.4790	"Excellent,"
-5.0810	"Excellent.
-5.7800	"Excellent."
-5.1779	"Except
-4.7008	"Excuse
-5.7800	"Expecting
-5.7800	"Experience,"
-5.7800	"Extremely
-5.7800	"Facts
-5.7800	"Failure,
-5.7800	"Fairly
-5.3029	"Faith,
-5.7800	"Fancy
-5.7800	"Farewell,
-5.7800	"Farintosh,"
-5.7800	"Fastened;
-5.7800	"Fear
-5.7800	"Feeling
-5.7800	"Fetch
-5.7800	"Finally,
-5.7800	"Finally:
-5.7800	"Fine
-5.7800	"Fire
-5.0810	"Fire!"
-5.1779	"First
-5.0019	"Five
-5.4790	"Folk
-5.7800	"Followed!
-5.4790	"Fool
-5.7800	"Footprints."
-5.7800	"Footprints?"
-4.1779	"For
-5.7800	"Fords,"
-5.7800	"Forget
-5.7800	"Forgive
-5.4790	"Fortune
-5.4790	"Found
-5.7800	"Found"
-5.7800	"Frank
-5.4790	"Frankly,
-5.7800	"Fred
-5.7800	"Frequently,
-5.7800	"Frequently."
-5.7800	"Friday!"
-5.7800	"Friend
-5.7800	"Frighten!"
-4.4183	"From
-5.7800	"Funny,
-5.7800	"G"
-5.7800	"G.
-5.7800	"GLORIA
-5.7800	"Game
-5.7800	"Generally
-5.4790	"Gentlemen,"
-5.7800	"Gently,
-5.7800	"Georgian,
-4.8258	"Get
-5.7800	"Giuseppe
-4.7008	"Give
-5.7800	"Glad
-5.7800	"Gloria
-5.7800	"Glorious!"
-5.7800	"Gloves,"
-4.8769	"Go
-5.7800	"Go!
-4.5759	"God
-5.7800	"God's
-5.7800	"Godfrey
-5.7800	"Going
-5.7800	"Gone
-5.7800	"Gone,
-4.1672	"Good
-5.3029	"Good!
-5.4790	"Good!"
-5.1779	"Good,
-5.7800	"Good,"
-5.7800	"Good-bye,
-5.4790	"Good-bye,"
-5.3029	"Good-day,
-5.3029	"Good-evening,
-5.7800	"Good-evening.
-5.7800	"Good-mornin',
-5.3029	"Good-morning,
-5.3029	"Good-night,
-5.7800	"Good-nights"
-5.7800	"Good.
-5.7800	"Gosh,
-5.4790	"Got
-5.7800	"Government
-5.7800	"Granting
-5.7800	"Grave
-5.3029	"Great
-5.7800	"Great!
-5.7800	"Great!"
-5.7800	"Gregory,
-5.4790	"Gregson
-5.7800	"Guess
-5.7800	"Gum,"
-5.7800	"H"
-5.7800	"H.
-4.5496	"Ha!
-5.1779	"Ha!"
-5.3029	"Ha,
-4.7386	"Had
-5.3029	"Hadn't
-5.0810	"Half
-5.7800	"Half-past
-5.0810	"Halloa!
-5.4790	"Halloa!"
-5.4790	"Halloa,
-5.7800	"Ham
-5.7800	"Hang
-5.7800	"Harbour-defences,"
-4.8769	"Hardly
-5.7800	"Harpooner?"
-4.7008	"Has
-5.7800	"Hate
-3.8824	"Have
-4.8769	"Having
-3.4034	"He
-5.7800	"He!
-5.7800	"He'd
-5.0810	"He'll
-4.5013	"He's
-5.7800	"Head-keeper
-5.7800	"Heap
-5.7800	"Heaven
-5.7800	"Heavens,
-5.7800	"Heidelberg,"
-5.7800	"Hell,
-5.7800	"Help
-5.7800	"Help!
-5.7800	"Hence
-5.7800	"Henderson,"
-5.1779	"Her
-4.1779	"Here
-5.4790	"Here!
-5.0019	"Here's
-5.1779	"Here,
-5.4790	"Here?"
-5.7800	"Highly
-5.7800	"Hill
-4.2485	"His
-5.7800	"Hist!"
-5.4790	"Hold
-5.7800	"Holloway
-5.7800	"Holmes
-4.9349	"Holmes!"
-5.3029	"Holmes,
-4.9349	"Holmes,"
-5.7800	"Honestly,
-5.7800	"Hoped
-5.7800	"Hopkins
-5.7800	"Horrible
-5.7800	"Hotel
-5.7800	"House
-3.6497	"How
-5.3029	"How's
-5.3029	"How,
-5.7800	"How?"
-5.1779	"However,
-5.3029	"Hullo!
-5.3029	"Hullo!"
-5.7800	"Hullo,
-4.5496	"Hum!
-5.0810	"Hum!"
-5.7800	"Human
-5.7800	"Hunter
-5.7800	"Hurrah!"
-5.7800	"Hurry
-5.3029	"Hush!"
-5.7800	"Hush,
-2.5306	"I
-4.7008	"I'd
-4.0396	"I'll
-4.1366	"I'm
-4.0898	"I've
-5.4790	"I,
-5.7800	"Ian
-5.7800	"Idiot
-3.6796	"If
-5.7800	"If,
-5.7800	"Ikey
-5.7800	"Imitated."
-5.7800	"Immediately
-5.7800	"Imperial
-5.7800	"Important
-5.7800	"Important!"
-5.4790	"Impossible!"
-5.7800	"Impossible,
-5.7800	"Impossible,"
-3.8210	"In
-5.7800	"Incredible
-5.7800	"Indeed
-4.8769	"Indeed!
-5.1779	"Indeed!"
-4.7008	"Indeed,
-5.7800	"Indeed,"
-5.3029	"Indeed.
-5.7800	"Indeed?
-5.7800	"Indirectly
-5.7800	"Inquiries
-5.7800	"Insanity
-5.3029	"Inspector
-5.7800	"Instead
-5.7800	"Interested,
-5.7800	"Interesting,
-5.7800	"Into
-5.7800	"Ireland,"
-5.4790	"Irene
-5.7800	"Irene's
-3.9108	"Is
-5.3029	"Isn't
-3.0349	"It
-3.8115	"It's
-5.7800	"It--it's
-5.7800	"Its
-5.7800	"Ivy
-5.4790	"J.
-5.7800	"J.H.N."
-5.7800	"Jabez
-5.4790	"Jack
-5.7800	"Jacky
-5.7800	"Jacky!"
-5.7800	"Jacobs,
-5.7800	"Jagged
-5.1779	"James
-5.7800	"Jean
-5.7800	"Jim
-5.1779	"John
-5.7800	"John,
-5.7800	"Johnson
-5.7800	"Jonathan
-5.7800	"Joseph!"
-5.7800	"Josiah
-5.7800	"Journeys
-5.7800	"Judging
-5.7800	"June
-4.3998	"Just
-5.7800	"Justice!"
-5.4790	"Keep
-5.7800	"Kensington
-5.7800	"Kicked
-5.7800	"Kidnapping
-5.7800	"Kill
-5.3029	"Kindly
-5.7800	"King's
-5.7800	"Kiss
-5.7800	"Knocking
-5.7800	"Know
-5.7800	"L.
-5.7800	"Laburnum
-5.1779	"Lady
-5.1779	"Last
-5.7800	"Late
-5.7800	"Later,
-5.7800	"Later.--It
-5.7800	"Lattice-paned,
-5.1779	"Leave
-5.7800	"Lecoq
-5.7800	"Left
-5.7800	"Lend
-5.7800	"Leonardo
-5.7800	"Leonardo,
-5.7800	"Leprosy."
-5.7800	"Lestrade
-5.7800	"Lestrade."
-4.2359	"Let
-5.4790	"Let's
-5.7800	"Lie
-5.7800	"Light-houses,
-5.4790	"Listen
-5.7800	"Listen,
-5.7800	"Little
-5.7800	"Lodge
-5.7800	"London
-4.3998	"Look
-5.7800	"Look!"
-5.7800	"Lookin'
-5.4790	"Looking
-5.7800	"Lor'
-5.1779	"Lord
-5.7800	"Lost.--Whereas
-5.7800	"Luckily
-5.7800	"Lumbago,
-5.4790	"Lynch
-5.7800	"Madam
-5.7800	"Madam,
-5.7800	"Madam,"
-5.7800	"Madame,"
-5.7800	"Madness,
-5.7800	"Major
-5.7800	"Make
-5.7800	"Making
-5.7800	"Man
-4.8769	"Man,
-5.7800	"Man,"
-5.1779	"Many
-5.7800	"March,
-5.7800	"Married
-5.7800	"Married!
-5.7800	"Married,
-5.7800	"Master
-5.7800	"Matilda
-5.7800	"Matter
-4.5247	"May
-4.7008	"Maybe
-5.7800	"Maybe,
-5.7800	"McMurdo."
-5.7800	"Me!"
-5.7800	"Mean?
-5.3029	"Meaning
-5.7800	"Meanwhile,
-5.7800	"Meanwhile,"
-5.7800	"Mercer
-5.7800	"Merely
-5.7800	"Meyers,
-5.7800	"Middlesex
-5.1779	"Might
-5.7800	"Mighty
-5.7800	"Mind
-5.7800	"Mine
-5.7800	"Misfortunes
-5.0019	"Miss
-5.7800	"Missing,"
-5.7800	"Mister,
-5.7800	"Monday
-5.7800	"Morally,
-5.7800	"Mordecai
-5.7800	"More
-5.7800	"Moriarty
-5.7800	"Moriarty."
-5.7800	"Moriarty?"
-5.7800	"Morris
-5.7800	"Mortimer
-5.7800	"Mortimer,
-4.7386	"Most
-5.7800	"Mother's
-5.7800	"Move
-4.0557	"Mr.
-4.6339	"Mrs.
-5.7800	"Murder!"
-5.7800	"Murder,
-5.7800	"Murdered?"
-5.7800	"Must
-3.5152	"My
-5.7800	"My,
-5.7800	"Mysterious
-5.7800	"Nail-scissors,"
-5.7800	"Name
-5.4790	"Naturally,
-5.7800	"Naturally."
-5.4790	"Naval
-5.3029	"Nay,
-5.7800	"Neanderthal,"
-5.7800	"Near
-5.7800	"Nearer
-5.3029	"Nearly
-5.7800	"Need
-5.1779	"Neither
-5.7800	"Neither,
-5.7800	"Neolithic
-4.5759	"Never
-5.7800	"Never!"
-5.7800	"Never,
-5.7800	"Never,"
-5.0019	"Never."
-5.7800	"Neville.
-5.4790	"Next
-5.7800	"Nigh
-5.7800	"Nine
-3.9227	"No
-5.7800	"No"
-3.4089	"No,
-5.1779	"No,"
-5.7800	"No--I
-5.7800	"No--except
-5.7800	"No--or,
-4.7386	"No.
-4.2359	"No."
-5.4790	"No:
-4.2886	"No;
-5.4790	"No?
-5.7800	"No?"
-4.6339	"None
-5.4790	"None,
-5.7800	"None,"
-5.3029	"None.
-4.6661	"None."
-5.4790	"None;
-5.7800	"Nonsense!
-4.8769	"Nor
-3.9349	"Not
-4.3029	"Nothing
-5.0810	"Nothing,
-5.7800	"Nothing,"
-5.7800	"Nothing.
-5.0019	"Nothing."
-5.4790	"Nothing?"
-5.7800	"Noticed
-5.7800	"Nous
-4.2237	"Now
-5.4790	"Now!"
-4.0988	"Now,
-5.4790	"Now,"
-5.7800	"Now--within
-5.7800	"Nursed
-5.7800	"Obviously
-5.7800	"Occasionally."
-4.1465	"Of
-5.7800	"Official
-5.0810	"Oh
-4.9349	"Oh!
-5.7800	"Oh!"
-3.5897	"Oh,
-5.0810	"Old
-4.1268	"On
-5.7800	"On,
-5.7800	"On--the--floor--of--her--wardrobe."
-5.3029	"Once
-4.0988	"One
-5.7800	"One's
-5.7800	"One?"
-4.3328	"Only
-5.7800	"Open
-4.7008	"Or
-5.7800	"Oscillation
-5.4790	"Other
-4.5247	"Our
-5.7800	"Our?"
-5.4790	"Out
-5.7800	"Over
-5.7800	"Owe!"
-5.7800	"P,"
-5.7800	"PERICOLO--pericolo--eh,
-5.7800	"Painful,
-5.7800	"Pals
-5.7800	"Pangs
-5.7800	"Pass
-5.7800	"Pass,
-5.7800	"Patent-leathers
-5.7800	"Patience!
-5.7800	"Patience,
-5.7800	"Patrick
-5.7800	"Peculiar--that
-5.7800	"Penang
-5.7800	"Pending
-5.7800	"Pennsylvania
-5.7800	"Percy
-5.4790	"Perfectly
-5.7800	"Perfectly.
-5.4790	"Perfectly."
-4.2359	"Perhaps
-5.7800	"Perhaps,
-5.7800	"Perhaps,"
-5.7800	"Personally
-5.7800	"Philippe
-5.7800	"Phosphorus,"
-5.7800	"Pile
-5.7800	"Pipes
-5.7800	"Plain
-5.7800	"Please
-5.7800	"Please,
-5.7800	"Plenty
-5.7800	"Plumb
-5.7800	"Plural!"
-5.7800	"Points,"
-5.7800	"Poison!"
-5.7800	"Poison,"
-5.7800	"Pompey
-5.7800	"Pooh!
-5.7800	"Pooh,
-5.4790	"Poor
-5.7800	"Porky
-5.7800	"Porlock,
-5.7800	"Portsmouth
-5.7800	"Positive!"
-5.7800	"Possess
-5.0810	"Possibly
-5.4790	"Possibly,
-5.7800	"Possibly."
-5.7800	"Post
-5.7800	"Posted
-4.2485	"Pray
-5.4790	"Pray,
-5.0019	"Precisely
-5.7800	"Precisely,"
-4.8769	"Precisely.
-5.0810	"Precisely."
-5.7800	"Preserve
-5.7800	"Presuming
-5.4790	"Pretty
-5.7800	"Prints
-5.7800	"Priory
-5.7800	"Probably
-5.7800	"Proceed,
-5.7800	"Proceed,"
-5.7800	"Proud
-5.4790	"Prove
-5.7800	"Prussic
-5.7800	"Pshaw!
-5.4790	"Pshaw,
-5.7800	"Pull
-5.7800	"Pure
-5.7800	"Purely
-4.8769	"Put
-5.4790	"Queer
-5.7800	"Queer,
-5.0810	"Quick,
-5.7800	"Quiet,
-4.0724	"Quite
-5.4790	"Quite."
-5.7800	"Radix
-5.7800	"Ralph,
-5.7800	"Ralph,"
-5.4790	"Rather
-5.4790	"Read
-5.7800	"Really
-5.4790	"Really!
-4.8258	"Really,
-5.7800	"Really.
-5.7800	"Redskins"
-5.3029	"Reginald
-5.7800	"Reign
-5.7800	"Remained
-5.3029	"Remarkable!"
-5.4790	"Remarkable,
-5.7800	"Remarkable--most
-5.7800	"Remember
-5.7800	"Remember,
-5.7800	"Results
-5.7800	"Retired
-5.7800	"Return
-5.7800	"Right
-5.7800	"Right!"
-5.7800	"Right,
-5.7800	"Robbed?"
-5.7800	"Rochester
-5.7800	"Rosythe,"
-5.7800	"Royal
-5.7800	"Rubbish,
-5.7800	"Run
-5.7800	"Running
-5.7800	"S"
-5.7800	"S'elp
-5.7800	"S.
-5.7800	"Sad
-5.7800	"Saddle
-5.4790	"Sally
-5.7800	"Same
-5.7800	"Sarah,"
-5.7800	"Sarasate
-5.7800	"Satan
-5.7800	"Save
-5.7800	"Save,
-5.7800	"Say
-5.0810	"Say,
-5.7800	"Scott
-5.7800	"Scowrers!
-5.7800	"Search
-5.7800	"Securities!
-4.5496	"See
-5.7800	"See!"
-5.4790	"See,
-5.7800	"See,"
-5.7800	"Seeing
-5.4790	"Seems
-5.7800	"Seen
-5.4790	"Selden
-5.7800	"Self-protection
-5.4790	"Send
-5.7800	"Served
-5.7800	"Settled
-5.0810	"Seven
-5.7800	"Seven!"
-5.4790	"Several
-5.7800	"Several."
-4.7386	"Shall
-4.0557	"She
-5.7800	"She's
-5.4790	"Sherlock
-5.7800	"Shillings
-5.0810	"Should
-5.0810	"Show
-5.7800	"Showing
-5.7800	"Signals?"
-5.7800	"Silver
-5.4790	"Simple!"
-5.4790	"Simply
-5.0810	"Since
-5.7800	"Singular!
-5.7800	"Singular,
-4.7800	"Sir
-5.1779	"Sir,
-5.3029	"Sit
-5.3029	"Six
-5.7800	"Small
-5.7800	"Small,
-5.7800	"Smart
-5.7800	"Smart--very
-5.7800	"Smith
-5.7800	"Snake-catcher
-5.7800	"Snap
-3.8769	"So
-5.3029	"So,
-5.7800	"So,"
-5.7800	"Soames
-5.7800	"Sold
-4.6339	"Some
-5.4790	"Somebody
-4.8258	"Someone
-5.1779	"Something
-5.7800	"Sometimes
-5.7800	"Sooner
-5.7800	"Sophy
-5.3029	"Sorry
-5.7800	"Sorry,
-5.7800	"Sound
-5.7800	"South
-5.7800	"Spare
-5.7800	"Sparking
-5.7800	"Speak
-5.7800	"Speaking
-5.7800	"Splendid!
-5.7800	"Splendid!"
-5.7800	"Splendid,
-5.3029	"Stand
-5.7800	"Stangerson
-5.7800	"Stanley
-5.7800	"Stapleton
-5.7800	"Starving.
-5.7800	"State
-5.7800	"Steady
-5.7800	"Step
-5.0019	"Still
-5.0019	"Still,
-5.7800	"Stoke
-5.7800	"Stolen,
-5.7800	"Stolen."
-5.4790	"Stop
-5.7800	"Stop!
-5.7800	"Strand
-5.7800	"Strange!"
-5.7800	"Strange,
-5.7800	"Strange,"
-5.7800	"Strange--remarkable,"
-5.7800	"Strong
-5.7800	"Study
-5.7800	"Subject
-5.7800	"Subtle
-5.0810	"Such
-5.7800	"Suddenly
-5.4790	"Suddenly,
-5.7800	"Suggestive!"
-5.7800	"Sun
-5.1779	"Suppose
-5.7800	"Supposing
-5.3029	"Sure
-5.7800	"Sure!"
-4.6039	"Sure,
-5.7800	"Sure,"
-5.7800	"Sure.
-5.4790	"Sure."
-4.3328	"Surely
-5.7800	"Surely!"
-5.7800	"Surely,
-5.3029	"Surely,"
-5.7800	"Surely.
-5.7800	"Susan
-5.7800	"Susan!"
-5.7800	"Syracusan--of
-5.7800	"Tadpole"
-4.7008	"Take
-5.7800	"Talk
-5.7800	"Tall?
-5.7800	"Tangey,
-5.7800	"Tavernier,
-5.7800	"Technically,
-4.7800	"Tell
-5.3029	"Ten
-5.7800	"Terrible!
-5.7800	"Terse
-5.7800	"Test
-5.7800	"Texas,
-4.0396	"Thank
-5.7800	"Thanks.
-3.4855	"That
-3.9412	"That's
-4.9349	"That,
-5.4790	"That,"
-3.1526	"The
-5.4790	"Their
-3.5625	"Then
-4.4790	"Then,
-5.7800	"Theories
-3.4537	"There
-5.7800	"There!
-5.7800	"There!"
-4.2886	"There's
-4.9349	"There,
-5.7800	"There,"
-4.4376	"These
-5.7800	"These,"
-3.8935	"They
-5.7800	"They'll
-5.7800	"They're
-5.3029	"They've
-5.7800	"Thick
-5.7800	"Thick!
-5.3029	"Think
-5.7800	"Third
-5.7800	"Thirty
-3.5897	"This
-5.3029	"This,
-5.0810	"Those
-5.4790	"Though
-5.7800	"Threatens
-5.0810	"Three
-5.4790	"Through
-5.7800	"Throw
-5.7800	"Thrown
-5.7800	"Tiger."
-5.7800	"Tiles
-5.7800	"Tired-looking
-3.9947	"To
-5.7800	"To-day
-5.7800	"To-day,
-5.7800	"To-day?"
-5.1779	"To-morrow
-5.7800	"To-morrow's
-5.7800	"To-night.
-5.7800	"Tobacco
-5.7800	"Tobias
-5.3029	"Toby
-5.7800	"Told
-5.7800	"Tonga--for
-4.9349	"Too
-5.7800	"Top
-5.7800	"Tragic,
-5.7800	"Travellers
-5.7800	"Trevor
-5.7800	"Tropical
-5.3029	"True
-5.3029	"Try
-5.7800	"Trying
-5.7800	"Tuesday
-5.7800	"Turn
-5.0019	"Tut!
-4.8258	"Tut,
-5.7800	"Tut-tut!
-5.7800	"Tuxbury
-5.7800	"Twelve
-5.7800	"Twenty
-5.7800	"Twenty-four
-5.7800	"Twenty-nine
-5.7800	"Twenty-two
-5.7800	"Twice."
-4.7800	"Two
-5.7800	"Un
-5.4790	"Under
-5.7800	"Underneath
-5.4790	"Undoubtedly
-5.1779	"Undoubtedly.
-5.3029	"Undoubtedly."
-5.3029	"Unfortunately,
-5.7800	"Uniform
-5.0810	"Unless
-5.7800	"Unquestionably
-5.7800	"Until
-5.7800	"Up
-4.9349	"Upon
-5.7800	"Using
-5.7800	"V.
-5.4790	"Vell,
-5.7800	"Vermissa
-5.7800	"Vermissa."
-5.7800	"Vernon
-3.8992	"Very
-5.7800	"Very,
-5.7800	"Very,"
-5.7800	"Very.
-5.7800	"Victor
-5.7800	"Villain!
-5.7800	"Vox
-5.7800	"Voyage
-4.7800	"Wait
-5.7800	"Walk
-5.7800	"Want!
-5.7800	"Wanted,
-5.7800	"Warm!
-4.3029	"Was
-5.7800	"Water!
-5.3029	"Watson
-4.9349	"Watson,
-5.4790	"Watson,"
-3.4476	"We
-5.3029	"We'd
-4.8258	"We'll
-5.3029	"We're
-5.1779	"We've
-5.7800	"Wedlock
-5.7800	"Welcome,
-4.9349	"Well
-5.7800	"Well!
-5.7800	"Well!"
-3.0872	"Well,
-4.6661	"Well,"
-5.7800	"Well."
-4.5759	"Well?"
-4.7800	"Were
-3.2762	"What
-4.6039	"What!
-4.9349	"What!"
-4.5013	"What's
-4.7386	"What,
-5.7800	"What--d'ye
-5.7800	"What--the
-5.7800	"What?
-5.4790	"What?"
-4.9349	"Whatever
-3.9167	"When
-5.1779	"When?"
-4.1172	"Where
-5.3029	"Where's
-5.1779	"Where,
-5.3029	"Where?"
-4.7386	"Which
-5.7800	"Which?"
-5.7800	"Whichever
-5.7800	"While
-5.7800	"White
-4.0476	"Who
-5.4790	"Who's
-5.7800	"Who--who's
-5.4790	"Who?"
-5.0810	"Whom
-5.4790	"Whose
-3.9287	"Why
-4.0019	"Why,
-5.0810	"Why,"
-5.4790	"Why?
-5.0019	"Why?"
-5.7800	"Wilful
-5.0019	"Will
-5.7800	"William
-5.7800	"Willoughby
-5.7800	"Windle
-5.7800	"Window
-5.7800	"Winwood
-4.5496	"With
-5.4790	"Within
-5.4790	"Without
-5.7800	"Without,
-5.7800	"Witness
-4.8769	"Witness:
-5.4790	"Women
-5.4790	"Won't
-5.4790	"Wonderful!
-5.0019	"Wonderful!"
-5.7800	"Wordsworth
-5.7800	"Work
-5.7800	"Working,
-5.7800	"Worse
-4.7386	"Would
-5.7800	"Write
-3.2803	"Yes,
-4.4790	"Yes,"
-5.7800	"Yes,--a
-5.7800	"Yes,--that
-4.5247	"Yes.
-4.2749	"Yes."
-4.1672	"Yes;
-5.7800	"Yes?
-5.7800	"Yes?"
-5.4790	"Yesterday
-5.7800	"Yesterday,
-5.7800	"Yesterday."
-5.7800	"Yet
-2.9848	"You
-5.3029	"You!
-5.4790	"You!"
-4.4183	"You'll
-4.4790	"You're
-4.5759	"You've
-5.7800	"You--you
-5.7800	"You?
-5.7800	"Youngish,
-3.9108	"Your
-5.1779	"Yours
-5.7800	"[This
-4.7386	"a
-5.4790	"all
-5.7800	"allow
-5.7800	"an
-4.0640	"and
-5.4790	"and,
-4.9349	"are
-5.4790	"as
-5.7800	"as-is"
-5.7800	"at
-5.0810	"because
-5.7800	"been
-4.0092	"but
-5.3029	"but,
-5.0810	"by
-5.7800	"can
-5.4790	"come
-5.7800	"congratulate
-5.7800	"consider
-5.7800	"considering
-5.4790	"could
-5.4790	"did
-5.7800	"do
-5.7800	"does
-5.7800	"else
-5.7800	"even
-4.5496	"for
-5.7800	"formed
-5.4790	"from
-5.7800	"g,"
-5.7800	"give
-5.7800	"good
-5.7800	"grotesquely
-5.7800	"halt-on-demand"
-5.3029	"has
-5.1779	"have
-5.7800	"having
-4.9349	"he
-5.3029	"he's
-5.7800	"head-keepers"
-5.7800	"hen-pheasants"?
-5.3029	"here
-5.7800	"here's
-5.0019	"how
-5.7800	"however
-4.7008	"if
-5.4790	"in
-4.5759	"is
-4.2886	"it
-5.0810	"it's
-5.4790	"just
-5.7800	"lay
-5.1779	"let
-5.7800	"lies,
-5.7800	"life
-5.7800	"look
-5.7800	"may
-5.7800	"me
-5.7800	"medium-looking
-5.7800	"might
-5.7800	"moor"
-5.7800	"most
-5.7800	"must,
-5.0810	"my
-5.7800	"nark"
-5.7800	"noiseless
-5.7800	"nor
-5.3029	"not
-5.7800	"nothing
-5.7800	"now
-5.1779	"of
-5.7800	"on
-5.3029	"one
-5.7800	"or
-5.3029	"our
-5.7800	"out
-5.7800	"over
-5.1779	"perhaps
-5.7800	"perhaps."
-5.3029	"pray
-5.7800	"pressure
-5.7800	"pull
-5.7800	"rebels
-5.7800	"save
-5.4790	"shall
-5.4790	"she
-5.7800	"she's
-5.3029	"so
-5.7800	"some
-5.7800	"someone
-5.7800	"started
-5.7800	"starts
-5.7800	"t"
-5.7800	"telephone
-3.8557	"that
-5.4790	"that,
-4.4376	"the
-4.8769	"there
-5.4790	"there's
-5.7800	"they
-5.7800	"things
-4.5759	"this
-5.3029	"though
-5.7800	"time."
-4.9349	"to
-5.7800	"until
-5.3029	"was
-5.7800	"water
-4.5759	"we
-5.7800	"we'll
-5.4790	"we've
-5.7800	"weald,"
-5.7800	"well?"
-5.7800	"were
-5.7800	"were,
-4.7008	"what
-5.7800	"what's
-5.7800	"whatever
-5.0019	"when
-5.7800	"where
-5.4790	"where's
-5.7800	"whether
-5.4790	"which
-5.7800	"while
-5.7800	"who
-5.4790	"whoever
-5.4790	"why
-5.7800	"why,
-5.7800	"with
-5.4790	"would
-5.7800	"would,
-5.7800	"written
-5.7800	"yet
-4.1465	"you
-5.4790	"you're
-5.7800	"you've
-5.4790	"your
-5.7800	"£10
-4.4376	&
-5.7800	'3.37
-5.7800	'34.
-5.7800	'45--fifty
-5.7800	'55
-5.7800	'60's
-5.7800	'66,
-5.7800	'76.
-5.7800	'77,
-5.7800	'80's,
-5.7800	'82
-5.4790	'83
-5.7800	'83.
-5.7800	'84
-5.7800	'84,
-5.4790	'85,
-5.7800	'85.
-5.7800	'86.
-5.7800	'87
-5.7800	'87.
-5.7800	'87?
-5.7800	'89,
-5.7800	'89--confirmed
-5.7800	'89--there
-5.7800	'90,
-5.3029	'95
-5.7800	'95,
-5.7800	'95.
-5.7800	'97
-4.9349	'A
-5.7800	'All
-5.7800	'Am
-5.7800	'American
-5.7800	'And
-5.7800	'Andaman
-5.7800	'Are
-5.7800	'Arms:
-5.7800	'Barcarole'
-5.7800	'Baron
-5.4790	'Be
-5.7800	'Beddoes
-5.7800	'Beware!
-5.7800	'Birlstone'?"
-5.7800	'Bolted.'
-5.7800	'Brunton
-4.9349	'But
-5.1779	'By
-5.7800	'C.C.'
-5.7800	'C.C.H.'
-5.7800	'C.P.R.'
-5.7800	'COME.'
-5.4790	'Charing
-5.7800	'Co.'
-5.7800	'Colonel
-5.4790	'Come
-5.7800	'Company.'
-5.1779	'Cooee!'
-5.4790	'Cooee'
-5.7800	'Coward!
-5.7800	'Coward!'"
-5.7800	'Crime
-5.7800	'Croydon'
-5.7800	'D'
-5.7800	'D'--that
-5.7800	'Danger,'
-5.7800	'Death'
-5.7800	'Decameron,'
-5.7800	'Depend
-5.7800	'Do
-5.7800	'Don't
-5.4790	'Douglas'
-5.3029	'Drive
-5.7800	'E.B.'
-5.7800	'ELSIE.'
-5.7800	'Eg.'
-5.7800	'Elrige's'?"
-5.7800	'Elsie,'
-5.7800	'Elsie.'
-5.7800	'Encyclopaedia
-5.7800	'Encyclopaedia,'
-5.7800	'Enoch
-5.7800	'Erected
-5.7800	'Every
-5.7800	'Ex
-5.7800	'Find
-5.7800	'Fire!'?
-5.3029	'For
-5.7800	'Found
-5.4790	'Frisco,
-5.4790	'Frisco.
-5.7800	'From
-5.7800	'G'
-5.7800	'Gesellschaft,'
-5.7800	'Give
-5.7800	'Go
-5.7800	'Godspeed'
-5.7800	'Good-morning'!"
-5.7800	'Government';
-5.7800	'Green
-5.7800	'H.
-5.7800	'Half-confidences
-5.7800	'Handy
-5.7800	'Have
-4.9349	'He
-5.4790	'He'
-5.7800	'Head-keeper
-5.4790	'Here
-5.7800	'His
-5.7800	'Hosmer
-5.7800	'How
-5.7800	'Hullo!
-5.7800	'Hullo!'
-5.7800	'Hullo,
-5.7800	'Huxtable's
-5.7800	'Hyams,'
-3.9947	'I
-5.7800	'I'd
-5.0019	'I'll
-5.4790	'I'm
-5.3029	'I've
-5.3029	'If
-5.7800	'Inspector
-5.1779	'Is
-4.4578	'It
-5.0019	'It's
-5.7800	'J.
-5.4790	'J.H.N.'
-5.7800	'James
-5.4790	'K.
-5.7800	'Keep
-5.7800	'Killer'
-5.7800	'Lady
-5.7800	'Le
-5.7800	'Les
-4.8769	'Let
-5.7800	'Letters,
-5.7800	'Life,'
-5.7800	'Lion's
-5.7800	'Look
-5.7800	'Lord
-5.7800	'Lucerne.'
-5.7800	'Mahratta.'
-5.7800	'Main
-5.7800	'Mane.'"
-5.7800	'Mawson
-5.7800	'May
-5.7800	'McMurdo
-5.7800	'Miss
-5.7800	'Mother,
-5.4790	'Mr.
-5.7800	'Mrs.
-5.7800	'Murder!'
-5.4790	'My
-5.7800	'Mysterious
-5.4790	'Never
-5.7800	'No
-5.7800	'No,
-5.7800	'None
-5.7800	'Norbury'
-5.7800	'Not
-5.7800	'Nothin'
-5.7800	'Now
-5.4790	'Now,
-5.4790	'Oh,
-5.7800	'Omne
-5.7800	'On
-5.7800	'Our
-5.7800	'P,'
-5.4790	'P.C.'
-5.7800	'Papier.'
-5.7800	'Perhaps
-5.7800	'Pink
-5.7800	'Please
-5.4790	'Please,
-5.7800	'Police
-5.7800	'Pon
-5.7800	'Pondicherry
-5.7800	'Punishment
-5.7800	'Put
-5.7800	'Ragged
-5.7800	'Remarkable
-5.7800	'Remember,
-5.7800	'Rome
-5.7800	'S'
-5.7800	'S.S..
-5.7800	'See
-5.7800	'Seven-thirty,
-5.7800	'Shall
-5.7800	'Show
-5.7800	'Singular
-5.7800	'Small
-5.7800	'So
-5.7800	'Sold
-5.4790	'Some
-5.7800	'Sometimes
-5.7800	'Sophy!
-5.7800	'Souls
-5.7800	'Steve,
-5.7800	'Sumner,
-5.7800	'Surely
-5.7800	'Telegram
-5.7800	'Tell
-5.4790	'Thank
-5.4790	'That
-5.7800	'That's
-4.5013	'The
-5.4790	'Then
-4.8258	'There
-5.7800	'There's
-5.7800	'There,
-5.7800	'There,'
-5.4790	'They
-5.3029	'This
-5.7800	'Three
-5.7800	'Thrice
-5.7800	'Tis
-5.7800	'To
-5.7800	'Tragedy
-5.7800	'Trust
-5.7800	'Un
-5.7800	'Upon
-5.7800	'Us,'
-5.4790	'Varsity
-5.7800	'Varsity,
-5.7800	'Vieni'
-5.7800	'Wait
-5.0019	'We
-5.7800	'Well
-5.7800	'Well,
-5.7800	'Well,'
-4.7800	'What
-5.3029	'When
-5.7800	'Where
-5.7800	'Whereas,
-5.7800	'Which
-5.4790	'White
-5.4790	'Who
-5.4790	'Why
-5.0810	'Why,
-5.7800	'Will
-5.7800	'Wir
-5.7800	'With
-5.7800	'Would
-5.7800	'XX.31.'"
-5.7800	'Yes'--and
-5.7800	'Yes,'
-5.7800	'Yet,
-4.2886	'You
-5.4790	'You'll
-5.4790	'You've
-5.7800	'You,'
-5.4790	'Your
-5.7800	'accident'
-5.7800	'actually
-5.7800	'ammunition
-4.7008	'and
-5.7800	'appears'
-5.7800	'appears'?
-5.7800	'are
-5.7800	'at
-5.3029	'at'
-5.7800	'band,'
-5.7800	'belle
-5.4790	'bus
-4.8258	'but
-5.7800	'by
-5.7800	'can
-5.7800	'cause
-5.7800	'confident'--that
-5.7800	'criminal'
-5.7800	'death
-5.3029	'did
-5.7800	'e's'
-5.7800	'e,'
-5.7800	'ead
-5.4790	'em
-5.7800	'em.
-5.4790	'ere
-5.7800	'even,'
-5.7800	'fear,'
-5.7800	'first
-5.7800	'fly-paper'
-5.1779	'for
-5.7800	'fraid
-5.7800	'friends
-5.4790	'from
-5.7800	'get
-5.4790	'good
-5.7800	'grotesque'?"
-5.7800	'has
-5.7800	'have
-5.7800	'he
-5.7800	'he'
-5.7800	'hen-pheasant'?
-5.7800	'here's
-5.7800	'his
-5.7800	'hope'
-5.7800	'horrible':
-5.7800	'i',
-5.7800	'idée
-5.3029	'if
-5.7800	'in
-5.4790	'is
-5.7800	'is'--'There
-5.4790	'it
-5.7800	'it's
-5.7800	'jumping
-5.3029	'keep
-5.7800	'learn'
-5.7800	'lever,'
-5.7800	'life
-5.7800	'life,'
-5.7800	'love'
-5.7800	'marriage'
-5.7800	'match'
-5.7800	'matches.'
-5.7800	'maybe'
-5.4790	'moor'
-5.7800	'most
-5.7800	'my
-5.7800	'my'?
-5.7800	'neither
-5.7800	'never.'
-5.7800	'ome
-5.7800	'only
-5.7800	'other
-5.7800	'perhaps'
-5.7800	'phoned
-5.7800	'pig's-bristles.'
-5.7800	'please.'"
-5.7800	'plough'
-5.7800	'pology,"
-5.7800	'provided
-5.4790	'quarter'
-5.7800	'quite
-5.7800	'r's'
-5.7800	'r.'
-5.7800	'reason,'
-5.7800	'remember
-5.7800	'replaced
-5.7800	'revenge;'
-5.7800	'risus
-5.7800	's'
-5.7800	'seeing
-5.7800	'sent
-5.7800	'sever,'
-5.7800	'ship's'
-5.7800	'sir'
-5.7800	'soap'
-5.7800	'specially
-5.7800	'suicide.'
-5.7800	'supply
-5.7800	't'
-5.7800	'take
-5.7800	'teens
-4.8769	'that
-4.8769	'the
-5.1779	'there
-5.7800	'they
-5.7800	'they.'
-5.7800	'this
-5.7800	'three,'
-5.7800	'time
-5.3029	'to
-5.7800	'to'
-5.7800	'to',
-5.7800	'to,'
-5.4790	'tween-decks
-5.7800	'twelve'
-5.4790	'twelve,'
-5.7800	'un
-5.7800	'un'
-5.7800	'un,
-5.7800	'value,'
-5.1779	'we
-5.7800	'we'
-5.7800	'we'll
-5.7800	'we've
-5.7800	'were
-5.7800	'what'
-5.4790	'when
-5.1779	'which
-5.4790	'who
-5.7800	'widow'
-5.7800	'wilful
-5.4790	'with
-5.4790	'would
-5.7800	'y'.
-4.7008	'you
-5.7800	'you'll
-5.7800	'your
-5.4790	'your,'
-5.7800	(3rd
-5.7800	(All
-5.7800	(Ames)
-5.7800	(Being
-5.7800	(Journal
-5.7800	(Lancet
-5.7800	(and
-5.7800	(as
-5.7800	(despatches),
-5.4790	(for
-5.7800	(he
-5.7800	(his
-5.7800	(if,
-5.7800	(now
-5.7800	(one
-5.4790	(the
-5.3029	(which
-5.7800	(with
-5.7800	*1:
-5.7800	--
-5.7800	--'rich--
-5.7800	-----
-5.7800	----------
-5.7800	--Altamont.
-5.3029	.
-5.1779	...
-5.7800	..E
-5.7800	.ERE
-5.7800	.M
-5.7800	.RE.ARE
-5.4790	1
-5.1779	1.
-5.7800	10
-5.7800	10,
-5.7800	10.
-5.7800	10.30
-5.7800	100-horse-power
-5.4790	1000
-5.7800	104
-5.7800	109
-5.7800	10s.
-5.7800	10s.,
-5.7800	10th.
-5.7800	11
-5.4790	11.
-5.7800	11.10
-5.7800	11.15."
-5.4790	11.15.'
-5.7800	11.30."
-5.7800	11.40
-5.4790	117,
-5.7800	117th
-5.7800	117th)
-5.7800	11th,
-5.7800	12.
-5.7800	12.22
-5.3029	126b
-5.7800	127
-5.7800	129,
-5.7800	12s.'"
-5.7800	12th.
-4.9349	13
-5.4790	13,
-5.7800	131
-5.7800	131,
-5.7800	136
-5.7800	13th--that
-5.7800	13th.
-5.7800	14'
-5.7800	140
-5.3029	14th
-5.7800	150
-5.7800	1543,
-5.7800	15th.
-5.4790	15°
-5.7800	16
-5.7800	16,
-5.7800	1607,
-5.7800	1642.
-5.7800	1644,
-5.7800	1647,
-5.7800	1670,
-5.7800	16A,
-5.7800	16th,
-5.7800	16th.--A
-5.3029	17
-5.7800	171
-5.7800	1730."
-5.7800	1742."
-5.7800	1750
-5.7800	17th.--All
-5.7800	1800.
-5.7800	1840.
-5.7800	1846.'
-5.7800	1855,
-5.7800	1857,
-5.7800	1858.
-5.7800	1860.
-5.7800	1865
-5.7800	1869
-5.7800	1869,
-5.7800	1869,"
-5.7800	1870
-5.7800	1871,
-5.7800	1872."
-5.7800	1872;
-5.7800	1874.
-5.3029	1875.
-5.7800	1876
-5.4790	1878
-5.7800	1878,
-5.7800	1878,--nearly
-5.7800	1881;
-5.4790	1882
-5.7800	1882).
-5.7800	1882,
-5.7800	1882--an
-5.7800	1882."
-5.4790	1883
-5.7800	1883).
-5.7800	1883,
-5.7800	1883--a
-5.4790	1883.
-5.4790	1884,
-5.7800	1884--there
-5.7800	1884.
-5.4790	1887
-5.7800	1887.
-5.7800	1888--I
-5.7800	1888.
-5.7800	1889.
-5.7800	1890
-5.4790	1890.
-5.7800	1890."
-5.7800	1891
-5.4790	1891,
-5.4790	1892.
-5.7800	1893.
-5.3029	1894
-5.7800	1894.
-5.7800	1895
-5.7800	1895,
-5.7800	1895.
-5.7800	1896,
-5.7800	1896--I
-5.7800	1897
-5.7800	18th
-5.7800	18th."
-5.7800	1900.
-5.7800	1901
-5.7800	1901--just
-5.7800	1901.
-5.7800	1902,
-5.7800	1903
-5.7800	1903,
-5.7800	1907,
-5.7800	1911
-5.7800	1914
-5.7800	1915
-5.7800	19th,
-5.7800	19th.
-5.7800	19th."
-5.7800	1s.,
-5.4790	1st
-5.3029	2
-5.7800	2,000
-5.1779	2.
-5.7800	2.10
-5.7800	2.40
-5.7800	20',
-5.7800	200
-5.7800	20th.
-5.7800	20th."
-5.7800	21
-5.7800	21st.
-5.7800	221b
-5.0810	221b,
-5.7800	226
-5.7800	22nd
-5.7800	22nd,
-5.7800	22nd.
-5.7800	23d
-5.7800	23d.
-5.7800	23rd
-5.7800	24,
-5.7800	2473.
-5.7800	249.
-5.7800	24th.
-5.4790	25°
-5.7800	26
-5.7800	26,
-5.7800	26s.
-5.7800	26th,
-5.7800	26th.
-5.7800	27
-5.7800	27,
-5.7800	270
-5.7800	2704
-5.7800	2704,
-5.7800	2704,"
-5.7800	28.
-5.7800	28th
-5.3029	29,
-5.7800	293
-5.7800	2:
-5.7800	2d,
-5.7800	2d,"
-5.7800	2nd."
-5.4790	2s.
-5.0810	3
-5.0810	3,
-5.3029	3.
-5.7800	3.1.
-5.7800	3.36,
-5.7800	30,
-5.7800	30,000
-5.7800	30th
-5.4790	31
-5.7800	340
-5.7800	341
-4.9349	341,
-5.7800	341.
-5.4790	34th
-5.7800	36
-5.7800	36,
-5.7800	369
-5.7800	37
-5.3029	3d
-5.7800	3d,
-5.7800	3rd
-5.7800	3rd,
-5.7800	3rd.
-5.7800	4
-5.3029	4.
-5.7800	4.'
-5.7800	4.30
-5.7800	4.35
-5.7800	403
-5.7800	41
-5.7800	426,
-5.3029	427,
-5.3029	46,
-5.7800	47
-5.7800	4d.
-5.0810	4th
-5.4790	4th,
-5.7800	4th.
-5.7800	4th."
-5.7800	4½
-5.7800	5
-5.3029	5.
-5.7800	5.14
-5.7800	5.15
-5.7800	5.20
-5.7800	50
-5.0810	534
-5.4790	534,
-5.7800	534."
-5.7800	5th,"
-5.7800	6
-5.3029	6.
-5.7800	6.30
-5.7800	6.30--C.A.M.,"
-5.7800	6d.'"
-5.4790	6d.,
-5.7800	6th
-5.7800	6th,
-5.7800	6th.
-5.7800	6th.'
-5.4790	7
-5.4790	7.
-5.7800	7.20
-5.4790	7.30
-5.7800	7.30.
-5.7800	7s.
-5.7800	7th,
-5.7800	7th.
-5.7800	8.
-5.4790	8.15
-5.7800	8.30
-5.7800	8.30,'
-5.7800	8d.'
-5.7800	8s.,
-5.7800	8th
-5.7800	9
-5.7800	9,
-5.7800	9.
-5.7800	9.13.
-5.7800	9.15
-5.7800	9.50,
-5.7800	90
-5.7800	97163,
-5.7800	9th
-5.7800	9th.
-5.0019	:
-5.7800	:--"and
-3.0872	A
-4.8769	A,
-5.0810	A.
-5.7800	A."
-5.7800	A.'
-5.4790	A.,
-5.7800	A.E
-5.7800	ABBEY
-5.7800	ABE
-4.3486	ADVENTURE
-5.7800	ADVENTURES
-5.4790	AM
-5.7800	ASCII
-5.7800	AT,
-5.7800	AT--that's
-5.7800	AT--why
-5.7800	ATTE--why,
-5.4790	ATTENTA
-5.7800	AUGUSTUS
-5.7800	Abbas
-4.8769	Abbey
-5.7800	Abbey's
-5.7800	Abbey,
-5.7800	Abbots
-5.0810	Abdullah
-5.4790	Abdullah,
-5.7800	Abdullah.
-4.9349	Abe
-5.4790	Abelwhite
-5.7800	Abelwhite's
-5.7800	Abelwhite,
-5.3029	Aberdeen
-5.4790	Aberdonian
-5.7800	Abergavenny
-5.7800	Abermarle
-5.7800	Abernetty
-4.5759	About
-4.8258	Above
-5.7800	Above,
-5.7800	Abraham
-5.7800	Abrahams
-5.7800	Absolute
-5.7800	Absolutely
-5.7800	Absurd,
-5.7800	Accepting
-4.9349	According
-5.3029	Accustomed
-5.7800	Achillis."
-5.0019	Achmet
-5.7800	Achmet,
-5.1779	Achmet.
-5.0810	Across
-5.7800	Acting
-5.0019	Acton
-5.7800	Acton's
-5.7800	Acton's,
-5.7800	Acton's--what
-5.7800	Acton's.
-5.7800	Acton's."
-5.4790	Acton,
-5.4790	Acton.
-4.8258	Adair
-5.7800	Adair's
-5.7800	Adair,
-5.4790	Adair.
-5.7800	Adair."
-5.7800	Adams,
-5.7800	Adams."
-5.7800	Add
-5.7800	Addleton
-5.4790	Address
-5.4790	Address:
-5.7800	Adelaide
-5.3029	Adelaide,
-5.4790	Adelaide-Southampton
-5.0019	Adelbert
-5.7800	Adelbert,
-5.0019	Adler
-5.0810	Adler,
-5.4790	Adler.
-5.4790	Adler."
-5.4790	Adler?"
-5.7800	Administration.
-5.4790	Admirable!
-5.4790	Admiral
-5.4790	Admiralty
-5.4790	Admiralty,
-5.7800	Admiralty--it
-5.7800	Admiralty.
-5.7800	Admiration
-5.7800	Adolph
-4.1672	Adventure
-5.7800	Adventures
-5.7800	Adventures,
-5.4790	Advertisement
-5.7800	Advertisements
-5.7800	Advise
-5.7800	Affair
-5.7800	Affairs,
-5.7800	Affairs.
-5.0810	Afghan
-5.4790	Afghanistan
-5.0810	Afghanistan,
-5.7800	Afghanistan.
-5.7800	Afghanistan."
-5.7800	Afghanistan.'
-5.7800	Afghanistan;
-5.7800	Afghanistan?"
-5.7800	Afghans.
-4.9349	Africa
-4.8769	Africa,
-5.0019	Africa.
-5.7800	Africa."
-4.6661	African
-4.0810	After
-5.3029	Afterwards
-5.7800	Afterwards,
-4.2485	Again
-4.6339	Again,
-5.7800	Against
-5.7800	Agar,
-5.7800	Agatha
-5.7800	Agatha--that's
-5.7800	Aged
-5.7800	Agency."
-5.7800	Agent,
-5.7800	Agent,"
-5.7800	Agent.
-5.7800	Agents
-5.4790	Ages.
-5.7800	Ages."
-4.5496	Agra
-5.1779	Agra,
-5.3029	Agra.
-5.7800	Agricultural
-5.0810	Ah!
-5.7800	Ah!"
-4.2886	Ah,
-5.7800	Aided
-5.4790	Ain't
-5.7800	Ainstree,
-5.7800	Air
-5.7800	Airedale
-5.3029	Akbar
-5.3029	Akbar,
-5.7800	Akbar.'
-5.7800	Alas!
-5.4790	Alas,
-5.0810	Albert
-5.7800	Aldersgate;
-5.0019	Aldershot
-5.4790	Aldershot,
-5.7800	Aldershot.
-5.0810	Aldgate
-5.7800	Aldrige,
-4.5247	Alec
-5.7800	Alec,
-5.7800	Alec,"
-5.4790	Alec.
-5.7800	Alexander
-5.7800	Alexandria.
-5.7800	Alexandrian
-5.7800	Alexis
-5.7800	Alexis,
-5.7800	Alexis.
-5.7800	Algar
-5.7800	Algar,
-5.7800	Algeria."
-4.9349	Alice
-5.7800	Alice!'
-5.7800	Alice's
-5.1779	Alice,
-5.4790	Alice.
-5.7800	Alice?"
-5.7800	Alicia
-5.7800	Alicia,
-5.7800	Alighting
-5.7800	Alison's
-5.4790	Alkali
-3.8258	All
-5.7800	Allahabad.
-5.4790	Allan
-5.7800	Allardyce's
-5.7800	Allegro,
-5.7800	Allegro.
-5.1779	Allen
-5.7800	Allen's
-5.0810	Allen,
-5.7800	Allen.
-5.0810	Alley
-5.0810	Alley,
-5.3029	Alley.
-5.7800	Alliance,
-5.7800	Allow
-5.7800	Almanac.
-5.7800	Almighty
-5.7800	Almost
-5.7800	Along
-5.0019	Aloysius
-5.3029	Alpha
-5.4790	Alpha,
-5.4790	Alpha."
-5.7800	Alpine
-5.1779	Alpine-stock
-4.7008	Already
-5.1779	Also
-5.4790	Also,
-5.1779	Altamont
-5.4790	Altamont,"
-5.3029	Altogether
-5.7800	Altogether,
-5.7800	Alton.
-5.7800	Always
-5.3029	Am
-5.4790	Amateur
-5.7800	Amati.
-5.7800	Amazement
-5.7800	Amazon
-5.7800	Amazon.
-5.7800	Amberley
-5.7800	Amberley's
-5.7800	Amberley,
-5.7800	Amberley--you
-5.7800	Amberley.
-5.7800	Amberley."
-5.7800	Amen!"
-4.5247	America
-4.7800	America,
-5.7800	America,"
-4.4578	America.
-5.7800	America."
-5.7800	America;
-5.4790	America?"
-4.1568	American
-5.4790	American's
-4.8769	American,
-5.7800	American,"
-5.0019	American.
-5.4790	American."
-5.4790	Americans
-5.7800	Americans,
-5.7800	Americans--Californians?"
-4.8258	Ames
-4.7008	Ames,
-5.0019	Ames.
-5.7800	Ames;
-5.4790	Ames?"
-5.1779	Amid
-4.7008	Among
-5.7800	Amongst
-5.7800	Amoy
-5.7800	Amsterdam
-5.7800	Amusement
-3.9605	An
-5.4790	An'
-5.7800	Analysis
-5.7800	Anarchist
-5.7800	Anatomy.--Accurate,
-5.7800	Anchor,
-5.7800	Ancient
-3.2397	And
-4.7800	And,
-4.8769	Andaman
-5.3029	Andamans,
-5.4790	Andamans.
-5.7800	Anderson
-5.7800	Anderson",
-5.7800	Anderson,
-5.7800	Andover
-5.7800	Andrew
-5.1779	Andrews
-5.7800	Andrews,
-5.7800	Anerley
-5.0019	Angel
-5.7800	Angel'
-5.7800	Angel's
-5.3029	Angel,
-5.7800	Angel--was
-5.7800	Angel.
-5.0810	Angel."
-5.7800	Angel?
-5.3029	Angel?"
-5.4790	Angels
-5.7800	Angels,
-5.7800	Anger,
-5.7800	Anglia.
-5.7800	Anglo-Indian,
-5.7800	Anglo-Saxon
-5.4790	Anna!"
-5.4790	Anna,"
-5.4790	Anne
-5.1779	Annie
-5.7800	Annie!"
-5.7800	Annie?"
-5.7800	Annoyed
-4.6339	Another
-5.7800	Another!
-5.7800	Another,
-5.7800	Anstruther
-5.7800	Answer
-5.7800	Anthony
-5.7800	Anthony.
-5.7800	Anthropological
-5.7800	Antonio
-4.6339	Any
-5.7800	Anybody
-5.3029	Anyhow
-4.7800	Anyhow,
-5.3029	Anyone
-5.3029	Anything
-5.4790	Anyway,
-5.7800	Apache
-5.7800	Apaches
-5.7800	Apaches,
-5.3029	Apart
-5.7800	Apparently
-5.7800	Apparently,
-5.3029	Appledore
-5.7800	Appledore,
-5.0810	Apply
-5.4790	Appreciation
-5.7800	Approach,
-5.0019	April
-5.3029	April,
-5.4790	Arab
-5.7800	Arab,
-5.7800	Arabian
-5.7800	Arabs
-5.7800	Arabs,
-5.3029	Arcade,
-5.7800	Arcadia
-5.7800	Archery
-5.4790	Archie
-5.7800	Archie,
-5.7800	Architecture
-5.4790	Arctic
-4.3821	Are
-5.7800	Argentine,
-5.7800	Arizona,
-5.7800	Arkansas
-5.3029	Armitage
-5.7800	Armitage,
-5.7800	Armitage--Percy
-5.7800	Armitage--the
-5.7800	Armour
-5.4790	Arms
-5.7800	Arms,
-5.7800	Arms.
-4.7800	Armstrong
-5.4790	Armstrong's
-5.3029	Armstrong,
-5.3029	Armstrong.
-5.3029	Army
-5.7800	Army,
-5.7800	Army.
-5.7800	Arnsworth
-5.4790	Arrest
-5.7800	Arriance.
-5.7800	Arrive
-5.7800	Arsenal--technical
-5.7800	Arsenal."
-5.7800	Arson.
-5.7800	Art
-5.7800	Artesian
-4.3650	Arthur
-5.4790	Arthur's
-5.7800	Arthur's.
-5.1779	Arthur,
-5.7800	Arthur,'
-5.7800	Arthur--that
-5.3029	Arthur.
-5.7800	Artillery,
-5.7800	Artillery.
-3.2589	As
-5.7800	Ashes
-5.7800	Asiatic
-4.8258	Ask
-5.7800	Asked
-5.7800	Assassin
-5.7800	Assessments
-5.7800	Assistant
-5.7800	Assizes
-5.7800	Assizes,
-5.1779	Assizes.
-5.4790	Assizes."
-5.7800	Assure
-5.7800	Asteroid,
-5.7800	Aston
-5.7800	Astonishment
-5.4790	Astrakhan
-5.7800	Astronomy.--Nil.
-3.3752	At
-5.7800	Atavism'
-4.5013	Athelney
-5.7800	Athene
-5.7800	Athens
-5.4790	Athens,
-5.7800	Athens.'
-5.7800	Atkinson
-5.7800	Atlanta
-5.7800	Atlanta,
-5.7800	Atlanta,"
-5.7800	Atlanta.
-5.3029	Atlantic
-5.4790	Atlantic.
-5.7800	Attack
-5.7800	Attica,
-5.7800	Atwood,
-5.3029	Au
-5.7800	Auckland.
-5.7800	Auctioneer
-5.3029	Audley
-5.1779	August
-5.7800	August,
-5.7800	August--the
-5.7800	August.
-5.7800	Augustine.
-5.7800	Augusto
-5.0810	Augustus
-5.7800	Auntie's
-4.8769	Aurora
-5.0019	Aurora,
-5.7800	Aurora,"
-5.4790	Aurora.
-5.4790	Aurora."
-5.7800	Austerlitz,
-5.0810	Australia
-5.3029	Australia,
-5.7800	Australia.
-5.4790	Australia."
-5.1779	Australian
-5.7800	Australians.
-5.4790	Austrian
-5.7800	Austrian.
-5.4790	Author
-5.7800	Aveling,
-5.3029	Avenging
-5.4790	Avenue
-5.4790	Avenue,
-5.3029	Avenue.
-5.7800	Ay,
-5.7800	Ayrshires?'
-5.7800	Azof
-5.7800	Azure,
-5.1779	B
-5.7800	B's
-5.4790	B,
-5.7800	B."
-5.7800	B.'
-5.7800	BACHELOR
-5.7800	BAND
-5.7800	BASKERVILLES
-5.7800	BEECHES
-5.7800	BERYL
-5.4790	BIRLSTONE
-5.7800	BLACK
-5.7800	BLANCHED
-5.7800	BLAZE
-5.7800	BLUE
-5.7800	BOHEMIA
-5.7800	BOSCOMBE
-5.4790	BOW
-5.7800	BOX
-5.7800	BRIDGE
-5.7800	BRUCE-PARTINGTON
-5.7800	BUILDER
-5.7800	Bachelor
-5.4790	Back
-5.7800	Backwater
-5.4790	Backwater's
-5.4790	Backwater,
-5.4790	Bad
-5.7800	Bad,
-5.1779	Baden
-5.4790	Baden,
-5.7800	Baden--it
-5.7800	Baden.
-5.7800	Baden."
-5.7800	Baden?
-5.4790	Bagatelle
-5.7800	Bain,
-3.7118	Baker
-5.7800	Baker'
-5.0810	Baker,
-5.7800	Baker,"
-5.7800	Baker.
-5.7800	Baker?"
-5.7800	Bakers
-5.7800	Bakers,
-5.4790	Bald-Headed
-4.5013	Baldwin
-4.6339	Baldwin,
-5.3029	Baldwin,"
-5.7800	Baldwin--now
-4.8258	Baldwin.
-5.7800	Baldwin."
-5.4790	Baldwin?"
-5.7800	Baldy
-5.1779	Ballarat
-5.7800	Ballarat,
-5.7800	Ballarat."
-5.7800	Balmoral
-5.4790	Balmoral's
-5.4790	Balmoral,
-5.7800	Balmoral.
-5.7800	Balmoral.'
-5.7800	Balzac
-5.7800	Band
-5.7800	Band,
-5.7800	Band.
-5.7800	Bangor,
-5.1779	Bank
-5.4790	Bank,
-5.4790	Bank.
-5.7800	Bankers'
-5.7800	Banks
-5.7800	Banner,
-4.9349	Bannister
-5.7800	Bannister!"
-5.4790	Bannister's
-5.0810	Bannister,
-5.4790	Bannister,"
-5.1779	Bannister.
-5.7800	Bannister."
-5.4790	Baptiste
-5.3029	Bar
-5.7800	Bar,
-5.7800	Bar--
-5.7800	Barberton
-5.7800	Barcelona,
-4.5759	Barclay
-5.0810	Barclay's
-4.8258	Barclay,
-5.1779	Barclay.
-5.7800	Barclay;
-5.7800	Barclays
-5.7800	Barclays--the
-5.7800	Bardle
-5.7800	Bardle.
-5.7800	Barelli,
-5.7800	Bari,
-4.0898	Barker
-5.0810	Barker's
-4.7386	Barker,
-5.7800	Barker,"
-5.7800	Barker--he
-5.7800	Barker--this
-4.8258	Barker.
-5.7800	Barker."
-5.4790	Barker;
-5.7800	Barker?"
-5.7800	Barking
-5.7800	Barnes
-5.7800	Barnes!
-5.7800	Barnes,
-5.7800	Barney
-5.7800	Barney,
-5.7800	Barney.
-5.7800	Barney."
-5.1779	Barnicot
-5.1779	Barnicot's
-5.7800	Barnicot,
-4.4790	Baron
-5.0019	Baron's
-5.7800	Baron,
-5.7800	Baron--the
-5.4790	Baron.
-5.7800	Barons
-5.7800	Barque
-5.7800	Barraud,
-5.4790	Barrel
-5.7800	Barrett,
-5.7800	Barrow."
-4.1672	Barrymore
-5.7800	Barrymore!
-5.1779	Barrymore's
-4.7386	Barrymore,
-5.7800	Barrymore,"
-5.7800	Barrymore--"
-5.0019	Barrymore.
-5.7800	Barrymore;
-5.0810	Barrymore?"
-5.3029	Barrymores
-5.7800	Barrymores,
-5.4790	Barrymores.
-5.7800	Bart's.
-4.6039	Bartholomew
-5.7800	Bartholomew!"
-5.7800	Bartholomew's
-5.3029	Bartholomew.
-5.7800	Bartholomew:
-5.7800	Barton
-5.3029	Barton,
-5.7800	Bartons
-5.7800	Basil
-5.7800	Basil--and
-5.7800	Basil.
-3.9167	Baskerville
-5.7800	Baskerville!
-5.3029	Baskerville's
-4.4790	Baskerville,
-5.4790	Baskerville,"
-5.4790	Baskerville--that
-4.7800	Baskerville.
-5.3029	Baskerville."
-4.8258	Baskervilles
-5.7800	Baskervilles,
-5.1779	Baskervilles.
-5.7800	Baskervilles."
-5.7800	Basle."
-5.7800	Bass
-5.7800	Bates
-5.7800	Bates,"
-5.7800	Bates."
-5.7800	Bathsheba?
-5.7800	Baxter
-5.7800	Baxter's
-5.7800	Baxter,
-5.4790	Bay
-5.4790	Bay,
-5.7800	Bayard
-5.7800	Bayard.
-4.6339	Baynes
-5.3029	Baynes's
-4.7386	Baynes,
-5.7800	Baynes,"
-5.1779	Baynes.
-5.4790	Baynes?"
-5.7800	Bayswater
-4.9349	Be
-5.7800	Beacons
-5.7800	Bear
-5.7800	Beatrice
-5.7800	Beatrice!"
-5.7800	Beatrice's
-5.7800	Beatrice,
-5.7800	Beauchamp
-5.7800	Beaune
-4.8769	Because
-5.7800	Because,
-5.4790	Becher
-5.7800	Becher's."
-5.4790	Beckenham
-5.7800	Beckenham,
-5.4790	Beckenham.
-5.7800	Beddington
-5.7800	Beddington,
-5.0019	Beddoes
-5.1779	Beddoes,
-5.7800	Beddoes?'
-5.7800	Bedford,
-5.7800	Bedfordshire
-5.4790	Bee
-5.4790	Beecher
-5.7800	Beecher's
-5.7800	Beecher,
-5.3029	Beeches
-5.1779	Beeches,
-5.7800	Beeches.
-4.4790	Before
-5.7800	Beg
-5.0810	Behind
-5.4790	Behold
-5.1779	Being
-5.7800	Belated
-5.3029	Belfast
-5.7800	Belfast,
-5.4790	Belfast.
-5.7800	Belgian
-5.7800	Belgium,
-5.7800	Belgium?"
-5.7800	Belgrade,
-5.7800	Bellamy
-5.7800	Bellamy,
-5.7800	Bellamy.
-5.7800	Bellamys
-5.7800	Bellinger!
-5.7800	Bellinger!"
-5.7800	Bellinger,
-5.7800	Belliver
-5.7800	Belminster,
-5.7800	Belmont
-5.3029	Below
-5.7800	Below,
-5.7800	Ben,
-5.7800	Benares
-5.7800	Bench.
-5.7800	Bender,
-5.7800	Beneath
-5.4790	Bengal
-5.7800	Bengal.'
-5.7800	Bengalore
-5.4790	Benito
-5.7800	Bennett
-5.7800	Bennett's
-5.7800	Bennett,
-5.7800	Bennett--will
-5.7800	Bennett.
-5.7800	Bentinck
-5.7800	Bentley's
-5.7800	Benz
-4.8258	Beppo
-5.4790	Beppo,
-5.7800	Beppo.
-5.7800	Berkeley
-5.3029	Berkshire
-5.7800	Berkshire,
-5.7800	Berkshire.
-5.7800	Berkshire?"
-5.7800	Berkshires,
-5.7800	Berlin
-5.7800	Berlin.
-5.7800	Bermondsey,
-5.7800	Bermuda
-5.4790	Bernstone
-5.3029	Bernstone,
-5.7800	Bernstone,"
-5.7800	Bert
-5.4790	Bertillon
-5.3029	Beryl
-5.7800	Beryl!"
-5.7800	Beryl?"
-4.5247	Beside
-4.9349	Besides
-4.2485	Besides,
-5.7800	Besides,"
-5.4790	Best
-5.1779	Better
-4.6039	Between
-5.7800	Beverley,
-5.7800	Beware!
-5.7800	Beware!'
-5.7800	Bewildered
-4.8769	Beyond
-5.7800	Beyond,
-5.7800	Bhurtee
-5.7800	Bhurtee,
-5.7800	Bhurtee.
-5.7800	Bible!"
-5.7800	Bible.
-5.7800	Biddle,
-5.7800	Big
-5.7800	Bill,"
-4.6661	Billy
-4.8769	Billy,
-5.7800	Billy,"
-5.0810	Billy.
-5.4790	Billy?"
-5.7800	Binders,
-5.7800	Binomial
-5.7800	Birchmoor,
-5.7800	Bird,
-5.7800	Birds,
-4.6339	Birdy
-4.5013	Birlstone
-5.3029	Birlstone,
-5.4790	Birlstone--
-5.1779	Birlstone.
-5.4790	Birlstone?"
-5.0810	Birmingham
-5.7800	Birmingham,
-5.7800	Birmingham,"
-5.7800	Birmingham.
-5.7800	Birmingham."
-5.7800	Birmingham;
-5.7800	Birmingham?
-5.7800	Birmingham?"
-5.7800	Bischoff
-5.7800	Bishopgate
-4.4578	Black
-5.7800	Blackfeet
-5.7800	Blackheath
-5.3029	Blackheath,
-5.4790	Blackheath."
-5.7800	Blackheath?"
-5.7800	Blackwall
-5.7800	Blackwater,
-5.7800	Blair
-5.7800	Blair,
-5.7800	Blaker.
-5.7800	Blanched
-5.4790	Blanco,
-5.7800	Blanco--so
-5.7800	Blanco.
-5.7800	Blandford
-5.0810	Blaze
-5.7800	Blaze!
-5.7800	Blaze!"
-5.7800	Blaze,
-5.7800	Blaze,"
-5.4790	Blaze.
-5.7800	Blaze."
-5.7800	Blaze?"
-5.7800	Bleaching
-5.7800	Bleat,
-5.7800	Bless
-4.7008	Blessington
-5.1779	Blessington's
-5.7800	Blessington's,
-5.0810	Blessington,
-5.7800	Blessington,"
-5.3029	Blessington.
-5.7800	Blindly
-5.7800	Block
-5.7800	Blondin."
-5.7800	Bloomsbury
-5.7800	Bloomsbury.
-5.7800	Blount,
-5.3029	Blue
-5.7800	Blues
-5.7800	Blymer
-5.7800	Boarder!"
-5.7800	Boarding
-5.3029	Bob
-5.7800	Bob,"
-5.7800	Bob."
-5.7800	Bob?
-5.7800	Boccaccio's
-5.7800	Bodies
-4.4578	Bodymaster
-5.7800	Bodymaster's
-4.8769	Bodymaster,
-5.4790	Bodymaster,"
-5.7800	Bodymaster--and
-5.3029	Bodymaster.
-5.7800	Bodymaster?"
-5.4790	Boer
-5.7800	Boer,
-5.7800	Boers,
-5.0810	Bohemia
-5.1779	Bohemia,
-5.4790	Bohemia,"
-5.4790	Bohemia."
-5.1779	Bohemian
-5.7800	Bohemian,
-5.7800	Bohemianism
-5.7800	Bohème.
-5.4790	Bombay
-5.7800	Bombay,
-5.3029	Bond
-5.4790	Book
-5.3029	Boone
-5.3029	Boone,
-5.7800	Boone--the
-5.7800	Boone."
-4.8769	Boots
-5.7800	Boots,
-5.7800	Bordeaux,
-5.7800	Borgia
-5.7800	Borgias."
-4.4183	Bork
-5.7800	Bork!"
-5.7800	Bork's
-4.9349	Bork,
-5.7800	Bork--a
-5.7800	Bork--genius!"
-5.7800	Bork:
-5.3029	Born
-5.7800	Borough.
-4.6339	Boscombe
-4.4183	Boss
-5.7800	Boss,
-5.1779	Boss.
-5.7800	Boswell.
-5.7800	Botany
-5.7800	Botany.--Variable.
-4.3821	Both
-5.7800	Bouguereau.
-5.7800	Boulevard
-5.7800	Bound
-5.7800	Bovington's,
-5.7800	Bovington's.
-5.0810	Bow
-5.4790	Bow.
-5.7800	Bowery,
-5.7800	Box
-5.7800	Boxer
-4.8258	Brackenstall
-5.7800	Brackenstall's
-5.3029	Brackenstall,
-5.4790	Brackenstall.
-5.7800	Brackwell,
-5.7800	Bradford,
-5.7800	Bradley's,
-5.7800	Bradley,
-5.7800	Bradshaw
-5.7800	Bradshaw,"
-5.4790	Bradshaw.
-5.1779	Bradstreet
-5.0810	Bradstreet,
-5.4790	Bradstreet.
-5.7800	Bradstreet."
-5.4790	Brambletye
-5.7800	Brandy!"
-5.7800	Brazil.
-5.7800	Brazilian
-5.7800	Brazils."
-5.7800	Breadth
-5.4790	Break
-5.7800	Breckinridge
-5.4790	Breckinridge,
-5.7800	Breckinridge,"
-5.7800	Breckinridge;
-5.0810	Brenda
-5.4790	Brenda,
-5.7800	Brethren,
-5.4790	Brethren,"
-5.7800	Brewer,
-5.1779	Briarbrae
-5.7800	Briarbrae,
-5.7800	Briarbrae,"
-5.7800	Briarbrae."
-5.7800	Brickfall
-4.9349	Bridge
-5.1779	Bridge,
-5.7800	Bridge--that
-5.0810	Bridge.
-5.7800	Bridge."
-5.7800	Bridge.'
-5.7800	Briefly
-5.7800	Briefly,
-5.7800	Briggs
-5.7800	Briggs.
-5.4790	Brigham
-5.7800	Brighton.
-5.1779	Bring
-5.4790	Brings
-5.7800	Brinvilliers,
-4.7386	Briony
-5.4790	Bristol
-5.4790	Bristol,
-5.7800	Bristol.
-5.7800	Bristol?
-5.1779	Britain
-5.4790	Britain.
-5.7800	Britannia,"
-5.7800	Britannica."
-5.7800	Britannica.'
-4.1079	British
-5.7800	British;
-5.7800	Britisher
-5.7800	Britisher.
-5.4790	Briton.
-4.3821	Brixton
-5.7800	Brixton,
-5.7800	Brixton,"
-5.7800	Brixton,'
-5.3029	Brixton.
-5.7800	Brixton."
-5.4790	Broad
-5.7800	Broad,
-5.7800	Broadmoor
-5.7800	Broads
-5.7800	Broads,
-5.7800	Broads.
-5.7800	Broderick
-5.3029	Broken
-5.7800	Bromley
-5.7800	Bronzing
-5.7800	Brooding
-4.8769	Brook
-5.7800	Brooklyn,
-5.7800	Brooks
-4.1779	Brother
-5.7800	Brother!"
-5.4790	Brother,
-5.7800	Brother,"
-5.7800	Brother?"
-5.7800	Brotherhood
-5.7800	Brotherhood.
-5.3029	Brothers
-5.7800	Brothers',
-5.1779	Brothers,
-5.0810	Brown
-4.9349	Brown,
-5.7800	Brown.
-4.8769	Browner
-5.7800	Browner's
-5.4790	Browner,
-5.7800	Browner.
-5.7800	Browners,
-5.7800	Bruce
-5.0019	Bruce-Partington
-5.7800	Bruce-Partington's
-5.7800	Brun,
-4.7008	Brunton
-5.3029	Brunton's
-5.4790	Brunton,
-5.7800	Brunton,"
-5.1779	Brunton.
-5.7800	Brunton."
-5.4790	Brussels
-5.7800	Buda,
-5.7800	Buda-Pesth.
-5.7800	Buddha,
-5.7800	Buddha.
-5.7800	Buddhism
-5.7800	Buffalo,
-5.7800	Buffelsspruit,
-5.7800	Buffs,
-5.7800	Builder
-5.7800	Builder.
-5.7800	Buildings,
-5.4790	Bull
-5.7800	Bull,
-5.3029	Bull.
-5.3029	Bunsen
-5.7800	Burberry
-5.7800	Burberry,
-5.7800	Burberry.
-5.7800	Bureau,
-5.7800	Burglary
-5.4790	Burke
-5.4790	Burnet
-5.7800	Burnet's
-5.3029	Burnet,
-5.7800	Burnet."
-5.7800	Burnet?"
-5.0810	Burnwell
-5.7800	Burnwell,
-5.7800	Burnwell.
-5.7800	Bushman
-5.7800	Bushmen
-5.7800	Business
-5.7800	Busy
-5.7800	Busybody
-2.8986	But
-4.2615	But,
-5.7800	But--but--"
-5.7800	But--yes--it
-3.8662	By
-5.7800	By-the-way,
-5.4790	C
-5.7800	C'--that
-5.7800	C,
-5.1779	C.
-5.7800	C.--and
-5.7800	C.B.,
-5.7800	C.C.H.'
-5.7800	C.C.H.,"
-5.7800	C2
-5.7800	C2.
-5.7800	CARBUNCLE
-5.7800	CARDBOARD
-5.7800	CARFAX
-5.7800	CASE
-5.7800	CASE-BOOK
-3.9807	CHAPTER
-5.7800	CHARLES
-5.7800	CIRCLE
-5.7800	CLERK
-5.7800	CLIENT
-5.7800	COLOURMAN
-5.7800	COMPLETE
-5.7800	COPPER
-5.7800	CORONET
-5.7800	CREEPING
-5.7800	CROOKED
-5.7800	CYCLIST
-5.0019	Cabinet
-5.4790	Cabinet,
-5.7800	Cabul.
-4.5247	Cadogan
-5.4790	Cadogen
-5.4790	Cafe
-5.4790	Cairns
-5.7800	Cairns,
-5.7800	Cairns."
-5.7800	Cal.,
-5.7800	Calcutta
-5.7800	Calcutta,
-5.7800	Calendar
-5.7800	Calhoun,
-5.7800	Calhoun?"
-5.3029	California
-4.8769	California,
-5.7800	California.
-5.4790	California?"
-5.7800	Californian
-5.7800	Californians.
-5.4790	Call
-5.7800	Cam
-5.0019	Camberwell
-5.3029	Camberwell,
-5.7800	Camberwell--that
-5.4790	Camberwell.
-5.7800	Camberwell."
-5.7800	Camberwell:
-5.1779	Cambridge
-5.3029	Cambridge,
-5.1779	Cambridge.
-5.7800	Cambridge?"
-5.7800	Cambridgeshire
-5.7800	Camden
-5.7800	Came
-5.7800	Camford
-5.7800	Camford.
-5.4790	Campaign,
-5.4790	Campden
-4.3328	Can
-5.4790	Canada
-5.3029	Canada.
-5.7800	Canadian
-5.7800	Canal.
-5.7800	Candahar
-5.7800	Cannon
-5.7800	Canterbury,
-5.7800	Canterbury."
-5.7800	Canterbury;
-5.4790	Cantlemere
-5.1779	Cantlemere,
-5.7800	Cantlemere--"
-5.7800	Cantlemere?
-5.7800	Canyon
-5.7800	Canyon.
-5.3029	Cape
-5.3029	Capital
-5.4790	Capital!
-5.7800	Capsules
-4.1889	Captain
-5.7800	Captain."
-5.7800	Capture
-5.4790	Capus
-5.7800	Carbonari,
-5.7800	Carbonari.
-5.7800	Carbuncle
-5.7800	Card
-5.7800	Cardboard
-5.7800	Cardinal
-5.4790	Carefully
-5.7800	Carere
-5.7800	Carere,
-4.7800	Carey
-5.4790	Carey's
-4.9349	Carey,
-5.3029	Carey.
-5.7800	Carey."
-5.7800	Carey;
-5.1779	Carfax
-5.7800	Carfax,
-5.7800	Carfax.
-5.7800	Carfax."
-5.7800	Carfax?"
-5.7800	Carina
-5.7800	Carlo,
-5.7800	Carlo?"
-5.7800	Carlsbad.
-5.0810	Carlton
-5.7800	Carlton,
-5.7800	Carlyle,
-5.7800	Carlyle."
-5.4790	Carnaway
-5.7800	Carnaway's
-5.7800	Carnaway?"
-5.7800	Carolina,
-5.7800	Carolinas,
-5.7800	Carrie
-5.7800	Carriton's--the
-4.6339	Carruthers
-5.7800	Carruthers's
-4.6339	Carruthers,
-5.3029	Carruthers.
-5.4790	Carson
-5.7800	Carstairs,
-5.7800	Carston
-5.7800	Carston'--dear
-5.4790	Carter,
-5.0810	Cartwright
-5.3029	Cartwright,
-5.3029	Cartwright.
-5.0810	Case
-5.7800	Case-Book
-5.7800	Cases
-5.7800	Cassel-Felstein,
-5.3029	Castalotte
-5.4790	Castalotte,
-5.7800	Castle
-5.7800	Castle,
-5.7800	Catch!--A
-5.7800	Cathcart
-5.4790	Catherine
-5.4790	Catholic
-5.7800	Catholic;
-5.7800	Cattle
-5.7800	Catullus,
-5.0019	Caulfield
-5.7800	Caunter,
-5.4790	Cavalier
-5.4790	Cavendish
-5.4790	Cavendish,
-5.7800	Cawnpore
-5.7800	Cawnpore.
-5.7800	Cañon
-5.7800	Cañon,
-4.3650	Cecil
-5.7800	Cecil,"
-5.7800	Cedars
-5.7800	Cedars,
-5.7800	Cedars?"
-5.7800	Celt,
-5.1779	Celtic
-5.1779	Central
-5.7800	Central!"
-5.3029	Certainly
-5.7800	Certainly,
-5.7800	Ceylon,
-5.4790	Chain
-5.7800	Chair
-5.7800	Chairman
-5.7800	Chairman,"
-5.7800	Chairman--yourself,
-5.7800	Chaldean
-5.7800	Chaldean,
-5.7800	Chamber,
-5.7800	Chance
-5.7800	Chancelleries
-5.7800	Chandos--as
-5.7800	Channel,"
-5.7800	Channel.
-5.7800	Chapel
-5.3029	Chapter
-5.7800	Charasiab
-4.5013	Charing
-3.8992	Charles
-5.7800	Charles'
-4.4183	Charles's
-5.7800	Charles's.
-4.7386	Charles,
-5.0810	Charles.
-5.4790	Charles?"
-5.4790	Charlie
-4.6661	Charlington
-5.7800	Charlington,
-5.7800	Charming
-5.0810	Charpentier
-5.4790	Charpentier's
-5.3029	Charpentier,
-5.7800	Charpentier,"
-5.7800	Chart
-5.7800	Charybdis
-5.1779	Chatham
-5.4790	Chatham.
-5.7800	Cheer
-5.7800	Cheeseman's,
-5.7800	Cheeseman's?"
-5.7800	Chemistry.--Profound.
-5.7800	Chequers
-5.7800	Chequers,
-5.7800	Chequers.
-5.0810	Chester
-5.3029	Chesterfield
-5.7800	Chesterfield,
-5.7800	Chesterfield.
-5.7800	Chesterton,
-5.7800	Chianti,
-4.7386	Chicago
-5.7800	Chicago's
-4.8258	Chicago,
-5.7800	Chicago,"
-5.7800	Chicago--actually
-5.0019	Chicago.
-5.0810	Chicago."
-5.7800	Chicago.'
-5.7800	Chicago;
-5.3029	Chicago?"
-5.7800	Chief
-5.7800	Chilian-wallah.
-5.4790	Chiltern
-5.7800	Chin
-5.4790	China
-5.7800	China,
-5.4790	China.
-5.7800	China?"
-4.8258	Chinese
-5.7800	Chinese,
-5.3029	Chislehurst
-5.4790	Chiswick
-5.7800	Chiswick,
-5.7800	Chiswick.
-5.7800	Choked
-5.7800	Choose
-5.4790	Choosing
-5.7800	Chopin's
-5.4790	Chosen
-5.4790	Chowdar
-5.4790	Chowdar,
-5.7800	Christ
-5.4790	Christ's
-5.4790	Christian
-5.7800	Christian,
-5.7800	Christians,
-5.7800	Christie
-5.7800	Christie's.
-4.9349	Christmas
-5.4790	Christmas,
-5.7800	Christmas.
-5.3029	Chronicle
-5.4790	Chronicle,"
-5.7800	Chubb
-5.7800	Chubb's
-4.8769	Church
-5.7800	Church,
-5.7800	Church.
-5.7800	Church."
-5.7800	Cinnamon
-5.3029	Circle
-5.7800	Circle,
-5.7800	Circle?"
-5.7800	Circumstantial
-5.4790	Circus.
-4.4578	City
-5.0019	City,
-4.6661	City.
-5.7800	City."
-5.1779	Civil
-4.6661	Clair
-5.1779	Clair's
-4.9349	Clair,
-5.3029	Clair.
-5.3029	Clapham
-5.7800	Clara
-5.7800	Clarendon
-5.4790	Claridge's
-5.7800	Clark
-5.7800	Clay
-5.7800	Clay's
-5.4790	Clay,
-5.4790	Clay,"
-5.7800	Clay.
-5.7800	Clayton
-5.4790	Clayton,
-5.0019	Clearly
-5.4790	Clearly,
-5.7800	Cleft
-5.7800	Clerk
-5.3029	Cleveland
-5.3029	Cleveland,
-5.7800	Cleveland.
-5.7800	Cleveland?"
-5.7800	Cleveland?'
-5.7800	Client
-5.7800	Client's
-5.7800	Climbing
-5.1779	Close
-5.7800	Clotilde
-5.0810	Club
-5.7800	Club'--that
-5.1779	Club,
-5.3029	Club.
-5.7800	Clubs:
-5.7800	Clue
-5.7800	Clues
-5.3029	Co.
-4.8769	Co.,
-5.7800	Coaling
-5.7800	Coals
-5.7800	Coast.
-5.7800	Cobb,
-5.3029	Coburg
-5.3029	Cock
-5.7800	Cock,
-5.7800	Cock,"
-5.7800	Cock.
-5.7800	Cockneys
-5.7800	Cocksure,"
-5.7800	Coffin
-5.7800	Cold
-5.7800	Colin
-5.7800	Collar
-5.7800	Colleague
-5.1779	College
-5.7800	College,
-5.7800	College.
-5.7800	College.'
-3.7932	Colonel
-5.7800	Colonel!
-5.7800	Colonel!"
-4.6661	Colonel's
-4.5247	Colonel,
-5.4790	Colonel,"
-4.6339	Colonel.
-5.7800	Colonial
-5.7800	Colonies.
-5.7800	Colonies."
-5.7800	Colonna's
-5.7800	Colony
-5.7800	Colorado
-5.7800	Colourman
-5.7800	Columbine's
-4.1568	Come
-5.7800	Come!
-5.7800	Come!'
-4.6339	Come,
-5.4790	Coming
-5.7800	Commercial
-5.7800	Committees
-5.4790	Common,
-5.7800	Common,'
-5.7800	Commons
-5.7800	Commons,
-5.3029	Company
-5.4790	Company's
-5.0019	Company,
-5.7800	Company--well-known
-5.0810	Company.
-5.4790	Company."
-5.7800	Comparative
-5.7800	Compound
-5.4790	Conan
-5.7800	Concealment
-5.7800	Concerning
-5.4790	Conclusion
-5.7800	Conduit
-5.7800	Confess,
-5.7800	Confound
-5.7800	Congratulate
-5.7800	Conk-Singleton
-5.7800	Conqueror,
-5.7800	Conquest
-5.7800	Conquistadors,
-5.7800	Conservative,
-5.0019	Consider
-5.7800	Consider!
-5.7800	Consider,
-5.7800	Considering
-5.1779	Constable
-5.7800	Constabulary
-5.7800	Constabulary,
-5.7800	Constabulary--a
-5.3029	Constabulary.
-5.7800	Constructor
-5.1779	Continent
-5.7800	Continent,"
-5.4790	Continent.
-5.4790	Continent."
-5.0019	Continental
-5.4790	Continuation
-5.7800	Continue."
-5.7800	Contralto--hum!
-5.4790	Convinced
-5.7800	Cook's
-5.7800	Cook,
-4.5247	Coombe
-5.7800	Copenhagen.
-5.7800	Copernican
-4.8769	Copper
-5.7800	Coptic
-5.4790	Coram
-5.7800	Coram's
-5.3029	Coram,
-5.7800	Coram,"
-5.7800	Coram.
-5.7800	Coram."
-5.3029	Cormac
-5.3029	Cormac,
-5.7800	Cormac.
-5.4790	Cornelius
-5.7800	Cornelius,
-5.7800	Cornelius,"
-5.7800	Cornelius.
-4.7800	Cornish
-5.3029	Cornwall
-5.4790	Cornwall,
-5.7800	Cornwall.
-4.8769	Coroner:
-5.7800	Coronet
-5.7800	Coronet?'
-5.7800	Corot,
-5.7800	Corporal
-5.3029	Corporation
-5.7800	Corps,
-5.7800	Corresponding
-5.7800	Cosmopolitan
-5.7800	Cosmopolitan,"
-5.7800	Cosmopolitan.
-5.4790	Costa
-5.7800	Cottage
-4.4376	Could
-5.4790	Couldn't
-5.4790	Council
-5.7800	Council.
-5.1779	Councillor
-5.7800	Councillor!
-4.8769	Councillor,
-5.1779	Councillor,"
-5.3029	Councillor.
-5.4790	Councillor."
-5.7800	Councillor?"
-5.7800	Counsellor
-4.3650	Count
-5.7800	Count!
-5.7800	Count!"
-5.1779	Count's
-5.1779	Count,
-4.9349	Count.
-5.7800	Count?
-4.8258	Countess
-5.7800	Countess,
-5.3029	Counties
-5.7800	Country
-5.7800	Country,
-4.7800	County
-5.7800	Coupled
-4.7386	Court
-5.1779	Court,
-5.7800	Court.
-5.1779	Covent
-5.7800	Coventry's
-5.7800	Coventry,
-5.7800	Coventry."
-5.7800	Cover
-5.7800	Coward!'
-5.7800	Cowper,
-5.7800	Cowper.
-5.7800	Cox
-5.3029	Coxon
-5.7800	Coxon's
-5.7800	Coxon's,
-5.7800	Coxon's.
-5.7800	Crabbe
-5.7800	Crane
-5.7800	Craven
-5.3029	Credit
-5.7800	Creek,"
-5.7800	Creep
-5.4790	Creeping
-5.7800	Creina,
-5.7800	Cremona
-5.7800	Crendall."
-5.7800	Creole
-5.7800	Crewe.
-5.4790	Crime
-5.7800	Crimea
-5.1779	Crimean
-5.4790	Criminal.'
-5.7800	Criterion
-5.7800	Crockford.
-5.7800	Crockford?
-5.1779	Croker,
-5.4790	Croker.
-5.4790	Crooked
-5.4790	Crooksbury
-5.7800	Crosby
-4.4578	Cross
-5.7800	Cross'
-5.3029	Cross,
-5.7800	Cross,"
-5.4790	Cross.
-5.7800	Cross."
-5.7800	Crossing,
-5.4790	Crouching
-5.4790	Crow
-5.3029	Crowder,
-4.9349	Crown
-5.7800	Crown!"
-5.7800	Crown."
-5.7800	Croy,
-5.3029	Croydon
-5.3029	Croydon,
-5.7800	Croydon.
-5.7800	Croydon.'
-5.7800	Croydon?"
-5.7800	Crystal
-4.6661	Cubitt
-5.3029	Cubitt's
-5.1779	Cubitt,
-5.7800	Cubitt,"
-5.3029	Cubitt.
-5.7800	Culture,
-5.7800	Culture.
-4.8258	Culverton
-5.7800	Cummings
-5.7800	Cummings,
-5.7800	Cummings.
-5.7800	Cunard
-4.6339	Cunningham
-5.1779	Cunningham's
-5.7800	Cunningham's?"
-5.0810	Cunningham,
-5.7800	Cunningham,"
-5.0810	Cunningham.
-5.7800	Cunningham."
-5.1779	Cunninghams
-5.7800	Cunninghams,
-5.7800	Cunninghams.
-5.4790	Cup,
-5.7800	Cup--Silver
-5.7800	Cup.
-5.7800	Cup."
-5.4790	Curious,
-5.3029	Curse
-5.7800	Curzon
-5.7800	Cusack
-5.7800	Cusack,
-5.7800	Cusack--and
-4.6661	Cushing
-5.7800	Cushing's
-5.0019	Cushing,
-5.3029	Cushing,"
-5.3029	Cushing.
-5.4790	Cushing?
-5.7800	Cuvier
-5.7800	Cyanea
-5.7800	Cyclist
-5.7800	Cyclopides.
-5.7800	Cyclopides."
-4.8258	Cyril
-5.7800	Cyril."
-5.4790	D
-5.7800	D'you
-5.7800	D,
-5.0019	D.
-5.7800	D.D.,
-5.7800	DANCING
-5.7800	DETECTIVE
-5.7800	DEVIL'S
-5.7800	DISAPPEARANCE
-5.7800	DOUGLAS
-5.7800	DYING
-5.7800	Dacre
-4.6661	Daily
-5.3029	Damery
-5.7800	Damery?"
-5.7800	Damp
-5.7800	Dancing
-5.7800	Dane,
-5.4790	Danger
-5.7800	Dangling
-5.7800	Danish
-5.7800	Danite
-5.7800	Danton
-5.7800	Dantzig,
-5.7800	Dare
-5.7800	Darjeeling.
-5.4790	Dark
-5.4790	Darkest
-5.7800	Darkly
-5.0019	Darkness
-5.7800	Darlington
-4.8258	Dartmoor
-5.7800	Dartmoor,
-5.1779	Dartmoor.
-5.7800	Dartmoor."
-5.7800	Dartmoor;
-5.7800	Darwin
-5.7800	Darwinian
-5.7800	Date,
-5.7800	Daubensee,
-5.4790	Daulat
-5.7800	Davenport.
-5.4790	David
-5.7800	David,
-5.7800	David?"
-5.7800	Davos
-5.4790	Dawning
-5.3029	Dawson
-5.7800	Dawson!"
-5.7800	Dawson's
-5.7800	Dawson,
-4.9349	Day
-5.7800	Day's
-5.0810	Day,
-5.7800	Day.
-5.1779	De
-5.7800	Deacon,
-5.7800	Dead
-4.7008	Dear
-5.7800	Dear,
-5.7800	Dearest
-5.3029	Death
-5.7800	Death.
-5.7800	Deceit,
-5.7800	December
-5.7800	December,
-5.7800	December--four
-5.0810	Deduction
-5.1779	Deep
-5.7800	Deeply
-5.7800	Deer
-5.7800	Deher
-5.7800	Dei.
-5.4790	Delegate
-5.7800	Delegate,
-5.7800	Delhi
-5.4790	Demonstration
-5.3029	Dene
-5.7800	Denis
-5.7800	Denn
-5.4790	Dennis
-5.7800	Dennis,
-5.7800	Department.
-5.7800	Department.)
-5.4790	Depend
-5.7800	Deptford
-5.7800	Derby
-5.7800	Derby,
-5.7800	Derby.
-5.7800	Derby."
-5.4790	Derbyshire
-5.7800	Derbyshire,
-5.4790	Derbyshire.
-5.7800	Desborough!
-5.7800	Desborough's
-5.4790	Desborough,
-5.7800	Desborough.
-5.7800	Describe
-5.7800	Desiring
-5.7800	Desmond
-5.7800	Desmond,
-5.7800	Desmond?"
-5.7800	Desmonds,
-5.7800	Desultory
-5.7800	Detection
-5.7800	Detective
-5.4790	Detective!
-5.7800	Detroit,
-5.7800	Deutsche
-5.7800	Devil's
-5.7800	Devine
-5.4790	Devine's
-5.7800	Devine,
-5.4790	Devine.
-5.7800	Devine?"
-5.3029	Devon
-5.7800	Devon.
-4.7800	Devonshire
-5.4790	Devonshire,
-5.0810	Devonshire.
-5.7800	Devonshire."
-5.4790	Devoy,
-5.7800	Diamond
-5.4790	Diary
-5.7800	Dickens's
-4.1366	Did
-5.1779	Didn't
-5.7800	Died
-5.7800	Dieppe.
-5.7800	Digger
-5.4790	Dike
-5.7800	Dike.
-5.7800	Diminutive
-5.7800	Dingle;
-5.4790	Dinner
-5.7800	Dio
-5.0019	Diogenes
-5.7800	Dir
-5.7800	Direct
-5.7800	Directory
-5.7800	Directory,"
-5.3029	Disappearance
-5.4790	Discourses
-5.7800	Disease
-5.7800	Disgraceful,
-5.7800	Disguised,
-5.7800	Dismal
-5.7800	Disregarding
-5.7800	Dissolved
-5.7800	Distinction
-5.7800	Division
-5.7800	Division,
-5.7800	Dixie,
-5.3029	Dixon,
-3.8662	Do
-5.1779	Dobney
-5.4790	Dobney,
-5.4790	Dock
-5.7800	Docks,
-5.7800	Dockyard,
-5.1779	Doctor
-4.5013	Doctor,
-4.8258	Doctor,"
-5.7800	Doctor--I'll
-5.7800	Doctor--as
-5.7800	Doctor--if
-5.3029	Doctor.
-5.4790	Doctor."
-5.7800	Doctor;
-5.7800	Doctor?"
-5.7800	Doctors'
-5.7800	Documents,
-5.1779	Dodd
-5.1779	Dodd,
-5.7800	Dodd,'
-5.4790	Dodd.
-5.7800	Dodge.
-4.7386	Does
-5.7800	Dogs
-5.7800	Dogs.
-5.7800	Dolores
-5.7800	Dolores,
-5.7800	Dolores,"
-5.7800	Dolsky
-5.3029	Don
-4.2615	Don't
-5.7800	Doncaster?
-5.7800	Done
-5.4790	Donnithorpe
-5.4790	Donnithorpe,
-5.7800	Dook
-5.7800	Dook,
-5.7800	Door
-5.7800	Doors,
-5.7800	Dorak
-5.7800	Dorak.
-5.7800	Dorak."
-5.7800	Doran
-5.4790	Doran's
-5.0019	Doran,
-5.4790	Doran.
-5.7800	Doran?"
-5.7800	Dorking?
-5.0810	Dost
-3.9108	Douglas
-5.0019	Douglas's
-4.8258	Douglas,
-5.3029	Douglas,"
-5.7800	Douglas--and,
-5.7800	Douglas--forty-five
-4.7008	Douglas.
-5.4790	Douglas."
-5.7800	Douglas:
-5.4790	Douglases
-5.7800	Dovercourt
-5.7800	Dovercourt.
-5.0019	Down
-5.4790	Down,
-5.7800	Down.
-5.4790	Downing
-5.7800	Downing's
-5.4790	Downs,
-5.4790	Downs."
-5.7800	Dowson
-5.4790	Doyle
-3.3535	Dr.
-5.7800	Dragon,
-5.7800	Dragon.
-5.7800	Dragon."
-5.4790	Drama
-5.7800	Draper's
-5.4790	Draw
-4.2485	Drebber
-4.8258	Drebber's
-4.7386	Drebber,
-5.4790	Drebber,'
-5.1779	Drebber.
-5.7800	Drebber;
-5.7800	Drebber?"
-5.4790	Drink
-5.4790	Drive
-5.7800	Driving
-5.7800	Drop
-5.4790	Dublin,
-5.7800	Dubugue
-5.0019	Duchess
-5.7800	Duchess's
-5.7800	Duchess,
-4.3328	Duke
-4.9349	Duke's
-5.7800	Duke's--was
-5.0019	Duke,
-5.7800	Dulong.
-5.7800	Dunbar
-5.7800	Dunbar's
-5.7800	Dunbar,
-5.7800	Dunbar,"
-5.7800	Dunbar--or
-5.7800	Dunbar.
-5.7800	Dunbar?"
-4.8258	Duncan
-5.7800	Dundas
-5.4790	Dundee
-5.4790	Dundee,
-5.7800	Dundee,'
-5.4790	Dundee.
-5.7800	Dundee.'
-5.3029	Dunlop
-5.7800	Dunlop,
-5.7800	Dunlop.
-5.4790	Dunn
-5.7800	Dunn,
-5.7800	Dupin
-5.7800	Dupin,"
-5.7800	Dupin.
-5.7800	Durando--was
-4.5013	During
-5.3029	Dutch
-5.4790	Dutch,
-5.7800	Dutchman
-5.7800	Dying
-5.7800	Dynamics
-5.1779	E
-5.4790	E's
-5.7800	E,
-5.0019	E.
-5.7800	E.C.
-5.7800	ELRI.ES.
-5.7800	ELSIE
-5.7800	EMPTY
-5.7800	ENGINEER'S
-4.6339	Each
-5.7800	Eagerly
-5.0810	Eagle
-4.9349	Earl
-5.7800	Earl,
-5.7800	Earl,"
-5.4790	Early
-5.7800	Easier
-4.7800	East
-5.4790	East,
-5.7800	East-End
-5.7800	East-end,
-5.7800	East.
-5.7800	East?
-5.7800	Eastbourne,
-4.8258	Eastern
-5.7800	Eastern?"
-5.7800	Eat
-4.7386	Eccles
-5.0019	Eccles,
-5.7800	Eccles,"
-5.7800	Eccles--I
-5.4790	Eccles.
-5.7800	Eccles."
-5.7800	Eccles?
-5.7800	Echo
-5.7800	Echo,
-5.7800	Eckermann's
-5.7800	Edgar
-5.4790	Edgeware
-5.7800	Edgware
-5.7800	Edinburgh,
-5.7800	Edison
-5.4790	Edith
-5.7800	Edith,
-5.7800	Edith--Miss
-5.7800	Edith.
-5.4790	Editor
-5.7800	Edmonton
-5.7800	Edmunds
-5.7800	Edmunds,
-4.8769	Eduardo
-5.7800	Educated
-5.3029	Edward
-5.7800	Edward,
-4.8258	Edwards
-5.7800	Edwards!"
-5.7800	Edwards's
-5.1779	Edwards,
-5.7800	Edwards,"
-5.7800	Edwards--then
-5.7800	Edwards;
-5.7800	Effie
-5.7800	Effie's
-5.7800	Effie,
-5.7800	Effie,"
-5.7800	Effie?'
-5.7800	Egan,"
-5.7800	Eglonitz--here
-5.7800	Egria.
-5.7800	Egypt,
-5.7800	Egyptian
-5.7800	Eh,
-5.7800	Eh?
-5.3029	Eight
-5.7800	Eight,
-4.9349	Either
-5.1779	Elder
-5.7800	Elder's
-5.4790	Elders
-5.7800	Elders,
-5.7800	Elders--women
-5.4790	Elders.
-5.7800	Elect.
-5.7800	Electrical
-5.7800	Eleven,
-5.7800	Eley's
-5.3029	Elias
-5.7800	Eliminate
-5.7800	Elise!'
-5.7800	Eliza.
-5.7800	Elizabeth.]"
-5.3029	Elizabethan
-5.7800	Elman
-5.7800	Elman,
-5.7800	Elms
-5.4790	Elrige's
-5.7800	Elrige's,
-5.0810	Elsie
-5.7800	Elsie's
-5.7800	Elsie,
-5.7800	Elsie.
-5.7800	Elsie?
-5.7800	Embankment
-5.7800	Embassies
-5.7800	Embassy
-5.7800	Embassy.
-5.7800	Embassy."
-5.7800	Emilia
-4.9349	Eminent
-5.4790	Emperor
-5.7800	Emperor,
-5.7800	Emperor.
-5.4790	Empire
-5.7800	Empty
-4.8258	Emsworth
-5.7800	Emsworth's
-5.1779	Emsworth,
-5.7800	Emsworth,"
-5.1779	Emsworth.
-5.7800	Emsworth?'
-5.7800	Encyclopaedia'
-5.0810	End
-5.7800	End,
-5.4790	End.
-5.7800	End."
-5.7800	Endell
-5.7800	Endowment
-5.7800	Engineer's
-4.0898	England
-4.2886	England,
-5.4790	England,"
-5.7800	England,'
-5.7800	England--a
-5.7800	England--second
-5.7800	England--slim,
-4.2886	England.
-5.0810	England."
-5.7800	England.'
-5.7800	England?"
-5.7800	England?'
-5.3029	Englischer
-4.0557	English
-4.6661	English,
-5.4790	English.
-5.7800	English."
-4.8769	Englishman
-5.7800	Englishman's
-5.1779	Englishman,
-5.7800	Englishman,"
-5.3029	Englishman.
-5.7800	Englishman;
-5.4790	Englishmen
-5.3029	Englishwoman
-4.8769	Enoch
-5.7800	Enter
-5.7800	Envelopes
-5.7800	Envoy.
-5.3029	Epilogue
-5.4790	Episode
-5.7800	Ere
-5.7800	Ernest
-5.7800	Ernest's
-5.7800	Ernest,
-5.7800	Ernest.
-5.7800	Ernest?
-5.7800	Escaped
-5.7800	Escott
-5.7800	Escurial
-5.3029	Esher
-5.4790	Esher,
-5.4790	Esher.
-5.7800	Esher."
-5.7800	Esmeralda,
-5.7800	Esq.
-5.7800	Esq.,
-5.7800	Esquimau.
-5.7800	Esquimau?"
-5.7800	Essex,
-5.7800	Establishment,
-5.7800	Estimates
-5.7800	Etherege,
-5.3029	Eton
-4.6039	Ettie
-5.7800	Ettie!"
-5.7800	Ettie's
-4.7800	Ettie,
-5.7800	Ettie--nor
-5.0810	Ettie.
-5.7800	Ettie:
-5.7800	Euclid.
-5.7800	Euclid."
-5.7800	Eugenia
-4.6661	Europe
-5.3029	Europe,
-5.7800	Europe--"
-4.7008	Europe.
-5.4790	Europe."
-5.7800	Europe.'
-5.7800	Europe?
-4.4790	European
-5.7800	Europeans
-4.7800	Eustace
-5.1779	Euston
-5.4790	Euston.
-5.7800	Euston."
-5.3029	Eva
-5.7800	Eva's
-5.7800	Eva.
-5.0810	Evans
-5.7800	Evans,
-5.7800	Evans,'
-5.7800	Evans.
-4.0988	Even
-5.3029	Evening
-5.7800	Events
-5.4790	Eventually,
-4.2359	Every
-5.3029	Everybody
-4.6339	Everything
-5.4790	Everywhere
-5.7800	Evidence
-5.0810	Evidently
-5.3029	Evidently,
-5.1779	Evil
-5.7800	Ex-President
-5.7800	Exactly
-5.7800	Exactly,'
-5.7800	Examine
-5.4790	Excellent,
-5.7800	Excelsior.
-5.3029	Except
-5.7800	Excessive
-5.3029	Exchange
-5.4790	Exchange,
-5.4790	Excuse
-5.7800	Exeter,
-5.7800	Exhausted
-5.7800	Exit
-5.4790	Experience
-5.7800	Explosive,
-5.7800	Exposure
-5.4790	Extract
-5.0810	Eyford
-5.3029	Eyford,
-5.7800	Eyford."
-5.4790	Ezekiah
-5.7800	F.
-5.7800	FACE
-5.7800	FEAR
-5.7800	FERRIER,
-5.7800	FINAL
-5.7800	FIVE
-5.7800	FOOT
-5.7800	FOUR
-5.7800	FRANCES
-5.7800	Faber
-5.7800	Face
-5.7800	Faces
-5.7800	Failing
-5.0019	Fairbairn
-5.7800	Fairbairn,
-5.7800	Fairbank
-5.7800	Fairbank,
-5.7800	Fairdale
-5.7800	Fairly
-5.7800	Faithfully
-5.7800	Falder
-5.7800	Falder."
-5.4790	Fall.
-5.7800	Fall."
-5.7800	Falmouth
-5.7800	Falmouth.
-5.7800	Familiar
-5.7800	Family
-4.5759	Far
-5.7800	Fareham
-5.7800	Farintosh,
-5.1779	Farm
-5.7800	Farm,
-5.7800	Farm-house
-5.4790	Farm.
-5.7800	Farm."
-5.4790	Farnham
-5.3029	Farnham,
-5.4790	Farnham.
-5.7800	Farnham."
-5.7800	Farnham;
-5.7800	Farquhar,
-5.7800	Farrington
-5.7800	Fashionable
-5.7800	Fate
-5.7800	Fate.
-5.3029	Father
-5.1779	Fear
-5.7800	Fear!"
-5.4790	Fear,
-5.7800	Fear,"
-5.3029	Fear.
-5.4790	Fear."
-5.7800	Fear?"
-5.7800	Fear?'
-5.0019	February
-5.7800	Feel
-5.4790	Fenchurch
-5.3029	Ferguson
-5.7800	Ferguson's
-5.7800	Ferguson,
-5.7800	Ferguson.
-5.7800	Ferguson."
-5.7800	Ferguson?"
-5.7800	Feringhee,
-5.3029	Fernworthy
-5.7800	Ferrers
-4.2002	Ferrier
-5.0019	Ferrier's
-5.0810	Ferrier,
-5.1779	Ferrier,"
-4.9349	Ferrier.
-5.7800	Ferrier;
-5.7800	Ferrier?"
-5.7800	Ferriers
-5.4790	Few
-5.7800	Ffolliott,
-5.7800	Fielding
-5.7800	Fifth
-5.7800	Fifty
-5.7800	Fifty-odd
-5.0019	Fighting
-5.7800	Fille
-5.7800	Filled
-5.7800	Final
-4.3176	Finally
-4.4183	Finally,
-5.7800	Financial
-5.4790	Find
-5.1779	Finding
-5.7800	Finns
-5.7800	Firbank
-5.7800	Fire
-4.7008	First
-5.4790	First,'
-5.7800	Fisher,
-4.9349	Fitzroy
-5.7800	Fitzroy's
-4.8258	Five
-5.3029	Fixing
-5.7800	Flag
-5.7800	Flaubert
-5.3029	Fleet
-5.4790	Flight
-4.8769	Flora
-5.7800	Florence
-5.7800	Florida
-5.7800	Florida,
-5.7800	Florida.
-5.4790	Flower
-5.7800	Flowers--good
-5.7800	Flushing
-5.7800	Fly
-5.7800	Folk
-5.7800	Folkestone
-5.4790	Follow
-5.3029	Following
-5.7800	Foot
-5.7800	Footmarks
-5.7800	Footsteps
-3.5272	For
-5.4790	Forbes
-5.1779	Forbes,
-5.3029	Forbes.
-5.7800	Force."
-5.7800	Ford
-5.4790	Fordham
-5.7800	Fordham,
-5.7800	Fordingbridge
-5.7800	Fordingham
-5.7800	Fordingham?
-4.7386	Foreign
-5.7800	Foreman
-5.7800	Foremost,
-5.0810	Forest
-5.7800	Forgery."
-5.7800	Forget
-5.4790	Formerly
-5.7800	Formosa
-5.0810	Forrester
-5.7800	Forrester's
-5.4790	Forrester's.
-5.1779	Forrester,
-5.7800	Forrester,"
-5.4790	Forrester.
-5.7800	Forrester?"
-5.7800	Fort
-5.7800	Fortescue
-5.7800	Forton
-5.7800	Fortunately
-5.3029	Fortunately,
-5.7800	Forward!
-5.7800	Foul
-5.7800	Foul-mouthed
-5.4790	Foulmire.
-5.0810	Four
-5.7800	Four!"
-5.4790	Four,
-5.7800	Four,"
-5.7800	Four,'
-5.4790	Four.
-5.4790	Four."
-5.4790	Fournaye
-5.3029	Fournaye,
-5.1779	Fowler
-5.7800	Fowler."
-5.7800	Framed
-5.7800	Framework
-4.9349	France
-5.3029	France,
-5.0810	France.
-5.4790	France?"
-4.5496	Frances
-5.7800	Frances's
-5.4790	Frances,
-5.7800	Frances,"
-5.3029	Frances.
-5.7800	Frances."
-5.7800	Frances?
-5.7800	Frances?"
-5.3029	Francis
-5.4790	Francisco,
-5.0810	Franco-Midland
-5.7800	Franco-Prussian
-5.7800	Francois
-4.6339	Frank
-5.7800	Frank's
-5.4790	Frank.
-5.7800	Frank;
-5.7800	Frankfort
-4.9349	Frankland
-5.3029	Frankland's
-5.0019	Frankland,
-5.7800	Frankland.
-5.7800	Frankness
-5.7800	Franz
-5.4790	Fraser
-5.4790	Fraser,
-5.7800	Fraser--for
-5.7800	Fraser.
-5.7800	Fratton
-5.7800	Freaks
-5.7800	Fred
-5.7800	Freebody,
-5.7800	Freedom
-5.3029	Freeman
-5.4790	Freeman's
-5.3029	Freeman,
-5.4790	Freemason,
-5.7800	Freemasonry?"
-5.4790	Freemen
-5.7800	Freemen!"
-5.4790	Freemen,
-5.4790	Freemen.
-5.7800	Freemen;
-5.7800	Freemen?"
-4.2359	French
-5.4790	French,
-5.7800	French.
-5.7800	French."
-5.7800	Frenchman
-5.7800	Frenchman.
-5.0810	Fresh
-5.4790	Fresno
-5.4790	Friday
-5.1779	Friday,
-5.7800	Friday--that
-5.4790	Friday.
-5.0810	Friend
-5.7800	Friesland,
-5.7800	Frinton.
-5.7800	Fritz
-5.7800	Fritz!'
-3.7800	From
-5.7800	Fuegians.
-5.7800	Fulham
-5.3029	Full
-5.7800	Fuller
-5.7800	Fulworth
-5.7800	Fulworth.
-5.7800	Funds
-5.7800	Furies,
-5.7800	Further
-5.7800	Fusiliers
-5.7800	Fusiliers,
-5.7800	G
-5.7800	G.
-5.1779	G.'
-5.7800	GABLES
-5.7800	GARRIDEBS
-5.7800	GO.
-5.7800	GOLDEN
-5.7800	GRANGE
-5.7800	GREEK
-5.3029	Gable
-5.3029	Gable,
-5.7800	Gable--so
-5.7800	Gable.
-5.7800	Gable;
-5.7800	Gables
-5.7800	Gables,
-5.7800	Gables.
-5.7800	Gaboriau's
-5.7800	Gabriel.
-5.7800	Gaelic,
-5.7800	Game
-5.7800	Gang.
-5.7800	Ganges.
-4.8769	Gar!
-5.4790	Gar!"
-5.7800	Gar,
-4.6339	Garcia
-5.3029	Garcia's
-4.8258	Garcia,
-5.7800	Garcia,"
-5.1779	Garcia.
-5.3029	Garden
-5.7800	Garden!
-5.7800	Garden."
-5.7800	Garden.'
-5.0810	Gardens
-5.0019	Gardens,
-5.7800	Gardens.
-5.7800	Garrideb
-5.7800	Garrideb!"
-5.7800	Garrideb,
-5.7800	Garrideb,"
-5.7800	Garrideb.
-5.7800	Garrideb?"
-5.7800	Garridebs
-5.7800	Garridebs.
-5.7800	Garridebs?
-5.7800	Gate
-5.7800	Gate,
-5.7800	Gate."
-5.7800	Gazette
-5.7800	Gazetteer."
-4.9349	Gelder
-5.7800	Gemmi
-5.7800	Gemmi,
-4.7800	General
-5.7800	Geneva.
-5.7800	Genius,
-4.5759	Gennaro
-5.7800	Gennaro!
-5.7800	Gennaro's
-5.3029	Gennaro,
-5.7800	Gennaro?
-5.7800	Gennaro?"
-5.7800	Gentes--published
-5.7800	Gentile,
-5.7800	Gentile.
-5.7800	Gentiles.
-5.7800	Gently
-5.7800	Genève
-5.7800	Geology.--Practical,
-4.5759	George
-5.3029	George!
-5.4790	George!"
-5.7800	George's
-5.3029	George's,
-4.7800	George,
-5.7800	Georgia,
-5.7800	Georgia."
-5.7800	Georgian
-5.7800	Georgian,
-5.7800	Georgian."
-4.1465	German
-5.0019	German,
-5.7800	German,'
-5.7800	German-speaking
-5.1779	German.
-5.7800	Germans
-5.7800	Germans.
-5.4790	Germany
-5.7800	Germany,
-5.7800	Germany.
-4.9349	Get
-5.4790	Getting
-5.7800	Ghazis
-5.7800	Giant
-5.7800	Gibraltar,
-5.7800	Gibraltar.
-5.7800	Gibson
-5.7800	Gibson's
-5.7800	Gibson,
-5.7800	Gibson,"
-5.7800	Gibson.
-5.7800	Gibson?"
-5.7800	Gigantic
-5.4790	Gilchrist
-5.4790	Gilchrist's
-4.8769	Gilchrist,
-5.7800	Gilchrist.
-5.7800	Gilchrist?"
-5.4790	Gill
-5.1779	Gilmerton
-5.7800	Giuseppe
-4.5759	Give
-5.4790	Gives
-5.7800	Giving
-5.4790	Glad
-5.4790	Gladstone
-5.3029	Glancing
-5.7800	Glasshouse
-5.7800	Globe
-5.7800	Globe,
-4.8258	Gloria
-5.3029	Gloucester
-5.7800	Gloucester.
-4.9349	Go
-5.7800	Go,
-4.1568	God
-4.5013	God!
-4.7008	God!"
-5.7800	God!'
-4.3176	God's
-4.5496	God,
-5.4790	God,'
-5.7800	God--the
-5.7800	God-forsaken
-5.7800	God."
-5.7800	God.'"
-4.0476	Godfrey
-4.9349	Godfrey's
-5.7800	Godfrey's.
-5.0810	Godfrey,
-5.0810	Godfrey.
-5.7800	Godno,
-4.7800	Godolphin
-5.7800	Godspeed.
-5.7800	God’s
-5.7800	Goethe
-5.7800	Goethe,--
-5.3029	Gold
-5.7800	Gold,
-5.7800	Golden
-5.7800	Goldini's
-5.4790	Gone
-5.7800	Gone,
-4.5013	Good
-5.7800	Good!
-5.4790	Good-afternoon,
-5.4790	Good-bye!"
-5.7800	Good-bye!'
-4.7800	Good-bye,
-5.7800	Good-bye--but
-5.7800	Good-bye.
-5.4790	Good-bye."
-5.7800	Good-bye;
-5.7800	Good-day
-5.4790	Good-day,
-5.7800	Good-morning,
-5.7800	Good-night
-5.7800	Good-night.
-5.7800	Good-night."
-5.7800	Good-night;
-5.4790	Goodge
-5.7800	Goodwins
-5.4790	Gordon
-5.7800	Gordon's
-5.7800	Gordon,
-4.9349	Gorgiano
-5.4790	Gorgiano,
-5.7800	Gorgiano--"
-5.7800	Gorgiano--how
-5.7800	Gorgiano.
-5.7800	Gorot
-5.4790	Gorot,
-5.1779	Got
-5.7800	Gothic
-5.7800	Gottsreich
-5.7800	Governess
-5.4790	Government
-5.4790	Government,
-5.7800	Governments
-5.7800	Governor
-5.7800	Governor-General?'
-5.7800	Gower,
-4.6661	Grace
-5.1779	Grace's
-4.8258	Grace,
-5.7800	Grace,"
-5.1779	Grace.
-5.7800	Grace."
-5.7800	Grace?
-5.7800	Gradually,
-5.7800	Grafenstein,
-5.7800	Graham
-5.4790	Grand
-5.7800	Grande,"
-4.9349	Grange
-5.7800	Grange"
-5.4790	Grange,
-4.9349	Grant
-5.7800	Granting
-5.7800	Grasp
-5.1779	Gravesend
-5.4790	Gravesend,
-5.7800	Gravesend.
-5.7800	Gray's
-4.5496	Great
-5.7800	Greathed
-5.1779	Grecian
-5.4790	Greece
-5.7800	Greece."
-4.4790	Greek
-5.4790	Greek,
-5.7800	Greek.
-5.4790	Green
-5.7800	Green,
-5.4790	Green.
-5.7800	Green;
-5.7800	Green?"
-5.7800	Greenwich
-5.4790	Greenwich.
-5.3029	Gregory
-5.1779	Gregory,
-5.7800	Gregory.
-4.2615	Gregson
-5.7800	Gregson!"
-5.3029	Gregson's
-4.5247	Gregson,
-5.1779	Gregson,"
-4.7800	Gregson.
-5.7800	Gregson."
-5.4790	Gregson?"
-5.7800	Grenoble,
-5.7800	Gresham
-5.4790	Greuze
-5.7800	Greuze,"
-5.4790	Greuze."
-5.7800	Greyminster
-5.7800	Grice
-5.7800	Griggs,
-4.8769	Grimesby
-5.7800	Grimms'
-4.5496	Grimpen
-5.1779	Grimpen,
-5.4790	Grimpen.
-5.7800	Grimpen:
-5.7800	Grit
-5.7800	Groat's,
-5.7800	Gross
-5.1779	Grosvenor
-5.4790	Grove
-5.7800	Grove.
-5.7800	Gruesome
-5.0019	Gruner
-5.7800	Gruner's
-5.7800	Gruner,
-5.3029	Gruner.
-5.7800	Gruner."
-5.7800	Gruner?"
-5.7800	Guard
-5.7800	Guards
-5.7800	Guards."
-5.7800	Guess
-5.7800	Guiacum
-5.7800	Guide
-5.4790	Guild
-5.7800	Guildford
-5.7800	Guilt--that
-5.7800	Guion
-5.7800	Guliolmi
-5.7800	Gustave
-5.3029	H
-5.7800	H,
-4.7008	H.
-5.4790	HERE
-5.4790	HIS
-5.0810	HOLMES
-5.7800	HOUND
-5.7800	HOUSE
-5.7800	HTML
-4.7800	Ha!
-5.3029	Ha,
-4.2118	Had
-5.7800	Hafiz
-5.7800	Hague
-5.7800	Haines-Johnson,
-5.4790	Hales
-4.7386	Half
-5.7800	Half-past
-5.4790	Half-way
-5.4790	Halfway
-5.7800	Halifax,
-4.0898	Hall
-5.7800	Hall!"
-4.3650	Hall,
-5.3029	Hall,"
-4.5013	Hall.
-4.6661	Hall."
-5.7800	Hall;
-5.7800	Hallamshire
-5.7800	Hallamshire;
-5.7800	Halle's
-5.0810	Halliday's
-5.7800	Hallo!
-4.8258	Halloa!
-5.1779	Halloa,
-5.7800	Ham
-5.4790	Ham,
-5.7800	Hamilton
-5.7800	Hammerford
-5.4790	Hammersmith
-5.7800	Hammersmith.
-5.3029	Hampshire
-5.7800	Hampshire,
-5.4790	Hampshire.
-5.3029	Hampstead
-5.7800	Hampstead,
-5.3029	Hampstead.
-5.4790	Hampstead."
-5.4790	Handbook
-5.7800	Hands
-5.7800	Handsome?"
-5.7800	Hankey's
-5.4790	Hanover
-5.7800	Hans
-5.7800	Happily,
-5.7800	Harbor
-5.7800	Harden,
-4.9349	Harding
-5.7800	Harding's
-5.7800	Harding,
-5.7800	Hardly
-5.0810	Hardware
-5.1779	Hardy,
-5.7800	Hare
-5.7800	Hargrave
-5.7800	Hargrave,
-5.7800	Hargreave,
-5.7800	Hark
-5.7800	Hark!"
-5.3029	Harker
-5.4790	Harker's
-5.7800	Harker's.
-5.3029	Harker,
-5.4790	Harker.
-5.7800	Harker?"
-5.1779	Harley
-5.1779	Harold
-5.7800	Harold,
-5.4790	Harold?'
-5.1779	Harraway,
-5.7800	Harriet,
-5.7800	Harringby,
-5.7800	Harris
-5.7800	Harris,
-5.7800	Harris?"
-4.6661	Harrison
-5.7800	Harrison,
-5.4790	Harrison,"
-5.3029	Harrison.
-5.7800	Harrison?"
-5.1779	Harrow
-5.4790	Harrow,
-5.4790	Harrow.
-5.0810	Harry
-5.7800	Harry,
-5.7800	Hart'
-5.7800	Hart';
-5.7800	Harvey
-5.7800	Harvey's
-5.7800	Harwich
-5.7800	Harwich,
-4.7008	Has
-4.8258	Hatherley
-5.7800	Hatherley's
-5.0810	Hatherley,
-5.7800	Hatherley,"
-5.7800	Hatherley.
-5.7800	Hatherley?'
-5.3029	Hatty
-5.7800	Havana,
-4.0019	Have
-5.7800	Haven
-5.7800	Haven't
-5.7800	Haven,
-4.3029	Having
-5.7800	Having,
-5.7800	Hay
-4.7800	Hayes
-5.7800	Hayes's
-5.4790	Hayes,
-5.7800	Hayes,"
-5.7800	Hayes--no
-5.7800	Hayes?"
-5.7800	Hayling,
-5.7800	Haymarket
-5.4790	Hayter
-5.7800	Hayter,
-5.7800	Hayward,
-2.4960	He
-5.0810	He'd
-5.0810	He'll
-4.3486	He's
-5.7800	He,
-5.7800	He?"
-5.7800	Head
-5.7800	Hearken,
-5.4790	Heath
-5.7800	Heath,
-5.3029	Heath.
-5.4790	Heath;
-4.7008	Heaven
-5.7800	Heaven!
-5.7800	Heaven!'
-5.0810	Heaven's
-5.1779	Heaven,
-5.7800	Heaven,"
-5.7800	Heavens!
-5.7800	Heavens,
-5.7800	Heavily
-5.3029	Heavy
-5.7800	Heber
-5.7800	Hebrew
-5.4790	Hebron,
-5.7800	Hebron.
-5.1779	Hector
-5.7800	Heh?'
-5.7800	Heidegger
-5.3029	Heidegger's
-5.4790	Heidegger,
-5.7800	Heinrich
-5.7800	Heir
-5.4790	Helen
-5.7800	Helen!
-5.7800	Helen,'
-5.7800	Helena.
-5.7800	Helmdale,
-5.3029	Help
-5.7800	Help!
-5.7800	Helston."
-4.8769	Hence
-5.7800	Hence,
-5.0019	Henderson
-5.7800	Henderson's
-5.3029	Henderson,
-5.4790	Henderson?"
-5.1779	Henri
-5.7800	Henrietta
-3.7630	Henry
-5.7800	Henry!
-5.7800	Henry!"
-4.8769	Henry's
-5.7800	Henry's--the
-5.7800	Henry's.
-4.3650	Henry,
-5.3029	Henry,"
-5.7800	Henry--all
-5.7800	Henry--don't
-5.7800	Henry--indeed
-4.5247	Henry.
-5.3029	Henry."
-5.7800	Henry;
-5.7800	Henry?
-5.3029	Henry?"
-5.7800	Henry?'
-3.9227	Her
-5.3029	Herald
-5.7800	Herald"
-5.4790	Herald.
-5.4790	Hercules.
-5.7800	Herder
-5.7800	Herder,
-3.7466	Here
-5.7800	Here!"
-4.8258	Here's
-4.7386	Here,
-5.4790	Hereford
-5.7800	Herefordshire
-5.7800	Herefordshire.
-5.4790	Herling,
-5.7800	Herman
-5.7800	Herr
-5.7800	Hers
-5.7800	Higgins
-4.5759	High
-5.7800	Highness
-5.7800	Highway
-5.7800	Highway.
-5.0810	Hilda
-5.7800	Hilda!
-5.7800	Hilda!"
-5.0810	Hilda.
-4.6039	Hill
-5.7800	Hill,
-5.3029	Hill.
-5.7800	Hill;
-5.7800	Hills?'
-4.4183	Hilton
-5.4790	Hilton,
-5.7800	Him
-5.7800	Himalayan
-5.7800	Himalayas,
-5.4790	Hindoo
-5.7800	Hindoo,
-5.7800	Hindoos
-5.7800	Hippocratic
-3.2189	His
-5.7800	Histon,
-5.4790	Hitherto
-5.7800	Hobbs."
-4.9349	Hobson's
-5.7800	Hof
-5.4790	Hof,
-5.7800	Hoffman
-5.7800	Holborn
-5.1779	Holborn,
-5.7800	Holborn.
-5.0810	Hold
-5.3029	Holder
-5.0019	Holder,
-5.3029	Holder,"
-5.7800	Holder,'
-5.0810	Holder.
-5.7800	Holder?
-5.7800	Holder?"
-4.6039	Holdernesse
-5.7800	Holdernesse,
-5.7800	Holdernesse.
-5.7800	Holdernesse?"
-5.1779	Holdhurst
-5.7800	Holdhurst!"
-5.0810	Holdhurst,
-5.3029	Holdhurst."
-5.7800	Holdhurst?"
-5.7800	Holiness
-5.3029	Holland
-5.3029	Holland,
-5.7800	Holland.
-5.7800	Hollis."
-5.7800	Hollows.
-5.7800	Holly
-2.7438	Holmes
-4.5247	Holmes!
-4.4183	Holmes!"
-5.7800	Holmes"
-4.3821	Holmes'
-3.7714	Holmes's
-5.7800	Holmes's,
-5.7800	Holmes's--"did
-2.9793	Holmes,
-3.8609	Holmes,"
-4.9349	Holmes,'
-5.7800	Holmes--!"
-5.3029	Holmes--"
-5.7800	Holmes--a
-5.4790	Holmes--and
-5.7800	Holmes--coals
-5.7800	Holmes--crawling!
-5.7800	Holmes--drinking
-5.7800	Holmes--his
-5.7800	Holmes--large
-5.7800	Holmes--never
-5.7800	Holmes--that
-5.7800	Holmes--what's
-5.7800	Holmes--with
-5.4790	Holmes--you
-5.7800	Holmes--your
-3.0979	Holmes.
-4.1172	Holmes."
-5.4790	Holmes.'
-5.7800	Holmes.'"
-4.8258	Holmes:
-4.3328	Holmes;
-4.6661	Holmes?
-3.9876	Holmes?"
-5.7800	Holmes?'
-4.8769	Holy
-5.4790	Home
-5.7800	Homer,
-5.3029	Homes
-5.7800	Homes,
-5.4790	Hon.
-5.7800	Hones,
-5.7800	Honest
-5.7800	Honoria
-5.7800	Honour
-5.7800	Honour.
-4.9349	Honourable
-5.7800	Honoured
-5.7800	Hood,
-5.7800	Hooliganism
-4.1889	Hope
-5.7800	Hope's
-4.6661	Hope,
-5.4790	Hope,"
-5.4790	Hope.
-5.7800	Hopes
-4.3650	Hopkins
-5.4790	Hopkins!
-5.0810	Hopkins's
-4.4376	Hopkins,
-5.4790	Hopkins,"
-4.6039	Hopkins.
-5.7800	Hopkins."
-5.7800	Hopkins;
-5.7800	Hopkins?
-5.4790	Hopkins?"
-5.7800	Hopley
-5.0019	Horace
-5.7800	Horace'
-5.7800	Horace,
-4.8769	Horner
-5.0810	Horner,
-5.4790	Horrified
-5.7800	Horror"
-5.7800	Horror,
-5.7800	Horror,"
-5.4790	Horsham
-5.0810	Horsham,
-5.4790	Horsham.
-5.7800	Horsham."
-5.7800	Horsom,
-4.4790	Hosmer
-5.7800	Hosmer--Mr.
-5.7800	Hosmer.
-5.7800	Hospital
-5.4790	Hospital,
-5.7800	Hospital,'
-5.7800	Hospital.
-5.7800	Hospital?"
-4.5247	Hotel
-5.0810	Hotel,
-5.7800	Hotel,"
-5.7800	Hotel,'
-5.3029	Hotel.
-5.7800	Hotel."
-5.7800	Hotel.'
-5.7800	Hotel;
-5.7800	Hotel?"
-5.7800	Hotspur
-5.7800	Hotspur,
-5.7800	Hottentot.
-4.8769	Hound
-5.7800	Houndsditch,"
-5.7800	Houndsditch,'
-5.7800	Houndsditch.
-5.4790	Hour
-4.2886	House
-4.5759	House,
-5.4790	House,"
-5.7800	House--
-5.7800	House-surgeon,
-4.7386	House.
-5.4790	House."
-5.7800	House?"
-5.4790	Houses
-3.7269	How
-5.1779	How's
-5.1779	How,
-5.7800	Howard
-5.3029	Howe
-5.4790	Howells
-5.3029	Howells,
-5.7800	Howells.
-5.1779	However
-4.0019	However,
-5.7800	Huddled
-4.2615	Hudson
-5.4790	Hudson's
-4.6039	Hudson,
-5.4790	Hudson,"
-5.7800	Hudson,'
-5.3029	Hudson.
-5.7800	Hudson.'
-5.7800	Hudson;
-5.4790	Hudson?"
-5.7800	Hudson?'
-5.0810	Hugh
-4.6039	Hugo
-5.3029	Hugo,
-5.7800	Hugo.
-5.7800	Hugos
-5.7800	Huguenot
-5.7800	Huguenots.'
-5.4790	Hullo!
-5.4790	Hullo!"
-5.7800	Hullo,
-5.0810	Hum!
-5.7800	Hung-wu
-5.7800	Hungarian
-5.7800	Hungary.
-5.7800	Hunt
-5.7800	Hunt,
-4.7800	Hunter
-5.7800	Hunter's
-5.0019	Hunter,
-5.0019	Hunter.
-5.4790	Hunter.'
-5.7800	Hunter:
-5.7800	Hunter;
-5.7800	Hunter?'
-5.7800	Huret,
-5.7800	Hurlingham,
-5.1779	Hurlstone
-5.4790	Hurlstone,
-5.7800	Hurlstone--though
-5.7800	Hurlstone.
-5.7800	Hurlstone;
-5.7800	Hurry
-5.7800	Hurry--hurry,
-5.7800	Hush,
-5.0810	Huxtable
-5.3029	Huxtable's
-4.7800	Huxtable,
-5.7800	Huxtable.
-5.7800	Hyam,
-5.7800	Hyde
-5.7800	Hynes
-5.7800	Hynes,
-5.7800	Hôtel
-1.6703	I
-5.7800	I!
-5.7800	I!"
-4.1079	I'd
-3.5296	I'll
-3.8355	I'm
-3.8609	I've
-3.6247	I,
-4.7800	I,"
-5.7800	I,'
-5.7800	I--"
-5.7800	I--from
-3.6039	I.
-4.9349	I."
-4.7008	I;
-4.8769	I?
-5.3029	I?"
-5.7800	I?'
-5.7800	IDENTITY
-4.6661	II
-4.9349	III
-5.7800	ILLUSTRIOUS
-5.4790	IN
-5.7800	INTERPRETER
-5.0019	IV
-5.4790	IX
-5.7800	Ian
-5.7800	Ian--"
-5.7800	Identity
-3.1747	If
-5.0810	If,
-5.4790	Ikey
-5.7800	Il
-5.4790	Illinois,
-5.7800	Illustrious
-5.4790	Imagine
-5.4790	Imagine,
-5.7800	Immediately
-5.1779	Imperial
-5.7800	Important.
-5.7800	Impossible!
-5.7800	Impossible!"
-3.2106	In
-5.7800	In.
-5.7800	Incidentally
-5.7800	Incredible
-4.6661	Indeed,
-4.6661	India
-5.7800	India!'
-4.7800	India,
-5.3029	India.
-5.7800	India."
-5.7800	India:
-4.2485	Indian
-5.3029	Indian,
-5.7800	Indian--a
-5.7800	Indian.
-5.0810	Indians
-5.4790	Indians,
-5.7800	Indies.
-5.7800	Individuals
-5.4790	Infantry,
-5.7800	Infantry.
-5.7800	Inference,--that
-5.7800	Inference--that
-5.7800	Infirmary,
-5.7800	Infirmary.
-5.7800	Injuns
-5.4790	Inn
-5.1779	Inn,
-5.7800	Inn.
-5.4790	Inner
-5.7800	Innumerable
-5.7800	Inquiries
-5.7800	Inquiry
-5.7800	Inquisition
-5.7800	Insensibly
-4.9349	Inside
-5.4790	Inside,
-3.8506	Inspector
-5.7800	Inspector!"
-5.4790	Inspector's
-4.6661	Inspector,
-5.3029	Inspector,"
-4.7386	Inspector.
-5.7800	Inspector:
-5.4790	Inspector?"
-5.1779	Instantly
-5.0019	Instead
-5.7800	Intense
-5.7800	Interlaken,
-5.7800	International,
-5.7800	Internationals.
-5.7800	Interpreter
-5.7800	Interpreter,
-5.7800	Interpreter.
-5.1779	Into
-5.7800	Investigation,"
-5.7800	Ionides
-5.7800	Ipse
-5.7800	Ireland,
-4.6339	Irene
-5.7800	Irene,
-5.7800	Iris
-5.7800	Iris.
-4.8769	Irish
-5.7800	Irish-American
-5.7800	Irish-American."
-5.7800	Irish-American?"
-5.7800	Irish-setter,
-5.7800	Irishman
-5.7800	Irishman.
-5.7800	Irishwoman
-5.3029	Iron
-5.7800	Iron,
-5.7800	Ironhill
-5.4790	Irregulars
-3.9412	Is
-5.3029	Isa
-5.7800	Isa.
-5.7800	Isadora
-5.4790	Island
-5.4790	Island,
-5.1779	Islander
-5.7800	Islander.
-5.7800	Islands
-5.4790	Islands,
-5.7800	Islands.
-5.4790	Isle
-5.7800	Isles."
-5.4790	Isn't
-2.5705	It
-3.7231	It's
-4.4790	Italian
-5.7800	Italian!
-5.4790	Italian,
-5.1779	Italians
-5.3029	Italy
-5.4790	Italy,
-5.7800	Italy.
-5.7800	Italy."
-4.6339	Its
-5.7800	Ivernian
-5.7800	Ives.
-5.4790	Ivy
-5.4790	J
-5.7800	J,
-4.7800	J.
-5.4790	J.P.
-5.3029	J.P.,
-5.7800	JOHN
-4.7800	Jabez
-4.5013	Jack
-5.3029	Jack!
-5.4790	Jack!"
-5.4790	Jack!'
-4.4376	Jack,
-5.4790	Jack,"
-5.1779	Jack,'
-5.7800	Jack--as
-5.7800	Jack-in-office!"
-5.4790	Jack.
-5.3029	Jack."
-5.7800	Jack.'
-5.4790	Jack?
-5.7800	Jack?"
-5.4790	Jackson
-5.7800	Jackson's
-5.7800	Jacky!"
-5.7800	Jacky,"
-5.7800	Jacky.
-5.1779	Jacob
-5.1779	Jacobean
-5.7800	Jacobs,
-5.7800	Jacobs;
-5.3029	Jacobson's
-3.8715	James
-4.9349	James's
-5.7800	James's,
-4.7008	James,
-5.7800	James--"
-5.3029	James.
-5.7800	James."
-5.4790	Jane
-5.7800	Jane,
-5.7800	Janet
-5.7800	Jansen,
-5.1779	January
-5.0810	January,
-5.7800	January,'
-5.7800	Japan.'
-5.0810	Japanese
-5.7800	Jasper
-5.7800	Jealousy,
-5.4790	Jean
-4.1779	Jefferson
-5.7800	Jem.'
-5.7800	Jem;
-5.7800	Jem?'
-5.7800	Jenkins,
-5.7800	Jeremiah
-5.4790	Jeremy
-5.7800	Jersey
-5.7800	Jeune
-5.4790	Jew
-5.7800	Jew's
-5.7800	Jewel
-5.7800	Jewelry
-5.7800	Jewels
-5.7800	Jewry,
-5.7800	Jews
-5.7800	Jews,
-5.7800	Jews.
-5.3029	Jezail
-5.7800	Jiddah
-4.9349	Jim
-5.7800	Jim!"
-5.4790	Jim,
-5.7800	Jim,--that's
-5.7800	Jim?"
-5.7800	Jimmie,
-5.7800	Jimmie--even
-5.7800	Jimmie.
-5.7800	Jimmie?
-5.7800	Jimmy
-5.7800	Jingo!"
-5.7800	Johann
-5.7800	Johann?"
-5.7800	Johannesburg,
-5.7800	Johannesburg.
-3.7672	John
-5.7800	John's
-5.0810	John,
-5.4790	John,'
-5.7800	John;
-5.7800	John?'
-5.7800	Johnnie
-5.7800	Johnny
-4.7800	Johnson
-5.0019	Johnson,
-5.7800	Johnson.
-5.7800	Johnston,
-5.7800	Joint
-5.7800	Joint.
-4.6039	Jonas
-4.4790	Jonathan
-5.7800	Jonathan's
-5.4790	Jonathan,
-4.3650	Jones
-5.3029	Jones's
-4.4578	Jones,
-5.7800	Jones,"
-5.4790	Jones.
-5.7800	Jones;
-5.7800	Jones?"
-5.7800	Jose.
-5.7800	Josef's
-4.3328	Joseph
-5.7800	Joseph!
-5.7800	Joseph's
-5.4790	Joseph,
-5.7800	Joseph--the
-5.3029	Joseph.
-5.7800	Joshua
-5.3029	Josiah
-5.7800	Jot
-5.1779	Journal
-5.7800	Journal,
-5.0019	Jove!
-5.1779	Jove!"
-5.7800	Jove!'
-4.8258	Jove,
-5.7800	Jowaki
-5.7800	Joyce
-5.7800	Juan
-5.7800	Juan,
-5.7800	Jubilee,
-5.4790	Judge
-5.0810	Jules
-5.3029	Julia
-5.3029	July
-5.7800	July,
-5.7800	July.
-5.3029	Jump
-5.7800	Jump,
-5.7800	Junction,
-5.7800	Junction,'
-5.7800	Junction.
-5.0019	June
-5.1779	June,
-5.7800	Jungle,
-5.7800	Junker
-5.7800	Jupiter
-5.7800	Jure
-5.7800	Juryman:
-4.2359	Just
-5.4790	Justice
-5.3029	K
-4.7008	K.
-5.7800	K.!'
-5.7800	K.';
-5.7800	K.,
-5.7800	K.,'
-5.7800	K.G.,
-5.7800	Kaiser.
-5.7800	Kansas
-5.7800	Kansas,
-5.7800	Kansas.
-5.7800	Kate
-5.7800	Kate!
-5.7800	Kate--poor
-5.7800	Kate.
-5.1779	Keep
-5.7800	Keeps
-5.4790	Kemball,
-5.7800	Kemp--a
-5.7800	Kennedy,
-4.7386	Kennington
-5.3029	Kensington
-5.3029	Kensington,
-4.9349	Kensington.
-5.0810	Kent
-5.3029	Kent,
-5.0019	Kent.
-5.7800	Kent."
-5.7800	Kent;
-5.4790	Kentish
-5.7800	Keswick,
-5.7800	Khalifa
-5.7800	Khan
-5.3029	Khan,
-5.7800	Khan.
-5.7800	Khartoum,
-5.7800	Khyber
-5.7800	Kilburn,
-5.4790	Kilburn.
-5.7800	Kill
-5.7800	Killer
-5.7800	Kimberley
-4.7800	Kindly
-4.3998	King
-4.6339	King's
-5.1779	King,
-5.4790	King.
-5.7800	King;
-5.7800	King?"
-5.7800	Kingston
-5.7800	Kingston.
-5.4790	Kirwan
-5.4790	Kirwan,
-5.7800	Kirwan--though
-5.7800	Kirwan."
-5.3029	Kitty
-5.7800	Klan.
-5.7800	Klan?"
-5.7800	Klein
-5.7800	Klein,
-5.7800	Klein."
-5.7800	Klopman,
-5.4790	Klux
-5.7800	Kneeling
-5.7800	Kneller,
-5.4790	Knight's
-5.7800	Knock
-4.8769	Knowing
-5.7800	Knowledge
-5.7800	Known
-5.7800	Knows
-5.7800	Knox
-5.7800	Kramm,
-5.7800	Kramm."
-5.4790	Kratides,
-5.7800	Kratides.'
-5.7800	Ku
-5.7800	L
-5.4790	L,
-4.8769	L.
-5.4790	L."
-5.7800	L.--but
-5.7800	L.?"
-5.7800	LADY
-5.4790	LAST
-5.7800	LEAGUE
-5.7800	LIGHT
-5.7800	LION'S
-5.7800	LIP
-5.7800	LODGE
-5.7800	LODGER
-5.1779	La
-5.4790	Laburnum
-5.7800	Lachine
-5.4790	Lachine,
-5.7800	Lachine.
-4.0166	Lady
-5.0810	Lafter
-4.7386	Lake
-4.9349	Lal
-5.7800	Lamberley
-5.7800	Lamberley,
-5.7800	Lamberley.
-5.4790	Lambeth.
-5.7800	Lancashire
-5.4790	Lancaster
-5.7800	Lancaster,
-5.7800	Lancaster."
-5.7800	Lance-Corporal
-5.7800	Lancet
-5.7800	Land
-5.7800	Land,
-5.7800	Lander
-4.8258	Lane
-4.9349	Lane,
-5.0019	Lane.
-5.4790	Lane?"
-5.7800	Langdale
-5.1779	Langham
-5.7800	Langham,
-5.7800	Langmere,
-5.7800	Language!"
-5.7800	Langur
-5.7800	Lanner,"
-5.7800	Lanner.
-5.7800	Larbey
-5.4790	Large
-5.7800	Large,
-5.7800	Lark
-4.8769	Lascar
-5.3029	Lascar,
-5.7800	Lascar,"
-5.7800	Lassus,
-5.7800	Lassus.
-4.7800	Last
-5.7800	Lastly,
-5.4790	Lat.
-5.1779	Late
-5.7800	Later
-5.3029	Latimer
-5.7800	Latimer's,
-5.4790	Latimer,
-5.7800	Latimer,'
-5.7800	Latimer."
-5.3029	Latin
-5.7800	Latin.
-5.4790	Latter
-5.7800	Lauder,
-4.7386	Laura
-5.0019	Lauriston
-5.4790	Lausanne
-5.4790	Lausanne,
-5.0019	Lausanne.
-5.4790	Law
-5.7800	Law,
-5.7800	Law.
-5.0019	Lawler
-5.4790	Le
-5.0810	Leadenhall
-4.8769	League
-5.4790	League,
-5.4790	League.
-5.7800	League."
-5.7800	League.'
-5.7800	League:
-5.1779	Leaning
-5.7800	Learn
-5.7800	Least
-5.7800	Leatherhead
-5.4790	Leatherhead,
-5.7800	Leatherhead.
-4.8769	Leave
-5.1779	Leaving
-5.7800	Lebanon,
-5.4790	Lecoq
-5.7800	Led
-5.3029	Lee
-5.0810	Lee,
-5.7800	Lee,"
-5.1779	Lee.
-5.7800	Lee."
-5.7800	Lee?"
-5.7800	Leeds
-5.7800	Lefevre
-5.7800	Left
-5.7800	Legation?"
-5.7800	Legion
-5.4790	Leicester,
-5.1779	Leon
-5.7800	Leonardo
-5.7800	Leonardo,
-5.7800	Leonardo,"
-5.7800	Leonardo?"
-5.7800	Leone
-5.7800	Leper
-5.7800	Lepidoptera?
-5.7800	Leprosy
-4.8258	Leslie
-3.7757	Lestrade
-5.4790	Lestrade!
-5.7800	Lestrade!"
-4.7800	Lestrade's
-3.9876	Lestrade,
-4.9349	Lestrade,"
-4.0810	Lestrade.
-5.4790	Lestrade."
-5.0019	Lestrade?"
-5.7800	Lesurier,
-3.7426	Let
-5.7800	Let"
-5.1779	Let's
-5.7800	Letter
-5.7800	Leturier
-5.7800	Leuk,
-5.7800	Level
-5.7800	Leverstoke,
-5.7800	Leverton,
-5.7800	Lewes
-5.7800	Lewis
-5.7800	Lewisham
-5.7800	Lewisham,
-5.7800	Lexington
-5.7800	Lexington,
-5.7800	Lhassa
-5.3029	Liberal
-5.7800	Liberalism
-5.7800	Library
-5.7800	Lie
-5.7800	Lieder,
-5.7800	Liege
-5.1779	Lieutenant
-5.0810	Life
-5.7800	Life,"
-4.9349	Light
-4.8769	Like
-5.7800	Lime
-5.3029	Limited,
-5.7800	Limited.
-5.7800	Lincoln
-5.7800	Linder
-5.7800	Line
-5.7800	Lion's
-5.7800	Lip
-5.0810	Listen
-5.7800	Listen,
-5.7800	Literature.--Immense.
-5.7800	Literature.--Nil.
-5.0019	Little
-4.7008	Liverpool
-4.9349	Liverpool,
-5.7800	Liverpool--there
-5.1779	Liverpool.
-5.7800	Living
-5.7800	Llama.
-5.7800	Lloyd's
-5.7800	Local
-4.4578	Lodge
-4.5759	Lodge,
-5.7800	Lodge,"
-5.7800	Lodge--he
-4.8258	Lodge.
-5.4790	Lodge."
-5.7800	Lodger
-5.7800	Lodgers
-5.7800	Logic
-5.7800	Lomax,
-5.7800	Lombard
-5.7800	Lomond,
-3.5521	London
-5.7800	London!
-5.7800	London'
-3.8824	London,
-5.7800	London,"
-5.7800	London--a
-5.7800	London--eastern
-5.7800	London--quite
-4.0019	London.
-4.6661	London."
-5.4790	London.'
-5.4790	London;
-5.7800	London?
-4.7386	London?"
-5.7800	Londoner
-5.7800	Londoners
-5.4790	Londoners,
-5.0019	Lone
-5.0810	Long
-5.4790	Long.
-4.3328	Look
-5.7800	Look,
-5.7800	Looked
-4.7008	Looking
-5.3029	Lopez
-5.7800	Lopez,
-3.7800	Lord
-4.8769	Lord!
-5.3029	Lord!"
-4.7008	Lord,
-5.4790	Lordship
-5.4790	Lordship.
-5.7800	Lothario
-5.7800	Lothman
-5.7800	Loud
-5.4790	Louis
-5.7800	Louis.
-5.7800	Louisiana,
-5.7800	Louvre,
-5.7800	Love,
-5.7800	Lowenstein
-5.7800	Lowenstein!
-5.7800	Lowenstein.
-4.6661	Lower
-5.7800	Lowlands,
-5.4790	Lowther
-4.6661	Lucas
-5.7800	Lucas's
-5.0019	Lucas,
-5.4790	Lucas.
-5.4790	Lucca,
-5.7800	Lucca,"
-5.7800	Lucca.
-5.7800	Lucerne,
-5.7800	Luck
-5.4790	Luckily
-5.4790	Lucknow
-5.4790	Lucky
-5.7800	Lucretia
-4.3650	Lucy
-5.4790	Lucy's
-5.3029	Lucy,
-5.7800	Lucy,"
-5.7800	Lucy.
-5.7800	Luke's,
-5.4790	Luke's.
-5.7800	Luxembourg
-5.4790	Lyceum
-5.4790	Lying
-5.7800	Lynch
-5.7800	Lynch,
-5.7800	Lyon
-5.4790	Lyonnais
-5.7800	Lyonnais."
-4.7008	Lyons
-5.7800	Lyons!"
-5.1779	Lyons,
-5.7800	Lyons,"
-5.7800	Lyons--her
-5.7800	Lyons--it
-5.4790	Lyons.
-5.7800	Lyons."
-5.7800	Lyons?"
-4.9349	Lysander
-5.7800	M's
-5.7800	M,
-4.8258	M.
-5.4790	M.,
-5.7800	M.A.,
-5.4790	M.D.
-5.7800	M.D.,
-5.7800	M.R.C.S."
-5.4790	M.R.C.S.,
-5.4790	MAN
-5.7800	MANE
-5.7800	MAZARIN
-5.7800	MEET
-5.7800	MEMOIRS
-5.7800	MEN
-5.7800	MILVERTON
-5.7800	MISSING
-5.7800	MOOR
-5.7800	MUSGRAVE
-5.7800	MYSTERY
-5.7800	Maberley
-5.7800	Maberley's
-5.7800	Maberley,
-5.7800	Maberley,"
-5.7800	Maberley.
-5.7800	Maberley."
-5.7800	Maberley?
-5.4790	Mac
-5.7800	Mac!--the
-4.7800	Mac,
-5.0810	Mac,"
-5.0810	Mac.
-5.4790	Mac."
-5.4790	Mac?"
-4.3998	MacDonald
-5.7800	MacDonald!"
-5.7800	MacDonald's
-4.9349	MacDonald,
-4.9349	MacDonald.
-5.7800	MacKinnon
-5.7800	MacKinnon.
-5.4790	MacNamara's
-5.7800	MacPherson,"
-5.7800	MacPherson.
-5.7800	MacSomebody,
-5.7800	Machiavellian
-5.7800	Machinery
-5.3029	Mackleton
-5.4790	Mackleton,
-5.7800	Macphail
-5.7800	Macphail."
-5.7800	Mad
-4.9349	Madame
-5.7800	Madame,
-5.7800	Madeira,
-5.7800	Mademoiselle's
-5.7800	Madman,"
-5.7800	Madras
-5.7800	Madras,
-5.7800	Madrid
-5.7800	Madrid,
-5.7800	Madrid.
-5.7800	Mafia
-5.7800	Mafia,
-5.7800	Mafia.
-5.7800	Magazine.
-5.7800	Maggie,'
-5.7800	Maggie?'
-4.8769	Mahomet
-5.7800	Mahomet,
-5.7800	Mahratta
-5.7800	Main
-5.7800	Maiwand
-5.7800	Maiwand.
-4.8258	Majesty
-5.1779	Majesty's
-5.3029	Majesty,
-5.7800	Majesty,"
-5.3029	Majesty.
-4.4790	Major
-5.7800	Major-General
-5.0019	Make
-5.7800	Making
-5.4790	Malay
-5.7800	Male
-5.7800	Malingering
-5.4790	Mall
-4.9349	Mall,
-5.7800	Mall.
-5.7800	Malplaquet
-5.7800	Malthus,
-4.7800	Man
-5.7800	Man's
-5.4790	Man,
-5.7800	Man.
-5.7800	Manager
-5.7800	Manaos,
-5.7800	Manchester
-5.7800	Manders
-5.7800	Mane
-5.7800	Mane!"
-5.7800	Mane'
-5.7800	Mane.
-5.7800	Mane."
-5.7800	Mane.'"
-5.7800	Mangles,
-5.7800	Mann
-4.3486	Manor
-5.4790	Manor,
-5.4790	Manor,"
-5.7800	Manor."
-5.7800	Mansel,
-5.7800	Mansion,
-5.4790	Mansions,
-5.7800	Manson
-4.6661	Many
-5.0810	Mapleton
-5.3029	Mapleton,
-5.0810	Mapleton.
-5.7800	Maps
-5.4790	Marbank,
-4.8258	March
-5.0810	March,
-5.7800	Marchioness
-5.7800	Marcini's
-5.7800	Marconi--a
-5.7800	Marengo,
-5.7800	Margate
-5.7800	Margate.
-5.7800	Maria
-4.9349	Marie
-5.4790	Marie,
-5.7800	Marine
-5.7800	Marines,"
-5.7800	Marines."
-5.7800	Marines?"
-5.4790	Mark
-5.4790	Marker
-5.7800	Marker!
-5.3029	Marker,
-5.3029	Market
-5.7800	Market.
-5.7800	Marley
-5.7800	Marlow
-5.7800	Marquess
-5.7800	Married
