~o
<STREAMINFO> 1 25
<VECSIZE> 25<NULLD><MFCC_D_N_Z_0><DIAGC>
~s "silst"
<MEAN> 25
 -5.316875e+000 -2.705396e+000 -2.130620e+000 8.193699e-001 -9.970090e-001 5.716916e-001 -9.586197e-002 -6.803374e-001 6.198702e-001 1.772806e+000 1.098665e+000 3.071619e-001 -6.685157e-002 -4.181909e-002 2.635007e-003 2.916228e-002 1.204301e-002 -1.492004e-002 -1.153269e-002 -2.133147e-003 -7.828481e-003 9.490706e-004 6.669804e-003 6.652700e-003 -3.422482e-002
<VARIANCE> 25
 3.090464e+000 2.166921e+000 4.143209e+000 6.525349e+000 6.074104e+000 5.849930e+000 6.772845e+000 6.906454e+000 7.423963e+000 6.798322e+000 6.840272e+000 6.573597e+000 9.992353e-002 1.571407e-001 2.947564e-001 3.835742e-001 4.539813e-001 5.591822e-001 6.234260e-001 6.464651e-001 7.025765e-001 6.851343e-001 6.977049e-001 6.428825e-001 4.272685e-002
<GCONST> 5.298949e+001
~h "a"
<BEGINHMM>
<NUMSTATES> 5
<STATE> 2
<MEAN> 25
 7.199659e+000 2.946323e-001 -6.190591e+000 -7.809336e+000 4.762290e-001 -1.724090e+000 2.455454e+000 3.799574e+000 1.220863e-001 -1.391937e+000 -8.521590e-001 3.474761e+000 1.208877e+000 1.857086e-001 -8.997808e-001 -9.486299e-001 3.600852e-001 -2.383733e-001 3.776334e-001 5.182153e-001 1.873364e-001 -2.862402e-001 -2.357349e-001 4.995963e-001 9.491345e-001
<VARIANCE> 25
 2.911853e+001 1.574328e+001 2.206892e+001 2.062963e+001 1.836407e+001 1.822363e+001 1.487960e+001 1.846710e+001 1.669945e+001 1.893658e+001 1.622532e+001 1.561649e+001 1.576644e+000 1.536398e+000 1.929872e+000 1.820044e+000 1.466517e+000 1.599770e+000 1.832185e+000 1.327861e+000 1.654370e+000 1.415252e+000 1.137016e+000 1.102581e+000 9.648377e-001
<GCONST> 8.583996e+001
<STATE> 3
<MEAN> 25
 1.070142e+001 3.111987e+000 -5.726182e+000 -8.439081e+000 1.005136e+000 -2.166181e+000 3.630142e+000 5.362258e+000 1.059005e+000 -1.979796e+000 -2.172507e+000 4.549178e+000 -2.241254e-001 2.096761e-001 2.869124e-001 2.027479e-001 -4.170633e-002 3.233165e-001 9.224845e-002 -1.765406e-001 -1.556685e-001 3.977186e-001 2.362125e-001 -1.496074e-001 -3.037894e-001
<VARIANCE> 25
 3.524205e+000 7.496816e+000 8.297802e+000 1.053105e+001 1.206928e+001 1.998541e+001 8.613333e+000 1.430695e+001 1.617919e+001 1.437927e+001 1.272254e+001 1.052231e+001 1.745266e-001 4.486535e-001 6.432371e-001 6.083627e-001 6.467546e-001 8.740156e-001 6.560837e-001 8.111446e-001 1.089339e+000 1.005055e+000 8.660123e-001 6.798750e-001 1.939093e-001
<GCONST> 6.757140e+001
<STATE> 4
<MEAN> 25
 5.432680e+000 2.667003e+000 -1.894107e+000 -4.041502e+000 3.097044e-001 1.017710e+000 3.106920e+000 2.464259e+000 -4.081009e-001 -3.327419e-001 1.947038e-002 2.485475e+000 -1.349576e+000 -8.759445e-002 1.042501e+000 1.558570e+000 -1.494284e-001 5.023847e-001 -3.607520e-001 -8.128287e-001 -4.420026e-002 3.482073e-001 2.418348e-001 -7.529998e-001 -1.174637e+000
<VARIANCE> 25
 2.421645e+001 1.535384e+001 1.756768e+001 2.349517e+001 1.771276e+001 2.240993e+001 1.752706e+001 2.218730e+001 2.231747e+001 1.301159e+001 1.397141e+001 1.462312e+001 1.208033e+000 1.541053e+000 2.238314e+000 2.157054e+000 1.410805e+000 1.975715e+000 1.741393e+000 1.664502e+000 1.684854e+000 1.490776e+000 1.349343e+000 1.208148e+000 6.215192e-001
<GCONST> 8.604539e+001
<TRANSP> 5
 0.000000e+000 1.000000e+000 0.000000e+000 0.000000e+000 0.000000e+000
 0.000000e+000 6.603982e-001 3.396018e-001 0.000000e+000 0.000000e+000
 0.000000e+000 0.000000e+000 8.082211e-001 1.917789e-001 0.000000e+000
 0.000000e+000 0.000000e+000 0.000000e+000 7.430444e-001 2.569555e-001
 0.000000e+000 0.000000e+000 0.000000e+000 0.000000e+000 0.000000e+000
<ENDHMM>
~h "b"
<BEGINHMM>
<NUMSTATES> 5
<STATE> 2
<MEAN> 25
 -3.525354e+000 -2.996828e+000 -2.528393e+000 -9.051339e-001 -5.647852e-001 2.442755e+000 8.408579e-001 -1.376771e+000 -1.057014e-001 7.838601e-001 1.316307e+000 1.263273e+000 9.470037e-002 -1.383009e-001 -3.742004e-001 -2.912000e-001 -1.476564e-001 -1.922032e-003 8.240867e-002 3.259364e-002 -2.113196e-001 -2.599158e-001 -2.045825e-002 1.434967e-001 4.015007e-002
<VARIANCE> 25
 6.714827e+000 1.037627e+001 1.744233e+001 2.120438e+001 1.582381e+001 1.503004e+001 1.522285e+001 1.251341e+001 1.236424e+001 1.449311e+001 7.584275e+000 1.205626e+001 4.540368e-001 7.132367e-001 2.254155e+000 1.659180e+000 1.066402e+000 1.040741e+000 1.397909e+000 9.588727e-001 1.057733e+000 1.580669e+000 9.095066e-001 1.242040e+000 3.033094e-001
<GCONST> 7.656084e+001
<STATE> 3
<MEAN> 25
 -3.438978e+000 -2.998753e+000 -3.832951e+000 -1.413341e+000 -2.207271e+000 2.242879e-001 -6.062484e-001 -1.489333e+000 -4.855973e-001 1.092867e+000 7.189288e-001 1.460630e-001 3.204411e-002 1.546537e-001 1.920415e-001 2.253527e-001 1.591862e-001 9.006234e-002 5.269226e-002 1.224472e-001 1.461200e-001 1.273822e-001 1.637205e-002 -1.099824e-001 -2.267546e-002
<VARIANCE> 25
 2.671260e+000 3.448758e+000 5.425071e+000 6.007050e+000 5.642669e+000 6.641412e+000 6.162498e+000 7.019418e+000 7.593994e+000 7.571351e+000 6.604139e+000 6.313340e+000 1.303992e-001 2.634761e-001 3.989303e-001 5.336833e-001 5.984825e-001 7.770015e-001 8.140001e-001 7.958676e-001 8.025356e-001 7.498236e-001 6.345640e-001 6.974878e-001 4.614715e-002
<GCONST> 5.630783e+001
<STATE> 4
<MEAN> 25
 3.708095e-001 3.732254e+000 4.491237e+000 7.267708e+000 5.211323e+000 5.878019e+000 3.464770e+000 1.791962e+000 2.034808e+000 2.341401e+000 5.531699e-001 -1.439926e+000 9.579453e-001 8.705469e-001 8.120233e-001 4.266515e-001 2.722527e-001 4.607790e-002 -4.351621e-002 -1.045284e-001 -1.785736e-001 -2.005051e-001 -1.782606e-001 -1.343380e-001 5.514663e-001
<VARIANCE> 25
 7.493948e+000 1.103158e+001 1.467922e+001 1.448554e+001 9.303516e+000 9.557083e+000 7.733425e+000 6.750697e+000 7.054171e+000 6.254549e+000 6.729055e+000 6.893753e+000 6.679701e-001 1.281349e+000 1.736774e+000 2.543262e+000 2.648838e+000 2.613294e+000 2.001968e+000 1.324107e+000 9.540509e-001 8.273076e-001 6.862320e-001 7.030865e-001 3.366133e-001
<GCONST> 7.397345e+001
<TRANSP> 5
 0.000000e+000 1.000000e+000 0.000000e+000 0.000000e+000 0.000000e+000
 0.000000e+000 6.367379e-001 3.632621e-001 0.000000e+000 0.000000e+000
 0.000000e+000 0.000000e+000 8.916541e-001 1.083459e-001 0.000000e+000
 0.000000e+000 0.000000e+000 0.000000e+000 8.757906e-001 1.242093e-001
 0.000000e+000 0.000000e+000 0.000000e+000 0.000000e+000 0.000000e+000
<ENDHMM>
~h "c"
<BEGINHMM>
<NUMSTATES> 5
<STATE> 2
<MEAN> 25
 -3.055633e+000 -6.019543e+000 -4.285420e+000 -2.033339e-001 -2.927960e+000 -3.181047e+000 3.099925e+000 -1.196317e-001 -1.103461e+000 -2.413734e+000 4.099737e+000 3.790356e-002 3.179516e-001 -2.685526e+000 3.860783e-001 -1.441188e+000 -1.004356e+000 -2.095356e+000 1.057190e+000 -3.784888e-001 -1.362007e+000 -2.621210e+000 1.112198e+000 -5.593057e-001 3.063636e+000
<VARIANCE> 25
 5.369680e+000 1.645000e+001 1.085027e+001 1.107641e+001 1.057319e+001 1.599683e+001 1.846465e+001 3.533631e+000 1.205610e+001 3.223460e+001 8.374656e+000 7.514068e+000 5.995928e-001 9.339765e-001 2.675515e+000 9.500776e-001 8.751016e-001 8.405886e-001 7.089342e-001 9.342784e-001 6.876738e-001 7.977915e-001 2.856953e-001 9.687257e-001 5.612599e-001
<GCONST> 7.180208e+001
<STATE> 3
<MEAN> 25
 -4.013122e+000 -1.644520e+001 4.576435e+000 -4.674941e+000 -2.107321e+000 -9.372377e+000 3.711936e+000 4.490844e-001 -3.718675e+000 -6.672981e+000 5.973975e+000 1.366202e+000 1.108060e+000 2.535412e-001 1.139176e+000 8.078794e-001 1.383384e+000 3.834242e-001 -1.172041e+000 2.481232e-001 -1.125115e-002 1.872995e-001 -4.873587e-001 5.871026e-001 5.254139e-001
<VARIANCE> 25
 8.913927e+000 8.763119e+000 1.278133e+001 1.240767e+001 8.329669e+000 1.264971e+001 1.197622e+001 8.826558e+000 8.296012e+000 7.937815e+000 5.144825e+000 7.322478e+000 2.935727e+000 7.931563e+000 3.941213e+000 4.058216e+000 1.744460e+000 3.539994e+000 1.725115e+000 1.012550e+000 1.464847e+000 2.035757e+000 7.274845e-001 1.024987e+000 2.668804e+000
<GCONST> 8.258503e+001
<STATE> 4
<MEAN> 25
 5.151884e+000 2.829640e+000 1.181604e+001 8.984512e+000 6.652665e+000 -1.316011e+000 -8.145974e+000 1.978259e+000 -5.497058e+000 -1.085964e+001 -3.386467e+000 -4.741608e+000 4.047863e-001 1.249835e+000 -1.580690e-001 4.456477e-001 3.276980e-001 4.068166e-001 -3.114724e-001 -2.395770e-001 3.714174e-002 1.240529e-001 -4.486119e-001 -1.418969e-001 -5.288239e-001
<VARIANCE> 25
 1.719595e+000 2.087466e+001 1.303258e+001 9.893115e+000 5.663574e+000 2.487383e+000 1.916213e+001 7.260397e+000 5.565978e+000 1.956220e+001 1.091358e+001 1.612754e+001 1.870359e+000 4.426187e+000 1.445218e+000 1.673411e+000 1.188083e+000 9.126580e-001 2.646380e+000 8.045626e-001 8.113904e-001 1.623542e+000 9.722123e-001 1.826705e+000 1.390503e-001
<GCONST> 7.453880e+001
<TRANSP> 5
 0.000000e+000 1.000000e+000 0.000000e+000 0.000000e+000 0.000000e+000
 0.000000e+000 7.142943e-001 2.857057e-001 0.000000e+000 0.000000e+000
 0.000000e+000 0.000000e+000 8.036802e-001 1.963198e-001 0.000000e+000
 0.000000e+000 0.000000e+000 0.000000e+000 8.738964e-001 1.261037e-001
 0.000000e+000 0.000000e+000 0.000000e+000 0.000000e+000 0.000000e+000
<ENDHMM>
~h "d"
<BEGINHMM>
<NUMSTATES> 5
<STATE> 2
<MEAN> 25
 2.741051e+000 2.426836e+000 1.084886e+001 9.615880e+000 8.679305e+000 3.001645e+000 -5.032658e+000 1.711006e+000 3.454235e+000 -3.835181e+000 -3.838655e+000 -4.271072e+000 1.517623e-001 -2.261102e-001 5.043567e-002 -5.196843e-002 1.984821e-001 -3.886638e-001 -7.038089e-001 5.363515e-003 1.973246e-001 -2.453351e-001 5.310264e-002 1.057885e-001 3.153978e-001
<VARIANCE> 25
 6.153521e+000 1.605658e+001 2.019052e+001 1.263532e+001 1.863500e+001 2.862234e+001 7.945173e+001 1.616744e+001 2.628585e+001 3.485622e+001 1.502685e+001 1.310538e+001 5.795999e-001 2.002287e+000 2.340524e+000 1.712070e+000 2.137918e+000 2.848307e+000 7.728799e+000 2.474825e+000 2.304285e+000 4.397427e+000 2.141662e+000 1.608879e+000 1.128653e+000
<GCONST> 9.159085e+001
<STATE> 3
<MEAN> 25
 5.868901e+000 2.514645e+000 6.171233e+000 6.330439e+000 1.048467e+001 3.510980e-001 -1.072630e+001 -5.418950e+000 8.481473e-001 -5.959005e-001 1.294088e+000 -8.720209e-001 -1.370022e-001 1.406849e+000 -5.939102e-001 -1.558474e-001 -9.158172e-001 2.020556e+000 3.135000e+000 -2.757987e-001 -1.136457e+000 1.048827e+000 1.369712e-001 -1.126675e-001 -1.269464e+000
<VARIANCE> 25
 5.426233e+000 1.308432e+001 6.762053e+000 1.746067e+001 1.301916e+001 3.794928e+001 6.254300e+001 1.684646e+001 1.843402e+001 8.657720e+000 1.404666e+001 1.342710e+001 4.536490e-001 6.454688e-001 1.003363e+000 2.449294e+000 9.719427e-001 2.894312e+000 2.767914e+000 3.692198e+000 2.807751e+000 1.567134e+000 2.421404e+000 1.239483e+000 5.424882e-001
<GCONST> 8.345448e+001
<STATE> 4
<MEAN> 25
 3.788410e+000 5.728242e+000 5.319401e+000 8.819751e+000 7.225332e+000 5.743469e+000 9.566978e-001 -9.936249e-001 2.985974e-001 9.721381e-001 1.922849e-001 -1.081115e+000 -3.604459e-001 -1.869420e-001 -1.190943e-001 -4.947054e-002 -1.584921e-001 1.097900e-001 5.755150e-001 4.879353e-001 1.879150e-001 2.258188e-001 1.797852e-001 1.606830e-001 -2.457106e-001
<VARIANCE> 25
 4.804317e+000 3.053118e+000 3.700108e+000 3.700565e+000 4.558839e+000 6.673530e+000 1.213320e+001 1.150815e+001 6.795373e+000 7.221182e+000 7.838027e+000 6.072468e+000 1.147465e-001 2.367373e-001 3.626691e-001 4.647389e-001 4.461404e-001 6.369053e-001 7.076688e-001 7.012990e-001 6.648250e-001 6.754351e-001 7.144804e-001 5.756851e-001 5.856987e-002
<GCONST> 5.548789e+001
<TRANSP> 5
 0.000000e+000 1.000000e+000 0.000000e+000 0.000000e+000 0.000000e+000
 0.000000e+000 9.438065e-001 5.619362e-002 0.000000e+000 0.000000e+000
 0.000000e+000 0.000000e+000 7.391960e-001 2.608040e-001 0.000000e+000
 0.000000e+000 0.000000e+000 0.000000e+000 8.526530e-001 1.473470e-001
 0.000000e+000 0.000000e+000 0.000000e+000 0.000000e+000 0.000000e+000
<ENDHMM>
~h "e"
<BEGINHMM>
<NUMSTATES> 5
<STATE> 2
<MEAN> 25
 1.342263e+000 -6.705042e-001 -1.488880e+000 -7.531079e-001 -6.782296e-001 -2.174988e-001 2.459146e-001 -1.959347e+000 -2.549012e+000 -1.441754e+000 3.916106e-001 1.945345e+000 2.499308e+000 1.037070e+000 1.694828e-001 -3.760511e-001 5.734895e-001 -5.512321e-001 -1.790155e-001 -1.913375e-001 -6.866757e-001 -5.585704e-001 7.515461e-002 5.463750e-001 1.793502e+000
<VARIANCE> 25
 4.416234e+001 2.066668e+001 1.129897e+001 1.753156e+001 1.415268e+001 1.750907e+001 1.305712e+001 1.938003e+001 2.399953e+001 1.605588e+001 9.286386e+000 1.491688e+001 2.633924e+000 2.056513e+000 2.176458e+000 2.854519e+000 3.331521e+000 2.210639e+000 2.236784e+000 3.592149e+000 3.069863e+000 1.587705e+000 1.517441e+000 1.997365e+000 1.768523e+000
<GCONST> 9.084290e+001
<STATE> 3
<MEAN> 25
 8.671169e+000 2.594430e+000 -1.604587e+000 -4.764965e-001 2.371593e+000 -3.152342e+000 -2.972134e+000 -2.310915e+000 -2.634468e+000 -7.091748e-001 1.023711e+000 8.923761e-001 -8.345251e-002 2.274968e-001 6.100888e-001 1.250289e+000 8.786375e-001 3.421559e-002 -9.120058e-001 -6.012591e-001 2.632057e-001 1.073554e+000 3.382927e-001 -4.859613e-001 -1.926594e-001
<VARIANCE> 25
 2.379263e+001 2.098867e+001 3.475071e+001 3.194357e+001 4.442504e+001 2.725045e+001 4.173075e+001 3.994312e+001 3.979844e+001 1.989703e+001 1.882092e+001 2.302305e+001 2.263646e+000 1.985631e+000 1.904483e+000 2.446480e+000 1.781311e+000 2.669960e+000 2.460086e+000 1.707461e+000 1.346238e+000 1.746143e+000 1.320784e+000 1.036242e+000 1.523278e+000
<GCONST> 9.406169e+001
<STATE> 4
<MEAN> 25
 6.004989e+000 1.727213e+000 -4.186417e-001 4.848773e+000 6.601013e+000 -2.160036e+000 -7.928663e+000 -6.811081e+000 -3.416094e-001 5.786140e+000 1.787347e+000 -2.457459e+000 -6.208916e-001 -1.139923e-002 2.444520e-001 1.935865e-001 -2.235471e-001 3.340429e-001 2.383922e-001 2.788585e-001 4.447139e-001 6.356165e-002 -1.576007e-001 -2.688315e-001 -5.215234e-001
<VARIANCE> 25
 1.755462e+001 1.113424e+001 2.049516e+001 1.363188e+001 1.420201e+001 1.678524e+001 2.187855e+001 1.789199e+001 1.803958e+001 2.141470e+001 1.597387e+001 1.711400e+001 4.512690e-001 7.935069e-001 1.172471e+000 1.298858e+000 9.063872e-001 1.131700e+000 1.379701e+000 8.840299e-001 9.508965e-001 1.247424e+000 1.058844e+000 1.348270e+000 2.655997e-001
<GCONST> 7.868472e+001
<TRANSP> 5
 0.000000e+000 1.000000e+000 0.000000e+000 0.000000e+000 0.000000e+000
 0.000000e+000 7.117078e-001 2.882922e-001 0.000000e+000 0.000000e+000
 0.000000e+000 0.000000e+000 6.707461e-001 3.292539e-001 0.000000e+000
 0.000000e+000 0.000000e+000 0.000000e+000 8.339471e-001 1.660530e-001
 0.000000e+000 0.000000e+000 0.000000e+000 0.000000e+000 0.000000e+000
<ENDHMM>
~h "f"
<BEGINHMM>
<NUMSTATES> 5
<STATE> 2
<MEAN> 25
 -4.925867e+000 -8.212361e+000 -5.507997e-001 -1.627376e+000 5.055302e+000 -4.496480e-001 3.527728e-001 -8.146360e+000 5.327172e-001 -2.510622e+000 1.055399e+000 1.417223e+000 2.739260e-001 1.484316e-001 2.812058e-001 4.998935e-001 2.649203e-001 -2.264329e-001 -4.782606e-001 6.735994e-002 4.179613e-002 -2.752942e-001 -3.165057e-001 -2.227883e-001 1.250362e-001
<VARIANCE> 25
 2.090982e+001 1.570913e+001 1.292925e+001 5.810768e+001 2.173101e+001 1.683549e+001 3.372989e+001 1.606054e+001 1.437112e+001 2.143308e+001 1.132694e+001 1.969025e+001 2.900475e+000 4.042150e+000 3.037653e+000 9.874637e+000 2.700924e+000 1.456520e+000 4.510853e+000 2.998954e+000 1.778309e+000 3.342042e+000 2.347221e+000 3.060379e+000 4.062218e-001
<GCONST> 9.438788e+001
<STATE> 3
<MEAN> 25
 4.209070e+000 8.405659e-001 1.353573e+001 1.616341e+001 1.075696e+001 -4.762577e-001 -1.285557e+001 2.115356e+000 2.406415e+000 -1.071216e+001 -8.223656e+000 -5.708000e+000 -1.495477e-001 8.433276e-001 1.390895e+000 -2.608485e-001 -5.501473e-001 3.811342e-001 4.903861e-001 1.019052e+000 -6.257049e-001 -1.544737e+000 -9.166510e-002 2.542277e-001 -1.700208e-001
<VARIANCE> 25
 2.921569e+000 8.218347e+000 1.120484e+001 9.360712e+000 6.108360e+000 1.235816e+001 1.048958e+001 1.139624e+001 1.138570e+001 9.253891e+000 4.289793e+000 6.380554e+000 3.355380e-001 1.029563e+000 2.456221e+000 1.727371e+000 5.971261e-001 1.522147e+000 2.652903e+000 1.060724e+000 1.026222e+000 3.217953e+000 1.768596e+000 5.422875e-001 2.733783e-001
<GCONST> 7.203022e+001
<STATE> 4
<MEAN> 25
 2.563023e+000 3.806582e+000 1.171208e+001 1.062720e+001 7.468532e+000 4.358823e+000 -4.696361e+000 3.541546e+000 -3.091528e-001 -8.320409e+000 -3.669183e+000 -4.755995e+000 -1.954767e-001 -5.574087e-002 -5.331866e-001 -3.906265e-001 -3.451973e-001 1.352663e-001 6.732044e-001 1.159918e-002 1.436303e-001 6.287313e-001 3.551633e-001 2.988704e-001 -2.314324e-001
<VARIANCE> 25
 2.520259e+000 4.002991e+000 9.208771e+000 8.866595e+000 6.839681e+000 9.252433e+000 1.196820e+001 8.839390e+000 8.870170e+000 1.391984e+001 8.429119e+000 7.797051e+000 1.096798e-001 4.762550e-001 5.559174e-001 5.102333e-001 4.367442e-001 9.499444e-001 1.121013e+000 8.268390e-001 9.029922e-001 8.980500e-001 8.572868e-001 6.901418e-001 7.966913e-002
<GCONST> 6.203935e+001
<TRANSP> 5
 0.000000e+000 1.000000e+000 0.000000e+000 0.000000e+000 0.000000e+000
 0.000000e+000 9.343305e-001 6.566951e-002 0.000000e+000 0.000000e+000
 0.000000e+000 0.000000e+000 7.879768e-001 2.120232e-001 0.000000e+000
 0.000000e+000 0.000000e+000 0.000000e+000 9.124923e-001 8.750767e-002
 0.000000e+000 0.000000e+000 0.000000e+000 0.000000e+000 0.000000e+000
<ENDHMM>
~h "g"
<BEGINHMM>
<NUMSTATES> 5
<STATE> 2
<MEAN> 25
 -5.472423e-001 3.163641e+000 2.506998e+000 4.136545e+000 3.311184e+000 3.821092e+000 2.471052e+000 1.776346e-001 4.688883e-001 7.085826e-001 2.793880e-001 -5.017531e-001 -4.885372e-001 -3.669431e-001 -3.123251e-001 9.903120e-002 -2.036325e-001 1.284823e-001 4.625631e-001 5.394697e-001 7.963076e-001 5.835593e-001 3.947895e-001 3.987342e-001 -3.661136e-001
<VARIANCE> 25
 7.339896e+000 1.019306e+001 1.513580e+001 1.395999e+001 1.706405e+001 1.490156e+001 7.435644e+000 7.566799e+000 5.486024e+000 5.281485e+000 1.098721e+001 7.616856e+000 8.636633e-002 1.951859e-001 3.890293e-001 4.853721e-001 5.005123e-001 6.504634e-001 1.069032e+000 4.808764e-001 8.817248e-001 8.337495e-001 5.732657e-001 5.130496e-001 4.121828e-002
<GCONST> 6.071937e+001
<STATE> 3
<MEAN> 25
 -7.220614e-001 2.299548e+000 2.165154e+000 4.814112e+000 3.190367e+000 4.885211e+000 3.617233e+000 1.916754e+000 2.150298e+000 2.183949e+000 9.741804e-001 -3.269156e-002 -3.446325e-001 -5.865841e-001 -3.738154e-001 -2.512749e-001 -3.863436e-001 -2.396119e-001 -1.542698e-001 1.815422e-001 1.883474e-001 1.131996e-001 4.420694e-002 -6.700704e-002 -1.250704e-001
<VARIANCE> 25
 3.431504e+000 4.050568e+000 7.621738e+000 4.807807e+000 5.537581e+000 8.174220e+000 6.493659e+000 4.965563e+000 7.924277e+000 8.927680e+000 6.437710e+000 5.538800e+000 1.956362e-001 3.885589e-001 5.226181e-001 6.243761e-001 7.739974e-001 9.015850e-001 9.762936e-001 7.286753e-001 1.102561e+000 7.205369e-001 7.699429e-001 5.921228e-001 7.647222e-002
<GCONST> 5.931551e+001
<STATE> 4
<MEAN> 25
 2.098848e+000 -1.058558e+000 4.581843e-001 -1.914812e+000 2.414138e+000 3.199088e+000 1.931155e+000 -1.909468e+000 -3.297423e+000 -2.518462e+000 1.366979e-001 1.901028e-002 2.363974e-001 -9.293175e-001 6.262259e-001 -1.171929e+000 2.466512e-001 -8.390811e-001 -8.414462e-001 -4.630462e-002 -4.090781e-001 -1.483416e+000 6.553189e-002 1.638038e-001 1.478694e+000
<VARIANCE> 25
 4.001511e+001 3.706112e+001 2.665402e+001 4.423738e+001 1.992836e+001 2.295533e+001 2.088466e+001 3.617331e+001 3.229042e+001 2.429131e+001 2.047957e+001 9.287854e+000 2.326779e+000 4.912463e+000 5.562245e+000 5.122987e+000 2.711383e+000 3.354662e+000 3.596338e+000 2.749490e+000 2.609702e+000 4.557972e+000 2.992025e+000 1.165353e+000 2.237614e+000
<GCONST> 9.980296e+001
<TRANSP> 5
 0.000000e+000 1.000000e+000 0.000000e+000 0.000000e+000 0.000000e+000
 0.000000e+000 9.247421e-002 9.075258e-001 0.000000e+000 0.000000e+000
 0.000000e+000 0.000000e+000 7.919792e-001 2.080208e-001 0.000000e+000
 0.000000e+000 0.000000e+000 0.000000e+000 7.968083e-001 2.031916e-001
 0.000000e+000 0.000000e+000 0.000000e+000 0.000000e+000 0.000000e+000
<ENDHMM>
~h "h"
<BEGINHMM>
<NUMSTATES> 5
<STATE> 2
<MEAN> 25
 1.615021e+000 -1.640824e+000 -4.496189e+000 -2.149851e+000 5.834943e-003 4.443612e+000 5.309320e+000 3.833054e+000 8.511971e-001 -9.639986e-001 1.677405e+000 4.154508e+000 -7.043697e-001 -7.211648e-001 -6.812907e-001 -2.989823e-001 -4.489546e-001 -2.177394e-001 -2.310926e-001 -3.188379e-001 -1.507101e-001 2.362843e-001 2.943004e-001 -1.686023e-002 -4.182828e-001
<VARIANCE> 25
 1.210674e+001 9.379601e+000 1.663368e+001 1.776292e+001 1.262762e+001 1.502020e+001 1.136895e+001 1.674083e+001 1.209047e+001 1.136781e+001 1.094626e+001 1.608422e+001 5.948012e-001 1.100228e+000 1.343603e+000 1.240845e+000 9.665400e-001 1.056908e+000 7.816555e-001 1.159010e+000 1.037168e+000 9.704607e-001 1.015483e+000 9.698501e-001 2.258459e-001
<GCONST> 7.546886e+001
<STATE> 3
<MEAN> 25
 -1.293267e+000 -2.987286e+000 -5.284019e+000 -2.272305e+000 -1.626650e+000 1.821199e+000 2.414478e+000 1.333347e+000 6.238611e-002 9.055702e-001 2.956009e+000 3.766928e+000 -4.133759e-001 1.399176e-001 3.462855e-001 3.269113e-001 4.604188e-002 -2.487060e-001 -3.630859e-001 -4.171219e-001 -5.884231e-002 2.348548e-001 -1.583533e-001 -3.704351e-001 -3.240949e-001
<VARIANCE> 25
 6.930642e+000 3.947706e+000 9.708350e+000 1.081788e+001 1.022082e+001 1.204544e+001 9.759608e+000 1.093210e+001 9.590909e+000 8.750473e+000 1.021743e+001 1.100803e+001 1.757689e-001 2.288568e-001 4.760275e-001 6.496550e-001 7.100397e-001 8.967733e-001 7.984407e-001 8.296468e-001 8.719141e-001 7.477388e-001 6.808736e-001 8.293577e-001 7.766283e-002
<GCONST> 6.374121e+001
<STATE> 4
<MEAN> 25
 -3.870311e+000 -2.465249e+000 -3.394538e+000 -1.111362e+000 -2.432591e+000 2.635931e-001 -1.139454e-001 -1.301213e+000 -3.713161e-001 1.210529e+000 5.751981e-001 2.137771e-002 -6.249070e-003 -1.398234e-002 -4.075583e-002 -6.010278e-002 -1.502775e-002 -1.176562e-002 5.540535e-003 2.202314e-002 1.416802e-003 -2.104317e-002 -5.653924e-002 -3.885593e-002 -1.932845e-003
<VARIANCE> 25
 2.866796e+000 2.219521e+000 4.008905e+000 5.523901e+000 4.662673e+000 5.050371e+000 6.186597e+000 7.559541e+000 7.487655e+000 7.055116e+000 7.016259e+000 6.565740e+000 1.281063e-001 1.766490e-001 3.596989e-001 4.598662e-001 5.103939e-001 5.306321e-001 6.366347e-001 8.272731e-001 8.339338e-001 7.891757e-001 7.487679e-001 7.306392e-001 5.958517e-002
<GCONST> 5.431926e+001
<TRANSP> 5
 0.000000e+000 1.000000e+000 0.000000e+000 0.000000e+000 0.000000e+000
 0.000000e+000 7.132684e-001 2.867316e-001 0.000000e+000 0.000000e+000
 0.000000e+000 0.000000e+000 7.748298e-001 2.251701e-001 0.000000e+000
 0.000000e+000 0.000000e+000 0.000000e+000 9.059849e-001 9.401510e-002
 0.000000e+000 0.000000e+000 0.000000e+000 0.000000e+000 0.000000e+000
<ENDHMM>
~h "i"
<BEGINHMM>
<NUMSTATES> 5
<STATE> 2
<MEAN> 25
 2.268360e+000 2.946588e-002 8.051076e+000 7.625929e+000 8.249626e+000 1.969066e-001 -8.337331e+000 -1.208109e+000 9.519013e-001 -4.275476e+000 -3.327052e+000 -2.793417e+000 -1.570237e-001 1.504405e-001 3.124867e-001 3.303258e-001 3.045876e-002 1.856785e-001 -2.627104e-002 1.846319e-001 -2.189529e-002 -5.790801e-001 -2.584165e-001 -8.891259e-002 -2.084343e-001
<VARIANCE> 25
 1.892085e+001 1.557562e+001 4.506857e+001 3.457653e+001 2.375955e+001 2.466091e+001 4.475669e+001 2.607587e+001 1.613338e+001 3.094699e+001 2.930157e+001 1.313867e+001 1.447875e+000 1.571187e+000 5.479072e+000 5.043654e+000 2.969600e+000 2.388030e+000 4.954433e+000 2.318058e+000 1.601648e+000 4.464989e+000 3.037924e+000 1.395977e+000 1.338567e+000
<GCONST> 9.683065e+001
<STATE> 3
<MEAN> 25
 -2.698990e+000 -1.976710e+000 2.732095e-001 8.647267e-001 1.049984e+000 1.265628e+000 -1.242937e+000 -1.084555e+000 2.392209e-001 -5.375877e-001 -4.660790e-002 -2.736093e-001 -2.503803e-001 -2.443269e-001 -5.192706e-001 -5.161337e-001 -2.933500e-001 -2.634342e-002 1.197417e-001 -2.421300e-001 -1.067957e-001 2.796682e-001 1.300723e-001 1.253296e-001 -1.621604e-001
<VARIANCE> 25
 8.497235e+000 7.864262e+000 4.084999e+001 2.438604e+001 2.000503e+001 1.572679e+001 1.997712e+001 1.695646e+001 1.169445e+001 2.040476e+001 1.402339e+001 1.006672e+001 3.647076e-001 7.854844e-001 2.087533e+000 1.343089e+000 1.591948e+000 1.422470e+000 1.395697e+000 1.271129e+000 1.088352e+000 1.340836e+000 1.109127e+000 7.126042e-001 2.849694e-001
<GCONST> 7.911317e+001
<STATE> 4
<MEAN> 25
 6.097496e-001 5.178432e-001 1.060008e+001 7.630806e+000 7.893756e+000 2.965342e+000 -5.562797e+000 2.762263e+000 1.032368e+000 -6.547142e+000 -2.620926e+000 -3.308247e+000 1.180824e-001 -8.484583e-003 -7.635978e-001 -1.201666e-001 -1.481037e-001 1.843424e-002 1.436001e-001 -3.060597e-001 -3.739839e-002 5.510375e-001 2.267189e-001 1.471865e-001 -1.731115e-001
<VARIANCE> 25
 1.102415e+001 1.231339e+001 5.342313e+001 2.596669e+001 2.400378e+001 1.761418e+001 3.138837e+001 2.251260e+001 1.362159e+001 3.529098e+001 1.512288e+001 1.278494e+001 7.041109e-001 1.050315e+000 1.774520e+000 2.096275e+000 1.502593e+000 1.394758e+000 2.190891e+000 1.686741e+000 1.280422e+000 1.756552e+000 1.670230e+000 1.155731e+000 3.685496e-001
<GCONST> 8.566899e+001
<TRANSP> 5
 0.000000e+000 1.000000e+000 0.000000e+000 0.000000e+000 0.000000e+000
 0.000000e+000 7.692067e-001 2.307933e-001 0.000000e+000 0.000000e+000
 0.000000e+000 0.000000e+000 6.477202e-001 3.522798e-001 0.000000e+000
 0.000000e+000 0.000000e+000 0.000000e+000 8.067579e-001 1.932422e-001
 0.000000e+000 0.000000e+000 0.000000e+000 0.000000e+000 0.000000e+000
<ENDHMM>
~h "j"
<BEGINHMM>
<NUMSTATES> 5
<STATE> 2
<MEAN> 25
 7.215918e+000 2.946578e+000 -3.997157e+000 -4.460570e+000 -8.865736e-002 2.010895e+000 -6.954970e-001 -3.460007e+000 -2.355477e+000 2.019181e+000 4.752501e+000 5.128170e+000 -5.419370e-001 -1.369297e-001 -3.968835e-001 -4.567730e-001 -6.132172e-001 2.004141e-001 5.741278e-001 3.692560e-001 -1.200223e-001 -1.232681e-001 -1.167032e-002 8.168260e-002 -5.126662e-001
<VARIANCE> 25
 1.603437e+001 1.105030e+001 8.308613e+000 8.338549e+000 1.396621e+001 1.022966e+001 1.613153e+001 1.360270e+001 9.017797e+000 6.127276e+000 8.888523e+000 6.543644e+000 5.612490e-001 1.217024e+000 5.904351e-001 9.529694e-001 1.536468e+000 1.247871e+000 9.200490e-001 6.455141e-001 1.270844e+000 6.732383e-001 9.424772e-001 9.732768e-001 9.324446e-002
<GCONST> 7.034929e+001
<STATE> 3
<MEAN> 25
 -3.746061e+000 -2.719376e+000 -3.952975e+000 -2.516590e+000 -2.216196e+000 2.764531e+000 2.132628e+000 2.730614e-001 -1.396012e+000 -6.494867e-001 2.578933e+000 3.322143e+000 -7.224738e-001 -2.907302e-002 8.286330e-001 1.160835e+000 3.323075e-001 -4.707827e-001 -2.910486e-001 3.988626e-002 2.324730e-001 2.404786e-002 -5.264350e-001 -6.273045e-001 -4.816644e-001
<VARIANCE> 25
 3.242567e+000 1.640353e+000 8.820629e+000 1.699128e+001 3.490359e+000 7.349058e+000 4.929212e+000 5.595805e+000 1.193643e+001 7.447866e+000 9.370431e+000 8.505678e+000 1.251002e-001 1.628269e-001 3.618748e-001 8.158917e-001 2.841223e-001 8.113635e-001 6.564456e-001 6.202063e-001 1.168121e+000 7.383622e-001 1.034996e+000 9.947560e-001 7.322492e-002
<GCONST> 5.784293e+001
<STATE> 4
<MEAN> 25
 -7.123507e+000 -3.175740e+000 -2.638993e-001 2.620433e+000 -1.689934e+000 -1.395691e+000 -2.318949e-001 6.491774e-001 1.471537e+000 1.670421e+000 -2.741726e-001 -1.200619e+000 -1.498559e-002 1.646470e-003 2.541571e-002 2.278258e-002 -2.265329e-003 -5.024503e-002 -1.590359e-002 -1.010167e-002 1.846801e-002 4.468268e-002 -2.324259e-002 -7.392533e-003 -9.884061e-004
<VARIANCE> 25
 5.999196e-001 1.036931e+000 2.073062e+000 3.057686e+000 3.547100e+000 4.699119e+000 4.467970e+000 5.516675e+000 5.343621e+000 4.746477e+000 5.252398e+000 5.269786e+000 5.740210e-002 1.140973e-001 1.309979e-001 2.928862e-001 3.489341e-001 5.098776e-001 4.670317e-001 5.534794e-001 6.997623e-001 5.346161e-001 7.309794e-001 6.132278e-001 1.411688e-002
<GCONST> 4.247685e+001
<TRANSP> 5
 0.000000e+000 1.000000e+000 0.000000e+000 0.000000e+000 0.000000e+000
 0.000000e+000 9.306929e-001 6.930717e-002 0.000000e+000 0.000000e+000
 0.000000e+000 0.000000e+000 8.308702e-001 1.691298e-001 0.000000e+000
 0.000000e+000 0.000000e+000 0.000000e+000 9.759931e-001 2.400689e-002
 0.000000e+000 0.000000e+000 0.000000e+000 0.000000e+000 0.000000e+000
<ENDHMM>
~h "k"
<BEGINHMM>
<NUMSTATES> 5
<STATE> 2
<MEAN> 25
 -3.702026e+000 -2.542948e+000 -2.757943e+000 -5.638864e-001 -2.513996e+000 -6.370827e-001 -4.511501e-001 -5.816523e-001 4.246090e-001 1.790511e+000 1.254737e+000 -2.945729e-001 4.514899e-001 -3.654722e-002 -1.367897e-001 -1.366536e+000 -5.550069e-001 -3.426234e-001 6.333521e-001 -1.393360e-001 -5.290274e-001 -7.136033e-001 -8.231401e-003 2.282594e-001 8.435938e-001
<VARIANCE> 25
 3.959914e+000 4.790225e+000 5.644279e+000 1.105753e+001 9.950170e+000 9.682390e+000 9.493670e+000 1.034886e+001 9.525494e+000 7.721666e+000 8.751989e+000 7.104440e+000 9.248710e-001 1.105062e+000 1.059768e+000 4.226351e+000 2.196497e+000 1.790300e+000 3.861941e+000 1.468497e+000 1.842601e+000 2.288528e+000 1.357541e+000 1.105898e+000 1.706686e+000
<GCONST> 7.761270e+001
<STATE> 3
<MEAN> 25
 2.648486e-001 -2.343774e+000 -2.574159e+000 -1.080502e+001 -5.129240e+000 -1.636720e+000 5.244304e+000 -1.796921e+000 -4.077484e+000 -3.525445e+000 1.362833e+000 1.894429e+000 1.111867e+000 7.125994e-001 7.991298e-001 -2.084888e-001 4.949477e-001 3.380008e-001 9.486657e-001 5.805786e-001 -2.558661e-001 -4.790328e-001 -2.220434e-001 6.439027e-001 9.740863e-001
<VARIANCE> 25
 9.239702e+000 1.812844e+001 1.809492e+001 3.788719e+001 4.237099e+001 3.271534e+001 7.388100e+001 2.464954e+001 1.998283e+001 3.169375e+001 2.428222e+001 1.675118e+001 1.573382e+000 1.670913e+000 1.712443e+000 7.717911e+000 3.483263e+000 2.396602e+000 4.649445e+000 1.809554e+000 2.305881e+000 2.711999e+000 1.733961e+000 1.589759e+000 2.187193e+000
<GCONST> 9.622856e+001
<STATE> 4
<MEAN> 25
 5.259387e+000 2.161755e+000 -4.774869e-001 -3.888687e+000 -2.255595e-001 -7.555156e-001 3.320860e+000 1.842303e+000 -1.433178e+000 -2.224263e+000 -1.289317e+000 3.540325e+000 2.862070e+000 1.650232e+000 -3.733933e-001 1.327978e+000 9.261338e-001 -1.619904e+000 -2.122997e+000 7.484376e-001 1.223004e+000 2.943517e-001 -8.241386e-001 5.119880e-001 8.844636e-001
<VARIANCE> 25
 2.265042e+001 1.080836e+001 1.072852e+001 1.363230e+001 1.118260e+001 1.919586e+001 1.843363e+001 1.158801e+001 1.100850e+001 1.336407e+001 1.262094e+001 9.380538e+000 8.728597e-001 1.119660e+000 2.766637e+000 2.724466e+000 1.207283e+000 2.129595e+000 2.246122e+000 1.499776e+000 1.352226e+000 1.499352e+000 1.221893e+000 1.348133e+000 8.182986e-001
<GCONST> 8.209236e+001
<TRANSP> 5
 0.000000e+000 1.000000e+000 0.000000e+000 0.000000e+000 0.000000e+000
 0.000000e+000 7.705402e-001 2.294597e-001 0.000000e+000 0.000000e+000
 0.000000e+000 0.000000e+000 6.722418e-001 3.277583e-001 0.000000e+000
 0.000000e+000 0.000000e+000 0.000000e+000 5.228245e-001 4.771755e-001
 0.000000e+000 0.000000e+000 0.000000e+000 0.000000e+000 0.000000e+000
<ENDHMM>
~h "l"
<BEGINHMM>
<NUMSTATES> 5
<STATE> 2
<MEAN> 25
 -1.376150e+000 -1.096064e+000 -1.270084e+000 -3.012133e+000 -1.486387e+000 1.044258e+000 8.006721e-001 -5.161241e-001 -8.528077e-001 7.233968e-001 2.802861e-001 4.273667e-001 5.241688e-002 3.588251e-001 2.569835e-001 2.289303e-001 -2.677914e-001 -2.369925e-001 -1.445116e-001 -9.631893e-002 -4.506844e-002 -1.804370e-001 -2.956750e-001 -2.600492e-001 -1.416849e-001
<VARIANCE> 25
 3.199530e+001 3.016628e+001 1.735795e+001 1.560951e+001 1.772624e+001 2.383150e+001 1.126706e+001 1.441778e+001 1.620596e+001 1.067604e+001 1.026749e+001 8.932022e+000 5.633263e-001 1.523033e+000 2.361577e+000 1.930363e+000 1.956325e+000 1.511995e+000 1.236758e+000 1.447788e+000 1.932201e+000 1.163398e+000 9.958645e-001 1.016718e+000 5.175237e-001
<GCONST> 8.242419e+001
<STATE> 3
<MEAN> 25
 5.688130e+000 7.461342e+000 2.781946e+000 -3.255916e+000 -2.456326e+000 -3.461786e+000 -6.786954e-001 9.155864e-001 -1.642902e+000 -1.322601e-001 -2.795974e+000 -1.585495e+000 4.418376e-001 5.930600e-001 5.162834e-001 -4.681544e-002 -4.008320e-001 -4.716606e-001 -2.922677e-001 1.123131e-001 -4.110211e-002 -3.291716e-001 -3.974306e-001 -3.256898e-001 1.935501e-001
<VARIANCE> 25
 1.487391e+001 1.210594e+001 8.321859e+000 1.769755e+001 1.116790e+001 1.294893e+001 8.876894e+000 9.582767e+000 1.269114e+001 1.132460e+001 7.678203e+000 6.417510e+000 1.364489e+000 1.099088e+000 7.014478e-001 1.386506e+000 7.887676e-001 8.425361e-001 8.064114e-001 9.667083e-001 8.588593e-001 7.599528e-001 7.627916e-001 6.316275e-001 6.129575e-001
<GCONST> 7.248878e+001
<STATE> 4
<MEAN> 25
 7.124842e+000 6.751249e+000 1.701368e+000 -7.537352e+000 -3.620463e+000 -4.383121e+000 3.889901e-001 4.960267e+000 6.883867e-001 -4.752735e-001 -3.525556e+000 -1.158780e+000 2.636234e-001 -7.448799e-001 -1.117328e+000 -8.752488e-001 1.195936e-001 8.690068e-002 9.441354e-001 1.055218e+000 6.400732e-001 -2.923929e-002 -2.892254e-001 5.899950e-001 4.935406e-001
<VARIANCE> 25
 1.251389e+001 1.128564e+001 1.793594e+001 2.231190e+001 9.241953e+000 1.307955e+001 1.818859e+001 1.950750e+001 1.538208e+001 1.369387e+001 1.023558e+001 1.039413e+001 4.330334e-001 6.418939e-001 1.928878e+000 1.871016e+000 8.492109e-001 1.199909e+000 1.814838e+000 1.447414e+000 1.042397e+000 1.153786e+000 1.026047e+000 1.113779e+000 4.068368e-001
<GCONST> 7.797930e+001
<TRANSP> 5
 0.000000e+000 1.000000e+000 0.000000e+000 0.000000e+000 0.000000e+000
 0.000000e+000 6.306086e-001 3.693914e-001 0.000000e+000 0.000000e+000
 0.000000e+000 0.000000e+000 6.992013e-001 3.007987e-001 0.000000e+000
 0.000000e+000 0.000000e+000 0.000000e+000 7.022010e-001 2.977990e-001
 0.000000e+000 0.000000e+000 0.000000e+000 0.000000e+000 0.000000e+000
<ENDHMM>
~h "m"
<BEGINHMM>
<NUMSTATES> 5
<STATE> 2
<MEAN> 25
 3.763894e+000 5.315294e+000 4.086593e+000 6.120803e+000 2.960535e+000 3.566604e+000 3.783986e+000 4.083465e+000 4.152122e+000 2.284380e+000 -1.122959e+000 -4.434695e+000 1.693189e-001 1.208832e-001 1.882611e-001 3.632890e-001 4.533101e-001 3.852529e-001 3.045937e-001 3.086525e-001 2.901296e-001 1.645447e-001 -1.363743e-001 -4.294821e-001 9.471026e-002
<VARIANCE> 25
 7.601602e+000 6.064403e+000 6.976466e+000 7.010766e+000 5.880816e+000 9.104573e+000 6.944448e+000 7.249009e+000 9.455417e+000 7.470481e+000 7.727905e+000 9.217018e+000 1.120156e+000 7.121250e-001 6.485701e-001 9.575614e-001 9.668074e-001 9.512262e-001 7.067667e-001 9.884992e-001 1.027212e+000 7.360680e-001 7.620035e-001 1.009519e+000 3.729633e-001
<GCONST> 6.741747e+001
<STATE> 3
<MEAN> 25
 6.648085e+000 5.201772e+000 2.064436e+000 3.239501e+000 5.707672e-001 -1.403897e-001 2.113173e+000 4.901262e+000 4.308146e+000 8.852899e-001 -1.759880e+000 -4.426616e+000 9.449408e-001 -2.302952e-001 -1.159377e+000 -1.966305e+000 -1.192716e+000 -1.361831e+000 -2.570664e-001 4.703023e-001 -6.320357e-001 -1.404305e+000 1.003034e-001 1.520748e+000 8.828818e-001
<VARIANCE> 25
 1.134397e+001 4.656900e+000 8.628679e+000 2.049907e+001 1.743938e+001 2.335357e+001 1.044170e+001 1.014145e+001 1.240729e+001 1.129729e+001 6.907712e+000 1.537434e+001 1.070926e+000 5.244639e-001 7.312816e-001 2.210041e+000 1.116061e+000 1.347908e+000 1.035493e+000 1.399836e+000 9.347963e-001 1.382124e+000 8.169994e-001 1.606880e+000 6.078653e-001
<GCONST> 7.608290e+001
<STATE> 4
<MEAN> 25
 8.164895e+000 4.187345e+000 -1.786451e+000 -2.805465e+000 -1.119789e+000 -9.051865e-001 4.408454e+000 7.806881e+000 2.108101e+000 -5.062634e+000 -2.140158e+000 2.205391e+000 4.625157e-002 -5.976033e-001 -9.107967e-001 -9.458299e-001 5.446534e-001 3.094041e-001 3.494925e-001 2.818504e-001 -6.052271e-001 -6.901861e-001 -2.858567e-003 1.235592e+000 3.258736e-001
<VARIANCE> 25
 1.818979e+001 6.670660e+000 1.121622e+001 2.709163e+001 9.973185e+000 1.450451e+001 6.281978e+000 1.353288e+001 7.307749e+000 2.109709e+001 9.806106e+000 1.011348e+001 4.606549e-001 3.968976e-001 5.799565e-001 1.517247e+000 9.698091e-001 9.140481e-001 1.091977e+000 1.189679e+000 9.030799e-001 1.291905e+000 7.615254e-001 1.067149e+000 3.445416e-001
<GCONST> 7.270945e+001
<TRANSP> 5
 0.000000e+000 1.000000e+000 0.000000e+000 0.000000e+000 0.000000e+000
 0.000000e+000 8.558659e-001 1.441341e-001 0.000000e+000 0.000000e+000
 0.000000e+000 0.000000e+000 6.494864e-001 3.505136e-001 0.000000e+000
 0.000000e+000 0.000000e+000 0.000000e+000 5.684442e-001 4.315558e-001
 0.000000e+000 0.000000e+000 0.000000e+000 0.000000e+000 0.000000e+000
<ENDHMM>
~h "n"
<BEGINHMM>
<NUMSTATES> 5
<STATE> 2
<MEAN> 25
 5.090877e+000 2.377428e+000 5.496366e+000 9.374536e+000 9.157718e+000 -6.440170e-001 -6.233999e+000 -4.535493e+000 -1.571642e+000 -2.681202e+000 -3.350946e+000 -2.133768e+000 2.118505e-001 6.278889e-001 1.181368e+000 1.803815e+000 9.613067e-001 4.678303e-001 -5.360286e-001 -3.673055e-001 3.745084e-001 -2.525572e-001 -5.657806e-001 -8.789968e-001 -9.754403e-002
<VARIANCE> 25
 9.816313e+000 1.473153e+001 1.910701e+001 4.097052e+001 3.903125e+001 3.995711e+001 4.933711e+001 1.212388e+001 1.715097e+001 1.456757e+001 1.982128e+001 1.762503e+001 1.936314e+000 7.838482e-001 2.396738e+000 6.396951e+000 4.615143e+000 6.283344e+000 5.513299e+000 1.903899e+000 1.776539e+000 2.671927e+000 2.492464e+000 1.420899e+000 2.379603e+000
<GCONST> 9.526128e+001
<STATE> 3
<MEAN> 25
 4.990634e+000 5.961763e+000 5.373411e+000 9.014955e+000 7.054059e+000 4.800543e+000 -3.438391e-001 -2.988898e+000 -2.049179e+000 -1.321713e+000 -6.739607e-001 -4.734774e-001 -2.714227e-001 1.808867e-002 1.592604e-002 1.200000e-001 4.089484e-002 4.423577e-001 5.437899e-001 4.217778e-001 2.390695e-001 2.060841e-001 2.000268e-001 3.926287e-002 -2.692249e-001
<VARIANCE> 25
 3.654153e+000 3.058996e+000 6.670310e+000 6.393530e+000 5.677002e+000 8.058326e+000 9.033323e+000 9.167731e+000 1.179239e+001 7.933877e+000 7.396554e+000 1.131842e+001 1.142637e-001 2.922995e-001 3.021378e-001 6.656982e-001 5.923360e-001 7.348216e-001 1.081084e+000 7.419617e-001 8.543472e-001 8.053781e-001 7.128564e-001 5.977054e-001 1.135597e-001
<GCONST> 5.986188e+001
<STATE> 4
<MEAN> 25
 8.640233e-001 2.855067e+000 3.825275e+000 6.589487e+000 4.569318e+000 5.879784e+000 3.251400e+000 4.818636e-001 1.504654e-001 1.136044e+000 1.615612e+000 3.404088e-001 -8.608750e-001 -9.539227e-001 -6.178986e-001 -8.198493e-001 -8.523794e-001 -4.658445e-001 -2.028065e-003 2.670409e-001 2.957959e-001 2.590098e-001 1.175434e-001 -9.805212e-002 -3.140304e-001
<VARIANCE> 25
 8.915794e+000 1.309341e+001 1.310219e+001 1.610069e+001 1.236792e+001 9.484099e+000 7.939786e+000 9.920793e+000 8.126954e+000 8.958430e+000 9.028790e+000 8.513433e+000 3.271855e-001 1.133724e+000 1.451732e+000 1.300452e+000 8.965914e-001 1.341460e+000 8.517925e-001 9.824891e-001 9.440832e-001 1.105912e+000 1.005449e+000 7.717293e-001 2.587436e-001
<GCONST> 7.190739e+001
<TRANSP> 5
 0.000000e+000 1.000000e+000 0.000000e+000 0.000000e+000 0.000000e+000
 0.000000e+000 6.480877e-001 3.519123e-001 0.000000e+000 0.000000e+000
 0.000000e+000 0.000000e+000 8.656026e-001 1.343975e-001 0.000000e+000
 0.000000e+000 0.000000e+000 0.000000e+000 7.813306e-001 2.186693e-001
 0.000000e+000 0.000000e+000 0.000000e+000 0.000000e+000 0.000000e+000
<ENDHMM>
~h "o"
<BEGINHMM>
<NUMSTATES> 5
<STATE> 2
<MEAN> 25
 7.700213e+000 5.225320e+000 2.424040e+000 -1.696557e+000 -5.402851e+000 -6.023015e+000 3.424104e-001 2.951771e+000 -1.412403e+000 -4.049263e+000 -3.077480e+000 -5.537544e-001 1.461922e+000 1.835915e+000 2.145805e-001 -1.768879e-001 -1.191807e+000 -1.337869e+000 -1.220757e+000 8.698933e-001 1.140264e+000 -1.980306e-001 -9.557127e-001 -7.019516e-001 1.310291e-001
<VARIANCE> 25
 2.166566e+001 1.920304e+001 1.309536e+001 1.548977e+001 2.542954e+001 3.101782e+001 2.355945e+001 2.377948e+001 1.807071e+001 2.305405e+001 1.520529e+001 9.498559e+000 3.306672e+000 3.043894e+000 1.955732e+000 2.445350e+000 3.038423e+000 2.872657e+000 3.599326e+000 3.210900e+000 2.627020e+000 1.862988e+000 1.600867e+000 1.193511e+000 8.560355e-001
<GCONST> 9.186184e+001
<STATE> 3
<MEAN> 25
 8.278284e+000 8.034158e+000 4.581038e+000 -6.347123e-001 -5.656829e+000 -5.985752e+000 -3.140809e-001 4.007472e+000 1.751727e-001 -4.461060e+000 -5.352040e+000 -3.879249e+000 6.840117e-002 1.188775e-001 3.467556e-002 4.945044e-002 -2.574250e-001 -2.397879e-001 -2.254639e-001 4.340114e-002 3.519770e-001 2.156712e-001 1.639898e-001 -4.693720e-003 -3.420974e-002
<VARIANCE> 25
 7.397121e+000 4.551057e+000 1.173214e+001 1.501120e+001 2.810134e+001 2.680567e+001 1.058907e+001 1.763722e+001 2.225848e+001 1.125027e+001 7.423590e+000 1.589087e+001 4.421622e-001 3.797873e-001 7.027217e-001 8.193478e-001 1.248260e+000 1.434591e+000 9.752467e-001 1.139104e+000 1.016456e+000 1.178930e+000 6.133069e-001 1.019591e+000 3.064203e-001
<GCONST> 7.366248e+001
<STATE> 4
<MEAN> 25
 6.554351e+000 8.864368e+000 5.119499e+000 2.616206e-001 -6.900954e+000 -6.468842e+000 -3.215770e+000 8.459949e-001 2.407529e+000 2.047559e+000 -2.726933e-001 -3.050719e+000 -7.643373e-001 -6.286714e-001 -3.924716e-001 1.375172e-001 4.493396e-001 7.422047e-001 3.322931e-001 -2.617317e-001 -9.236126e-002 2.665673e-001 2.893921e-001 1.200780e-001 -4.355028e-001
<VARIANCE> 25
 1.416270e+001 1.485363e+001 1.224650e+001 9.279050e+000 1.257763e+001 2.043319e+001 1.553448e+001 1.696072e+001 1.306950e+001 1.033536e+001 9.870223e+000 8.426517e+000 5.930416e-001 9.009088e-001 7.342011e-001 8.521244e-001 7.770370e-001 9.697837e-001 8.296834e-001 1.567004e+000 1.076402e+000 9.527516e-001 8.927932e-001 5.589070e-001 1.812414e-001
<GCONST> 7.298438e+001
<TRANSP> 5
 0.000000e+000 1.000000e+000 0.000000e+000 0.000000e+000 0.000000e+000
 0.000000e+000 6.377225e-001 3.622776e-001 0.000000e+000 0.000000e+000
 0.000000e+000 0.000000e+000 8.993101e-001 1.006899e-001 0.000000e+000
 0.000000e+000 0.000000e+000 0.000000e+000 8.999604e-001 1.000396e-001
 0.000000e+000 0.000000e+000 0.000000e+000 0.000000e+000 0.000000e+000
<ENDHMM>
~h "p"
<BEGINHMM>
<NUMSTATES> 5
<STATE> 2
<MEAN> 25
 -3.007964e+000 -1.526503e+000 -4.306800e-001 1.911231e+000 -2.834665e-002 2.598132e+000 1.999347e+000 3.552771e-001 9.838042e-001 1.599810e+000 1.299266e+000 2.539486e-001 -7.055687e-001 -8.416604e-001 -9.183019e-001 -9.880379e-001 -5.805370e-001 -2.749182e-001 -4.782996e-001 -6.413132e-001 -2.923625e-001 -2.204996e-002 1.122459e-001 2.299084e-001 -2.979075e-001
<VARIANCE> 25
 7.504324e+000 8.665738e+000 1.412336e+001 1.515907e+001 1.071842e+001 9.346095e+000 1.272093e+001 1.261193e+001 1.075351e+001 9.002387e+000 7.877619e+000 7.905797e+000 7.060912e-001 1.054161e+000 1.739494e+000 1.541050e+000 1.538702e+000 1.091397e+000 1.376865e+000 1.178671e+000 1.125284e+000 8.661492e-001 9.527444e-001 8.521305e-001 3.251573e-001
<GCONST> 7.421323e+001
<STATE> 3
<MEAN> 25
 -3.935179e+000 -3.047619e+000 -3.276017e+000 -6.894314e-001 -2.113962e+000 3.848331e-001 1.694150e-001 -1.432765e+000 -6.354821e-001 1.127533e+000 1.217712e+000 7.721922e-002 -5.443309e-002 -2.059874e-001 -4.280155e-001 -4.331730e-001 -4.117792e-001 -3.741645e-001 -3.391595e-001 -2.079056e-001 -1.240529e-001 -3.043950e-002 -5.877452e-002 -5.328406e-002 -3.612183e-002
<VARIANCE> 25
 4.056602e+000 5.230239e+000 8.516527e+000 1.160317e+001 8.829397e+000 1.127218e+001 8.559340e+000 1.029539e+001 1.192875e+001 1.064740e+001 7.879423e+000 8.415308e+000 3.312103e-001 5.436156e-001 9.319355e-001 1.118724e+000 8.502461e-001 1.133330e+000 9.549081e-001 1.184625e+000 1.259486e+000 1.059415e+000 9.059405e-001 9.300109e-001 1.764534e-001
<GCONST> 6.850851e+001
<STATE> 4
<MEAN> 25
 -3.611302e+000 -2.683869e+000 -3.604803e+000 -1.117699e+000 -2.526048e+000 8.968340e-002 -2.193184e-001 -1.271451e+000 -3.818783e-001 1.312619e+000 9.609672e-001 3.002818e-001 -5.348743e-003 2.959781e-002 5.840470e-002 6.380317e-002 2.641620e-002 -2.697682e-003 2.318768e-002 1.570595e-002 -2.556546e-002 -1.811858e-002 8.284263e-003 1.738263e-002 -7.370105e-003
<VARIANCE> 25
 1.868959e+000 2.622736e+000 3.691092e+000 4.467127e+000 5.107704e+000 5.735432e+000 6.937457e+000 6.854916e+000 6.813859e+000 7.150339e+000 6.509452e+000 6.545323e+000 1.518015e-001 2.241729e-001 3.108206e-001 3.930314e-001 4.507415e-001 5.540285e-001 6.723595e-001 7.253533e-001 6.684115e-001 7.360745e-001 6.905891e-001 6.804655e-001 7.341873e-002
<GCONST> 5.355221e+001
<TRANSP> 5
 0.000000e+000 1.000000e+000 0.000000e+000 0.000000e+000 0.000000e+000
 0.000000e+000 5.402256e-001 4.597745e-001 0.000000e+000 0.000000e+000
 0.000000e+000 0.000000e+000 6.236785e-001 3.763214e-001 0.000000e+000
 0.000000e+000 0.000000e+000 0.000000e+000 9.210857e-001 7.891435e-002
 0.000000e+000 0.000000e+000 0.000000e+000 0.000000e+000 0.000000e+000
<ENDHMM>
~h "r"
<BEGINHMM>
<NUMSTATES> 5
<STATE> 2
<MEAN> 25
 -4.686100e-001 -6.944936e-001 -1.633745e+000 -3.942050e-001 9.367707e-001 2.344324e+000 9.937876e-001 -9.231183e-001 -2.052964e+000 -7.988275e-001 3.469447e-001 1.079433e+000 1.056419e+000 5.936895e-001 4.394763e-001 4.030612e-001 5.146831e-001 1.473413e-001 2.067613e-002 -2.439128e-002 -4.355964e-001 -6.577210e-001 -2.283865e-001 1.918743e-001 6.670077e-001
<VARIANCE> 25
 1.794403e+001 1.541769e+001 1.843927e+001 1.528853e+001 1.641033e+001 1.295878e+001 1.263067e+001 1.064438e+001 1.126101e+001 1.305988e+001 8.596201e+000 8.475433e+000 1.828475e+000 1.565220e+000 1.798302e+000 1.337900e+000 1.633861e+000 1.535681e+000 1.543008e+000 1.319934e+000 1.294740e+000 1.534874e+000 1.201423e+000 9.895179e-001 8.420115e-001
<GCONST> 8.099997e+001
<STATE> 3
<MEAN> 25
 7.772308e+000 4.178332e+000 5.083020e-002 2.069876e+000 9.969842e-001 -2.235093e-001 1.333447e+000 1.015691e+000 -3.333049e+000 -6.069851e+000 -3.205240e+000 1.359930e+000 5.228981e-001 1.891912e-001 -9.485965e-002 -6.334125e-002 -7.187564e-001 -7.199319e-001 2.167503e-001 6.858652e-001 2.191293e-001 -5.401953e-001 -4.982215e-001 -3.588341e-001 2.523043e-001
<VARIANCE> 25
 9.753135e+000 3.187783e+000 1.093648e+001 7.876198e+000 7.857197e+000 1.110556e+001 8.185261e+000 1.010336e+001 1.039099e+001 1.289917e+001 7.271211e+000 5.796430e+000 9.915767e-001 4.793001e-001 7.110106e-001 5.091831e-001 8.314824e-001 1.287417e+000 8.215666e-001 1.112010e+000 8.232461e-001 1.289420e+000 8.117494e-001 7.652671e-001 5.510262e-001
<GCONST> 6.856858e+001
<STATE> 4
<MEAN> 25
 8.726124e+000 6.903743e+000 4.004620e+000 1.081919e+000 -4.807656e+000 -5.532338e+000 7.662316e-001 5.052346e+000 -9.344321e-001 -5.475706e+000 -3.891126e+000 -3.993211e+000 -3.177568e-001 8.900812e-001 1.044206e+000 -2.449991e-001 -5.383419e-001 -4.607500e-001 -9.244214e-001 -5.496870e-001 3.718869e-001 1.629824e+000 1.013465e+000 -8.363925e-001 -3.475676e-001
<VARIANCE> 25
 6.256933e+000 6.477885e+000 1.170644e+001 7.017151e+000 8.818179e+000 1.390123e+001 5.614216e+000 1.545247e+001 7.422274e+000 1.765933e+001 1.113130e+001 9.642802e+000 3.230827e-001 5.007222e-001 6.828668e-001 3.940487e-001 8.282796e-001 1.073723e+000 6.849412e-001 1.902149e+000 6.361316e-001 1.389034e+000 9.563103e-001 9.960023e-001 2.657318e-001
<GCONST> 6.839641e+001
<TRANSP> 5
 0.000000e+000 1.000000e+000 0.000000e+000 0.000000e+000 0.000000e+000
 0.000000e+000 8.378549e-001 1.621451e-001 0.000000e+000 0.000000e+000
 0.000000e+000 0.000000e+000 8.249384e-001 1.750617e-001 0.000000e+000
 0.000000e+000 0.000000e+000 0.000000e+000 6.878710e-001 3.121291e-001
 0.000000e+000 0.000000e+000 0.000000e+000 0.000000e+000 0.000000e+000
<ENDHMM>
~h "s"
<BEGINHMM>
<NUMSTATES> 5
<STATE> 2
<MEAN> 25
 -3.074136e+000 -4.857681e+000 3.463840e+000 -2.886141e+000 -1.169322e+000 1.092725e-001 3.838615e+000 -8.910660e-001 -3.436447e+000 1.101401e+000 1.126320e+000 1.885592e+000 -2.396419e+000 -2.453257e+000 3.062383e+000 -9.721937e-001 4.046150e-001 -8.521925e-001 1.240771e+000 -4.211680e-001 -7.109081e-001 3.498582e-001 2.401683e-001 8.700988e-002 1.267582e+000
<VARIANCE> 25
 2.415383e+001 2.907252e+001 4.213630e+001 2.033671e+001 1.778338e+001 1.554753e+001 2.000865e+001 1.533197e+001 2.248679e+001 1.489016e+001 1.438666e+001 1.094303e+001 4.799632e+000 2.387125e+000 3.740443e+000 1.829015e+000 1.752307e+000 2.135212e+000 2.241026e+000 2.510470e+000 3.061485e+000 1.222318e+000 1.248529e+000 1.715131e+000 9.308761e-001
<GCONST> 9.089339e+001
<STATE> 3
<MEAN> 25
 -1.330712e+001 -1.230184e+001 1.332673e+001 -8.860742e+000 2.554985e+000 -6.020065e+000 8.930872e+000 -2.448554e+000 -3.885734e+000 1.088107e+000 2.426340e+000 1.784104e+000 -9.383458e-001 -5.319864e-001 6.355225e-001 -3.940443e-001 3.949548e-001 -6.202707e-001 5.792559e-001 -1.220662e-001 -1.101658e-002 -1.891758e-001 2.500239e-001 -1.064236e-001 7.845868e-001
<VARIANCE> 25
 9.678063e+000 1.293621e+001 9.559181e+000 2.572032e+001 1.761938e+001 1.863309e+001 2.268536e+001 1.878055e+001 3.443567e+001 1.387055e+001 1.064436e+001 1.241552e+001 1.459205e+000 8.760724e-001 1.332824e+000 1.105389e+000 1.066133e+000 1.211104e+000 1.381151e+000 1.083408e+000 1.293370e+000 1.013717e+000 1.043468e+000 9.511976e-001 3.601771e-001
<GCONST> 7.971684e+001
<STATE> 4
<MEAN> 25
 -1.197268e+001 -1.029945e+001 1.326030e+001 -7.835926e+000 2.812884e+000 -5.680231e+000 9.153614e+000 -2.340461e+000 -3.450157e+000 1.496208e+000 2.537755e+000 4.073277e-001 1.167048e+000 7.513226e-001 -1.017022e+000 5.025862e-001 -3.157638e-001 6.464548e-001 -6.606943e-001 1.957903e-001 7.946722e-002 -8.461815e-002 -2.251663e-001 -1.417789e-002 -6.644284e-001
<VARIANCE> 25
 3.061764e+001 1.447533e+001 3.041571e+001 2.349255e+001 2.433939e+001 2.191178e+001 2.147141e+001 1.473516e+001 2.487011e+001 1.665193e+001 9.944975e+000 1.499526e+001 2.573882e+000 2.308170e+000 2.672186e+000 1.419223e+000 1.481416e+000 1.900433e+000 1.786861e+000 1.210495e+000 1.472618e+000 1.385187e+000 1.004840e+000 1.381225e+000 7.904993e-001
<GCONST> 8.740670e+001
<TRANSP> 5
 0.000000e+000 1.000000e+000 0.000000e+000 0.000000e+000 0.000000e+000
 0.000000e+000 7.177052e-001 2.822948e-001 0.000000e+000 0.000000e+000
 0.000000e+000 0.000000e+000 8.478758e-001 1.521242e-001 0.000000e+000
 0.000000e+000 0.000000e+000 0.000000e+000 9.085529e-001 9.144711e-002
 0.000000e+000 0.000000e+000 0.000000e+000 0.000000e+000 0.000000e+000
<ENDHMM>
~h "t"
<BEGINHMM>
<NUMSTATES> 5
<STATE> 2
<MEAN> 25
 -2.448535e+000 -1.087516e+000 -1.218347e+000 7.225778e-001 -8.473383e-001 1.660523e+000 8.055759e-001 -4.374646e-001 -6.458054e-002 1.179765e+000 1.035301e+000 -1.007043e-001 -7.619003e-001 -7.015179e-001 -1.349113e+000 -9.741851e-001 -7.766873e-001 -5.193541e-001 -6.458722e-001 -5.740946e-001 1.944485e-002 1.085072e-001 -3.365884e-002 -5.833830e-002 -5.797759e-001
<VARIANCE> 25
 3.452332e+000 3.506604e+000 6.579167e+000 9.982258e+000 6.698884e+000 9.818545e+000 9.282893e+000 9.526920e+000 1.020169e+001 9.869535e+000 8.553139e+000 7.354467e+000 9.195496e-001 8.465730e-001 9.987364e-001 1.595429e+000 9.815493e-001 9.742939e-001 9.509190e-001 1.196316e+000 1.151966e+000 1.219172e+000 1.012695e+000 8.306508e-001 4.247503e-001
<GCONST> 6.965762e+001
<STATE> 3
<MEAN> 25
 -3.451287e+000 -2.373488e+000 -3.172733e+000 -7.353737e-001 -2.175473e+000 5.562425e-001 -3.082829e-001 -1.323424e+000 -3.549080e-001 1.126352e+000 8.892921e-001 3.187671e-001 -6.550297e-002 -1.019655e-001 -2.797732e-002 2.540613e-002 9.984856e-003 -6.104475e-002 -3.027958e-002 2.159770e-002 7.001797e-003 -3.149160e-003 5.811904e-003 1.603634e-002 -6.034930e-003
<VARIANCE> 25
 2.622436e+000 2.670539e+000 5.165068e+000 6.302759e+000 5.858143e+000 6.672084e+000 6.514750e+000 6.953417e+000 7.754912e+000 7.536384e+000 7.560682e+000 7.332099e+000 1.339418e-001 2.129982e-001 3.341451e-001 4.541520e-001 4.904226e-001 6.675164e-001 6.545120e-001 7.295688e-001 7.755960e-001 7.650641e-001 7.833337e-001 7.108701e-001 1.044434e-001
<GCONST> 5.627391e+001
<STATE> 4
<MEAN> 25
 -2.538456e-001 -4.257585e+000 1.293613e-001 1.730044e+000 -5.472519e-002 -5.288439e-001 6.249554e-001 -1.000284e+000 -3.003154e+000 -1.293582e+000 7.764340e-001 -9.351148e-002 2.039761e+000 7.034664e-001 2.286648e+000 7.248139e-001 8.707132e-001 -2.726975e-001 -3.050937e-001 4.042687e-001 -7.271291e-001 -1.641204e+000 -1.029622e+000 -6.358017e-001 2.028764e+000
<VARIANCE> 25
 1.960932e+001 1.931182e+001 2.415003e+001 2.278803e+001 1.547848e+001 1.821415e+001 2.489065e+001 1.679997e+001 2.919201e+001 2.199444e+001 1.348624e+001 1.169557e+001 1.333690e+000 5.469112e+000 3.489364e+000 3.885613e+000 2.901409e+000 2.346826e+000 3.497074e+000 2.099526e+000 3.578810e+000 2.596020e+000 2.744121e+000 1.954214e+000 1.343495e+000
<GCONST> 9.410695e+001
<TRANSP> 5
 0.000000e+000 1.000000e+000 0.000000e+000 0.000000e+000 0.000000e+000
 0.000000e+000 5.265553e-001 4.734447e-001 0.000000e+000 0.000000e+000
 0.000000e+000 0.000000e+000 9.048390e-001 9.516100e-002 0.000000e+000
 0.000000e+000 0.000000e+000 0.000000e+000 7.080020e-001 2.919980e-001
 0.000000e+000 0.000000e+000 0.000000e+000 0.000000e+000 0.000000e+000
<ENDHMM>
~h "u"
<BEGINHMM>
<NUMSTATES> 5
<STATE> 2
<MEAN> 25
 7.830934e+000 8.934871e+000 8.340197e+000 2.800113e+000 -2.823399e+000 -3.276989e+000 -3.416456e+000 1.721898e+000 -2.100851e-001 -4.631708e+000 -4.607554e+000 -4.839272e+000 5.709136e-001 1.328520e+000 9.047890e-001 4.277245e-002 -4.242294e-001 -6.218050e-001 -1.142329e+000 -3.238944e-001 3.966193e-001 3.207616e-001 -1.642040e-001 -5.167241e-001 1.298225e-002
<VARIANCE> 25
 7.910841e+000 1.251095e+001 9.712955e+000 9.205799e+000 1.307252e+001 2.133615e+001 1.622154e+001 2.107799e+001 1.503613e+001 2.895745e+001 2.421258e+001 1.263348e+001 1.610706e+000 3.196389e+000 1.884574e+000 1.479495e+000 1.467499e+000 2.032526e+000 2.165740e+000 2.373323e+000 1.848486e+000 2.641957e+000 3.115829e+000 1.792296e+000 6.905556e-001
<GCONST> 8.662966e+001
<STATE> 3
<MEAN> 25
 5.987522e+000 9.875663e+000 8.829315e+000 4.906943e+000 -1.461651e+000 -2.901298e+000 -5.243515e+000 -2.939976e+000 -9.590572e-001 3.354905e-001 2.767007e-002 -2.724870e+000 -8.265116e-001 -7.937337e-001 -6.866116e-001 2.314316e-001 5.474793e-001 6.874716e-001 5.724300e-001 -1.782649e-001 1.159451e-002 2.995352e-001 3.046079e-001 4.929532e-001 -4.766159e-001
<VARIANCE> 25
 5.419095e+000 6.377887e+000 7.312055e+000 6.805611e+000 9.294742e+000 1.458818e+001 1.239221e+001 1.260136e+001 1.083976e+001 1.089919e+001 8.226111e+000 1.003594e+001 7.101871e-001 1.016615e+000 8.302666e-001 6.652449e-001 7.407310e-001 1.115328e+000 1.091179e+000 1.404797e+000 1.040107e+000 1.127591e+000 1.011401e+000 8.368833e-001 1.961917e-001
<GCONST> 7.022373e+001
<STATE> 4
<MEAN> 25
 -1.832112e+000 6.474028e-001 6.598734e-001 2.517949e+000 -1.252062e-001 9.756959e-001 -7.386050e-001 -1.498408e+000 -3.218796e-001 5.776055e-001 1.705059e-002 -1.238309e+000 -6.483213e-001 -8.285851e-001 -8.000534e-001 -4.370379e-001 -1.364219e-001 1.218477e-001 2.629131e-001 1.766321e-001 1.314536e-001 1.767675e-001 1.027679e-001 1.065129e-001 -2.951807e-001
<VARIANCE> 25
 8.012914e+000 7.864506e+000 9.790812e+000 8.550242e+000 7.041577e+000 7.690313e+000 7.884253e+000 8.285557e+000 9.631617e+000 9.127728e+000 8.221965e+000 7.064782e+000 4.599659e-001 7.180124e-001 8.392475e-001 7.312703e-001 7.071909e-001 7.895172e-001 8.732396e-001 1.000235e+000 1.002091e+000 9.196674e-001 8.070815e-001 7.101490e-001 1.277248e-001
<GCONST> 6.621689e+001
<TRANSP> 5
 0.000000e+000 1.000000e+000 0.000000e+000 0.000000e+000 0.000000e+000
 0.000000e+000 7.782341e-001 2.217659e-001 0.000000e+000 0.000000e+000
 0.000000e+000 0.000000e+000 8.399289e-001 1.600711e-001 0.000000e+000
 0.000000e+000 0.000000e+000 0.000000e+000 8.172353e-001 1.827647e-001
 0.000000e+000 0.000000e+000 0.000000e+000 0.000000e+000 0.000000e+000
<ENDHMM>
~h "ng"
<BEGINHMM>
<NUMSTATES> 5
<STATE> 2
<MEAN> 25
 5.803366e+000 6.046302e+000 3.153982e+000 3.982237e+000 -1.459703e-001 -3.494940e-001 -5.003763e-001 1.976917e+000 4.051054e+000 2.616949e+000 7.663653e-001 -6.671255e-001 -2.309106e-001 -8.267577e-002 1.262863e-001 2.778978e-001 1.206047e-001 9.592719e-002 -7.008174e-003 -2.520069e-002 7.619898e-002 8.472134e-002 1.982930e-001 1.848862e-001 -1.608184e-001
<VARIANCE> 25
 5.599511e+000 3.679533e+000 5.765022e+000 6.667760e+000 5.662926e+000 9.450737e+000 8.967389e+000 5.888371e+000 8.844402e+000 7.739289e+000 5.201298e+000 5.227737e+000 2.255286e-001 2.367893e-001 4.795104e-001 9.502262e-001 4.298956e-001 5.895960e-001 9.686167e-001 7.090575e-001 8.261724e-001 7.904072e-001 6.100003e-001 5.322569e-001 1.194966e-001
<GCONST> 5.895735e+001
<STATE> 3
<MEAN> 25
 3.603489e+000 4.482611e+000 1.525733e+000 3.582434e+000 1.436905e+000 3.470841e+000 2.416013e+000 1.733044e+000 2.068867e+000 1.826948e+000 1.973129e+000 9.525504e-001 -5.350429e-001 -6.391332e-001 -5.418295e-001 -4.913976e-001 1.074522e-004 2.420242e-001 3.366267e-001 1.638549e-001 -1.740070e-001 -2.058971e-001 -1.202262e-001 1.070591e-001 -1.885808e-001
<VARIANCE> 25
 1.436264e+001 7.245263e+000 8.460152e+000 9.741353e+000 7.935291e+000 9.897548e+000 9.460152e+000 7.588937e+000 1.008941e+001 1.058966e+001 8.387968e+000 7.950060e+000 4.242113e-001 5.519953e-001 7.641780e-001 1.029789e+000 6.232278e-001 7.035127e-001 8.881348e-001 9.806640e-001 9.525080e-001 1.126966e+000 8.408952e-001 1.029567e+000 2.044215e-001
<GCONST> 6.819753e+001
<STATE> 4
<MEAN> 25
 -1.640045e+000 -1.021422e+000 -3.276444e+000 -5.738163e-001 -1.584050e+000 1.204664e+000 1.304818e+000 1.001842e+000 9.897385e-001 1.254761e+000 1.004907e+000 6.109361e-001 -1.667067e-001 -3.578297e-001 -3.032270e-001 -4.768548e-001 -2.123909e-001 -1.892346e-001 -6.677417e-002 -5.606624e-002 -3.064938e-001 -3.383583e-001 -8.616029e-002 2.775289e-001 3.887032e-002
<VARIANCE> 25
 1.312265e+001 7.939673e+000 1.552249e+001 1.635418e+001 1.202610e+001 1.018936e+001 1.030731e+001 1.077166e+001 1.312512e+001 1.443087e+001 9.804499e+000 9.821336e+000 4.576019e-001 4.624435e-001 1.184922e+000 1.956412e+000 1.127187e+000 1.107376e+000 1.266718e+000 1.114320e+000 1.587662e+000 2.197518e+000 1.096075e+000 1.309914e+000 3.033712e-001
<GCONST> 7.573209e+001
<TRANSP> 5
 0.000000e+000 1.000000e+000 0.000000e+000 0.000000e+000 0.000000e+000
 0.000000e+000 8.200016e-001 1.799985e-001 0.000000e+000 0.000000e+000
 0.000000e+000 0.000000e+000 6.681733e-001 3.318266e-001 0.000000e+000
 0.000000e+000 0.000000e+000 0.000000e+000 7.399910e-001 2.600090e-001
 0.000000e+000 0.000000e+000 0.000000e+000 0.000000e+000 0.000000e+000
<ENDHMM>
~h "ny"
<BEGINHMM>
<NUMSTATES> 5
<STATE> 2
<MEAN> 25
 -4.062719e+000 -3.213608e+000 -3.762695e+000 -1.333730e+000 -2.751206e+000 3.853321e-001 -4.999387e-002 -1.602253e+000 -2.569019e-001 1.616202e+000 1.203562e+000 2.723256e-001 1.630965e-002 8.575299e-002 5.813198e-002 9.062330e-002 4.874371e-002 -8.659959e-003 6.494035e-003 6.186523e-002 4.070994e-002 2.052948e-002 3.047791e-002 8.503628e-003 -1.845120e-002
<VARIANCE> 25
 2.197199e+000 2.553165e+000 4.151150e+000 4.631027e+000 5.586185e+000 5.699050e+000 6.106096e+000 6.187793e+000 6.913994e+000 6.813617e+000 7.900654e+000 7.255746e+000 1.118092e-001 1.743206e-001 3.407153e-001 4.573340e-001 5.088398e-001 5.976782e-001 6.702170e-001 6.643508e-001 7.608990e-001 7.469981e-001 7.189574e-001 6.987380e-001 5.624203e-002
<GCONST> 5.369352e+001
<STATE> 3
<MEAN> 25
 -1.524557e+000 1.287006e+000 2.069732e+000 4.132031e+000 2.416549e+000 3.031188e+000 1.602564e+000 7.063636e-001 1.205274e+000 1.526822e+000 5.856879e-001 -1.626650e+000 1.120147e+000 1.346631e+000 2.020568e+000 1.266785e+000 1.291227e+000 3.721760e-001 -1.005047e-001 3.558924e-001 1.860489e-001 -3.325778e-001 -2.252151e-001 -6.804098e-001 7.991933e-001
<VARIANCE> 25
 1.405531e+001 1.386517e+001 2.092184e+001 1.492793e+001 1.156210e+001 1.173566e+001 9.363367e+000 6.534985e+000 8.806187e+000 8.095877e+000 7.235063e+000 8.095712e+000 9.134575e-001 1.014606e+000 1.913365e+000 1.200582e+000 1.261918e+000 1.629814e+000 1.641471e+000 8.999267e-001 8.247711e-001 9.963322e-001 8.454099e-001 7.218666e-001 3.789424e-001
<GCONST> 7.453111e+001
<STATE> 4
<MEAN> 25
 5.664570e+000 9.210427e-001 5.827477e+000 3.544451e+000 8.819396e+000 -2.780169e+000 -8.459634e+000 -1.391296e+000 1.729304e+000 -9.935953e-001 2.144797e+000 6.360368e-001 8.345270e-001 -5.056971e-001 -1.016763e+000 -1.335390e+000 2.984728e-001 -3.876832e-001 -3.627856e-001 -5.352861e-002 -4.997045e-001 -2.458227e-001 4.005536e-001 1.100032e+000 9.880996e-001
<VARIANCE> 25
 1.037011e+001 1.812777e+001 3.419978e+001 3.138090e+001 1.224631e+001 2.598508e+001 3.999535e+001 2.253279e+001 1.699937e+001 1.211061e+001 1.510580e+001 2.795904e+001 6.617796e-001 1.671572e+000 3.792051e+000 2.486225e+000 2.605034e+000 4.222207e+000 1.014009e+001 3.209296e+000 2.686811e+000 1.912998e+000 1.494266e+000 1.839437e+000 1.228778e+000
<GCONST> 9.318038e+001
<TRANSP> 5
 0.000000e+000 1.000000e+000 0.000000e+000 0.000000e+000 0.000000e+000
 0.000000e+000 9.240785e-001 7.592154e-002 0.000000e+000 0.000000e+000
 0.000000e+000 0.000000e+000 7.729064e-001 2.270936e-001 0.000000e+000
 0.000000e+000 0.000000e+000 0.000000e+000 8.879213e-001 1.120787e-001
 0.000000e+000 0.000000e+000 0.000000e+000 0.000000e+000 0.000000e+000
<ENDHMM>
~h "sp"
<BEGINHMM>
<NUMSTATES> 3
<STATE> 2
~s "silst"
<TRANSP> 3
 0.000000e+000 5.945717e-001 4.054282e-001
 0.000000e+000 9.408876e-001 5.911241e-002
 0.000000e+000 0.000000e+000 0.000000e+000
<ENDHMM>
~h "sil"
<BEGINHMM>
<NUMSTATES> 5
<STATE> 2
<MEAN> 25
 -3.635157e+000 -2.715558e+000 -4.085572e+000 -1.945960e+000 -3.049117e+000 -9.153526e-002 -6.022631e-001 -1.671868e+000 -5.762752e-001 1.346328e+000 9.933860e-001 3.267503e-001 -4.000522e-002 3.095262e-002 5.544975e-002 6.451191e-002 3.141472e-002 -1.402913e-003 -8.961402e-003 1.829532e-002 3.820164e-002 2.314411e-002 4.832586e-003 -6.082593e-003 -3.859540e-002
<VARIANCE> 25
 1.397502e+000 1.930808e+000 2.974530e+000 3.653967e+000 4.807030e+000 5.802015e+000 6.035137e+000 6.678462e+000 6.919483e+000 7.068425e+000 6.864580e+000 6.727309e+000 6.995292e-002 1.403283e-001 2.287982e-001 3.257268e-001 3.927177e-001 4.966412e-001 5.616162e-001 6.174842e-001 6.625558e-001 6.834140e-001 6.799269e-001 6.705728e-001 3.087211e-002
<GCONST> 4.910324e+001
<STATE> 3
~s "silst"
<STATE> 4
<MEAN> 25
 -4.400311e+000 -3.989059e+000 -4.486794e+000 -2.088577e+000 -2.568763e+000 4.008986e-001 -2.677893e-001 -1.053344e+000 2.608596e-001 1.485344e+000 1.202896e+000 2.007139e-001 4.274486e-001 -1.366628e-001 -4.901044e-001 -7.244428e-001 -4.208806e-001 -7.666363e-002 -4.262693e-002 -1.432544e-001 -2.113088e-001 -1.614675e-001 2.804544e-002 2.041631e-002 3.482695e-001
<VARIANCE> 25
 4.096171e+000 3.942055e+000 1.035243e+001 1.130253e+001 8.855459e+000 7.554921e+000 8.828517e+000 8.781293e+000 8.586212e+000 8.879436e+000 7.775255e+000 8.472746e+000 3.498926e-001 4.319983e-001 9.624811e-001 1.037353e+000 8.024182e-001 7.809860e-001 9.191813e-001 9.241135e-001 9.459651e-001 9.740534e-001 8.258357e-001 8.919401e-001 1.581439e-001
<GCONST> 6.581312e+001
<TRANSP> 5
 0.000000e+000 1.000000e+000 0.000000e+000 0.000000e+000 0.000000e+000
 0.000000e+000 9.353332e-001 4.142586e-002 2.324094e-002 0.000000e+000
 0.000000e+000 0.000000e+000 9.346390e-001 6.536092e-002 0.000000e+000
 0.000000e+000 2.164245e-001 0.000000e+000 6.655955e-001 1.179800e-001
 0.000000e+000 0.000000e+000 0.000000e+000 0.000000e+000 0.000000e+000
<ENDHMM>
