~o
<STREAMINFO> 1 25
<VECSIZE> 25<NULLD><MFCC_D_N_Z_0><DIAGC>
~s "silst"
<MEAN> 25
 -7.221574e+000 -4.707732e+000 -2.934118e+000 1.021231e+000 -5.229542e-001 7.365580e-002 2.078395e-001 -1.183537e-003 1.564448e+000 1.993870e+000 7.253076e-001 -2.709152e-001 -2.859110e-002 -2.796245e-002 -2.181591e-002 -1.455579e-002 -1.305935e-002 -1.175501e-002 -5.257792e-003 8.949681e-003 1.032515e-002 4.014477e-003 7.939206e-003 6.934975e-003 -1.399253e-002
<VARIANCE> 25
 1.184417e+000 1.607482e+000 2.439347e+000 3.748914e+000 4.411321e+000 5.090277e+000 5.822740e+000 6.349466e+000 6.848023e+000 6.434182e+000 6.233812e+000 5.864733e+000 6.298584e-002 1.190481e-001 2.116194e-001 3.130762e-001 4.047801e-001 5.036948e-001 5.958372e-001 6.496112e-001 6.973467e-001 6.915253e-001 6.755257e-001 6.161829e-001 1.821000e-002
<GCONST> 4.715192e+001
~h "b"
<BEGINHMM>
<NUMSTATES> 5
<STATE> 2
<MEAN> 25
 -3.709427e+000 -1.691950e+000 -1.101656e+000 8.713915e-001 -5.153862e-001 5.816788e-001 3.494028e-001 -4.290548e-001 2.218626e-001 4.350058e-001 -5.181308e-001 -1.627457e+000 -3.639284e-001 -2.627629e-001 -7.214551e-002 1.974685e-001 2.043076e-001 5.960736e-002 2.794120e-002 -8.742660e-002 -1.147477e-001 -6.172252e-002 6.752803e-003 1.035258e-001 -2.019050e-001
<VARIANCE> 25
 5.057277e+000 7.670217e+000 1.494902e+001 1.458737e+001 6.744897e+000 8.115935e+000 9.457032e+000 1.344278e+001 1.651609e+001 9.548578e+000 9.394397e+000 1.257764e+001 2.771982e-001 3.380010e-001 6.295397e-001 7.055026e-001 5.378277e-001 6.037650e-001 8.076220e-001 1.073386e+000 1.245798e+000 8.637186e-001 6.405658e-001 6.559020e-001 7.653759e-002
<GCONST> 6.585966e+001
<STATE> 3
<MEAN> 25
 -6.430227e+000 -4.012403e+000 -2.021513e+000 1.865177e+000 6.395972e-001 1.041980e+000 1.961114e-001 6.210763e-002 1.597773e+000 1.487192e+000 1.916980e-001 -8.006843e-001 9.447094e-004 2.076952e-002 4.407480e-002 7.806671e-002 8.645496e-002 8.121868e-002 4.650545e-002 6.914389e-002 1.357671e-001 9.576915e-002 5.638728e-002 3.948704e-002 -3.152631e-003
<VARIANCE> 25
 1.870885e+000 3.073142e+000 3.871634e+000 5.853296e+000 5.272365e+000 5.423410e+000 5.985574e+000 7.392822e+000 7.715835e+000 7.474868e+000 6.998043e+000 6.744424e+000 1.179303e-001 2.273174e-001 3.397620e-001 4.804046e-001 5.119969e-001 6.008928e-001 6.558214e-001 8.063244e-001 7.693941e-001 7.488514e-001 7.517684e-001 7.705456e-001 2.609389e-002
<GCONST> 5.387793e+001
<STATE> 4
<MEAN> 25
 3.693838e-001 4.088035e+000 6.047394e+000 8.504742e+000 5.415714e+000 3.897874e+000 1.985876e+000 9.459072e-001 2.168486e+000 1.971247e+000 2.648407e-001 -1.439480e+000 1.132855e+000 6.943682e-001 3.597091e-001 6.345969e-002 5.001654e-002 1.037427e-002 -1.845647e-002 -2.659803e-001 -4.101430e-001 -1.866886e-001 -2.985301e-002 -2.990022e-002 6.618341e-001
<VARIANCE> 25
 1.389577e+001 1.954561e+001 2.224645e+001 1.629735e+001 1.008285e+001 8.273534e+000 9.655503e+000 7.653567e+000 8.783481e+000 6.533162e+000 6.431767e+000 6.385508e+000 1.135719e+000 2.397674e+000 3.243696e+000 3.172563e+000 1.960410e+000 1.307146e+000 1.034287e+000 9.691359e-001 1.183140e+000 7.702156e-001 7.947232e-001 7.398515e-001 5.191917e-001
<GCONST> 7.693301e+001
<TRANSP> 5
 0.000000e+000 1.000000e+000 0.000000e+000 0.000000e+000 0.000000e+000
 0.000000e+000 8.066051e-001 1.933949e-001 0.000000e+000 0.000000e+000
 0.000000e+000 0.000000e+000 9.130265e-001 8.697354e-002 0.000000e+000
 0.000000e+000 0.000000e+000 0.000000e+000 8.902158e-001 1.097842e-001
 0.000000e+000 0.000000e+000 0.000000e+000 0.000000e+000 0.000000e+000
<ENDHMM>
~h "d"
<BEGINHMM>
<NUMSTATES> 5
<STATE> 2
<MEAN> 25
 2.287285e+000 3.004733e+000 1.012213e+001 6.677304e+000 6.477932e+000 2.878237e+000 -3.127501e+000 -1.661105e+000 -6.183818e-001 -1.753859e+000 -2.458524e+000 -2.905585e+000 4.345792e-001 1.095500e-001 5.355557e-001 1.312549e-001 4.940120e-001 -3.006519e-002 -8.973657e-001 -1.770047e-001 -2.037769e-001 -5.481192e-001 -1.318022e-001 -6.007759e-002 4.556451e-001
<VARIANCE> 25
 1.733742e+001 2.983886e+001 3.523591e+001 3.177545e+001 3.080857e+001 2.044512e+001 4.682745e+001 2.567084e+001 1.959331e+001 2.103486e+001 1.988808e+001 1.713631e+001 1.838937e+000 4.143237e+000 3.259153e+000 5.238328e+000 3.452327e+000 2.436822e+000 5.161013e+000 3.623858e+000 2.599028e+000 2.243163e+000 2.113644e+000 1.527683e+000 2.278645e+000
<GCONST> 9.829174e+001
<STATE> 3
<MEAN> 25
 4.163459e+000 6.669422e+000 1.017206e+001 9.130304e+000 6.393987e+000 -2.818403e-001 -6.283319e+000 -6.883520e-001 2.694652e+000 -7.782080e-001 -2.058541e+000 -3.098296e+000 1.753720e-001 8.219218e-002 -3.380419e-001 -2.507462e-001 -2.734883e-001 -2.057910e-001 2.058188e-003 -2.148761e-001 -5.346451e-002 3.649717e-001 3.592245e-001 2.784746e-001 3.232172e-002
<VARIANCE> 25
 5.299567e+000 5.095245e+000 9.535993e+000 1.078028e+001 1.218030e+001 2.480179e+001 6.456947e+001 1.140230e+001 1.215813e+001 1.084786e+001 9.149684e+000 1.184169e+001 2.524095e-001 4.066558e-001 9.416590e-001 7.156711e-001 1.324619e+000 1.733994e+000 4.852733e+000 1.095515e+000 1.603559e+000 1.276686e+000 7.945312e-001 6.146927e-001 3.329690e-001
<GCONST> 7.448659e+001
<STATE> 4
<MEAN> 25
 5.519549e+000 6.875661e+000 5.628423e+000 7.059240e+000 5.445955e+000 2.860187e+000 -2.788385e+000 -5.270849e+000 -3.078466e+000 -2.766796e-001 1.768518e+000 8.327391e-001 -4.754081e-001 -1.373690e-001 -1.190617e-001 2.771358e-001 5.295354e-002 6.437830e-001 1.247877e+000 4.990837e-001 1.331063e-001 -7.222810e-002 -1.969687e-001 -8.173819e-002 -3.976785e-001
<VARIANCE> 25
 7.432254e+000 2.871244e+000 6.997107e+000 1.174183e+001 5.420076e+000 8.476241e+000 2.090734e+001 1.560161e+001 1.294436e+001 9.372889e+000 1.137435e+001 1.006468e+001 2.322809e-001 3.683635e-001 4.956919e-001 5.708635e-001 6.855218e-001 9.391995e-001 1.881944e+000 7.792652e-001 1.161381e+000 9.431891e-001 1.145020e+000 6.040211e-001 1.838973e-001
<GCONST> 6.682060e+001
<TRANSP> 5
 0.000000e+000 1.000000e+000 0.000000e+000 0.000000e+000 0.000000e+000
 0.000000e+000 8.687657e-001 1.312343e-001 0.000000e+000 0.000000e+000
 0.000000e+000 0.000000e+000 9.028118e-001 9.718821e-002 0.000000e+000
 0.000000e+000 0.000000e+000 0.000000e+000 8.061214e-001 1.938786e-001
 0.000000e+000 0.000000e+000 0.000000e+000 0.000000e+000 0.000000e+000
<ENDHMM>
~h "f"
<BEGINHMM>
<NUMSTATES> 5
<STATE> 2
<MEAN> 25
 -1.355096e+000 -9.722703e+000 -4.430248e+000 -2.213442e+000 5.174681e+000 3.550064e+000 -1.190809e-001 -7.406257e+000 -4.134457e+000 -9.768400e-001 2.586397e+000 1.710722e+000 1.398219e-001 1.959860e-001 2.367253e-001 1.145696e-001 2.024726e-002 -2.217767e-001 -3.150013e-001 -1.744153e-002 -4.407479e-003 -2.050906e-001 -1.599089e-001 -7.448713e-002 7.990080e-002
<VARIANCE> 25
 1.421551e+001 2.689684e+001 1.606786e+001 4.707144e+001 2.112512e+001 1.440759e+001 2.715683e+001 1.442905e+001 1.628330e+001 2.085147e+001 1.374218e+001 1.749019e+001 1.759910e+000 6.844806e+000 5.513355e+000 8.298225e+000 2.804006e+000 1.564090e+000 3.552844e+000 1.722283e+000 2.476245e+000 2.947262e+000 2.789760e+000 2.609169e+000 3.803502e-001
<GCONST> 9.412819e+001
<STATE> 3
<MEAN> 25
 5.244465e+000 5.267481e+000 1.116218e+001 1.424038e+001 1.015885e+001 -8.288754e-001 -1.205724e+001 -4.038500e+000 -1.991086e+000 -7.766427e+000 -7.229537e+000 -5.525452e+000 -1.476796e-001 7.232491e-001 1.755059e+000 2.292613e-001 -4.825954e-001 -2.306608e-001 -5.586296e-002 1.137733e+000 -2.617001e-001 -1.592991e+000 -3.663781e-001 1.440006e-001 -4.573829e-002
<VARIANCE> 25
 7.115532e+000 9.309720e+000 1.794159e+001 2.224339e+001 1.739401e+001 9.052618e+000 1.846990e+001 1.095967e+001 9.396978e+000 1.493663e+001 9.962473e+000 7.056583e+000 4.350978e-001 1.890003e+000 2.837173e+000 1.354607e+000 5.278322e-001 1.461144e+000 2.348089e+000 9.516735e-001 1.295278e+000 1.986469e+000 2.488291e+000 7.059814e-001 1.464573e-001
<GCONST> 7.697849e+001
<STATE> 4
<MEAN> 25
 2.664807e+000 4.800646e+000 1.103681e+001 1.182473e+001 7.790396e+000 2.288703e+000 -4.876091e+000 5.121691e-001 -1.376324e+000 -7.426806e+000 -4.146152e+000 -3.692141e+000 -3.610488e-001 -4.249562e-001 -7.173370e-001 -4.586514e-001 -3.991570e-001 1.137874e-001 7.592919e-001 2.866810e-001 3.207781e-001 5.050812e-001 3.293765e-001 3.259684e-001 -2.420510e-001
<VARIANCE> 25
 5.048761e+000 1.073109e+001 1.865606e+001 1.048158e+001 1.052769e+001 8.920182e+000 1.960504e+001 8.003214e+000 1.011577e+001 1.490589e+001 8.422902e+000 8.348299e+000 1.992683e-001 8.304675e-001 6.877353e-001 5.279459e-001 4.637410e-001 6.360532e-001 1.057373e+000 7.318810e-001 7.700674e-001 7.545772e-001 6.756912e-001 8.234147e-001 7.738234e-002
<GCONST> 6.610441e+001
<TRANSP> 5
 0.000000e+000 1.000000e+000 0.000000e+000 0.000000e+000 0.000000e+000
 0.000000e+000 9.292519e-001 7.074806e-002 0.000000e+000 0.000000e+000
 0.000000e+000 0.000000e+000 7.434068e-001 2.565932e-001 0.000000e+000
 0.000000e+000 0.000000e+000 0.000000e+000 8.887440e-001 1.112560e-001
 0.000000e+000 0.000000e+000 0.000000e+000 0.000000e+000 0.000000e+000
<ENDHMM>
~h "g"
<BEGINHMM>
<NUMSTATES> 5
<STATE> 2
<MEAN> 25
 -3.212936e+000 -6.251659e-001 -6.911921e-001 1.042312e+000 -9.423142e-001 1.768721e-002 5.427310e-001 3.251375e-001 6.043520e-001 1.247011e+000 9.926199e-001 7.448322e-001 -2.863662e-001 -1.897747e-001 -1.175318e-001 1.756167e-001 2.998758e-002 5.648984e-002 1.788550e-001 2.360785e-001 2.651708e-001 1.307060e-001 2.195918e-001 1.126446e-001 -2.172028e-001
<VARIANCE> 25
 1.247453e+001 1.885806e+001 1.882858e+001 1.233376e+001 9.629100e+000 1.097367e+001 6.887875e+000 7.612956e+000 1.185658e+001 7.929401e+000 9.119890e+000 9.655129e+000 2.006453e-001 1.575541e-001 4.193954e-001 6.558126e-001 6.994629e-001 7.970774e-001 7.972454e-001 8.037438e-001 9.105461e-001 6.854121e-001 1.038606e+000 9.400838e-001 6.482296e-002
<GCONST> 6.549080e+001
<STATE> 3
<MEAN> 25
 -8.195312e-001 3.118532e+000 3.320687e+000 4.637799e+000 1.793787e+000 2.191377e+000 2.359993e+000 1.768880e+000 2.369601e+000 2.041031e+000 1.079424e+000 4.915150e-002 -4.268579e-001 -4.510203e-001 -1.805954e-001 2.070501e-001 1.410999e-001 2.069664e-001 2.264065e-001 2.927361e-001 3.792536e-001 1.916012e-001 -1.537352e-002 -8.629658e-002 -2.051484e-001
<VARIANCE> 25
 6.426527e+000 8.352305e+000 8.124241e+000 9.027490e+000 8.143026e+000 7.173787e+000 9.465423e+000 7.282762e+000 7.785554e+000 7.732958e+000 7.345368e+000 5.149962e+000 1.769550e-001 3.629349e-001 4.298606e-001 7.006950e-001 6.037389e-001 6.161212e-001 7.853044e-001 8.118771e-001 7.560041e-001 9.369853e-001 6.982984e-001 6.129718e-001 6.782448e-002
<GCONST> 6.098804e+001
<STATE> 4
<MEAN> 25
 4.966782e-001 -2.513286e-001 4.055734e-001 -6.312333e-001 7.804004e-001 1.070361e+000 2.297991e+000 5.627636e-001 -2.647136e-001 -2.049553e-002 1.655007e+000 1.889524e-001 7.786279e-001 -1.261098e+000 -3.170364e-001 -1.433836e+000 -2.455823e-001 -4.894494e-001 -7.179220e-001 1.912745e-002 -7.533078e-001 -1.195655e+000 3.600453e-001 1.318195e-002 1.487428e+000
<VARIANCE> 25
 2.539129e+001 2.918943e+001 2.886795e+001 6.934548e+001 2.512481e+001 1.703507e+001 2.313294e+001 2.333799e+001 4.791196e+001 2.321899e+001 1.516124e+001 1.002863e+001 1.499308e+000 5.754401e+000 3.371699e+000 7.385988e+000 2.328456e+000 2.384439e+000 4.233951e+000 1.776334e+000 3.426167e+000 3.788708e+000 2.344403e+000 8.962263e-001 2.644203e+000
<GCONST> 9.792609e+001
<TRANSP> 5
 0.000000e+000 1.000000e+000 0.000000e+000 0.000000e+000 0.000000e+000
 0.000000e+000 4.902535e-001 5.097466e-001 0.000000e+000 0.000000e+000
 0.000000e+000 0.000000e+000 7.366219e-001 2.633781e-001 0.000000e+000
 0.000000e+000 0.000000e+000 0.000000e+000 7.719935e-001 2.280065e-001
 0.000000e+000 0.000000e+000 0.000000e+000 0.000000e+000 0.000000e+000
<ENDHMM>
~h "k"
<BEGINHMM>
<NUMSTATES> 5
<STATE> 2
<MEAN> 25
 -5.704394e+000 -3.465824e+000 -1.921238e+000 1.631634e+000 -7.117119e-002 5.133007e-001 3.669221e-001 2.076299e-001 1.573726e+000 1.729694e+000 6.443296e-001 -5.893930e-001 1.612757e+000 -3.379905e-001 -1.129457e+000 -3.011489e+000 -1.751172e+000 -3.049434e-001 1.131947e+000 -3.851277e-001 -1.465035e+000 -8.532998e-001 5.516219e-001 5.189301e-001 1.742055e+000
<VARIANCE> 25
 3.067122e+000 3.979755e+000 5.836521e+000 8.718038e+000 9.254971e+000 9.395456e+000 8.658156e+000 8.849435e+000 8.387420e+000 9.330119e+000 9.354733e+000 7.803293e+000 2.001954e+000 2.402409e+000 2.255861e+000 5.983419e+000 4.201643e+000 3.641676e+000 5.098892e+000 1.813943e+000 2.653865e+000 2.593038e+000 1.674297e+000 1.459372e+000 2.382874e+000
<GCONST> 8.264919e+001
<STATE> 3
<MEAN> 25
 2.943538e+000 -5.819370e+000 -7.840265e+000 -1.426849e+001 -6.852257e+000 3.034107e-001 6.432800e+000 -2.692232e+000 -6.481049e+000 -3.350168e+000 2.953804e+000 1.513544e+000 2.426933e+000 3.556156e-001 -5.383454e-001 -3.483470e+000 -1.634785e+000 -6.260072e-001 1.486665e+000 -1.956515e-001 -2.019097e+000 -1.189245e+000 9.709075e-001 1.230375e+000 2.516285e+000
<VARIANCE> 25
 1.229881e+001 2.894051e+001 2.216838e+001 3.718896e+001 6.970081e+001 5.984148e+001 8.029181e+001 2.837900e+001 2.524572e+001 2.932717e+001 1.987879e+001 1.765428e+001 1.292876e+000 2.425865e+000 2.453796e+000 5.415709e+000 4.526056e+000 4.885966e+000 5.328291e+000 1.932390e+000 2.609484e+000 2.255436e+000 1.628259e+000 1.631499e+000 1.753630e+000
<GCONST> 9.954058e+001
<STATE> 4
<MEAN> 25
 5.275409e+000 5.570999e-001 -3.710051e+000 -8.828874e+000 -5.581792e+000 -2.152845e+000 3.081935e+000 2.233693e-001 -3.725226e+000 -1.454130e+000 2.518956e+000 3.501579e+000 1.518711e+000 2.090093e+000 7.072111e-001 1.810857e+000 1.208688e+000 -3.710263e-001 -1.397475e+000 6.881314e-001 1.191869e+000 4.327277e-001 -8.899459e-001 2.823449e-001 -1.061240e-001
<VARIANCE> 25
 2.371932e+001 2.339076e+001 1.478989e+001 3.554340e+001 4.276662e+001 4.754675e+001 6.055481e+001 2.200842e+001 3.213751e+001 2.481587e+001 2.288537e+001 1.368547e+001 2.872903e+000 2.274956e+000 2.063002e+000 3.217842e+000 3.122490e+000 3.077485e+000 3.739850e+000 1.631378e+000 1.867853e+000 1.396157e+000 1.289138e+000 1.596575e+000 1.100424e+000
<GCONST> 9.538846e+001
<TRANSP> 5
 0.000000e+000 1.000000e+000 0.000000e+000 0.000000e+000 0.000000e+000
 0.000000e+000 6.137967e-001 3.862033e-001 0.000000e+000 0.000000e+000
 0.000000e+000 0.000000e+000 5.234922e-001 4.765079e-001 0.000000e+000
 0.000000e+000 0.000000e+000 0.000000e+000 7.309827e-001 2.690174e-001
 0.000000e+000 0.000000e+000 0.000000e+000 0.000000e+000 0.000000e+000
<ENDHMM>
~h "l"
<BEGINHMM>
<NUMSTATES> 5
<STATE> 2
<MEAN> 25
 -2.951728e+000 -3.157468e+000 -2.506611e+000 -2.335852e+000 -1.115589e+000 1.738134e+000 2.068310e+000 2.022942e-001 -5.972701e-001 5.835518e-001 8.567672e-001 9.552358e-001 -5.545953e-002 2.645793e-002 3.559000e-002 -2.318580e-002 -2.242544e-001 -2.208049e-001 -1.489663e-001 -1.644708e-002 3.169549e-002 -3.188923e-002 -1.085285e-001 -1.175442e-001 -6.609794e-002
<VARIANCE> 25
 3.203789e+001 3.091010e+001 2.003589e+001 2.885340e+001 1.324296e+001 1.833236e+001 1.529095e+001 1.139398e+001 1.434628e+001 1.238773e+001 1.086582e+001 1.286612e+001 5.509018e-001 1.639369e+000 1.939866e+000 2.277946e+000 1.358709e+000 1.607480e+000 1.452261e+000 1.099757e+000 1.423550e+000 1.450289e+000 1.219896e+000 1.209110e+000 5.077026e-001
<GCONST> 8.304671e+001
<STATE> 3
<MEAN> 25
 3.441520e+000 3.635233e+000 2.619067e-001 -3.391203e+000 -3.108701e+000 -1.336300e+000 4.039086e-001 4.308582e-001 -1.950621e+000 -1.946833e+000 -2.010063e+000 -3.496938e-001 1.136220e+000 1.191281e+000 5.616035e-001 -1.956190e-001 -5.357946e-001 -5.417100e-001 -2.404431e-001 8.280469e-002 -2.295845e-001 -5.519958e-001 -5.599195e-001 -2.548544e-001 4.903725e-001
<VARIANCE> 25
 4.073516e+001 3.224255e+001 2.135843e+001 3.494828e+001 1.272040e+001 1.165824e+001 1.246039e+001 1.163557e+001 1.101223e+001 1.314301e+001 9.548302e+000 1.130131e+001 2.664328e+000 2.488902e+000 2.248806e+000 2.256922e+000 1.222078e+000 1.315170e+000 1.205873e+000 1.287025e+000 1.266338e+000 1.313445e+000 8.622041e-001 9.339776e-001 9.329152e-001
<GCONST> 8.402767e+001
<STATE> 4
<MEAN> 25
 9.174868e+000 8.190779e+000 8.366961e-001 -7.838971e+000 -6.812085e+000 -4.279138e+000 4.956579e-001 3.104892e+000 -3.840694e-001 -1.853426e+000 -2.595258e+000 1.501791e-001 1.393788e-001 -2.454485e-001 -4.676705e-001 -5.143084e-001 -5.013562e-002 6.298863e-002 3.094312e-001 3.514629e-001 2.507524e-001 2.445778e-003 -5.558743e-002 2.901909e-001 2.068599e-001
<VARIANCE> 25
 1.617950e+001 1.133514e+001 2.035051e+001 2.911839e+001 1.248471e+001 1.110219e+001 1.467352e+001 1.327707e+001 1.212587e+001 1.090747e+001 6.193667e+000 1.165394e+001 6.398891e-001 7.149508e-001 2.451398e+000 2.538487e+000 9.699640e-001 1.101993e+000 1.458554e+000 1.191035e+000 9.280889e-001 8.459057e-001 7.729698e-001 1.203197e+000 5.088750e-001
<GCONST> 7.758580e+001
<TRANSP> 5
 0.000000e+000 1.000000e+000 0.000000e+000 0.000000e+000 0.000000e+000
 0.000000e+000 7.511731e-001 2.488269e-001 0.000000e+000 0.000000e+000
 0.000000e+000 0.000000e+000 5.303775e-001 4.696225e-001 0.000000e+000
 0.000000e+000 0.000000e+000 0.000000e+000 8.105677e-001 1.894322e-001
 0.000000e+000 0.000000e+000 0.000000e+000 0.000000e+000 0.000000e+000
<ENDHMM>
~h "m"
<BEGINHMM>
<NUMSTATES> 5
<STATE> 2
<MEAN> 25
 1.732251e+000 3.443755e+000 2.286868e+000 3.798274e+000 1.185507e+000 1.517691e+000 2.268807e+000 2.754988e+000 3.024092e+000 1.226164e+000 -1.282130e+000 -3.181528e+000 7.208652e-001 6.954733e-001 6.950599e-001 8.970041e-001 1.063884e+000 8.651286e-001 5.331614e-001 5.499225e-001 3.614707e-001 -3.250620e-001 -8.261275e-001 -9.434280e-001 3.437080e-001
<VARIANCE> 25
 2.561587e+001 2.167791e+001 1.438847e+001 8.333400e+000 8.370554e+000 8.974641e+000 7.733274e+000 7.084457e+000 8.234853e+000 8.706656e+000 9.502054e+000 8.593837e+000 2.714464e+000 1.149741e+000 7.978827e-001 1.303942e+000 1.090280e+000 8.684586e-001 6.981152e-001 1.162441e+000 1.354552e+000 8.535489e-001 8.793247e-001 7.000632e-001 8.264318e-001
<GCONST> 7.443428e+001
<STATE> 3
<MEAN> 25
 4.556431e+000 6.158885e+000 3.905140e+000 4.800324e+000 2.194302e+000 2.377927e+000 3.145169e+000 3.854238e+000 3.979617e+000 1.263994e+000 -1.751535e+000 -4.025965e+000 -1.817461e-001 -1.482214e-001 -2.087823e-003 1.956316e-001 2.107741e-001 1.593975e-001 1.271763e-001 2.247182e-002 1.750220e-002 6.171778e-002 9.365512e-002 5.474032e-002 -1.000604e-001
<VARIANCE> 25
 5.771389e+000 4.226743e+000 7.503968e+000 6.759150e+000 6.491203e+000 6.695559e+000 5.256588e+000 6.888479e+000 9.508159e+000 8.309875e+000 8.112062e+000 9.178664e+000 4.359904e-001 2.945553e-001 4.170241e-001 4.568183e-001 4.806979e-001 5.177721e-001 5.643603e-001 6.085687e-001 7.344007e-001 6.990764e-001 6.809499e-001 6.412600e-001 1.321196e-001
<GCONST> 5.941938e+001
<STATE> 4
<MEAN> 25
 -2.180659e+000 -3.754800e-001 -3.688683e-001 2.668792e+000 1.437571e+000 2.599371e+000 2.576436e+000 1.564562e+000 1.938298e+000 1.778652e+000 7.646067e-001 -6.491794e-001 -1.748431e-001 -3.663685e-001 -4.530686e-001 -4.896396e-001 -3.580033e-001 -2.351572e-001 -2.476295e-001 -2.010938e-001 -1.599567e-001 -3.778656e-002 1.620654e-001 3.329089e-001 -4.284240e-002
<VARIANCE> 25
 1.741290e+001 1.427788e+001 1.398562e+001 1.387817e+001 8.324168e+000 7.675417e+000 7.061110e+000 1.076558e+001 1.218183e+001 9.899687e+000 1.055132e+001 1.065919e+001 1.080450e+000 7.539833e-001 7.370762e-001 1.166873e+000 1.062031e+000 9.204351e-001 8.069890e-001 9.393736e-001 1.028001e+000 9.231223e-001 8.925433e-001 9.113867e-001 3.118368e-001
<GCONST> 7.265488e+001
<TRANSP> 5
 0.000000e+000 1.000000e+000 0.000000e+000 0.000000e+000 0.000000e+000
 0.000000e+000 5.888364e-001 4.111636e-001 0.000000e+000 0.000000e+000
 0.000000e+000 0.000000e+000 8.178958e-001 1.821042e-001 0.000000e+000
 0.000000e+000 0.000000e+000 0.000000e+000 7.928002e-001 2.071998e-001
 0.000000e+000 0.000000e+000 0.000000e+000 0.000000e+000 0.000000e+000
<ENDHMM>
~h "n"
<BEGINHMM>
<NUMSTATES> 5
<STATE> 2
<MEAN> 25
 6.747570e+000 5.595087e+000 3.377799e+000 3.376553e+000 3.073181e+000 1.276633e+000 -3.036601e+000 -5.660908e+000 -4.675669e+000 -1.610728e+000 5.990362e-001 1.524039e+000 -8.373420e-001 4.645458e-001 1.165912e+000 2.456846e+000 9.193383e-001 6.435313e-001 1.352009e-001 -3.792676e-001 1.066016e-001 -5.549595e-001 -5.989473e-001 -6.284261e-001 -9.484098e-001
<VARIANCE> 25
 1.548678e+001 1.130925e+001 1.601315e+001 2.219387e+001 1.897282e+001 1.287906e+001 2.871738e+001 1.746485e+001 1.693514e+001 1.413613e+001 1.198384e+001 1.435781e+001 1.477173e+000 9.058899e-001 2.113468e+000 3.925930e+000 2.440342e+000 2.040810e+000 4.557217e+000 2.326748e+000 2.147249e+000 1.598717e+000 1.682794e+000 1.427821e+000 9.092788e-001
<GCONST> 8.771683e+001
<STATE> 3
<MEAN> 25
 5.397797e+000 6.519639e+000 4.825059e+000 7.461486e+000 5.807152e+000 3.561976e+000 -1.341898e+000 -4.679198e+000 -3.951392e+000 -2.119006e+000 4.327144e-001 1.502959e+000 -4.193378e-001 -7.329804e-002 1.519984e-001 4.060293e-001 2.685946e-001 2.954585e-001 4.233015e-001 3.777290e-001 3.040332e-001 1.865893e-001 1.294719e-001 2.259942e-002 -3.019704e-001
<VARIANCE> 25
 5.291976e+000 3.077004e+000 8.321232e+000 7.169751e+000 5.991337e+000 7.705762e+000 9.228887e+000 6.554407e+000 9.993789e+000 1.055286e+001 7.266755e+000 9.044681e+000 1.462334e-001 1.953657e-001 4.116623e-001 4.850281e-001 5.132058e-001 5.934768e-001 8.910437e-001 6.830732e-001 9.292254e-001 1.014506e+000 7.507338e-001 5.851924e-001 7.755562e-002
<GCONST> 5.931420e+001
<STATE> 4
<MEAN> 25
 -5.067388e-001 1.947920e+000 3.017970e+000 6.241087e+000 4.352547e+000 3.767011e+000 1.558722e+000 -9.473546e-001 -5.650927e-001 7.907072e-001 1.824826e+000 1.198836e+000 -8.193034e-001 -7.934995e-001 -4.322546e-001 -5.053295e-001 -4.741158e-001 -2.243852e-001 1.162486e-001 3.527529e-001 3.702241e-001 2.168968e-001 -1.012241e-001 -2.134343e-001 -3.389746e-001
<VARIANCE> 25
 1.141857e+001 1.332522e+001 1.082773e+001 8.812090e+000 8.460919e+000 7.632145e+000 7.803481e+000 9.467521e+000 9.520236e+000 8.232040e+000 8.843921e+000 8.607980e+000 3.321368e-001 7.769174e-001 1.083823e+000 8.058676e-001 8.634870e-001 9.699268e-001 1.006352e+000 1.167940e+000 1.204648e+000 9.190199e-001 9.244379e-001 7.999035e-001 1.513119e-001
<GCONST> 6.909998e+001
<TRANSP> 5
 0.000000e+000 1.000000e+000 0.000000e+000 0.000000e+000 0.000000e+000
 0.000000e+000 3.925056e-001 6.074943e-001 0.000000e+000 0.000000e+000
 0.000000e+000 0.000000e+000 8.681121e-001 1.318879e-001 0.000000e+000
 0.000000e+000 0.000000e+000 0.000000e+000 8.447390e-001 1.552610e-001
 0.000000e+000 0.000000e+000 0.000000e+000 0.000000e+000 0.000000e+000
<ENDHMM>
~h "p"
<BEGINHMM>
<NUMSTATES> 5
<STATE> 2
<MEAN> 25
 -4.869343e+000 -3.392979e+000 -1.038180e+000 1.887380e+000 4.910899e-001 2.208071e+000 1.840971e+000 8.609416e-001 1.482381e+000 1.498352e+000 1.087682e+000 2.575673e-001 -6.903780e-002 -2.390145e-001 -2.510593e-001 -1.764175e-001 -2.020305e-001 -2.497301e-001 -1.749579e-001 -3.521113e-001 -3.475908e-001 -1.169515e-001 -6.206830e-002 -5.945155e-002 1.263841e-002
<VARIANCE> 25
 5.599756e+000 1.005135e+001 2.237113e+001 1.200611e+001 9.306356e+000 1.505034e+001 1.525542e+001 1.699377e+001 1.295902e+001 1.429894e+001 9.136955e+000 1.066791e+001 8.963012e-001 1.432536e+000 2.842786e+000 1.551168e+000 1.405157e+000 1.778116e+000 1.941203e+000 1.915447e+000 1.634380e+000 1.539677e+000 8.576757e-001 1.192585e+000 4.607836e-001
<GCONST> 8.000529e+001
<STATE> 3
<MEAN> 25
 -4.759771e+000 -2.605365e+000 -1.614342e+000 1.446849e+000 -9.341373e-001 -1.269885e+000 -1.544161e+000 -1.740579e+000 1.650065e-001 9.497491e-001 3.524300e-001 -4.684208e-001 4.026981e-001 -1.138505e-002 -2.558593e-001 -4.041550e-001 -2.853169e-001 -3.359943e-001 -3.775394e-001 -5.319546e-001 -4.611709e-001 -1.980206e-001 -7.681236e-002 -9.605533e-003 2.931593e-001
<VARIANCE> 25
 7.364109e+000 6.458443e+000 5.759998e+000 8.245907e+000 1.310962e+001 1.354660e+001 1.337278e+001 1.409183e+001 1.265600e+001 1.142264e+001 1.137765e+001 7.106045e+000 2.454470e+000 8.332285e-001 9.083123e-001 1.465095e+000 1.465120e+000 1.311828e+000 1.088773e+000 1.653708e+000 1.781482e+000 1.369814e+000 1.137657e+000 9.043785e-001 1.236226e+000
<GCONST> 7.682951e+001
<STATE> 4
<MEAN> 25
 -5.888652e+000 -3.553118e+000 -2.226445e+000 1.451284e+000 -2.446119e-001 -3.322896e-002 -3.189852e-001 -4.491775e-001 1.022501e+000 1.447824e+000 3.678277e-001 -6.043113e-001 1.706327e-001 -2.530105e-002 -1.218206e-001 -1.363363e-001 -3.197042e-002 4.562782e-002 2.255698e-002 -4.146770e-002 -8.471358e-002 -3.065097e-002 4.209439e-002 5.827033e-002 1.317206e-001
<VARIANCE> 25
 3.906886e+000 3.176139e+000 3.810491e+000 4.978967e+000 5.245246e+000 6.193372e+000 7.331664e+000 8.790804e+000 9.609618e+000 8.970131e+000 7.582367e+000 6.760434e+000 1.249824e+000 4.532345e-001 3.614498e-001 5.054492e-001 6.897725e-001 7.254679e-001 6.674397e-001 1.000773e+000 1.215523e+000 9.653795e-001 8.200144e-001 8.178647e-001 5.078900e-001
<GCONST> 6.316741e+001
<TRANSP> 5
 0.000000e+000 1.000000e+000 0.000000e+000 0.000000e+000 0.000000e+000
 0.000000e+000 5.029296e-001 4.970704e-001 0.000000e+000 0.000000e+000
 0.000000e+000 0.000000e+000 2.238572e-001 7.761428e-001 0.000000e+000
 0.000000e+000 0.000000e+000 0.000000e+000 8.582247e-001 1.417753e-001
 0.000000e+000 0.000000e+000 0.000000e+000 0.000000e+000 0.000000e+000
<ENDHMM>
~h "r"
<BEGINHMM>
<NUMSTATES> 5
<STATE> 2
<MEAN> 25
 -6.933557e-001 -1.350578e+000 -3.374153e+000 -1.771375e+000 -9.721560e-003 2.490993e+000 1.463669e+000 -1.132062e+000 -2.474351e+000 -1.100215e+000 1.496868e+000 2.826157e+000 1.049703e+000 5.797264e-001 8.769602e-002 -1.048189e-001 2.425385e-001 2.145015e-001 -4.747616e-002 -2.282090e-001 -7.099447e-001 -6.521071e-001 -4.729414e-002 3.349424e-001 5.941221e-001
<VARIANCE> 25
 2.618939e+001 1.630722e+001 1.491839e+001 1.460107e+001 1.099354e+001 1.036935e+001 1.259041e+001 1.261605e+001 1.548946e+001 1.273367e+001 9.470505e+000 1.105667e+001 2.349552e+000 1.561562e+000 1.690298e+000 1.925451e+000 1.288360e+000 1.429401e+000 1.510644e+000 1.360049e+000 1.641852e+000 1.707397e+000 1.137952e+000 1.206998e+000 7.728156e-001
<GCONST> 8.202837e+001
<STATE> 3
<MEAN> 25
 8.648706e+000 5.019805e+000 -1.401613e+000 -1.937061e+000 -5.884073e-001 1.069519e+000 8.913612e-001 -1.144114e+000 -5.679996e+000 -5.937020e+000 -2.010306e+000 1.990659e+000 4.798069e-001 4.560101e-001 6.243713e-002 -1.106814e-001 -6.141931e-001 -4.393526e-001 2.192213e-001 4.703763e-001 2.755606e-001 -1.815943e-001 -5.980229e-001 -5.908161e-001 1.520877e-001
<VARIANCE> 25
 1.712340e+001 8.486385e+000 1.065080e+001 1.165886e+001 9.009657e+000 9.039389e+000 9.309762e+000 9.368358e+000 1.294336e+001 1.197062e+001 8.263774e+000 7.027135e+000 2.516669e+000 1.459207e+000 1.603482e+000 1.658282e+000 1.004078e+000 1.189612e+000 1.254866e+000 1.154579e+000 1.775542e+000 1.675931e+000 1.319831e+000 1.202813e+000 9.673038e-001
<GCONST> 7.806718e+001
<STATE> 4
<MEAN> 25
 9.679930e+000 8.742590e+000 1.750126e+000 -3.555316e+000 -6.451524e+000 -4.379496e+000 6.838128e-001 3.073217e+000 -1.663609e+000 -4.000355e+000 -4.539709e+000 -3.799459e+000 -8.796255e-002 9.414837e-001 1.262789e+000 1.677613e-001 -7.827503e-001 -1.335417e+000 -1.135416e+000 -1.666286e-001 7.757004e-001 1.313631e+000 3.901337e-001 -8.501412e-001 -1.998238e-001
<VARIANCE> 25
 1.194419e+001 9.365307e+000 9.311999e+000 9.024467e+000 1.245891e+001 1.811053e+001 8.342430e+000 9.680248e+000 8.171379e+000 1.277028e+001 7.591163e+000 9.944838e+000 7.563717e-001 4.491724e-001 7.048976e-001 1.220445e+000 8.702722e-001 9.763744e-001 1.282203e+000 1.897659e+000 8.658056e-001 1.279647e+000 1.429150e+000 1.141595e+000 3.550380e-001
<GCONST> 7.293034e+001
<TRANSP> 5
 0.000000e+000 1.000000e+000 0.000000e+000 0.000000e+000 0.000000e+000
 0.000000e+000 8.570067e-001 1.429932e-001 0.000000e+000 0.000000e+000
 0.000000e+000 0.000000e+000 8.035494e-001 1.964506e-001 0.000000e+000
 0.000000e+000 0.000000e+000 0.000000e+000 7.297256e-001 2.702744e-001
 0.000000e+000 0.000000e+000 0.000000e+000 0.000000e+000 0.000000e+000
<ENDHMM>
~h "s"
<BEGINHMM>
<NUMSTATES> 5
<STATE> 2
<MEAN> 25
 -4.220128e+000 -8.275014e+000 3.839100e+000 -6.184124e+000 -1.954320e+000 6.954458e-001 3.683466e+000 -2.147735e+000 -4.835465e+000 3.382923e+000 2.421775e+000 2.277232e+000 -1.362188e+000 -1.971946e+000 2.187187e+000 -1.552936e+000 2.932684e-001 -5.054367e-001 7.787362e-001 -4.022771e-001 -8.712850e-001 5.076894e-001 -6.649384e-003 -1.104559e-002 1.391395e+000
<VARIANCE> 25
 1.562782e+001 2.275045e+001 4.110175e+001 2.939335e+001 2.029411e+001 1.606963e+001 2.418639e+001 1.489761e+001 1.742631e+001 1.297138e+001 9.526320e+000 9.276749e+000 2.407552e+000 1.610877e+000 2.497672e+000 1.755970e+000 2.526342e+000 1.734121e+000 1.898762e+000 1.653718e+000 1.865685e+000 1.396967e+000 1.216033e+000 1.116092e+000 5.197001e-001
<GCONST> 8.655806e+001
<STATE> 3
<MEAN> 25
 -1.071572e+001 -1.408117e+001 1.207019e+001 -1.303526e+001 2.050788e+000 -4.471186e+000 8.833594e+000 -2.198495e+000 -6.178961e+000 3.428495e+000 2.429590e+000 1.130224e+000 -8.455046e-002 -1.382697e-001 7.542831e-002 -9.553037e-003 1.107144e-001 -4.003725e-002 4.779716e-002 2.180288e-002 -9.598819e-002 -5.812534e-002 1.208517e-001 -2.177472e-002 9.566686e-002
<VARIANCE> 25
 5.727551e+000 7.700897e+000 7.778898e+000 1.577229e+001 1.339381e+001 1.757993e+001 2.346107e+001 1.117623e+001 1.365362e+001 1.015550e+001 1.062004e+001 9.578047e+000 7.684076e-001 6.292003e-001 8.085964e-001 9.803721e-001 9.608240e-001 1.163337e+000 1.121559e+000 9.073380e-001 9.283532e-001 9.220008e-001 7.871631e-001 8.188713e-001 4.368029e-001
<GCONST> 7.287495e+001
<STATE> 4
<MEAN> 25
 -3.852179e+000 -8.867129e+000 5.325959e+000 -5.756888e+000 7.934140e-002 5.620753e-001 3.883712e+000 -1.940398e+000 -5.613195e+000 3.320271e+000 3.699015e+000 2.342134e+000 1.566825e+000 1.943008e+000 -1.707135e+000 1.905786e+000 -1.297072e-001 6.733122e-001 -1.342036e+000 2.301496e-002 9.413252e-001 -3.045022e-001 -3.749211e-001 -4.699615e-001 -1.229614e+000
<VARIANCE> 25
 1.745156e+001 2.337692e+001 4.340984e+001 3.583775e+001 2.931476e+001 1.780410e+001 2.833937e+001 1.380585e+001 2.433571e+001 1.953319e+001 1.138934e+001 1.252619e+001 2.917715e+000 2.769130e+000 2.640175e+000 4.030553e+000 1.598995e+000 1.800627e+000 2.350198e+000 1.302939e+000 2.137188e+000 2.086330e+000 1.872715e+000 2.019821e+000 8.544928e-001
<GCONST> 9.195798e+001
<TRANSP> 5
 0.000000e+000 1.000000e+000 0.000000e+000 0.000000e+000 0.000000e+000
 0.000000e+000 8.153276e-001 1.846724e-001 0.000000e+000 0.000000e+000
 0.000000e+000 0.000000e+000 9.049434e-001 9.505662e-002 0.000000e+000
 0.000000e+000 0.000000e+000 0.000000e+000 8.084568e-001 1.915432e-001
 0.000000e+000 0.000000e+000 0.000000e+000 0.000000e+000 0.000000e+000
<ENDHMM>
~h "t"
<BEGINHMM>
<NUMSTATES> 5
<STATE> 2
<MEAN> 25
 -4.357530e+000 -1.918534e+000 -1.157170e+000 1.827085e+000 1.691201e-001 7.863762e-001 1.032863e-001 -6.989223e-001 4.906020e-001 9.533505e-001 3.880859e-001 -1.176725e-001 -3.706260e-001 -3.249174e-001 -2.362209e-001 -5.056832e-002 4.550983e-002 -2.448292e-002 2.659006e-002 1.050315e-001 2.022758e-001 1.683109e-001 3.917911e-002 -3.769140e-003 -1.862194e-001
<VARIANCE> 25
 2.710681e+000 3.256395e+000 5.635416e+000 7.253295e+000 8.145529e+000 7.810765e+000 7.313744e+000 8.376473e+000 8.540055e+000 8.493657e+000 8.117996e+000 8.309956e+000 1.854119e-001 1.809395e-001 3.088811e-001 4.818071e-001 5.581153e-001 5.820834e-001 5.946094e-001 7.755210e-001 8.029460e-001 8.737242e-001 7.532066e-001 7.086918e-001 7.256463e-002
<GCONST> 5.779539e+001
<STATE> 3
<MEAN> 25
 -6.293028e+000 -4.048590e+000 -2.868890e+000 5.922998e-001 -8.576173e-001 1.547073e-001 3.406232e-001 5.480484e-002 1.521503e+000 1.853607e+000 1.058266e+000 2.240854e-001 3.486829e-001 -3.428515e-001 -1.688132e-001 -2.163952e-001 -1.066606e-001 -2.174906e-001 -1.467113e-001 -2.086366e-001 -3.217553e-001 -1.771392e-001 1.424170e-001 9.094876e-002 4.455359e-001
<VARIANCE> 25
 3.099981e+000 3.431132e+000 4.912668e+000 6.111264e+000 6.386170e+000 7.428139e+000 7.716646e+000 8.606765e+000 8.487679e+000 8.027735e+000 6.982977e+000 6.591257e+000 1.006187e+000 6.409704e-001 7.066323e-001 7.528150e-001 8.404201e-001 1.151055e+000 1.041205e+000 1.243596e+000 1.361742e+000 1.097533e+000 1.044236e+000 1.164546e+000 8.919047e-001
<GCONST> 6.745772e+001
<STATE> 4
<MEAN> 25
 1.499032e+000 -4.323103e+000 -1.728626e+000 1.424908e-001 -1.065251e+000 -7.494791e-001 1.475875e+000 -1.135119e+000 -5.008927e+000 -3.379369e+000 1.253059e+000 1.286090e+000 2.336641e+000 1.324072e+000 1.255928e+000 -3.955227e-001 -1.855327e-001 -3.244921e-001 -2.951030e-001 -1.224896e-001 -1.182046e+000 -1.378438e+000 -6.882948e-001 -3.712223e-001 1.695180e+000
<VARIANCE> 25
 4.571315e+001 4.588527e+001 2.262471e+001 1.977421e+001 1.557014e+001 2.224091e+001 2.540971e+001 2.021686e+001 4.280811e+001 3.497329e+001 1.827782e+001 1.843415e+001 3.321870e+000 1.024883e+001 4.423177e+000 2.076851e+000 2.362480e+000 2.395371e+000 3.819763e+000 2.864285e+000 5.811418e+000 3.106441e+000 3.457142e+000 3.564147e+000 3.777948e+000
<GCONST> 1.015240e+002
<TRANSP> 5
 0.000000e+000 1.000000e+000 0.000000e+000 0.000000e+000 0.000000e+000
 0.000000e+000 8.424895e-001 1.575104e-001 0.000000e+000 0.000000e+000
 0.000000e+000 0.000000e+000 7.089484e-001 2.910516e-001 0.000000e+000
 0.000000e+000 0.000000e+000 0.000000e+000 7.402911e-001 2.597090e-001
 0.000000e+000 0.000000e+000 0.000000e+000 0.000000e+000 0.000000e+000
<ENDHMM>
~h "aa"
<BEGINHMM>
<NUMSTATES> 5
<STATE> 2
<MEAN> 25
 9.540163e+000 3.153163e+000 -5.175366e+000 -8.495705e+000 -2.012006e+000 -4.581801e-001 1.535243e+000 2.293910e+000 -6.364081e-001 -2.252482e+000 -6.785201e-002 3.744292e+000 1.427484e+000 4.834082e-001 -9.922497e-001 -1.679293e+000 -4.663088e-001 -5.952730e-003 4.817361e-001 6.906988e-001 8.646013e-002 -5.852531e-001 -1.831561e-001 8.232284e-001 9.015515e-001
<VARIANCE> 25
 3.039526e+001 2.218817e+001 2.781688e+001 3.294724e+001 1.756065e+001 1.564221e+001 1.405456e+001 1.518915e+001 1.691640e+001 1.152897e+001 1.533007e+001 1.621991e+001 1.911154e+000 1.633096e+000 1.971756e+000 2.910960e+000 2.224627e+000 1.735847e+000 2.077437e+000 1.446212e+000 1.660987e+000 1.324502e+000 1.214433e+000 1.413357e+000 1.039373e+000
<GCONST> 8.775376e+001
<STATE> 3
<MEAN> 25
 1.276396e+001 4.811934e+000 -6.875961e+000 -1.121868e+001 -2.158236e+000 2.806708e-001 3.322406e+000 3.761354e+000 -8.304873e-001 -2.429665e+000 -6.522132e-001 5.294178e+000 -2.988169e-001 1.442966e-001 2.582400e-001 2.563381e-001 -5.328259e-002 3.097714e-001 2.731180e-001 -2.041886e-002 -9.738215e-002 2.212478e-001 1.063085e-001 -1.723099e-001 -3.287281e-001
<VARIANCE> 25
 6.389243e+000 6.831369e+000 1.110861e+001 1.200129e+001 8.547848e+000 1.248668e+001 8.299216e+000 9.791698e+000 1.488107e+001 1.036582e+001 1.027069e+001 7.422331e+000 3.527401e-001 5.098825e-001 8.571499e-001 9.862742e-001 7.649909e-001 9.028414e-001 8.415750e-001 8.695131e-001 1.035206e+000 9.152852e-001 8.903795e-001 7.087891e-001 2.683513e-001
<GCONST> 6.866058e+001
<STATE> 4
<MEAN> 25
 3.974025e+000 2.427824e+000 -2.754799e+000 -4.598339e+000 -2.507084e+000 9.052097e-001 2.850665e+000 2.352413e+000 5.445404e-001 1.613755e-001 6.399034e-001 2.069799e+000 -1.321926e+000 -3.413191e-001 8.356364e-001 1.412508e+000 1.693070e-001 -1.749272e-001 -3.962792e-001 -4.164132e-001 2.067263e-001 3.931326e-001 4.834550e-002 -5.862276e-001 -9.001067e-001
<VARIANCE> 25
 4.073938e+001 1.791327e+001 1.431461e+001 2.718091e+001 1.459416e+001 1.271379e+001 1.622391e+001 1.999010e+001 2.161342e+001 1.409601e+001 1.164865e+001 1.205769e+001 1.069149e+000 9.008528e-001 1.730284e+000 2.339117e+000 1.104985e+000 1.201095e+000 1.357501e+000 1.386464e+000 1.324290e+000 1.413463e+000 1.016290e+000 1.010182e+000 5.068335e-001
<GCONST> 8.242220e+001
<TRANSP> 5
 0.000000e+000 1.000000e+000 0.000000e+000 0.000000e+000 0.000000e+000
 0.000000e+000 6.606202e-001 3.393798e-001 0.000000e+000 0.000000e+000
 0.000000e+000 0.000000e+000 7.725083e-001 2.274917e-001 0.000000e+000
 0.000000e+000 0.000000e+000 0.000000e+000 7.743592e-001 2.256408e-001
 0.000000e+000 0.000000e+000 0.000000e+000 0.000000e+000 0.000000e+000
<ENDHMM>
~h "ao"
<BEGINHMM>
<NUMSTATES> 5
<STATE> 2
<MEAN> 25
 9.429818e+000 8.677020e+000 2.587806e+000 -4.302235e+000 -5.470964e+000 -4.576612e+000 9.232504e-001 1.472582e+000 -4.072721e+000 -4.989024e+000 -4.178596e+000 -1.783566e-002 1.545841e-001 1.234609e+000 1.101988e+000 1.241033e+000 -5.581388e-001 -5.845588e-001 -9.878222e-001 8.892609e-002 8.548455e-001 -1.585391e-001 -1.102965e+000 -1.571054e+000 -5.061557e-001
<VARIANCE> 25
 6.158861e+000 5.209992e+000 9.577281e+000 1.399676e+001 1.526214e+001 2.201955e+001 1.293478e+001 1.093891e+001 1.602373e+001 1.359862e+001 1.003415e+001 1.172195e+001 2.304526e+000 2.262923e+000 8.511087e-001 2.529356e+000 2.238677e+000 2.253908e+000 2.017150e+000 2.047045e+000 1.617533e+000 1.314408e+000 1.069642e+000 8.348704e-001 6.913207e-001
<GCONST> 8.096156e+001
<STATE> 3
<MEAN> 25
 8.589664e+000 9.762352e+000 5.491949e+000 -2.446233e-001 -5.689699e+000 -5.109528e+000 -1.899746e-001 1.703624e+000 -2.015863e+000 -4.689404e+000 -5.797377e+000 -3.660563e+000 1.454217e-001 2.399766e-001 1.442816e-001 4.150640e-003 -4.250351e-001 -5.748744e-001 -3.058407e-001 2.634276e-001 5.655983e-001 4.309852e-001 1.722561e-001 -1.280208e-001 7.861520e-003
<VARIANCE> 25
 8.169951e+000 4.202433e+000 8.840148e+000 1.783584e+001 2.515385e+001 2.294033e+001 1.074994e+001 1.900126e+001 1.516375e+001 1.027165e+001 7.518812e+000 9.742192e+000 5.152142e-001 4.638050e-001 6.094301e-001 1.008836e+000 1.318404e+000 1.246675e+000 1.115208e+000 1.210738e+000 1.085648e+000 1.100382e+000 6.202950e-001 8.082969e-001 2.904692e-001
<GCONST> 7.269351e+001
<STATE> 4
<MEAN> 25
 6.327964e+000 8.388851e+000 3.743201e+000 -1.419054e+000 -8.053623e+000 -7.669625e+000 -2.383362e+000 2.873901e+000 4.183900e+000 2.193825e+000 -1.449048e+000 -3.493562e+000 -6.315523e-001 -6.171931e-001 -3.800477e-001 1.293073e-001 4.542522e-001 5.845114e-001 2.370943e-001 -2.252895e-001 -1.328646e-001 3.324041e-003 1.316686e-001 1.353409e-001 -3.146878e-001
<VARIANCE> 25
 2.648943e+001 2.409407e+001 1.755450e+001 1.341087e+001 1.216287e+001 1.870988e+001 1.558669e+001 1.273473e+001 1.011191e+001 1.362798e+001 9.073426e+000 9.227136e+000 5.797173e-001 5.980383e-001 7.007490e-001 8.717459e-001 7.752022e-001 8.116266e-001 9.219265e-001 1.280083e+000 1.077675e+000 1.023308e+000 7.426257e-001 6.740632e-001 1.661437e-001
<GCONST> 7.369960e+001
<TRANSP> 5
 0.000000e+000 1.000000e+000 0.000000e+000 0.000000e+000 0.000000e+000
 0.000000e+000 6.329178e-001 3.670822e-001 0.000000e+000 0.000000e+000
 0.000000e+000 0.000000e+000 8.781081e-001 1.218919e-001 0.000000e+000
 0.000000e+000 0.000000e+000 0.000000e+000 9.304858e-001 6.951421e-002
 0.000000e+000 0.000000e+000 0.000000e+000 0.000000e+000 0.000000e+000
<ENDHMM>
~h "eh"
<BEGINHMM>
<NUMSTATES> 5
<STATE> 2
<MEAN> 25
 3.493705e+000 -3.836325e-001 -3.447055e+000 -2.670774e+000 -2.703179e+000 -8.245859e-001 -6.346624e-002 -2.439377e+000 -3.822274e+000 -1.788526e+000 5.267040e-001 1.718088e+000 4.070654e+000 1.932655e+000 -1.280216e-001 -1.575890e+000 -8.147994e-001 -6.036797e-001 -2.826757e-001 -5.204721e-001 -1.563834e+000 -1.093159e+000 2.094380e-001 1.108862e+000 2.502182e+000
<VARIANCE> 25
 6.094621e+001 2.219279e+001 9.108455e+000 1.455441e+001 1.241670e+001 1.030967e+001 9.122637e+000 2.155777e+001 2.992768e+001 1.801578e+001 8.173820e+000 1.481054e+001 2.205192e+000 2.335639e+000 1.226889e+000 1.793075e+000 2.411124e+000 1.137875e+000 1.718488e+000 4.690722e+000 4.130084e+000 1.915416e+000 1.767055e+000 1.813988e+000 1.012240e+000
<GCONST> 8.803275e+001
<STATE> 3
<MEAN> 25
 1.259512e+001 6.474272e+000 -3.509677e+000 -5.076473e+000 -2.935413e+000 -2.373454e+000 -2.531590e+000 -2.910664e+000 -3.700719e+000 -1.689493e+000 1.512499e+000 3.066218e+000 2.257132e-002 6.311637e-001 8.373913e-001 1.317640e+000 9.435459e-001 -2.450889e-001 -1.453702e+000 -8.131104e-001 6.759124e-001 9.413726e-001 4.243039e-001 -2.995569e-001 -2.041320e-001
<VARIANCE> 25
 4.713980e+000 8.850210e+000 2.702916e+001 2.626173e+001 3.580192e+001 1.806810e+001 2.222308e+001 6.559046e+001 4.833807e+001 1.050490e+001 2.871129e+001 2.241372e+001 1.070012e+000 2.183800e+000 1.770413e+000 2.178398e+000 7.948216e-001 1.054070e+000 1.562826e+000 1.996299e+000 1.488577e+000 6.895365e-001 1.356585e+000 1.073060e+000 6.157111e-001
<GCONST> 8.577261e+001
<STATE> 4
<MEAN> 25
 6.409375e+000 2.005876e+000 -2.824519e+000 2.805423e+000 4.116659e+000 -1.227442e+000 -8.830796e+000 -8.528188e+000 -5.939634e-001 5.680058e+000 3.948927e+000 -1.186961e+000 -7.130873e-001 -1.581797e-001 3.400848e-001 3.125780e-001 -6.534369e-003 5.322687e-002 1.827876e-001 2.975049e-001 3.164079e-001 2.709560e-002 -2.199102e-001 -2.079061e-001 -4.400151e-001
<VARIANCE> 25
 3.662900e+001 1.469184e+001 1.917226e+001 1.671383e+001 1.449291e+001 9.130215e+000 1.869378e+001 2.121787e+001 2.017964e+001 1.554857e+001 1.176876e+001 1.388724e+001 3.450002e-001 6.072713e-001 1.134324e+000 1.342666e+000 7.943602e-001 7.146220e-001 9.454159e-001 9.047365e-001 1.067820e+000 8.802447e-001 7.318341e-001 8.933833e-001 1.723661e-001
<GCONST> 7.560834e+001
<TRANSP> 5
 0.000000e+000 1.000000e+000 0.000000e+000 0.000000e+000 0.000000e+000
 0.000000e+000 6.886743e-001 3.113258e-001 0.000000e+000 0.000000e+000
 0.000000e+000 0.000000e+000 6.397296e-001 3.602704e-001 0.000000e+000
 0.000000e+000 0.000000e+000 0.000000e+000 8.680564e-001 1.319437e-001
 0.000000e+000 0.000000e+000 0.000000e+000 0.000000e+000 0.000000e+000
<ENDHMM>
~h "hh"
<BEGINHMM>
<NUMSTATES> 5
<STATE> 2
<MEAN> 25
 8.180975e+000 2.735392e+000 -6.631296e+000 -9.525207e+000 -3.339471e+000 1.668491e+000 5.155472e+000 5.418036e+000 6.896478e-001 -4.855374e+000 -2.817785e+000 3.892970e+000 5.661339e-001 -4.709682e-001 -1.155317e+000 -1.006567e+000 4.615084e-001 4.999748e-001 3.036649e-001 2.271128e-002 -4.314759e-001 -2.762287e-001 -6.372817e-002 6.019499e-001 5.435477e-001
<VARIANCE> 25
 3.675989e+001 2.179331e+001 1.502749e+001 1.475535e+001 9.451815e+000 8.689442e+000 8.287749e+000 1.111837e+001 7.811036e+000 1.534437e+001 9.736451e+000 1.240552e+001 5.197323e-001 5.473160e-001 1.132559e+000 1.649331e+000 1.085125e+000 9.017323e-001 1.031324e+000 6.506021e-001 1.037130e+000 1.304496e+000 7.982868e-001 6.442487e-001 2.087060e-001
<GCONST> 7.356383e+001
<STATE> 3
<MEAN> 25
 7.077822e+000 -1.264793e+000 -9.308663e+000 -7.083905e+000 5.641273e-001 5.773717e+000 6.366488e+000 4.934001e+000 2.855632e-001 -4.042200e+000 5.224109e-002 6.823525e+000 -5.884327e-001 -3.808017e-001 -9.009133e-002 4.345464e-001 9.016060e-002 8.517990e-002 -1.308571e-001 -4.419288e-001 -2.032137e-001 2.775171e-001 3.857291e-001 -1.297727e-001 -4.017253e-001
<VARIANCE> 25
 1.156664e+001 1.038744e+001 1.002509e+001 1.357372e+001 1.258246e+001 1.395645e+001 9.304914e+000 1.405431e+001 1.116403e+001 9.267194e+000 9.565292e+000 1.005343e+001 4.768166e-001 1.046991e+000 1.011196e+000 8.762922e-001 8.624085e-001 1.038098e+000 8.336198e-001 1.002477e+000 9.982935e-001 7.846423e-001 7.959120e-001 7.613096e-001 1.708206e-001
<GCONST> 7.127770e+001
<STATE> 4
<MEAN> 25
 -1.906111e+000 -2.815359e+000 -5.177239e+000 -1.787620e+000 -1.353551e-001 2.996602e+000 2.626866e+000 1.675416e-002 -5.983567e-001 3.579002e-001 2.076973e+000 2.619384e+000 -5.977127e-001 -1.090908e-001 3.665238e-001 3.266523e-001 -2.199176e-002 -2.659007e-001 -2.006730e-001 3.496260e-002 2.680756e-001 3.042885e-001 -1.058246e-001 -3.732888e-001 -3.545583e-001
<VARIANCE> 25
 2.085013e+001 7.897387e+000 1.364709e+001 1.572576e+001 9.306276e+000 1.286246e+001 1.038112e+001 1.311443e+001 1.514469e+001 1.167272e+001 1.025471e+001 1.247453e+001 4.771913e-001 3.998555e-001 9.269644e-001 9.035112e-001 7.686953e-001 8.989450e-001 8.444625e-001 1.095735e+000 1.236294e+000 1.025624e+000 8.573373e-001 8.776201e-001 1.731024e-001
<GCONST> 7.206274e+001
<TRANSP> 5
 0.000000e+000 1.000000e+000 0.000000e+000 0.000000e+000 0.000000e+000
 0.000000e+000 7.715688e-001 2.284313e-001 0.000000e+000 0.000000e+000
 0.000000e+000 0.000000e+000 8.583758e-001 1.416242e-001 0.000000e+000
 0.000000e+000 0.000000e+000 0.000000e+000 8.833695e-001 1.166305e-001
 0.000000e+000 0.000000e+000 0.000000e+000 0.000000e+000 0.000000e+000
<ENDHMM>
~h "ih"
<BEGINHMM>
<NUMSTATES> 5
<STATE> 2
<MEAN> 25
 2.873835e+000 -1.060235e+000 8.017886e+000 6.027084e+000 7.182071e+000 1.675817e+000 -6.938571e+000 -2.139199e+000 -1.551116e+000 -3.974360e+000 -2.459114e+000 -2.897034e+000 8.114662e-001 1.198432e+000 2.005472e+000 1.999615e+000 1.295975e+000 -2.329459e-001 -1.616672e+000 1.726616e-001 3.375028e-002 -1.624182e+000 -1.367891e+000 -6.578751e-001 3.234161e-001
<VARIANCE> 25
 1.817460e+001 3.732154e+001 5.175810e+001 4.455616e+001 2.653896e+001 2.648430e+001 4.457117e+001 4.455416e+001 2.222181e+001 3.061807e+001 2.662704e+001 1.710333e+001 2.472136e+000 3.839063e+000 4.069063e+000 5.460359e+000 2.957469e+000 3.591827e+000 4.761958e+000 3.465859e+000 2.889646e+000 3.217762e+000 2.461631e+000 1.660944e+000 2.049185e+000
<GCONST> 1.018760e+002
<STATE> 3
<MEAN> 25
 1.732788e+000 2.456033e+000 1.089993e+001 1.034189e+001 8.212021e+000 2.156491e+000 -6.355939e+000 1.060760e+000 -5.122540e-002 -6.582493e+000 -4.411026e+000 -4.425236e+000 -2.878511e-001 -7.851944e-002 -5.957195e-001 -1.923731e-001 -1.708044e-001 -6.968197e-003 4.290095e-001 -6.230199e-002 8.636223e-002 3.950339e-001 1.809528e-001 5.176698e-002 -3.158066e-001
<VARIANCE> 25
 1.285440e+001 1.168315e+001 3.414275e+001 1.598894e+001 1.946268e+001 1.344658e+001 3.267205e+001 1.465695e+001 1.361939e+001 2.530414e+001 1.079856e+001 1.112098e+001 3.205272e-001 6.089874e-001 8.956558e-001 6.979663e-001 8.839163e-001 9.966520e-001 1.534323e+000 1.111022e+000 9.295540e-001 1.117096e+000 8.049756e-001 6.504090e-001 2.206385e-001
<GCONST> 7.581303e+001
<STATE> 4
<MEAN> 25
 1.749534e+000 3.663161e-001 3.709823e+000 4.095577e+000 6.832152e+000 5.006109e-001 -6.396550e+000 -4.425947e+000 -1.181312e+000 -8.005937e-001 -1.128324e+000 -1.665835e+000 9.584635e-002 -3.768125e-001 -1.355564e+000 -1.209332e+000 -6.281956e-001 1.580670e-001 5.168549e-001 -5.101508e-001 -3.783861e-001 9.157025e-001 1.019063e+000 6.565254e-001 1.820583e-002
<VARIANCE> 25
 3.785762e+001 3.081389e+001 4.502065e+001 3.827377e+001 4.373894e+001 4.279201e+001 5.772860e+001 3.273283e+001 1.923911e+001 2.043836e+001 2.606920e+001 1.821530e+001 1.196314e+000 2.015910e+000 2.934842e+000 2.331872e+000 3.601951e+000 4.406521e+000 4.181474e+000 3.895087e+000 2.189919e+000 2.099858e+000 2.615421e+000 1.648949e+000 8.275976e-001
<GCONST> 9.883336e+001
<TRANSP> 5
 0.000000e+000 1.000000e+000 0.000000e+000 0.000000e+000 0.000000e+000
 0.000000e+000 7.243376e-001 2.756625e-001 0.000000e+000 0.000000e+000
 0.000000e+000 0.000000e+000 8.405529e-001 1.594471e-001 0.000000e+000
 0.000000e+000 0.000000e+000 0.000000e+000 7.719890e-001 2.280110e-001
 0.000000e+000 0.000000e+000 0.000000e+000 0.000000e+000 0.000000e+000
<ENDHMM>
~h "ng"
<BEGINHMM>
<NUMSTATES> 5
<STATE> 2
<MEAN> 25
 6.614581e+000 6.774508e+000 2.070758e+000 2.043166e+000 -1.509563e+000 -1.475957e+000 -1.133282e-001 1.978774e+000 3.012090e+000 1.261086e+000 6.565517e-001 7.792506e-001 -4.093700e-001 -9.954011e-002 3.601685e-001 6.311631e-001 2.646215e-001 7.044656e-003 -1.082505e-001 -5.778617e-002 1.108185e-001 2.834776e-001 3.791257e-001 1.429754e-001 -2.597592e-001
<VARIANCE> 25
 4.546339e+000 3.237218e+000 5.801554e+000 6.826993e+000 7.971915e+000 9.130016e+000 8.119892e+000 5.275012e+000 6.065142e+000 5.281183e+000 5.512678e+000 5.268416e+000 2.134721e-001 2.315213e-001 4.421792e-001 6.828058e-001 4.317822e-001 7.540715e-001 9.145231e-001 6.114410e-001 6.445922e-001 6.785299e-001 5.582880e-001 4.698972e-001 8.171429e-002
<GCONST> 5.661733e+001
<STATE> 3
<MEAN> 25
 1.268736e+000 3.778850e+000 2.948229e+000 4.866760e+000 2.054123e+000 2.190287e+000 2.205089e+000 1.974508e+000 2.600470e+000 2.144157e+000 1.733354e+000 7.111288e-001 -8.138489e-001 -7.685551e-001 -4.291194e-001 -1.998511e-001 8.902430e-002 3.685720e-001 3.041489e-001 1.053561e-001 3.531988e-002 2.664436e-002 -5.228065e-002 -1.616455e-001 -3.737367e-001
<VARIANCE> 25
 1.093631e+001 8.213402e+000 6.572081e+000 6.268256e+000 7.805223e+000 9.737329e+000 1.001053e+001 9.172803e+000 8.528168e+000 8.515388e+000 8.346115e+000 7.884815e+000 4.597731e-001 5.413515e-001 6.744539e-001 7.138152e-001 6.811584e-001 6.983490e-001 8.247598e-001 1.025530e+000 9.256231e-001 1.166214e+000 1.010798e+000 8.044702e-001 1.280865e-001
<GCONST> 6.626819e+001
<STATE> 4
<MEAN> 25
 -3.829098e+000 -1.404591e+000 -1.081225e+000 2.314671e+000 4.605699e-001 1.560040e+000 2.223494e+000 1.746077e+000 2.596649e+000 2.573168e+000 1.368890e+000 1.502265e-001 -1.940894e-001 -3.401902e-001 -3.304470e-001 -3.525160e-001 -1.502353e-001 -5.951499e-002 2.842666e-002 -5.487872e-002 -1.970873e-001 -2.584432e-001 -1.324492e-001 5.809444e-002 -2.739754e-002
<VARIANCE> 25
 1.239289e+001 9.979585e+000 8.642523e+000 7.732110e+000 7.456697e+000 8.922330e+000 8.385732e+000 7.176741e+000 9.159543e+000 7.897465e+000 5.530328e+000 6.823286e+000 3.256480e-001 3.266954e-001 7.191344e-001 1.148217e+000 5.854680e-001 1.004720e+000 1.180937e+000 7.780190e-001 1.026780e+000 1.253632e+000 6.973918e-001 8.893930e-001 1.232982e-001
<GCONST> 6.580785e+001
<TRANSP> 5
 0.000000e+000 1.000000e+000 0.000000e+000 0.000000e+000 0.000000e+000
 0.000000e+000 8.350923e-001 1.649077e-001 0.000000e+000 0.000000e+000
 0.000000e+000 0.000000e+000 7.229710e-001 2.770289e-001 0.000000e+000
 0.000000e+000 0.000000e+000 0.000000e+000 7.769142e-001 2.230857e-001
 0.000000e+000 0.000000e+000 0.000000e+000 0.000000e+000 0.000000e+000
<ENDHMM>
~h "ny"
<BEGINHMM>
<NUMSTATES> 5
<STATE> 2
<MEAN> 25
 -5.039571e+000 -2.621443e+000 -7.128807e-001 2.883602e+000 1.507730e+000 1.604151e+000 5.480493e-001 -3.309643e-001 1.174489e+000 1.830046e+000 5.612682e-001 -1.316558e+000 3.833432e-001 7.705451e-001 9.240150e-001 6.305151e-001 4.906168e-001 1.277723e-001 5.197223e-002 1.799822e-001 2.542488e-002 -2.738951e-001 -5.779810e-002 -3.865218e-001 2.094351e-001
<VARIANCE> 25
 1.630069e+001 1.435693e+001 1.147722e+001 8.851529e+000 6.091843e+000 1.164541e+001 1.240471e+001 1.162879e+001 1.233535e+001 9.218204e+000 7.712930e+000 9.114849e+000 9.778411e-001 1.213107e+000 1.389139e+000 1.494463e+000 9.591936e-001 1.602141e+000 1.324536e+000 1.119632e+000 1.546691e+000 1.368546e+000 1.204562e+000 1.127336e+000 4.632594e-001
<GCONST> 7.625454e+001
<STATE> 3
<MEAN> 25
 2.235352e+000 5.904805e+000 8.838783e+000 7.132575e+000 3.811909e+000 2.414023e-001 -9.631823e-001 -1.726821e-001 -2.442912e-001 -1.101278e+000 -9.766139e-002 -3.418128e+000 6.144435e-001 5.218704e-001 1.189436e+000 -8.826532e-002 1.677394e-001 -7.801362e-001 -9.319955e-001 4.849952e-002 -8.927625e-003 -4.951407e-001 1.954289e-001 -9.646695e-002 8.168504e-001
<VARIANCE> 25
 1.428621e+001 1.352618e+001 1.932316e+001 1.648228e+001 1.297558e+001 1.322369e+001 1.827714e+001 1.033041e+001 9.316106e+000 8.926905e+000 9.997844e+000 9.327766e+000 1.836365e+000 1.986737e+000 1.775542e+000 1.994961e+000 1.438599e+000 1.805381e+000 3.656882e+000 1.158527e+000 1.539457e+000 1.171734e+000 1.317419e+000 1.048586e+000 8.188732e-001
<GCONST> 8.198686e+001
<STATE> 4
<MEAN> 25
 6.517625e+000 1.298883e+000 4.460513e+000 -1.648837e+000 7.039209e+000 -3.003671e+000 -1.058143e+001 -3.748843e+000 5.432063e-001 -4.590689e-001 3.394335e+000 2.809119e+000 1.119489e+000 -3.995913e-001 -1.709690e+000 -1.659407e+000 -1.231124e-001 8.577878e-001 4.860781e-001 -2.825372e-001 -6.633711e-001 -3.630845e-002 2.137796e-001 1.344495e+000 7.001512e-001
<VARIANCE> 25
 1.954086e+001 1.746577e+001 4.757577e+001 3.551358e+001 1.576922e+001 3.262254e+001 3.765509e+001 2.385160e+001 2.001359e+001 1.775760e+001 1.611622e+001 2.316817e+001 1.189345e+000 2.230240e+000 3.115188e+000 1.882765e+000 2.877238e+000 3.511229e+000 9.385629e+000 4.131627e+000 2.804632e+000 2.505108e+000 1.701508e+000 1.548767e+000 9.704167e-001
<GCONST> 9.565487e+001
<TRANSP> 5
 0.000000e+000 1.000000e+000 0.000000e+000 0.000000e+000 0.000000e+000
 0.000000e+000 6.884146e-001 3.115853e-001 0.000000e+000 0.000000e+000
 0.000000e+000 0.000000e+000 8.567023e-001 1.432977e-001 0.000000e+000
 0.000000e+000 0.000000e+000 0.000000e+000 8.603960e-001 1.396040e-001
 0.000000e+000 0.000000e+000 0.000000e+000 0.000000e+000 0.000000e+000
<ENDHMM>
~h "sp"
<BEGINHMM>
<NUMSTATES> 3
<STATE> 2
~s "silst"
<TRANSP> 3
 0.000000e+000 6.098758e-001 3.901242e-001
 0.000000e+000 9.337358e-001 6.626417e-002
 0.000000e+000 0.000000e+000 0.000000e+000
<ENDHMM>
~h "uw"
<BEGINHMM>
<NUMSTATES> 5
<STATE> 2
<MEAN> 25
 9.500174e+000 1.086831e+001 7.180192e+000 1.011549e+000 -4.713953e+000 -5.713660e+000 -3.943964e+000 1.714837e-001 -1.562763e+000 -3.150001e+000 -3.501382e+000 -4.260800e+000 6.152415e-001 1.831624e+000 1.581578e+000 5.216128e-001 -6.067927e-001 -1.204201e+000 -1.431782e+000 -2.644858e-001 6.729006e-001 3.858199e-001 -5.007141e-001 -8.525238e-001 -6.197420e-002
<VARIANCE> 25
 8.306765e+000 1.612956e+001 1.618916e+001 1.516370e+001 1.271447e+001 2.161306e+001 1.597820e+001 1.726241e+001 1.380548e+001 3.193751e+001 2.005233e+001 1.279492e+001 1.758555e+000 3.586910e+000 2.289832e+000 1.759456e+000 1.409641e+000 2.107471e+000 2.245130e+000 1.964427e+000 2.042555e+000 3.138886e+000 2.498117e+000 1.558639e+000 7.278016e-001
<GCONST> 8.792768e+001
<STATE> 3
<MEAN> 25
 7.521578e+000 1.165039e+001 9.299582e+000 4.019997e+000 -4.141512e+000 -6.829390e+000 -6.172815e+000 -2.082420e+000 6.585165e-001 7.597477e-001 -1.159474e+000 -3.792383e+000 -8.251716e-001 -7.893488e-001 -4.721354e-001 3.036200e-001 5.798275e-001 6.355018e-001 3.642113e-001 -1.352230e-001 1.599151e-001 3.495241e-001 4.054243e-001 3.972798e-001 -4.271095e-001
<VARIANCE> 25
 6.010672e+000 5.388483e+000 6.844901e+000 9.571697e+000 1.081958e+001 1.129701e+001 1.168097e+001 1.596831e+001 1.151607e+001 1.486895e+001 1.475861e+001 9.562126e+000 7.213908e-001 8.323885e-001 7.292823e-001 7.941722e-001 9.227306e-001 1.056171e+000 9.734362e-001 1.361023e+000 1.042340e+000 1.120063e+000 9.459131e-001 6.783747e-001 1.845215e-001
<GCONST> 7.095473e+001
<STATE> 4
<MEAN> 25
 -2.170852e+000 8.971924e-001 1.474996e+000 3.121083e+000 -2.820789e-001 -1.025653e+000 -1.985223e+000 -1.620221e+000 6.411710e-002 -1.335231e-001 -1.517918e+000 -2.793342e+000 -7.700579e-001 -8.440531e-001 -5.991226e-001 -1.126549e-001 2.538677e-001 4.211757e-001 3.281468e-001 1.275904e-001 -7.868508e-003 -6.868244e-002 -9.355392e-002 -2.106911e-002 -3.548526e-001
<VARIANCE> 25
 8.907644e+000 8.647728e+000 6.856097e+000 8.499856e+000 9.296049e+000 9.793891e+000 9.739176e+000 1.099231e+001 1.191115e+001 1.109545e+001 9.527133e+000 8.139649e+000 5.428350e-001 6.211213e-001 6.151931e-001 7.574067e-001 8.468205e-001 8.865194e-001 9.986495e-001 1.228268e+000 1.128332e+000 1.098095e+000 9.675201e-001 8.450791e-001 1.434341e-001
<GCONST> 6.891370e+001
<TRANSP> 5
 0.000000e+000 1.000000e+000 0.000000e+000 0.000000e+000 0.000000e+000
 0.000000e+000 7.030274e-001 2.969726e-001 0.000000e+000 0.000000e+000
 0.000000e+000 0.000000e+000 8.497232e-001 1.502769e-001 0.000000e+000
 0.000000e+000 0.000000e+000 0.000000e+000 8.713168e-001 1.286832e-001
 0.000000e+000 0.000000e+000 0.000000e+000 0.000000e+000 0.000000e+000
<ENDHMM>
~h "sil"
<BEGINHMM>
<NUMSTATES> 5
<STATE> 2
<MEAN> 25
 -5.919930e+000 -4.241531e+000 -2.889667e+000 4.816811e-002 -7.788953e-001 -3.223445e-001 -1.412528e-001 -8.537416e-001 5.902958e-001 1.605825e+000 1.195054e+000 3.171546e-001 -2.289732e-001 -6.420617e-002 -8.627898e-003 5.683651e-002 4.467379e-002 7.645983e-002 -6.137908e-003 1.027203e-001 1.937025e-001 1.372096e-001 -4.765897e-002 -7.663888e-002 -1.747642e-001
<VARIANCE> 25
 7.717859e+000 5.740335e+000 1.138750e+001 1.226372e+001 1.137354e+001 1.420243e+001 1.327797e+001 1.154128e+001 1.143474e+001 1.208541e+001 1.198137e+001 1.126825e+001 8.638723e-001 5.291759e-001 1.000242e+000 1.118593e+000 1.192122e+000 1.605512e+000 1.629197e+000 1.255811e+000 1.226511e+000 1.118245e+000 1.126958e+000 1.100920e+000 4.785029e-001
<GCONST> 7.511698e+001
<STATE> 3
~s "silst"
<STATE> 4
<MEAN> 25
 -6.770918e+000 -4.410873e+000 -3.287945e+000 1.548473e-001 -9.361665e-001 6.484331e-002 3.636322e-001 7.376652e-002 1.509492e+000 1.881570e+000 8.504879e-001 -1.422554e-001 9.911790e-002 4.914372e-002 -2.334931e-002 -1.145491e-001 -1.972483e-002 1.077751e-001 1.440902e-001 9.236126e-002 1.950156e-003 -7.231369e-002 -2.919004e-002 -1.104994e-002 7.684628e-002
<VARIANCE> 25
 2.060127e+000 2.517483e+000 4.641366e+000 7.323326e+000 6.441240e+000 6.943473e+000 8.283056e+000 8.467001e+000 8.763962e+000 8.880351e+000 8.119651e+000 7.901131e+000 2.066940e-001 2.446858e-001 4.704912e-001 6.461489e-001 7.117550e-001 8.077517e-001 9.390283e-001 9.350703e-001 9.565576e-001 9.825840e-001 9.498457e-001 8.974286e-001 8.108740e-002
<GCONST> 6.009327e+001
<TRANSP> 5
 0.000000e+000 1.000000e+000 0.000000e+000 0.000000e+000 0.000000e+000
 0.000000e+000 4.599903e-001 3.984427e-001 1.415670e-001 0.000000e+000
 0.000000e+000 0.000000e+000 9.794779e-001 2.052207e-002 0.000000e+000
 0.000000e+000 1.352921e-001 0.000000e+000 6.928638e-001 1.718440e-001
 0.000000e+000 0.000000e+000 0.000000e+000 0.000000e+000 0.000000e+000
<ENDHMM>
