~o
<STREAMINFO> 1 25
<VECSIZE> 25<NULLD><MFCC_D_N_Z_0><DIAGC>
~s "silst"
<MEAN> 25
 -5.379230e+000 -2.812393e+000 -2.227950e+000 7.314630e-001 -1.090557e+000 4.858842e-001 -1.507878e-001 -7.190237e-001 6.091514e-001 1.805767e+000 1.137870e+000 3.122182e-001 -5.075990e-002 -3.019180e-002 2.804197e-003 2.403751e-002 8.683455e-003 -1.158240e-002 -1.170104e-002 -3.004065e-003 -8.428164e-003 -7.232017e-004 6.051204e-003 2.249364e-003 -2.694411e-002
<VARIANCE> 25
 2.964326e+000 2.118765e+000 4.226533e+000 6.664002e+000 6.180077e+000 5.804677e+000 6.661706e+000 6.925946e+000 7.461699e+000 6.734529e+000 6.895975e+000 6.577204e+000 1.041155e-001 1.510124e-001 2.872381e-001 3.892903e-001 4.543833e-001 5.501153e-001 6.134872e-001 6.483078e-001 7.046273e-001 6.762301e-001 7.002900e-001 6.433190e-001 4.464541e-002
<GCONST> 5.296610e+001
~h "a"
<BEGINHMM>
<NUMSTATES> 5
<STATE> 2
<MEAN> 25
 7.598895e+000 6.128950e-001 -6.197000e+000 -7.749284e+000 3.277848e-001 -1.910609e+000 2.635070e+000 4.156074e+000 4.034804e-001 -1.961756e+000 -1.194286e+000 3.698565e+000 1.015927e+000 1.231672e-001 -7.926876e-001 -8.533039e-001 3.451104e-001 -1.540982e-001 3.409756e-001 4.593120e-001 1.516724e-001 -2.211443e-001 -1.782625e-001 4.434547e-001 8.146384e-001
<VARIANCE> 25
 2.807512e+001 1.570912e+001 2.077367e+001 1.996100e+001 1.742809e+001 1.894968e+001 1.373172e+001 1.796446e+001 1.588192e+001 2.010912e+001 1.561677e+001 1.560943e+001 1.541380e+000 1.391409e+000 1.721469e+000 1.788380e+000 1.403301e+000 1.494161e+000 1.529538e+000 1.225093e+000 1.570234e+000 1.404816e+000 1.079175e+000 1.121171e+000 9.682227e-001
<GCONST> 8.483933e+001
<STATE> 3
<MEAN> 25
 1.048883e+001 2.933057e+000 -5.865648e+000 -8.373768e+000 1.019026e+000 -1.843301e+000 3.703902e+000 5.240571e+000 9.328317e-001 -1.795340e+000 -1.996319e+000 4.444363e+000 -2.697182e-001 2.112166e-001 3.312427e-001 2.340682e-001 -5.419448e-002 3.522900e-001 9.820048e-002 -1.991842e-001 -1.969245e-001 4.419921e-001 2.748329e-001 -1.854669e-001 -3.422309e-001
<VARIANCE> 25
 5.973854e+000 8.979710e+000 8.865900e+000 1.072683e+001 1.274222e+001 2.039658e+001 8.801901e+000 1.367984e+001 1.576080e+001 1.336046e+001 1.243243e+001 1.068173e+001 2.367733e-001 5.362344e-001 6.434579e-001 6.405122e-001 6.882476e-001 9.045503e-001 6.623337e-001 8.101452e-001 1.081646e+000 9.938657e-001 9.034883e-001 7.011265e-001 2.250621e-001
<GCONST> 6.915182e+001
<STATE> 4
<MEAN> 25
 4.601095e+000 2.331747e+000 -1.852017e+000 -3.555303e+000 1.924557e-001 1.090277e+000 2.970357e+000 2.306178e+000 -2.056448e-001 -3.404630e-002 1.728556e-001 2.225921e+000 -1.221386e+000 -9.765548e-002 8.966231e-001 1.374055e+000 -1.595308e-001 3.657528e-001 -3.711573e-001 -7.444682e-001 -2.419010e-002 3.983519e-001 2.652669e-001 -6.506950e-001 -1.055696e+000
<VARIANCE> 25
 2.940378e+001 1.534917e+001 1.611425e+001 2.413825e+001 1.680780e+001 2.092540e+001 1.629892e+001 2.074435e+001 2.095662e+001 1.319138e+001 1.287000e+001 1.455113e+001 1.218651e+000 1.396251e+000 2.086389e+000 2.142152e+000 1.315179e+000 1.834909e+000 1.584605e+000 1.610007e+000 1.616939e+000 1.371768e+000 1.247112e+000 1.164524e+000 6.638249e-001
<GCONST> 8.516974e+001
<TRANSP> 5
 0.000000e+000 1.000000e+000 0.000000e+000 0.000000e+000 0.000000e+000
 0.000000e+000 6.817397e-001 3.182603e-001 0.000000e+000 0.000000e+000
 0.000000e+000 0.000000e+000 7.853901e-001 2.146099e-001 0.000000e+000
 0.000000e+000 0.000000e+000 0.000000e+000 7.533424e-001 2.466576e-001
 0.000000e+000 0.000000e+000 0.000000e+000 0.000000e+000 0.000000e+000
<ENDHMM>
~h "b"
<BEGINHMM>
<NUMSTATES> 5
<STATE> 2
<MEAN> 25
 -3.495278e+000 -2.027519e+000 -1.678163e+000 8.270819e-002 -6.573008e-001 1.425742e+000 -4.157388e-002 -1.499454e+000 2.496062e-001 8.000925e-001 8.174034e-001 4.313049e-001 -4.887876e-003 -9.974618e-002 -1.724894e-001 -2.454388e-002 1.025475e-001 2.658065e-001 3.041945e-001 1.190414e-001 -1.590707e-001 -1.092651e-001 2.463316e-002 1.168884e-001 -1.458157e-002
<VARIANCE> 25
 7.998687e+000 1.254760e+001 1.700512e+001 2.049885e+001 1.373830e+001 1.298493e+001 1.285107e+001 1.264151e+001 1.015409e+001 1.238138e+001 6.985204e+000 9.121776e+000 4.858541e-001 4.569750e-001 1.883903e+000 1.738069e+000 9.804035e-001 7.585055e-001 1.416292e+000 9.746785e-001 9.106153e-001 1.545082e+000 9.043781e-001 1.040676e+000 2.440098e-001
<GCONST> 7.425014e+001
<STATE> 3
<MEAN> 25
 -3.397677e+000 -3.031188e+000 -3.755574e+000 -9.963084e-001 -1.794507e+000 6.845639e-001 -3.680631e-001 -1.316088e+000 -3.128093e-001 1.129694e+000 7.286745e-001 1.326919e-001 1.826958e-002 1.007001e-001 1.226710e-001 1.722257e-001 1.231225e-001 7.959297e-002 3.611295e-002 1.311448e-001 1.486189e-001 1.395428e-001 5.052733e-002 -7.278891e-002 -2.485127e-002
<VARIANCE> 25
 2.891781e+000 4.198377e+000 6.349805e+000 7.652130e+000 7.148181e+000 8.063526e+000 7.379488e+000 7.742277e+000 8.518344e+000 8.446891e+000 6.784118e+000 6.514964e+000 1.420929e-001 2.733850e-001 4.135474e-001 5.419645e-001 5.749725e-001 7.698870e-001 8.551394e-001 8.088708e-001 7.482221e-001 7.647301e-001 6.300929e-001 6.889818e-001 4.750997e-002
<GCONST> 5.812445e+001
<STATE> 4
<MEAN> 25
 -3.564693e-002 3.296988e+000 4.050088e+000 6.880733e+000 4.934824e+000 5.760139e+000 3.378281e+000 1.742693e+000 2.024602e+000 2.433297e+000 6.891108e-001 -1.310945e+000 8.450178e-001 8.271098e-001 8.240108e-001 5.639760e-001 4.684523e-001 2.645946e-001 1.443095e-001 1.938272e-002 -1.168137e-001 -1.668659e-001 -1.555977e-001 -1.265888e-001 4.707916e-001
<VARIANCE> 25
 7.721493e+000 1.241198e+001 1.674794e+001 1.620062e+001 1.114802e+001 1.068880e+001 8.173444e+000 7.099704e+000 6.892380e+000 6.297549e+000 6.707024e+000 6.920722e+000 5.383633e-001 1.223832e+000 1.655426e+000 2.240633e+000 2.123482e+000 1.991737e+000 1.566151e+000 1.198806e+000 9.102706e-001 7.746168e-001 7.145191e-001 6.965601e-001 2.578007e-001
<GCONST> 7.312546e+001
<TRANSP> 5
 0.000000e+000 1.000000e+000 0.000000e+000 0.000000e+000 0.000000e+000
 0.000000e+000 4.610240e-001 5.389761e-001 0.000000e+000 0.000000e+000
 0.000000e+000 0.000000e+000 8.659509e-001 1.340491e-001 0.000000e+000
 0.000000e+000 0.000000e+000 0.000000e+000 8.735344e-001 1.264655e-001
 0.000000e+000 0.000000e+000 0.000000e+000 0.000000e+000 0.000000e+000
<ENDHMM>
~h "c"
<BEGINHMM>
<NUMSTATES> 5
<STATE> 2
<MEAN> 25
 -3.056785e+000 -6.020038e+000 -4.282703e+000 -2.027159e-001 -2.926289e+000 -3.180461e+000 3.099640e+000 -1.186243e-001 -1.102556e+000 -2.412614e+000 4.099166e+000 3.957272e-002 3.178522e-001 -2.685061e+000 3.861245e-001 -1.441063e+000 -1.004051e+000 -2.094663e+000 1.057267e+000 -3.785610e-001 -1.361870e+000 -2.620826e+000 1.112169e+000 -5.592369e-001 3.063313e+000
<VARIANCE> 25
 5.367918e+000 1.646037e+001 1.085862e+001 1.107463e+001 1.055818e+001 1.599721e+001 1.846685e+001 3.536464e+000 1.205108e+001 3.222680e+001 8.372798e+000 7.508159e+000 5.998899e-001 9.328914e-001 2.676571e+000 9.501197e-001 8.759878e-001 8.396299e-001 7.089318e-001 9.342971e-001 6.878514e-001 7.985200e-001 2.857709e-001 9.691627e-001 5.610394e-001
<GCONST> 7.180200e+001
<STATE> 3
<MEAN> 25
 -4.158581e+000 -1.657277e+001 4.493323e+000 -4.958620e+000 -2.235062e+000 -9.505923e+000 3.927317e+000 3.110887e-001 -3.813244e+000 -6.698581e+000 6.015584e+000 1.283360e+000 1.012523e+000 3.139788e-002 1.104502e+000 6.278418e-001 1.340971e+000 2.813361e-001 -1.061995e+000 2.276554e-001 1.594209e-002 2.997186e-001 -4.195832e-001 6.888951e-001 6.117700e-001
<VARIANCE> 25
 8.526947e+000 8.585734e+000 1.312339e+001 1.104963e+001 8.333862e+000 1.275582e+001 1.144044e+001 8.811499e+000 8.322040e+000 8.244026e+000 5.253223e+000 7.506207e+000 2.855952e+000 7.195837e+000 4.059211e+000 3.497406e+000 1.770274e+000 3.463934e+000 1.513186e+000 1.027264e+000 1.444822e+000 1.827703e+000 6.381327e-001 7.055332e-001 2.619361e+000
<GCONST> 8.146609e+001
<STATE> 4
<MEAN> 25
 5.003203e+000 2.296625e+000 1.172243e+001 8.747398e+000 6.449033e+000 -1.475859e+000 -7.936578e+000 2.145693e+000 -5.395712e+000 -1.075377e+001 -3.111380e+000 -4.595484e+000 5.148417e-001 1.428866e+000 -4.666876e-002 5.869789e-001 4.146247e-001 4.835154e-001 -4.516897e-001 -2.322777e-001 7.939110e-003 3.703783e-002 -5.202837e-001 -2.125574e-001 -5.528339e-001
<VARIANCE> 25
 2.912712e+000 2.826769e+001 1.380342e+001 1.150547e+001 6.539874e+000 3.249253e+000 2.037690e+001 6.531744e+000 6.012465e+000 2.011455e+001 1.283643e+001 1.753374e+001 2.034431e+000 4.583347e+000 1.449721e+000 2.146210e+000 1.253019e+000 1.032224e+000 2.828335e+000 8.146965e-001 8.391520e-001 1.757488e+000 1.004688e+000 1.909587e+000 1.622260e-001
<GCONST> 7.726564e+001
<TRANSP> 5
 0.000000e+000 1.000000e+000 0.000000e+000 0.000000e+000 0.000000e+000
 0.000000e+000 7.142699e-001 2.857301e-001 0.000000e+000 0.000000e+000
 0.000000e+000 0.000000e+000 7.945328e-001 2.054671e-001 0.000000e+000
 0.000000e+000 0.000000e+000 0.000000e+000 8.743172e-001 1.256828e-001
 0.000000e+000 0.000000e+000 0.000000e+000 0.000000e+000 0.000000e+000
<ENDHMM>
~h "d"
<BEGINHMM>
<NUMSTATES> 5
<STATE> 2
<MEAN> 25
 2.772315e+000 2.449703e+000 1.075463e+001 9.602663e+000 8.633971e+000 2.863595e+000 -4.949245e+000 1.673043e+000 3.300221e+000 -3.829052e+000 -3.800089e+000 -4.194472e+000 1.575170e-001 -1.893250e-001 5.879990e-002 -4.793108e-002 1.941671e-001 -3.808527e-001 -6.719371e-001 -5.009887e-002 1.455399e-001 -1.913328e-001 6.193794e-002 8.485100e-002 3.032704e-001
<VARIANCE> 25
 6.094716e+000 1.595102e+001 1.977214e+001 1.277536e+001 1.759945e+001 2.980524e+001 7.954137e+001 1.541657e+001 2.445896e+001 3.362878e+001 1.468088e+001 1.228865e+001 5.566658e-001 1.951409e+000 2.344963e+000 1.821481e+000 2.017320e+000 2.815582e+000 7.393145e+000 2.348945e+000 2.217383e+000 4.155630e+000 2.140894e+000 1.531595e+000 1.139469e+000
<GCONST> 9.100256e+001
<STATE> 3
<MEAN> 25
 6.028929e+000 3.038817e+000 6.188762e+000 6.172761e+000 1.038334e+001 3.990932e-001 -1.067174e+001 -5.985888e+000 2.196587e-001 -2.643560e-001 1.653032e+000 -7.120962e-001 -1.522553e-001 1.421776e+000 -4.980434e-001 -1.028970e-001 -9.493597e-001 2.178415e+000 3.162309e+000 -2.454536e-001 -1.139035e+000 9.079049e-001 6.791513e-002 -7.457590e-002 -1.288780e+000
<VARIANCE> 25
 4.626758e+000 1.295314e+001 6.250163e+000 1.649093e+001 1.208779e+001 3.520817e+001 5.255378e+001 1.596698e+001 1.625788e+001 7.037897e+000 1.376987e+001 1.311188e+001 4.042168e-001 6.750733e-001 8.752570e-001 2.418810e+000 8.367353e-001 2.757473e+000 2.737038e+000 3.532679e+000 2.592713e+000 1.537785e+000 2.385769e+000 1.272832e+000 5.097861e-001
<GCONST> 8.177361e+001
<STATE> 4
<MEAN> 25
 3.877555e+000 5.769643e+000 5.285050e+000 8.873665e+000 7.360702e+000 5.664184e+000 7.343541e-001 -1.167917e+000 1.401464e-001 8.868197e-001 2.234953e-001 -9.833086e-001 -4.198458e-001 -2.443496e-001 -1.475311e-001 -1.056022e-001 -2.103871e-001 1.020228e-001 5.851170e-001 5.042292e-001 2.201536e-001 1.361051e-001 1.286130e-001 1.619689e-001 -2.652662e-001
<VARIANCE> 25
 4.361554e+000 3.015272e+000 3.666284e+000 3.220765e+000 4.162339e+000 6.546015e+000 1.346786e+001 1.216333e+001 7.937354e+000 6.897266e+000 6.558085e+000 4.841569e+000 1.362230e-001 2.495786e-001 3.735823e-001 4.253103e-001 4.973552e-001 6.870224e-001 7.342102e-001 7.400326e-001 7.005107e-001 6.020256e-001 6.703912e-001 5.484291e-001 6.703547e-002
<GCONST> 5.538517e+001
<TRANSP> 5
 0.000000e+000 1.000000e+000 0.000000e+000 0.000000e+000 0.000000e+000
 0.000000e+000 9.514167e-001 4.858332e-002 0.000000e+000 0.000000e+000
 0.000000e+000 0.000000e+000 7.451845e-001 2.548154e-001 0.000000e+000
 0.000000e+000 0.000000e+000 0.000000e+000 8.755501e-001 1.244500e-001
 0.000000e+000 0.000000e+000 0.000000e+000 0.000000e+000 0.000000e+000
<ENDHMM>
~h "e"
<BEGINHMM>
<NUMSTATES> 5
<STATE> 2
<MEAN> 25
 1.529331e+000 -7.690328e-001 -1.431837e+000 -9.264926e-001 -4.833073e-001 2.231723e-001 3.778329e-001 -2.282028e+000 -2.915598e+000 -1.647303e+000 5.734521e-001 2.019193e+000 2.544222e+000 1.045852e+000 1.508958e-001 -4.500875e-001 5.230458e-001 -5.800905e-001 -1.944676e-001 -2.176026e-001 -6.728197e-001 -5.569183e-001 5.725959e-002 5.273557e-001 1.835062e+000
<VARIANCE> 25
 4.314099e+001 2.009661e+001 1.248824e+001 1.933370e+001 1.517097e+001 2.068962e+001 1.398138e+001 2.032551e+001 2.609001e+001 1.683947e+001 1.043402e+001 1.516606e+001 2.695839e+000 2.148077e+000 2.292980e+000 3.279868e+000 3.435278e+000 2.248612e+000 2.352057e+000 3.790684e+000 3.293628e+000 1.750714e+000 1.704789e+000 2.113716e+000 1.800183e+000
<GCONST> 9.237460e+001
<STATE> 3
<MEAN> 25
 8.662695e+000 2.698814e+000 -1.471813e+000 -6.537024e-001 2.171517e+000 -3.274128e+000 -2.822684e+000 -2.029303e+000 -2.428780e+000 -7.903238e-001 8.712916e-001 7.875698e-001 1.051785e-002 2.673908e-001 5.685941e-001 1.201498e+000 8.946221e-001 -2.073795e-002 -9.511640e-001 -5.801140e-001 2.498167e-001 1.031999e+000 3.273680e-001 -4.600464e-001 -1.328762e-001
<VARIANCE> 25
 2.466965e+001 2.177037e+001 3.387211e+001 3.162174e+001 4.503056e+001 2.658758e+001 4.133182e+001 4.080901e+001 4.052308e+001 1.988449e+001 1.925200e+001 2.329008e+001 2.415567e+000 2.080068e+000 1.909633e+000 2.580230e+000 1.830397e+000 2.696246e+000 2.433179e+000 1.840428e+000 1.438454e+000 1.858129e+000 1.314593e+000 1.065090e+000 1.600085e+000
<GCONST> 9.461976e+001
<STATE> 4
<MEAN> 25
 6.146595e+000 1.825570e+000 -4.009772e-001 4.810062e+000 6.511402e+000 -2.222711e+000 -7.841489e+000 -6.699276e+000 -3.582542e-001 5.711351e+000 1.786140e+000 -2.412726e+000 -6.161219e-001 -1.042340e-002 2.583808e-001 2.121361e-001 -2.064154e-001 3.415837e-001 2.396100e-001 2.756353e-001 4.342481e-001 7.926340e-002 -1.387320e-001 -2.561139e-001 -5.156442e-001
<VARIANCE> 25
 1.718804e+001 1.125277e+001 2.105645e+001 1.397583e+001 1.495161e+001 1.713039e+001 2.258235e+001 1.847259e+001 1.868589e+001 2.147306e+001 1.570765e+001 1.728857e+001 4.619170e-001 8.099310e-001 1.201540e+000 1.320419e+000 9.484822e-001 1.166706e+000 1.414170e+000 9.123790e-001 9.342537e-001 1.244322e+000 1.053608e+000 1.321563e+000 2.733021e-001
<GCONST> 7.909313e+001
<TRANSP> 5
 0.000000e+000 1.000000e+000 0.000000e+000 0.000000e+000 0.000000e+000
 0.000000e+000 7.003480e-001 2.996521e-001 0.000000e+000 0.000000e+000
 0.000000e+000 0.000000e+000 6.521602e-001 3.478398e-001 0.000000e+000
 0.000000e+000 0.000000e+000 0.000000e+000 8.387433e-001 1.612567e-001
 0.000000e+000 0.000000e+000 0.000000e+000 0.000000e+000 0.000000e+000
<ENDHMM>
~h "f"
<BEGINHMM>
<NUMSTATES> 5
<STATE> 2
<MEAN> 25
 -4.345444e+000 -7.830163e+000 2.374236e-001 -3.543854e-001 5.489154e+000 -2.463332e-001 -4.562792e-001 -7.555191e+000 7.363434e-001 -2.558612e+000 5.707359e-001 8.797872e-001 3.387998e-001 1.072468e-001 2.342228e-001 6.164187e-001 3.305436e-001 -1.892892e-001 -5.613807e-001 3.570725e-002 5.167049e-002 -1.936733e-001 -3.003907e-001 -2.589867e-001 1.324260e-001
<VARIANCE> 25
 2.338059e+001 1.868353e+001 2.119932e+001 7.359303e+001 2.342023e+001 1.721824e+001 3.769379e+001 2.199745e+001 1.390419e+001 2.236347e+001 1.563657e+001 2.291043e+001 2.785941e+000 4.315176e+000 3.865646e+000 9.767879e+000 2.634344e+000 1.424919e+000 4.388114e+000 3.294299e+000 1.753791e+000 4.265451e+000 2.802071e+000 3.014714e+000 4.456847e-001
<GCONST> 9.716965e+001
<STATE> 3
<MEAN> 25
 4.160063e+000 9.749727e-001 1.372296e+001 1.600490e+001 1.057000e+001 -4.821178e-001 -1.268577e+001 2.293578e+000 2.198825e+000 -1.096821e+001 -8.140491e+000 -5.576388e+000 -2.289053e-001 7.285846e-001 1.207349e+000 -4.386750e-001 -5.957646e-001 4.564149e-001 6.531415e-001 9.196494e-001 -6.922023e-001 -1.346101e+000 7.544237e-002 3.081461e-001 -1.981912e-001
<VARIANCE> 25
 2.939635e+000 8.394474e+000 1.089139e+001 9.372165e+000 5.655582e+000 1.221493e+001 1.017087e+001 1.153942e+001 1.236244e+001 8.629346e+000 4.558597e+000 5.599769e+000 2.167456e-001 8.164219e-001 2.111628e+000 1.178134e+000 5.650274e-001 1.440429e+000 2.182749e+000 9.408517e-001 9.427454e-001 2.728007e+000 1.403467e+000 5.050135e-001 2.558669e-001
<GCONST> 6.961917e+001
<STATE> 4
<MEAN> 25
 2.466417e+000 3.678082e+000 1.153415e+001 1.056378e+001 7.385031e+000 4.338513e+000 -4.446196e+000 3.596545e+000 -2.558760e-001 -8.096746e+000 -3.549656e+000 -4.551187e+000 -2.280095e-001 -1.277048e-001 -6.088769e-001 -4.338226e-001 -3.727566e-001 8.766245e-002 6.644900e-001 1.155132e-002 1.541573e-001 6.579017e-001 3.591276e-001 3.323681e-001 -2.362311e-001
<VARIANCE> 25
 2.710420e+000 4.344467e+000 9.898086e+000 8.869585e+000 7.187968e+000 9.089848e+000 1.293151e+001 8.951379e+000 9.006653e+000 1.428380e+001 8.828694e+000 8.652416e+000 1.358439e-001 5.971031e-001 6.723252e-001 5.669421e-001 4.833550e-001 9.941936e-001 1.141389e+000 9.032085e-001 9.141813e-001 8.925664e-001 8.588647e-001 7.266693e-001 8.396693e-002
<GCONST> 6.368093e+001
<TRANSP> 5
 0.000000e+000 1.000000e+000 0.000000e+000 0.000000e+000 0.000000e+000
 0.000000e+000 9.363523e-001 6.364770e-002 0.000000e+000 0.000000e+000
 0.000000e+000 0.000000e+000 7.786522e-001 2.213478e-001 0.000000e+000
 0.000000e+000 0.000000e+000 0.000000e+000 9.162003e-001 8.379965e-002
 0.000000e+000 0.000000e+000 0.000000e+000 0.000000e+000 0.000000e+000
<ENDHMM>
~h "g"
<BEGINHMM>
<NUMSTATES> 5
<STATE> 2
<MEAN> 25
 -3.169420e+000 -2.312786e+000 -2.908529e+000 -1.307405e-001 -1.827248e+000 9.110036e-001 1.283372e+000 -4.295018e-001 -2.688480e-002 1.624810e+000 1.092819e+000 8.263116e-001 -1.071193e-001 -7.196146e-002 -5.844708e-003 3.608066e-002 -9.922476e-003 3.422805e-002 9.745497e-002 1.336516e-001 9.522688e-002 9.087778e-002 1.363576e-001 7.054119e-002 -7.535299e-002
<VARIANCE> 25
 3.884096e+000 8.655396e+000 1.177785e+001 1.115291e+001 1.233937e+001 8.153323e+000 5.831336e+000 5.654434e+000 6.310562e+000 7.474594e+000 8.561363e+000 7.352825e+000 7.931487e-002 1.671192e-001 2.467080e-001 4.854035e-001 4.278956e-001 3.777592e-001 5.975426e-001 5.608251e-001 5.922072e-001 7.586150e-001 7.721895e-001 7.501179e-001 4.678804e-002
<GCONST> 5.667322e+001
<STATE> 3
<MEAN> 25
 -9.983930e-001 1.855472e+000 1.402288e+000 3.993647e+000 2.375614e+000 3.994903e+000 3.045499e+000 1.681996e+000 2.547145e+000 2.562740e+000 1.021417e+000 -1.848079e-002 -2.313255e-001 -3.493204e-001 -6.843091e-002 -2.645291e-002 -1.010049e-001 -1.525567e-001 -1.332957e-001 1.714566e-001 1.478022e-002 -1.085111e-001 -3.206970e-002 -1.819809e-001 -4.266490e-002
<VARIANCE> 25
 4.978972e+000 7.273431e+000 1.028092e+001 7.132204e+000 8.287745e+000 9.264830e+000 6.849019e+000 5.163553e+000 8.448706e+000 9.433055e+000 6.660745e+000 6.501657e+000 2.779734e-001 3.692738e-001 4.397461e-001 5.320387e-001 8.133619e-001 8.775267e-001 1.040649e+000 6.661905e-001 1.055674e+000 8.073325e-001 7.187809e-001 6.057618e-001 1.431521e-001
<GCONST> 6.251678e+001
<STATE> 4
<MEAN> 25
 5.244113e+000 9.475027e-001 -1.547845e+000 -4.280989e+000 1.785554e+000 2.372614e+000 1.999691e+000 -1.724483e+000 -2.046592e+000 -1.505980e+000 -3.944834e-001 1.041087e+000 5.889248e-001 -1.776482e-001 2.488225e-001 -6.697588e-001 3.176802e-001 -1.931354e-001 -3.656709e-001 -1.747534e-001 -3.812725e-001 -5.953183e-001 3.046436e-002 2.582103e-001 9.299744e-001
<VARIANCE> 25
 3.473161e+001 1.838102e+001 2.899470e+001 4.478479e+001 1.753220e+001 1.771506e+001 1.637654e+001 3.014190e+001 3.533550e+001 1.938581e+001 1.541835e+001 1.469488e+001 2.746071e+000 3.532011e+000 4.483326e+000 5.226583e+000 2.317123e+000 2.277957e+000 2.373633e+000 2.734274e+000 2.625521e+000 2.915483e+000 2.340183e+000 1.412398e+000 2.469465e+000
<GCONST> 9.656248e+001
<TRANSP> 5
 0.000000e+000 1.000000e+000 0.000000e+000 0.000000e+000 0.000000e+000
 0.000000e+000 7.383114e-001 2.616886e-001 0.000000e+000 0.000000e+000
 0.000000e+000 0.000000e+000 6.211925e-001 3.788075e-001 0.000000e+000
 0.000000e+000 0.000000e+000 0.000000e+000 8.235375e-001 1.764625e-001
 0.000000e+000 0.000000e+000 0.000000e+000 0.000000e+000 0.000000e+000
<ENDHMM>
~h "h"
<BEGINHMM>
<NUMSTATES> 5
<STATE> 2
<MEAN> 25
 1.602534e+000 -1.573217e+000 -4.522654e+000 -2.183285e+000 -4.594343e-002 4.349505e+000 5.033170e+000 3.409533e+000 7.898585e-001 -6.888686e-001 2.040684e+000 4.186412e+000 -6.765268e-001 -6.796886e-001 -6.267366e-001 -2.526698e-001 -4.022741e-001 -2.016652e-001 -2.546803e-001 -3.476754e-001 -1.507452e-001 2.339355e-001 2.454731e-001 -3.092203e-002 -4.014352e-001
<VARIANCE> 25
 1.227187e+001 9.394297e+000 1.764622e+001 1.818481e+001 1.288550e+001 1.588377e+001 1.107398e+001 1.593260e+001 1.199330e+001 1.104949e+001 1.001189e+001 1.675803e+001 4.566731e-001 9.218082e-001 1.213154e+000 1.144728e+000 1.013671e+000 1.081935e+000 7.620896e-001 1.131469e+000 1.031395e+000 8.254825e-001 1.000866e+000 9.206899e-001 1.783600e-001
<GCONST> 7.440994e+001
<STATE> 3
<MEAN> 25
 -1.252126e+000 -2.977542e+000 -5.230144e+000 -2.203218e+000 -1.532776e+000 1.884153e+000 2.487969e+000 1.437675e+000 1.753716e-001 9.352558e-001 2.866372e+000 3.591048e+000 -4.283015e-001 1.145210e-001 3.333326e-001 3.121063e-001 2.351066e-002 -2.701057e-001 -3.795413e-001 -4.264425e-001 -7.416932e-002 2.162819e-001 -1.458023e-001 -3.383758e-001 -3.296371e-001
<VARIANCE> 25
 7.035825e+000 4.099870e+000 9.437511e+000 1.106943e+001 1.027961e+001 1.179451e+001 9.683509e+000 1.024204e+001 9.526146e+000 8.849467e+000 1.088243e+001 1.184084e+001 1.804247e-001 2.483899e-001 5.248101e-001 6.549167e-001 7.402709e-001 8.802799e-001 7.815111e-001 8.074219e-001 8.433946e-001 7.049431e-001 7.115373e-001 8.266293e-001 7.741133e-002
<GCONST> 6.397444e+001
<STATE> 4
<MEAN> 25
 -3.858010e+000 -2.502287e+000 -3.438087e+000 -1.085926e+000 -2.373354e+000 2.850892e-001 -9.724287e-002 -1.292110e+000 -3.732682e-001 1.210070e+000 6.628783e-001 1.537570e-001 -1.378024e-002 -1.186234e-002 -3.684408e-002 -5.719302e-002 -1.430339e-002 -1.310344e-002 3.136783e-003 1.685153e-002 1.809623e-003 -1.189374e-002 -5.437084e-002 -5.225757e-002 -6.632827e-003
<VARIANCE> 25
 3.088131e+000 2.261760e+000 4.610822e+000 6.096256e+000 5.067741e+000 5.291753e+000 5.987701e+000 7.466563e+000 7.537642e+000 7.092887e+000 7.096518e+000 7.011074e+000 1.267448e-001 1.806484e-001 3.666789e-001 4.607510e-001 5.060745e-001 5.451908e-001 6.399942e-001 7.972758e-001 8.192832e-001 7.956778e-001 7.564973e-001 7.448420e-001 6.030784e-002
<GCONST> 5.487669e+001
<TRANSP> 5
 0.000000e+000 1.000000e+000 0.000000e+000 0.000000e+000 0.000000e+000
 0.000000e+000 6.918396e-001 3.081604e-001 0.000000e+000 0.000000e+000
 0.000000e+000 0.000000e+000 7.590061e-001 2.409938e-001 0.000000e+000
 0.000000e+000 0.000000e+000 0.000000e+000 9.098840e-001 9.011601e-002
 0.000000e+000 0.000000e+000 0.000000e+000 0.000000e+000 0.000000e+000
<ENDHMM>
~h "i"
<BEGINHMM>
<NUMSTATES> 5
<STATE> 2
<MEAN> 25
 2.194950e+000 8.399866e-002 7.163720e+000 6.874684e+000 7.584234e+000 5.675841e-001 -7.744804e+000 -1.291030e+000 6.583013e-001 -3.739787e+000 -2.730232e+000 -2.455953e+000 -3.078853e-001 2.939835e-002 1.088067e-001 1.810309e-001 -1.231109e-001 1.112512e-001 2.320955e-002 1.707657e-001 3.496978e-003 -5.034236e-001 -1.936112e-001 -7.478949e-002 -3.040981e-001
<VARIANCE> 25
 1.942609e+001 1.625311e+001 4.546976e+001 3.198261e+001 2.401576e+001 2.241899e+001 4.490147e+001 2.595818e+001 1.618231e+001 3.000318e+001 2.973300e+001 1.367720e+001 1.295966e+000 1.594219e+000 5.570930e+000 4.816465e+000 2.574536e+000 2.078332e+000 4.576912e+000 2.376540e+000 1.581747e+000 4.488283e+000 2.892772e+000 1.353882e+000 1.220481e+000
<GCONST> 9.613044e+001
<STATE> 3
<MEAN> 25
 -2.934130e+000 -1.899012e+000 -5.327032e-001 4.703086e-001 3.978432e-001 9.926351e-001 -5.632994e-001 -1.023765e+000 3.930898e-001 2.816179e-002 1.742217e-001 -8.133769e-002 -2.303627e-001 -2.076088e-001 -3.858425e-001 -4.305054e-001 -2.496065e-001 -5.134295e-002 7.771748e-002 -1.847290e-001 -9.586507e-002 1.570199e-001 9.088480e-002 8.245721e-002 -1.228791e-001
<VARIANCE> 25
 7.182808e+000 7.299150e+000 2.896740e+001 2.007121e+001 1.728193e+001 1.427053e+001 1.782396e+001 1.428963e+001 1.116769e+001 1.776019e+001 1.244222e+001 8.976727e+000 3.099823e-001 6.631185e-001 1.646692e+000 1.194589e+000 1.265306e+000 1.280638e+000 1.144350e+000 1.098899e+000 1.077204e+000 1.330892e+000 9.712823e-001 7.288209e-001 2.404373e-001
<GCONST> 7.572129e+001
<STATE> 4
<MEAN> 25
 1.481749e-001 1.724389e-002 1.004299e+001 6.780398e+000 7.532775e+000 2.700275e+000 -5.472349e+000 2.523768e+000 9.121122e-001 -6.423020e+000 -2.271253e+000 -3.004296e+000 1.095932e-001 2.765956e-004 -5.747294e-001 -1.022218e-001 -9.004591e-002 3.359055e-002 1.117385e-001 -2.552914e-001 -7.278606e-002 3.607880e-001 1.667459e-001 1.157814e-001 -1.083934e-001
<VARIANCE> 25
 1.352852e+001 1.415578e+001 6.236523e+001 3.120885e+001 2.638547e+001 1.903830e+001 3.327246e+001 2.492781e+001 1.436789e+001 3.685839e+001 1.717864e+001 1.377478e+001 8.032711e-001 1.118162e+000 2.113968e+000 2.214689e+000 1.680174e+000 1.525885e+000 2.398937e+000 1.646651e+000 1.304035e+000 1.898617e+000 1.607407e+000 1.141248e+000 5.215053e-001
<GCONST> 8.806796e+001
<TRANSP> 5
 0.000000e+000 1.000000e+000 0.000000e+000 0.000000e+000 0.000000e+000
 0.000000e+000 7.603202e-001 2.396798e-001 0.000000e+000 0.000000e+000
 0.000000e+000 0.000000e+000 6.943184e-001 3.056815e-001 0.000000e+000
 0.000000e+000 0.000000e+000 0.000000e+000 8.143359e-001 1.856640e-001
 0.000000e+000 0.000000e+000 0.000000e+000 0.000000e+000 0.000000e+000
<ENDHMM>
~h "j"
<BEGINHMM>
<NUMSTATES> 5
<STATE> 2
<MEAN> 25
 6.960414e+000 2.881716e+000 -4.252686e+000 -4.720652e+000 -3.420323e-001 2.065929e+000 -4.654650e-001 -3.155518e+000 -2.427190e+000 1.968333e+000 4.851349e+000 5.086905e+000 -5.908585e-001 -1.674352e-001 -3.481928e-001 -3.970042e-001 -5.338808e-001 2.289410e-001 5.718406e-001 3.782220e-001 -8.043043e-002 -1.732980e-001 -2.610284e-002 5.397785e-002 -5.147634e-001
<VARIANCE> 25
 1.786385e+001 1.202104e+001 7.781086e+000 7.333487e+000 1.272487e+001 1.027716e+001 1.514814e+001 1.368839e+001 9.017581e+000 6.205494e+000 8.715392e+000 6.755997e+000 5.216960e-001 1.187509e+000 6.224347e-001 9.231921e-001 1.504025e+000 1.282695e+000 8.804427e-001 6.318911e-001 1.177140e+000 6.224668e-001 9.343821e-001 9.224221e-001 8.475432e-002
<GCONST> 6.977885e+001
<STATE> 3
<MEAN> 25
 -3.797644e+000 -2.657656e+000 -3.841178e+000 -2.427546e+000 -2.323543e+000 2.786842e+000 2.276138e+000 1.115732e-002 -1.507783e+000 -7.474546e-001 2.546127e+000 3.578502e+000 -7.121012e-001 2.628259e-002 8.764718e-001 1.201706e+000 2.798221e-001 -6.129488e-001 -2.878292e-001 7.300314e-002 2.986459e-001 6.031859e-002 -6.008551e-001 -7.183871e-001 -4.895577e-001
<VARIANCE> 25
 3.144738e+000 1.368427e+000 7.501337e+000 1.599927e+001 3.309093e+000 7.124377e+000 4.931716e+000 5.070191e+000 1.105129e+001 7.485182e+000 8.983651e+000 8.652300e+000 1.134767e-001 1.396246e-001 3.068342e-001 8.567539e-001 2.707531e-001 6.526911e-001 6.510633e-001 6.361009e-001 1.107821e+000 7.612531e-001 1.026650e+000 9.887339e-001 7.764135e-002
<GCONST> 5.653508e+001
<STATE> 4
<MEAN> 25
 -7.105687e+000 -3.140330e+000 -2.294753e-001 2.632776e+000 -1.649503e+000 -1.373463e+000 -1.786019e-001 6.888086e-001 1.490897e+000 1.700651e+000 -2.836367e-001 -1.157642e+000 -1.438806e-002 -2.283763e-003 3.426574e-002 4.871444e-002 2.385952e-002 -2.529985e-002 -6.322873e-003 -2.172469e-004 1.455116e-002 2.871793e-002 -2.858842e-002 -2.083483e-003 -2.686513e-003
<VARIANCE> 25
 6.401546e-001 1.114405e+000 2.097143e+000 3.060632e+000 3.587283e+000 4.742179e+000 4.580618e+000 5.469558e+000 5.537682e+000 4.933700e+000 5.237379e+000 5.188176e+000 5.851256e-002 1.204686e-001 1.426306e-001 3.282530e-001 3.827042e-001 5.282959e-001 4.995460e-001 5.645623e-001 7.070057e-001 5.431572e-001 7.258241e-001 6.027312e-001 1.495735e-002
<GCONST> 4.326614e+001
<TRANSP> 5
 0.000000e+000 1.000000e+000 0.000000e+000 0.000000e+000 0.000000e+000
 0.000000e+000 9.303269e-001 6.967311e-002 0.000000e+000 0.000000e+000
 0.000000e+000 0.000000e+000 8.102778e-001 1.897222e-001 0.000000e+000
 0.000000e+000 0.000000e+000 0.000000e+000 9.767375e-001 2.326252e-002
 0.000000e+000 0.000000e+000 0.000000e+000 0.000000e+000 0.000000e+000
<ENDHMM>
~h "k"
<BEGINHMM>
<NUMSTATES> 5
<STATE> 2
<MEAN> 25
 -3.492062e+000 -2.693485e+000 -2.908983e+000 -1.141108e+000 -2.563968e+000 -7.024902e-001 -5.117138e-001 -9.088173e-001 5.253794e-003 1.415670e+000 1.247510e+000 -2.874869e-001 7.169691e-001 -9.081220e-003 -1.324721e-001 -2.036871e+000 -7.593545e-001 -4.172983e-001 1.012504e+000 -2.017909e-001 -7.975940e-001 -1.038080e+000 -2.208146e-002 3.470182e-001 1.299941e+000
<VARIANCE> 25
 5.100955e+000 5.883011e+000 7.295993e+000 1.683396e+001 1.348905e+001 1.115282e+001 1.147051e+001 1.183321e+001 1.141157e+001 8.718792e+000 9.729866e+000 7.260760e+000 9.582174e-001 1.401879e+000 1.338957e+000 4.533850e+000 2.636609e+000 2.114065e+000 4.819967e+000 1.689178e+000 2.090370e+000 2.597817e+000 1.707651e+000 1.297938e+000 1.918630e+000
<GCONST> 8.199443e+001
<STATE> 3
<MEAN> 25
 4.025705e-001 -2.333082e+000 -2.445191e+000 -1.101708e+001 -5.259749e+000 -1.538553e+000 5.815831e+000 -1.738418e+000 -4.257413e+000 -3.750480e+000 1.347024e+000 2.061496e+000 1.199127e+000 8.161225e-001 8.064407e-001 3.864651e-002 5.282454e-001 2.968036e-001 7.940505e-001 6.751194e-001 -1.588183e-001 -3.893957e-001 -2.696933e-001 6.741722e-001 8.720530e-001
<VARIANCE> 25
 8.841857e+000 1.802603e+001 1.769097e+001 3.818574e+001 4.191349e+001 3.355999e+001 7.265379e+001 2.472154e+001 1.924175e+001 3.213165e+001 2.486872e+001 1.685056e+001 1.654798e+000 1.611479e+000 1.714423e+000 7.374415e+000 3.414429e+000 2.442135e+000 4.748097e+000 1.708392e+000 2.219773e+000 2.679180e+000 1.590238e+000 1.514859e+000 2.036513e+000
<GCONST> 9.584646e+001
<STATE> 4
<MEAN> 25
 5.590455e+000 2.340122e+000 -6.079661e-001 -3.967716e+000 -3.748561e-001 -1.350801e+000 2.832176e+000 1.842787e+000 -1.236087e+000 -2.206499e+000 -1.351340e+000 3.514457e+000 2.727913e+000 1.519956e+000 -4.047724e-001 1.148246e+000 8.699477e-001 -1.567520e+000 -1.935575e+000 7.225697e-001 1.172506e+000 2.095164e-001 -8.083009e-001 4.594652e-001 9.245190e-001
<VARIANCE> 25
 2.345250e+001 1.066461e+001 1.170123e+001 1.519875e+001 1.181463e+001 2.002511e+001 1.948679e+001 1.152696e+001 1.096951e+001 1.373322e+001 1.261736e+001 1.069695e+001 1.073516e+000 1.275834e+000 2.893274e+000 2.776898e+000 1.256287e+000 2.350303e+000 2.415571e+000 1.435549e+000 1.303306e+000 1.519420e+000 1.283567e+000 1.381387e+000 8.266134e-001
<GCONST> 8.324046e+001
<TRANSP> 5
 0.000000e+000 1.000000e+000 0.000000e+000 0.000000e+000 0.000000e+000
 0.000000e+000 6.984648e-001 3.015352e-001 0.000000e+000 0.000000e+000
 0.000000e+000 0.000000e+000 6.469193e-001 3.530807e-001 0.000000e+000
 0.000000e+000 0.000000e+000 0.000000e+000 5.629220e-001 4.370780e-001
 0.000000e+000 0.000000e+000 0.000000e+000 0.000000e+000 0.000000e+000
<ENDHMM>
~h "l"
<BEGINHMM>
<NUMSTATES> 5
<STATE> 2
<MEAN> 25
 -9.669006e-001 -7.240108e-001 -1.353739e+000 -3.184872e+000 -1.714616e+000 6.319926e-001 6.562711e-001 -4.790398e-001 -7.189521e-001 8.462713e-001 2.193252e-001 3.108761e-001 2.995684e-002 2.782156e-001 1.859339e-001 1.471539e-001 -1.977927e-001 -2.979948e-001 -1.197813e-001 -5.182780e-002 -8.241839e-002 -1.209191e-001 -2.543715e-001 -1.910580e-001 -1.011413e-001
<VARIANCE> 25
 3.309828e+001 3.035492e+001 1.785382e+001 1.592113e+001 1.600260e+001 2.255248e+001 1.201393e+001 1.497104e+001 1.602991e+001 1.059208e+001 9.389907e+000 9.197469e+000 4.582567e-001 1.263263e+000 2.062252e+000 1.529580e+000 1.720171e+000 1.270148e+000 1.116914e+000 1.287838e+000 1.842092e+000 1.069481e+000 8.878291e-001 9.350632e-001 4.134493e-001
<GCONST> 8.053913e+001
<STATE> 3
<MEAN> 25
 5.332042e+000 6.783927e+000 2.180888e+000 -3.642095e+000 -1.799336e+000 -3.287873e+000 -3.270754e-001 1.218352e+000 -1.764356e+000 2.294122e-001 -2.562176e+000 -1.154182e+000 6.107064e-001 6.796433e-001 4.928695e-001 -2.411346e-001 -3.407152e-001 -5.395336e-001 -1.490399e-001 2.592936e-001 -5.120878e-002 -3.028501e-001 -4.883156e-001 -2.055072e-001 3.454744e-001
<VARIANCE> 25
 1.810154e+001 1.544042e+001 1.106343e+001 2.092237e+001 1.066778e+001 1.365423e+001 1.123009e+001 1.185749e+001 1.183936e+001 1.028937e+001 7.690598e+000 6.516126e+000 1.517128e+000 1.349396e+000 9.475743e-001 1.293844e+000 8.617386e-001 9.450634e-001 9.001546e-001 1.094146e+000 9.573001e-001 7.913418e-001 7.213132e-001 6.632164e-001 6.284547e-001
<GCONST> 7.483426e+001
<STATE> 4
<MEAN> 25
 7.608462e+000 6.488735e+000 5.533795e-001 -7.861412e+000 -3.531579e+000 -4.514954e+000 1.330770e+000 5.608181e+000 1.329688e+000 -4.384185e-001 -4.034916e+000 -5.668374e-001 1.933654e-001 -5.825682e-001 -8.855584e-001 -4.955541e-001 1.813447e-003 1.228015e-001 6.887845e-001 7.013666e-001 5.925525e-001 -1.934051e-001 -2.379514e-001 4.424497e-001 3.171885e-001
<VARIANCE> 25
 1.085015e+001 1.110116e+001 2.090359e+001 1.972864e+001 9.781827e+000 1.337668e+001 1.925436e+001 1.900333e+001 1.569719e+001 1.303488e+001 9.674585e+000 1.139313e+001 5.118272e-001 7.588335e-001 2.165632e+000 2.113188e+000 8.924277e-001 1.142628e+000 1.963230e+000 1.691131e+000 1.042581e+000 1.161355e+000 1.034075e+000 1.141823e+000 4.995554e-001
<GCONST> 7.901823e+001
<TRANSP> 5
 0.000000e+000 1.000000e+000 0.000000e+000 0.000000e+000 0.000000e+000
 0.000000e+000 6.526069e-001 3.473931e-001 0.000000e+000 0.000000e+000
 0.000000e+000 0.000000e+000 6.614844e-001 3.385156e-001 0.000000e+000
 0.000000e+000 0.000000e+000 0.000000e+000 7.692723e-001 2.307277e-001
 0.000000e+000 0.000000e+000 0.000000e+000 0.000000e+000 0.000000e+000
<ENDHMM>
~h "m"
<BEGINHMM>
<NUMSTATES> 5
<STATE> 2
<MEAN> 25
 3.823908e+000 5.325352e+000 4.095237e+000 6.100919e+000 2.830087e+000 3.313391e+000 3.501487e+000 3.994971e+000 4.140211e+000 2.250524e+000 -1.102459e+000 -4.334661e+000 2.296757e-001 1.471967e-001 2.087662e-001 4.092112e-001 5.319269e-001 4.667029e-001 3.586072e-001 4.107907e-001 4.119472e-001 1.944813e-001 -2.068449e-001 -5.589460e-001 1.291942e-001
<VARIANCE> 25
 7.743044e+000 6.529515e+000 7.276216e+000 7.311682e+000 6.306275e+000 9.745259e+000 7.477531e+000 7.272641e+000 1.005848e+001 7.533490e+000 7.431550e+000 9.197901e+000 1.241481e+000 7.270994e-001 7.082009e-001 1.084642e+000 1.042887e+000 1.038651e+000 7.330530e-001 1.026642e+000 1.069021e+000 7.526258e-001 7.354240e-001 9.729260e-001 4.343394e-001
<GCONST> 6.855435e+001
<STATE> 3
<MEAN> 25
 6.316320e+000 5.230021e+000 2.174428e+000 3.224128e+000 8.606617e-001 6.543932e-001 2.952014e+000 5.234818e+000 4.357320e+000 7.957405e-001 -1.712116e+000 -4.199509e+000 5.956013e-001 -2.661837e-001 -9.612105e-001 -1.543715e+000 -8.702526e-001 -9.581371e-001 -1.023078e-001 3.704428e-001 -5.585415e-001 -1.151662e+000 1.189906e-001 1.304283e+000 6.132302e-001
<VARIANCE> 25
 1.220184e+001 4.668374e+000 9.891839e+000 2.274882e+001 1.693301e+001 2.429766e+001 1.003526e+001 1.099782e+001 1.042990e+001 1.349128e+001 7.448787e+000 1.510921e+001 9.280210e-001 3.967154e-001 7.970023e-001 2.446566e+000 1.227580e+000 1.565000e+000 1.085173e+000 1.359471e+000 8.756847e-001 1.573218e+000 8.163481e-001 1.394945e+000 5.733629e-001
<GCONST> 7.640347e+001
<STATE> 4
<MEAN> 25
 6.219965e+000 3.118717e+000 -1.853161e+000 -2.020453e+000 -8.164178e-001 -2.607279e-002 3.936534e+000 6.278451e+000 1.616324e+000 -4.004634e+000 -1.513583e+000 1.771901e+000 -8.204754e-002 -4.805661e-001 -6.575301e-001 -7.048019e-001 3.110869e-001 1.419875e-001 1.662890e-001 6.253311e-002 -5.783198e-001 -4.504919e-001 5.638111e-002 9.140550e-001 1.580814e-001
<VARIANCE> 25
 3.122535e+001 1.217348e+001 1.185040e+001 2.764410e+001 1.051539e+001 1.407087e+001 8.018551e+000 2.127962e+001 7.967069e+000 2.493272e+001 1.045383e+001 1.024117e+001 4.398677e-001 4.330618e-001 6.242663e-001 1.235221e+000 1.051035e+000 9.413279e-001 9.909443e-001 1.011080e+000 8.976275e-001 1.069698e+000 7.370109e-001 1.121111e+000 2.854510e-001
<GCONST> 7.436854e+001
<TRANSP> 5
 0.000000e+000 1.000000e+000 0.000000e+000 0.000000e+000 0.000000e+000
 0.000000e+000 8.411123e-001 1.588877e-001 0.000000e+000 0.000000e+000
 0.000000e+000 0.000000e+000 7.358110e-001 2.641890e-001 0.000000e+000
 0.000000e+000 0.000000e+000 0.000000e+000 5.586965e-001 4.413036e-001
 0.000000e+000 0.000000e+000 0.000000e+000 0.000000e+000 0.000000e+000
<ENDHMM>
~h "n"
<BEGINHMM>
<NUMSTATES> 5
<STATE> 2
<MEAN> 25
 4.889095e+000 2.218827e+000 4.797869e+000 8.354234e+000 8.106765e+000 -3.633805e-001 -4.862592e+000 -3.945270e+000 -2.155340e+000 -3.032353e+000 -2.882271e+000 -1.222629e+000 2.562660e-001 5.723354e-001 1.645313e+000 2.450159e+000 1.391576e+000 1.928950e-001 -1.056889e+000 -5.162411e-001 4.177006e-001 -5.348020e-001 -9.826100e-001 -1.164653e+000 4.471808e-002
<VARIANCE> 25
 1.218342e+001 1.635434e+001 2.359695e+001 5.333478e+001 4.164437e+001 3.713912e+001 4.663875e+001 1.146615e+001 1.843131e+001 1.636331e+001 1.967632e+001 1.877427e+001 2.262750e+000 7.280406e-001 2.365074e+000 5.526404e+000 4.113143e+000 6.206253e+000 4.361930e+000 1.949201e+000 1.753535e+000 2.599919e+000 1.531755e+000 1.080493e+000 2.662153e+000
<GCONST> 9.507555e+001
<STATE> 3
<MEAN> 25
 5.168487e+000 5.575572e+000 5.604305e+000 9.384623e+000 7.502428e+000 3.875223e+000 -1.541012e+000 -3.386750e+000 -1.924210e+000 -1.504381e+000 -1.203860e+000 -9.510484e-001 -2.487712e-001 1.367052e-001 -2.181035e-002 2.628809e-002 -4.765926e-002 6.206087e-001 6.712641e-001 4.002443e-001 2.234409e-001 2.785619e-001 3.170725e-001 7.976206e-002 -3.311107e-001
<VARIANCE> 25
 4.157080e+000 4.854983e+000 7.962445e+000 8.134919e+000 9.642533e+000 1.506163e+001 1.894775e+001 9.246746e+000 1.299391e+001 8.532348e+000 9.814951e+000 1.335554e+001 1.391496e-001 4.382243e-001 3.848729e-001 8.996538e-001 8.960975e-001 1.215567e+000 1.594519e+000 7.938693e-001 8.699287e-001 9.595426e-001 9.759366e-001 6.840748e-001 2.236336e-001
<GCONST> 6.723211e+001
<STATE> 4
<MEAN> 25
 1.388402e+000 3.341045e+000 4.011634e+000 6.886589e+000 5.034890e+000 6.058352e+000 3.139702e+000 2.438659e-001 -9.400732e-002 8.750710e-001 1.396658e+000 2.780580e-001 -7.648282e-001 -8.040154e-001 -5.371352e-001 -6.826640e-001 -7.162970e-001 -3.629902e-001 7.802750e-002 2.801109e-001 2.883979e-001 2.797509e-001 1.568066e-001 -5.831268e-002 -3.019113e-001
<VARIANCE> 25
 8.577033e+000 1.282488e+001 1.220766e+001 1.476232e+001 1.139251e+001 9.186325e+000 7.294640e+000 9.728162e+000 7.854780e+000 8.719930e+000 9.172829e+000 8.727602e+000 3.144172e-001 1.086342e+000 1.233954e+000 1.277001e+000 8.888832e-001 1.252064e+000 8.048341e-001 9.519081e-001 9.207618e-001 1.052019e+000 9.671007e-001 7.365472e-001 2.104259e-001
<GCONST> 7.065527e+001
<TRANSP> 5
 0.000000e+000 1.000000e+000 0.000000e+000 0.000000e+000 0.000000e+000
 0.000000e+000 6.438538e-001 3.561462e-001 0.000000e+000 0.000000e+000
 0.000000e+000 0.000000e+000 8.554719e-001 1.445281e-001 0.000000e+000
 0.000000e+000 0.000000e+000 0.000000e+000 8.152603e-001 1.847397e-001
 0.000000e+000 0.000000e+000 0.000000e+000 0.000000e+000 0.000000e+000
<ENDHMM>
~h "o"
<BEGINHMM>
<NUMSTATES> 5
<STATE> 2
<MEAN> 25
 8.401210e+000 5.960114e+000 2.659153e+000 -2.138677e+000 -4.862103e+000 -5.846291e+000 1.665496e-001 2.852579e+000 -1.693393e+000 -4.000008e+000 -3.885810e+000 -1.103092e+000 1.058399e+000 1.499306e+000 4.675861e-001 2.711459e-002 -1.286085e+000 -1.088858e+000 -1.136227e+000 4.705941e-001 8.808334e-001 -1.775732e-001 -7.125935e-001 -7.638703e-001 -1.236537e-002
<VARIANCE> 25
 1.556417e+001 1.282590e+001 1.270354e+001 1.894638e+001 2.832396e+001 3.254732e+001 1.935345e+001 2.234516e+001 1.818601e+001 2.261659e+001 1.386776e+001 1.103783e+001 2.746746e+000 2.321670e+000 1.787849e+000 2.960091e+000 2.742614e+000 3.426008e+000 2.914928e+000 3.240478e+000 2.359351e+000 1.873600e+000 1.419054e+000 1.237800e+000 1.034185e+000
<GCONST> 9.076097e+001
<STATE> 3
<MEAN> 25
 8.067727e+000 8.041469e+000 4.603249e+000 -6.023387e-001 -5.268883e+000 -5.655102e+000 -1.730463e-001 3.783176e+000 -1.801427e-001 -4.451965e+000 -5.396678e+000 -3.876472e+000 1.887534e-002 1.014845e-001 6.348056e-002 1.272290e-001 -2.257063e-001 -1.871241e-001 -1.926089e-001 5.362552e-002 3.304631e-001 1.563582e-001 1.222663e-001 -4.066503e-002 -6.954014e-002
<VARIANCE> 25
 7.266434e+000 4.394001e+000 1.138736e+001 1.526934e+001 2.844406e+001 2.600632e+001 9.709720e+000 1.831507e+001 2.304140e+001 1.048084e+001 7.056338e+000 1.545232e+001 4.625204e-001 3.570918e-001 6.871199e-001 9.131117e-001 1.227217e+000 1.451676e+000 9.427791e-001 1.123914e+000 9.808761e-001 1.165920e+000 6.475993e-001 1.078005e+000 3.297672e-001
<GCONST> 7.356829e+001
<STATE> 4
<MEAN> 25
 6.622878e+000 8.835919e+000 5.100710e+000 1.879712e-001 -6.997416e+000 -6.590063e+000 -3.237295e+000 1.005797e+000 2.470699e+000 1.933864e+000 -3.508628e-001 -3.048969e+000 -7.160585e-001 -5.848458e-001 -3.716913e-001 1.266101e-001 4.279063e-001 6.872329e-001 2.941568e-001 -2.612432e-001 -9.751525e-002 2.532864e-001 2.806748e-001 1.237498e-001 -4.110090e-001
<VARIANCE> 25
 1.442367e+001 1.511660e+001 1.236649e+001 9.156457e+000 1.243170e+001 2.047456e+001 1.525934e+001 1.695535e+001 1.273830e+001 1.060920e+001 9.771025e+000 8.468505e+000 5.718658e-001 8.819646e-001 7.011703e-001 7.967970e-001 7.714925e-001 9.532476e-001 8.402634e-001 1.532504e+000 1.057366e+000 9.588816e-001 8.825762e-001 5.664803e-001 1.688964e-001
<GCONST> 7.269940e+001
<TRANSP> 5
 0.000000e+000 1.000000e+000 0.000000e+000 0.000000e+000 0.000000e+000
 0.000000e+000 6.876391e-001 3.123609e-001 0.000000e+000 0.000000e+000
 0.000000e+000 0.000000e+000 8.984334e-001 1.015666e-001 0.000000e+000
 0.000000e+000 0.000000e+000 0.000000e+000 9.042299e-001 9.577011e-002
 0.000000e+000 0.000000e+000 0.000000e+000 0.000000e+000 0.000000e+000
<ENDHMM>
~h "p"
<BEGINHMM>
<NUMSTATES> 5
<STATE> 2
<MEAN> 25
 -2.953716e+000 -1.340835e+000 -4.181227e-001 1.836798e+000 -1.048125e-001 2.545014e+000 1.966952e+000 3.381526e-001 9.218937e-001 1.567047e+000 1.265009e+000 2.174825e-001 -7.380355e-001 -8.026034e-001 -8.763812e-001 -9.319116e-001 -6.012094e-001 -3.362744e-001 -4.998326e-001 -6.281929e-001 -2.973624e-001 -3.161118e-002 7.288146e-002 1.964478e-001 -3.385637e-001
<VARIANCE> 25
 7.013314e+000 8.390201e+000 1.369002e+001 1.485914e+001 1.064007e+001 9.175793e+000 1.236438e+001 1.256277e+001 1.085814e+001 9.096932e+000 7.952779e+000 8.065032e+000 6.577832e-001 1.056198e+000 1.662159e+000 1.535330e+000 1.507312e+000 1.072200e+000 1.314117e+000 1.153991e+000 1.128008e+000 8.931097e-001 9.547608e-001 8.870535e-001 2.766843e-001
<GCONST> 7.374323e+001
<STATE> 3
<MEAN> 25
 -3.890326e+000 -2.593563e+000 -2.819058e+000 -3.702001e-001 -1.796701e+000 6.183538e-001 1.336732e-001 -1.401902e+000 -5.827857e-001 1.098320e+000 1.156455e+000 1.858160e-001 -9.277632e-002 -2.315647e-001 -4.705636e-001 -4.541625e-001 -4.327775e-001 -4.187241e-001 -3.940121e-001 -2.271988e-001 -1.218693e-001 4.264308e-003 -4.031651e-002 -3.966725e-002 -6.314397e-002
<VARIANCE> 25
 4.148628e+000 4.442317e+000 7.149633e+000 9.352954e+000 7.499298e+000 1.029594e+001 8.519730e+000 9.156797e+000 1.139138e+001 1.034968e+001 7.781338e+000 8.196742e+000 4.069483e-001 5.461485e-001 1.022188e+000 1.172951e+000 7.896812e-001 1.060927e+000 9.483076e-001 1.147656e+000 1.312363e+000 1.094289e+000 8.599991e-001 9.519620e-001 1.819395e-001
<GCONST> 6.773535e+001
<STATE> 4
<MEAN> 25
 -3.637002e+000 -2.637103e+000 -3.465560e+000 -9.797322e-001 -2.504463e+000 5.343231e-002 -2.708481e-001 -1.284888e+000 -3.856638e-001 1.299152e+000 9.868806e-001 2.468266e-001 6.554879e-003 1.013547e-002 4.175147e-002 4.452649e-002 9.498506e-003 -1.932383e-002 1.570611e-002 9.246628e-003 -3.331720e-002 -2.347802e-002 6.218776e-003 1.948483e-002 8.541712e-003
<VARIANCE> 25
 2.008083e+000 2.813934e+000 3.801579e+000 4.875044e+000 5.226910e+000 5.907213e+000 6.946195e+000 7.102744e+000 7.084544e+000 7.169948e+000 6.700526e+000 6.673718e+000 1.847724e-001 2.588766e-001 3.325030e-001 4.100422e-001 4.754671e-001 5.789403e-001 6.846508e-001 7.442087e-001 7.142829e-001 7.509826e-001 7.011049e-001 6.867028e-001 9.671496e-002
<GCONST> 5.496836e+001
<TRANSP> 5
 0.000000e+000 1.000000e+000 0.000000e+000 0.000000e+000 0.000000e+000
 0.000000e+000 5.692930e-001 4.307071e-001 0.000000e+000 0.000000e+000
 0.000000e+000 0.000000e+000 5.133275e-001 4.866726e-001 0.000000e+000
 0.000000e+000 0.000000e+000 0.000000e+000 9.231845e-001 7.681549e-002
 0.000000e+000 0.000000e+000 0.000000e+000 0.000000e+000 0.000000e+000
<ENDHMM>
~h "r"
<BEGINHMM>
<NUMSTATES> 5
<STATE> 2
<MEAN> 25
 -3.488456e-001 -5.261894e-001 -1.450403e+000 -2.211265e-001 1.138949e+000 2.425017e+000 1.024794e+000 -8.583679e-001 -2.000701e+000 -7.650385e-001 3.495869e-001 1.080761e+000 1.075734e+000 6.068051e-001 4.637228e-001 4.342223e-001 5.441925e-001 1.741647e-001 2.432697e-002 -3.480655e-002 -4.578572e-001 -6.800724e-001 -2.444289e-001 1.983812e-001 6.799411e-001
<VARIANCE> 25
 1.865588e+001 1.536518e+001 1.766757e+001 1.425370e+001 1.489186e+001 1.239153e+001 1.289452e+001 1.105487e+001 1.218451e+001 1.341540e+001 8.886759e+000 8.588474e+000 1.908459e+000 1.600963e+000 1.803167e+000 1.321872e+000 1.611974e+000 1.539787e+000 1.575691e+000 1.341970e+000 1.302687e+000 1.534255e+000 1.214079e+000 1.013925e+000 8.756709e-001
<GCONST> 8.115395e+001
<STATE> 3
<MEAN> 25
 7.715935e+000 4.150956e+000 4.037711e-002 2.113736e+000 1.075452e+000 -1.290898e-001 1.320522e+000 8.920800e-001 -3.399743e+000 -5.951827e+000 -3.074335e+000 1.386244e+000 5.463312e-001 1.861713e-001 -1.123140e-001 -4.698235e-002 -7.010546e-001 -7.357121e-001 1.991861e-001 6.600237e-001 1.984793e-001 -5.562286e-001 -4.870941e-001 -3.235764e-001 2.688713e-001
<VARIANCE> 25
 9.939118e+000 3.280947e+000 1.125952e+001 8.015261e+000 7.801813e+000 1.121637e+001 8.202273e+000 9.812923e+000 1.014011e+001 1.280177e+001 7.385609e+000 5.837350e+000 9.685281e-001 4.964594e-001 7.038925e-001 4.999815e-001 8.469224e-001 1.287440e+000 8.447447e-001 1.147655e+000 8.494748e-001 1.279224e+000 8.103562e-001 7.610963e-001 5.474753e-001
<GCONST> 6.870020e+001
<STATE> 4
<MEAN> 25
 8.763004e+000 6.687827e+000 3.676959e+000 1.125609e+000 -4.610214e+000 -5.398413e+000 8.686442e-001 4.984886e+000 -1.033497e+000 -5.754635e+000 -4.024044e+000 -3.647099e+000 -2.583424e-001 8.491504e-001 1.014060e+000 -2.706398e-001 -5.993023e-001 -5.296595e-001 -8.645832e-001 -4.046953e-001 3.816649e-001 1.497264e+000 9.038736e-001 -8.971332e-001 -2.912364e-001
<VARIANCE> 25
 6.788553e+000 6.636349e+000 1.207738e+001 7.131308e+000 9.398677e+000 1.370526e+001 5.594418e+000 1.634176e+001 7.974077e+000 1.806250e+001 1.116438e+001 1.030107e+001 3.518123e-001 4.991980e-001 7.311065e-001 3.913475e-001 8.387491e-001 1.028912e+000 6.663070e-001 1.858112e+000 6.341703e-001 1.466393e+000 1.012056e+000 1.007297e+000 2.753564e-001
<GCONST> 6.903178e+001
<TRANSP> 5
 0.000000e+000 1.000000e+000 0.000000e+000 0.000000e+000 0.000000e+000
 0.000000e+000 8.318858e-001 1.681142e-001 0.000000e+000 0.000000e+000
 0.000000e+000 0.000000e+000 8.214972e-001 1.785028e-001 0.000000e+000
 0.000000e+000 0.000000e+000 0.000000e+000 6.845664e-001 3.154335e-001
 0.000000e+000 0.000000e+000 0.000000e+000 0.000000e+000 0.000000e+000
<ENDHMM>
~h "s"
<BEGINHMM>
<NUMSTATES> 5
<STATE> 2
<MEAN> 25
 -2.247671e+000 -4.068769e+000 2.895365e+000 -2.666408e+000 -1.239183e+000 3.667690e-001 3.680000e+000 -7.441570e-001 -3.420130e+000 9.539806e-001 1.099166e+000 2.046210e+000 -2.495546e+000 -2.525485e+000 3.176110e+000 -9.023497e-001 3.551658e-001 -6.747780e-001 1.276870e+000 -4.338315e-001 -6.830257e-001 3.712628e-001 2.001879e-001 5.494224e-002 1.182087e+000
<VARIANCE> 25
 2.855499e+001 3.111245e+001 3.711266e+001 1.947237e+001 1.639173e+001 1.425079e+001 1.891853e+001 1.480784e+001 2.081151e+001 1.485330e+001 1.441146e+001 1.095977e+001 4.699814e+000 2.207965e+000 3.789333e+000 1.793068e+000 1.655334e+000 2.291284e+000 2.228853e+000 2.506931e+000 3.390321e+000 1.200643e+000 1.203678e+000 1.777682e+000 1.019142e+000
<GCONST> 9.069700e+001
<STATE> 3
<MEAN> 25
 -1.238407e+001 -1.207970e+001 1.315235e+001 -8.241068e+000 2.399637e+000 -5.523836e+000 8.718574e+000 -2.271092e+000 -4.184309e+000 1.295465e+000 2.404634e+000 2.080808e+000 -1.233423e+000 -7.163471e-001 9.015240e-001 -5.637504e-001 5.154517e-001 -8.150896e-001 7.571691e-001 -2.075440e-001 -3.354513e-002 -2.290225e-001 3.001521e-001 -9.905243e-002 9.722500e-001
<VARIANCE> 25
 1.011773e+001 1.469443e+001 1.121451e+001 2.582059e+001 1.986246e+001 1.956593e+001 2.373270e+001 2.082274e+001 3.720579e+001 1.457428e+001 1.077580e+001 1.192697e+001 1.802445e+000 1.184526e+000 1.759528e+000 1.224148e+000 1.169983e+000 1.342867e+000 1.456528e+000 1.216725e+000 1.393855e+000 1.073771e+000 1.124227e+000 9.696897e-001 3.792910e-001
<GCONST> 8.200432e+001
<STATE> 4
<MEAN> 25
 -1.214452e+001 -1.040779e+001 1.302378e+001 -8.045127e+000 2.766584e+000 -5.743293e+000 9.143928e+000 -2.330768e+000 -3.398432e+000 1.291251e+000 2.477381e+000 5.027108e-001 1.072071e+000 7.100499e-001 -9.122573e-001 4.566391e-001 -2.895420e-001 5.333439e-001 -6.220493e-001 2.031159e-001 1.050866e-001 -9.315737e-002 -2.353168e-001 -4.702601e-002 -5.616665e-001
<VARIANCE> 25
 3.223720e+001 1.546068e+001 3.127829e+001 2.466531e+001 2.301140e+001 2.239591e+001 2.097534e+001 1.478569e+001 2.453563e+001 1.727966e+001 1.017852e+001 1.488313e+001 2.599523e+000 2.366735e+000 2.607841e+000 1.379046e+000 1.426234e+000 1.880273e+000 1.781215e+000 1.205160e+000 1.490741e+000 1.360117e+000 1.058757e+000 1.388301e+000 7.883459e-001
<GCONST> 8.756003e+001
<TRANSP> 5
 0.000000e+000 1.000000e+000 0.000000e+000 0.000000e+000 0.000000e+000
 0.000000e+000 6.933668e-001 3.066331e-001 0.000000e+000 0.000000e+000
 0.000000e+000 0.000000e+000 8.187934e-001 1.812066e-001 0.000000e+000
 0.000000e+000 0.000000e+000 0.000000e+000 9.202190e-001 7.978097e-002
 0.000000e+000 0.000000e+000 0.000000e+000 0.000000e+000 0.000000e+000
<ENDHMM>
~h "t"
<BEGINHMM>
<NUMSTATES> 5
<STATE> 2
<MEAN> 25
 -2.624835e+000 -1.039068e+000 -1.209288e+000 8.436104e-001 -7.705957e-001 1.636204e+000 7.511954e-001 -3.991191e-001 -2.628340e-002 1.067361e+000 9.435715e-001 -2.707935e-002 -6.999023e-001 -6.389011e-001 -1.054515e+000 -7.550009e-001 -6.367029e-001 -3.762895e-001 -5.564875e-001 -4.693006e-001 8.088852e-002 1.391953e-001 7.677295e-003 -4.219108e-002 -5.005592e-001
<VARIANCE> 25
 3.482197e+000 3.431073e+000 6.499890e+000 9.159135e+000 6.441148e+000 9.306933e+000 8.534948e+000 8.700011e+000 9.589596e+000 9.167982e+000 8.082832e+000 7.019379e+000 8.842002e-001 7.067397e-001 1.024993e+000 1.519313e+000 8.827971e-001 9.305287e-001 9.375688e-001 1.196124e+000 1.125028e+000 1.150188e+000 1.078277e+000 8.890778e-001 4.542165e-001
<GCONST> 6.874686e+001
<STATE> 3
<MEAN> 25
 -3.404978e+000 -2.422861e+000 -3.234879e+000 -7.710462e-001 -2.114860e+000 6.191604e-001 -4.097208e-001 -1.352124e+000 -3.617664e-001 1.142290e+000 9.854585e-001 4.234616e-001 -2.473833e-002 -1.212641e-001 -1.906529e-002 2.389171e-002 1.108001e-002 -8.871938e-002 -3.653706e-002 1.995591e-002 -2.038892e-002 -3.300568e-002 1.924424e-003 1.752120e-002 4.383647e-002
<VARIANCE> 25
 2.784512e+000 2.665177e+000 5.486263e+000 6.761046e+000 6.089352e+000 6.897156e+000 6.504539e+000 7.083967e+000 7.751782e+000 7.662266e+000 7.646030e+000 7.431565e+000 1.784855e-001 2.593863e-001 3.902645e-001 5.195021e-001 5.239695e-001 7.395442e-001 6.787172e-001 7.478523e-001 8.383427e-001 8.191426e-001 7.903506e-001 7.438619e-001 1.793597e-001
<GCONST> 5.833682e+001
<STATE> 4
<MEAN> 25
 4.282283e-001 -3.710687e+000 7.739541e-001 1.707776e+000 -1.338201e-001 -4.397036e-001 6.474257e-001 -7.217344e-001 -3.149432e+000 -2.003664e+000 3.411200e-001 -2.158204e-001 2.026966e+000 1.059770e+000 2.348715e+000 6.079030e-001 7.783412e-001 -2.586467e-001 -4.044670e-001 5.253083e-001 -5.341797e-001 -1.700615e+000 -1.213967e+000 -7.615439e-001 1.859531e+000
<VARIANCE> 25
 2.353402e+001 2.709685e+001 2.787740e+001 2.475918e+001 1.696354e+001 1.918481e+001 2.480427e+001 1.795878e+001 2.971734e+001 2.577591e+001 1.677443e+001 1.306212e+001 1.423671e+000 6.339903e+000 3.618635e+000 4.057956e+000 3.118364e+000 2.388330e+000 3.787281e+000 2.239272e+000 4.096527e+000 2.567903e+000 2.899321e+000 2.221515e+000 1.779475e+000
<GCONST> 9.668162e+001
<TRANSP> 5
 0.000000e+000 1.000000e+000 0.000000e+000 0.000000e+000 0.000000e+000
 0.000000e+000 5.877281e-001 4.122719e-001 0.000000e+000 0.000000e+000
 0.000000e+000 0.000000e+000 8.887529e-001 1.112470e-001 0.000000e+000
 0.000000e+000 0.000000e+000 0.000000e+000 7.150732e-001 2.849268e-001
 0.000000e+000 0.000000e+000 0.000000e+000 0.000000e+000 0.000000e+000
<ENDHMM>
~h "u"
<BEGINHMM>
<NUMSTATES> 5
<STATE> 2
<MEAN> 25
 7.776130e+000 8.956405e+000 8.331906e+000 2.867166e+000 -2.834083e+000 -3.356203e+000 -3.476253e+000 1.676206e+000 -6.760139e-002 -4.300355e+000 -4.454844e+000 -4.848897e+000 5.148516e-001 1.180391e+000 8.222558e-001 5.181367e-002 -4.354652e-001 -6.591814e-001 -1.143536e+000 -4.525068e-001 3.078192e-001 4.194911e-001 -1.665340e-002 -4.178543e-001 1.860063e-002
<VARIANCE> 25
 7.831110e+000 1.255387e+001 9.790139e+000 9.531923e+000 1.394920e+001 2.232153e+001 1.643539e+001 2.124770e+001 1.431581e+001 2.841826e+001 2.444901e+001 1.268622e+001 1.635422e+000 2.748957e+000 1.818739e+000 1.436778e+000 1.526835e+000 2.096565e+000 2.123651e+000 2.289937e+000 1.699709e+000 2.567134e+000 2.823604e+000 1.647098e+000 7.096046e-001
<GCONST> 8.628930e+001
<STATE> 3
<MEAN> 25
 5.828682e+000 9.718575e+000 8.713298e+000 4.885449e+000 -1.435058e+000 -2.873266e+000 -5.221951e+000 -2.940502e+000 -9.839366e-001 2.815039e-001 -5.749048e-005 -2.727167e+000 -8.506950e-001 -8.294446e-001 -7.224982e-001 1.999812e-001 5.361758e-001 6.914824e-001 5.742370e-001 -1.963183e-001 -7.604640e-003 2.866197e-001 2.985772e-001 4.925683e-001 -4.853381e-001
<VARIANCE> 25
 6.323666e+000 7.433484e+000 8.032732e+000 7.029025e+000 9.320555e+000 1.425777e+001 1.236760e+001 1.269038e+001 1.086961e+001 1.107853e+001 8.511101e+000 1.002392e+001 7.230032e-001 1.060620e+000 8.826382e-001 7.077194e-001 7.643403e-001 1.114777e+000 1.076356e+000 1.367189e+000 1.009404e+000 1.155045e+000 1.023715e+000 8.365946e-001 1.956946e-001
<GCONST> 7.087110e+001
<STATE> 4
<MEAN> 25
 -1.838050e+000 4.485018e-001 3.333346e-001 2.219259e+000 -3.015078e-001 9.638253e-001 -6.426480e-001 -1.467059e+000 -3.106962e-001 6.292747e-001 7.102656e-002 -1.179729e+000 -5.913692e-001 -7.554097e-001 -7.396594e-001 -4.114859e-001 -1.341240e-001 1.133652e-001 2.584113e-001 1.885409e-001 1.365252e-001 1.622977e-001 8.366052e-002 9.613626e-002 -2.708940e-001
<VARIANCE> 25
 8.530713e+000 9.071170e+000 1.159371e+001 9.622936e+000 7.093670e+000 7.781089e+000 7.849052e+000 8.162841e+000 9.301020e+000 8.990823e+000 8.139832e+000 7.118924e+000 4.240947e-001 6.632801e-001 7.866665e-001 7.204351e-001 6.889628e-001 7.911838e-001 8.827376e-001 9.705963e-001 9.481897e-001 8.642841e-001 7.761894e-001 6.851184e-001 1.189381e-001
<GCONST> 6.610975e+001
<TRANSP> 5
 0.000000e+000 1.000000e+000 0.000000e+000 0.000000e+000 0.000000e+000
 0.000000e+000 7.774308e-001 2.225692e-001 0.000000e+000 0.000000e+000
 0.000000e+000 0.000000e+000 8.412378e-001 1.587622e-001 0.000000e+000
 0.000000e+000 0.000000e+000 0.000000e+000 8.248389e-001 1.751611e-001
 0.000000e+000 0.000000e+000 0.000000e+000 0.000000e+000 0.000000e+000
<ENDHMM>
~h "ng"
<BEGINHMM>
<NUMSTATES> 5
<STATE> 2
<MEAN> 25
 5.483725e+000 5.719233e+000 2.920570e+000 3.591016e+000 -3.072238e-002 -8.701731e-002 -2.037340e-001 2.158335e+000 4.001229e+000 2.430196e+000 5.122418e-001 -5.288623e-001 -2.288879e-001 -2.270808e-001 -7.452430e-002 -1.292449e-002 1.319050e-001 1.529292e-001 1.643093e-001 1.065177e-001 -2.690796e-002 -1.511462e-001 1.122083e-001 3.544463e-001 -8.088222e-002
<VARIANCE> 25
 7.938375e+000 4.649840e+000 6.231865e+000 1.019355e+001 6.197948e+000 9.779491e+000 1.000167e+001 6.909149e+000 9.468721e+000 9.638234e+000 6.152565e+000 5.946550e+000 3.092760e-001 3.672591e-001 7.014707e-001 1.535491e+000 5.141402e-001 5.997925e-001 1.129747e+000 8.887373e-001 9.804578e-001 1.387839e+000 7.302079e-001 9.068938e-001 2.094882e-001
<GCONST> 6.521986e+001
<STATE> 3
<MEAN> 25
 4.008336e+000 4.124949e+000 9.043700e-001 2.438430e+000 1.130325e+000 3.196574e+000 2.653908e+000 2.188005e+000 1.888174e+000 8.842339e-001 1.842092e+000 1.928829e+000 -3.791549e-001 -5.272306e-001 -5.077420e-001 -3.803785e-001 -3.856981e-003 8.577661e-002 1.652643e-001 8.824061e-002 -1.502315e-001 -1.854266e-001 -6.859680e-002 1.307311e-001 -1.195344e-001
<VARIANCE> 25
 1.608233e+001 9.254345e+000 8.357536e+000 1.491611e+001 7.508686e+000 9.776686e+000 8.934420e+000 1.055478e+001 9.191036e+000 1.647018e+001 9.352271e+000 9.908788e+000 4.136823e-001 5.246648e-001 8.098073e-001 9.130908e-001 6.529158e-001 6.420448e-001 7.282194e-001 8.985078e-001 7.871419e-001 1.046444e+000 7.322321e-001 8.693474e-001 2.132316e-001
<GCONST> 6.885262e+001
<STATE> 4
<MEAN> 25
 -1.692640e+000 -1.327341e+000 -3.721389e+000 -9.039180e-001 -1.555696e+000 1.149574e+000 1.243700e+000 8.306409e-001 6.604466e-001 9.658997e-001 1.057713e+000 1.013682e+000 -1.658498e-001 -3.025066e-001 -2.817621e-001 -3.306615e-001 -2.044410e-001 -2.127314e-001 -1.330716e-001 -1.165912e-001 -2.341747e-001 -1.764816e-001 -4.067323e-002 1.255686e-001 -1.217545e-002
<VARIANCE> 25
 1.458848e+001 6.753598e+000 1.297781e+001 1.580605e+001 1.145450e+001 1.028196e+001 9.876743e+000 1.129005e+001 1.197906e+001 1.546371e+001 9.575933e+000 1.156822e+001 4.326338e-001 3.901295e-001 1.070447e+000 1.500187e+000 9.945807e-001 1.066491e+000 9.709696e-001 9.172964e-001 1.427575e+000 1.682253e+000 1.050450e+000 1.069430e+000 2.599597e-001
<GCONST> 7.355582e+001
<TRANSP> 5
 0.000000e+000 1.000000e+000 0.000000e+000 0.000000e+000 0.000000e+000
 0.000000e+000 8.262148e-001 1.737852e-001 0.000000e+000 0.000000e+000
 0.000000e+000 0.000000e+000 6.850778e-001 3.149222e-001 0.000000e+000
 0.000000e+000 0.000000e+000 0.000000e+000 7.420312e-001 2.579687e-001
 0.000000e+000 0.000000e+000 0.000000e+000 0.000000e+000 0.000000e+000
<ENDHMM>
~h "ny"
<BEGINHMM>
<NUMSTATES> 5
<STATE> 2
<MEAN> 25
 -4.101921e+000 -3.171252e+000 -3.636634e+000 -1.140213e+000 -2.463658e+000 5.441689e-001 1.113661e-002 -1.530506e+000 -2.767462e-001 1.438254e+000 1.171007e+000 3.578470e-001 6.497226e-003 6.532162e-002 2.153180e-002 5.439543e-002 2.153458e-002 -3.010601e-002 3.880907e-003 5.523764e-002 3.353688e-002 2.277915e-002 3.773447e-002 1.286484e-002 -2.219466e-002
<VARIANCE> 25
 2.199516e+000 2.641644e+000 4.209655e+000 5.201375e+000 6.278320e+000 5.867935e+000 6.787254e+000 6.426024e+000 7.073665e+000 7.197532e+000 7.662790e+000 7.385806e+000 1.131131e-001 1.760545e-001 3.551968e-001 4.583122e-001 4.930195e-001 5.736104e-001 6.966065e-001 6.702985e-001 7.516928e-001 7.353728e-001 7.161760e-001 6.903445e-001 5.724452e-002
<GCONST> 5.422711e+001
<STATE> 3
<MEAN> 25
 -2.035958e+000 4.622029e-001 1.000248e+000 3.240136e+000 1.664623e+000 2.627660e+000 1.314721e+000 4.214334e-001 9.980107e-001 1.590858e+000 8.312864e-001 -1.311921e+000 1.024658e+000 1.340796e+000 1.852214e+000 1.343860e+000 1.320843e+000 5.934306e-001 1.270757e-001 3.953195e-001 2.578490e-001 -2.124334e-001 -2.041956e-001 -5.973191e-001 6.381675e-001
<VARIANCE> 25
 1.349609e+001 1.189355e+001 1.883888e+001 1.395745e+001 1.114317e+001 1.189505e+001 9.347449e+000 6.837407e+000 9.445998e+000 8.271246e+000 6.753747e+000 7.919893e+000 8.180769e-001 1.022721e+000 1.745218e+000 1.148742e+000 1.225704e+000 1.507048e+000 1.435085e+000 8.713473e-001 8.318989e-001 9.669271e-001 7.644571e-001 6.698075e-001 2.574805e-001
<GCONST> 7.309012e+001
<STATE> 4
<MEAN> 25
 5.461482e+000 1.117992e+000 5.552330e+000 3.433064e+000 8.536287e+000 -2.160408e+000 -7.498556e+000 -1.096317e+000 1.546568e+000 -9.035590e-001 2.016640e+000 6.113507e-001 8.595616e-001 -3.172728e-001 -7.371452e-001 -1.212290e+000 3.230974e-001 -3.561490e-001 -3.251283e-001 2.848542e-002 -5.082600e-001 -3.015136e-001 2.964920e-001 9.136590e-001 9.762859e-001
<VARIANCE> 25
 1.219372e+001 1.834657e+001 3.453699e+001 3.465914e+001 1.236923e+001 2.792340e+001 4.536296e+001 2.192377e+001 1.689573e+001 1.195469e+001 1.504034e+001 2.835312e+001 7.291747e-001 1.869630e+000 4.492449e+000 2.690096e+000 2.531820e+000 3.961408e+000 9.523612e+000 3.112854e+000 2.522880e+000 1.832870e+000 1.559324e+000 2.052418e+000 1.228449e+000
<GCONST> 9.395251e+001
<TRANSP> 5
 0.000000e+000 1.000000e+000 0.000000e+000 0.000000e+000 0.000000e+000
 0.000000e+000 9.263389e-001 7.366107e-002 0.000000e+000 0.000000e+000
 0.000000e+000 0.000000e+000 7.370075e-001 2.629924e-001 0.000000e+000
 0.000000e+000 0.000000e+000 0.000000e+000 8.998576e-001 1.001423e-001
 0.000000e+000 0.000000e+000 0.000000e+000 0.000000e+000 0.000000e+000
<ENDHMM>
~h "sp"
<BEGINHMM>
<NUMSTATES> 3
<STATE> 2
~s "silst"
<TRANSP> 3
 0.000000e+000 5.940807e-001 4.059193e-001
 0.000000e+000 9.408761e-001 5.912390e-002
 0.000000e+000 0.000000e+000 0.000000e+000
<ENDHMM>
~h "sil"
<BEGINHMM>
<NUMSTATES> 5
<STATE> 2
<MEAN> 25
 -3.652803e+000 -2.692134e+000 -4.010930e+000 -1.865021e+000 -2.947147e+000 -1.628301e-002 -5.631546e-001 -1.651415e+000 -5.529372e-001 1.340509e+000 9.675825e-001 3.226668e-001 -3.245425e-002 1.782977e-002 3.973675e-002 3.746487e-002 1.500942e-002 -6.003301e-003 -1.470368e-002 1.134958e-002 2.978113e-002 1.904245e-002 6.658291e-003 1.463791e-003 -2.753066e-002
<VARIANCE> 25
 1.389473e+000 1.979244e+000 3.167089e+000 3.915054e+000 4.895672e+000 5.735937e+000 6.014721e+000 6.673820e+000 6.914543e+000 6.998081e+000 6.758757e+000 6.760682e+000 7.328866e-002 1.459036e-001 2.410908e-001 3.405110e-001 3.985052e-001 4.987862e-001 5.650018e-001 6.222190e-001 6.702291e-001 6.931207e-001 6.784567e-001 6.773363e-001 3.322293e-002
<GCONST> 4.955716e+001
<STATE> 3
~s "silst"
<STATE> 4
<MEAN> 25
 -4.195723e+000 -3.915248e+000 -4.561765e+000 -2.286678e+000 -2.663551e+000 4.317708e-001 -2.149571e-001 -8.847089e-001 3.442021e-001 1.372664e+000 1.033411e+000 3.373680e-002 4.305712e-001 -1.200169e-001 -4.561748e-001 -6.844320e-001 -3.691806e-001 -5.041936e-002 -3.296274e-003 -1.034366e-001 -1.886851e-001 -1.683944e-001 2.438705e-002 7.601688e-004 3.506387e-001
<VARIANCE> 25
 4.683392e+000 4.767057e+000 1.241314e+001 1.307089e+001 1.040416e+001 8.645105e+000 9.961903e+000 9.291620e+000 8.753232e+000 9.346782e+000 8.269456e+000 8.420719e+000 4.392893e-001 4.953511e-001 1.190592e+000 1.320377e+000 9.312270e-001 8.666271e-001 1.030374e+000 9.907680e-001 9.935986e-001 1.008283e+000 8.249708e-001 8.486776e-001 2.038145e-001
<GCONST> 6.860495e+001
<TRANSP> 5
 0.000000e+000 1.000000e+000 0.000000e+000 0.000000e+000 0.000000e+000
 0.000000e+000 9.466497e-001 2.816611e-002 2.518419e-002 0.000000e+000
 0.000000e+000 0.000000e+000 9.511162e-001 4.888377e-002 0.000000e+000
 0.000000e+000 2.466286e-001 0.000000e+000 5.889360e-001 1.644354e-001
 0.000000e+000 0.000000e+000 0.000000e+000 0.000000e+000 0.000000e+000
<ENDHMM>
