~o
<STREAMINFO> 1 25
<VECSIZE> 25<NULLD><MFCC_D_N_Z_0><DIAGC>
~s "silst"
<MEAN> 25
 -7.127487e+000 -4.627215e+000 -2.886849e+000 1.066069e+000 -4.570750e-001 1.494705e-001 2.404837e-001 -2.739857e-002 1.509732e+000 1.945794e+000 7.099790e-001 -2.774575e-001 -3.712171e-002 -3.580593e-002 -2.735049e-002 -1.644915e-002 -1.426734e-002 -1.529401e-002 -7.827381e-003 8.338149e-003 1.267004e-002 9.523133e-003 1.418127e-002 1.108306e-002 -1.844143e-002
<VARIANCE> 25
 1.358793e+000 1.741909e+000 2.656339e+000 3.862306e+000 4.402604e+000 5.111873e+000 5.962515e+000 6.668754e+000 7.150931e+000 6.488278e+000 6.295600e+000 5.964703e+000 6.806638e-002 1.214324e-001 2.199472e-001 3.158666e-001 4.040556e-001 5.027831e-001 6.027072e-001 6.575245e-001 7.056855e-001 6.911046e-001 6.712403e-001 6.138589e-001 1.992014e-002
<GCONST> 4.789380e+001
~h "b"
<BEGINHMM>
<NUMSTATES> 5
<STATE> 2
<MEAN> 25
 -3.880610e+000 -1.970083e+000 -1.551569e+000 7.611439e-001 -3.791290e-001 1.032361e+000 7.199170e-001 -5.260813e-001 -1.935519e-001 6.837016e-002 -5.953412e-001 -1.468211e+000 -3.334157e-001 -2.268174e-001 -4.175436e-002 1.913541e-001 1.828369e-001 5.718429e-002 2.658198e-002 -5.785660e-002 -6.504979e-002 3.734975e-003 3.580648e-002 1.033984e-001 -1.852588e-001
<VARIANCE> 25
 4.619193e+000 7.941376e+000 1.694379e+001 1.766839e+001 7.286819e+000 8.134171e+000 1.000677e+001 1.251326e+001 1.566188e+001 9.299684e+000 9.288984e+000 1.352205e+001 2.909722e-001 3.653607e-001 6.627163e-001 7.242621e-001 5.179762e-001 5.889183e-001 7.737796e-001 9.260530e-001 1.157140e+000 8.725114e-001 6.246886e-001 6.676755e-001 7.894484e-002
<GCONST> 6.607758e+001
<STATE> 3
<MEAN> 25
 -6.379656e+000 -3.957805e+000 -2.180316e+000 1.938794e+000 7.057104e-001 1.108256e+000 8.806242e-002 3.604522e-002 1.682942e+000 1.576871e+000 2.734953e-001 -7.040231e-001 -9.693298e-003 8.846063e-003 3.870369e-002 7.515664e-002 7.788848e-002 6.040176e-002 2.583648e-002 6.016817e-002 1.308734e-001 9.570764e-002 5.607908e-002 3.913406e-002 -6.595110e-003
<VARIANCE> 25
 1.755182e+000 2.795957e+000 3.570017e+000 4.742025e+000 5.035828e+000 5.421768e+000 5.931584e+000 7.124416e+000 7.665429e+000 7.521111e+000 7.034667e+000 6.659055e+000 8.881246e-002 1.776775e-001 2.749200e-001 4.287231e-001 5.230919e-001 6.094580e-001 6.826508e-001 7.654245e-001 7.848020e-001 7.569939e-001 7.389989e-001 7.717758e-001 2.064490e-002
<GCONST> 5.227674e+001
<STATE> 4
<MEAN> 25
 1.971206e-001 3.948133e+000 5.972342e+000 8.425923e+000 5.351266e+000 3.838543e+000 1.929829e+000 9.164223e-001 2.149922e+000 1.948898e+000 2.721081e-001 -1.396374e+000 1.130755e+000 6.968167e-001 3.766302e-001 1.016701e-001 9.397175e-002 5.394627e-002 5.907458e-003 -2.578799e-001 -3.963581e-001 -1.789925e-001 -3.290691e-002 -3.705118e-002 6.587120e-001
<VARIANCE> 25
 1.435132e+001 2.061541e+001 2.271214e+001 1.652907e+001 1.046291e+001 8.320986e+000 9.495955e+000 7.435464e+000 8.616294e+000 6.445938e+000 6.256069e+000 6.340135e+000 1.100466e+000 2.360568e+000 3.210217e+000 3.067814e+000 1.914365e+000 1.301060e+000 1.043602e+000 9.926510e-001 1.123908e+000 7.622742e-001 7.938429e-001 7.138756e-001 4.956559e-001
<GCONST> 7.675151e+001
<TRANSP> 5
 0.000000e+000 1.000000e+000 0.000000e+000 0.000000e+000 0.000000e+000
 0.000000e+000 7.940994e-001 2.059006e-001 0.000000e+000 0.000000e+000
 0.000000e+000 0.000000e+000 9.198951e-001 8.010497e-002 0.000000e+000
 0.000000e+000 0.000000e+000 0.000000e+000 8.908085e-001 1.091915e-001
 0.000000e+000 0.000000e+000 0.000000e+000 0.000000e+000 0.000000e+000
<ENDHMM>
~h "d"
<BEGINHMM>
<NUMSTATES> 5
<STATE> 2
<MEAN> 25
 1.561737e+000 1.339194e+000 9.373611e+000 5.558651e+000 6.413795e+000 3.644160e+000 -2.423621e+000 -2.104741e+000 -6.206709e-001 -9.349281e-001 -1.746614e+000 -2.154223e+000 7.358978e-001 2.280000e-002 6.176435e-001 8.770505e-002 6.150066e-001 -8.885964e-002 -1.379362e+000 -4.653877e-001 -3.267979e-001 -6.241290e-001 -1.424814e-001 -1.872390e-002 7.619193e-001
<VARIANCE> 25
 2.009946e+001 2.918456e+001 4.437595e+001 3.747456e+001 2.947970e+001 2.255293e+001 4.928699e+001 3.152879e+001 2.260989e+001 1.747015e+001 2.510637e+001 1.900468e+001 2.150548e+000 5.285153e+000 4.162959e+000 6.411270e+000 3.849422e+000 2.946751e+000 4.857073e+000 3.859320e+000 2.593649e+000 2.191714e+000 2.696396e+000 1.739888e+000 2.680543e+000
<GCONST> 1.010764e+002
<STATE> 3
<MEAN> 25
 3.516232e+000 6.383632e+000 1.115763e+001 9.795808e+000 7.503673e+000 2.043681e+000 -5.458086e+000 -6.073146e-001 1.988150e+000 -2.038141e+000 -2.896594e+000 -4.104780e+000 1.209212e-002 3.518967e-001 -4.287608e-001 -1.668628e-001 -6.963835e-001 -1.093954e-001 8.962594e-001 2.408438e-001 2.885108e-001 6.247370e-001 4.747211e-001 2.643062e-001 -2.945365e-001
<VARIANCE> 25
 4.378182e+000 4.025190e+000 1.169905e+001 1.384391e+001 1.645471e+001 1.205197e+001 3.409871e+001 8.118252e+000 1.227606e+001 1.380298e+001 1.374280e+001 1.299981e+001 1.967449e-001 2.640274e-001 8.957720e-001 7.504475e-001 1.411735e+000 7.994837e-001 2.689136e+000 1.075590e+000 1.216596e+000 1.053236e+000 7.947997e-001 6.341680e-001 2.059864e-001
<GCONST> 7.094597e+001
<STATE> 4
<MEAN> 25
 4.329171e+000 6.869258e+000 6.953220e+000 7.452985e+000 4.085220e+000 1.563684e+000 -1.712456e+000 -2.401107e+000 6.420892e-002 1.032778e+000 1.589917e+000 -8.867526e-002 -2.386988e-001 -5.045063e-002 -2.712292e-001 1.254073e-001 1.030428e-001 4.646215e-001 1.124650e+000 5.312120e-001 2.218935e-001 2.687405e-003 -3.010684e-001 -2.370441e-001 -2.393703e-001
<VARIANCE> 25
 1.126166e+001 3.682860e+000 1.393888e+001 2.345059e+001 5.159749e+000 7.878105e+000 2.053359e+001 2.004973e+001 1.717405e+001 1.079607e+001 1.580011e+001 2.155062e+001 1.796098e-001 2.146984e-001 5.601439e-001 5.448705e-001 8.614843e-001 5.689164e-001 1.878294e+000 6.969156e-001 8.420200e-001 8.359437e-001 1.037331e+000 6.614527e-001 1.044165e-001
<GCONST> 6.836657e+001
<TRANSP> 5
 0.000000e+000 1.000000e+000 0.000000e+000 0.000000e+000 0.000000e+000
 0.000000e+000 8.438299e-001 1.561701e-001 0.000000e+000 0.000000e+000
 0.000000e+000 0.000000e+000 8.338691e-001 1.661309e-001 0.000000e+000
 0.000000e+000 0.000000e+000 0.000000e+000 6.004692e-001 3.995309e-001
 0.000000e+000 0.000000e+000 0.000000e+000 0.000000e+000 0.000000e+000
<ENDHMM>
~h "f"
<BEGINHMM>
<NUMSTATES> 5
<STATE> 2
<MEAN> 25
 -2.227942e+000 -1.070701e+001 -4.940681e+000 -4.026388e+000 4.032907e+000 3.323794e+000 7.697500e-001 -6.960026e+000 -4.387372e+000 -1.390633e+000 2.961018e+000 2.428530e+000 1.192430e-001 2.340124e-001 3.114858e-001 1.459209e-001 8.020597e-002 -1.812957e-001 -2.948183e-001 1.594376e-002 5.870756e-002 -2.208594e-001 -2.169970e-001 -1.171292e-001 7.487483e-002
<VARIANCE> 25
 1.040492e+001 1.608487e+001 1.235975e+001 2.772669e+001 1.686833e+001 1.397304e+001 2.166805e+001 1.562050e+001 1.527769e+001 1.999589e+001 1.175801e+001 1.289908e+001 1.778832e+000 5.244213e+000 3.280691e+000 7.330681e+000 2.687851e+000 1.469674e+000 3.310799e+000 1.571429e+000 2.294474e+000 2.490166e+000 1.784808e+000 2.318144e+000 4.070241e-001
<GCONST> 8.963474e+001
<STATE> 3
<MEAN> 25
 5.371938e+000 4.423576e+000 9.108332e+000 1.367204e+001 1.096644e+001 -2.912501e-001 -1.170469e+001 -5.468956e+000 -1.614249e+000 -5.725883e+000 -6.697743e+000 -5.721257e+000 2.248779e-001 1.662562e+000 2.829698e+000 1.146707e+000 -1.613307e-001 -7.100819e-001 -8.089408e-001 1.177731e+000 -7.579052e-002 -2.174915e+000 -1.265355e+000 -2.561702e-001 -9.738999e-004
<VARIANCE> 25
 9.561678e+000 1.422462e+001 2.121005e+001 3.261885e+001 1.605061e+001 1.017942e+001 2.141452e+001 1.380358e+001 9.541519e+000 1.703326e+001 1.203347e+001 8.535268e+000 8.534818e-001 4.253104e+000 3.920570e+000 3.082448e+000 1.320580e+000 1.673746e+000 3.176919e+000 1.174830e+000 1.744877e+000 1.855938e+000 3.603243e+000 1.484300e+000 1.816726e-001
<GCONST> 8.494451e+001
<STATE> 4
<MEAN> 25
 3.304916e+000 5.507118e+000 1.217974e+001 1.248415e+001 8.459005e+000 2.032180e+000 -6.258451e+000 -1.699462e-001 -2.111770e+000 -8.379761e+000 -4.755580e+000 -4.104471e+000 -3.207011e-001 -2.621899e-001 -4.603260e-001 -3.523513e-001 -3.223845e-001 2.815210e-001 8.827435e-001 3.844557e-001 2.817653e-001 3.924426e-001 3.304517e-001 2.627863e-001 -2.300113e-001
<VARIANCE> 25
 4.422639e+000 7.814341e+000 1.144407e+001 1.175165e+001 8.142698e+000 9.703672e+000 2.030622e+001 8.061800e+000 8.623947e+000 1.303705e+001 8.052902e+000 7.308143e+000 1.661180e-001 6.429027e-001 6.360201e-001 3.580178e-001 3.722542e-001 5.453584e-001 8.415546e-001 6.865235e-001 7.760333e-001 7.659595e-001 6.453490e-001 7.601200e-001 7.848729e-002
<GCONST> 6.301926e+001
<TRANSP> 5
 0.000000e+000 1.000000e+000 0.000000e+000 0.000000e+000 0.000000e+000
 0.000000e+000 9.225926e-001 7.740746e-002 0.000000e+000 0.000000e+000
 0.000000e+000 0.000000e+000 7.139332e-001 2.860668e-001 0.000000e+000
 0.000000e+000 0.000000e+000 0.000000e+000 8.827458e-001 1.172542e-001
 0.000000e+000 0.000000e+000 0.000000e+000 0.000000e+000 0.000000e+000
<ENDHMM>
~h "g"
<BEGINHMM>
<NUMSTATES> 5
<STATE> 2
<MEAN> 25
 1.617573e+000 4.728424e+000 3.928306e+000 3.103900e+000 1.733332e+000 1.184758e+000 2.875710e-002 -6.216490e-001 -1.417339e-001 1.020711e+000 6.720612e-001 2.368006e-001 -1.215984e+000 -3.679637e-001 1.049328e-002 7.450398e-001 -4.938568e-001 -1.180273e-001 1.304552e+000 1.630721e+000 1.680758e+000 8.231847e-001 -6.241240e-002 -2.010363e-001 -9.462788e-001
<VARIANCE> 25
 8.338331e+000 6.098680e+000 5.883381e+000 9.770615e+000 8.762781e+000 1.149959e+001 8.637593e+000 1.326937e+001 1.293156e+001 9.827271e+000 8.736849e+000 5.436605e+000 4.088107e-001 2.792876e-001 5.590284e-001 7.541816e-001 8.458762e-001 6.848399e-001 1.171685e+000 1.634536e+000 1.495531e+000 8.858691e-001 1.245938e+000 8.245409e-001 2.053500e-001
<GCONST> 6.778269e+001
<STATE> 3
<MEAN> 25
 -4.411598e-001 3.409869e+000 3.440759e+000 4.641147e+000 1.726505e+000 1.969219e+000 2.084838e+000 1.546302e+000 2.159068e+000 1.968935e+000 8.961935e-001 3.117009e-002 -5.596443e-001 -6.041456e-001 -3.113011e-001 1.169685e-001 8.405319e-002 1.185254e-001 1.482018e-001 2.348888e-001 3.592187e-001 1.970309e-001 2.965174e-002 -5.704640e-002 -2.711989e-001
<VARIANCE> 25
 4.717194e+000 6.141724e+000 6.523196e+000 8.477426e+000 7.763759e+000 7.092963e+000 9.522008e+000 7.621058e+000 8.162442e+000 6.946669e+000 6.414131e+000 6.025981e+000 1.714962e-001 4.330404e-001 5.481470e-001 7.310193e-001 7.072262e-001 6.770680e-001 8.825488e-001 7.046183e-001 7.860178e-001 7.995894e-001 6.414338e-001 5.754548e-001 6.180367e-002
<GCONST> 6.034055e+001
<STATE> 4
<MEAN> 25
 -9.417150e-001 -4.787942e+000 1.592174e+000 -1.574854e+000 1.187516e+000 1.422063e-003 -2.325993e-001 2.341004e+000 -4.763043e-001 -2.846586e+000 2.217068e+000 -1.631623e-001 4.974976e-001 -1.244899e+000 4.181328e-001 -1.233016e+000 -3.967100e-002 -3.430605e-001 -7.705721e-001 2.774906e-001 -8.591869e-001 -1.540158e+000 3.141251e-001 8.868875e-002 1.455259e+000
<VARIANCE> 25
 1.740845e+001 5.228728e+001 2.560661e+001 5.692025e+001 2.274789e+001 2.257338e+001 3.924365e+001 2.645592e+001 4.226982e+001 4.119250e+001 1.631999e+001 8.697881e+000 1.206635e+000 5.336681e+000 4.361851e+000 7.041975e+000 2.224540e+000 2.266421e+000 3.865708e+000 1.584123e+000 2.929990e+000 4.641173e+000 2.028466e+000 9.073699e-001 2.695690e+000
<GCONST> 9.857830e+001
<TRANSP> 5
 0.000000e+000 1.000000e+000 0.000000e+000 0.000000e+000 0.000000e+000
 0.000000e+000 5.452695e-001 4.547305e-001 0.000000e+000 0.000000e+000
 0.000000e+000 0.000000e+000 8.011138e-001 1.988862e-001 0.000000e+000
 0.000000e+000 0.000000e+000 0.000000e+000 8.281433e-001 1.718567e-001
 0.000000e+000 0.000000e+000 0.000000e+000 0.000000e+000 0.000000e+000
<ENDHMM>
~h "k"
<BEGINHMM>
<NUMSTATES> 5
<STATE> 2
<MEAN> 25
 -5.708267e+000 -3.278050e+000 -1.750774e+000 1.678398e+000 -2.002311e-001 3.310980e-001 4.957616e-001 6.852245e-001 2.101718e+000 2.151893e+000 6.584705e-001 -5.968278e-001 8.835618e-001 -3.402977e-001 -8.373914e-001 -1.859228e+000 -1.034093e+000 -1.594730e-001 7.088810e-001 -2.850321e-001 -9.467804e-001 -5.519919e-001 3.127709e-001 3.244916e-001 1.010283e+000
<VARIANCE> 25
 2.226648e+000 2.956715e+000 4.744074e+000 7.623444e+000 8.151786e+000 8.031999e+000 7.095445e+000 8.200264e+000 8.677811e+000 9.536769e+000 9.111984e+000 7.824936e+000 2.113368e+000 1.551932e+000 1.744805e+000 5.874244e+000 3.655105e+000 2.532191e+000 3.662989e+000 1.424174e+000 2.475275e+000 2.141244e+000 1.429500e+000 1.300960e+000 2.276786e+000
<GCONST> 7.885076e+001
<STATE> 3
<MEAN> 25
 2.653101e+000 -5.744924e+000 -7.783954e+000 -1.369547e+001 -6.699513e+000 3.093394e-001 6.262195e+000 -2.592870e+000 -6.210268e+000 -3.123395e+000 2.772943e+000 1.424544e+000 2.430398e+000 3.193109e-001 -5.647480e-001 -3.557468e+000 -1.678633e+000 -6.072691e-001 1.496688e+000 -2.022773e-001 -2.042552e+000 -1.179876e+000 9.829109e-001 1.188794e+000 2.538324e+000
<VARIANCE> 25
 1.318585e+001 2.885544e+001 2.044570e+001 4.105675e+001 6.896718e+001 5.887629e+001 7.870259e+001 2.801150e+001 2.632883e+001 2.977376e+001 1.942381e+001 1.727756e+001 1.329961e+000 2.564934e+000 2.364849e+000 5.243676e+000 4.661958e+000 4.913708e+000 5.274114e+000 1.981771e+000 2.410770e+000 2.254253e+000 1.650853e+000 1.644503e+000 1.730207e+000
<GCONST> 9.957148e+001
<STATE> 4
<MEAN> 25
 3.990685e+000 -4.719510e-001 -3.882246e+000 -8.975382e+000 -5.720047e+000 -1.842975e+000 3.288913e+000 -2.838199e-001 -4.256707e+000 -1.226217e+000 3.084156e+000 3.348195e+000 1.394868e+000 2.143989e+000 9.032090e-001 2.125008e+000 1.391781e+000 -2.103455e-001 -1.398987e+000 7.931486e-001 1.273561e+000 4.655043e-001 -9.021794e-001 2.827117e-001 -2.597579e-001
<VARIANCE> 25
 1.932881e+001 2.160078e+001 1.498673e+001 4.017913e+001 4.668455e+001 5.035582e+001 6.659193e+001 2.332557e+001 3.196595e+001 2.600735e+001 2.217295e+001 1.377792e+001 2.618365e+000 2.235252e+000 1.786419e+000 2.699221e+000 3.051003e+000 2.974244e+000 3.714259e+000 1.562184e+000 1.815724e+000 1.274879e+000 1.417273e+000 1.688945e+000 8.958666e-001
<GCONST> 9.484343e+001
<TRANSP> 5
 0.000000e+000 1.000000e+000 0.000000e+000 0.000000e+000 0.000000e+000
 0.000000e+000 7.451025e-001 2.548975e-001 0.000000e+000 0.000000e+000
 0.000000e+000 0.000000e+000 5.362000e-001 4.638000e-001 0.000000e+000
 0.000000e+000 0.000000e+000 0.000000e+000 6.875974e-001 3.124026e-001
 0.000000e+000 0.000000e+000 0.000000e+000 0.000000e+000 0.000000e+000
<ENDHMM>
~h "l"
<BEGINHMM>
<NUMSTATES> 5
<STATE> 2
<MEAN> 25
 -2.383571e+000 -2.893187e+000 -1.898998e+000 -2.566501e+000 -1.166381e+000 2.131258e+000 2.287924e+000 1.015634e-002 -1.174464e+000 2.131813e-001 7.274882e-001 1.216540e+000 -1.149613e-001 6.441478e-002 2.807461e-002 9.560577e-002 -3.398150e-001 -2.622722e-001 -2.026622e-001 -8.299432e-002 7.445572e-002 -3.706145e-002 -1.007427e-001 -2.138415e-001 -1.743067e-001
<VARIANCE> 25
 3.530732e+001 3.989243e+001 2.622180e+001 3.073045e+001 1.617652e+001 2.099744e+001 1.570535e+001 1.203958e+001 1.610772e+001 1.544342e+001 1.232660e+001 1.246008e+001 6.002056e-001 2.224348e+000 2.620219e+000 3.002073e+000 1.562751e+000 1.819364e+000 1.759204e+000 1.317275e+000 1.518070e+000 1.635521e+000 1.302531e+000 1.465617e+000 6.722944e-001
<GCONST> 8.690582e+001
<STATE> 3
<MEAN> 25
 3.671786e+000 4.664427e+000 1.098425e+000 -2.542914e+000 -3.386688e+000 -1.557031e+000 1.270336e-002 -6.848033e-003 -2.211100e+000 -1.991876e+000 -2.128735e+000 -5.974527e-001 9.272543e-001 1.179244e+000 7.080157e-001 1.368644e-001 -6.132509e-001 -5.729303e-001 -4.557203e-001 -1.205549e-001 -2.183401e-001 -6.567293e-001 -6.370370e-001 -5.902795e-001 3.004526e-001
<VARIANCE> 25
 3.735928e+001 2.629639e+001 1.158194e+001 2.879903e+001 1.326762e+001 8.549439e+000 7.668957e+000 9.297312e+000 1.122286e+001 1.283412e+001 9.659982e+000 7.058127e+000 2.543492e+000 1.830359e+000 1.099981e+000 2.523270e+000 1.067296e+000 1.028473e+000 1.011117e+000 1.133291e+000 1.274902e+000 9.933674e-001 7.830934e-001 9.475764e-001 9.815663e-001
<GCONST> 7.954460e+001
<STATE> 4
<MEAN> 25
 7.862003e+000 8.752745e+000 2.844346e+000 -5.460431e+000 -6.661427e+000 -4.367229e+000 -7.973080e-001 1.538667e+000 -9.940792e-001 -1.998049e+000 -2.645329e+000 -1.154155e+000 8.335805e-003 -2.320428e-001 -2.043358e-001 -5.013337e-001 -2.722990e-002 2.685580e-002 2.448647e-001 3.432342e-001 2.571265e-001 5.762767e-003 -5.021948e-003 1.218246e-001 1.981297e-001
<VARIANCE> 25
 1.620350e+001 1.290852e+001 1.185228e+001 2.693767e+001 1.268008e+001 1.040338e+001 1.077000e+001 9.813196e+000 1.136462e+001 1.102517e+001 6.467430e+000 6.676641e+000 4.251345e-001 5.538388e-001 1.471388e+000 2.413418e+000 8.214895e-001 9.155139e-001 1.250429e+000 1.083696e+000 7.883481e-001 7.711504e-001 7.620330e-001 9.755112e-001 3.996817e-001
<GCONST> 7.332347e+001
<TRANSP> 5
 0.000000e+000 1.000000e+000 0.000000e+000 0.000000e+000 0.000000e+000
 0.000000e+000 7.210723e-001 2.789277e-001 0.000000e+000 0.000000e+000
 0.000000e+000 0.000000e+000 4.413800e-001 5.586200e-001 0.000000e+000
 0.000000e+000 0.000000e+000 0.000000e+000 7.643050e-001 2.356950e-001
 0.000000e+000 0.000000e+000 0.000000e+000 0.000000e+000 0.000000e+000
<ENDHMM>
~h "m"
<BEGINHMM>
<NUMSTATES> 5
<STATE> 2
<MEAN> 25
 1.302701e+000 2.863941e+000 1.782801e+000 3.734132e+000 1.394674e+000 1.894736e+000 2.504711e+000 2.625435e+000 2.764648e+000 1.134974e+000 -1.266995e+000 -3.096107e+000 1.001917e+000 8.631305e-001 7.186839e-001 8.499728e-001 1.036430e+000 8.767803e-001 5.842099e-001 6.406432e-001 3.781858e-001 -4.058843e-001 -8.564692e-001 -9.627650e-001 5.001065e-001
<VARIANCE> 25
 2.666544e+001 2.200851e+001 1.467887e+001 8.425720e+000 7.909632e+000 9.210723e+000 8.029056e+000 7.289330e+000 7.718143e+000 8.796750e+000 1.031293e+001 8.651061e+000 2.741970e+000 1.181520e+000 8.579383e-001 1.278173e+000 1.123502e+000 8.896769e-001 7.578794e-001 1.117312e+000 1.379891e+000 9.134881e-001 8.558308e-001 6.639568e-001 8.221247e-001
<GCONST> 7.477776e+001
<STATE> 3
<MEAN> 25
 4.708460e+000 6.282382e+000 3.930915e+000 4.728544e+000 2.154348e+000 2.342648e+000 3.102301e+000 3.865659e+000 4.029567e+000 1.344419e+000 -1.660648e+000 -3.934547e+000 -1.768297e-001 -1.266778e-001 3.835096e-002 2.337218e-001 2.476873e-001 1.763056e-001 1.376535e-001 6.587880e-002 7.034724e-002 6.848323e-002 5.717270e-002 1.208642e-002 -9.918097e-002
<VARIANCE> 25
 4.922947e+000 3.718381e+000 7.763921e+000 6.733373e+000 6.493673e+000 6.969153e+000 5.630569e+000 6.745699e+000 9.645103e+000 8.523832e+000 8.561733e+000 9.468164e+000 4.343316e-001 2.814506e-001 4.254375e-001 4.384188e-001 4.561138e-001 4.973767e-001 5.618896e-001 6.283536e-001 7.516448e-001 7.096876e-001 6.954516e-001 6.418682e-001 1.325850e-001
<GCONST> 5.930367e+001
<STATE> 4
<MEAN> 25
 -9.685620e-001 9.819668e-001 9.196426e-001 3.927063e+000 2.144943e+000 2.824885e+000 2.985414e+000 2.597087e+000 2.907084e+000 1.943911e+000 3.732138e-001 -1.457665e+000 -1.983058e-001 -4.704073e-001 -6.195671e-001 -7.409959e-001 -6.102343e-001 -4.177986e-001 -3.754100e-001 -3.010077e-001 -2.591487e-001 -7.127463e-002 2.129594e-001 4.990213e-001 -4.062364e-002
<VARIANCE> 25
 2.025908e+001 1.428472e+001 1.209915e+001 1.081454e+001 7.480095e+000 7.437736e+000 5.610629e+000 7.503818e+000 8.788594e+000 1.078609e+001 1.189088e+001 1.123525e+001 1.475695e+000 9.434630e-001 7.320870e-001 1.409112e+000 1.225424e+000 9.522625e-001 7.297718e-001 9.599319e-001 1.083467e+000 1.017114e+000 1.012087e+000 9.955976e-001 4.367134e-001
<GCONST> 7.313092e+001
<TRANSP> 5
 0.000000e+000 1.000000e+000 0.000000e+000 0.000000e+000 0.000000e+000
 0.000000e+000 5.683740e-001 4.316260e-001 0.000000e+000 0.000000e+000
 0.000000e+000 0.000000e+000 8.227144e-001 1.772856e-001 0.000000e+000
 0.000000e+000 0.000000e+000 0.000000e+000 7.217787e-001 2.782213e-001
 0.000000e+000 0.000000e+000 0.000000e+000 0.000000e+000 0.000000e+000
<ENDHMM>
~h "n"
<BEGINHMM>
<NUMSTATES> 5
<STATE> 2
<MEAN> 25
 7.208568e+000 6.717057e+000 3.929749e+000 3.124197e+000 2.590609e+000 1.518272e+000 -2.611453e+000 -5.520010e+000 -4.981737e+000 -1.619373e+000 1.267284e+000 2.036189e+000 -1.010533e+000 3.756974e-001 1.122536e+000 2.459806e+000 8.196159e-001 8.922489e-001 4.919431e-001 -3.266888e-001 3.613150e-002 -6.793976e-001 -6.915905e-001 -5.926193e-001 -1.073889e+000
<VARIANCE> 25
 6.122870e+000 4.777190e+000 1.449990e+001 2.210324e+001 1.282628e+001 9.772442e+000 1.868903e+001 1.211690e+001 1.139684e+001 1.239294e+001 1.008511e+001 1.138305e+001 4.667217e-001 5.693916e-001 1.720034e+000 3.069953e+000 1.788558e+000 1.348174e+000 3.995589e+000 1.662796e+000 1.364075e+000 1.233177e+000 1.068394e+000 1.211215e+000 2.917311e-001
<GCONST> 7.769850e+001
<STATE> 3
<MEAN> 25
 5.183895e+000 6.438678e+000 4.794644e+000 7.615383e+000 6.014400e+000 3.898176e+000 -9.705870e-001 -4.425261e+000 -3.694019e+000 -1.775982e+000 7.474038e-001 1.652565e+000 -4.254833e-001 -1.203128e-001 1.454076e-001 3.359908e-001 2.269754e-001 2.224326e-001 3.875046e-001 3.679745e-001 2.801075e-001 1.905142e-001 1.097264e-001 -7.752566e-003 -2.737228e-001
<VARIANCE> 25
 4.509232e+000 2.473962e+000 7.385903e+000 6.007505e+000 5.184206e+000 6.492045e+000 8.292575e+000 6.616600e+000 9.650459e+000 1.075038e+001 7.747116e+000 8.806422e+000 1.274443e-001 1.726949e-001 3.893947e-001 3.343022e-001 4.044050e-001 5.323958e-001 6.927015e-001 6.445044e-001 9.478925e-001 9.673467e-001 7.496231e-001 5.804607e-001 5.300407e-002
<GCONST> 5.648381e+001
<STATE> 4
<MEAN> 25
 -1.189228e+000 1.447388e+000 2.919031e+000 6.018921e+000 4.006527e+000 3.497029e+000 1.531330e+000 -7.809415e-001 -4.524289e-001 6.752885e-001 1.514880e+000 8.153211e-001 -8.656922e-001 -8.887164e-001 -5.580310e-001 -6.176164e-001 -5.124867e-001 -2.451057e-001 9.109427e-002 3.457310e-001 3.833901e-001 2.209580e-001 -1.214548e-001 -2.153723e-001 -3.468423e-001
<VARIANCE> 25
 9.973288e+000 1.298981e+001 1.074905e+001 9.173372e+000 9.838530e+000 8.970927e+000 8.189477e+000 9.371214e+000 1.041843e+001 9.041244e+000 8.942371e+000 8.163240e+000 3.605770e-001 6.919880e-001 1.178475e+000 7.592793e-001 9.070895e-001 1.031842e+000 1.026687e+000 1.213775e+000 1.257835e+000 9.907109e-001 9.985211e-001 8.396607e-001 1.882909e-001
<GCONST> 7.008729e+001
<TRANSP> 5
 0.000000e+000 1.000000e+000 0.000000e+000 0.000000e+000 0.000000e+000
 0.000000e+000 5.546886e-001 4.453115e-001 0.000000e+000 0.000000e+000
 0.000000e+000 0.000000e+000 8.828871e-001 1.171129e-001 0.000000e+000
 0.000000e+000 0.000000e+000 0.000000e+000 8.401824e-001 1.598175e-001
 0.000000e+000 0.000000e+000 0.000000e+000 0.000000e+000 0.000000e+000
<ENDHMM>
~h "p"
<BEGINHMM>
<NUMSTATES> 5
<STATE> 2
<MEAN> 25
 -5.032840e+000 -3.525590e+000 -1.230287e+000 1.674529e+000 4.407694e-001 2.478720e+000 1.882719e+000 5.003772e-001 1.309560e+000 1.425612e+000 9.219940e-001 3.798419e-001 -1.553385e-001 -2.113788e-001 -1.985130e-001 -1.323921e-001 -1.506424e-001 -2.032892e-001 -9.307632e-002 -8.937713e-002 -4.464150e-002 8.978628e-002 2.587236e-002 -4.285767e-002 -6.047272e-002
<VARIANCE> 25
 4.320181e+000 9.524770e+000 2.207919e+001 1.274265e+001 1.081381e+001 1.482145e+001 1.403086e+001 1.873185e+001 1.362536e+001 1.403458e+001 9.788347e+000 1.087917e+001 5.742553e-001 1.395861e+000 2.627804e+000 1.508181e+000 1.602417e+000 1.755904e+000 1.781352e+000 1.958973e+000 1.493930e+000 1.411972e+000 8.814993e-001 1.212699e+000 3.289968e-001
<GCONST> 7.901517e+001
<STATE> 3
<MEAN> 25
 -4.812500e+000 -2.781641e+000 -2.092126e+000 8.725067e-001 -1.505771e+000 -1.723147e+000 -2.001049e+000 -1.796149e+000 4.110408e-001 1.446325e+000 9.140356e-001 1.335471e-001 4.040300e-001 -5.904558e-002 -2.748823e-001 -3.848076e-001 -3.029056e-001 -2.799478e-001 -2.857799e-001 -4.127618e-001 -4.404173e-001 -1.690717e-001 9.164286e-002 1.655048e-001 3.004865e-001
<VARIANCE> 25
 7.427680e+000 4.591690e+000 4.669716e+000 7.621187e+000 1.127655e+001 1.214009e+001 1.235292e+001 1.362992e+001 1.342952e+001 1.063268e+001 1.117244e+001 8.611951e+000 1.869670e+000 6.592704e-001 7.609555e-001 1.177498e+000 1.257897e+000 1.355814e+000 1.110770e+000 1.614335e+000 1.776638e+000 1.241357e+000 1.207133e+000 1.075113e+000 9.266598e-001
<GCONST> 7.481441e+001
<STATE> 4
<MEAN> 25
 -6.336904e+000 -3.899478e+000 -2.362101e+000 1.550182e+000 -9.308641e-002 1.824007e-001 1.416320e-001 5.656848e-003 1.408345e+000 1.936853e+000 7.455782e-001 -5.810022e-001 3.349511e-001 3.190759e-002 -1.012043e-001 -1.448283e-001 -1.284778e-002 7.885420e-002 2.728788e-002 -1.322773e-001 -2.224112e-001 -1.371409e-001 -1.767344e-002 8.102622e-003 2.430681e-001
<VARIANCE> 25
 2.865084e+000 2.723197e+000 3.379420e+000 4.290708e+000 4.699637e+000 5.530460e+000 5.686020e+000 6.866366e+000 8.345471e+000 7.958976e+000 6.836946e+000 6.377584e+000 1.608228e+000 4.703608e-001 3.870982e-001 5.658110e-001 8.062603e-001 8.071440e-001 6.505792e-001 1.175235e+000 1.548288e+000 1.039906e+000 8.412443e-001 8.422011e-001 7.209998e-001
<GCONST> 6.287787e+001
<TRANSP> 5
 0.000000e+000 1.000000e+000 0.000000e+000 0.000000e+000 0.000000e+000
 0.000000e+000 6.084475e-001 3.915525e-001 0.000000e+000 0.000000e+000
 0.000000e+000 0.000000e+000 3.729517e-001 6.270484e-001 0.000000e+000
 0.000000e+000 0.000000e+000 0.000000e+000 8.244348e-001 1.755652e-001
 0.000000e+000 0.000000e+000 0.000000e+000 0.000000e+000 0.000000e+000
<ENDHMM>
~h "r"
<BEGINHMM>
<NUMSTATES> 5
<STATE> 2
<MEAN> 25
 -1.188397e+000 -1.681936e+000 -3.540448e+000 -1.774469e+000 -9.858008e-002 2.597203e+000 1.641668e+000 -1.056897e+000 -2.301010e+000 -8.802554e-001 1.596293e+000 2.813419e+000 9.379702e-001 5.216042e-001 8.927646e-002 -6.895048e-002 2.640672e-001 2.262709e-001 -3.039984e-002 -2.020065e-001 -6.282767e-001 -5.663471e-001 -4.214067e-004 3.211542e-001 5.344237e-001
<VARIANCE> 25
 2.273155e+001 1.487156e+001 1.491445e+001 1.463480e+001 1.035979e+001 1.025158e+001 1.201877e+001 1.190916e+001 1.449700e+001 1.248102e+001 9.446970e+000 1.114991e+001 2.108647e+000 1.440457e+000 1.647719e+000 1.809755e+000 1.210934e+000 1.345667e+000 1.536416e+000 1.345108e+000 1.617326e+000 1.590594e+000 1.041737e+000 1.243642e+000 7.003890e-001
<GCONST> 8.090578e+001
<STATE> 3
<MEAN> 25
 8.701280e+000 5.051495e+000 -1.323019e+000 -1.937733e+000 -5.255563e-001 1.036767e+000 6.492035e-001 -1.302963e+000 -5.751318e+000 -5.949836e+000 -1.977843e+000 1.985003e+000 6.026089e-001 5.427879e-001 6.558046e-002 -1.578045e-001 -6.290157e-001 -4.862705e-001 1.758104e-001 4.543855e-001 2.215617e-001 -2.597219e-001 -6.667325e-001 -5.818840e-001 2.162709e-001
<VARIANCE> 25
 1.609787e+001 7.967343e+000 1.039080e+001 1.085399e+001 9.304357e+000 8.740244e+000 9.992574e+000 9.684810e+000 1.253540e+001 1.161967e+001 8.435133e+000 7.118857e+000 2.709301e+000 1.449814e+000 1.539257e+000 1.561835e+000 9.777568e-001 1.178654e+000 1.302851e+000 1.179976e+000 1.967840e+000 1.858848e+000 1.294283e+000 1.270365e+000 1.048557e+000
<GCONST> 7.823244e+001
<STATE> 4
<MEAN> 25
 9.659209e+000 8.774043e+000 1.709270e+000 -3.673852e+000 -6.598402e+000 -4.466329e+000 8.408906e-001 3.275135e+000 -1.495209e+000 -3.996381e+000 -4.707792e+000 -3.915314e+000 -5.576477e-002 9.481488e-001 1.263779e+000 1.159449e-001 -8.188001e-001 -1.368794e+000 -1.123922e+000 -1.304068e-001 7.572149e-001 1.306262e+000 3.963842e-001 -8.803363e-001 -1.680952e-001
<VARIANCE> 25
 1.287675e+001 9.582453e+000 8.536197e+000 9.010528e+000 1.218335e+001 1.734993e+001 7.662996e+000 9.071274e+000 7.220425e+000 1.190122e+001 7.059287e+000 9.399652e+000 7.866567e-001 4.350180e-001 7.039486e-001 1.182057e+000 8.630545e-001 1.008988e+000 1.215016e+000 1.752766e+000 8.172026e-001 1.328701e+000 1.248857e+000 9.875367e-001 3.623247e-001
<GCONST> 7.198705e+001
<TRANSP> 5
 0.000000e+000 1.000000e+000 0.000000e+000 0.000000e+000 0.000000e+000
 0.000000e+000 8.565580e-001 1.434420e-001 0.000000e+000 0.000000e+000
 0.000000e+000 0.000000e+000 8.186871e-001 1.813129e-001 0.000000e+000
 0.000000e+000 0.000000e+000 0.000000e+000 7.111095e-001 2.888905e-001
 0.000000e+000 0.000000e+000 0.000000e+000 0.000000e+000 0.000000e+000
<ENDHMM>
~h "s"
<BEGINHMM>
<NUMSTATES> 5
<STATE> 2
<MEAN> 25
 -4.627393e+000 -8.678159e+000 4.511261e+000 -6.680015e+000 -1.757357e+000 3.367902e-001 3.893639e+000 -2.272846e+000 -4.987225e+000 3.513438e+000 2.422135e+000 2.273166e+000 -1.293755e+000 -1.863874e+000 2.126163e+000 -1.526055e+000 3.274340e-001 -5.371670e-001 7.845346e-001 -3.633565e-001 -8.241822e-001 4.514583e-001 8.867854e-003 -9.938913e-003 1.401107e+000
<VARIANCE> 25
 1.415272e+001 2.115988e+001 4.289896e+001 3.122762e+001 2.172665e+001 1.920773e+001 2.540785e+001 1.380668e+001 1.677583e+001 1.274007e+001 9.716081e+000 9.242989e+000 2.263931e+000 1.730962e+000 2.382474e+000 1.763221e+000 2.571187e+000 1.827466e+000 1.870477e+000 1.615219e+000 1.852454e+000 1.399800e+000 1.206556e+000 1.111671e+000 5.058337e-001
<GCONST> 8.662444e+001
<STATE> 3
<MEAN> 25
 -1.082713e+001 -1.419815e+001 1.207259e+001 -1.305192e+001 2.070941e+000 -4.496929e+000 8.882902e+000 -2.197026e+000 -6.223236e+000 3.413626e+000 2.454870e+000 1.109479e+000 -5.370050e-002 -1.230228e-001 4.115045e-002 2.321567e-002 9.012219e-002 -5.216422e-003 1.435333e-002 2.687994e-002 -9.734585e-002 -5.163822e-002 1.178535e-001 -1.541369e-002 6.000948e-002
<VARIANCE> 25
 5.132969e+000 6.917920e+000 7.503000e+000 1.566411e+001 1.289374e+001 1.638876e+001 2.317674e+001 1.117782e+001 1.367038e+001 1.000783e+001 1.059766e+001 9.613692e+000 7.377555e-001 6.058601e-001 7.614297e-001 9.628842e-001 8.994141e-001 1.092063e+000 1.115833e+000 9.034458e-001 9.255670e-001 9.148649e-001 7.778664e-001 8.128343e-001 4.114186e-001
<GCONST> 7.209783e+001
<STATE> 4
<MEAN> 25
 -4.049834e+000 -8.267796e+000 4.183790e+000 -5.151304e+000 -3.490129e-001 7.315146e-001 3.525797e+000 -1.779556e+000 -4.896358e+000 3.061371e+000 3.343774e+000 2.296481e+000 1.254076e+000 1.612946e+000 -1.606038e+000 1.608461e+000 -8.837861e-002 5.823767e-001 -1.108957e+000 5.566775e-002 9.040329e-001 -2.326599e-001 -3.149145e-001 -3.785691e-001 -1.128281e+000
<VARIANCE> 25
 1.473115e+001 2.286559e+001 4.913089e+001 3.539727e+001 2.716215e+001 1.683420e+001 2.588594e+001 1.311189e+001 2.575895e+001 1.773973e+001 1.161433e+001 1.176399e+001 3.164881e+000 2.906755e+000 2.608990e+000 3.866431e+000 1.496680e+000 1.766228e+000 2.170268e+000 1.222946e+000 2.011212e+000 1.876225e+000 1.627888e+000 1.800522e+000 8.830820e-001
<GCONST> 9.097965e+001
<TRANSP> 5
 0.000000e+000 1.000000e+000 0.000000e+000 0.000000e+000 0.000000e+000
 0.000000e+000 8.223559e-001 1.776441e-001 0.000000e+000 0.000000e+000
 0.000000e+000 0.000000e+000 9.021121e-001 9.788786e-002 0.000000e+000
 0.000000e+000 0.000000e+000 0.000000e+000 8.278309e-001 1.721691e-001
 0.000000e+000 0.000000e+000 0.000000e+000 0.000000e+000 0.000000e+000
<ENDHMM>
~h "t"
<BEGINHMM>
<NUMSTATES> 5
<STATE> 2
<MEAN> 25
 -4.717756e+000 -2.089631e+000 -1.217039e+000 1.950906e+000 3.076414e-001 8.006268e-001 2.094021e-001 -3.881657e-001 8.415937e-001 1.183045e+000 3.874382e-001 -2.543979e-001 -3.182084e-001 -2.883209e-001 -1.851626e-001 -3.736989e-002 3.196782e-002 -1.472235e-002 3.020276e-002 9.854837e-002 1.718720e-001 1.594233e-001 5.843889e-002 1.484813e-002 -1.519105e-001
<VARIANCE> 25
 2.666638e+000 3.137771e+000 4.545414e+000 6.362203e+000 7.353234e+000 7.406056e+000 7.069799e+000 7.892649e+000 7.768719e+000 8.364514e+000 7.824604e+000 7.743845e+000 1.167804e-001 1.522226e-001 2.513489e-001 4.195931e-001 5.154912e-001 5.695915e-001 5.441164e-001 7.048656e-001 7.222174e-001 8.322936e-001 7.068310e-001 6.513823e-001 3.580383e-002
<GCONST> 5.465584e+001
<STATE> 3
<MEAN> 25
 -5.942422e+000 -3.765948e+000 -2.647551e+000 6.081448e-001 -9.760326e-001 -9.765338e-002 1.143306e-001 -1.088579e-001 1.324151e+000 1.544140e+000 8.635386e-001 3.335260e-002 8.686695e-001 -6.422798e-001 -2.555484e-001 -4.221445e-001 -1.854474e-001 -4.034779e-001 -2.916602e-001 -4.843441e-001 -7.433273e-001 -3.599650e-001 2.768500e-001 1.853074e-001 1.030483e+000
<VARIANCE> 25
 4.374543e+000 4.247575e+000 5.821181e+000 7.146436e+000 7.869902e+000 7.592302e+000 8.193723e+000 8.953858e+000 9.054361e+000 8.023657e+000 7.336301e+000 7.539058e+000 1.834490e+000 1.026976e+000 1.067248e+000 1.084233e+000 1.256893e+000 1.537902e+000 1.472234e+000 1.790249e+000 1.829279e+000 1.404478e+000 1.219515e+000 1.609311e+000 1.635867e+000
<GCONST> 7.379896e+001
<STATE> 4
<MEAN> 25
 1.070780e+000 -6.013191e+000 -2.706375e+000 8.059673e-003 -1.152969e+000 -6.834610e-001 1.739410e+000 -1.545185e+000 -5.365739e+000 -2.921324e+000 2.098627e+000 1.855424e+000 2.480268e+000 1.158683e+000 1.169272e+000 -4.019997e-001 -1.446654e-001 -1.805817e-001 4.929056e-002 -1.934071e-001 -1.532534e+000 -1.547135e+000 -5.628352e-001 -1.356654e-001 1.886694e+000
<VARIANCE> 25
 3.963344e+001 3.126101e+001 2.133568e+001 2.042531e+001 1.678042e+001 2.502516e+001 2.778819e+001 1.997004e+001 4.428322e+001 2.973267e+001 1.608096e+001 1.964137e+001 3.472659e+000 8.752835e+000 4.175800e+000 2.039447e+000 2.179662e+000 2.250341e+000 3.358884e+000 2.498724e+000 5.172784e+000 3.109219e+000 3.216573e+000 3.058984e+000 3.377750e+000
<GCONST> 9.999850e+001
<TRANSP> 5
 0.000000e+000 1.000000e+000 0.000000e+000 0.000000e+000 0.000000e+000
 0.000000e+000 8.440134e-001 1.559866e-001 0.000000e+000 0.000000e+000
 0.000000e+000 0.000000e+000 6.070653e-001 3.929347e-001 0.000000e+000
 0.000000e+000 0.000000e+000 0.000000e+000 6.752702e-001 3.247298e-001
 0.000000e+000 0.000000e+000 0.000000e+000 0.000000e+000 0.000000e+000
<ENDHMM>
~h "aa"
<BEGINHMM>
<NUMSTATES> 5
<STATE> 2
<MEAN> 25
 9.624390e+000 3.426439e+000 -4.670480e+000 -8.566603e+000 -2.178679e+000 -5.270799e-001 1.645037e+000 2.495425e+000 -5.224237e-001 -2.329628e+000 -1.404407e-001 3.685002e+000 1.712020e+000 6.633685e-001 -1.045930e+000 -1.759778e+000 -4.943356e-001 -1.417142e-001 4.784141e-001 7.756652e-001 8.823731e-002 -6.043794e-001 -2.258978e-001 9.969876e-001 1.040977e+000
<VARIANCE> 25
 2.669795e+001 2.106532e+001 2.624340e+001 3.115954e+001 2.042340e+001 1.660021e+001 1.591529e+001 1.655587e+001 1.760012e+001 1.215537e+001 1.524905e+001 1.543203e+001 1.903940e+000 2.055812e+000 2.533008e+000 3.081268e+000 2.245851e+000 1.997020e+000 2.629481e+000 1.642714e+000 1.838577e+000 1.494776e+000 1.201689e+000 1.380813e+000 1.039896e+000
<GCONST> 8.915215e+001
<STATE> 3
<MEAN> 25
 1.300678e+001 5.034110e+000 -6.733284e+000 -1.135325e+001 -2.293601e+000 -1.735270e-001 3.235525e+000 3.903393e+000 -8.313224e-001 -2.521101e+000 -8.454928e-001 5.345695e+000 -2.016513e-001 1.064775e-001 1.235041e-001 1.481838e-001 -3.457354e-002 3.005871e-001 2.562932e-001 5.163277e-003 -6.919236e-002 1.977759e-001 5.446856e-002 -1.186586e-001 -2.520806e-001
<VARIANCE> 25
 3.992968e+000 5.515933e+000 9.892705e+000 1.088226e+001 8.865649e+000 1.289583e+001 8.701170e+000 1.037191e+001 1.419865e+001 1.062679e+001 1.088024e+001 7.347794e+000 2.621366e-001 4.466609e-001 8.841023e-001 8.044432e-001 7.413080e-001 8.865170e-001 8.404604e-001 8.294572e-001 1.056535e+000 8.650569e-001 8.730668e-001 6.613618e-001 2.204941e-001
<GCONST> 6.694029e+001
<STATE> 4
<MEAN> 25
 5.329759e+000 3.024276e+000 -3.154191e+000 -5.736542e+000 -2.960423e+000 8.737614e-001 3.136052e+000 2.590286e+000 2.187046e-001 -3.865393e-001 4.689667e-001 2.471777e+000 -1.468683e+000 -3.555408e-001 9.575025e-001 1.540233e+000 1.732396e-001 -1.484679e-001 -4.226184e-001 -4.977625e-001 1.728885e-001 4.465156e-001 6.552162e-002 -6.765268e-001 -1.003992e+000
<VARIANCE> 25
 3.429153e+001 1.562466e+001 1.445063e+001 2.363161e+001 1.482786e+001 1.452269e+001 1.768654e+001 2.107027e+001 2.233907e+001 1.390412e+001 1.256839e+001 1.257542e+001 1.019452e+000 1.016101e+000 1.797219e+000 2.265523e+000 1.139928e+000 1.314137e+000 1.371572e+000 1.350370e+000 1.315723e+000 1.417608e+000 1.047230e+000 9.706655e-001 4.532782e-001
<GCONST> 8.246658e+001
<TRANSP> 5
 0.000000e+000 1.000000e+000 0.000000e+000 0.000000e+000 0.000000e+000
 0.000000e+000 6.596943e-001 3.403057e-001 0.000000e+000 0.000000e+000
 0.000000e+000 0.000000e+000 7.970437e-001 2.029564e-001 0.000000e+000
 0.000000e+000 0.000000e+000 0.000000e+000 7.590514e-001 2.409486e-001
 0.000000e+000 0.000000e+000 0.000000e+000 0.000000e+000 0.000000e+000
<ENDHMM>
~h "ao"
<BEGINHMM>
<NUMSTATES> 5
<STATE> 2
<MEAN> 25
 9.712958e+000 8.080125e+000 2.066281e+000 -4.030219e+000 -6.984194e+000 -6.444057e+000 7.788541e-001 2.307916e+000 -2.157097e+000 -4.207658e+000 -3.611943e+000 -5.021207e-001 9.697750e-001 1.706735e+000 7.728345e-001 3.905844e-001 -6.992949e-001 -1.082085e+000 -1.242439e+000 6.610104e-001 1.192340e+000 -7.663930e-002 -1.200732e+000 -1.168824e+000 -3.143070e-002
<VARIANCE> 25
 9.124566e+000 8.318684e+000 1.468872e+001 1.349970e+001 2.190542e+001 2.803060e+001 2.109978e+001 1.290199e+001 1.922995e+001 2.120267e+001 1.398620e+001 1.196256e+001 2.491583e+000 3.499827e+000 1.283297e+000 2.144376e+000 3.468308e+000 2.669990e+000 2.475964e+000 1.661941e+000 2.249205e+000 1.784264e+000 1.541306e+000 9.673616e-001 5.944788e-001
<GCONST> 8.681050e+001
<STATE> 3
<MEAN> 25
 8.517695e+000 9.933038e+000 5.822335e+000 -5.933774e-002 -5.736745e+000 -5.347152e+000 -4.095374e-001 1.643860e+000 -1.888069e+000 -4.373609e+000 -5.739918e+000 -3.892229e+000 1.312886e-001 2.490516e-001 1.730180e-001 1.014435e-002 -4.340765e-001 -5.829466e-001 -3.187449e-001 2.521271e-001 5.909700e-001 4.736737e-001 1.918995e-001 -1.483983e-001 -2.057729e-004
<VARIANCE> 25
 7.519083e+000 4.405950e+000 7.037240e+000 1.556182e+001 2.506023e+001 2.434299e+001 1.142930e+001 1.803939e+001 1.653264e+001 1.138761e+001 7.834806e+000 9.099663e+000 4.895859e-001 4.511713e-001 5.846836e-001 1.007308e+000 1.282007e+000 1.177923e+000 1.112442e+000 1.225516e+000 1.001109e+000 1.100830e+000 6.368483e-001 7.923543e-001 2.785910e-001
<GCONST> 7.220808e+001
<STATE> 4
<MEAN> 25
 6.280120e+000 8.216388e+000 3.499759e+000 -1.527161e+000 -7.947550e+000 -7.432386e+000 -2.194306e+000 2.903418e+000 4.064913e+000 2.052455e+000 -1.413037e+000 -3.325163e+000 -6.502038e-001 -6.555793e-001 -4.068055e-001 1.445978e-001 5.109164e-001 6.472247e-001 2.658439e-001 -2.384475e-001 -1.792353e-001 -3.771732e-002 1.163628e-001 1.430755e-001 -3.188573e-001
<VARIANCE> 25
 2.710102e+001 2.384982e+001 1.805125e+001 1.476886e+001 1.302843e+001 1.937907e+001 1.610818e+001 1.304281e+001 1.089494e+001 1.530623e+001 9.189286e+000 9.666620e+000 6.128896e-001 6.111509e-001 7.260447e-001 9.286399e-001 8.121168e-001 8.134307e-001 9.020798e-001 1.285898e+000 1.130109e+000 1.012069e+000 7.542601e-001 6.684801e-001 1.786009e-001
<GCONST> 7.457076e+001
<TRANSP> 5
 0.000000e+000 1.000000e+000 0.000000e+000 0.000000e+000 0.000000e+000
 0.000000e+000 4.929218e-001 5.070782e-001 0.000000e+000 0.000000e+000
 0.000000e+000 0.000000e+000 8.789388e-001 1.210612e-001 0.000000e+000
 0.000000e+000 0.000000e+000 0.000000e+000 9.309464e-001 6.905360e-002
 0.000000e+000 0.000000e+000 0.000000e+000 0.000000e+000 0.000000e+000
<ENDHMM>
~h "eh"
<BEGINHMM>
<NUMSTATES> 5
<STATE> 2
<MEAN> 25
 3.929083e+000 -2.612001e-001 -3.493900e+000 -2.842786e+000 -2.858444e+000 -8.260342e-001 -1.419655e-002 -2.630013e+000 -4.134996e+000 -2.069351e+000 4.609498e-001 1.845999e+000 4.173522e+000 2.028427e+000 -9.994949e-002 -1.601581e+000 -8.192889e-001 -6.215159e-001 -2.863725e-001 -4.904520e-001 -1.570454e+000 -1.111947e+000 2.234015e-001 1.156911e+000 2.550875e+000
<VARIANCE> 25
 5.632875e+001 2.176229e+001 8.887677e+000 1.347261e+001 1.197844e+001 1.058189e+001 9.207646e+000 2.091355e+001 2.991152e+001 1.756651e+001 7.945912e+000 1.500743e+001 2.204594e+000 2.302832e+000 1.260038e+000 1.898484e+000 2.501500e+000 1.182592e+000 1.789990e+000 4.786242e+000 4.256471e+000 1.970645e+000 1.783272e+000 1.858395e+000 1.014094e+000
<GCONST> 8.806016e+001
<STATE> 3
<MEAN> 25
 1.282697e+001 6.250007e+000 -4.120758e+000 -5.120117e+000 -2.675979e+000 -2.217175e+000 -2.747844e+000 -3.017449e+000 -3.648287e+000 -1.535890e+000 1.635136e+000 2.924768e+000 1.352155e-001 5.696734e-001 6.783469e-001 1.163834e+000 8.963876e-001 -3.292488e-001 -1.460281e+000 -7.588652e-001 6.625030e-001 9.331641e-001 4.274412e-001 -2.510365e-001 -1.057762e-001
<VARIANCE> 25
 3.975295e+000 9.081222e+000 2.524423e+001 2.717686e+001 3.811714e+001 1.740641e+001 2.456231e+001 6.741721e+001 4.447634e+001 1.119041e+001 2.979136e+001 2.085481e+001 1.043933e+000 2.248465e+000 1.739854e+000 2.153318e+000 7.972432e-001 9.314405e-001 1.565950e+000 2.142924e+000 1.541227e+000 7.061000e-001 1.422859e+000 1.031852e+000 6.164808e-001
<GCONST> 8.568761e+001
<STATE> 4
<MEAN> 25
 6.433932e+000 2.009156e+000 -2.803641e+000 2.798452e+000 4.139864e+000 -1.313354e+000 -8.881575e+000 -8.554904e+000 -5.597442e-001 5.761025e+000 3.940012e+000 -1.202526e+000 -7.242689e-001 -1.383746e-001 3.485090e-001 2.950975e-001 -2.067083e-002 7.271471e-002 1.958463e-001 2.738529e-001 3.007002e-001 2.772492e-002 -2.018328e-001 -1.852121e-001 -4.533647e-001
<VARIANCE> 25
 3.584492e+001 1.471862e+001 1.810777e+001 1.690891e+001 1.490390e+001 9.200891e+000 1.850826e+001 2.100266e+001 2.105115e+001 1.535127e+001 1.174510e+001 1.458208e+001 3.387150e-001 6.492137e-001 1.194689e+000 1.369038e+000 8.061746e-001 7.168059e-001 9.338356e-001 9.409701e-001 1.058125e+000 8.685755e-001 7.471048e-001 8.618879e-001 1.612792e-001
<GCONST> 7.569510e+001
<TRANSP> 5
 0.000000e+000 1.000000e+000 0.000000e+000 0.000000e+000 0.000000e+000
 0.000000e+000 6.622680e-001 3.377320e-001 0.000000e+000 0.000000e+000
 0.000000e+000 0.000000e+000 6.442538e-001 3.557462e-001 0.000000e+000
 0.000000e+000 0.000000e+000 0.000000e+000 8.649867e-001 1.350133e-001
 0.000000e+000 0.000000e+000 0.000000e+000 0.000000e+000 0.000000e+000
<ENDHMM>
~h "hh"
<BEGINHMM>
<NUMSTATES> 5
<STATE> 2
<MEAN> 25
 6.619038e+000 1.138970e+000 -7.919485e+000 -9.876905e+000 -3.773050e+000 1.710273e+000 4.910032e+000 4.737852e+000 4.127033e-001 -4.302863e+000 -2.289105e+000 3.300915e+000 7.049071e-001 -5.140240e-001 -1.384730e+000 -1.241530e+000 3.744206e-001 4.587224e-001 2.301418e-001 5.636833e-002 -3.880133e-001 -3.208340e-001 -4.882029e-002 5.727572e-001 6.404668e-001
<VARIANCE> 25
 4.297487e+001 2.649671e+001 2.009609e+001 1.657826e+001 9.695839e+000 8.026152e+000 8.752843e+000 1.293551e+001 8.256743e+000 1.611786e+001 1.084949e+001 1.318067e+001 6.095857e-001 5.302120e-001 1.091312e+000 1.772363e+000 1.265062e+000 8.490420e-001 9.773309e-001 6.961709e-001 1.038491e+000 1.098738e+000 8.715848e-001 6.485937e-001 2.231230e-001
<GCONST> 7.500890e+001
<STATE> 3
<MEAN> 25
 7.028354e+000 -1.439581e+000 -9.486211e+000 -7.052155e+000 6.461899e-001 5.819335e+000 6.277121e+000 4.795116e+000 1.576407e-001 -4.050915e+000 2.233231e-001 6.860711e+000 -5.729885e-001 -3.396530e-001 -5.119557e-002 4.495745e-001 1.144055e-001 8.890747e-002 -1.004491e-001 -4.170291e-001 -1.919319e-001 2.991494e-001 3.869920e-001 -1.193446e-001 -3.942033e-001
<VARIANCE> 25
 1.044667e+001 1.026855e+001 9.170099e+000 1.338650e+001 1.164942e+001 1.287560e+001 9.281068e+000 1.482662e+001 1.185205e+001 9.247755e+000 9.838992e+000 9.531757e+000 4.601326e-001 1.023385e+000 9.000480e-001 7.725112e-001 9.159138e-001 1.010672e+000 8.269684e-001 1.032982e+000 1.008766e+000 8.025246e-001 8.133053e-001 7.812964e-001 1.639379e-001
<GCONST> 7.078107e+001
<STATE> 4
<MEAN> 25
 -1.250546e+000 -2.356015e+000 -5.146928e+000 -1.991826e+000 4.376298e-002 3.389200e+000 3.141029e+000 3.654767e-001 -6.121526e-001 2.015989e-001 2.029644e+000 2.693611e+000 -6.957898e-001 -9.568341e-002 4.942212e-001 4.115575e-001 -3.005380e-002 -3.441683e-001 -2.468463e-001 9.556588e-002 3.905035e-001 3.852975e-001 -1.570870e-001 -4.750040e-001 -4.121152e-001
<VARIANCE> 25
 2.021877e+001 7.987948e+000 1.532309e+001 1.826122e+001 9.266899e+000 1.199856e+001 9.824958e+000 1.374527e+001 1.512782e+001 1.162629e+001 1.097880e+001 1.137014e+001 5.089458e-001 4.914057e-001 1.017641e+000 9.746206e-001 9.106277e-001 9.998019e-001 9.284679e-001 1.136616e+000 1.272068e+000 1.050156e+000 8.106894e-001 7.982344e-001 1.913444e-001
<GCONST> 7.304581e+001
<TRANSP> 5
 0.000000e+000 1.000000e+000 0.000000e+000 0.000000e+000 0.000000e+000
 0.000000e+000 7.442375e-001 2.557625e-001 0.000000e+000 0.000000e+000
 0.000000e+000 0.000000e+000 8.628469e-001 1.371531e-001 0.000000e+000
 0.000000e+000 0.000000e+000 0.000000e+000 8.512787e-001 1.487213e-001
 0.000000e+000 0.000000e+000 0.000000e+000 0.000000e+000 0.000000e+000
<ENDHMM>
~h "ih"
<BEGINHMM>
<NUMSTATES> 5
<STATE> 2
<MEAN> 25
 3.572475e+000 -1.979202e-001 8.106656e+000 6.416563e+000 7.585786e+000 1.817080e+000 -6.986617e+000 -2.854245e+000 -1.467423e+000 -3.093128e+000 -2.574748e+000 -3.049852e+000 1.068227e+000 1.456693e+000 2.174060e+000 2.352670e+000 1.560980e+000 -4.750720e-001 -2.149543e+000 6.871389e-002 1.975313e-001 -1.612999e+000 -1.597040e+000 -7.529147e-001 3.872952e-001
<VARIANCE> 25
 1.476509e+001 3.080290e+001 4.898100e+001 4.106998e+001 2.424558e+001 2.724950e+001 4.510136e+001 4.415609e+001 2.605733e+001 2.975494e+001 2.247602e+001 1.640310e+001 2.308554e+000 3.438046e+000 3.859714e+000 5.177487e+000 2.872213e+000 4.018867e+000 4.505613e+000 3.516397e+000 2.882287e+000 3.096150e+000 2.215525e+000 1.833781e+000 1.942857e+000
<GCONST> 1.008567e+002
<STATE> 3
<MEAN> 25
 3.000813e+000 3.288486e+000 1.272042e+001 1.162595e+001 9.591222e+000 2.068375e+000 -7.919871e+000 1.158489e+000 -8.162427e-002 -7.597754e+000 -5.014393e+000 -4.805243e+000 -1.931837e-001 5.298875e-003 -4.941588e-001 -8.803565e-002 -1.048674e-001 -2.692049e-002 3.557134e-001 -4.568097e-002 1.477082e-001 3.441404e-001 1.832418e-001 1.003431e-001 -2.540159e-001
<VARIANCE> 25
 6.766140e+000 8.315385e+000 1.842490e+001 8.548414e+000 1.134941e+001 1.515095e+001 3.281534e+001 1.599857e+001 1.484793e+001 2.054019e+001 1.058042e+001 1.105498e+001 3.023359e-001 6.481033e-001 8.352925e-001 6.659498e-001 8.384288e-001 1.089705e+000 1.910687e+000 1.338305e+000 9.302479e-001 1.301383e+000 8.734995e-001 6.520834e-001 2.354244e-001
<GCONST> 7.374321e+001
<STATE> 4
<MEAN> 25
 1.619217e+000 2.418714e-001 3.699361e+000 4.681281e+000 6.615599e+000 2.259221e-001 -6.358672e+000 -4.052896e+000 -6.130195e-001 -6.326029e-001 -1.168058e+000 -1.775536e+000 -7.577813e-002 -4.688797e-001 -1.446763e+000 -1.305304e+000 -7.377738e-001 2.227803e-001 6.409931e-001 -5.437400e-001 -4.976229e-001 9.073139e-001 1.066856e+000 5.952903e-001 -1.039871e-001
<VARIANCE> 25
 3.546956e+001 2.776097e+001 3.832885e+001 2.998315e+001 3.705872e+001 4.092339e+001 5.802905e+001 3.341163e+001 1.800855e+001 1.858625e+001 2.105822e+001 1.586587e+001 1.174339e+000 2.132599e+000 2.927475e+000 2.194859e+000 3.107916e+000 3.884370e+000 3.853964e+000 3.183372e+000 2.029584e+000 1.912847e+000 2.277476e+000 1.543454e+000 7.985899e-001
<GCONST> 9.656973e+001
<TRANSP> 5
 0.000000e+000 1.000000e+000 0.000000e+000 0.000000e+000 0.000000e+000
 0.000000e+000 6.889576e-001 3.110423e-001 0.000000e+000 0.000000e+000
 0.000000e+000 0.000000e+000 8.265570e-001 1.734429e-001 0.000000e+000
 0.000000e+000 0.000000e+000 0.000000e+000 8.043218e-001 1.956782e-001
 0.000000e+000 0.000000e+000 0.000000e+000 0.000000e+000 0.000000e+000
<ENDHMM>
~h "ng"
<BEGINHMM>
<NUMSTATES> 5
<STATE> 2
<MEAN> 25
 6.794815e+000 6.988043e+000 2.251467e+000 2.094857e+000 -1.636335e+000 -1.700912e+000 -3.034097e-001 1.977348e+000 3.149335e+000 1.295310e+000 5.499827e-001 5.964081e-001 -3.612790e-001 -7.273360e-002 3.498761e-001 6.033523e-001 2.545995e-001 1.441320e-002 -8.920962e-002 -6.495926e-002 6.856897e-002 2.510507e-001 3.684734e-001 1.728917e-001 -2.314787e-001
<VARIANCE> 25
 3.085521e+000 2.541220e+000 6.985710e+000 7.485404e+000 7.511243e+000 8.813639e+000 7.903555e+000 5.159273e+000 5.747973e+000 4.998486e+000 5.549956e+000 5.938832e+000 2.002100e-001 2.086766e-001 3.893848e-001 6.078188e-001 4.124421e-001 6.959059e-001 8.721877e-001 5.857712e-001 5.909349e-001 6.223084e-001 5.542341e-001 4.459371e-001 7.603304e-002
<GCONST> 5.520631e+001
<STATE> 3
<MEAN> 25
 2.257629e+000 4.739642e+000 3.590760e+000 5.025570e+000 1.914872e+000 1.817933e+000 1.875798e+000 1.853708e+000 2.488677e+000 1.804606e+000 1.441428e+000 5.691658e-001 -8.002270e-001 -7.283640e-001 -3.402197e-001 -1.112095e-001 2.057781e-001 4.748940e-001 3.513994e-001 1.599908e-001 6.766847e-002 8.959149e-003 -8.527805e-002 -1.683343e-001 -3.642887e-001
<VARIANCE> 25
 8.366703e+000 6.400956e+000 7.408932e+000 6.968933e+000 7.379114e+000 8.465286e+000 9.503117e+000 8.606907e+000 8.146985e+000 8.193953e+000 8.933126e+000 9.184527e+000 5.418414e-001 5.876051e-001 7.579296e-001 7.591732e-001 6.053103e-001 6.640344e-001 8.691884e-001 1.009543e+000 9.471785e-001 1.257738e+000 1.032046e+000 7.891521e-001 1.573182e-001
<GCONST> 6.639993e+001
<STATE> 4
<MEAN> 25
 -2.497758e+000 -1.049182e-001 -3.075874e-001 2.816772e+000 1.017447e+000 2.206042e+000 2.651217e+000 2.248020e+000 3.103714e+000 2.772364e+000 1.479418e+000 2.100840e-001 -2.215928e-001 -5.192929e-001 -5.567554e-001 -5.903183e-001 -1.984444e-001 -3.433831e-002 5.293656e-002 -2.943433e-002 -3.207137e-001 -4.512201e-001 -1.889670e-001 1.306016e-001 1.343344e-002
<VARIANCE> 25
 1.410910e+001 1.271056e+001 1.299033e+001 1.015174e+001 8.089918e+000 9.640535e+000 9.646194e+000 7.295754e+000 8.598657e+000 8.111016e+000 6.491138e+000 7.327405e+000 4.246286e-001 4.041697e-001 9.381197e-001 1.495571e+000 6.741772e-001 1.132711e+000 1.568879e+000 8.157966e-001 1.105952e+000 1.552200e+000 7.885450e-001 1.089421e+000 2.206746e-001
<GCONST> 7.016605e+001
<TRANSP> 5
 0.000000e+000 1.000000e+000 0.000000e+000 0.000000e+000 0.000000e+000
 0.000000e+000 8.309658e-001 1.690342e-001 0.000000e+000 0.000000e+000
 0.000000e+000 0.000000e+000 7.046811e-001 2.953189e-001 0.000000e+000
 0.000000e+000 0.000000e+000 0.000000e+000 7.201939e-001 2.798061e-001
 0.000000e+000 0.000000e+000 0.000000e+000 0.000000e+000 0.000000e+000
<ENDHMM>
~h "ny"
<BEGINHMM>
<NUMSTATES> 5
<STATE> 2
<MEAN> 25
 -5.095789e+000 -2.440089e+000 -2.567791e-001 3.073141e+000 2.019244e+000 1.487853e+000 5.646019e-001 4.077650e-002 1.252592e+000 1.605583e+000 5.142332e-001 -1.530965e+000 6.830027e-001 1.028890e+000 1.279886e+000 6.495649e-001 6.136420e-001 1.832693e-002 -1.178928e-001 7.892885e-002 -1.501049e-001 -4.515713e-001 -9.393537e-003 -3.766787e-001 4.692275e-001
<VARIANCE> 25
 1.389851e+001 1.097092e+001 1.094108e+001 9.729351e+000 8.945566e+000 1.331172e+001 1.427630e+001 1.222641e+001 1.227574e+001 1.002322e+001 7.735805e+000 8.345325e+000 1.454428e+000 1.644122e+000 1.748731e+000 1.908381e+000 1.009036e+000 1.900054e+000 1.632333e+000 1.206990e+000 1.626021e+000 1.555878e+000 1.397244e+000 1.149421e+000 6.720287e-001
<GCONST> 7.897418e+001
<STATE> 3
<MEAN> 25
 3.092620e+000 6.695528e+000 9.771609e+000 7.282795e+000 3.799844e+000 1.107939e-002 -1.425456e+000 -3.161079e-001 -4.572707e-001 -1.324986e+000 -9.890345e-002 -3.573912e+000 4.625511e-001 3.330541e-001 9.884272e-001 -1.607345e-001 8.614846e-002 -7.974655e-001 -9.455760e-001 8.431218e-002 1.392615e-001 -3.807593e-001 1.707390e-001 -4.096641e-002 7.298705e-001
<VARIANCE> 25
 8.495243e+000 9.113314e+000 1.545137e+001 1.731643e+001 1.343488e+001 1.299530e+001 1.929155e+001 1.037744e+001 9.598453e+000 9.015220e+000 1.078446e+001 9.415792e+000 1.691909e+000 1.663566e+000 1.638266e+000 1.770223e+000 1.567017e+000 1.872098e+000 4.289584e+000 1.209065e+000 1.581990e+000 1.151669e+000 1.312979e+000 1.126538e+000 9.055764e-001
<GCONST> 8.114227e+001
<STATE> 4
<MEAN> 25
 6.601847e+000 1.134083e+000 4.512300e+000 -1.348173e+000 7.411434e+000 -3.396201e+000 -1.157875e+001 -4.281802e+000 1.014840e+000 -1.185083e-001 3.539350e+000 2.849751e+000 1.178138e+000 -5.767958e-001 -1.956884e+000 -1.731021e+000 -7.505845e-002 1.033720e+000 5.262947e-001 -4.260258e-001 -7.376620e-001 4.521343e-002 3.427400e-001 1.496868e+000 7.449535e-001
<VARIANCE> 25
 1.852471e+001 1.682080e+001 4.490052e+001 3.210988e+001 1.371343e+001 3.242150e+001 3.102918e+001 2.229725e+001 1.822005e+001 1.677207e+001 1.465964e+001 2.100223e+001 1.136781e+000 1.741916e+000 2.480614e+000 1.671906e+000 2.781744e+000 3.370742e+000 9.289665e+000 4.012561e+000 2.723838e+000 2.556437e+000 1.541531e+000 1.250940e+000 8.859019e-001
<GCONST> 9.348920e+001
<TRANSP> 5
 0.000000e+000 1.000000e+000 0.000000e+000 0.000000e+000 0.000000e+000
 0.000000e+000 7.366083e-001 2.633917e-001 0.000000e+000 0.000000e+000
 0.000000e+000 0.000000e+000 8.513246e-001 1.486755e-001 0.000000e+000
 0.000000e+000 0.000000e+000 0.000000e+000 8.404206e-001 1.595794e-001
 0.000000e+000 0.000000e+000 0.000000e+000 0.000000e+000 0.000000e+000
<ENDHMM>
~h "sp"
<BEGINHMM>
<NUMSTATES> 3
<STATE> 2
~s "silst"
<TRANSP> 3
 0.000000e+000 6.619801e-001 3.380199e-001
 0.000000e+000 9.368147e-001 6.318529e-002
 0.000000e+000 0.000000e+000 0.000000e+000
<ENDHMM>
~h "uw"
<BEGINHMM>
<NUMSTATES> 5
<STATE> 2
<MEAN> 25
 9.480474e+000 1.034566e+001 6.682497e+000 8.867087e-001 -4.270709e+000 -4.960568e+000 -3.126556e+000 3.203974e-001 -2.176619e+000 -3.875527e+000 -3.551820e+000 -3.861719e+000 7.371082e-001 2.208793e+000 1.744967e+000 4.655393e-001 -6.237793e-001 -1.220564e+000 -1.530126e+000 -1.250945e-001 7.243302e-001 2.421421e-001 -7.293088e-001 -1.046033e+000 -1.004714e-001
<VARIANCE> 25
 8.373593e+000 1.841353e+001 1.754086e+001 1.615893e+001 1.369340e+001 2.331069e+001 1.857871e+001 1.772273e+001 1.732401e+001 3.573625e+001 1.970285e+001 1.318997e+001 1.800176e+000 4.586956e+000 2.380618e+000 1.837592e+000 1.492804e+000 2.129997e+000 2.329005e+000 2.325311e+000 2.398456e+000 3.350694e+000 2.810130e+000 1.848584e+000 8.608141e-001
<GCONST> 9.019803e+001
<STATE> 3
<MEAN> 25
 7.552705e+000 1.165998e+001 9.297884e+000 3.997440e+000 -4.089153e+000 -6.728028e+000 -6.024132e+000 -1.922131e+000 6.527205e-001 6.765226e-001 -1.225251e+000 -3.841949e+000 -8.087651e-001 -7.640588e-001 -4.410504e-001 3.046210e-001 5.491151e-001 5.905069e-001 3.249020e-001 -1.598937e-001 1.567848e-001 3.530920e-001 3.971266e-001 3.822487e-001 -4.187615e-001
<VARIANCE> 25
 5.995600e+000 5.198200e+000 6.612969e+000 9.985296e+000 1.149615e+001 1.212933e+001 1.203757e+001 1.586229e+001 1.146589e+001 1.510290e+001 1.465084e+001 9.699124e+000 7.344370e-001 8.899294e-001 7.825384e-001 8.161427e-001 9.305974e-001 1.093492e+000 1.043377e+000 1.374767e+000 1.032987e+000 1.150451e+000 9.780904e-001 7.065014e-001 1.883618e-001
<GCONST> 7.151501e+001
<STATE> 4
<MEAN> 25
 -2.387652e+000 5.672938e-001 1.166121e+000 2.880851e+000 -3.384059e-001 -9.910312e-001 -1.947633e+000 -1.724542e+000 -1.433029e-001 -2.721399e-001 -1.522943e+000 -2.665864e+000 -7.237804e-001 -7.921180e-001 -5.674450e-001 -1.070465e-001 2.271369e-001 3.811060e-001 2.877478e-001 8.894150e-002 -2.846400e-002 -7.556782e-002 -8.997025e-002 -1.475428e-002 -3.354962e-001
<VARIANCE> 25
 7.877027e+000 8.096490e+000 7.268154e+000 9.442972e+000 9.167250e+000 1.009373e+001 1.022767e+001 1.125956e+001 1.214936e+001 1.065018e+001 9.437954e+000 8.589717e+000 5.328767e-001 6.052009e-001 6.124796e-001 7.722581e-001 8.449740e-001 9.184663e-001 9.928013e-001 1.212497e+000 1.141152e+000 1.080872e+000 9.346011e-001 8.323283e-001 1.433517e-001
<GCONST> 6.893092e+001
<TRANSP> 5
 0.000000e+000 1.000000e+000 0.000000e+000 0.000000e+000 0.000000e+000
 0.000000e+000 7.128010e-001 2.871990e-001 0.000000e+000 0.000000e+000
 0.000000e+000 0.000000e+000 8.602831e-001 1.397170e-001 0.000000e+000
 0.000000e+000 0.000000e+000 0.000000e+000 8.790368e-001 1.209632e-001
 0.000000e+000 0.000000e+000 0.000000e+000 0.000000e+000 0.000000e+000
<ENDHMM>
~h "sil"
<BEGINHMM>
<NUMSTATES> 5
<STATE> 2
<MEAN> 25
 -6.123312e+000 -4.204268e+000 -2.731796e+000 3.616807e-001 -7.048953e-001 -5.470608e-001 -4.102601e-001 -9.864948e-001 7.104447e-001 1.615314e+000 1.013988e+000 8.470344e-002 -2.082060e-001 -2.621164e-002 8.062324e-002 1.649654e-001 1.467156e-001 1.753830e-001 1.323847e-001 1.576754e-001 2.284843e-001 1.519957e-001 -6.792283e-002 -1.046849e-001 -1.591633e-001
<VARIANCE> 25
 6.350328e+000 4.817222e+000 8.663490e+000 9.450268e+000 9.676452e+000 1.347147e+001 1.189197e+001 1.063117e+001 1.126415e+001 1.177488e+001 1.117012e+001 9.669946e+000 7.515244e-001 4.813226e-001 8.887439e-001 1.001791e+000 1.166187e+000 1.608460e+000 1.625935e+000 1.358927e+000 1.208350e+000 1.124674e+000 1.137266e+000 1.083610e+000 4.128824e-001
<GCONST> 7.297243e+001
<STATE> 3
~s "silst"
<STATE> 4
<MEAN> 25
 -7.081120e+000 -4.907537e+000 -4.057401e+000 -7.349982e-001 -1.812964e+000 -4.995358e-001 2.511413e-001 1.724617e-001 1.509130e+000 2.067925e+000 1.218511e+000 2.951964e-001 1.210660e-001 5.007421e-002 -4.759800e-002 -1.671788e-001 -7.324852e-002 6.249018e-002 9.128471e-002 3.904196e-002 -4.424953e-002 -9.879881e-002 -4.129533e-002 -4.787239e-003 9.571004e-002
<VARIANCE> 25
 1.622392e+000 2.242323e+000 4.164991e+000 6.501460e+000 6.230242e+000 6.533131e+000 7.946354e+000 8.207091e+000 8.332289e+000 8.783633e+000 8.697528e+000 8.821424e+000 1.465641e-001 2.136338e-001 4.300984e-001 6.482776e-001 6.543543e-001 7.600624e-001 8.425838e-001 8.079770e-001 8.533353e-001 9.649115e-001 9.929102e-001 9.151396e-001 4.704994e-002
<GCONST> 5.788376e+001
<TRANSP> 5
 0.000000e+000 1.000000e+000 0.000000e+000 0.000000e+000 0.000000e+000
 0.000000e+000 5.664381e-001 3.890567e-001 4.450523e-002 0.000000e+000
 0.000000e+000 0.000000e+000 9.740412e-001 2.595884e-002 0.000000e+000
 0.000000e+000 1.380402e-001 0.000000e+000 6.982930e-001 1.636667e-001
 0.000000e+000 0.000000e+000 0.000000e+000 0.000000e+000 0.000000e+000
<ENDHMM>
