~o
<STREAMINFO> 1 25
<VECSIZE> 25<NULLD><MFCC_D_N_Z_0><DIAGC>
~s "silst"
<MEAN> 25
 -7.162170e+000 -4.659720e+000 -2.909208e+000 1.043402e+000 -4.900683e-001 1.138020e-001 2.244982e-001 -2.928272e-002 1.514419e+000 1.957907e+000 7.194111e-001 -2.683285e-001 -3.346921e-002 -3.314769e-002 -2.671800e-002 -1.664014e-002 -1.448699e-002 -1.383523e-002 -6.547489e-003 7.450583e-003 1.135836e-002 6.940342e-003 1.130944e-002 9.070013e-003 -1.657625e-002
<VARIANCE> 25
 1.300126e+000 1.690271e+000 2.589137e+000 3.824432e+000 4.401059e+000 5.105539e+000 5.919524e+000 6.555830e+000 7.069302e+000 6.478046e+000 6.286134e+000 5.934762e+000 6.657430e-002 1.206366e-001 2.165320e-001 3.135026e-001 4.035494e-001 5.033592e-001 6.008847e-001 6.542760e-001 7.012112e-001 6.903603e-001 6.719526e-001 6.146322e-001 1.925362e-002
<GCONST> 4.763945e+001
~h "b"
<BEGINHMM>
<NUMSTATES> 5
<STATE> 2
<MEAN> 25
 -3.814972e+000 -1.866110e+000 -1.372906e+000 7.818552e-001 -4.452095e-001 8.619053e-001 5.684770e-001 -5.839161e-001 -1.465966e-001 1.170352e-001 -6.434202e-001 -1.566947e+000 -3.477205e-001 -2.442211e-001 -6.108943e-002 1.952126e-001 1.878077e-001 6.179073e-002 2.301797e-002 -9.021421e-002 -1.051292e-001 -2.700175e-002 8.966647e-003 1.033534e-001 -1.930460e-001
<VARIANCE> 25
 4.581461e+000 7.745454e+000 1.649743e+001 1.693538e+001 7.085875e+000 7.986879e+000 9.963954e+000 1.279281e+001 1.575708e+001 9.262006e+000 9.400926e+000 1.340710e+001 2.898635e-001 3.585767e-001 6.643897e-001 7.269697e-001 5.109785e-001 5.702277e-001 7.870863e-001 1.007203e+000 1.228076e+000 8.786488e-001 6.382717e-001 6.578500e-001 7.853936e-002
<GCONST> 6.605927e+001
<STATE> 3
<MEAN> 25
 -6.373799e+000 -3.974474e+000 -2.174980e+000 1.881968e+000 6.548598e-001 1.069747e+000 8.145028e-002 3.918887e-002 1.666593e+000 1.534001e+000 2.513367e-001 -7.065487e-001 -7.678762e-003 1.004403e-002 3.597337e-002 7.367127e-002 8.168071e-002 6.804913e-002 3.290833e-002 6.522046e-002 1.319718e-001 9.178627e-002 5.615731e-002 4.052260e-002 -6.403103e-003
<VARIANCE> 25
 1.732594e+000 2.807871e+000 3.581619e+000 4.850050e+000 5.062657e+000 5.468744e+000 5.937606e+000 7.275315e+000 7.626355e+000 7.477265e+000 7.039968e+000 6.710718e+000 9.220977e-002 1.892470e-001 2.884301e-001 4.384070e-001 5.277096e-001 6.121301e-001 6.804885e-001 7.890501e-001 7.853950e-001 7.505512e-001 7.403098e-001 7.706706e-001 2.130657e-002
<GCONST> 5.256267e+001
<STATE> 4
<MEAN> 25
 2.788492e-001 4.005331e+000 5.996437e+000 8.443241e+000 5.368051e+000 3.859457e+000 1.955399e+000 9.224178e-001 2.142662e+000 1.942518e+000 2.585388e-001 -1.421262e+000 1.139389e+000 6.997322e-001 3.686552e-001 7.978944e-002 6.830283e-002 2.805462e-002 -1.012268e-002 -2.657569e-001 -4.069911e-001 -1.841926e-001 -3.024460e-002 -3.460433e-002 6.641170e-001
<VARIANCE> 25
 1.421162e+001 2.018625e+001 2.261305e+001 1.659525e+001 1.042714e+001 8.286427e+000 9.544587e+000 7.519425e+000 8.730120e+000 6.455824e+000 6.299572e+000 6.282561e+000 1.113962e+000 2.391201e+000 3.239825e+000 3.116000e+000 1.934910e+000 1.318265e+000 1.047778e+000 9.919573e-001 1.170212e+000 7.687037e-001 7.999409e-001 7.320746e-001 5.079620e-001
<GCONST> 7.692461e+001
<TRANSP> 5
 0.000000e+000 1.000000e+000 0.000000e+000 0.000000e+000 0.000000e+000
 0.000000e+000 8.026977e-001 1.973023e-001 0.000000e+000 0.000000e+000
 0.000000e+000 0.000000e+000 9.224151e-001 7.758492e-002 0.000000e+000
 0.000000e+000 0.000000e+000 0.000000e+000 8.906154e-001 1.093846e-001
 0.000000e+000 0.000000e+000 0.000000e+000 0.000000e+000 0.000000e+000
<ENDHMM>
~h "d"
<BEGINHMM>
<NUMSTATES> 5
<STATE> 2
<MEAN> 25
 1.850012e+000 1.831146e+000 9.531111e+000 5.976661e+000 6.493912e+000 3.535278e+000 -2.652636e+000 -1.998751e+000 -6.427544e-001 -1.255434e+000 -1.863938e+000 -2.325344e+000 6.532497e-001 8.617671e-002 5.782400e-001 1.305673e-001 5.858726e-001 -4.639535e-002 -1.173755e+000 -3.692188e-001 -2.955414e-001 -6.013573e-001 -1.288832e-001 -3.585168e-002 6.525658e-001
<VARIANCE> 25
 1.940332e+001 3.018248e+001 4.097805e+001 3.539781e+001 3.011784e+001 2.076113e+001 4.945384e+001 3.039327e+001 2.309493e+001 1.960126e+001 2.429898e+001 1.905396e+001 2.094602e+000 5.056938e+000 3.847072e+000 5.885983e+000 3.591848e+000 2.749557e+000 4.994702e+000 3.884687e+000 2.709572e+000 2.203977e+000 2.535658e+000 1.641094e+000 2.635496e+000
<GCONST> 1.005232e+002
<STATE> 3
<MEAN> 25
 4.009440e+000 6.716828e+000 1.071574e+001 9.513667e+000 6.774472e+000 6.171495e-001 -6.084119e+000 -6.428111e-001 2.444417e+000 -1.396862e+000 -2.451265e+000 -3.560805e+000 1.114143e-001 1.773497e-001 -3.772214e-001 -2.521042e-001 -4.673716e-001 -1.894205e-001 3.311970e-001 -2.452610e-002 9.572227e-002 4.804650e-001 4.279425e-001 2.903862e-001 -8.759870e-002
<VARIANCE> 25
 5.098417e+000 5.330245e+000 1.120834e+001 1.191939e+001 1.327455e+001 2.015330e+001 5.155687e+001 9.162545e+000 1.223770e+001 1.206602e+001 1.148151e+001 1.111326e+001 2.352515e-001 3.784335e-001 1.018865e+000 7.273591e-001 1.343184e+000 1.199854e+000 4.035710e+000 1.169765e+000 1.502709e+000 1.112491e+000 8.215192e-001 5.519718e-001 2.979693e-001
<GCONST> 7.355791e+001
<STATE> 4
<MEAN> 25
 5.540469e+000 6.957221e+000 5.947940e+000 7.031262e+000 4.869465e+000 2.065358e+000 -2.920828e+000 -4.571919e+000 -2.132279e+000 1.552419e-001 1.841994e+000 4.964737e-001 -3.512359e-001 -6.063431e-002 -2.551157e-001 2.272281e-001 4.742695e-002 6.172893e-001 1.352554e+000 5.063018e-001 1.186446e-001 -1.028052e-001 -3.291380e-001 -1.497077e-001 -3.562825e-001
<VARIANCE> 25
 9.285534e+000 2.982183e+000 1.081727e+001 1.667269e+001 5.140040e+000 8.722517e+000 2.193560e+001 1.839551e+001 1.624006e+001 9.719635e+000 1.405004e+001 1.364479e+001 2.041784e-001 2.942485e-001 5.369480e-001 5.843639e-001 8.121012e-001 9.981990e-001 2.310270e+000 7.539126e-001 1.041790e+000 8.577366e-001 1.125883e+000 6.307647e-001 1.800536e-001
<GCONST> 6.878825e+001
<TRANSP> 5
 0.000000e+000 1.000000e+000 0.000000e+000 0.000000e+000 0.000000e+000
 0.000000e+000 8.595325e-001 1.404675e-001 0.000000e+000 0.000000e+000
 0.000000e+000 0.000000e+000 8.782459e-001 1.217542e-001 0.000000e+000
 0.000000e+000 0.000000e+000 0.000000e+000 7.132404e-001 2.867596e-001
 0.000000e+000 0.000000e+000 0.000000e+000 0.000000e+000 0.000000e+000
<ENDHMM>
~h "f"
<BEGINHMM>
<NUMSTATES> 5
<STATE> 2
<MEAN> 25
 -1.899412e+000 -1.030776e+001 -4.745587e+000 -3.349578e+000 4.418954e+000 3.391868e+000 4.368727e-001 -7.059039e+000 -4.268156e+000 -1.216650e+000 2.783922e+000 2.100330e+000 1.475880e-001 2.847599e-001 3.660750e-001 1.840519e-001 9.946012e-002 -2.017386e-001 -3.265163e-001 1.810797e-002 2.930617e-002 -2.760246e-001 -2.551132e-001 -1.244343e-001 8.429654e-002
<VARIANCE> 25
 1.220552e+001 2.011238e+001 1.358759e+001 3.613908e+001 1.941736e+001 1.381890e+001 2.366224e+001 1.557749e+001 1.556670e+001 2.023969e+001 1.256022e+001 1.507131e+001 1.786300e+000 5.913464e+000 4.113364e+000 7.834827e+000 2.758508e+000 1.478631e+000 3.424198e+000 1.571774e+000 2.360003e+000 2.617831e+000 2.175069e+000 2.428088e+000 4.046665e-001
<GCONST> 9.164426e+001
<STATE> 3
<MEAN> 25
 5.334029e+000 5.008594e+000 1.050077e+001 1.402509e+001 1.051329e+001 -6.865618e-001 -1.205544e+001 -4.758121e+000 -1.963754e+000 -7.105648e+000 -7.065360e+000 -5.539276e+000 -2.461549e-002 1.069031e+000 2.203108e+000 5.494894e-001 -3.926230e-001 -4.242176e-001 -3.726768e-001 1.148515e+000 -1.573331e-001 -1.816875e+000 -7.106392e-001 -6.849929e-003 -2.047276e-002
<VARIANCE> 25
 8.326381e+000 1.168615e+001 1.813203e+001 2.985241e+001 1.454476e+001 8.744469e+000 1.953502e+001 1.249081e+001 9.137395e+000 1.472123e+001 1.036288e+001 7.926382e+000 5.826946e-001 2.963475e+000 3.528575e+000 1.890726e+000 7.151566e-001 1.749344e+000 2.821280e+000 1.094394e+000 1.524633e+000 2.034359e+000 3.169617e+000 1.082048e+000 1.598454e-001
<GCONST> 8.079801e+001
<STATE> 4
<MEAN> 25
 3.017963e+000 5.232123e+000 1.172705e+001 1.216017e+001 8.187630e+000 2.265821e+000 -5.458078e+000 2.423847e-001 -1.728265e+000 -7.917593e+000 -4.393500e+000 -3.854244e+000 -3.339963e-001 -3.606259e-001 -6.139641e-001 -3.902592e-001 -3.682024e-001 1.865737e-001 8.423188e-001 3.360127e-001 3.257460e-001 4.722957e-001 3.377686e-001 3.033028e-001 -2.324015e-001
<VARIANCE> 25
 4.439531e+000 9.110529e+000 1.317932e+001 1.150020e+001 8.564628e+000 8.960667e+000 1.941745e+001 7.842453e+000 9.492416e+000 1.416920e+001 8.087088e+000 7.935901e+000 1.856558e-001 7.959421e-001 6.553644e-001 4.164208e-001 4.338404e-001 5.859421e-001 9.118966e-001 6.894616e-001 7.682787e-001 7.511830e-001 6.777140e-001 8.141813e-001 7.785859e-002
<GCONST> 6.435579e+001
<TRANSP> 5
 0.000000e+000 1.000000e+000 0.000000e+000 0.000000e+000 0.000000e+000
 0.000000e+000 9.261712e-001 7.382877e-002 0.000000e+000 0.000000e+000
 0.000000e+000 0.000000e+000 7.348722e-001 2.651278e-001 0.000000e+000
 0.000000e+000 0.000000e+000 0.000000e+000 8.830489e-001 1.169511e-001
 0.000000e+000 0.000000e+000 0.000000e+000 0.000000e+000 0.000000e+000
<ENDHMM>
~h "g"
<BEGINHMM>
<NUMSTATES> 5
<STATE> 2
<MEAN> 25
 -5.146513e-002 3.487239e+000 3.221689e+000 3.035316e+000 5.826638e-001 -4.846581e-001 -6.727384e-002 5.074067e-001 1.243675e+000 1.820380e+000 5.036508e-001 -5.494303e-002 -7.403167e-001 -3.748535e-001 -1.487526e-001 5.239658e-001 -1.050827e-001 1.116662e-001 7.973033e-001 8.408381e-001 9.065144e-001 4.731828e-001 2.127459e-001 1.138056e-001 -5.628019e-001
<VARIANCE> 25
 9.538193e+000 1.178928e+001 7.996153e+000 9.997734e+000 8.854856e+000 1.210557e+001 8.553153e+000 9.675772e+000 1.351256e+001 9.937824e+000 7.140968e+000 8.389234e+000 2.920340e-001 2.366991e-001 3.898628e-001 6.768078e-001 7.708570e-001 4.767720e-001 8.954007e-001 1.248829e+000 1.244805e+000 6.876577e-001 1.109790e+000 7.060449e-001 1.107542e-001
<GCONST> 6.564080e+001
<STATE> 3
<MEAN> 25
 -4.506464e-001 3.395669e+000 3.427990e+000 4.596637e+000 1.763505e+000 1.937779e+000 1.989808e+000 1.503035e+000 2.135247e+000 1.953658e+000 9.041609e-001 1.684650e-002 -5.698801e-001 -6.107585e-001 -3.128625e-001 1.254496e-001 9.598625e-002 1.357242e-001 1.650065e-001 2.558816e-001 3.825930e-001 2.026542e-001 2.321815e-002 -5.701063e-002 -2.757334e-001
<VARIANCE> 25
 4.752908e+000 6.247737e+000 6.692219e+000 8.793978e+000 7.734526e+000 7.236605e+000 9.847140e+000 7.810303e+000 7.887351e+000 6.873911e+000 6.371382e+000 5.444560e+000 1.638047e-001 3.997325e-001 4.952581e-001 6.980299e-001 7.027888e-001 6.954529e-001 9.035616e-001 7.244771e-001 7.969277e-001 7.920040e-001 6.345935e-001 5.676624e-001 6.319708e-002
<GCONST> 6.014932e+001
<STATE> 4
<MEAN> 25
 -4.772143e-001 -3.393045e+000 8.403725e-001 -9.144085e-001 1.112256e+000 5.437541e-001 1.068990e+000 1.709910e+000 -3.125474e-001 -1.527815e+000 2.037979e+000 -3.391000e-001 6.265743e-001 -1.474176e+000 5.745257e-002 -1.528934e+000 -2.102765e-001 -5.468644e-001 -9.683263e-001 1.216676e-001 -9.260214e-001 -1.566442e+000 3.838107e-001 7.615444e-002 1.622328e+000
<VARIANCE> 25
 1.972011e+001 5.132165e+001 2.390193e+001 6.251528e+001 2.667095e+001 2.215867e+001 3.266796e+001 2.677871e+001 4.760453e+001 3.397131e+001 1.649001e+001 8.558937e+000 1.124175e+000 5.474274e+000 3.836847e+000 6.902517e+000 2.287593e+000 2.189455e+000 3.804817e+000 1.587768e+000 3.171817e+000 4.601719e+000 2.199080e+000 8.346994e-001 2.586177e+000
<GCONST> 9.841170e+001
<TRANSP> 5
 0.000000e+000 1.000000e+000 0.000000e+000 0.000000e+000 0.000000e+000
 0.000000e+000 2.125126e-001 7.874874e-001 0.000000e+000 0.000000e+000
 0.000000e+000 0.000000e+000 7.978637e-001 2.021364e-001 0.000000e+000
 0.000000e+000 0.000000e+000 0.000000e+000 8.011388e-001 1.988612e-001
 0.000000e+000 0.000000e+000 0.000000e+000 0.000000e+000 0.000000e+000
<ENDHMM>
~h "k"
<BEGINHMM>
<NUMSTATES> 5
<STATE> 2
<MEAN> 25
 -5.781626e+000 -3.440231e+000 -1.823422e+000 1.647690e+000 -1.104912e-001 4.322604e-001 4.206375e-001 4.266224e-001 1.845815e+000 1.879646e+000 5.818263e-001 -6.251300e-001 1.279900e+000 -3.305870e-001 -1.012939e+000 -2.496974e+000 -1.446965e+000 -2.510744e-001 9.614702e-001 -3.105666e-001 -1.226964e+000 -7.207048e-001 4.367224e-001 4.410661e-001 1.395346e+000
<VARIANCE> 25
 2.414886e+000 3.201997e+000 4.865273e+000 7.617086e+000 7.661704e+000 8.258741e+000 7.864113e+000 8.277498e+000 8.217883e+000 9.257846e+000 8.956774e+000 7.678215e+000 2.145946e+000 2.022456e+000 2.019665e+000 6.203785e+000 4.029457e+000 3.125793e+000 4.455893e+000 1.547467e+000 2.586338e+000 2.388542e+000 1.537046e+000 1.371304e+000 2.440133e+000
<GCONST> 8.040956e+001
<STATE> 3
<MEAN> 25
 2.768576e+000 -5.775965e+000 -7.890481e+000 -1.403376e+001 -6.812580e+000 2.934964e-001 6.394293e+000 -2.617915e+000 -6.342191e+000 -3.236958e+000 2.809366e+000 1.424622e+000 2.413759e+000 3.250701e-001 -5.568023e-001 -3.542933e+000 -1.649400e+000 -5.902331e-001 1.517878e+000 -1.881927e-001 -2.046850e+000 -1.185600e+000 9.854789e-001 1.211255e+000 2.527219e+000
<VARIANCE> 25
 1.305030e+001 2.872338e+001 1.960317e+001 3.925350e+001 6.916872e+001 5.912362e+001 7.935097e+001 2.802126e+001 2.554445e+001 2.968781e+001 1.950269e+001 1.738092e+001 1.309805e+000 2.481655e+000 2.382146e+000 5.373990e+000 4.574797e+000 4.877473e+000 5.167057e+000 1.929628e+000 2.445752e+000 2.237506e+000 1.637964e+000 1.616275e+000 1.744257e+000
<GCONST> 9.936211e+001
<STATE> 4
<MEAN> 25
 4.531350e+000 5.623327e-002 -3.686002e+000 -8.954316e+000 -5.840866e+000 -2.085392e+000 3.194368e+000 -5.054798e-002 -4.063681e+000 -1.282380e+000 2.824190e+000 3.308801e+000 1.471408e+000 2.153333e+000 8.399316e-001 2.057285e+000 1.361783e+000 -2.533286e-001 -1.416896e+000 7.469254e-001 1.251541e+000 4.490426e-001 -9.166900e-001 2.906227e-001 -1.988044e-001
<VARIANCE> 25
 2.053197e+001 2.327149e+001 1.465141e+001 3.846149e+001 4.510468e+001 5.032416e+001 6.431435e+001 2.187428e+001 3.201138e+001 2.596781e+001 2.261386e+001 1.349052e+001 2.650815e+000 2.248796e+000 1.918391e+000 2.850982e+000 3.134440e+000 3.099419e+000 3.734411e+000 1.571030e+000 1.844906e+000 1.356322e+000 1.326482e+000 1.650107e+000 9.612041e-001
<GCONST> 9.505880e+001
<TRANSP> 5
 0.000000e+000 1.000000e+000 0.000000e+000 0.000000e+000 0.000000e+000
 0.000000e+000 6.678628e-001 3.321372e-001 0.000000e+000 0.000000e+000
 0.000000e+000 0.000000e+000 5.291321e-001 4.708679e-001 0.000000e+000
 0.000000e+000 0.000000e+000 0.000000e+000 6.995805e-001 3.004196e-001
 0.000000e+000 0.000000e+000 0.000000e+000 0.000000e+000 0.000000e+000
<ENDHMM>
~h "l"
<BEGINHMM>
<NUMSTATES> 5
<STATE> 2
<MEAN> 25
 -2.485080e+000 -2.954890e+000 -1.988079e+000 -2.498191e+000 -1.179668e+000 2.024793e+000 2.242609e+000 5.058414e-002 -1.044523e+000 2.961324e-001 7.697570e-001 1.174628e+000 -1.044734e-001 6.114537e-002 3.535215e-002 4.529354e-002 -3.191164e-001 -2.557300e-001 -1.696763e-001 -5.719901e-002 5.516250e-002 -3.781170e-002 -9.463470e-002 -1.637798e-001 -1.500164e-001
<VARIANCE> 25
 3.479623e+001 3.766906e+001 2.566897e+001 3.034357e+001 1.531739e+001 2.062020e+001 1.595835e+001 1.209881e+001 1.546045e+001 1.465827e+001 1.209711e+001 1.279771e+001 5.543994e-001 2.052684e+000 2.539219e+000 2.755697e+000 1.514258e+000 1.780513e+000 1.703660e+000 1.258353e+000 1.492537e+000 1.604447e+000 1.296061e+000 1.375482e+000 6.170664e-001
<GCONST> 8.606484e+001
<STATE> 3
<MEAN> 25
 3.634145e+000 4.527435e+000 9.650144e-001 -2.773876e+000 -3.309642e+000 -1.592554e+000 7.127162e-002 5.194530e-002 -2.237108e+000 -2.050136e+000 -2.177772e+000 -4.926128e-001 9.871468e-001 1.177447e+000 6.825189e-001 -2.240195e-002 -5.832528e-001 -5.345978e-001 -4.016722e-001 -7.730632e-002 -2.346960e-001 -6.216308e-001 -6.188335e-001 -4.731557e-001 3.750086e-001
<VARIANCE> 25
 3.750531e+001 2.606749e+001 1.255111e+001 3.223366e+001 1.290427e+001 9.084677e+000 8.508745e+000 1.001520e+001 1.087032e+001 1.259562e+001 9.731581e+000 8.781199e+000 2.535712e+000 1.864532e+000 1.271567e+000 2.265627e+000 1.093069e+000 1.047420e+000 1.008446e+000 1.207721e+000 1.283197e+000 1.090777e+000 8.029580e-001 8.904135e-001 9.543378e-001
<GCONST> 8.030968e+001
<STATE> 4
<MEAN> 25
 8.141735e+000 8.657804e+000 2.480859e+000 -6.177839e+000 -6.751649e+000 -4.374927e+000 -4.370793e-001 1.966904e+000 -8.414598e-001 -1.899295e+000 -2.574724e+000 -8.301261e-001 7.754183e-002 -2.701741e-001 -3.565133e-001 -5.494305e-001 -3.005037e-002 4.890000e-002 3.041879e-001 3.892543e-001 2.737055e-001 2.466277e-002 -1.982017e-002 2.195996e-001 2.264419e-001
<VARIANCE> 25
 1.595453e+001 1.232392e+001 1.315869e+001 2.960854e+001 1.249207e+001 1.045457e+001 1.211462e+001 1.068966e+001 1.139400e+001 1.099840e+001 6.227979e+000 7.956972e+000 4.920301e-001 6.079412e-001 1.913833e+000 2.456839e+000 8.513512e-001 9.563572e-001 1.381427e+000 1.161214e+000 8.187292e-001 7.910474e-001 7.741109e-001 1.094679e+000 4.318736e-001
<GCONST> 7.483163e+001
<TRANSP> 5
 0.000000e+000 1.000000e+000 0.000000e+000 0.000000e+000 0.000000e+000
 0.000000e+000 7.280104e-001 2.719896e-001 0.000000e+000 0.000000e+000
 0.000000e+000 0.000000e+000 4.489232e-001 5.510769e-001 0.000000e+000
 0.000000e+000 0.000000e+000 0.000000e+000 7.771862e-001 2.228138e-001
 0.000000e+000 0.000000e+000 0.000000e+000 0.000000e+000 0.000000e+000
<ENDHMM>
~h "m"
<BEGINHMM>
<NUMSTATES> 5
<STATE> 2
<MEAN> 25
 1.464128e+000 3.062885e+000 1.955371e+000 3.803060e+000 1.367667e+000 1.795244e+000 2.402671e+000 2.626974e+000 2.825348e+000 1.154495e+000 -1.312694e+000 -3.148683e+000 9.454185e-001 8.311231e-001 7.221416e-001 8.577878e-001 1.034236e+000 8.687536e-001 5.633153e-001 6.365848e-001 3.931401e-001 -3.806760e-001 -8.540109e-001 -9.741919e-001 4.692054e-001
<VARIANCE> 25
 2.655403e+001 2.202732e+001 1.466989e+001 8.247299e+000 7.924943e+000 9.122965e+000 7.918294e+000 7.321439e+000 7.959523e+000 8.926165e+000 1.019198e+001 8.650309e+000 2.785321e+000 1.174333e+000 8.492752e-001 1.300499e+000 1.121010e+000 8.825498e-001 7.283280e-001 1.136686e+000 1.392280e+000 9.194318e-001 8.656842e-001 6.585892e-001 8.384321e-001
<GCONST> 7.479109e+001
<STATE> 3
<MEAN> 25
 4.659935e+000 6.246169e+000 3.925369e+000 4.749004e+000 2.177707e+000 2.364716e+000 3.121872e+000 3.868644e+000 4.017203e+000 1.333972e+000 -1.662550e+000 -3.938487e+000 -1.862811e-001 -1.413940e-001 2.357751e-002 2.194099e-001 2.344053e-001 1.687540e-001 1.310794e-001 5.046510e-002 5.161152e-002 6.490260e-002 6.917178e-002 2.692864e-002 -1.024655e-001
<VARIANCE> 25
 5.206953e+000 3.809179e+000 7.686626e+000 6.737846e+000 6.440621e+000 6.855874e+000 5.520571e+000 6.698236e+000 9.524652e+000 8.508041e+000 8.568588e+000 9.477066e+000 4.305090e-001 2.833404e-001 4.264972e-001 4.417152e-001 4.563803e-001 5.018687e-001 5.681821e-001 6.268027e-001 7.437866e-001 7.047902e-001 6.884085e-001 6.423937e-001 1.311968e-001
<GCONST> 5.929923e+001
<STATE> 4
<MEAN> 25
 -1.608335e+000 2.295949e-001 2.381569e-001 3.263313e+000 1.740719e+000 2.706722e+000 2.848516e+000 2.172835e+000 2.455825e+000 1.863868e+000 6.219904e-001 -1.040422e+000 -2.058421e-001 -4.295389e-001 -5.359594e-001 -6.029951e-001 -4.804826e-001 -3.221101e-001 -3.052110e-001 -2.514553e-001 -2.030761e-001 -4.202751e-002 1.824635e-001 4.129763e-001 -5.461809e-002
<VARIANCE> 25
 1.899914e+001 1.483521e+001 1.399169e+001 1.367926e+001 8.670620e+000 7.784472e+000 6.395982e+000 9.040044e+000 1.042607e+001 1.059913e+001 1.141519e+001 1.149516e+001 1.281876e+000 9.019660e-001 7.720732e-001 1.293860e+000 1.159028e+000 9.477931e-001 8.116914e-001 9.944498e-001 1.056402e+000 9.939255e-001 9.962426e-001 9.464723e-001 3.692458e-001
<GCONST> 7.371159e+001
<TRANSP> 5
 0.000000e+000 1.000000e+000 0.000000e+000 0.000000e+000 0.000000e+000
 0.000000e+000 5.729140e-001 4.270860e-001 0.000000e+000 0.000000e+000
 0.000000e+000 0.000000e+000 8.227988e-001 1.772011e-001 0.000000e+000
 0.000000e+000 0.000000e+000 0.000000e+000 7.478271e-001 2.521729e-001
 0.000000e+000 0.000000e+000 0.000000e+000 0.000000e+000 0.000000e+000
<ENDHMM>
~h "n"
<BEGINHMM>
<NUMSTATES> 5
<STATE> 2
<MEAN> 25
 7.103715e+000 6.295621e+000 3.727312e+000 3.144067e+000 2.710593e+000 1.344243e+000 -2.691158e+000 -5.419400e+000 -4.803174e+000 -1.573785e+000 1.087172e+000 1.867270e+000 -9.664806e-001 4.080366e-001 1.107246e+000 2.450341e+000 8.388930e-001 8.132747e-001 3.864861e-001 -3.194783e-001 7.481062e-002 -6.368069e-001 -6.317866e-001 -6.052423e-001 -1.051689e+000
<VARIANCE> 25
 8.852810e+000 7.493589e+000 1.523496e+001 2.196533e+001 1.553644e+001 1.157227e+001 2.231832e+001 1.413492e+001 1.377004e+001 1.332460e+001 1.113046e+001 1.232502e+001 8.338920e-001 7.072909e-001 2.046765e+000 3.475079e+000 1.969167e+000 1.583072e+000 4.138647e+000 2.010370e+000 1.709566e+000 1.425049e+000 1.354200e+000 1.287615e+000 5.391628e-001
<GCONST> 8.255234e+001
<STATE> 3
<MEAN> 25
 5.230956e+000 6.488902e+000 4.832786e+000 7.568422e+000 5.915791e+000 3.815970e+000 -1.041353e+000 -4.487735e+000 -3.797924e+000 -1.938224e+000 6.422094e-001 1.650235e+000 -4.295587e-001 -1.106858e-001 1.533691e-001 3.691207e-001 2.564221e-001 2.447023e-001 3.881238e-001 3.699598e-001 2.900946e-001 1.921251e-001 1.133470e-001 -5.576018e-003 -2.831202e-001
<VARIANCE> 25
 4.670708e+000 2.590415e+000 7.710726e+000 6.278971e+000 5.340209e+000 6.732120e+000 8.254622e+000 6.401626e+000 9.769832e+000 1.069241e+001 7.606694e+000 8.938865e+000 1.280813e-001 1.798849e-001 4.026226e-001 3.663659e-001 4.386818e-001 5.480877e-001 7.269816e-001 6.452055e-001 9.613156e-001 9.884825e-001 7.484300e-001 5.882511e-001 5.744394e-002
<GCONST> 5.714251e+001
<STATE> 4
<MEAN> 25
 -8.943408e-001 1.685395e+000 2.899120e+000 6.185018e+000 4.266169e+000 3.645693e+000 1.618044e+000 -7.391638e-001 -4.335023e-001 7.562948e-001 1.656582e+000 9.908763e-001 -8.670698e-001 -8.794994e-001 -5.212698e-001 -5.954897e-001 -5.116922e-001 -2.408333e-001 9.793184e-002 3.473199e-001 3.873348e-001 2.225623e-001 -1.239074e-001 -2.215280e-001 -3.452578e-001
<VARIANCE> 25
 1.045302e+001 1.232857e+001 9.881200e+000 8.517161e+000 8.671698e+000 8.156274e+000 7.873928e+000 9.115326e+000 9.932769e+000 8.700829e+000 8.909261e+000 8.246620e+000 3.372295e-001 6.650724e-001 1.042790e+000 7.430730e-001 8.409473e-001 9.567938e-001 1.011702e+000 1.185460e+000 1.218100e+000 9.421641e-001 9.733464e-001 8.128734e-001 1.452738e-001
<GCONST> 6.871582e+001
<TRANSP> 5
 0.000000e+000 1.000000e+000 0.000000e+000 0.000000e+000 0.000000e+000
 0.000000e+000 5.116872e-001 4.883128e-001 0.000000e+000 0.000000e+000
 0.000000e+000 0.000000e+000 8.757248e-001 1.242753e-001 0.000000e+000
 0.000000e+000 0.000000e+000 0.000000e+000 8.371415e-001 1.628585e-001
 0.000000e+000 0.000000e+000 0.000000e+000 0.000000e+000 0.000000e+000
<ENDHMM>
~h "p"
<BEGINHMM>
<NUMSTATES> 5
<STATE> 2
<MEAN> 25
 -5.017513e+000 -3.581622e+000 -1.233006e+000 1.624063e+000 3.926546e-001 2.590796e+000 1.960500e+000 5.188503e-001 1.333330e+000 1.463839e+000 9.994153e-001 3.599432e-001 -1.283580e-001 -2.257914e-001 -2.210501e-001 -1.486714e-001 -1.610410e-001 -2.057896e-001 -9.976353e-002 -1.522734e-001 -1.208316e-001 2.111658e-002 -1.455858e-002 -5.034463e-002 -3.600267e-002
<VARIANCE> 25
 4.524581e+000 9.796565e+000 2.281740e+001 1.272982e+001 1.086196e+001 1.512161e+001 1.424028e+001 1.935927e+001 1.392026e+001 1.465851e+001 9.736689e+000 1.119786e+001 6.203871e-001 1.436226e+000 2.729435e+000 1.549853e+000 1.647148e+000 1.805020e+000 1.832039e+000 2.028910e+000 1.557996e+000 1.461798e+000 8.833762e-001 1.225766e+000 3.593229e-001
<GCONST> 7.974908e+001
<STATE> 3
<MEAN> 25
 -4.901473e+000 -2.724198e+000 -1.823257e+000 1.162254e+000 -1.194577e+000 -1.550856e+000 -1.857195e+000 -1.762397e+000 3.739723e-001 1.204395e+000 5.667854e-001 -2.508651e-001 4.017736e-001 -3.409046e-002 -2.680993e-001 -3.766647e-001 -2.791443e-001 -3.199558e-001 -3.394169e-001 -4.772516e-001 -4.813396e-001 -2.146673e-001 1.710899e-003 9.136116e-002 2.954842e-001
<VARIANCE> 25
 6.960536e+000 4.860627e+000 4.834845e+000 7.408954e+000 1.161761e+001 1.241883e+001 1.291778e+001 1.439635e+001 1.370182e+001 1.148657e+001 1.116024e+001 7.292531e+000 1.980060e+000 7.138354e-001 8.206239e-001 1.298945e+000 1.324231e+000 1.364044e+000 1.093526e+000 1.684227e+000 1.805218e+000 1.323905e+000 1.201628e+000 9.715101e-001 1.018133e+000
<GCONST> 7.535802e+001
<STATE> 4
<MEAN> 25
 -6.140639e+000 -3.728190e+000 -2.288989e+000 1.532704e+000 -1.479402e-001 6.166512e-002 -8.360611e-002 -2.280196e-001 1.222765e+000 1.729511e+000 6.035166e-001 -5.629967e-001 2.574770e-001 7.296202e-003 -1.105937e-001 -1.428005e-001 -3.090319e-002 5.319541e-002 2.064027e-002 -9.396890e-002 -1.611339e-001 -8.250386e-002 2.366009e-002 4.113032e-002 1.894369e-001
<VARIANCE> 25
 3.322687e+000 2.911740e+000 3.440680e+000 4.576246e+000 4.976624e+000 5.734384e+000 6.369424e+000 7.563323e+000 8.746743e+000 8.321936e+000 7.287826e+000 6.525427e+000 1.408305e+000 4.486380e-001 3.706915e-001 5.272867e-001 7.431406e-001 7.464429e-001 6.549097e-001 1.086379e+000 1.390869e+000 1.006538e+000 8.422152e-001 8.345323e-001 6.033193e-001
<GCONST> 6.280581e+001
<TRANSP> 5
 0.000000e+000 1.000000e+000 0.000000e+000 0.000000e+000 0.000000e+000
 0.000000e+000 5.884249e-001 4.115751e-001 0.000000e+000 0.000000e+000
 0.000000e+000 0.000000e+000 2.968024e-001 7.031976e-001 0.000000e+000
 0.000000e+000 0.000000e+000 0.000000e+000 8.426172e-001 1.573828e-001
 0.000000e+000 0.000000e+000 0.000000e+000 0.000000e+000 0.000000e+000
<ENDHMM>
~h "r"
<BEGINHMM>
<NUMSTATES> 5
<STATE> 2
<MEAN> 25
 -9.783815e-001 -1.541064e+000 -3.486949e+000 -1.781163e+000 -5.114606e-002 2.559540e+000 1.548479e+000 -1.095330e+000 -2.371398e+000 -9.613176e-001 1.564498e+000 2.828487e+000 9.937822e-001 5.503385e-001 8.758427e-002 -9.095947e-002 2.524758e-001 2.115387e-001 -4.695973e-002 -2.158600e-001 -6.591496e-001 -6.059829e-001 -2.009664e-002 3.332560e-001 5.668716e-001
<VARIANCE> 25
 2.426229e+001 1.541340e+001 1.505223e+001 1.461392e+001 1.059479e+001 1.017107e+001 1.216960e+001 1.212381e+001 1.503284e+001 1.248286e+001 9.366965e+000 1.106266e+001 2.194930e+000 1.459063e+000 1.659775e+000 1.844014e+000 1.234490e+000 1.370131e+000 1.519836e+000 1.335671e+000 1.633443e+000 1.630151e+000 1.057289e+000 1.217800e+000 7.280614e-001
<GCONST> 8.124489e+001
<STATE> 3
<MEAN> 25
 8.690621e+000 5.069489e+000 -1.331649e+000 -1.945111e+000 -5.746865e-001 1.045585e+000 7.234706e-001 -1.237569e+000 -5.711360e+000 -5.968346e+000 -2.038813e+000 1.965673e+000 5.341124e-001 5.140586e-001 7.865066e-002 -1.332171e-001 -6.326607e-001 -4.759747e-001 2.004745e-001 4.778691e-001 2.680996e-001 -2.080840e-001 -6.445910e-001 -6.035273e-001 1.759649e-001
<VARIANCE> 25
 1.632864e+001 8.143788e+000 1.051347e+001 1.100082e+001 9.007768e+000 8.786303e+000 9.669424e+000 9.407382e+000 1.248607e+001 1.172962e+001 8.375282e+000 7.039320e+000 2.623680e+000 1.454508e+000 1.567887e+000 1.552637e+000 9.762805e-001 1.185965e+000 1.282488e+000 1.151202e+000 1.895339e+000 1.804893e+000 1.314677e+000 1.249690e+000 1.011337e+000
<GCONST> 7.803575e+001
<STATE> 4
<MEAN> 25
 9.668246e+000 8.800280e+000 1.761254e+000 -3.616352e+000 -6.571974e+000 -4.474731e+000 7.892227e-001 3.234545e+000 -1.526538e+000 -3.992405e+000 -4.662883e+000 -3.891538e+000 -5.955924e-002 9.406290e-001 1.259055e+000 1.262939e-001 -8.082359e-001 -1.362235e+000 -1.134240e+000 -1.508055e-001 7.567701e-001 1.308686e+000 4.092722e-001 -8.578243e-001 -1.707248e-001
<VARIANCE> 25
 1.259478e+001 9.469233e+000 8.636043e+000 9.159594e+000 1.230966e+001 1.741723e+001 7.840099e+000 9.220726e+000 7.500288e+000 1.205395e+001 7.249842e+000 9.561521e+000 7.512771e-001 4.373631e-001 6.974607e-001 1.184868e+000 8.665146e-001 9.895433e-001 1.204206e+000 1.775776e+000 8.123378e-001 1.301846e+000 1.300153e+000 1.039263e+000 3.507785e-001
<GCONST> 7.210257e+001
<TRANSP> 5
 0.000000e+000 1.000000e+000 0.000000e+000 0.000000e+000 0.000000e+000
 0.000000e+000 8.572810e-001 1.427189e-001 0.000000e+000 0.000000e+000
 0.000000e+000 0.000000e+000 8.142586e-001 1.857415e-001 0.000000e+000
 0.000000e+000 0.000000e+000 0.000000e+000 7.174044e-001 2.825956e-001
 0.000000e+000 0.000000e+000 0.000000e+000 0.000000e+000 0.000000e+000
<ENDHMM>
~h "s"
<BEGINHMM>
<NUMSTATES> 5
<STATE> 2
<MEAN> 25
 -4.472422e+000 -8.525369e+000 4.295595e+000 -6.482096e+000 -1.848549e+000 4.497060e-001 3.819909e+000 -2.218753e+000 -4.950671e+000 3.483076e+000 2.424571e+000 2.271800e+000 -1.321035e+000 -1.910463e+000 2.170942e+000 -1.540604e+000 3.174680e-001 -5.317377e-001 7.872692e-001 -3.763808e-001 -8.481484e-001 4.840623e-001 8.183945e-003 -1.832539e-002 1.408544e+000
<VARIANCE> 25
 1.475819e+001 2.159533e+001 4.232172e+001 3.037089e+001 2.133602e+001 1.836104e+001 2.512169e+001 1.388054e+001 1.683379e+001 1.287710e+001 9.709411e+000 9.184444e+000 2.344874e+000 1.719752e+000 2.377913e+000 1.766659e+000 2.581982e+000 1.835836e+000 1.888790e+000 1.635674e+000 1.856418e+000 1.390574e+000 1.215251e+000 1.108621e+000 5.072528e-001
<GCONST> 8.664574e+001
<STATE> 3
<MEAN> 25
 -1.077233e+001 -1.415475e+001 1.205706e+001 -1.304364e+001 2.056786e+000 -4.471234e+000 8.845417e+000 -2.208577e+000 -6.206131e+000 3.413472e+000 2.441115e+000 1.120661e+000 -7.129350e-002 -1.329862e-001 5.531996e-002 8.211846e-003 1.018378e-001 -1.665336e-002 2.931649e-002 2.358129e-002 -9.650724e-002 -5.525340e-002 1.187495e-001 -1.433095e-002 7.403216e-002
<VARIANCE> 25
 5.400452e+000 7.208771e+000 7.656799e+000 1.576910e+001 1.309260e+001 1.675194e+001 2.327943e+001 1.118416e+001 1.368591e+001 1.006502e+001 1.059125e+001 9.610026e+000 7.446356e-001 6.095362e-001 7.820233e-001 9.731461e-001 9.144550e-001 1.101359e+000 1.118392e+000 9.061519e-001 9.295843e-001 9.174637e-001 7.819775e-001 8.152870e-001 4.186171e-001
<GCONST> 7.238060e+001
<STATE> 4
<MEAN> 25
 -3.974718e+000 -8.320065e+000 4.276457e+000 -5.257698e+000 -2.789051e-001 7.291674e-001 3.552517e+000 -1.800579e+000 -4.970999e+000 3.108726e+000 3.376291e+000 2.272895e+000 1.307676e+000 1.664632e+000 -1.594492e+000 1.668147e+000 -8.912613e-002 5.888145e-001 -1.161021e+000 4.301674e-002 8.950040e-001 -2.510654e-001 -3.358023e-001 -3.967489e-001 -1.134469e+000
<VARIANCE> 25
 1.543813e+001 2.309516e+001 4.892534e+001 3.521551e+001 2.745420e+001 1.700534e+001 2.636691e+001 1.323742e+001 2.564654e+001 1.820624e+001 1.162525e+001 1.198247e+001 3.134578e+000 2.947501e+000 2.644756e+000 4.044324e+000 1.497583e+000 1.785322e+000 2.315379e+000 1.238162e+000 2.025620e+000 1.915538e+000 1.702340e+000 1.871337e+000 8.897918e-001
<GCONST> 9.138693e+001
<TRANSP> 5
 0.000000e+000 1.000000e+000 0.000000e+000 0.000000e+000 0.000000e+000
 0.000000e+000 8.178943e-001 1.821056e-001 0.000000e+000 0.000000e+000
 0.000000e+000 0.000000e+000 9.035221e-001 9.647796e-002 0.000000e+000
 0.000000e+000 0.000000e+000 0.000000e+000 8.275648e-001 1.724352e-001
 0.000000e+000 0.000000e+000 0.000000e+000 0.000000e+000 0.000000e+000
<ENDHMM>
~h "t"
<BEGINHMM>
<NUMSTATES> 5
<STATE> 2
<MEAN> 25
 -4.578511e+000 -1.995716e+000 -1.172705e+000 1.942706e+000 3.211399e-001 8.026956e-001 1.260691e-001 -5.740002e-001 6.582408e-001 1.044898e+000 3.425765e-001 -2.286832e-001 -3.360753e-001 -3.038090e-001 -2.020571e-001 -4.113483e-002 4.070302e-002 -1.313858e-002 3.193187e-002 1.042680e-001 1.827123e-001 1.716254e-001 6.409965e-002 2.381610e-002 -1.629700e-001
<VARIANCE> 25
 2.636532e+000 3.150635e+000 4.899095e+000 6.680182e+000 7.532568e+000 7.494606e+000 7.082199e+000 8.085416e+000 8.047753e+000 8.372217e+000 7.821035e+000 7.828102e+000 1.268912e-001 1.551134e-001 2.650684e-001 4.319828e-001 5.173398e-001 5.547531e-001 5.466706e-001 7.146420e-001 7.428126e-001 8.541046e-001 7.062361e-001 6.554859e-001 4.163951e-002
<GCONST> 5.527087e+001
<STATE> 3
<MEAN> 25
 -6.100517e+000 -3.886153e+000 -2.765726e+000 5.490774e-001 -1.028153e+000 -5.270058e-002 2.954656e-001 9.272091e-002 1.550451e+000 1.788269e+000 9.637109e-001 1.112639e-001 5.827816e-001 -4.849466e-001 -2.211132e-001 -3.237712e-001 -1.573836e-001 -3.090350e-001 -2.198436e-001 -3.476121e-001 -5.205832e-001 -2.749047e-001 2.043816e-001 1.119267e-001 7.143490e-001
<VARIANCE> 25
 4.046744e+000 4.025792e+000 5.174619e+000 6.717452e+000 7.736275e+000 7.875168e+000 7.857681e+000 8.502439e+000 8.527304e+000 7.979781e+000 7.619325e+000 7.151370e+000 1.373456e+000 8.495841e-001 8.806492e-001 9.071317e-001 1.104694e+000 1.353344e+000 1.196819e+000 1.497320e+000 1.578601e+000 1.209555e+000 1.198142e+000 1.424953e+000 1.215349e+000
<GCONST> 7.110767e+001
<STATE> 4
<MEAN> 25
 1.029889e+000 -5.256531e+000 -2.239347e+000 2.254819e-001 -1.098259e+000 -7.220696e-001 1.669395e+000 -1.250158e+000 -5.078485e+000 -3.054561e+000 1.710861e+000 1.574395e+000 2.429196e+000 1.146572e+000 1.151534e+000 -4.254225e-001 -1.676817e-001 -2.438610e-001 -7.583117e-002 -1.977827e-001 -1.420611e+000 -1.477188e+000 -5.774472e-001 -2.033189e-001 1.843252e+000
<VARIANCE> 25
 4.227942e+001 3.676312e+001 2.124854e+001 1.960165e+001 1.578439e+001 2.281301e+001 2.601833e+001 1.934231e+001 4.423769e+001 3.148880e+001 1.631403e+001 1.894273e+001 3.465207e+000 9.495061e+000 4.209821e+000 2.059093e+000 2.195766e+000 2.347356e+000 3.490639e+000 2.706508e+000 5.419981e+000 3.118668e+000 3.395470e+000 3.315604e+000 3.528446e+000
<GCONST> 1.004560e+002
<TRANSP> 5
 0.000000e+000 1.000000e+000 0.000000e+000 0.000000e+000 0.000000e+000
 0.000000e+000 8.400206e-001 1.599794e-001 0.000000e+000 0.000000e+000
 0.000000e+000 0.000000e+000 6.311386e-001 3.688613e-001 0.000000e+000
 0.000000e+000 0.000000e+000 0.000000e+000 7.081175e-001 2.918825e-001
 0.000000e+000 0.000000e+000 0.000000e+000 0.000000e+000 0.000000e+000
<ENDHMM>
~h "aa"
<BEGINHMM>
<NUMSTATES> 5
<STATE> 2
<MEAN> 25
 9.510255e+000 3.234164e+000 -4.939059e+000 -8.452908e+000 -2.094022e+000 -4.221554e-001 1.681137e+000 2.520696e+000 -3.797188e-001 -2.236760e+000 -1.092709e-001 3.658453e+000 1.643242e+000 6.235865e-001 -1.027590e+000 -1.747378e+000 -5.085816e-001 -1.164586e-001 4.668337e-001 7.429743e-001 7.588754e-002 -6.201420e-001 -2.121664e-001 9.488423e-001 1.007324e+000
<VARIANCE> 25
 2.793415e+001 2.160198e+001 2.753673e+001 3.202126e+001 1.927293e+001 1.611564e+001 1.501968e+001 1.644644e+001 1.742945e+001 1.195704e+001 1.508510e+001 1.580091e+001 1.927598e+000 1.939133e+000 2.377483e+000 2.983771e+000 2.287588e+000 1.928363e+000 2.383624e+000 1.556854e+000 1.749655e+000 1.426304e+000 1.200427e+000 1.390695e+000 1.031395e+000
<GCONST> 8.872381e+001
<STATE> 3
<MEAN> 25
 1.296205e+001 4.995013e+000 -6.776267e+000 -1.133375e+001 -2.264698e+000 -4.862241e-002 3.254555e+000 3.861818e+000 -8.488085e-001 -2.504489e+000 -7.752143e-001 5.368903e+000 -2.453104e-001 1.247886e-001 1.812883e-001 2.072473e-001 -4.166103e-002 2.960135e-001 2.497174e-001 -1.485707e-002 -7.719461e-002 2.050110e-001 7.131629e-002 -1.499180e-001 -2.896027e-001
<VARIANCE> 25
 4.440933e+000 5.628413e+000 9.887746e+000 1.086467e+001 8.758181e+000 1.276134e+001 8.511087e+000 1.028791e+001 1.453440e+001 1.055598e+001 1.078744e+001 7.226314e+000 2.830198e-001 4.526413e-001 8.617744e-001 8.511577e-001 7.333567e-001 8.992202e-001 8.461944e-001 8.320899e-001 1.045915e+000 8.707572e-001 8.716406e-001 6.694884e-001 2.343887e-001
<GCONST> 6.720562e+001
<STATE> 4
<MEAN> 25
 4.543205e+000 2.704419e+000 -2.878727e+000 -5.029282e+000 -2.725116e+000 8.795003e-001 2.967744e+000 2.451217e+000 3.904627e-001 -9.829007e-002 5.557737e-001 2.224290e+000 -1.406630e+000 -3.642498e-001 8.844240e-001 1.461135e+000 1.689581e-001 -1.569928e-001 -3.978553e-001 -4.458803e-001 1.977550e-001 4.300830e-001 5.245769e-002 -6.382560e-001 -9.553509e-001
<VARIANCE> 25
 3.759758e+001 1.667826e+001 1.457316e+001 2.587878e+001 1.480673e+001 1.368565e+001 1.701111e+001 2.090412e+001 2.205943e+001 1.427503e+001 1.236292e+001 1.229825e+001 1.061921e+000 9.381067e-001 1.761399e+000 2.310036e+000 1.120803e+000 1.258597e+000 1.389365e+000 1.444801e+000 1.366957e+000 1.417080e+000 1.036003e+000 9.877558e-001 4.843036e-001
<GCONST> 8.268185e+001
<TRANSP> 5
 0.000000e+000 1.000000e+000 0.000000e+000 0.000000e+000 0.000000e+000
 0.000000e+000 6.619131e-001 3.380870e-001 0.000000e+000 0.000000e+000
 0.000000e+000 0.000000e+000 7.940421e-001 2.059578e-001 0.000000e+000
 0.000000e+000 0.000000e+000 0.000000e+000 7.682812e-001 2.317188e-001
 0.000000e+000 0.000000e+000 0.000000e+000 0.000000e+000 0.000000e+000
<ENDHMM>
~h "ao"
<BEGINHMM>
<NUMSTATES> 5
<STATE> 2
<MEAN> 25
 9.588611e+000 8.398741e+000 2.341668e+000 -4.301638e+000 -6.068171e+000 -5.439740e+000 1.091469e+000 1.917125e+000 -3.341765e+000 -4.622179e+000 -3.910383e+000 -3.519338e-001 6.260446e-001 1.603911e+000 9.528612e-001 8.169128e-001 -7.103403e-001 -9.975401e-001 -1.197675e+000 4.692619e-001 1.121796e+000 -7.224703e-002 -1.211093e+000 -1.442901e+000 -2.779881e-001
<VARIANCE> 25
 7.322991e+000 6.573882e+000 1.144090e+001 1.381477e+001 1.584839e+001 2.438153e+001 1.580251e+001 1.127560e+001 1.696424e+001 1.735126e+001 1.246966e+001 1.124433e+001 2.611370e+000 2.886229e+000 8.743113e-001 2.695660e+000 2.769751e+000 2.337453e+000 2.269300e+000 1.852017e+000 1.832390e+000 1.493582e+000 1.387184e+000 8.646904e-001 6.908127e-001
<GCONST> 8.365115e+001
<STATE> 3
<MEAN> 25
 8.568448e+000 9.855421e+000 5.652276e+000 -1.970000e-001 -5.756609e+000 -5.276380e+000 -3.142377e-001 1.710221e+000 -1.931387e+000 -4.526892e+000 -5.758673e+000 -3.773049e+000 1.269179e-001 2.423708e-001 1.659311e-001 2.572985e-002 -4.182343e-001 -5.681255e-001 -3.141031e-001 2.521462e-001 5.794673e-001 4.524679e-001 1.783707e-001 -1.504619e-001 -6.298813e-003
<VARIANCE> 25
 7.915830e+000 4.313300e+000 8.187359e+000 1.718414e+001 2.506296e+001 2.353705e+001 1.114844e+001 1.873745e+001 1.581658e+001 1.088160e+001 7.621488e+000 9.448698e+000 5.081256e-001 4.626626e-001 5.940385e-001 1.020465e+000 1.310441e+000 1.205530e+000 1.107935e+000 1.219466e+000 1.053204e+000 1.096197e+000 6.324300e-001 7.940797e-001 2.858196e-001
<GCONST> 7.258323e+001
<STATE> 4
<MEAN> 25
 6.279517e+000 8.292036e+000 3.634283e+000 -1.436361e+000 -7.958729e+000 -7.523224e+000 -2.291852e+000 2.874148e+000 4.122458e+000 2.153071e+000 -1.400552e+000 -3.409056e+000 -6.454290e-001 -6.403702e-001 -3.921934e-001 1.385849e-001 4.848301e-001 6.241400e-001 2.569507e-001 -2.269709e-001 -1.514291e-001 -1.851917e-002 1.213045e-001 1.326413e-001 -3.182755e-001
<VARIANCE> 25
 2.653293e+001 2.383433e+001 1.764928e+001 1.408398e+001 1.285386e+001 1.925079e+001 1.580565e+001 1.287793e+001 1.056454e+001 1.428616e+001 9.141937e+000 9.428702e+000 6.043391e-001 6.113582e-001 7.093869e-001 9.076192e-001 7.886522e-001 8.080508e-001 8.982306e-001 1.286519e+000 1.098047e+000 1.003837e+000 7.579437e-001 6.674605e-001 1.735426e-001
<GCONST> 7.413536e+001
<TRANSP> 5
 0.000000e+000 1.000000e+000 0.000000e+000 0.000000e+000 0.000000e+000
 0.000000e+000 5.148434e-001 4.851566e-001 0.000000e+000 0.000000e+000
 0.000000e+000 0.000000e+000 8.800859e-001 1.199141e-001 0.000000e+000
 0.000000e+000 0.000000e+000 0.000000e+000 9.306871e-001 6.931289e-002
 0.000000e+000 0.000000e+000 0.000000e+000 0.000000e+000 0.000000e+000
<ENDHMM>
~h "eh"
<BEGINHMM>
<NUMSTATES> 5
<STATE> 2
<MEAN> 25
 3.748170e+000 -3.147070e-001 -3.486567e+000 -2.764054e+000 -2.787906e+000 -8.237244e-001 -4.092187e-002 -2.577222e+000 -4.036611e+000 -1.978564e+000 4.686590e-001 1.794475e+000 4.132349e+000 1.981480e+000 -1.146346e-001 -1.593506e+000 -8.189628e-001 -6.118991e-001 -2.829647e-001 -5.081336e-001 -1.567525e+000 -1.108010e+000 2.109993e-001 1.131460e+000 2.534199e+000
<VARIANCE> 25
 5.843003e+001 2.197231e+001 8.946320e+000 1.381768e+001 1.210586e+001 1.043672e+001 9.197853e+000 2.089915e+001 2.981151e+001 1.753584e+001 8.012879e+000 1.498654e+001 2.193897e+000 2.335593e+000 1.260720e+000 1.862701e+000 2.472372e+000 1.164438e+000 1.760718e+000 4.723670e+000 4.176009e+000 1.939137e+000 1.784990e+000 1.856309e+000 1.001836e+000
<GCONST> 8.802159e+001
<STATE> 3
<MEAN> 25
 1.277104e+001 6.346314e+000 -3.929623e+000 -5.112641e+000 -2.791147e+000 -2.302911e+000 -2.690190e+000 -2.942378e+000 -3.639368e+000 -1.579018e+000 1.595747e+000 2.960124e+000 9.438147e-002 6.032496e-001 7.359802e-001 1.217095e+000 9.130126e-001 -3.032725e-001 -1.458025e+000 -7.667071e-001 6.724110e-001 9.354352e-001 4.219011e-001 -2.656980e-001 -1.468700e-001
<VARIANCE> 25
 4.015103e+000 8.913606e+000 2.558515e+001 2.682051e+001 3.728556e+001 1.759893e+001 2.384945e+001 6.693214e+001 4.564228e+001 1.091981e+001 2.948643e+001 2.121419e+001 1.030617e+000 2.248397e+000 1.754917e+000 2.168077e+000 7.950452e-001 9.466709e-001 1.568163e+000 2.106594e+000 1.518611e+000 7.049005e-001 1.405252e+000 1.020565e+000 6.133642e-001
<GCONST> 8.559497e+001
<STATE> 4
<MEAN> 25
 6.416297e+000 2.005470e+000 -2.819329e+000 2.788644e+000 4.130645e+000 -1.274500e+000 -8.842191e+000 -8.544112e+000 -5.772108e-001 5.729549e+000 3.945885e+000 -1.182622e+000 -7.222720e-001 -1.508442e-001 3.461966e-001 3.011140e-001 -1.379048e-002 6.626442e-002 1.911680e-001 2.818550e-001 3.052792e-001 2.465497e-002 -2.136777e-001 -1.962273e-001 -4.470332e-001
<VARIANCE> 25
 3.615845e+001 1.472958e+001 1.834933e+001 1.681226e+001 1.471515e+001 9.150410e+000 1.877273e+001 2.121993e+001 2.091063e+001 1.554711e+001 1.168992e+001 1.445705e+001 3.421507e-001 6.209965e-001 1.169350e+000 1.339729e+000 8.024157e-001 7.181072e-001 9.340961e-001 9.323029e-001 1.057404e+000 8.708683e-001 7.344518e-001 8.729680e-001 1.631144e-001
<GCONST> 7.563066e+001
<TRANSP> 5
 0.000000e+000 1.000000e+000 0.000000e+000 0.000000e+000 0.000000e+000
 0.000000e+000 6.729820e-001 3.270180e-001 0.000000e+000 0.000000e+000
 0.000000e+000 0.000000e+000 6.422494e-001 3.577507e-001 0.000000e+000
 0.000000e+000 0.000000e+000 0.000000e+000 8.659239e-001 1.340761e-001
 0.000000e+000 0.000000e+000 0.000000e+000 0.000000e+000 0.000000e+000
<ENDHMM>
~h "hh"
<BEGINHMM>
<NUMSTATES> 5
<STATE> 2
<MEAN> 25
 7.280731e+000 1.821586e+000 -7.405307e+000 -9.749616e+000 -3.687912e+000 1.649440e+000 5.011018e+000 4.928481e+000 4.637805e-001 -4.553181e+000 -2.523819e+000 3.483135e+000 6.363850e-001 -5.019280e-001 -1.280434e+000 -1.129202e+000 4.120261e-001 4.651916e-001 2.539317e-001 3.892324e-002 -4.057063e-001 -2.853212e-001 -4.921607e-002 5.887840e-001 5.946774e-001
<VARIANCE> 25
 4.122943e+001 2.588360e+001 1.802954e+001 1.486424e+001 9.474614e+000 8.558017e+000 8.610320e+000 1.247820e+001 8.140141e+000 1.567058e+001 1.022028e+001 1.320267e+001 5.513735e-001 5.243171e-001 1.091881e+000 1.653599e+000 1.145838e+000 8.573405e-001 9.973276e-001 6.992518e-001 1.053008e+000 1.234032e+000 8.584577e-001 6.622094e-001 2.167764e-001
<GCONST> 7.447638e+001
<STATE> 3
<MEAN> 25
 7.012162e+000 -1.399561e+000 -9.428231e+000 -7.034930e+000 6.222968e-001 5.839931e+000 6.302804e+000 4.772749e+000 1.317391e-001 -4.045665e+000 2.076872e-001 6.851524e+000 -5.779759e-001 -3.457999e-001 -5.669242e-002 4.522654e-001 1.087049e-001 8.625235e-002 -1.146978e-001 -4.314470e-001 -1.957329e-001 2.972974e-001 3.904890e-001 -1.299189e-001 -3.997755e-001
<VARIANCE> 25
 1.070379e+001 1.038871e+001 9.238223e+000 1.324361e+001 1.224252e+001 1.336064e+001 9.482163e+000 1.475150e+001 1.168948e+001 9.263516e+000 9.820690e+000 9.700711e+000 4.647317e-001 1.036355e+000 9.426693e-001 7.866504e-001 8.936265e-001 1.029846e+000 8.299106e-001 1.014950e+000 9.993228e-001 7.961098e-001 8.073759e-001 7.766055e-001 1.642328e-001
<GCONST> 7.095835e+001
<STATE> 4
<MEAN> 25
 -1.703753e+000 -2.607941e+000 -5.155643e+000 -1.932409e+000 -1.830232e-001 3.081615e+000 2.818814e+000 1.860958e-001 -4.861249e-001 3.846265e-001 2.047767e+000 2.607706e+000 -6.417351e-001 -1.053573e-001 4.281177e-001 3.731897e-001 -1.564596e-002 -2.974835e-001 -2.198250e-001 7.295673e-002 3.339241e-001 3.325335e-001 -1.401364e-001 -4.199859e-001 -3.783053e-001
<VARIANCE> 25
 2.003870e+001 7.927608e+000 1.429195e+001 1.660892e+001 9.988437e+000 1.355964e+001 1.015518e+001 1.319178e+001 1.554123e+001 1.172108e+001 1.062079e+001 1.215112e+001 5.061901e-001 4.464119e-001 9.762730e-001 9.410740e-001 8.637460e-001 9.895368e-001 8.846948e-001 1.099811e+000 1.285525e+000 1.056931e+000 8.174225e-001 8.812841e-001 1.911782e-001
<GCONST> 7.292335e+001
<TRANSP> 5
 0.000000e+000 1.000000e+000 0.000000e+000 0.000000e+000 0.000000e+000
 0.000000e+000 7.565180e-001 2.434820e-001 0.000000e+000 0.000000e+000
 0.000000e+000 0.000000e+000 8.616386e-001 1.383614e-001 0.000000e+000
 0.000000e+000 0.000000e+000 0.000000e+000 8.692180e-001 1.307820e-001
 0.000000e+000 0.000000e+000 0.000000e+000 0.000000e+000 0.000000e+000
<ENDHMM>
~h "ih"
<BEGINHMM>
<NUMSTATES> 5
<STATE> 2
<MEAN> 25
 3.192791e+000 -6.806061e-001 7.929795e+000 6.044538e+000 7.310929e+000 1.675967e+000 -6.921249e+000 -2.560715e+000 -1.559418e+000 -3.418786e+000 -2.394893e+000 -2.861331e+000 9.729934e-001 1.370240e+000 2.157864e+000 2.223713e+000 1.478743e+000 -3.538980e-001 -1.901547e+000 1.059699e-001 1.164999e-001 -1.598781e+000 -1.528048e+000 -7.185225e-001 3.756222e-001
<VARIANCE> 25
 1.698300e+001 3.313602e+001 4.900135e+001 4.369354e+001 2.550963e+001 2.716029e+001 4.485403e+001 4.491857e+001 2.462158e+001 3.020614e+001 2.418213e+001 1.707392e+001 2.464305e+000 3.459631e+000 3.917688e+000 5.237809e+000 2.944538e+000 3.913255e+000 4.668999e+000 3.518609e+000 2.915802e+000 3.145886e+000 2.229004e+000 1.787795e+000 1.997200e+000
<GCONST> 1.014311e+002
<STATE> 3
<MEAN> 25
 2.390542e+000 2.883266e+000 1.182065e+001 1.102779e+001 8.973633e+000 2.125363e+000 -7.155817e+000 1.084670e+000 -6.578165e-002 -7.057685e+000 -4.767637e+000 -4.679929e+000 -2.390915e-001 -3.636030e-002 -5.454396e-001 -1.368085e-001 -1.472947e-001 -1.953752e-002 3.962670e-001 -5.404642e-002 1.102615e-001 3.547412e-001 1.799966e-001 7.008722e-002 -2.851433e-001
<VARIANCE> 25
 9.893162e+000 9.956232e+000 2.679095e+001 1.218000e+001 1.531887e+001 1.394728e+001 3.348756e+001 1.556073e+001 1.408759e+001 2.320555e+001 1.069107e+001 1.097040e+001 3.073366e-001 6.273384e-001 8.752093e-001 7.029949e-001 8.600842e-001 1.014140e+000 1.716134e+000 1.244447e+000 9.202972e-001 1.215726e+000 8.423187e-001 6.498066e-001 2.242143e-001
<GCONST> 7.500417e+001
<STATE> 4
<MEAN> 25
 1.790758e+000 3.177963e-001 3.759247e+000 4.518838e+000 6.873869e+000 2.982722e-001 -6.513446e+000 -4.329576e+000 -9.113845e-001 -6.556519e-001 -1.112087e+000 -1.713561e+000 -6.609654e-003 -4.374104e-001 -1.433099e+000 -1.288502e+000 -6.995714e-001 2.197435e-001 6.025223e-001 -5.231684e-001 -4.449943e-001 9.391555e-001 1.086641e+000 6.426491e-001 -5.967568e-002
<VARIANCE> 25
 3.708662e+001 2.888965e+001 4.008571e+001 3.343614e+001 3.910363e+001 4.245592e+001 5.742369e+001 3.351333e+001 1.838961e+001 1.942982e+001 2.264638e+001 1.681611e+001 1.187474e+000 2.157685e+000 3.015354e+000 2.278365e+000 3.338062e+000 4.193861e+000 4.096061e+000 3.509025e+000 2.101185e+000 2.032710e+000 2.406264e+000 1.576137e+000 8.221756e-001
<GCONST> 9.768388e+001
<TRANSP> 5
 0.000000e+000 1.000000e+000 0.000000e+000 0.000000e+000 0.000000e+000
 0.000000e+000 7.047541e-001 2.952459e-001 0.000000e+000 0.000000e+000
 0.000000e+000 0.000000e+000 8.367093e-001 1.632907e-001 0.000000e+000
 0.000000e+000 0.000000e+000 0.000000e+000 7.866957e-001 2.133043e-001
 0.000000e+000 0.000000e+000 0.000000e+000 0.000000e+000 0.000000e+000
<ENDHMM>
~h "ng"
<BEGINHMM>
<NUMSTATES> 5
<STATE> 2
<MEAN> 25
 6.734230e+000 6.911263e+000 2.182853e+000 2.073462e+000 -1.583308e+000 -1.614257e+000 -2.496092e-001 1.969344e+000 3.113789e+000 1.302232e+000 5.827888e-001 6.579803e-001 -3.821490e-001 -8.770074e-002 3.543902e-001 6.161289e-001 2.609011e-001 2.204932e-002 -8.785297e-002 -5.864831e-002 9.145137e-002 2.750459e-001 3.770805e-001 1.616875e-001 -2.428467e-001
<VARIANCE> 25
 3.476583e+000 2.697965e+000 6.483124e+000 7.178624e+000 7.809669e+000 8.957603e+000 7.934610e+000 5.370605e+000 5.892268e+000 5.027703e+000 5.411055e+000 5.696909e+000 2.103620e-001 2.150410e-001 4.119353e-001 6.332496e-001 4.186779e-001 7.180601e-001 8.948134e-001 6.042584e-001 6.228646e-001 6.502679e-001 5.506114e-001 4.489482e-001 8.005806e-002
<GCONST> 5.576004e+001
<STATE> 3
<MEAN> 25
 1.821076e+000 4.302224e+000 3.262226e+000 4.945867e+000 1.969291e+000 2.025057e+000 2.081792e+000 1.900970e+000 2.531259e+000 2.048755e+000 1.649205e+000 6.759732e-001 -8.161986e-001 -7.533172e-001 -3.897499e-001 -1.558354e-001 1.613031e-001 4.531963e-001 3.598432e-001 1.357139e-001 5.999503e-002 2.790982e-002 -4.178150e-002 -1.463295e-001 -3.782024e-001
<VARIANCE> 25
 9.441257e+000 6.929725e+000 6.892339e+000 6.794701e+000 7.469914e+000 8.905877e+000 9.824902e+000 9.080543e+000 8.617374e+000 8.539876e+000 8.498235e+000 8.493457e+000 5.043883e-001 5.576572e-001 7.085303e-001 7.423992e-001 6.335278e-001 6.810636e-001 8.634781e-001 1.032833e+000 9.458854e-001 1.195140e+000 9.745112e-001 7.771416e-001 1.372806e-001
<GCONST> 6.623379e+001
<STATE> 4
<MEAN> 25
 -3.074761e+000 -6.675834e-001 -6.151148e-001 2.689160e+000 9.302843e-001 2.031907e+000 2.530315e+000 2.090079e+000 2.960265e+000 2.732235e+000 1.480041e+000 2.009054e-001 -2.196698e-001 -4.365961e-001 -4.368647e-001 -4.813020e-001 -1.817319e-001 -5.627397e-002 3.731493e-002 -2.968613e-002 -2.685275e-001 -3.866891e-001 -1.848873e-001 1.024346e-001 -1.308203e-002
<VARIANCE> 25
 1.379882e+001 1.125100e+001 1.075550e+001 8.927647e+000 7.762050e+000 9.232088e+000 9.122396e+000 7.466972e+000 8.517886e+000 7.780809e+000 5.904161e+000 6.949912e+000 3.753293e-001 3.782631e-001 8.956513e-001 1.352195e+000 6.044667e-001 1.062431e+000 1.307302e+000 7.936110e-001 1.084553e+000 1.392607e+000 7.334263e-001 1.031929e+000 1.694378e-001
<GCONST> 6.814975e+001
<TRANSP> 5
 0.000000e+000 1.000000e+000 0.000000e+000 0.000000e+000 0.000000e+000
 0.000000e+000 8.334466e-001 1.665534e-001 0.000000e+000 0.000000e+000
 0.000000e+000 0.000000e+000 7.110021e-001 2.889979e-001 0.000000e+000
 0.000000e+000 0.000000e+000 0.000000e+000 7.423534e-001 2.576467e-001
 0.000000e+000 0.000000e+000 0.000000e+000 0.000000e+000 0.000000e+000
<ENDHMM>
~h "ny"
<BEGINHMM>
<NUMSTATES> 5
<STATE> 2
<MEAN> 25
 -5.245386e+000 -2.621389e+000 -5.659649e-001 2.866670e+000 1.828488e+000 1.478487e+000 5.684056e-001 -1.150789e-001 1.344339e+000 1.785380e+000 5.666370e-001 -1.374980e+000 5.512025e-001 9.333767e-001 1.161583e+000 6.419690e-001 5.816976e-001 9.950719e-002 -1.303812e-002 1.295076e-001 -8.441181e-002 -3.807147e-001 -3.243399e-002 -3.779786e-001 3.590198e-001
<VARIANCE> 25
 1.398702e+001 1.172816e+001 1.046006e+001 8.968075e+000 7.296056e+000 1.284021e+001 1.333738e+001 1.185140e+001 1.222331e+001 9.509577e+000 7.218628e+000 8.508168e+000 1.232481e+000 1.462290e+000 1.696177e+000 1.756587e+000 1.006130e+000 1.785941e+000 1.447687e+000 1.179190e+000 1.629039e+000 1.499005e+000 1.301082e+000 1.152227e+000 5.995712e-001
<GCONST> 7.765233e+001
<STATE> 3
<MEAN> 25
 2.770988e+000 6.389090e+000 9.424116e+000 7.354864e+000 3.799246e+000 2.165377e-001 -1.200482e+000 -2.560797e-001 -4.016098e-001 -1.225596e+000 -1.131293e-001 -3.569707e+000 5.426211e-001 4.212209e-001 1.071920e+000 -1.238786e-001 1.083026e-001 -8.016290e-001 -9.498664e-001 6.653303e-002 7.394949e-002 -4.438574e-001 1.761364e-001 -6.217332e-002 7.697216e-001
<VARIANCE> 25
 1.014548e+001 1.065783e+001 1.626230e+001 1.587128e+001 1.320347e+001 1.292509e+001 1.900414e+001 1.036342e+001 9.260676e+000 8.851172e+000 1.048942e+001 9.164030e+000 1.785832e+000 1.823749e+000 1.641431e+000 1.837551e+000 1.502592e+000 1.828425e+000 4.099788e+000 1.193228e+000 1.549832e+000 1.145467e+000 1.341848e+000 1.088851e+000 8.679411e-001
<GCONST> 8.127271e+001
<STATE> 4
<MEAN> 25
 6.485824e+000 1.156896e+000 4.509836e+000 -1.450088e+000 7.277160e+000 -3.283902e+000 -1.118160e+001 -4.031802e+000 8.581967e-001 -2.944132e-001 3.483635e+000 2.834523e+000 1.159324e+000 -4.987948e-001 -1.851758e+000 -1.716191e+000 -7.564215e-002 9.497074e-001 4.990143e-001 -3.711728e-001 -7.083628e-001 2.076880e-002 2.947836e-001 1.431040e+000 7.418925e-001
<VARIANCE> 25
 1.950446e+001 1.693698e+001 4.655567e+001 3.284339e+001 1.487774e+001 3.246984e+001 3.403505e+001 2.319799e+001 1.877585e+001 1.738177e+001 1.512162e+001 2.190125e+001 1.156077e+000 2.054149e+000 2.799390e+000 1.733962e+000 2.804808e+000 3.463593e+000 9.342924e+000 4.042867e+000 2.800742e+000 2.535403e+000 1.607263e+000 1.389479e+000 9.131265e-001
<GCONST> 9.454450e+001
<TRANSP> 5
 0.000000e+000 1.000000e+000 0.000000e+000 0.000000e+000 0.000000e+000
 0.000000e+000 7.154927e-001 2.845073e-001 0.000000e+000 0.000000e+000
 0.000000e+000 0.000000e+000 8.532267e-001 1.467733e-001 0.000000e+000
 0.000000e+000 0.000000e+000 0.000000e+000 8.485716e-001 1.514284e-001
 0.000000e+000 0.000000e+000 0.000000e+000 0.000000e+000 0.000000e+000
<ENDHMM>
~h "sp"
<BEGINHMM>
<NUMSTATES> 3
<STATE> 2
~s "silst"
<TRANSP> 3
 0.000000e+000 6.445365e-001 3.554635e-001
 0.000000e+000 9.370528e-001 6.294715e-002
 0.000000e+000 0.000000e+000 0.000000e+000
<ENDHMM>
~h "uw"
<BEGINHMM>
<NUMSTATES> 5
<STATE> 2
<MEAN> 25
 9.527837e+000 1.059099e+001 6.861387e+000 8.630731e-001 -4.522138e+000 -5.337132e+000 -3.491769e+000 2.982389e-001 -1.917062e+000 -3.623581e+000 -3.578562e+000 -4.038076e+000 6.740252e-001 2.069381e+000 1.687987e+000 4.970128e-001 -6.166307e-001 -1.226897e+000 -1.516659e+000 -1.816598e-001 7.201754e-001 3.217795e-001 -6.311601e-001 -9.729117e-001 -1.019275e-001
<VARIANCE> 25
 8.307575e+000 1.713594e+001 1.718119e+001 1.577629e+001 1.309016e+001 2.211008e+001 1.721917e+001 1.755541e+001 1.582994e+001 3.467865e+001 1.985773e+001 1.297480e+001 1.770798e+000 4.218099e+000 2.340025e+000 1.797327e+000 1.466976e+000 2.101739e+000 2.303370e+000 2.190182e+000 2.197954e+000 3.246385e+000 2.694383e+000 1.753911e+000 7.970144e-001
<GCONST> 8.922932e+001
<STATE> 3
<MEAN> 25
 7.545180e+000 1.166548e+001 9.310309e+000 4.004592e+000 -4.119106e+000 -6.777643e+000 -6.080142e+000 -1.981429e+000 6.750734e-001 7.317150e-001 -1.190145e+000 -3.824367e+000 -8.118456e-001 -7.729313e-001 -4.548315e-001 3.018062e-001 5.629590e-001 6.135657e-001 3.451567e-001 -1.482118e-001 1.540531e-001 3.461205e-001 3.965329e-001 3.850323e-001 -4.199270e-001
<VARIANCE> 25
 5.896981e+000 5.183577e+000 6.603345e+000 9.583866e+000 1.104396e+001 1.174218e+001 1.193078e+001 1.588197e+001 1.148409e+001 1.492031e+001 1.468131e+001 9.639647e+000 7.319830e-001 8.631526e-001 7.552394e-001 8.057479e-001 9.279725e-001 1.083189e+000 1.010522e+000 1.366843e+000 1.037074e+000 1.133159e+000 9.654993e-001 7.031070e-001 1.877268e-001
<GCONST> 7.119360e+001
<STATE> 4
<MEAN> 25
 -2.305123e+000 7.114336e-001 1.311164e+000 2.981859e+000 -3.217270e-001 -1.022573e+000 -1.997707e+000 -1.708201e+000 -6.820957e-002 -2.115171e-001 -1.538779e+000 -2.740199e+000 -7.471383e-001 -8.199688e-001 -5.867367e-001 -1.127288e-001 2.383539e-001 3.969759e-001 3.058729e-001 1.075495e-001 -2.263118e-002 -7.697924e-002 -9.159335e-002 -1.844263e-002 -3.448519e-001
<VARIANCE> 25
 8.181283e+000 8.028542e+000 6.704969e+000 8.812282e+000 9.235398e+000 1.008574e+001 1.007719e+001 1.114764e+001 1.205643e+001 1.081693e+001 9.393002e+000 8.263712e+000 5.356802e-001 6.032207e-001 6.040445e-001 7.655334e-001 8.486698e-001 9.055950e-001 9.922600e-001 1.204388e+000 1.124249e+000 1.083314e+000 9.412065e-001 8.388187e-001 1.441215e-001
<GCONST> 6.872665e+001
<TRANSP> 5
 0.000000e+000 1.000000e+000 0.000000e+000 0.000000e+000 0.000000e+000
 0.000000e+000 7.098018e-001 2.901982e-001 0.000000e+000 0.000000e+000
 0.000000e+000 0.000000e+000 8.557605e-001 1.442396e-001 0.000000e+000
 0.000000e+000 0.000000e+000 0.000000e+000 8.752462e-001 1.247538e-001
 0.000000e+000 0.000000e+000 0.000000e+000 0.000000e+000 0.000000e+000
<ENDHMM>
~h "sil"
<BEGINHMM>
<NUMSTATES> 5
<STATE> 2
<MEAN> 25
 -6.109929e+000 -4.290627e+000 -2.851123e+000 1.903404e-001 -8.109780e-001 -5.560515e-001 -3.977633e-001 -1.001819e+000 6.557635e-001 1.622874e+000 1.108075e+000 1.563095e-001 -2.100362e-001 -3.652160e-002 4.822252e-002 1.163762e-001 8.871605e-002 1.265314e-001 7.750005e-002 1.311528e-001 2.176926e-001 1.634617e-001 -5.079241e-002 -8.551713e-002 -1.643895e-001
<VARIANCE> 25
 6.660477e+000 5.065048e+000 9.508045e+000 1.022104e+001 1.029006e+001 1.373709e+001 1.228347e+001 1.107300e+001 1.134131e+001 1.217975e+001 1.181890e+001 1.040675e+001 7.903300e-001 5.010387e-001 9.268318e-001 1.042617e+000 1.189824e+000 1.628681e+000 1.646517e+000 1.360749e+000 1.236543e+000 1.131703e+000 1.144606e+000 1.095467e+000 4.349875e-001
<GCONST> 7.388399e+001
<STATE> 3
~s "silst"
<STATE> 4
<MEAN> 25
 -6.913412e+000 -4.629640e+000 -3.707799e+000 -3.382331e-001 -1.384731e+000 -1.811103e-001 3.676511e-001 2.032210e-001 1.516209e+000 1.953898e+000 1.031162e+000 8.225629e-002 1.167289e-001 5.074904e-002 -4.092421e-002 -1.484969e-001 -5.088160e-002 9.091886e-002 1.214772e-001 6.728112e-002 -2.777749e-002 -8.867671e-002 -3.751658e-002 -9.886404e-003 9.331354e-002
<VARIANCE> 25
 1.845909e+000 2.490731e+000 4.620774e+000 7.377551e+000 6.646552e+000 6.619957e+000 8.086550e+000 8.187713e+000 8.401209e+000 8.640548e+000 8.307130e+000 8.332630e+000 1.715371e-001 2.254514e-001 4.518907e-001 6.764373e-001 6.801161e-001 7.736241e-001 8.778691e-001 8.558508e-001 8.966232e-001 9.644588e-001 9.814043e-001 9.057776e-001 5.994149e-002
<GCONST> 5.905730e+001
<TRANSP> 5
 0.000000e+000 1.000000e+000 0.000000e+000 0.000000e+000 0.000000e+000
 0.000000e+000 5.322776e-001 3.883269e-001 7.939540e-002 0.000000e+000
 0.000000e+000 0.000000e+000 9.756469e-001 2.435308e-002 0.000000e+000
 0.000000e+000 1.453561e-001 0.000000e+000 6.843868e-001 1.702570e-001
 0.000000e+000 0.000000e+000 0.000000e+000 0.000000e+000 0.000000e+000
<ENDHMM>
