~o
<STREAMINFO> 1 25
<VECSIZE> 25<NULLD><MFCC_D_N_Z_0><DIAGC>
~h "a"
<BEGINHMM>
<NUMSTATES> 5
<STATE> 2
<MEAN> 25
 4.993679e+000 1.190904e+000 -3.512583e+000 -4.302973e+000 -6.925241e-002 -5.497735e-001 1.785759e+000 2.413473e+000 4.483487e-001 -6.541172e-001 -5.255536e-001 2.411566e+000 7.882285e-002 4.150147e-002 -1.508978e-001 -9.783455e-002 3.864366e-002 9.348653e-002 1.129313e-001 3.765636e-002 -1.445397e-003 1.637611e-001 8.044560e-002 -8.662431e-003 6.673187e-003
<VARIANCE> 25
 4.451374e+001 1.698722e+001 2.159853e+001 3.110220e+001 1.455171e+001 1.893105e+001 1.470943e+001 1.750147e+001 1.434066e+001 1.428076e+001 1.408326e+001 1.767842e+001 1.557354e+000 1.037656e+000 1.595660e+000 2.076700e+000 1.128680e+000 1.359951e+000 1.346987e+000 1.281899e+000 1.227912e+000 1.251566e+000 1.079381e+000 1.194927e+000 9.541039e-001
<GCONST> 8.438365e+001
<STATE> 3
<MEAN> 25
 5.000017e+000 1.409752e+000 -3.470020e+000 -4.231614e+000 1.303222e-001 -2.955794e-001 1.974379e+000 2.413951e+000 3.313720e-001 -2.236484e-001 -2.734413e-001 2.264729e+000 -4.817171e-002 1.217029e-001 1.161307e-001 8.932573e-002 3.887248e-002 9.261563e-002 4.729241e-002 -7.628015e-002 -9.794059e-002 1.291098e-001 7.627325e-002 -7.535093e-002 -9.190484e-002
<VARIANCE> 25
 4.148751e+001 1.714197e+001 2.299730e+001 3.260394e+001 1.454623e+001 1.867843e+001 1.404586e+001 1.727828e+001 1.503280e+001 1.342734e+001 1.291962e+001 1.698608e+001 1.424971e+000 1.012670e+000 1.589109e+000 2.164554e+000 1.172235e+000 1.315840e+000 1.160068e+000 1.279636e+000 1.261921e+000 1.270346e+000 1.079277e+000 1.226945e+000 9.117053e-001
<GCONST> 8.401968e+001
<STATE> 4
<MEAN> 25
 4.759563e+000 1.652272e+000 -2.985848e+000 -3.738861e+000 4.444717e-001 2.351855e-001 2.051849e+000 2.156301e+000 9.702473e-002 -1.683752e-001 1.161384e-002 2.119042e+000 -2.431335e-001 6.039010e-002 2.963543e-001 3.302478e-001 1.281034e-002 1.044679e-001 -7.296976e-002 -2.023521e-001 -8.465665e-002 5.858412e-002 5.477460e-002 -1.312775e-001 -2.196718e-001
<VARIANCE> 25
 3.930571e+001 1.675781e+001 2.313553e+001 3.380331e+001 1.509893e+001 1.821136e+001 1.539026e+001 1.826215e+001 1.732544e+001 1.375311e+001 1.275407e+001 1.581598e+001 1.428316e+000 1.026279e+000 1.791482e+000 2.560458e+000 1.169698e+000 1.477017e+000 1.355614e+000 1.409331e+000 1.332624e+000 1.346160e+000 1.109178e+000 1.275446e+000 1.028413e+000
<GCONST> 8.519378e+001
<TRANSP> 5
 0.000000e+000 1.000000e+000 0.000000e+000 0.000000e+000 0.000000e+000
 0.000000e+000 6.234562e-001 3.765437e-001 0.000000e+000 0.000000e+000
 0.000000e+000 0.000000e+000 6.232252e-001 3.767747e-001 0.000000e+000
 0.000000e+000 0.000000e+000 0.000000e+000 7.863240e-001 2.136761e-001
 0.000000e+000 0.000000e+000 0.000000e+000 0.000000e+000 0.000000e+000
<ENDHMM>
~h "b"
<BEGINHMM>
<NUMSTATES> 5
<STATE> 2
<MEAN> 25
 -7.452193e-001 1.423965e+000 1.037334e+000 2.036721e+000 -5.054455e-001 6.446408e-001 -8.097237e-001 -8.963352e-001 6.071646e-001 1.654883e+000 9.490435e-001 -5.571260e-001 -8.136018e-002 -5.079455e-002 -3.125595e-002 1.205165e-001 2.041109e-001 2.021139e-001 1.626582e-001 1.482598e-001 1.385890e-001 8.200911e-002 3.003193e-002 -4.584149e-003 -5.793051e-002
<VARIANCE> 25
 1.911968e+001 3.285883e+001 3.269220e+001 2.110300e+001 1.199790e+001 1.376346e+001 1.598885e+001 1.098680e+001 9.487046e+000 8.652559e+000 6.131294e+000 8.895840e+000 5.956587e-001 8.750907e-001 1.178990e+000 9.718257e-001 9.308889e-001 1.023108e+000 9.898191e-001 8.027955e-001 8.418670e-001 9.408506e-001 6.258119e-001 6.833203e-001 1.600938e-001
<GCONST> 7.389983e+001
<STATE> 3
<MEAN> 25
 -1.754427e+000 1.190703e-001 -1.287847e-001 1.633563e+000 -1.327463e-001 1.442575e+000 -4.567096e-002 -4.964458e-001 7.244897e-001 1.671227e+000 1.021832e+000 -3.963705e-001 -3.077054e-002 -3.644750e-002 -1.850163e-002 7.006662e-002 1.478314e-001 1.706990e-001 1.143417e-001 7.738919e-002 4.187510e-002 2.153760e-002 2.085760e-002 9.273895e-003 -1.502514e-002
<VARIANCE> 25
 1.429375e+001 2.392540e+001 2.528990e+001 2.150690e+001 1.431242e+001 1.326125e+001 1.216841e+001 9.947659e+000 8.712938e+000 7.885371e+000 6.204166e+000 7.947878e+000 5.799087e-001 8.425961e-001 1.060844e+000 1.010120e+000 9.287744e-001 9.611412e-001 8.920373e-001 8.690526e-001 8.571365e-001 7.663870e-001 6.139457e-001 6.778329e-001 1.614052e-001
<GCONST> 7.211466e+001
<STATE> 4
<MEAN> 25
 -2.214116e+000 8.656438e-003 -1.021626e-001 2.277774e+000 1.996180e-001 1.518227e+000 -3.583458e-002 -6.172510e-001 6.566296e-001 1.723756e+000 9.209720e-001 -5.030745e-001 9.499830e-002 1.135902e-001 1.264329e-001 9.683528e-002 7.666518e-002 5.138324e-002 2.201027e-002 -9.536559e-003 -1.988724e-002 -1.568939e-002 -1.625511e-002 -1.707912e-002 4.649048e-002
<VARIANCE> 25
 1.542387e+001 2.361091e+001 2.466571e+001 2.014377e+001 1.419710e+001 1.510954e+001 1.444040e+001 1.012127e+001 8.200397e+000 6.884531e+000 5.995513e+000 7.089890e+000 5.551180e-001 8.233497e-001 9.913936e-001 1.085418e+000 1.090393e+000 1.165288e+000 1.149770e+000 9.318342e-001 8.001242e-001 6.819674e-001 6.336764e-001 6.983268e-001 1.722701e-001
<GCONST> 7.260814e+001
<TRANSP> 5
 0.000000e+000 1.000000e+000 0.000000e+000 0.000000e+000 0.000000e+000
 0.000000e+000 7.584165e-001 2.415835e-001 0.000000e+000 0.000000e+000
 0.000000e+000 0.000000e+000 7.665274e-001 2.334727e-001 0.000000e+000
 0.000000e+000 0.000000e+000 0.000000e+000 9.258417e-001 7.415827e-002
 0.000000e+000 0.000000e+000 0.000000e+000 0.000000e+000 0.000000e+000
<ENDHMM>
~h "c"
<BEGINHMM>
<NUMSTATES> 5
<STATE> 2
<MEAN> 25
 1.507882e+000 -1.685578e+000 -2.434749e+000 -4.099535e+000 -2.133553e+000 -3.365421e+000 8.300712e-001 -5.343955e-001 -2.663761e+000 -2.076123e+000 1.968643e+000 2.426789e+000 5.701131e-001 -6.320161e-001 1.113922e-001 -5.189798e-001 -2.147734e-001 -7.343541e-001 1.758892e-001 -1.864759e-001 -3.771757e-001 -6.978486e-001 3.012910e-001 -3.726301e-002 1.208744e+000
<VARIANCE> 25
 4.384519e+001 5.999078e+001 2.043525e+001 3.832826e+001 1.708287e+001 1.873458e+001 1.521825e+001 8.655157e+000 1.333292e+001 2.228252e+001 1.810544e+001 2.138430e+001 1.928778e+000 4.468207e+000 2.691439e+000 1.876124e+000 2.310822e+000 2.439172e+000 1.623866e+000 8.143784e-001 1.375706e+000 3.044181e+000 1.215717e+000 1.805448e+000 2.454959e+000
<GCONST> 9.168559e+001
<STATE> 3
<MEAN> 25
 2.274833e+000 -4.589783e+000 -1.784719e+000 -4.640551e+000 -9.977617e-001 -4.861454e+000 9.567332e-001 -8.977871e-001 -2.543865e+000 -2.640708e+000 3.553623e+000 3.484954e+000 3.160198e-001 -3.174950e-001 3.902009e-001 -1.915254e-001 2.273103e-001 -2.490022e-001 -1.367506e-002 -4.848702e-002 -7.652471e-002 -1.999288e-001 1.064883e-001 1.200029e-001 7.120521e-001
<VARIANCE> 25
 5.202578e+001 7.475796e+001 3.247408e+001 3.408223e+001 2.034844e+001 1.883039e+001 2.467318e+001 1.018149e+001 1.117826e+001 2.808815e+001 1.582660e+001 2.231595e+001 2.661518e+000 5.463359e+000 3.203312e+000 2.497127e+000 2.234188e+000 2.575265e+000 2.089032e+000 9.952134e-001 1.277213e+000 2.710116e+000 1.278940e+000 1.496321e+000 2.956519e+000
<GCONST> 9.452596e+001
<STATE> 4
<MEAN> 25
 3.275815e+000 -2.975448e+000 3.162785e+000 -9.178546e-002 1.517019e+000 -3.897913e+000 -2.055885e+000 5.659139e-002 -3.184931e+000 -5.073949e+000 1.259079e+000 7.166734e-001 2.262309e-001 6.661553e-001 3.100331e-001 3.474565e-001 1.515284e-001 1.609360e-001 -3.022901e-001 1.167433e-001 -3.982037e-002 -9.272261e-002 -4.045348e-001 -2.904475e-001 -2.565413e-001
<VARIANCE> 25
 3.779316e+001 6.870918e+001 5.497020e+001 5.268077e+001 2.170207e+001 1.865755e+001 4.071478e+001 1.105220e+001 1.285354e+001 4.574821e+001 2.222106e+001 2.923431e+001 2.581071e+000 5.384280e+000 2.439972e+000 3.630894e+000 1.783031e+000 2.205071e+000 2.597868e+000 1.053290e+000 1.253359e+000 2.153050e+000 1.463727e+000 1.612845e+000 2.043518e+000
<GCONST> 9.650122e+001
<TRANSP> 5
 0.000000e+000 1.000000e+000 0.000000e+000 0.000000e+000 0.000000e+000
 0.000000e+000 7.896379e-001 2.103621e-001 0.000000e+000 0.000000e+000
 0.000000e+000 0.000000e+000 7.915879e-001 2.084121e-001 0.000000e+000
 0.000000e+000 0.000000e+000 0.000000e+000 9.344355e-001 6.556455e-002
 0.000000e+000 0.000000e+000 0.000000e+000 0.000000e+000 0.000000e+000
<ENDHMM>
~h "d"
<BEGINHMM>
<NUMSTATES> 5
<STATE> 2
<MEAN> 25
 3.335808e+000 3.009536e+000 9.526390e+000 9.136470e+000 8.481550e+000 2.686163e+000 -4.877408e+000 3.633361e-001 2.558118e+000 -2.639508e+000 -2.876852e+000 -3.800254e+000 5.495652e-002 -3.874515e-003 3.840328e-002 -5.435146e-002 6.295660e-002 -4.036994e-002 -1.550911e-001 -2.715979e-002 -9.010640e-003 -7.314224e-002 3.297295e-002 4.331397e-002 7.908875e-002
<VARIANCE> 25
 7.792527e+000 1.734769e+001 2.097158e+001 1.561736e+001 1.720574e+001 2.794047e+001 7.107497e+001 1.980990e+001 2.317612e+001 3.049378e+001 1.746214e+001 1.343064e+001 6.500943e-001 2.026695e+000 1.893439e+000 1.679699e+000 1.847291e+000 3.003395e+000 7.055983e+000 2.187105e+000 2.364277e+000 3.533863e+000 2.081579e+000 1.407074e+000 1.258051e+000
<GCONST> 9.139832e+001
<STATE> 3
<MEAN> 25
 4.792407e+000 4.809669e+000 6.397332e+000 7.547904e+000 7.608390e+000 2.716659e+000 -4.356879e+000 -2.578947e+000 5.549300e-002 -5.946423e-001 -4.693572e-001 -1.923690e+000 -1.651111e-001 2.308065e-001 -2.716316e-001 -1.413439e-002 -3.294091e-001 4.797837e-001 9.540845e-001 1.866837e-001 -9.294900e-002 2.924813e-001 6.583388e-002 8.735942e-002 -4.176691e-001
<VARIANCE> 25
 6.887750e+000 1.412566e+001 1.106222e+001 1.743648e+001 1.536916e+001 2.545384e+001 4.695681e+001 1.967572e+001 1.665021e+001 1.612638e+001 1.418573e+001 1.319108e+001 5.101209e-001 1.379675e+000 7.420444e-001 1.542494e+000 9.762379e-001 2.552411e+000 4.192158e+000 1.989985e+000 1.881178e+000 1.356300e+000 1.657833e+000 1.019967e+000 9.307035e-001
<GCONST> 8.361752e+001
<STATE> 4
<MEAN> 25
 3.193559e+000 4.706492e+000 4.573968e+000 7.206625e+000 6.260763e+000 4.725768e+000 3.610041e-001 -7.758210e-001 3.795793e-001 1.057860e+000 4.530867e-001 -1.128695e+000 -4.952826e-001 -3.662396e-001 -4.419192e-001 -3.319495e-001 -4.299364e-001 -5.765221e-002 4.849387e-001 3.535612e-001 1.637062e-001 1.451818e-001 1.079897e-001 9.215990e-002 -3.274317e-001
<VARIANCE> 25
 8.757310e+000 9.923323e+000 9.688173e+000 1.625229e+001 1.180889e+001 1.507026e+001 2.055863e+001 1.279064e+001 1.152062e+001 1.084839e+001 9.397161e+000 9.598229e+000 4.420520e-001 9.118292e-001 8.067836e-001 1.061117e+000 8.457599e-001 1.160695e+000 1.392981e+000 1.107297e+000 9.467887e-001 8.901187e-001 8.765003e-001 6.942059e-001 3.837366e-001
<GCONST> 7.327973e+001
<TRANSP> 5
 0.000000e+000 1.000000e+000 0.000000e+000 0.000000e+000 0.000000e+000
 0.000000e+000 9.631872e-001 3.681277e-002 0.000000e+000 0.000000e+000
 0.000000e+000 0.000000e+000 7.901831e-001 2.098169e-001 0.000000e+000
 0.000000e+000 0.000000e+000 0.000000e+000 8.282176e-001 1.717825e-001
 0.000000e+000 0.000000e+000 0.000000e+000 0.000000e+000 0.000000e+000
<ENDHMM>
~h "e"
<BEGINHMM>
<NUMSTATES> 5
<STATE> 2
<MEAN> 25
 2.775995e+000 1.713223e-001 -6.722763e-001 3.036020e-001 1.289592e+000 -6.636716e-001 -1.668745e+000 -2.076434e+000 -2.107945e+000 -6.699365e-001 4.970482e-001 3.082462e-001 1.564006e+000 6.322573e-001 2.166919e-001 -7.110206e-002 5.406766e-001 -2.733936e-001 -2.671689e-001 -2.272200e-001 -4.341038e-001 -2.828068e-001 -8.017509e-002 9.637536e-002 1.147598e+000
<VARIANCE> 25
 4.355986e+001 1.999727e+001 2.813550e+001 3.219330e+001 3.434029e+001 2.258729e+001 3.375387e+001 3.009962e+001 3.000983e+001 2.730231e+001 1.580428e+001 1.617002e+001 3.550087e+000 1.968210e+000 2.399514e+000 3.613256e+000 3.000914e+000 1.999368e+000 2.813466e+000 3.002363e+000 3.234989e+000 2.493396e+000 1.806641e+000 1.746038e+000 2.306909e+000
<GCONST> 9.745663e+001
<STATE> 3
<MEAN> 25
 6.117912e+000 1.731933e+000 -1.409728e-001 1.064024e+000 3.120011e+000 -1.632158e+000 -3.035900e+000 -2.856676e+000 -2.186419e+000 -1.284888e-001 3.943466e-001 -3.977888e-002 6.472071e-001 4.749490e-001 3.206454e-001 3.698095e-001 4.632489e-001 -8.212114e-003 -2.794869e-001 -1.966586e-001 -1.841794e-002 1.069043e-001 -6.453825e-002 -8.716703e-002 3.559515e-001
<VARIANCE> 25
 3.073491e+001 1.904281e+001 2.813605e+001 3.582677e+001 4.233206e+001 2.858364e+001 4.894129e+001 3.779895e+001 3.612587e+001 3.282206e+001 1.919827e+001 1.917829e+001 3.002518e+000 1.660569e+000 2.232267e+000 3.022144e+000 2.402994e+000 2.176946e+000 3.072917e+000 2.323979e+000 2.658674e+000 2.282446e+000 1.753116e+000 1.595863e+000 1.933170e+000
<GCONST> 9.746994e+001
<STATE> 4
<MEAN> 25
 5.888041e+000 2.525826e+000 9.266618e-001 3.572529e+000 4.937513e+000 -1.063559e+000 -4.862010e+000 -3.935745e+000 -6.867239e-001 2.271120e+000 5.245328e-001 -1.636217e+000 -2.920403e-001 7.057370e-002 1.217690e-001 1.423775e-001 -5.868598e-002 3.386389e-001 2.167087e-001 1.789981e-001 2.134596e-001 5.513008e-002 -4.754938e-002 -4.969015e-002 -3.091295e-001
<VARIANCE> 25
 2.156541e+001 1.824138e+001 2.360872e+001 2.766239e+001 2.995193e+001 2.570269e+001 4.457347e+001 3.287483e+001 2.700419e+001 3.327822e+001 1.702152e+001 1.805915e+001 1.436169e+000 1.363849e+000 1.679925e+000 2.226307e+000 1.635684e+000 1.789650e+000 2.345012e+000 1.533236e+000 1.685976e+000 1.628824e+000 1.306840e+000 1.416390e+000 8.740878e-001
<GCONST> 9.070495e+001
<TRANSP> 5
 0.000000e+000 1.000000e+000 0.000000e+000 0.000000e+000 0.000000e+000
 0.000000e+000 6.781551e-001 3.218449e-001 0.000000e+000 0.000000e+000
 0.000000e+000 0.000000e+000 6.684542e-001 3.315458e-001 0.000000e+000
 0.000000e+000 0.000000e+000 0.000000e+000 8.256940e-001 1.743059e-001
 0.000000e+000 0.000000e+000 0.000000e+000 0.000000e+000 0.000000e+000
<ENDHMM>
~h "f"
<BEGINHMM>
<NUMSTATES> 5
<STATE> 2
<MEAN> 25
 -1.349385e+000 -3.502772e+000 5.977715e+000 4.927538e+000 6.798116e+000 1.123233e+000 -3.693098e+000 -2.349943e+000 1.186418e+000 -4.684835e+000 -2.069725e+000 -1.741375e+000 1.162229e-001 1.326156e-001 2.326309e-001 3.150877e-001 2.040228e-001 4.852271e-002 -8.404460e-002 9.125461e-002 4.097595e-003 -2.785075e-001 -1.237649e-001 -6.273667e-002 4.969500e-002
<VARIANCE> 25
 2.344683e+001 3.060872e+001 5.921733e+001 8.098685e+001 2.609027e+001 1.700945e+001 4.216675e+001 4.165369e+001 1.350039e+001 3.448619e+001 2.663546e+001 2.295275e+001 1.574076e+000 2.734951e+000 4.240257e+000 6.163316e+000 2.444929e+000 1.440560e+000 3.305518e+000 2.598696e+000 1.603088e+000 4.266481e+000 2.620244e+000 1.970928e+000 6.490459e-001
<GCONST> 9.838867e+001
<STATE> 3
<MEAN> 25
 8.437409e-001 -5.272079e-002 8.718629e+000 8.494142e+000 7.551786e+000 1.730806e+000 -5.025709e+000 2.931814e-001 2.710133e-001 -7.238599e+000 -3.541801e+000 -3.153408e+000 2.924859e-002 2.105109e-001 4.603219e-003 -4.280872e-002 -1.354771e-001 1.963054e-001 2.203558e-001 2.316473e-001 -5.176056e-002 1.060656e-001 1.053917e-001 2.602203e-002 -1.581626e-001
<VARIANCE> 25
 1.957697e+001 3.092126e+001 4.797596e+001 6.496732e+001 1.707549e+001 1.772983e+001 3.687032e+001 3.653789e+001 1.159889e+001 2.572799e+001 1.824099e+001 1.927315e+001 1.008144e+000 1.786412e+000 2.456260e+000 3.851145e+000 1.380599e+000 1.219502e+000 2.739350e+000 1.858336e+000 1.177006e+000 2.599580e+000 1.694086e+000 1.497955e+000 2.545246e-001
<GCONST> 9.054173e+001
<STATE> 4
<MEAN> 25
 1.046334e+000 1.631834e+000 8.315500e+000 8.280167e+000 6.082827e+000 3.317213e+000 -3.505877e+000 2.206676e+000 2.358948e-001 -5.704405e+000 -2.839237e+000 -3.254895e+000 -2.940836e-001 -2.944332e-001 -7.911404e-001 -6.482740e-001 -5.208588e-001 -3.225526e-002 4.409889e-001 -8.387408e-002 9.045838e-002 6.306232e-001 3.804534e-001 3.351245e-001 -2.523482e-001
<VARIANCE> 25
 1.192480e+001 1.852303e+001 3.392948e+001 2.991623e+001 1.504506e+001 1.307340e+001 1.931539e+001 2.236306e+001 1.109627e+001 2.153379e+001 1.319565e+001 1.406459e+001 4.586067e-001 1.196350e+000 1.679703e+000 1.710145e+000 1.334653e+000 1.159405e+000 1.534751e+000 1.572797e+000 1.025758e+000 1.303948e+000 1.073675e+000 9.977353e-001 1.697777e-001
<GCONST> 8.067606e+001
<TRANSP> 5
 0.000000e+000 1.000000e+000 0.000000e+000 0.000000e+000 0.000000e+000
 0.000000e+000 9.700137e-001 2.998632e-002 0.000000e+000 0.000000e+000
 0.000000e+000 0.000000e+000 8.660481e-001 1.339519e-001 0.000000e+000
 0.000000e+000 0.000000e+000 0.000000e+000 8.438874e-001 1.561126e-001
 0.000000e+000 0.000000e+000 0.000000e+000 0.000000e+000 0.000000e+000
<ENDHMM>
~h "g"
<BEGINHMM>
<NUMSTATES> 5
<STATE> 2
<MEAN> 25
 -3.809277e+000 -2.581412e+000 -3.353897e+000 -5.158194e-001 -1.861519e+000 2.700955e-001 2.740004e-001 -7.831979e-001 1.573327e-001 1.602615e+000 9.776233e-001 3.793708e-001 -8.802708e-002 -9.094440e-002 -6.144420e-002 2.483970e-002 -4.768448e-002 -2.677424e-002 1.926932e-002 6.947053e-003 -1.887587e-002 5.922499e-003 1.286580e-002 2.726662e-002 -5.993132e-002
<VARIANCE> 25
 1.070649e+001 6.201083e+000 9.182648e+000 1.248899e+001 9.665674e+000 7.590488e+000 7.791729e+000 7.124606e+000 9.047188e+000 8.486657e+000 7.362722e+000 8.945356e+000 1.783091e-001 2.185427e-001 4.345853e-001 5.892540e-001 5.277181e-001 5.957521e-001 7.055969e-001 7.614689e-001 7.831667e-001 8.001298e-001 7.124026e-001 7.401649e-001 9.992886e-002
<GCONST> 6.192898e+001
<STATE> 3
<MEAN> 25
 -2.960288e+000 -2.216479e+000 -3.137650e+000 -3.443257e-001 -1.369376e+000 5.982520e-001 9.433634e-001 -3.437387e-001 2.791591e-001 1.715277e+000 1.270446e+000 6.142212e-001 -2.425340e-002 2.825462e-002 8.011600e-002 4.176597e-002 -2.838829e-002 -1.639322e-002 3.100572e-002 1.882838e-002 -5.525248e-003 2.546670e-002 5.051430e-003 -4.244713e-002 -1.555761e-002
<VARIANCE> 25
 1.917842e+001 9.702539e+000 1.041088e+001 1.593652e+001 1.114518e+001 8.900936e+000 8.849777e+000 7.176319e+000 8.114045e+000 8.522919e+000 7.243999e+000 9.923758e+000 3.728592e-001 3.459330e-001 4.909334e-001 5.881447e-001 5.187420e-001 6.683182e-001 7.603095e-001 9.124100e-001 7.507914e-001 8.784407e-001 7.248921e-001 6.768346e-001 1.918847e-001
<GCONST> 6.604988e+001
<STATE> 4
<MEAN> 25
 5.162971e+000 1.544158e+000 -3.584408e+000 -4.102761e+000 1.834641e-001 5.097305e-001 1.374793e+000 2.476176e-001 5.310377e-001 1.824718e-002 -2.322827e-001 2.197814e+000 4.738640e-001 3.076681e-001 3.259532e-001 6.464264e-003 3.856801e-001 1.149341e-001 -1.131364e-001 -1.066093e-001 -7.816964e-002 -1.873689e-001 -6.506791e-002 2.150050e-001 4.085270e-001
<VARIANCE> 25
 4.769431e+001 1.152907e+001 1.897241e+001 3.483007e+001 1.313868e+001 1.160223e+001 1.075606e+001 1.598875e+001 1.949160e+001 9.431922e+000 1.056193e+001 1.330425e+001 3.443787e+000 1.300521e+000 1.886079e+000 2.558609e+000 9.440992e-001 1.081996e+000 1.309342e+000 1.926353e+000 1.981839e+000 1.048818e+000 1.095474e+000 1.223776e+000 1.696010e+000
<GCONST> 8.465645e+001
<TRANSP> 5
 0.000000e+000 1.000000e+000 0.000000e+000 0.000000e+000 0.000000e+000
 0.000000e+000 9.055250e-001 9.447494e-002 0.000000e+000 0.000000e+000
 0.000000e+000 0.000000e+000 7.511807e-001 2.488193e-001 0.000000e+000
 0.000000e+000 0.000000e+000 0.000000e+000 8.006791e-001 1.993208e-001
 0.000000e+000 0.000000e+000 0.000000e+000 0.000000e+000 0.000000e+000
<ENDHMM>
~h "h"
<BEGINHMM>
<NUMSTATES> 5
<STATE> 2
<MEAN> 25
 2.940508e-001 -8.722938e-001 -3.334102e+000 -1.719734e+000 -1.094301e+000 9.851572e-001 2.060354e+000 1.851336e+000 8.321233e-001 -6.599663e-002 5.800449e-001 1.984298e+000 -2.277326e-001 -1.328812e-001 -1.268349e-001 -3.082194e-002 -9.842441e-002 -6.055119e-002 -6.946914e-002 -1.140364e-001 -4.535954e-002 6.305782e-002 6.602186e-003 -2.392174e-002 -1.612487e-001
<VARIANCE> 25
 2.947838e+001 1.361654e+001 1.368027e+001 1.456339e+001 9.667356e+000 1.276841e+001 1.418445e+001 2.069366e+001 1.128747e+001 1.508188e+001 1.196188e+001 1.520653e+001 3.672726e-001 4.130643e-001 7.657370e-001 8.172089e-001 7.937250e-001 7.928705e-001 7.856312e-001 9.674037e-001 9.135921e-001 9.135799e-001 8.106632e-001 8.472068e-001 2.038783e-001
<GCONST> 7.283587e+001
<STATE> 3
<MEAN> 25
 -1.047828e+000 -1.451043e+000 -3.304097e+000 -1.278925e+000 -1.303163e+000 8.816131e-001 1.482923e+000 1.040099e+000 5.464315e-001 4.779804e-001 7.933288e-001 1.673373e+000 -1.548557e-001 -8.727864e-002 -2.817430e-002 3.638708e-002 -1.413898e-002 -2.602644e-002 -1.061496e-001 -1.133360e-001 -6.094183e-002 6.561925e-002 1.835045e-002 -4.432648e-002 -1.048411e-001
<VARIANCE> 25
 2.677413e+001 1.164917e+001 1.246603e+001 1.290159e+001 9.113957e+000 1.063622e+001 1.224519e+001 1.694326e+001 1.089301e+001 1.209421e+001 1.096378e+001 1.364818e+001 3.155225e-001 3.465786e-001 6.293592e-001 7.114163e-001 6.761094e-001 7.332557e-001 7.122127e-001 8.858735e-001 8.975561e-001 8.905849e-001 7.591753e-001 8.492309e-001 1.710534e-001
<GCONST> 6.996046e+001
<STATE> 4
<MEAN> 25
 -2.917500e+000 -2.336452e+000 -3.309497e+000 -1.121942e+000 -1.859918e+000 4.956482e-001 5.524311e-001 -1.531654e-001 4.433491e-002 9.172512e-001 7.747253e-001 9.146594e-001 -5.040136e-002 -3.685575e-002 -2.328136e-002 -2.623614e-002 -1.939261e-002 -3.357106e-002 -3.865578e-002 -3.618844e-002 -2.444416e-002 1.621274e-002 -2.523145e-002 -5.212159e-002 -2.523970e-002
<VARIANCE> 25
 1.723944e+001 7.223939e+000 9.312167e+000 1.103159e+001 8.018852e+000 8.487144e+000 9.419412e+000 1.253220e+001 9.088223e+000 9.594610e+000 9.067442e+000 1.057452e+001 2.657481e-001 3.161563e-001 5.277525e-001 6.223685e-001 5.959285e-001 6.890669e-001 7.215859e-001 8.948149e-001 8.491375e-001 8.464584e-001 7.497541e-001 7.887356e-001 1.304042e-001
<GCONST> 6.561610e+001
<TRANSP> 5
 0.000000e+000 1.000000e+000 0.000000e+000 0.000000e+000 0.000000e+000
 0.000000e+000 7.521044e-001 2.478957e-001 0.000000e+000 0.000000e+000
 0.000000e+000 0.000000e+000 7.735986e-001 2.264014e-001 0.000000e+000
 0.000000e+000 0.000000e+000 0.000000e+000 9.397517e-001 6.024827e-002
 0.000000e+000 0.000000e+000 0.000000e+000 0.000000e+000 0.000000e+000
<ENDHMM>
~h "i"
<BEGINHMM>
<NUMSTATES> 5
<STATE> 2
<MEAN> 25
 -8.676187e-001 -8.517865e-001 1.437907e+000 2.460588e+000 2.534385e+000 9.341531e-001 -2.494912e+000 -6.723549e-001 2.167885e-001 -5.343479e-001 -1.438822e-001 -5.484512e-001 -2.184519e-001 -4.705567e-002 1.803829e-001 1.646963e-001 -2.732771e-002 -2.524713e-002 -1.656251e-001 7.377216e-002 3.721295e-002 -1.905310e-001 -1.090935e-001 -1.193140e-001 -1.508510e-001
<VARIANCE> 25
 2.052745e+001 1.139603e+001 4.652127e+001 2.793944e+001 3.299235e+001 1.523872e+001 3.526580e+001 1.441990e+001 1.109561e+001 2.378708e+001 1.842791e+001 1.298610e+001 5.392592e-001 7.829816e-001 2.561158e+000 2.143411e+000 1.417082e+000 1.248138e+000 2.255437e+000 1.338526e+000 1.037103e+000 2.173914e+000 1.469946e+000 9.675660e-001 5.819480e-001
<GCONST> 8.521664e+001
<STATE> 3
<MEAN> 25
 -1.965334e+000 -1.292560e+000 9.684344e-001 2.105575e+000 1.658409e+000 1.027997e+000 -1.895856e+000 -5.158049e-001 3.056042e-001 -3.621165e-001 -1.248583e-002 -6.151729e-001 -1.832565e-001 -1.051690e-001 -4.735957e-002 -1.001028e-001 -1.346386e-001 -1.745395e-002 1.627767e-002 -1.082837e-002 -1.357474e-002 -1.954689e-002 9.059270e-003 -2.143209e-002 -9.752436e-002
<VARIANCE> 25
 1.613821e+001 1.083469e+001 4.392880e+001 2.443783e+001 2.955224e+001 1.441331e+001 3.144168e+001 1.477606e+001 1.046415e+001 2.385081e+001 1.506932e+001 1.094476e+001 4.509262e-001 6.967430e-001 2.059427e+000 1.571041e+000 1.153474e+000 1.224840e+000 1.765015e+000 1.217060e+000 1.024449e+000 1.746920e+000 1.214311e+000 8.265691e-001 5.510457e-001
<GCONST> 8.202666e+001
<STATE> 4
<MEAN> 25
 -1.450738e+000 -1.000198e+000 3.745770e+000 3.350359e+000 3.283880e+000 1.502924e+000 -3.045228e+000 3.481190e-001 4.486274e-001 -2.293724e+000 -6.842254e-001 -1.421045e+000 3.628397e-004 -5.026861e-002 -1.940155e-001 -1.738343e-001 -8.487034e-002 -9.774055e-003 6.889481e-002 -1.100721e-001 -5.984308e-002 1.321259e-001 8.244376e-002 8.334216e-002 -3.182053e-003
<VARIANCE> 25
 1.526948e+001 1.256340e+001 7.060639e+001 3.426274e+001 3.568585e+001 1.563966e+001 3.319895e+001 2.100767e+001 1.195466e+001 3.691631e+001 1.603859e+001 1.270442e+001 6.190951e-001 8.270648e-001 2.148385e+000 1.611575e+000 1.474347e+000 1.311642e+000 1.933828e+000 1.343732e+000 1.140104e+000 1.607296e+000 1.384949e+000 9.668034e-001 6.555045e-001
<GCONST> 8.593568e+001
<TRANSP> 5
 0.000000e+000 1.000000e+000 0.000000e+000 0.000000e+000 0.000000e+000
 0.000000e+000 7.115170e-001 2.884830e-001 0.000000e+000 0.000000e+000
 0.000000e+000 0.000000e+000 7.052617e-001 2.947383e-001 0.000000e+000
 0.000000e+000 0.000000e+000 0.000000e+000 8.933337e-001 1.066663e-001
 0.000000e+000 0.000000e+000 0.000000e+000 0.000000e+000 0.000000e+000
<ENDHMM>
~h "j"
<BEGINHMM>
<NUMSTATES> 5
<STATE> 2
<MEAN> 25
 3.959186e+000 1.118042e+000 -3.826415e+000 -3.261679e+000 -3.295462e-001 1.121837e+000 -8.710375e-001 -2.578264e+000 -9.072807e-001 1.936811e+000 3.572491e+000 3.558562e+000 -4.188966e-001 4.061868e-002 -5.618013e-002 -1.518341e-002 -3.649584e-001 5.212342e-002 3.770754e-001 2.019358e-001 -1.029859e-001 1.178497e-001 -4.070727e-002 3.068815e-003 -4.397527e-001
<VARIANCE> 25
 4.954173e+001 1.688505e+001 7.241105e+000 1.426088e+001 1.658867e+001 1.096515e+001 1.603116e+001 1.438574e+001 1.045348e+001 7.361874e+000 1.414724e+001 1.367760e+001 2.918237e-001 8.658171e-001 7.338210e-001 1.090252e+000 1.268108e+000 1.109351e+000 1.036408e+000 7.941380e-001 1.230546e+000 7.761857e-001 1.227534e+000 1.122593e+000 1.217849e-001
<GCONST> 7.428325e+001
<STATE> 3
<MEAN> 25
 -1.647634e+000 -1.292564e+000 -2.760682e+000 -1.030513e+000 -1.260362e+000 1.815127e-002 -1.734112e-001 -8.139936e-001 -8.952218e-002 1.699744e+000 1.830122e+000 1.498809e+000 -4.115717e-001 -8.630362e-002 1.490249e-001 2.043546e-001 -1.362427e-001 -6.039822e-002 9.314554e-002 8.629591e-002 -1.421636e-003 4.980715e-002 7.778941e-003 -1.080662e-001 -3.122732e-001
<VARIANCE> 25
 4.603715e+001 1.227950e+001 8.805563e+000 1.630832e+001 1.031058e+001 1.147366e+001 8.956364e+000 1.101746e+001 9.507344e+000 6.666674e+000 1.252021e+001 1.495803e+001 2.686300e-001 4.134387e-001 5.706968e-001 8.623294e-001 9.867827e-001 1.215052e+000 8.150439e-001 6.334188e-001 9.748158e-001 5.940779e-001 1.383487e+000 9.766480e-001 1.228962e-001
<GCONST> 7.027019e+001
<STATE> 4
<MEAN> 25
 -5.601567e+000 -2.825254e+000 -1.338301e+000 1.244741e+000 -1.499856e+000 -5.442302e-001 2.681591e-001 2.470731e-001 1.061317e+000 1.863099e+000 9.933481e-001 2.140678e-001 -7.192721e-004 2.517103e-002 4.519374e-002 2.103768e-002 6.230748e-002 1.222247e-001 5.715647e-002 4.173713e-002 -9.042031e-003 7.823467e-003 2.007881e-002 2.362632e-002 -3.928905e-003
<VARIANCE> 25
 1.542126e+001 4.877619e+000 4.756486e+000 9.637812e+000 5.433600e+000 7.974747e+000 6.687894e+000 6.533750e+000 7.001077e+000 4.149795e+000 6.977232e+000 9.553980e+000 3.149939e-001 2.571026e-001 3.465435e-001 5.197167e-001 5.517399e-001 8.852837e-001 7.997177e-001 6.025589e-001 6.902695e-001 4.132389e-001 7.511723e-001 5.880139e-001 1.174724e-001
<GCONST> 5.932006e+001
<TRANSP> 5
 0.000000e+000 1.000000e+000 0.000000e+000 0.000000e+000 0.000000e+000
 0.000000e+000 8.466760e-001 1.533240e-001 0.000000e+000 0.000000e+000
 0.000000e+000 0.000000e+000 7.964768e-001 2.035232e-001 0.000000e+000
 0.000000e+000 0.000000e+000 0.000000e+000 9.353418e-001 6.465816e-002
 0.000000e+000 0.000000e+000 0.000000e+000 0.000000e+000 0.000000e+000
<ENDHMM>
~h "k"
<BEGINHMM>
<NUMSTATES> 5
<STATE> 2
<MEAN> 25
 -1.199536e+000 -1.169279e+000 -1.472788e+000 -2.206746e+000 -2.136011e+000 -6.722654e-001 8.918515e-001 -6.571519e-001 -8.011668e-001 -2.894654e-001 3.717721e-001 2.830339e-001 7.978390e-001 1.150115e-001 3.462649e-002 -1.258018e+000 -3.612992e-001 -3.193547e-001 7.265004e-001 9.525225e-003 -5.512412e-001 -7.096453e-001 -8.799291e-002 3.680638e-001 1.083315e+000
<VARIANCE> 25
 2.202551e+001 1.918418e+001 2.069508e+001 4.285434e+001 2.220286e+001 1.900475e+001 3.227627e+001 1.603464e+001 1.689161e+001 1.980596e+001 1.471895e+001 1.169886e+001 1.950259e+000 2.036011e+000 2.234782e+000 5.395694e+000 2.771348e+000 2.395142e+000 4.670508e+000 1.895162e+000 2.251643e+000 2.718462e+000 1.777964e+000 1.403927e+000 2.066672e+000
<GCONST> 9.343079e+001
<STATE> 3
<MEAN> 25
 1.574522e+000 -2.680956e-001 -1.118276e+000 -4.915085e+000 -2.527752e+000 -1.445930e+000 2.421618e+000 -2.726638e-001 -1.863082e+000 -1.903901e+000 -3.818290e-002 1.393161e+000 1.169174e+000 5.739247e-001 1.834861e-001 -4.621721e-001 8.544686e-002 -3.211342e-001 2.093714e-001 2.981697e-001 -1.172427e-001 -3.767568e-001 -2.310076e-001 3.941506e-001 9.072032e-001
<VARIANCE> 25
 3.064093e+001 2.822420e+001 2.809067e+001 5.395981e+001 2.784821e+001 2.659870e+001 4.924058e+001 2.128204e+001 2.031053e+001 2.439093e+001 1.943154e+001 1.668205e+001 2.552112e+000 2.444043e+000 2.637650e+000 6.487076e+000 2.984670e+000 2.837186e+000 5.418375e+000 1.980325e+000 2.588107e+000 2.747656e+000 1.876716e+000 1.604418e+000 2.151245e+000
<GCONST> 9.859155e+001
<STATE> 4
<MEAN> 25
 5.203455e+000 2.064476e+000 -8.564183e-001 -4.432307e+000 -1.797947e+000 -2.601053e+000 1.490359e+000 8.487241e-001 -1.024786e+000 -2.088411e+000 -9.948992e-001 2.188192e+000 1.002560e+000 5.396895e-001 -9.055732e-002 2.127941e-001 3.005806e-001 -3.529952e-001 -3.820991e-001 2.884083e-001 2.946028e-001 -2.698072e-002 -3.376797e-001 2.002749e-001 4.333205e-001
<VARIANCE> 25
 3.624784e+001 2.805754e+001 3.359337e+001 4.306331e+001 2.217417e+001 2.739757e+001 3.843011e+001 1.978607e+001 1.804790e+001 1.921282e+001 1.979418e+001 2.016447e+001 3.170793e+000 2.361621e+000 2.768260e+000 4.181424e+000 2.045205e+000 2.876288e+000 3.654979e+000 1.741366e+000 1.979473e+000 1.986892e+000 1.806632e+000 1.390922e+000 1.668066e+000
<GCONST> 9.591714e+001
<TRANSP> 5
 0.000000e+000 1.000000e+000 0.000000e+000 0.000000e+000 0.000000e+000
 0.000000e+000 6.336356e-001 3.663644e-001 0.000000e+000 0.000000e+000
 0.000000e+000 0.000000e+000 6.609472e-001 3.390529e-001 0.000000e+000
 0.000000e+000 0.000000e+000 0.000000e+000 8.172340e-001 1.827660e-001
 0.000000e+000 0.000000e+000 0.000000e+000 0.000000e+000 0.000000e+000
<ENDHMM>
~h "l"
<BEGINHMM>
<NUMSTATES> 5
<STATE> 2
<MEAN> 25
 3.198699e+000 2.431768e+000 -1.504942e+000 -4.722875e+000 -1.545057e+000 -1.281474e+000 9.551613e-001 1.670526e+000 -2.115680e-001 7.554232e-001 -1.120134e+000 1.297375e-001 9.697124e-002 1.883174e-001 6.653415e-002 -1.929649e-001 -2.138564e-001 -3.671068e-001 9.307615e-004 1.405740e-001 3.223046e-002 4.672417e-002 -1.729728e-001 -2.696449e-002 5.619721e-002
<VARIANCE> 25
 3.878415e+001 3.077363e+001 2.443494e+001 3.197800e+001 1.373130e+001 2.070587e+001 1.576710e+001 2.028456e+001 1.236828e+001 9.633763e+000 1.356048e+001 1.009856e+001 7.905034e-001 1.223911e+000 1.419906e+000 1.428857e+000 1.169464e+000 1.267914e+000 1.280298e+000 1.150363e+000 1.044566e+000 9.501142e-001 9.511109e-001 9.519568e-001 4.857553e-001
<GCONST> 8.143704e+001
<STATE> 3
<MEAN> 25
 3.992670e+000 3.216119e+000 -1.270943e+000 -5.332396e+000 -1.819016e+000 -2.142296e+000 1.153912e+000 2.371147e+000 -1.237047e-001 6.207431e-001 -1.772773e+000 9.880041e-002 1.273507e-001 1.290353e-001 5.403548e-002 -1.067047e-001 -1.100870e-001 -1.911678e-001 8.604819e-002 1.799092e-001 5.163104e-002 -8.517801e-002 -1.832664e-001 1.807969e-002 8.839291e-002
<VARIANCE> 25
 3.624481e+001 2.736606e+001 2.358626e+001 3.137723e+001 1.373485e+001 1.965948e+001 1.736431e+001 2.165857e+001 1.304901e+001 9.823185e+000 1.491012e+001 1.016508e+001 9.111206e-001 1.231179e+000 1.559609e+000 1.507297e+000 1.113504e+000 1.317081e+000 1.401611e+000 1.258189e+000 1.093766e+000 9.655293e-001 1.008634e+000 9.573667e-001 5.158179e-001
<GCONST> 8.213349e+001
<STATE> 4
<MEAN> 25
 5.683897e+000 4.227433e+000 -1.037985e+000 -6.196650e+000 -2.507167e+000 -2.907269e+000 1.641306e+000 3.967073e+000 7.238752e-001 -3.383417e-001 -2.934721e+000 3.999476e-002 -8.992717e-002 -1.575669e-001 -6.430344e-002 1.443207e-001 -7.813380e-002 1.191469e-001 9.649234e-002 5.374905e-002 1.164047e-001 -1.701341e-001 -2.070562e-002 -3.493410e-003 -6.217678e-002
<VARIANCE> 25
 3.048544e+001 2.205402e+001 2.680132e+001 2.844053e+001 1.274405e+001 1.874044e+001 1.887502e+001 2.196264e+001 1.627238e+001 1.216464e+001 1.474987e+001 1.178740e+001 1.313975e+000 1.295400e+000 2.080112e+000 1.965695e+000 1.054280e+000 1.383402e+000 1.548024e+000 1.499356e+000 1.186657e+000 1.124687e+000 1.206551e+000 1.117383e+000 7.380830e-001
<GCONST> 8.448640e+001
<TRANSP> 5
 0.000000e+000 1.000000e+000 0.000000e+000 0.000000e+000 0.000000e+000
 0.000000e+000 6.467789e-001 3.532211e-001 0.000000e+000 0.000000e+000
 0.000000e+000 0.000000e+000 6.508121e-001 3.491878e-001 0.000000e+000
 0.000000e+000 0.000000e+000 0.000000e+000 8.301054e-001 1.698946e-001
 0.000000e+000 0.000000e+000 0.000000e+000 0.000000e+000 0.000000e+000
<ENDHMM>
~h "m"
<BEGINHMM>
<NUMSTATES> 5
<STATE> 2
<MEAN> 25
 4.271607e+000 4.140595e+000 1.359834e+000 1.480795e+000 -3.887694e-002 3.718973e-001 2.057241e+000 3.370157e+000 2.759823e+000 5.246720e-001 -1.376567e+000 -2.004625e+000 3.336552e-002 -2.502741e-002 -6.937706e-002 7.759783e-002 8.183552e-002 1.319301e-001 2.007687e-001 2.502106e-001 2.110516e-001 5.000164e-002 -1.910509e-002 -1.387882e-001 5.210938e-003
<VARIANCE> 25
 2.357557e+001 1.597612e+001 2.056744e+001 3.503463e+001 1.524926e+001 1.836006e+001 1.309027e+001 1.947950e+001 1.698748e+001 1.720189e+001 1.025675e+001 1.631457e+001 6.687704e-001 5.395299e-001 1.099518e+000 1.693196e+000 1.190176e+000 1.285446e+000 1.002179e+000 1.224637e+000 1.105523e+000 1.234085e+000 7.964473e-001 1.306446e+000 3.857342e-001
<GCONST> 8.006161e+001
<STATE> 3
<MEAN> 25
 4.063140e+000 3.748888e+000 8.674136e-001 1.336627e+000 -1.229053e-001 6.491704e-001 2.412631e+000 3.645843e+000 2.757430e+000 4.026514e-001 -1.128886e+000 -1.822094e+000 -2.399476e-002 -9.265829e-002 -1.307114e-001 -8.071371e-002 3.407196e-003 6.118462e-002 1.052025e-001 9.685859e-002 -3.925807e-002 -7.326637e-002 4.553398e-002 8.548047e-002 -5.956558e-004
<VARIANCE> 25
 2.596618e+001 1.616207e+001 1.932028e+001 3.148505e+001 1.539051e+001 1.824693e+001 1.243176e+001 2.028430e+001 1.569580e+001 1.789034e+001 9.931291e+000 1.752542e+001 6.146026e-001 4.871799e-001 9.721297e-001 1.668113e+000 1.154164e+000 1.222456e+000 9.071853e-001 1.169077e+000 1.063323e+000 1.325908e+000 7.663464e-001 1.338924e+000 3.559792e-001
<GCONST> 7.937883e+001
<STATE> 4
<MEAN> 25
 2.612374e+000 2.214268e+000 -6.525705e-001 3.088544e-001 -4.629180e-001 9.685091e-001 2.444429e+000 2.952211e+000 1.597626e+000 -1.585981e-001 -5.738120e-001 -3.482919e-001 -8.423442e-002 -1.402970e-001 -1.466649e-001 -1.296386e-001 1.408747e-002 3.830850e-002 3.711174e-002 -1.424722e-002 -1.203428e-001 -6.806844e-002 6.466276e-002 1.932343e-001 -1.829518e-002
<VARIANCE> 25
 3.439112e+001 1.811517e+001 1.778765e+001 2.522945e+001 1.254892e+001 1.505134e+001 1.195124e+001 2.361133e+001 1.435076e+001 1.896609e+001 9.842180e+000 1.737768e+001 5.327994e-001 4.836331e-001 7.970467e-001 1.295260e+000 1.005671e+000 1.097589e+000 8.586429e-001 1.174872e+000 9.662971e-001 1.171385e+000 7.469243e-001 1.051045e+000 2.734815e-001
<GCONST> 7.748871e+001
<TRANSP> 5
 0.000000e+000 1.000000e+000 0.000000e+000 0.000000e+000 0.000000e+000
 0.000000e+000 7.505774e-001 2.494225e-001 0.000000e+000 0.000000e+000
 0.000000e+000 0.000000e+000 7.488203e-001 2.511798e-001 0.000000e+000
 0.000000e+000 0.000000e+000 0.000000e+000 9.108158e-001 8.918412e-002
 0.000000e+000 0.000000e+000 0.000000e+000 0.000000e+000 0.000000e+000
<ENDHMM>
~h "n"
<BEGINHMM>
<NUMSTATES> 5
<STATE> 2
<MEAN> 25
 4.172432e+000 3.021566e+000 3.765510e+000 7.099685e+000 6.500344e+000 1.752533e+000 -2.780913e+000 -3.687882e+000 -2.303014e+000 -1.862783e+000 -1.207408e+000 -1.674191e-001 1.513655e-001 3.106354e-001 8.596398e-001 1.295805e+000 8.190894e-001 3.187846e-001 -4.008569e-001 -1.809968e-001 2.610520e-001 -2.265997e-001 -3.387480e-001 -5.059916e-001 2.874991e-002
<VARIANCE> 25
 1.669513e+001 1.503085e+001 1.954290e+001 3.672760e+001 2.800671e+001 2.687156e+001 3.652760e+001 1.283873e+001 1.593052e+001 1.323760e+001 1.727162e+001 1.561264e+001 1.575915e+000 8.334969e-001 2.236209e+000 4.531843e+000 2.975488e+000 3.465190e+000 3.572062e+000 1.650333e+000 1.436648e+000 1.776185e+000 1.674813e+000 1.327606e+000 1.631045e+000
<GCONST> 9.069178e+001
<STATE> 3
<MEAN> 25
 3.950653e+000 3.876561e+000 4.841884e+000 8.139011e+000 6.942558e+000 3.240052e+000 -1.797309e+000 -2.907165e+000 -1.454784e+000 -1.221479e+000 -6.843392e-001 -4.972606e-001 -2.349660e-001 1.552018e-002 2.818526e-002 -7.866611e-003 -9.863977e-002 2.994803e-001 3.453502e-001 2.703601e-001 2.913772e-001 2.638830e-001 1.724677e-001 -6.347172e-002 -2.108746e-001
<VARIANCE> 25
 1.171678e+001 1.261476e+001 1.481552e+001 2.303248e+001 2.012599e+001 2.591768e+001 3.576735e+001 1.267871e+001 1.399794e+001 1.160149e+001 1.569117e+001 1.420358e+001 5.987414e-001 9.026666e-001 1.313842e+000 2.158712e+000 1.538056e+000 2.482554e+000 2.734716e+000 1.134693e+000 1.143974e+000 1.248558e+000 1.296559e+000 1.031079e+000 7.177386e-001
<GCONST> 8.286044e+001
<STATE> 4
<MEAN> 25
 1.170292e+000 2.529086e+000 3.331421e+000 5.891636e+000 4.395946e+000 4.730098e+000 1.268438e+000 -1.021620e+000 -3.651292e-001 2.556222e-001 6.985498e-001 8.865006e-002 -4.843360e-001 -4.417259e-001 -3.802860e-001 -4.831064e-001 -5.018373e-001 -1.400299e-001 1.824255e-001 2.114010e-001 1.558901e-001 1.694954e-001 1.295917e-001 1.756675e-002 -2.362460e-001
<VARIANCE> 25
 1.622153e+001 1.936385e+001 1.953211e+001 2.567051e+001 2.137884e+001 1.535695e+001 1.675261e+001 1.206628e+001 1.165697e+001 1.018947e+001 1.017071e+001 1.058284e+001 4.587841e-001 1.118306e+000 1.375668e+000 1.424452e+000 1.344684e+000 1.565216e+000 1.445727e+000 1.155282e+000 1.225279e+000 1.070024e+000 9.761270e-001 8.693805e-001 3.298195e-001
<GCONST> 7.873303e+001
<TRANSP> 5
 0.000000e+000 1.000000e+000 0.000000e+000 0.000000e+000 0.000000e+000
 0.000000e+000 7.402917e-001 2.597083e-001 0.000000e+000 0.000000e+000
 0.000000e+000 0.000000e+000 7.226695e-001 2.773304e-001 0.000000e+000
 0.000000e+000 0.000000e+000 0.000000e+000 8.640001e-001 1.359999e-001
 0.000000e+000 0.000000e+000 0.000000e+000 0.000000e+000 0.000000e+000
<ENDHMM>
~h "o"
<BEGINHMM>
<NUMSTATES> 5
<STATE> 2
<MEAN> 25
 7.887471e+000 6.035507e+000 1.801717e+000 -3.255498e+000 -4.247389e+000 -6.230217e+000 8.109196e-002 3.529087e+000 -6.473908e-001 -2.229161e+000 -3.200169e+000 -1.636889e+000 7.721506e-002 4.047861e-001 2.958526e-001 1.327253e-001 -6.083498e-001 -3.048122e-001 -3.366499e-001 8.097097e-002 4.419521e-001 1.172990e-002 -1.955537e-001 -3.881066e-001 -1.689061e-001
<VARIANCE> 25
 2.092240e+001 1.581338e+001 2.539353e+001 2.905175e+001 3.393617e+001 2.445765e+001 1.462231e+001 2.015352e+001 2.109974e+001 1.931094e+001 1.900671e+001 1.226537e+001 8.192666e-001 6.436127e-001 8.440862e-001 1.693236e+000 1.653108e+000 1.630278e+000 1.232930e+000 1.369593e+000 1.298797e+000 1.033872e+000 1.051663e+000 7.090195e-001 4.220432e-001
<GCONST> 8.259209e+001
<STATE> 3
<MEAN> 25
 7.534643e+000 7.000222e+000 3.039467e+000 -2.148705e+000 -5.189683e+000 -5.971045e+000 -2.611019e-001 3.287236e+000 2.318942e-001 -2.383795e+000 -3.676121e+000 -2.704507e+000 -7.688078e-002 1.964021e-001 2.139364e-001 2.488618e-001 -1.872662e-001 8.941513e-002 -9.077194e-002 -3.196753e-002 2.384043e-001 -2.473568e-002 -3.541306e-002 -2.043460e-001 -1.904022e-001
<VARIANCE> 25
 1.783870e+001 1.405903e+001 1.956934e+001 2.386589e+001 3.510491e+001 2.282086e+001 1.416701e+001 1.900795e+001 2.405002e+001 1.699866e+001 1.736516e+001 1.356304e+001 4.698873e-001 5.483593e-001 7.982374e-001 1.200813e+000 1.202320e+000 1.073269e+000 9.585589e-001 1.136686e+000 9.549726e-001 1.048449e+000 9.674802e-001 7.771170e-001 3.369760e-001
<GCONST> 7.894544e+001
<STATE> 4
<MEAN> 25
 6.110138e+000 7.143314e+000 3.568599e+000 -5.213653e-001 -6.051691e+000 -5.749670e+000 -1.797409e+000 1.658189e+000 1.153219e+000 -5.590860e-001 -2.043448e+000 -3.103017e+000 -2.337826e-001 -1.869245e-001 -1.430654e-001 9.620635e-002 1.366798e-001 2.255200e-001 2.314924e-002 -1.021846e-001 1.368413e-002 1.182450e-001 1.556863e-001 1.104054e-001 -1.677465e-001
<VARIANCE> 25
 2.532304e+001 2.349300e+001 1.930807e+001 1.315395e+001 2.174880e+001 2.354720e+001 1.652806e+001 1.980385e+001 1.796999e+001 2.014778e+001 1.543181e+001 1.217110e+001 6.606899e-001 7.381759e-001 7.931608e-001 7.678229e-001 1.097413e+000 1.267147e+000 9.903290e-001 1.384742e+000 1.026752e+000 1.083385e+000 9.261050e-001 8.098693e-001 2.842704e-001
<GCONST> 7.902194e+001
<TRANSP> 5
 0.000000e+000 1.000000e+000 0.000000e+000 0.000000e+000 0.000000e+000
 0.000000e+000 6.464556e-001 3.535444e-001 0.000000e+000 0.000000e+000
 0.000000e+000 0.000000e+000 6.856546e-001 3.143454e-001 0.000000e+000
 0.000000e+000 0.000000e+000 0.000000e+000 9.313169e-001 6.868316e-002
 0.000000e+000 0.000000e+000 0.000000e+000 0.000000e+000 0.000000e+000
<ENDHMM>
~h "p"
<BEGINHMM>
<NUMSTATES> 5
<STATE> 2
<MEAN> 25
 -2.110265e+000 -7.629980e-001 -1.040386e+000 8.498282e-001 -1.173905e+000 7.851714e-001 3.611736e-001 -5.896495e-001 1.717292e-002 8.781360e-001 4.419954e-001 -3.562949e-001 -1.850249e-001 -2.150847e-001 -2.125417e-001 -1.070757e-001 -1.284450e-001 -1.233806e-001 -1.732967e-001 -2.276977e-001 -1.055448e-001 -3.082885e-002 5.322073e-004 5.739146e-002 -9.985411e-002
<VARIANCE> 25
 1.415655e+001 1.335693e+001 1.723379e+001 1.883787e+001 1.125725e+001 9.230123e+000 1.145210e+001 1.159443e+001 9.431660e+000 1.007196e+001 9.455606e+000 8.398786e+000 1.072755e+000 1.093139e+000 1.326684e+000 1.176506e+000 1.027229e+000 9.361417e-001 1.078812e+000 1.104707e+000 1.006245e+000 1.013513e+000 9.098408e-001 8.730625e-001 4.323879e-001
<GCONST> 7.512440e+001
<STATE> 3
<MEAN> 25
 -2.383533e+000 -9.948977e-001 -1.282823e+000 6.999948e-001 -1.441883e+000 3.533980e-001 -2.309111e-001 -1.099524e+000 -1.950630e-001 7.838683e-001 3.915071e-001 -3.172205e-001 -1.743715e-002 -5.290368e-002 -6.829311e-002 -9.418727e-002 -5.898558e-002 -1.236291e-001 -1.664958e-001 -1.358641e-001 -3.305027e-002 -7.742190e-003 1.038833e-002 3.755752e-002 8.524479e-003
<VARIANCE> 25
 1.432757e+001 1.378950e+001 1.777382e+001 1.491527e+001 1.069477e+001 9.197729e+000 1.170898e+001 1.069783e+001 9.418966e+000 9.810747e+000 9.246982e+000 7.720690e+000 1.126668e+000 9.893337e-001 1.236283e+000 1.112443e+000 9.132386e-001 8.704747e-001 1.136939e+000 1.080007e+000 9.534932e-001 1.002836e+000 8.890342e-001 8.079454e-001 5.120019e-001
<GCONST> 7.438459e+001
<STATE> 4
<MEAN> 25
 -2.831143e+000 -1.312451e+000 -1.528257e+000 5.326349e-001 -1.660705e+000 8.745219e-003 -6.986179e-001 -1.421789e+000 -3.077460e-001 8.683801e-001 5.286338e-001 -1.351715e-001 9.010328e-002 4.826628e-002 3.942507e-002 -1.591506e-002 -1.020281e-003 -7.537631e-002 -7.176351e-002 -4.667955e-002 -3.294174e-002 -1.208898e-002 2.183382e-002 4.626887e-002 7.176098e-002
<VARIANCE> 25
 1.351743e+001 1.409535e+001 1.791104e+001 1.229837e+001 1.066352e+001 9.069341e+000 1.136549e+001 9.801300e+000 9.124841e+000 9.233157e+000 8.466707e+000 7.305345e+000 8.300136e-001 7.269725e-001 9.201128e-001 8.713150e-001 8.082334e-001 8.623718e-001 1.112526e+000 9.612690e-001 9.005032e-001 9.601434e-001 8.759771e-001 7.611461e-001 4.087369e-001
<GCONST> 7.196947e+001
<TRANSP> 5
 0.000000e+000 1.000000e+000 0.000000e+000 0.000000e+000 0.000000e+000
 0.000000e+000 6.647007e-001 3.352992e-001 0.000000e+000 0.000000e+000
 0.000000e+000 0.000000e+000 6.561280e-001 3.438720e-001 0.000000e+000
 0.000000e+000 0.000000e+000 0.000000e+000 8.121103e-001 1.878898e-001
 0.000000e+000 0.000000e+000 0.000000e+000 0.000000e+000 0.000000e+000
<ENDHMM>
~h "r"
<BEGINHMM>
<NUMSTATES> 5
<STATE> 2
<MEAN> 25
 4.744172e+000 2.560603e+000 -8.028638e-001 -5.914987e-001 -5.471487e-001 -9.774466e-001 1.743809e-001 6.991270e-001 -1.204061e+000 -2.040627e+000 -1.304810e+000 6.135778e-001 4.035455e-001 1.877907e-001 5.092313e-002 1.576024e-001 9.545624e-002 -1.408865e-001 -2.655732e-002 -3.665600e-002 -2.282145e-001 -2.225410e-001 -7.510570e-002 5.695660e-002 2.287209e-001
<VARIANCE> 25
 3.520277e+001 2.161996e+001 2.066056e+001 1.777641e+001 2.019691e+001 2.631163e+001 1.979470e+001 2.667849e+001 1.708692e+001 2.631995e+001 1.353656e+001 1.172765e+001 1.722143e+000 1.108330e+000 1.236778e+000 1.101464e+000 1.366340e+000 1.801156e+000 1.516297e+000 1.705728e+000 1.333708e+000 1.793180e+000 1.043833e+000 1.012178e+000 8.827661e-001
<GCONST> 8.581723e+001
<STATE> 3
<MEAN> 25
 5.986324e+000 3.250545e+000 -5.512144e-001 -3.809377e-004 -4.788150e-001 -1.642693e+000 -8.954419e-002 6.390846e-001 -1.633653e+000 -2.457917e+000 -1.499186e+000 4.100667e-001 1.877259e-001 1.442064e-001 7.747319e-002 1.433590e-001 -5.062378e-003 -1.487406e-001 -7.519750e-002 -5.511104e-002 -7.676158e-002 -6.906848e-003 1.213501e-002 -9.267204e-002 7.973474e-002
<VARIANCE> 25
 3.074679e+001 1.978588e+001 2.494728e+001 1.567836e+001 1.978402e+001 2.598070e+001 1.993587e+001 2.899478e+001 1.607694e+001 2.969459e+001 1.625646e+001 1.427381e+001 1.294203e+000 8.500918e-001 1.109269e+000 8.875916e-001 1.179714e+000 1.532789e+000 1.362480e+000 1.801388e+000 1.268872e+000 2.059993e+000 1.192251e+000 1.067577e+000 7.227488e-001
<GCONST> 8.499140e+001
<STATE> 4
<MEAN> 25
 6.864230e+000 4.554192e+000 5.206239e-001 8.309440e-001 -5.850199e-001 -2.531435e+000 -1.223624e+000 2.171359e-002 -1.140285e+000 -1.278556e+000 -1.232086e+000 -8.988391e-001 -9.775265e-002 1.474043e-001 2.277240e-001 1.085669e-001 -7.615782e-002 -9.431177e-002 -2.079291e-001 -1.839503e-001 8.851308e-002 3.294958e-001 1.806221e-001 -1.535863e-001 -1.154799e-001
<VARIANCE> 25
 2.265666e+001 2.053435e+001 3.211881e+001 1.548091e+001 2.487163e+001 2.404837e+001 2.416581e+001 3.473236e+001 1.549942e+001 3.951678e+001 1.920414e+001 1.899420e+001 7.558329e-001 7.418983e-001 1.026374e+000 7.666013e-001 1.051989e+000 1.359170e+000 1.286762e+000 1.964758e+000 1.107081e+000 1.946060e+000 1.156320e+000 1.162431e+000 4.299444e-001
<GCONST> 8.442773e+001
<TRANSP> 5
 0.000000e+000 1.000000e+000 0.000000e+000 0.000000e+000 0.000000e+000
 0.000000e+000 6.546623e-001 3.453378e-001 0.000000e+000 0.000000e+000
 0.000000e+000 0.000000e+000 6.667676e-001 3.332324e-001 0.000000e+000
 0.000000e+000 0.000000e+000 0.000000e+000 8.450497e-001 1.549503e-001
 0.000000e+000 0.000000e+000 0.000000e+000 0.000000e+000 0.000000e+000
<ENDHMM>
~h "s"
<BEGINHMM>
<NUMSTATES> 5
<STATE> 2
<MEAN> 25
 -2.932508e+000 -3.875696e+000 3.965200e+000 -4.096719e+000 5.572796e-002 -2.194836e+000 4.880480e+000 -7.652338e-001 -2.799322e+000 1.129719e+000 1.210289e+000 1.981590e+000 -1.551781e+000 -1.272164e+000 1.856044e+000 -4.614854e-001 1.729452e-001 -3.014854e-001 9.226493e-001 -2.809155e-001 -2.666672e-001 7.786492e-002 2.048108e-001 -1.013022e-001 6.693916e-001
<VARIANCE> 25
 7.409968e+001 4.514764e+001 6.453035e+001 2.720238e+001 1.788845e+001 2.114122e+001 2.943443e+001 1.713418e+001 2.093826e+001 1.491689e+001 1.224337e+001 1.291704e+001 4.487380e+000 2.785491e+000 4.382014e+000 1.749698e+000 1.389664e+000 2.238998e+000 1.948436e+000 1.852994e+000 2.371587e+000 1.278945e+000 1.257687e+000 1.246599e+000 1.178251e+000
<GCONST> 9.320383e+001
<STATE> 3
<MEAN> 25
 -8.099287e+000 -7.940421e+000 9.223724e+000 -6.125905e+000 1.255425e+000 -4.234231e+000 7.630072e+000 -1.494419e+000 -3.416331e+000 9.740687e-001 1.791844e+000 1.617007e+000 -1.027928e+000 -8.156791e-001 1.125254e+000 -4.509303e-001 3.311581e-001 -4.798608e-001 5.917379e-001 -1.269852e-001 -1.412775e-001 -9.020076e-002 1.114203e-001 -4.614210e-002 6.952318e-001
<VARIANCE> 25
 6.711941e+001 4.159224e+001 6.038800e+001 2.868500e+001 2.140751e+001 2.577065e+001 3.005513e+001 1.948020e+001 2.891603e+001 1.598186e+001 1.358517e+001 1.356721e+001 4.471961e+000 3.123409e+000 4.125600e+000 1.652342e+000 1.448069e+000 2.007737e+000 2.188673e+000 1.680052e+000 1.976279e+000 1.393805e+000 1.223765e+000 1.287690e+000 1.003792e+000
<GCONST> 9.377371e+001
<STATE> 4
<MEAN> 25
 -9.230894e+000 -8.894110e+000 1.080906e+001 -7.417807e+000 2.072660e+000 -5.040307e+000 7.736190e+000 -1.583758e+000 -3.541876e+000 6.841715e-001 1.750483e+000 8.695448e-001 5.937172e-001 4.622223e-001 -4.612935e-001 2.521023e-001 -1.822836e-001 1.655115e-001 -4.394082e-001 1.231899e-001 1.572206e-001 -7.377715e-002 -1.709337e-001 -1.039646e-001 -2.519202e-001
<VARIANCE> 25
 7.445425e+001 3.942312e+001 5.438778e+001 3.120751e+001 2.440127e+001 2.579328e+001 3.033918e+001 1.899292e+001 2.698160e+001 2.052821e+001 1.407236e+001 1.596877e+001 3.883104e+000 3.073354e+000 3.652336e+000 1.767606e+000 1.547618e+000 2.307531e+000 2.329423e+000 1.439134e+000 1.784001e+000 1.618571e+000 1.344359e+000 1.487034e+000 1.136909e+000
<GCONST> 9.460969e+001
<TRANSP> 5
 0.000000e+000 1.000000e+000 0.000000e+000 0.000000e+000 0.000000e+000
 0.000000e+000 7.315286e-001 2.684714e-001 0.000000e+000 0.000000e+000
 0.000000e+000 0.000000e+000 7.429755e-001 2.570244e-001 0.000000e+000
 0.000000e+000 0.000000e+000 0.000000e+000 9.398233e-001 6.017670e-002
 0.000000e+000 0.000000e+000 0.000000e+000 0.000000e+000 0.000000e+000
<ENDHMM>
~h "t"
<BEGINHMM>
<NUMSTATES> 5
<STATE> 2
<MEAN> 25
 -1.977185e+000 -1.125360e+000 -1.259788e+000 5.682744e-001 -7.452923e-001 1.296892e+000 4.544854e-001 -8.119535e-001 -7.638848e-001 3.959247e-001 6.546175e-001 3.013997e-001 -4.355025e-001 -3.852458e-001 -3.271893e-001 -3.752124e-002 -3.005850e-001 -8.456071e-002 -1.336379e-001 -1.717680e-001 2.990083e-002 7.012661e-003 8.179169e-004 -8.825151e-002 -2.991256e-001
<VARIANCE> 25
 1.441212e+001 1.122652e+001 1.529172e+001 1.711425e+001 1.112031e+001 1.021407e+001 1.060487e+001 1.065154e+001 1.128686e+001 1.251180e+001 1.000632e+001 1.035304e+001 1.453169e+000 1.047112e+000 1.519969e+000 1.826997e+000 1.055795e+000 1.204954e+000 1.136566e+000 1.144735e+000 1.345771e+000 1.297840e+000 1.065804e+000 1.194102e+000 9.636591e-001
<GCONST> 7.835770e+001
<STATE> 3
<MEAN> 25
 -2.342338e+000 -1.869307e+000 -1.791030e+000 4.273839e-001 -1.182439e+000 8.799617e-001 2.304498e-001 -9.355367e-001 -8.780879e-001 1.795618e-001 6.076169e-001 2.110371e-001 4.576984e-002 -1.775892e-001 2.797298e-003 2.588182e-002 -1.072762e-001 -1.658643e-001 -6.675231e-002 -1.220549e-002 -1.127779e-001 -1.897368e-001 -8.012429e-002 -9.568073e-002 1.232293e-001
<VARIANCE> 25
 1.266520e+001 1.153536e+001 1.504719e+001 1.442707e+001 9.802999e+000 1.017284e+001 1.021984e+001 9.903210e+000 1.244775e+001 1.433160e+001 1.060245e+001 9.900474e+000 1.468327e+000 1.356338e+000 1.720065e+000 1.517380e+000 1.012383e+000 1.087244e+000 1.201981e+000 9.973249e-001 1.555052e+000 1.651120e+000 1.281720e+000 1.170558e+000 1.158130e+000
<GCONST> 7.878973e+001
<STATE> 4
<MEAN> 25
 -5.560061e-001 -1.408574e+000 -5.966213e-001 8.660881e-001 -1.025368e+000 3.822739e-001 5.360804e-003 -6.550260e-001 -1.813651e+000 -1.528224e+000 -2.756255e-001 -5.358300e-001 5.161992e-001 3.841263e-001 5.594440e-001 6.011806e-002 3.867739e-002 -1.878550e-001 -2.525924e-001 1.811790e-001 -5.855100e-002 -4.333063e-001 -3.487940e-001 -3.256804e-001 3.975562e-001
<VARIANCE> 25
 2.480275e+001 2.422031e+001 2.640742e+001 1.617558e+001 1.113546e+001 1.173291e+001 1.386088e+001 1.195111e+001 1.755257e+001 2.475485e+001 1.682985e+001 1.321811e+001 1.852930e+000 3.396874e+000 3.054472e+000 1.895527e+000 1.393435e+000 1.221765e+000 1.963129e+000 1.372832e+000 2.189080e+000 2.544552e+000 2.182064e+000 1.641511e+000 1.461275e+000
<GCONST> 8.835545e+001
<TRANSP> 5
 0.000000e+000 1.000000e+000 0.000000e+000 0.000000e+000 0.000000e+000
 0.000000e+000 6.700861e-001 3.299139e-001 0.000000e+000 0.000000e+000
 0.000000e+000 0.000000e+000 6.707171e-001 3.292829e-001 0.000000e+000
 0.000000e+000 0.000000e+000 0.000000e+000 8.170555e-001 1.829445e-001
 0.000000e+000 0.000000e+000 0.000000e+000 0.000000e+000 0.000000e+000
<ENDHMM>
~h "u"
<BEGINHMM>
<NUMSTATES> 5
<STATE> 2
<MEAN> 25
 3.841110e+000 5.639737e+000 4.951195e+000 2.541419e+000 -1.751760e+000 -1.664442e+000 -2.722488e+000 -4.564376e-001 -6.242580e-001 -1.372321e+000 -1.452936e+000 -2.773130e+000 -1.350132e-002 2.866862e-001 1.664552e-001 5.580018e-002 -5.402031e-002 -1.060335e-001 -3.263967e-001 -2.088685e-001 9.736387e-002 2.242837e-001 7.040002e-002 -1.013990e-001 -1.222218e-001
<VARIANCE> 25
 2.855063e+001 3.506738e+001 3.521115e+001 1.419810e+001 1.244563e+001 2.082815e+001 2.024812e+001 1.976489e+001 1.193226e+001 2.103437e+001 1.814448e+001 1.520027e+001 1.197553e+000 2.444847e+000 1.625655e+000 1.061301e+000 1.114005e+000 1.633493e+000 1.890023e+000 1.521191e+000 1.259669e+000 1.579671e+000 1.523122e+000 1.206424e+000 4.126703e-001
<GCONST> 8.545089e+001
<STATE> 3
<MEAN> 25
 2.793929e+000 5.098866e+000 4.338223e+000 2.776102e+000 -1.498607e+000 -1.359314e+000 -2.736997e+000 -1.154064e+000 -5.166852e-001 -4.265024e-001 -7.533385e-001 -2.342217e+000 -3.248416e-001 -2.261855e-001 -2.312961e-001 6.947750e-002 1.243967e-001 1.635077e-001 9.145970e-002 -1.394564e-001 5.168226e-002 2.478653e-001 1.766061e-001 1.335403e-001 -2.219357e-001
<VARIANCE> 25
 2.725362e+001 3.516327e+001 3.466404e+001 1.366850e+001 1.079244e+001 1.735066e+001 1.739126e+001 1.635462e+001 1.123913e+001 1.551847e+001 1.442192e+001 1.331628e+001 9.248716e-001 1.491168e+000 1.213318e+000 8.548717e-001 9.432180e-001 1.324106e+000 1.389720e+000 1.295802e+000 1.044422e+000 1.265813e+000 1.167033e+000 9.357237e-001 3.111791e-001
<GCONST> 8.064338e+001
<STATE> 4
<MEAN> 25
 2.582485e-001 2.326146e+000 1.665078e+000 2.190232e+000 -1.208533e+000 -3.555499e-001 -1.452173e+000 -1.121768e+000 -3.278849e-001 3.061129e-001 -5.221132e-002 -1.317752e+000 -2.814143e-001 -3.260493e-001 -3.096323e-001 -6.986117e-002 5.133129e-002 1.178617e-001 1.681459e-001 3.596257e-002 5.112543e-002 8.684967e-002 6.693144e-002 9.824544e-002 -1.399209e-001
<VARIANCE> 25
 2.386022e+001 2.975609e+001 2.808853e+001 1.272815e+001 9.086322e+000 1.269239e+001 1.276568e+001 1.153424e+001 1.062502e+001 1.261823e+001 1.133289e+001 1.044663e+001 8.040336e-001 1.082611e+000 9.621003e-001 8.110113e-001 8.376503e-001 1.150025e+000 1.084339e+000 1.076754e+000 9.675983e-001 1.118770e+000 1.016463e+000 8.455085e-001 2.821321e-001
<GCONST> 7.619667e+001
<TRANSP> 5
 0.000000e+000 1.000000e+000 0.000000e+000 0.000000e+000 0.000000e+000
 0.000000e+000 7.259241e-001 2.740758e-001 0.000000e+000 0.000000e+000
 0.000000e+000 0.000000e+000 7.297978e-001 2.702022e-001 0.000000e+000
 0.000000e+000 0.000000e+000 0.000000e+000 8.906057e-001 1.093943e-001
 0.000000e+000 0.000000e+000 0.000000e+000 0.000000e+000 0.000000e+000
<ENDHMM>
~h "ng"
<BEGINHMM>
<NUMSTATES> 5
<STATE> 2
<MEAN> 25
 2.082811e+000 1.331228e+000 -1.188001e+000 -7.756888e-001 2.248023e-001 1.122242e+000 1.478537e+000 1.751571e+000 1.413846e+000 2.252830e-001 1.165259e-001 1.586117e+000 -1.119033e-001 -2.622963e-001 -3.531682e-001 -2.203621e-001 2.354630e-002 2.219791e-002 9.314064e-002 5.611604e-002 -3.762912e-002 -1.717846e-001 3.805016e-004 2.270878e-001 -4.839956e-003
<VARIANCE> 25
 3.060664e+001 1.726647e+001 2.600092e+001 3.386097e+001 1.377946e+001 1.269784e+001 1.382815e+001 1.761995e+001 1.198523e+001 1.872845e+001 1.222229e+001 1.470362e+001 6.265912e-001 6.489915e-001 1.438758e+000 2.066904e+000 9.521714e-001 9.729372e-001 1.151443e+000 1.173758e+000 1.159365e+000 1.673532e+000 1.012133e+000 1.231573e+000 4.492247e-001
<GCONST> 8.076048e+001
<STATE> 3
<MEAN> 25
 1.756384e+000 6.915737e-001 -2.175170e+000 -1.297497e+000 2.662278e-001 1.167426e+000 1.647127e+000 1.717548e+000 1.128480e+000 -5.184782e-002 2.157860e-001 1.963402e+000 -5.989338e-002 -1.554059e-001 -2.209779e-001 -1.469273e-001 1.908541e-002 -7.729638e-003 2.187480e-002 2.414702e-002 -5.789566e-002 -8.046332e-002 2.183540e-002 9.558587e-002 -1.177275e-003
<VARIANCE> 25
 3.336687e+001 1.541128e+001 2.363596e+001 3.125812e+001 1.396736e+001 1.161952e+001 1.269079e+001 1.685900e+001 1.139076e+001 2.072266e+001 1.207927e+001 1.525434e+001 5.027605e-001 5.205745e-001 1.022864e+000 1.525679e+000 8.441272e-001 8.142171e-001 9.356340e-001 9.417393e-001 1.079932e+000 1.468645e+000 9.689534e-001 1.062150e+000 3.706169e-001
<GCONST> 7.803065e+001
<STATE> 4
<MEAN> 25
 1.279848e+000 1.731798e-001 -2.811024e+000 -1.748587e+000 -6.082110e-002 9.159164e-001 1.514983e+000 1.711520e+000 7.804922e-001 8.924842e-002 4.690827e-001 1.890162e+000 -6.786487e-002 -9.245449e-002 -4.095294e-002 -4.735684e-002 -5.337202e-002 -3.765272e-002 -5.625387e-002 -7.109857e-002 -8.823177e-002 1.062836e-002 5.052425e-002 -3.955171e-003 -2.668575e-002
<VARIANCE> 25
 3.576544e+001 1.351935e+001 1.903824e+001 2.622095e+001 1.487562e+001 1.054037e+001 1.178521e+001 1.571746e+001 1.166528e+001 1.960198e+001 1.084306e+001 1.408623e+001 5.683842e-001 5.000274e-001 9.975817e-001 1.550945e+000 8.363438e-001 7.173653e-001 9.235603e-001 8.786935e-001 1.024494e+000 1.469709e+000 9.632188e-001 1.056787e+000 4.334546e-001
<GCONST> 7.712829e+001
<TRANSP> 5
 0.000000e+000 1.000000e+000 0.000000e+000 0.000000e+000 0.000000e+000
 0.000000e+000 5.930576e-001 4.069423e-001 0.000000e+000 0.000000e+000
 0.000000e+000 0.000000e+000 6.126491e-001 3.873509e-001 0.000000e+000
 0.000000e+000 0.000000e+000 0.000000e+000 8.050603e-001 1.949397e-001
 0.000000e+000 0.000000e+000 0.000000e+000 0.000000e+000 0.000000e+000
<ENDHMM>
~h "ny"
<BEGINHMM>
<NUMSTATES> 5
<STATE> 2
<MEAN> 25
 -3.707222e+000 -2.624973e+000 -2.481731e+000 -1.682371e-002 -8.178533e-001 1.303305e+000 3.223389e-001 -1.087216e+000 2.038902e-002 1.112310e+000 1.031583e+000 2.065430e-001 7.733972e-002 1.211198e-001 4.163100e-002 9.461500e-002 1.424482e-001 9.624385e-003 9.559949e-003 2.084099e-002 -3.840974e-002 -2.530218e-002 -3.315285e-003 -3.897528e-002 1.939494e-002
<VARIANCE> 25
 1.058996e+001 6.755553e+000 1.139509e+001 1.080864e+001 1.244845e+001 7.593393e+000 1.094737e+001 8.229977e+000 7.993867e+000 8.297911e+000 7.775317e+000 8.155268e+000 3.386195e-001 5.031118e-001 1.111921e+000 8.629479e-001 7.741865e-001 7.132941e-001 1.163769e+000 8.822567e-001 9.437818e-001 8.636508e-001 8.541453e-001 7.207909e-001 1.721136e-001
<GCONST> 6.759713e+001
<STATE> 3
<MEAN> 25
 -3.034542e+000 -1.787946e+000 -1.553428e+000 5.830207e-001 -1.435799e-001 9.280443e-001 -8.211776e-003 -8.356367e-001 2.155218e-001 1.128070e+000 9.104752e-001 -1.712054e-001 2.183827e-001 2.513472e-001 3.636435e-001 1.879079e-001 2.476997e-001 -3.497073e-002 -7.160173e-002 5.141059e-002 2.781290e-002 -1.860389e-002 -2.448778e-002 -8.195220e-002 1.783648e-001
<VARIANCE> 25
 1.527912e+001 1.174172e+001 2.102102e+001 1.695496e+001 1.660918e+001 9.611503e+000 1.153863e+001 7.551240e+000 8.451520e+000 7.714051e+000 8.067468e+000 1.024545e+001 4.918248e-001 6.792920e-001 1.382822e+000 9.961932e-001 9.095231e-001 1.017915e+000 1.555808e+000 8.467830e-001 9.731183e-001 8.402357e-001 8.271106e-001 8.233357e-001 3.361143e-001
<GCONST> 7.289178e+001
<STATE> 4
<MEAN> 25
 2.697902e+000 6.056649e-002 2.187568e+000 1.746511e+000 5.254624e+000 -3.357761e-001 -3.834536e+000 -5.384632e-001 5.574713e-001 -2.035980e-001 1.771501e+000 1.211679e+000 5.901688e-001 6.405214e-002 -1.460976e-001 -5.292482e-001 2.721946e-001 -1.315326e-001 -8.943662e-002 1.577933e-001 -2.140728e-001 -1.492326e-001 7.670786e-002 3.935744e-001 5.699943e-001
<VARIANCE> 25
 3.117324e+001 1.614768e+001 4.088239e+001 3.506293e+001 2.737884e+001 2.648018e+001 5.030104e+001 1.698456e+001 1.757788e+001 1.125817e+001 1.098925e+001 2.385396e+001 7.883570e-001 1.877089e+000 3.929478e+000 2.835560e+000 2.246332e+000 3.014069e+000 6.404069e+000 2.199572e+000 2.008089e+000 1.403619e+000 1.356538e+000 1.935040e+000 1.047998e+000
<GCONST> 9.303784e+001
<TRANSP> 5
 0.000000e+000 1.000000e+000 0.000000e+000 0.000000e+000 0.000000e+000
 0.000000e+000 8.584636e-001 1.415364e-001 0.000000e+000 0.000000e+000
 0.000000e+000 0.000000e+000 8.067319e-001 1.932682e-001 0.000000e+000
 0.000000e+000 0.000000e+000 0.000000e+000 9.051622e-001 9.483786e-002
 0.000000e+000 0.000000e+000 0.000000e+000 0.000000e+000 0.000000e+000
<ENDHMM>
~h "sil"
<BEGINHMM>
<NUMSTATES> 5
<STATE> 2
<MEAN> 25
 -4.352941e+000 -2.792040e+000 -3.291427e+000 -8.861570e-001 -2.528738e+000 -1.227416e-001 -5.065519e-001 -1.540529e+000 -4.091989e-001 1.356905e+000 8.646426e-001 1.324407e-001 -4.151900e-002 -1.895369e-002 -5.277179e-003 -1.852561e-003 -1.933346e-002 -2.217748e-002 -2.532047e-002 -2.082134e-002 -3.452483e-003 -6.359682e-004 -6.177540e-003 4.219355e-003 -2.572657e-002
<VARIANCE> 25
 2.223780e+000 1.807286e+000 3.695138e+000 5.819256e+000 5.737287e+000 5.898380e+000 6.023160e+000 6.617426e+000 7.035461e+000 6.699935e+000 6.927385e+000 6.703596e+000 7.689120e-002 1.490778e-001 2.386698e-001 3.320415e-001 4.001132e-001 5.021881e-001 5.667922e-001 5.856049e-001 6.240630e-001 6.799955e-001 6.985402e-001 6.858875e-001 3.239758e-002
<GCONST> 5.057019e+001
<STATE> 3
<MEAN> 25
 -5.055790e+000 -2.954162e+000 -2.837468e+000 -7.816387e-002 -1.999796e+000 -1.145907e-001 -7.129683e-001 -1.346494e+000 1.628902e-001 1.653450e+000 1.003719e+000 1.851113e-001 -1.754390e-002 -1.039166e-002 3.748209e-003 6.138098e-003 1.150819e-002 3.157229e-002 3.329756e-002 3.954184e-002 3.175785e-002 3.098632e-002 1.804595e-002 -2.910974e-004 -8.170933e-003
<VARIANCE> 25
 3.053987e+000 1.819384e+000 4.227210e+000 6.969923e+000 6.516022e+000 5.880396e+000 6.321306e+000 7.373279e+000 7.585762e+000 7.091597e+000 7.052638e+000 6.506207e+000 1.027422e-001 1.343215e-001 2.360606e-001 3.474005e-001 4.268284e-001 5.021404e-001 5.875939e-001 6.632402e-001 6.980012e-001 7.071049e-001 7.163418e-001 6.310445e-001 4.328481e-002
<GCONST> 5.243742e+001
<STATE> 4
<MEAN> 25
 -2.571378e+000 -1.609747e+000 -2.091063e+000 -4.643579e-001 -1.049556e+000 2.568528e-001 -8.449619e-002 -3.336053e-001 3.293602e-001 1.092783e+000 7.689453e-001 3.543015e-001 2.503732e-003 -1.404911e-004 5.348010e-003 -7.529051e-003 3.569293e-004 6.089807e-003 2.203531e-004 4.695394e-003 2.760893e-003 -1.315418e-003 7.383481e-003 -1.636948e-003 5.419481e-003
<VARIANCE> 25
 2.303419e+001 1.289013e+001 1.787428e+001 1.653849e+001 1.344899e+001 1.091430e+001 1.214458e+001 1.233956e+001 9.697402e+000 1.178271e+001 8.945695e+000 9.650523e+000 4.137164e-001 4.304017e-001 7.075731e-001 8.765457e-001 7.063552e-001 8.396646e-001 9.295272e-001 8.786079e-001 8.789514e-001 9.415473e-001 7.808185e-001 8.131329e-001 2.708831e-001
<GCONST> 7.164700e+001
<TRANSP> 5
 0.000000e+000 1.000000e+000 0.000000e+000 0.000000e+000 0.000000e+000
 0.000000e+000 9.560354e-001 4.396466e-002 0.000000e+000 0.000000e+000
 0.000000e+000 0.000000e+000 8.838385e-001 1.161615e-001 0.000000e+000
 0.000000e+000 0.000000e+000 0.000000e+000 9.876537e-001 1.234634e-002
 0.000000e+000 0.000000e+000 0.000000e+000 0.000000e+000 0.000000e+000
<ENDHMM>
